2.220951952040195465e-02,-1.575572788715362549e-02,-8.436255156993865967e-03,8.844174444675445557e-03,2.481222338974475861e-02,2.007070556282997131e-02,5.495592951774597168e-02,-4.090085625648498535e-02,5.864727124571800232e-02,8.977066725492477417e-03
2.220951952040195465e-02,-1.575572788715362549e-02,-8.436255156993865967e-03,8.844174444675445557e-03,2.481222338974475861e-02,2.007070556282997131e-02,5.495592951774597168e-02,-4.090085625648498535e-02,5.864727124571800232e-02,8.977066725492477417e-03
2.014524862170219421e-02,-1.427043136209249496e-02,-3.123803529888391495e-03,2.327754162251949310e-03,3.861235454678535461e-02,1.155311148613691330e-02,4.821559414267539978e-02,-3.649988025426864624e-02,5.811534449458122253e-02,6.683501880615949631e-03
2.014524862170219421e-02,-1.427043136209249496e-02,-3.123803529888391495e-03,2.327754162251949310e-03,3.861235454678535461e-02,1.155311148613691330e-02,4.821559414267539978e-02,-3.649988025426864624e-02,5.811534449458122253e-02,6.683501880615949631e-03
2.157801575958728790e-02,-7.762072142213582993e-03,-6.380149279721081257e-04,3.294368274509906769e-03,4.370429739356040955e-02,4.094083327800035477e-03,4.248891770839691162e-02,-3.874550387263298035e-02,5.919514596462249756e-02,5.084064789116382599e-03
2.157801575958728790e-02,-7.762072142213582993e-03,-6.380149279721081257e-04,3.294368274509906769e-03,4.370429739356040955e-02,4.094083327800035477e-03,4.248891770839691162e-02,-3.874550387263298035e-02,5.919514596462249756e-02,5.084064789116382599e-03
2.342095226049423218e-02,-7.001789053902029991e-04,-2.472728257998824120e-03,5.218558479100465775e-03,5.016398057341575623e-02,-2.604394219815731049e-03,3.977234661579132080e-02,-3.963643684983253479e-02,5.857057124376296997e-02,2.950767055153846741e-03
2.342095226049423218e-02,-7.001789053902029991e-04,-2.472728257998824120e-03,5.218558479100465775e-03,5.016398057341575623e-02,-2.604394219815731049e-03,3.977234661579132080e-02,-3.963643684983253479e-02,5.857057124376296997e-02,2.950767055153846741e-03
2.566844783723354340e-02,6.972849834710359573e-03,-4.829351790249347687e-03,5.222797859460115433e-03,5.347429588437080383e-02,-7.821698673069477081e-03,3.728604316711425781e-02,-3.887714073061943054e-02,5.948097258806228638e-02,1.190139213576912880e-03
2.566844783723354340e-02,6.972849834710359573e-03,-4.829351790249347687e-03,5.222797859460115433e-03,5.347429588437080383e-02,-7.821698673069477081e-03,3.728604316711425781e-02,-3.887714073061943054e-02,5.948097258806228638e-02,1.190139213576912880e-03
2.790722995996475220e-02,1.427933759987354279e-02,-4.941695835441350937e-03,3.990616649389266968e-03,5.544617399573326111e-02,-1.254111062735319138e-02,3.520462289452552795e-02,-3.857377916574478149e-02,5.924322456121444702e-02,1.033817185088992119e-03
2.790722995996475220e-02,1.427933759987354279e-02,-4.941695835441350937e-03,3.990616649389266968e-03,5.544617399573326111e-02,-1.254111062735319138e-02,3.520462289452552795e-02,-3.857377916574478149e-02,5.924322456121444702e-02,1.033817185088992119e-03
3.044336102902889252e-02,2.111307717859745026e-02,-6.334937643259763718e-03,2.091345842927694321e-03,5.759323760867118835e-02,-1.526685245335102081e-02,3.296539932489395142e-02,-3.823798149824142456e-02,5.832997336983680725e-02,1.612122985534369946e-03
3.044336102902889252e-02,2.111307717859745026e-02,-6.334937643259763718e-03,2.091345842927694321e-03,5.759323760867118835e-02,-1.526685245335102081e-02,3.296539932489395142e-02,-3.823798149824142456e-02,5.832997336983680725e-02,1.612122985534369946e-03
3.284681960940361023e-02,2.750202268362045288e-02,-8.506574667990207672e-03,1.543163903988897800e-03,5.813558399677276611e-02,-1.656442321836948395e-02,3.211371600627899170e-02,-3.605015575885772705e-02,5.546486377716064453e-02,1.700485707260668278e-03
3.284681960940361023e-02,2.750202268362045288e-02,-8.506574667990207672e-03,1.543163903988897800e-03,5.813558399677276611e-02,-1.656442321836948395e-02,3.211371600627899170e-02,-3.605015575885772705e-02,5.546486377716064453e-02,1.700485707260668278e-03
3.357555717229843140e-02,3.318456560373306274e-02,-7.841412909328937531e-03,-2.297087194165214896e-04,5.904359370470046997e-02,-1.964917220175266266e-02,3.001822531223297119e-02,-3.530899807810783386e-02,5.449802428483963013e-02,3.310615196824073792e-03
3.357555717229843140e-02,3.318456560373306274e-02,-7.841412909328937531e-03,-2.297087194165214896e-04,5.904359370470046997e-02,-1.964917220175266266e-02,3.001822531223297119e-02,-3.530899807810783386e-02,5.449802428483963013e-02,3.310615196824073792e-03
3.595243766903877258e-02,3.787770494818687439e-02,-7.454401347786188126e-03,-1.380499685183167458e-03,5.903812497854232788e-02,-2.150419354438781738e-02,2.909696474671363831e-02,-3.448135778307914734e-02,5.223457142710685730e-02,4.248562734574079514e-03
3.595243766903877258e-02,3.787770494818687439e-02,-7.454401347786188126e-03,-1.380499685183167458e-03,5.903812497854232788e-02,-2.150419354438781738e-02,2.909696474671363831e-02,-3.448135778307914734e-02,5.223457142710685730e-02,4.248562734574079514e-03
3.722656145691871643e-02,4.405539855360984802e-02,-7.752884645015001297e-03,-2.248367061838507652e-03,5.851709097623825073e-02,-2.200732380151748657e-02,2.710549533367156982e-02,-3.342621400952339172e-02,4.949649050831794739e-02,5.657773464918136597e-03
3.722656145691871643e-02,4.405539855360984802e-02,-7.752884645015001297e-03,-2.248367061838507652e-03,5.851709097623825073e-02,-2.200732380151748657e-02,2.710549533367156982e-02,-3.342621400952339172e-02,4.949649050831794739e-02,5.657773464918136597e-03
3.699738904833793640e-02,4.715541005134582520e-02,-8.530681021511554718e-03,-1.177339698188006878e-03,5.860430374741554260e-02,-2.252895198762416840e-02,2.546970732510089874e-02,-3.176173195242881775e-02,4.671254381537437439e-02,6.789755076169967651e-03
3.699738904833793640e-02,4.715541005134582520e-02,-8.530681021511554718e-03,-1.177339698188006878e-03,5.860430374741554260e-02,-2.252895198762416840e-02,2.546970732510089874e-02,-3.176173195242881775e-02,4.671254381537437439e-02,6.789755076169967651e-03
3.867769241333007812e-02,5.077448114752769470e-02,-8.270893245935440063e-03,-2.041949657723307610e-03,5.598472431302070618e-02,-2.332178317010402679e-02,2.427638508379459381e-02,-3.028837777674198151e-02,4.572386667132377625e-02,7.945083081722259521e-03
3.867769241333007812e-02,5.077448114752769470e-02,-8.270893245935440063e-03,-2.041949657723307610e-03,5.598472431302070618e-02,-2.332178317010402679e-02,2.427638508379459381e-02,-3.028837777674198151e-02,4.572386667132377625e-02,7.945083081722259521e-03
3.882523253560066223e-02,5.328209325671195984e-02,-6.940860766917467117e-03,-3.115573665127158165e-03,5.518209934234619141e-02,-2.278809808194637299e-02,2.509937994182109833e-02,-2.851710096001625061e-02,4.098539799451828003e-02,9.250817820429801941e-03
3.882523253560066223e-02,5.328209325671195984e-02,-6.940860766917467117e-03,-3.115573665127158165e-03,5.518209934234619141e-02,-2.278809808194637299e-02,2.509937994182109833e-02,-2.851710096001625061e-02,4.098539799451828003e-02,9.250817820429801941e-03
3.918204456567764282e-02,5.825074762105941772e-02,-6.473346147686243057e-03,-3.163955872878432274e-03,5.535073950886726379e-02,-2.289845421910285950e-02,2.173143438994884491e-02,-2.808899246156215668e-02,3.907920420169830322e-02,9.712394326925277710e-03
3.918204456567764282e-02,5.825074762105941772e-02,-6.473346147686243057e-03,-3.163955872878432274e-03,5.535073950886726379e-02,-2.289845421910285950e-02,2.173143438994884491e-02,-2.808899246156215668e-02,3.907920420169830322e-02,9.712394326925277710e-03
4.119943827390670776e-02,5.899619311094284058e-02,-6.770787294954061508e-03,-4.972300957888364792e-03,5.397162213921546936e-02,-2.340902574360370636e-02,2.196459285914897919e-02,-2.601829171180725098e-02,3.786861896514892578e-02,1.121306512504816055e-02
4.119943827390670776e-02,5.899619311094284058e-02,-6.770787294954061508e-03,-4.972300957888364792e-03,5.397162213921546936e-02,-2.340902574360370636e-02,2.196459285914897919e-02,-2.601829171180725098e-02,3.786861896514892578e-02,1.121306512504816055e-02
4.111035168170928955e-02,6.309803575277328491e-02,-5.985702387988567352e-03,-4.910025745630264282e-03,5.259817838668823242e-02,-2.384559065103530884e-02,2.147101052105426788e-02,-2.471939846873283386e-02,3.459544479846954346e-02,1.223873440176248550e-02
4.111035168170928955e-02,6.309803575277328491e-02,-5.985702387988567352e-03,-4.910025745630264282e-03,5.259817838668823242e-02,-2.384559065103530884e-02,2.147101052105426788e-02,-2.471939846873283386e-02,3.459544479846954346e-02,1.223873440176248550e-02
4.218002036213874817e-02,6.398770958185195923e-02,-5.922845099121332169e-03,-4.983708262443542480e-03,5.281384661793708801e-02,-2.268256992101669312e-02,2.123985998332500458e-02,-2.399956434965133667e-02,3.090860508382320404e-02,1.304120104759931564e-02
4.218002036213874817e-02,6.398770958185195923e-02,-5.922845099121332169e-03,-4.983708262443542480e-03,5.281384661793708801e-02,-2.268256992101669312e-02,2.123985998332500458e-02,-2.399956434965133667e-02,3.090860508382320404e-02,1.304120104759931564e-02
4.234562814235687256e-02,6.706538051366806030e-02,-4.623212851583957672e-03,-5.584424361586570740e-03,5.229935795068740845e-02,-2.326338924467563629e-02,2.069482579827308655e-02,-2.406861074268817902e-02,2.822690084576606750e-02,1.476245652884244919e-02
4.234562814235687256e-02,6.706538051366806030e-02,-4.623212851583957672e-03,-5.584424361586570740e-03,5.229935795068740845e-02,-2.326338924467563629e-02,2.069482579827308655e-02,-2.406861074268817902e-02,2.822690084576606750e-02,1.476245652884244919e-02
4.308042302727699280e-02,6.988963484764099121e-02,-4.349146038293838501e-03,-6.843276321887969971e-03,5.126219615340232849e-02,-2.455549314618110657e-02,2.111876383423805237e-02,-2.287374250590801239e-02,2.808028273284435272e-02,1.495860051363706589e-02
4.308042302727699280e-02,6.988963484764099121e-02,-4.349146038293838501e-03,-6.843276321887969971e-03,5.126219615340232849e-02,-2.455549314618110657e-02,2.111876383423805237e-02,-2.287374250590801239e-02,2.808028273284435272e-02,1.495860051363706589e-02
4.159146919846534729e-02,7.047053426504135132e-02,-3.621428506448864937e-03,-6.473740562796592712e-03,4.957739263772964478e-02,-2.303320355713367462e-02,2.003389969468116760e-02,-2.061114460229873657e-02,2.476600930094718933e-02,1.592234522104263306e-02
4.159146919846534729e-02,7.047053426504135132e-02,-3.621428506448864937e-03,-6.473740562796592712e-03,4.957739263772964478e-02,-2.303320355713367462e-02,2.003389969468116760e-02,-2.061114460229873657e-02,2.476600930094718933e-02,1.592234522104263306e-02
4.285959154367446899e-02,7.204519957304000854e-02,-1.861629192717373371e-03,-7.515581790357828140e-03,4.916618019342422485e-02,-2.370973117649555206e-02,2.006269060075283051e-02,-1.998715847730636597e-02,2.144830860197544098e-02,1.733948849141597748e-02
4.285959154367446899e-02,7.204519957304000854e-02,-1.861629192717373371e-03,-7.515581790357828140e-03,4.916618019342422485e-02,-2.370973117649555206e-02,2.006269060075283051e-02,-1.998715847730636597e-02,2.144830860197544098e-02,1.733948849141597748e-02
4.372375458478927612e-02,7.344496995210647583e-02,-1.354642328806221485e-03,-7.860581390559673309e-03,4.887733235955238342e-02,-2.368576452136039734e-02,1.976940408349037170e-02,-2.038081549108028412e-02,1.971670240163803101e-02,1.838214136660099030e-02
4.372375458478927612e-02,7.344496995210647583e-02,-1.354642328806221485e-03,-7.860581390559673309e-03,4.887733235955238342e-02,-2.368576452136039734e-02,1.976940408349037170e-02,-2.038081549108028412e-02,1.971670240163803101e-02,1.838214136660099030e-02
4.399457573890686035e-02,7.449421286582946777e-02,-1.761681400239467621e-03,-7.481424137949943542e-03,4.776857793331146240e-02,-2.490248344838619232e-02,2.014263533055782318e-02,-1.873607002198696136e-02,1.860086806118488312e-02,1.901238597929477692e-02
4.399457573890686035e-02,7.449421286582946777e-02,-1.761681400239467621e-03,-7.481424137949943542e-03,4.776857793331146240e-02,-2.490248344838619232e-02,2.014263533055782318e-02,-1.873607002198696136e-02,1.860086806118488312e-02,1.901238597929477692e-02
4.459978640079498291e-02,7.805562019348144531e-02,-5.148485070094466209e-04,-8.214614354074001312e-03,4.520883411169052124e-02,-2.483576536178588867e-02,1.960265636444091797e-02,-1.661249622702598572e-02,1.599157787859439850e-02,1.924949511885643005e-02
4.459978640079498291e-02,7.805562019348144531e-02,-5.148485070094466209e-04,-8.214614354074001312e-03,4.520883411169052124e-02,-2.483576536178588867e-02,1.960265636444091797e-02,-1.661249622702598572e-02,1.599157787859439850e-02,1.924949511885643005e-02
4.342260956764221191e-02,7.716996967792510986e-02,2.696458832360804081e-04,-9.149300865828990936e-03,4.580255225300788879e-02,-2.378862723708152771e-02,1.991593092679977417e-02,-1.726115494966506958e-02,1.498532388359308243e-02,2.046402357518672943e-02
4.342260956764221191e-02,7.716996967792510986e-02,2.696458832360804081e-04,-9.149300865828990936e-03,4.580255225300788879e-02,-2.378862723708152771e-02,1.991593092679977417e-02,-1.726115494966506958e-02,1.498532388359308243e-02,2.046402357518672943e-02
4.413048923015594482e-02,7.946009933948516846e-02,7.802724139764904976e-04,-9.787301532924175262e-03,4.490110278129577637e-02,-2.480101771652698517e-02,1.947886496782302856e-02,-1.583260670304298401e-02,1.377397403120994568e-02,2.081795036792755127e-02
4.413048923015594482e-02,7.946009933948516846e-02,7.802724139764904976e-04,-9.787301532924175262e-03,4.490110278129577637e-02,-2.480101771652698517e-02,1.947886496782302856e-02,-1.583260670304298401e-02,1.377397403120994568e-02,2.081795036792755127e-02
4.303703457117080688e-02,7.932493835687637329e-02,2.224251162260770798e-03,-1.033071707934141159e-02,4.531204327940940857e-02,-2.431351691484451294e-02,2.183788456022739410e-02,-1.534188818186521530e-02,1.070243958383798599e-02,2.094391733407974243e-02
4.303703457117080688e-02,7.932493835687637329e-02,2.224251162260770798e-03,-1.033071707934141159e-02,4.531204327940940857e-02,-2.431351691484451294e-02,2.183788456022739410e-02,-1.534188818186521530e-02,1.070243958383798599e-02,2.094391733407974243e-02
4.410922899842262268e-02,8.076833188533782959e-02,1.608532038517296314e-03,-9.663419798016548157e-03,4.515650495886802673e-02,-2.458772622048854828e-02,2.055641449987888336e-02,-1.404249202460050583e-02,8.735055103898048401e-03,2.120090089738368988e-02
4.410922899842262268e-02,8.076833188533782959e-02,1.608532038517296314e-03,-9.663419798016548157e-03,4.515650495886802673e-02,-2.458772622048854828e-02,2.055641449987888336e-02,-1.404249202460050583e-02,8.735055103898048401e-03,2.120090089738368988e-02
4.329613223671913147e-02,8.324091881513595581e-02,1.787035376764833927e-03,-1.036034058779478073e-02,4.422070458531379700e-02,-2.392535656690597534e-02,2.007858641445636749e-02,-1.409631222486495972e-02,8.061633445322513580e-03,2.210980467498302460e-02
4.329613223671913147e-02,8.324091881513595581e-02,1.787035376764833927e-03,-1.036034058779478073e-02,4.422070458531379700e-02,-2.392535656690597534e-02,2.007858641445636749e-02,-1.409631222486495972e-02,8.061633445322513580e-03,2.210980467498302460e-02
