4.925258085131645203e-02,5.278858169913291931e-02,-3.094658814370632172e-02,1.404754165560007095e-02,1.188078336417675018e-02,1.021505449898540974e-03,-5.088769644498825073e-02,5.759980902075767517e-02,-1.848005875945091248e-02,2.549827843904495239e-02
4.925258085131645203e-02,5.278858169913291931e-02,-3.094658814370632172e-02,1.404754165560007095e-02,1.188078336417675018e-02,1.021505449898540974e-03,-5.088769644498825073e-02,5.759980902075767517e-02,-1.848005875945091248e-02,2.549827843904495239e-02
5.107901245355606079e-02,5.516120791435241699e-02,-3.384970128536224365e-02,5.460595712065696716e-03,1.522623747587203979e-02,-5.952772218734025955e-03,-5.959860235452651978e-02,6.766817718744277954e-02,-1.281045936048030853e-02,2.909975312650203705e-02
5.107901245355606079e-02,5.516120791435241699e-02,-3.384970128536224365e-02,5.460595712065696716e-03,1.522623747587203979e-02,-5.952772218734025955e-03,-5.959860235452651978e-02,6.766817718744277954e-02,-1.281045936048030853e-02,2.909975312650203705e-02
5.452722683548927307e-02,6.187260150909423828e-02,-3.630799427628517151e-02,9.419564157724380493e-04,1.378709916025400162e-02,-1.065365038812160492e-02,-6.565674394369125366e-02,7.328848540782928467e-02,-9.672480635344982147e-03,3.142653778195381165e-02
5.452722683548927307e-02,6.187260150909423828e-02,-3.630799427628517151e-02,9.419564157724380493e-04,1.378709916025400162e-02,-1.065365038812160492e-02,-6.565674394369125366e-02,7.328848540782928467e-02,-9.672480635344982147e-03,3.142653778195381165e-02
5.668858811259269714e-02,6.791705638170242310e-02,-4.064036160707473755e-02,-1.037099282257258892e-03,1.386246830224990845e-02,-1.532316952943801880e-02,-6.929919123649597168e-02,7.882252335548400879e-02,-8.319594897329807281e-03,3.362442925572395325e-02
5.668858811259269714e-02,6.791705638170242310e-02,-4.064036160707473755e-02,-1.037099282257258892e-03,1.386246830224990845e-02,-1.532316952943801880e-02,-6.929919123649597168e-02,7.882252335548400879e-02,-8.319594897329807281e-03,3.362442925572395325e-02
5.891202762722969055e-02,7.442998886108398438e-02,-4.515618830919265747e-02,-2.493149135261774063e-03,1.236930303275585175e-02,-1.831133104860782623e-02,-7.248225808143615723e-02,8.316372334957122803e-02,-6.278879940509796143e-03,3.520516306161880493e-02
5.891202762722969055e-02,7.442998886108398438e-02,-4.515618830919265747e-02,-2.493149135261774063e-03,1.236930303275585175e-02,-1.831133104860782623e-02,-7.248225808143615723e-02,8.316372334957122803e-02,-6.278879940509796143e-03,3.520516306161880493e-02
6.038519740104675293e-02,7.749859243631362915e-02,-4.806975275278091431e-02,-4.158958792686462402e-03,1.186672691255807877e-02,-1.937058940529823303e-02,-7.458724081516265869e-02,8.671770244836807251e-02,-4.340759944170713425e-03,3.506540134549140930e-02
6.038519740104675293e-02,7.749859243631362915e-02,-4.806975275278091431e-02,-4.158958792686462402e-03,1.186672691255807877e-02,-1.937058940529823303e-02,-7.458724081516265869e-02,8.671770244836807251e-02,-4.340759944170713425e-03,3.506540134549140930e-02
6.055778637528419495e-02,8.152116835117340088e-02,-5.186494439840316772e-02,-4.390181042253971100e-03,1.049886643886566162e-02,-1.901290379464626312e-02,-7.648468017578125000e-02,8.870502561330795288e-02,-4.156521987169981003e-03,3.718199953436851501e-02
6.055778637528419495e-02,8.152116835117340088e-02,-5.186494439840316772e-02,-4.390181042253971100e-03,1.049886643886566162e-02,-1.901290379464626312e-02,-7.648468017578125000e-02,8.870502561330795288e-02,-4.156521987169981003e-03,3.718199953436851501e-02
6.145039200782775879e-02,8.334434032440185547e-02,-5.576094985008239746e-02,-4.868676420301198959e-03,8.668954484164714813e-03,-1.793755218386650085e-02,-7.632294297218322754e-02,9.283177554607391357e-02,-3.958630841225385666e-03,3.683296591043472290e-02
6.145039200782775879e-02,8.334434032440185547e-02,-5.576094985008239746e-02,-4.868676420301198959e-03,8.668954484164714813e-03,-1.793755218386650085e-02,-7.632294297218322754e-02,9.283177554607391357e-02,-3.958630841225385666e-03,3.683296591043472290e-02
6.173588708043098450e-02,8.659747242927551270e-02,-5.612082779407501221e-02,-7.344398647546768188e-03,7.047583349049091339e-03,-1.684422045946121216e-02,-7.622180134057998657e-02,9.431255608797073364e-02,-4.883835557848215103e-03,3.783559054136276245e-02
6.173588708043098450e-02,8.659747242927551270e-02,-5.612082779407501221e-02,-7.344398647546768188e-03,7.047583349049091339e-03,-1.684422045946121216e-02,-7.622180134057998657e-02,9.431255608797073364e-02,-4.883835557848215103e-03,3.783559054136276245e-02
6.213847920298576355e-02,8.759360015392303467e-02,-5.775865912437438965e-02,-7.577635347843170166e-03,6.191163323819637299e-03,-1.587351970374584198e-02,-7.655861228704452515e-02,9.590759873390197754e-02,-5.443343892693519592e-03,3.816942870616912842e-02
6.213847920298576355e-02,8.759360015392303467e-02,-5.775865912437438965e-02,-7.577635347843170166e-03,6.191163323819637299e-03,-1.587351970374584198e-02,-7.655861228704452515e-02,9.590759873390197754e-02,-5.443343892693519592e-03,3.816942870616912842e-02
6.222736462950706482e-02,9.292769432067871094e-02,-5.941601842641830444e-02,-9.867509827017784119e-03,4.429379012435674667e-03,-1.398006360977888107e-02,-7.706405967473983765e-02,9.784401953220367432e-02,-6.532479077577590942e-03,3.880206122994422913e-02
6.222736462950706482e-02,9.292769432067871094e-02,-5.941601842641830444e-02,-9.867509827017784119e-03,4.429379012435674667e-03,-1.398006360977888107e-02,-7.706405967473983765e-02,9.784401953220367432e-02,-6.532479077577590942e-03,3.880206122994422913e-02
6.248445436358451843e-02,9.497296810150146484e-02,-6.206827610731124878e-02,-9.850692003965377808e-03,5.614054389297962189e-03,-1.391426101326942444e-02,-7.953263074159622192e-02,9.972291439771652222e-02,-7.379875052720308304e-03,3.999024629592895508e-02
6.248445436358451843e-02,9.497296810150146484e-02,-6.206827610731124878e-02,-9.850692003965377808e-03,5.614054389297962189e-03,-1.391426101326942444e-02,-7.953263074159622192e-02,9.972291439771652222e-02,-7.379875052720308304e-03,3.999024629592895508e-02
6.045135855674743652e-02,9.591304510831832886e-02,-6.201344728469848633e-02,-1.265641208738088608e-02,5.401537753641605377e-03,-1.118292193859815598e-02,-8.012540638446807861e-02,1.007075086236000061e-01,-7.658706046640872955e-03,4.082520306110382080e-02
6.045135855674743652e-02,9.591304510831832886e-02,-6.201344728469848633e-02,-1.265641208738088608e-02,5.401537753641605377e-03,-1.118292193859815598e-02,-8.012540638446807861e-02,1.007075086236000061e-01,-7.658706046640872955e-03,4.082520306110382080e-02
5.908482149243354797e-02,9.759133309125900269e-02,-6.233768165111541748e-02,-1.327049918472766876e-02,3.384707029908895493e-03,-1.014281064271926880e-02,-7.832765579223632812e-02,1.025943607091903687e-01,-1.040346454828977585e-02,4.233649745583534241e-02
5.908482149243354797e-02,9.759133309125900269e-02,-6.233768165111541748e-02,-1.327049918472766876e-02,3.384707029908895493e-03,-1.014281064271926880e-02,-7.832765579223632812e-02,1.025943607091903687e-01,-1.040346454828977585e-02,4.233649745583534241e-02
5.889121815562248230e-02,9.999131411314010620e-02,-6.298507750034332275e-02,-1.393569260835647583e-02,3.273552283644676208e-03,-9.723050519824028015e-03,-8.035816252231597900e-02,1.040232926607131958e-01,-1.097663212567567825e-02,4.275071248412132263e-02
5.889121815562248230e-02,9.999131411314010620e-02,-6.298507750034332275e-02,-1.393569260835647583e-02,3.273552283644676208e-03,-9.723050519824028015e-03,-8.035816252231597900e-02,1.040232926607131958e-01,-1.097663212567567825e-02,4.275071248412132263e-02
6.175379082560539246e-02,9.832505881786346436e-02,-6.291675567626953125e-02,-1.416032481938600540e-02,3.483787644654512405e-03,-7.548140361905097961e-03,-8.234131336212158203e-02,1.027451753616333008e-01,-1.263289991766214371e-02,4.358874633908271790e-02
6.175379082560539246e-02,9.832505881786346436e-02,-6.291675567626953125e-02,-1.416032481938600540e-02,3.483787644654512405e-03,-7.548140361905097961e-03,-8.234131336212158203e-02,1.027451753616333008e-01,-1.263289991766214371e-02,4.358874633908271790e-02
6.056411191821098328e-02,9.861566871404647827e-02,-6.302461773157119751e-02,-1.545659638941287994e-02,3.707948140799999237e-03,-8.311898447573184967e-03,-8.123538643121719360e-02,1.027823239564895630e-01,-1.102387253195047379e-02,4.399867728352546692e-02
6.056411191821098328e-02,9.861566871404647827e-02,-6.302461773157119751e-02,-1.545659638941287994e-02,3.707948140799999237e-03,-8.311898447573184967e-03,-8.123538643121719360e-02,1.027823239564895630e-01,-1.102387253195047379e-02,4.399867728352546692e-02
6.248908117413520813e-02,1.035861447453498840e-01,-6.445818394422531128e-02,-1.579187251627445221e-02,3.258185926824808121e-03,-7.282732985913753510e-03,-8.355831354856491089e-02,1.048436388373374939e-01,-1.461902260780334473e-02,4.449998587369918823e-02
6.248908117413520813e-02,1.035861447453498840e-01,-6.445818394422531128e-02,-1.579187251627445221e-02,3.258185926824808121e-03,-7.282732985913753510e-03,-8.355831354856491089e-02,1.048436388373374939e-01,-1.461902260780334473e-02,4.449998587369918823e-02
6.238813698291778564e-02,1.034482493996620178e-01,-6.360787898302078247e-02,-1.785224303603172302e-02,2.252035774290561676e-03,-7.217252627015113831e-03,-8.307693898677825928e-02,1.057496815919876099e-01,-1.414142549037933350e-02,4.498219117522239685e-02
6.238813698291778564e-02,1.034482493996620178e-01,-6.360787898302078247e-02,-1.785224303603172302e-02,2.252035774290561676e-03,-7.217252627015113831e-03,-8.307693898677825928e-02,1.057496815919876099e-01,-1.414142549037933350e-02,4.498219117522239685e-02
6.322190910577774048e-02,1.097785457968711853e-01,-6.584672629833221436e-02,-1.791712269186973572e-02,3.156951861456036568e-04,-9.111191146075725555e-03,-8.270414173603057861e-02,1.084942892193794250e-01,-1.467943657189607620e-02,4.484216868877410889e-02
6.322190910577774048e-02,1.097785457968711853e-01,-6.584672629833221436e-02,-1.791712269186973572e-02,3.156951861456036568e-04,-9.111191146075725555e-03,-8.270414173603057861e-02,1.084942892193794250e-01,-1.467943657189607620e-02,4.484216868877410889e-02
5.898797884583473206e-02,1.073819771409034729e-01,-6.655016541481018066e-02,-1.798524148762226105e-02,1.223467057570815086e-03,-4.477101843804121017e-03,-8.302403986454010010e-02,1.101476848125457764e-01,-1.790339499711990356e-02,4.599117115139961243e-02
5.898797884583473206e-02,1.073819771409034729e-01,-6.655016541481018066e-02,-1.798524148762226105e-02,1.223467057570815086e-03,-4.477101843804121017e-03,-8.302403986454010010e-02,1.101476848125457764e-01,-1.790339499711990356e-02,4.599117115139961243e-02
6.024673953652381897e-02,1.087601631879806519e-01,-6.523427367210388184e-02,-2.345203608274459839e-02,1.744000357575714588e-03,-4.771341104060411453e-03,-8.490336686372756958e-02,1.108500659465789795e-01,-1.748637482523918152e-02,4.871378839015960693e-02
6.024673953652381897e-02,1.087601631879806519e-01,-6.523427367210388184e-02,-2.345203608274459839e-02,1.744000357575714588e-03,-4.771341104060411453e-03,-8.490336686372756958e-02,1.108500659465789795e-01,-1.748637482523918152e-02,4.871378839015960693e-02
6.373830139636993408e-02,1.085553988814353943e-01,-6.784296780824661255e-02,-1.849025860428810120e-02,2.049369504675269127e-03,-6.763202603906393051e-03,-8.828397095203399658e-02,1.110362783074378967e-01,-1.873478293418884277e-02,4.857689887285232544e-02
6.373830139636993408e-02,1.085553988814353943e-01,-6.784296780824661255e-02,-1.849025860428810120e-02,2.049369504675269127e-03,-6.763202603906393051e-03,-8.828397095203399658e-02,1.110362783074378967e-01,-1.873478293418884277e-02,4.857689887285232544e-02
6.436758488416671753e-02,1.134975776076316833e-01,-6.912268698215484619e-02,-2.300707809627056122e-02,4.846943076699972153e-03,-3.728877985849976540e-03,-9.215854853391647339e-02,1.082000806927680969e-01,-1.945970952510833740e-02,5.260333791375160217e-02
6.436758488416671753e-02,1.134975776076316833e-01,-6.912268698215484619e-02,-2.300707809627056122e-02,4.846943076699972153e-03,-3.728877985849976540e-03,-9.215854853391647339e-02,1.082000806927680969e-01,-1.945970952510833740e-02,5.260333791375160217e-02
6.007441505789756775e-02,1.186458319425582886e-01,-7.012055814266204834e-02,-2.445767447352409363e-02,2.105803228914737701e-03,-3.555592615157365799e-03,-9.480781853199005127e-02,1.195349022746086121e-01,-2.412910014390945435e-02,5.246158689260482788e-02
6.007441505789756775e-02,1.186458319425582886e-01,-7.012055814266204834e-02,-2.445767447352409363e-02,2.105803228914737701e-03,-3.555592615157365799e-03,-9.480781853199005127e-02,1.195349022746086121e-01,-2.412910014390945435e-02,5.246158689260482788e-02
5.945480614900588989e-02,1.151032000780105591e-01,-7.262416183948516846e-02,-2.213894762098789215e-02,-8.135477080941200256e-03,-5.418669315986335278e-04,-9.474360197782516479e-02,1.160481646656990051e-01,-2.189679257571697235e-02,6.036264449357986450e-02
5.945480614900588989e-02,1.151032000780105591e-01,-7.262416183948516846e-02,-2.213894762098789215e-02,-8.135477080941200256e-03,-5.418669315986335278e-04,-9.474360197782516479e-02,1.160481646656990051e-01,-2.189679257571697235e-02,6.036264449357986450e-02
6.516528874635696411e-02,1.192077025771141052e-01,-7.938276231288909912e-02,-2.515864558517932892e-02,-2.737796865403652191e-03,8.845448028296232224e-04,-9.006915241479873657e-02,1.204794868826866150e-01,-2.939241379499435425e-02,6.034064665436744690e-02
6.516528874635696411e-02,1.192077025771141052e-01,-7.938276231288909912e-02,-2.515864558517932892e-02,-2.737796865403652191e-03,8.845448028296232224e-04,-9.006915241479873657e-02,1.204794868826866150e-01,-2.939241379499435425e-02,6.034064665436744690e-02
5.785656347870826721e-02,1.243082806468009949e-01,-7.476618140935897827e-02,-2.855138480663299561e-02,5.268258042633533478e-03,-3.435859922319650650e-03,-8.332028239965438843e-02,1.153279393911361694e-01,-2.750421687960624695e-02,5.835396423935890198e-02
5.785656347870826721e-02,1.243082806468009949e-01,-7.476618140935897827e-02,-2.855138480663299561e-02,5.268258042633533478e-03,-3.435859922319650650e-03,-8.332028239965438843e-02,1.153279393911361694e-01,-2.750421687960624695e-02,5.835396423935890198e-02
6.137263774871826172e-02,1.270498782396316528e-01,-8.514560014009475708e-02,-3.539055585861206055e-02,1.030859071761369705e-02,4.517768975347280502e-03,-8.280246704816818237e-02,1.264754235744476318e-01,-3.583025187253952026e-02,5.899213626980781555e-02
6.137263774871826172e-02,1.270498782396316528e-01,-8.514560014009475708e-02,-3.539055585861206055e-02,1.030859071761369705e-02,4.517768975347280502e-03,-8.280246704816818237e-02,1.264754235744476318e-01,-3.583025187253952026e-02,5.899213626980781555e-02
6.467936187982559204e-02,1.296302080154418945e-01,-9.699331969022750854e-02,-4.155067726969718933e-02,1.510903518646955490e-02,-2.259756624698638916e-02,-9.062179177999496460e-02,1.373485922813415527e-01,-4.446879774332046509e-02,9.551222622394561768e-02
6.467936187982559204e-02,1.296302080154418945e-01,-9.699331969022750854e-02,-4.155067726969718933e-02,1.510903518646955490e-02,-2.259756624698638916e-02,-9.062179177999496460e-02,1.373485922813415527e-01,-4.446879774332046509e-02,9.551222622394561768e-02
