9.527161717414855957e-03,-2.432893496006727219e-03,-3.637911751866340637e-02,-3.005351312458515167e-02,4.315589368343353271e-02,-6.565356999635696411e-02,-4.538386687636375427e-02,6.349253002554178238e-03,-2.994283102452754974e-02,1.356253400444984436e-02
9.527161717414855957e-03,-2.432893496006727219e-03,-3.637911751866340637e-02,-3.005351312458515167e-02,4.315589368343353271e-02,-6.565356999635696411e-02,-4.538386687636375427e-02,6.349253002554178238e-03,-2.994283102452754974e-02,1.356253400444984436e-02
1.385134272277355194e-02,3.691962221637368202e-03,-3.719840571284294128e-02,-3.735146671533584595e-02,4.840988665819168091e-02,-7.655273377895355225e-02,-5.165578052401542664e-02,1.158578414469957352e-02,-2.597681432962417603e-02,1.456312462687492371e-02
1.385134272277355194e-02,3.691962221637368202e-03,-3.719840571284294128e-02,-3.735146671533584595e-02,4.840988665819168091e-02,-7.655273377895355225e-02,-5.165578052401542664e-02,1.158578414469957352e-02,-2.597681432962417603e-02,1.456312462687492371e-02
1.897791773080825806e-02,1.016906090080738068e-02,-3.892498463392257690e-02,-4.155003279447555542e-02,5.046487972140312195e-02,-8.281151205301284790e-02,-5.850619077682495117e-02,1.433058176189661026e-02,-2.382805570960044861e-02,1.673590205609798431e-02
1.897791773080825806e-02,1.016906090080738068e-02,-3.892498463392257690e-02,-4.155003279447555542e-02,5.046487972140312195e-02,-8.281151205301284790e-02,-5.850619077682495117e-02,1.433058176189661026e-02,-2.382805570960044861e-02,1.673590205609798431e-02
2.223936840891838074e-02,1.651333086192607880e-02,-4.220655187964439392e-02,-4.446690157055854797e-02,5.355466529726982117e-02,-8.821190893650054932e-02,-6.226070597767829895e-02,1.534372847527265549e-02,-2.171305939555168152e-02,1.871596463024616241e-02
2.223936840891838074e-02,1.651333086192607880e-02,-4.220655187964439392e-02,-4.446690157055854797e-02,5.355466529726982117e-02,-8.821190893650054932e-02,-6.226070597767829895e-02,1.534372847527265549e-02,-2.171305939555168152e-02,1.871596463024616241e-02
2.492778934538364410e-02,2.388465218245983124e-02,-4.539670795202255249e-02,-4.593663662672042847e-02,5.368929356336593628e-02,-9.236786514520645142e-02,-6.438826024532318115e-02,1.826331764459609985e-02,-2.120272815227508545e-02,2.001199498772621155e-02
2.492778934538364410e-02,2.388465218245983124e-02,-4.539670795202255249e-02,-4.593663662672042847e-02,5.368929356336593628e-02,-9.236786514520645142e-02,-6.438826024532318115e-02,1.826331764459609985e-02,-2.120272815227508545e-02,2.001199498772621155e-02
2.672855369746685028e-02,2.966213412582874298e-02,-4.697754979133605957e-02,-4.933510720729827881e-02,5.495165660977363586e-02,-9.589469432830810547e-02,-6.643002480268478394e-02,2.049750275909900665e-02,-2.054589986801147461e-02,2.191583067178726196e-02
2.672855369746685028e-02,2.966213412582874298e-02,-4.697754979133605957e-02,-4.933510720729827881e-02,5.495165660977363586e-02,-9.589469432830810547e-02,-6.643002480268478394e-02,2.049750275909900665e-02,-2.054589986801147461e-02,2.191583067178726196e-02
2.945335209369659424e-02,3.485861793160438538e-02,-4.972194880247116089e-02,-5.239416286349296570e-02,5.597561970353126526e-02,-9.997197985649108887e-02,-6.785899400711059570e-02,2.341616153717041016e-02,-1.984524540603160858e-02,2.438227832317352295e-02
2.945335209369659424e-02,3.485861793160438538e-02,-4.972194880247116089e-02,-5.239416286349296570e-02,5.597561970353126526e-02,-9.997197985649108887e-02,-6.785899400711059570e-02,2.341616153717041016e-02,-1.984524540603160858e-02,2.438227832317352295e-02
3.129284083843231201e-02,4.040412977337837219e-02,-5.311418697237968445e-02,-5.427594482898712158e-02,5.576608330011367798e-02,-1.018305420875549316e-01,-6.687908619642257690e-02,2.523969300091266632e-02,-1.924645155668258667e-02,2.503733523190021515e-02
3.129284083843231201e-02,4.040412977337837219e-02,-5.311418697237968445e-02,-5.427594482898712158e-02,5.576608330011367798e-02,-1.018305420875549316e-01,-6.687908619642257690e-02,2.523969300091266632e-02,-1.924645155668258667e-02,2.503733523190021515e-02
3.235978260636329651e-02,4.632489755749702454e-02,-5.458138138055801392e-02,-5.631292983889579773e-02,5.585772544145584106e-02,-1.049818173050880432e-01,-6.774921715259552002e-02,2.825614809989929199e-02,-1.923235319554805756e-02,2.619810588657855988e-02
3.235978260636329651e-02,4.632489755749702454e-02,-5.458138138055801392e-02,-5.631292983889579773e-02,5.585772544145584106e-02,-1.049818173050880432e-01,-6.774921715259552002e-02,2.825614809989929199e-02,-1.923235319554805756e-02,2.619810588657855988e-02
3.503626585006713867e-02,5.139961093664169312e-02,-5.596558749675750732e-02,-5.863992497324943542e-02,5.559017881751060486e-02,-1.074559241533279419e-01,-6.685642898082733154e-02,3.017107583582401276e-02,-1.999947614967823029e-02,2.734858542680740356e-02
3.503626585006713867e-02,5.139961093664169312e-02,-5.596558749675750732e-02,-5.863992497324943542e-02,5.559017881751060486e-02,-1.074559241533279419e-01,-6.685642898082733154e-02,3.017107583582401276e-02,-1.999947614967823029e-02,2.734858542680740356e-02
3.603369742631912231e-02,5.752252787351608276e-02,-5.788591131567955017e-02,-5.952168256044387817e-02,5.581336468458175659e-02,-1.089869439601898193e-01,-6.808360666036605835e-02,3.044778108596801758e-02,-1.927914097905158997e-02,2.781882509589195251e-02
3.603369742631912231e-02,5.752252787351608276e-02,-5.788591131567955017e-02,-5.952168256044387817e-02,5.581336468458175659e-02,-1.089869439601898193e-01,-6.808360666036605835e-02,3.044778108596801758e-02,-1.927914097905158997e-02,2.781882509589195251e-02
3.957364708185195923e-02,6.009802222251892090e-02,-5.867156013846397400e-02,-6.107422709465026855e-02,5.654075369238853455e-02,-1.115766391158103943e-01,-6.837893277406692505e-02,3.328432515263557434e-02,-1.949633844196796417e-02,2.670213021337985992e-02
3.957364708185195923e-02,6.009802222251892090e-02,-5.867156013846397400e-02,-6.107422709465026855e-02,5.654075369238853455e-02,-1.115766391158103943e-01,-6.837893277406692505e-02,3.328432515263557434e-02,-1.949633844196796417e-02,2.670213021337985992e-02
4.112142324447631836e-02,6.477504968643188477e-02,-6.039083003997802734e-02,-6.268187612295150757e-02,5.517327785491943359e-02,-1.134717687964439392e-01,-6.945382058620452881e-02,3.631820157170295715e-02,-1.823921129107475281e-02,2.645733579993247986e-02
4.112142324447631836e-02,6.477504968643188477e-02,-6.039083003997802734e-02,-6.268187612295150757e-02,5.517327785491943359e-02,-1.134717687964439392e-01,-6.945382058620452881e-02,3.631820157170295715e-02,-1.823921129107475281e-02,2.645733579993247986e-02
4.260316863656044006e-02,6.729331612586975098e-02,-6.106254458427429199e-02,-6.304356455802917480e-02,5.458820983767509460e-02,-1.166902035474777222e-01,-6.695497781038284302e-02,3.727784752845764160e-02,-1.937910728156566620e-02,2.800828404724597931e-02
4.260316863656044006e-02,6.729331612586975098e-02,-6.106254458427429199e-02,-6.304356455802917480e-02,5.458820983767509460e-02,-1.166902035474777222e-01,-6.695497781038284302e-02,3.727784752845764160e-02,-1.937910728156566620e-02,2.800828404724597931e-02
4.479711130261421204e-02,7.155495136976242065e-02,-6.262397021055221558e-02,-6.503086537122726440e-02,5.726459249854087830e-02,-1.180892661213874817e-01,-6.915253400802612305e-02,3.862753137946128845e-02,-1.913386769592761993e-02,2.749196253716945648e-02
4.479711130261421204e-02,7.155495136976242065e-02,-6.262397021055221558e-02,-6.503086537122726440e-02,5.726459249854087830e-02,-1.180892661213874817e-01,-6.915253400802612305e-02,3.862753137946128845e-02,-1.913386769592761993e-02,2.749196253716945648e-02
4.722363129258155823e-02,7.369326800107955933e-02,-6.231137737631797791e-02,-6.779677420854568481e-02,5.478725209832191467e-02,-1.198307126760482788e-01,-6.903484463691711426e-02,4.092602059245109558e-02,-1.848898455500602722e-02,2.840057015419006348e-02
4.722363129258155823e-02,7.369326800107955933e-02,-6.231137737631797791e-02,-6.779677420854568481e-02,5.478725209832191467e-02,-1.198307126760482788e-01,-6.903484463691711426e-02,4.092602059245109558e-02,-1.848898455500602722e-02,2.840057015419006348e-02
4.735767468810081482e-02,7.887677848339080811e-02,-6.274250149726867676e-02,-6.760734319686889648e-02,5.435532703995704651e-02,-1.220177114009857178e-01,-6.988429278135299683e-02,4.296075180172920227e-02,-1.875471509993076324e-02,2.751840837299823761e-02
4.735767468810081482e-02,7.887677848339080811e-02,-6.274250149726867676e-02,-6.760734319686889648e-02,5.435532703995704651e-02,-1.220177114009857178e-01,-6.988429278135299683e-02,4.296075180172920227e-02,-1.875471509993076324e-02,2.751840837299823761e-02
5.165440589189529419e-02,7.968107610940933228e-02,-6.408102810382843018e-02,-6.825809180736541748e-02,5.620310455560684204e-02,-1.231892108917236328e-01,-6.893856078386306763e-02,4.180894419550895691e-02,-1.990933343768119812e-02,2.826081402599811554e-02
5.165440589189529419e-02,7.968107610940933228e-02,-6.408102810382843018e-02,-6.825809180736541748e-02,5.620310455560684204e-02,-1.231892108917236328e-01,-6.893856078386306763e-02,4.180894419550895691e-02,-1.990933343768119812e-02,2.826081402599811554e-02
5.378659069538116455e-02,8.308132737874984741e-02,-6.457473337650299072e-02,-7.021775096654891968e-02,5.573634430766105652e-02,-1.240613460540771484e-01,-6.893397122621536255e-02,4.120761901140213013e-02,-1.955969072878360748e-02,2.948020771145820618e-02
5.378659069538116455e-02,8.308132737874984741e-02,-6.457473337650299072e-02,-7.021775096654891968e-02,5.573634430766105652e-02,-1.240613460540771484e-01,-6.893397122621536255e-02,4.120761901140213013e-02,-1.955969072878360748e-02,2.948020771145820618e-02
5.377163365483283997e-02,8.513254672288894653e-02,-6.535129249095916748e-02,-7.141228765249252319e-02,5.679225549101829529e-02,-1.252537071704864502e-01,-6.926522403955459595e-02,4.231924936175346375e-02,-1.790173538029193878e-02,2.851805463433265686e-02
5.377163365483283997e-02,8.513254672288894653e-02,-6.535129249095916748e-02,-7.141228765249252319e-02,5.679225549101829529e-02,-1.252537071704864502e-01,-6.926522403955459595e-02,4.231924936175346375e-02,-1.790173538029193878e-02,2.851805463433265686e-02
5.497827008366584778e-02,8.757776767015457153e-02,-6.576433777809143066e-02,-7.263890653848648071e-02,5.461673438549041748e-02,-1.265470981597900391e-01,-6.884226202964782715e-02,4.522399231791496277e-02,-1.866020262241363525e-02,2.914833836257457733e-02
5.497827008366584778e-02,8.757776767015457153e-02,-6.576433777809143066e-02,-7.263890653848648071e-02,5.461673438549041748e-02,-1.265470981597900391e-01,-6.884226202964782715e-02,4.522399231791496277e-02,-1.866020262241363525e-02,2.914833836257457733e-02
5.760866031050682068e-02,9.001212567090988159e-02,-6.523889303207397461e-02,-7.422692328691482544e-02,5.592529103159904480e-02,-1.283886283636093140e-01,-7.039248198270797729e-02,4.715668782591819763e-02,-1.976560615003108978e-02,2.878611721098423004e-02
5.760866031050682068e-02,9.001212567090988159e-02,-6.523889303207397461e-02,-7.422692328691482544e-02,5.592529103159904480e-02,-1.283886283636093140e-01,-7.039248198270797729e-02,4.715668782591819763e-02,-1.976560615003108978e-02,2.878611721098423004e-02
5.903729051351547241e-02,9.172776341438293457e-02,-6.584901362657546997e-02,-7.491311430931091309e-02,5.553225800395011902e-02,-1.296845078468322754e-01,-7.020804286003112793e-02,4.718840122222900391e-02,-1.930267550051212311e-02,2.941589057445526123e-02
5.903729051351547241e-02,9.172776341438293457e-02,-6.584901362657546997e-02,-7.491311430931091309e-02,5.553225800395011902e-02,-1.296845078468322754e-01,-7.020804286003112793e-02,4.718840122222900391e-02,-1.930267550051212311e-02,2.941589057445526123e-02
6.207850202918052673e-02,9.268648177385330200e-02,-6.790754944086074829e-02,-7.697072625160217285e-02,5.704989284276962280e-02,-1.301075071096420288e-01,-7.018414139747619629e-02,4.749304801225662231e-02,-1.893223449587821960e-02,3.013669326901435852e-02
6.207850202918052673e-02,9.268648177385330200e-02,-6.790754944086074829e-02,-7.697072625160217285e-02,5.704989284276962280e-02,-1.301075071096420288e-01,-7.018414139747619629e-02,4.749304801225662231e-02,-1.893223449587821960e-02,3.013669326901435852e-02
6.204662472009658813e-02,9.657156467437744141e-02,-6.660913676023483276e-02,-7.738156616687774658e-02,5.507641285657882690e-02,-1.332188397645950317e-01,-6.952431052923202515e-02,5.004838854074478149e-02,-1.906984858214855194e-02,2.940796501934528351e-02
6.204662472009658813e-02,9.657156467437744141e-02,-6.660913676023483276e-02,-7.738156616687774658e-02,5.507641285657882690e-02,-1.332188397645950317e-01,-6.952431052923202515e-02,5.004838854074478149e-02,-1.906984858214855194e-02,2.940796501934528351e-02
6.488598138093948364e-02,9.655106812715530396e-02,-6.622169166803359985e-02,-7.867462188005447388e-02,5.488769710063934326e-02,-1.334419101476669312e-01,-7.017956674098968506e-02,5.131610855460166931e-02,-1.881197839975357056e-02,2.813684754073619843e-02
6.488598138093948364e-02,9.655106812715530396e-02,-6.622169166803359985e-02,-7.867462188005447388e-02,5.488769710063934326e-02,-1.334419101476669312e-01,-7.017956674098968506e-02,5.131610855460166931e-02,-1.881197839975357056e-02,2.813684754073619843e-02
6.644530594348907471e-02,9.937155246734619141e-02,-6.715416908264160156e-02,-8.012925088405609131e-02,5.433960631489753723e-02,-1.346627622842788696e-01,-6.994147598743438721e-02,5.149143934249877930e-02,-1.817754283547401428e-02,2.907828241586685181e-02
6.644530594348907471e-02,9.937155246734619141e-02,-6.715416908264160156e-02,-8.012925088405609131e-02,5.433960631489753723e-02,-1.346627622842788696e-01,-6.994147598743438721e-02,5.149143934249877930e-02,-1.817754283547401428e-02,2.907828241586685181e-02
6.752628087997436523e-02,1.018927246332168579e-01,-6.706216931343078613e-02,-8.072704076766967773e-02,5.480588600039482117e-02,-1.368653178215026855e-01,-6.832072138786315918e-02,5.239217728376388550e-02,-1.852124370634555817e-02,2.838369645178318024e-02
6.752628087997436523e-02,1.018927246332168579e-01,-6.706216931343078613e-02,-8.072704076766967773e-02,5.480588600039482117e-02,-1.368653178215026855e-01,-6.832072138786315918e-02,5.239217728376388550e-02,-1.852124370634555817e-02,2.838369645178318024e-02
6.915701925754547119e-02,1.030414551496505737e-01,-6.873539090156555176e-02,-8.053296059370040894e-02,5.515232682228088379e-02,-1.378163099288940430e-01,-6.974395364522933960e-02,5.426512658596038818e-02,-1.888860389590263367e-02,2.830248512327671051e-02
6.915701925754547119e-02,1.030414551496505737e-01,-6.873539090156555176e-02,-8.053296059370040894e-02,5.515232682228088379e-02,-1.378163099288940430e-01,-6.974395364522933960e-02,5.426512658596038818e-02,-1.888860389590263367e-02,2.830248512327671051e-02
6.898839771747589111e-02,1.056351289153099060e-01,-6.825625896453857422e-02,-8.104488998651504517e-02,5.541850253939628601e-02,-1.383143216371536255e-01,-7.201731204986572266e-02,5.341445654630661011e-02,-1.781775802373886108e-02,2.856961637735366821e-02
6.898839771747589111e-02,1.056351289153099060e-01,-6.825625896453857422e-02,-8.104488998651504517e-02,5.541850253939628601e-02,-1.383143216371536255e-01,-7.201731204986572266e-02,5.341445654630661011e-02,-1.781775802373886108e-02,2.856961637735366821e-02
