-1.829534210264682770e-02
-1.819537393748760223e-02
-1.809545792639255524e-02
-1.799561642110347748e-02
-1.789587177336215973e-02
-1.779624633491039276e-02
-1.769676245748996735e-02
-1.759744249284267426e-02
-1.749830879271030426e-02
-1.739938370883464813e-02
-1.730068959295749664e-02
-1.720224693417549133e-02
-1.710407622158527374e-02
-1.700619794428348541e-02
-1.690863259136676788e-02
-1.681140065193176270e-02
-1.671451888978481293e-02
-1.661800593137741089e-02
-1.652188040316104889e-02
-1.642615906894207001e-02
-1.633086241781711578e-02
-1.623600907623767853e-02
-1.614161580801010132e-02
-1.604769937694072723e-02
-1.595427654683589935e-02
-1.586136221885681152e-02
-1.576897129416465759e-02
-1.567711867392063141e-02
-1.558582019060850143e-02
-1.549508981406688690e-02
-1.540494523942470551e-02
-1.531540229916572571e-02
-1.522647403180599213e-02
-1.513817254453897476e-02
-1.505050994455814362e-02
-1.496349833905696869e-02
-1.487714797258377075e-02
-1.479147002100944519e-02
-1.470647566020488739e-02
-1.462217606604099274e-02
-1.453857868909835815e-02
-1.445568818598985672e-02
-1.437350921332836151e-02
-1.429204735904932022e-02
-1.421131007373332977e-02
-1.413130760192871094e-02
-1.405205298215150833e-02
-1.397355645895004272e-02
-1.389582641422748566e-02
-1.381886750459671021e-02
-1.374268159270286560e-02
-1.366726774722337723e-02
-1.359262224286794662e-02
-1.351874135434627533e-02
-1.344562042504549026e-02
-1.337325759232044220e-02
-1.330164633691310883e-02
-1.323078013956546783e-02
-1.316064875572919846e-02
-1.309124194085597992e-02
-1.302254945039749146e-02
-1.295456010848283768e-02
-1.288726367056369781e-02
-1.282065268605947495e-02
-1.275471970438957214e-02
-1.268946193158626556e-02
-1.262487843632698059e-02
-1.256096921861171722e-02
-1.249773055315017700e-02
-1.243515871465206146e-02
-1.237325184047222137e-02
-1.231200993061065674e-02
-1.225143019109964371e-02
-1.219150424003601074e-02
-1.213222183287143707e-02
-1.207357086241245270e-02
-1.201553735882043839e-02
-1.195810735225677490e-02
-1.190126780420541763e-02
-1.184500567615032196e-02
-1.178931165486574173e-02
-1.173417922109365463e-02
-1.167960278689861298e-02
-1.162557676434516907e-02
-1.157209463417530060e-02
-1.151915080845355988e-02
-1.146674156188964844e-02
-1.141486130654811859e-02
-1.136350352317094803e-02
-1.131265982985496521e-02
-1.126232184469699860e-02
-1.121248304843902588e-02
-1.116313599050045013e-02
-1.111427415162324905e-02
-1.106589287519454956e-02
-1.101798564195632935e-02
-1.097054686397314072e-02
-1.092357095330953598e-02
-1.087704952806234360e-02
-1.083097513765096664e-02
-1.078533846884965897e-02
-1.074013113975524902e-02
-1.069534290581941605e-02
-1.065096445381641388e-02
-1.060698460787534714e-02
-1.056339219212532043e-02
-1.052017603069543839e-02
-1.047732494771480560e-02
-1.043482683598995209e-02
-1.039267145097255707e-02
-1.035084761679172516e-02
-1.030934602022171021e-02
-1.026815734803676605e-02
-1.022727414965629578e-02
-1.018668804317712784e-02
-1.014639344066381454e-02
-1.010638661682605743e-02
-1.006667315959930420e-02
-1.002725120633840561e-02
-9.988117963075637817e-03
-9.949273429811000824e-03
-9.910710155963897705e-03
-9.872412309050559998e-03
-9.834361262619495392e-03
-9.796543978154659271e-03
-9.758953005075454712e-03
-9.721581824123859406e-03
-9.684428572654724121e-03
-9.647492319345474243e-03
-9.610775858163833618e-03
-9.574281983077526093e-03
-9.538014419376850128e-03
-9.501976892352104187e-03
-9.466172195971012115e-03
-9.430603124201297760e-03
-9.395269677042961121e-03
-9.360169991850852966e-03
-9.325298480689525604e-03
-9.290645830333232880e-03
-9.256202727556228638e-03
-9.221960790455341339e-03
-9.187911637127399445e-03
-9.154047816991806030e-03
-9.120364673435688019e-03
-9.086857549846172333e-03
-9.053524583578109741e-03
-9.020364843308925629e-03
-8.987378329038619995e-03
-8.954564109444618225e-03
-8.921922184526920319e-03
-8.889450691640377045e-03
-8.857146836817264557e-03
-8.825006894767284393e-03
-8.793026208877563477e-03
-8.761201053857803345e-03
-8.729525841772556305e-03
-8.697994984686374664e-03
-8.666602894663810730e-03
-8.635345846414566040e-03
-8.604221045970916748e-03
-8.573230355978012085e-03
-8.542379364371299744e-03
-8.511669002473354340e-03
-8.481099270284175873e-03
-8.450668305158615112e-03
-8.420373313128948212e-03
-8.390212431550025940e-03
-8.360181003808975220e-03
-8.330275304615497589e-03
-8.300490677356719971e-03
-8.270821534097194672e-03
-8.241262286901473999e-03
-8.211808279156684875e-03
-8.182455785572528839e-03
-8.153200149536132812e-03
-8.124025538563728333e-03
-8.094923570752143860e-03
-8.065884932875633240e-03
-8.036903105676174164e-03
-8.007972501218318939e-03
-7.979087531566619873e-03
-7.950244471430778503e-03
-7.921440526843070984e-03
-7.892672903835773468e-03
-7.863938808441162109e-03
-7.835236378014087677e-03
-7.806562818586826324e-03
-7.777916267514228821e-03
-7.749294396489858627e-03
-7.720694877207279205e-03
-7.692114915698766708e-03
-7.663552649319171906e-03
-7.635005284100770950e-03
-7.606471423059701920e-03
-7.577949203550815582e-03
-7.549437694251537323e-03
-7.520935498178005219e-03
-7.492442149668931961e-03
-7.463956251740455627e-03
-7.435477804392576218e-03
-7.407005876302719116e-03
-7.378539070487022400e-03
-7.350075524300336838e-03
-7.321611046791076660e-03
-7.293135859072208405e-03
-7.264642044901847839e-03
-7.236124016344547272e-03
-7.207577582448720932e-03
-7.179000414907932281e-03
-7.150392048060894012e-03
-7.121752947568893433e-03
-7.093084044754505157e-03
-7.064387202262878418e-03
-7.035663817077875137e-03
-7.006915751844644547e-03
-6.978143472224473953e-03
-6.949345115572214127e-03
-6.920517422258853912e-03
-6.891658529639244080e-03
-6.862768437713384628e-03
-6.833849474787712097e-03
-6.804905366152524948e-03
-6.775941699743270874e-03
-6.746964529156684875e-03
-6.717980839312076569e-03
-6.688996683806180954e-03
-6.660018116235733032e-03
-6.631048861891031265e-03
-6.602091714739799500e-03
-6.573149468749761581e-03
-6.544225383549928665e-03
-6.515323650091886520e-03
-6.486449390649795532e-03
-6.457608658820390701e-03
-6.428807973861694336e-03
-6.400051992386579514e-03
-6.371344439685344696e-03
-6.342687178403139114e-03
-6.314079742878675461e-03
-6.285521201789379120e-03
-6.257010158151388168e-03
-6.228545214980840683e-03
-6.200124975293874741e-03
-6.171748973429203033e-03
-6.143416278064250946e-03
-6.115127820521593094e-03
-6.086884532123804092e-03
-6.058688741177320480e-03
-6.030542775988578796e-03
-6.002450361847877502e-03
-5.974414292722940445e-03
-5.946436896920204163e-03
-5.918519571423530579e-03
-5.890663713216781616e-03
-5.862869322299957275e-03
-5.835135467350482941e-03
-5.807461682707071304e-03
-5.779847502708435059e-03
-5.752291996031999588e-03
-5.724794697016477585e-03
-5.697356536984443665e-03
-5.669977981597185135e-03
-5.642659962177276611e-03
-5.615403410047292709e-03
-5.588210187852382660e-03
-5.561080761253833771e-03
-5.534016527235507965e-03
-5.507018417119979858e-03
-5.480086896568536758e-03
-5.453221965581178665e-03
-5.426423624157905579e-03
-5.399691872298717499e-03
-5.373026244342327118e-03
-5.346426274627447128e-03
-5.319891963154077530e-03
-5.293422844260931015e-03
-5.267018917948007584e-03
-5.240680184215307236e-03
-5.214406643062829971e-03
-5.188197363168001175e-03
-5.162051878869533539e-03
-5.135969724506139755e-03
-5.109950434416532516e-03
-5.083993077278137207e-03
-5.058096721768379211e-03
-5.032260902225971222e-03
-5.006485152989625931e-03
-4.980769474059343338e-03
-4.955113865435123444e-03
-4.929518792778253555e-03
-4.903984721750020981e-03
-4.878512583673000336e-03
-4.853103309869766235e-03
-4.827757831662893295e-03
-4.802477080374956131e-03
-4.777261521667242050e-03
-4.752112086862325668e-03
-4.727029241621494293e-03
-4.702013917267322540e-03
-4.677066579461097717e-03
-4.652188159525394440e-03
-4.627379588782787323e-03
-4.602641798555850983e-03
-4.577975720167160034e-03
-4.553382284939289093e-03
-4.528861958533525467e-03
-4.504416137933731079e-03
-4.480044823139905930e-03
-4.455748945474624634e-03
-4.431528504937887192e-03
-4.407383035868406296e-03
-4.383312538266181946e-03
-4.359316546469926834e-03
-4.335394594818353653e-03
-4.311546217650175095e-03
-4.287770949304103851e-03
-4.264068789780139923e-03
-4.240438807755708694e-03
-4.216880537569522858e-03
-4.193393513560295105e-03
-4.169977270066738129e-03
-4.146630875766277313e-03
-4.123353864997625351e-03
-4.100145306438207626e-03
-4.077004268765449524e-03
-4.053929354995489120e-03
-4.030920099467039108e-03
-4.007975105196237564e-03
-3.985093440860509872e-03
-3.962274175137281418e-03
-3.939516842365264893e-03
-3.916820511221885681e-03
-3.894184716045856476e-03
-3.871609224006533623e-03
-3.849094267934560776e-03
-3.826639614999294281e-03
-3.804245730862021446e-03
-3.781912615522742271e-03
-3.759639570489525795e-03
-3.737425198778510094e-03
-3.715268103405833244e-03
-3.693166654556989670e-03
-3.671119222417473793e-03
-3.649124177172780037e-03
-3.627180354669690132e-03
-3.605286357924342155e-03
-3.583441022783517838e-03
-3.561643417924642563e-03
-3.539892844855785370e-03
-3.518188372254371643e-03
-3.496529301628470421e-03
-3.474914934486150742e-03
-3.453344805166125298e-03
-3.431817982345819473e-03
-3.410334000363945961e-03
-3.388892160728573799e-03
-3.367491532117128372e-03
-3.346131648868322372e-03
-3.324811812490224838e-03
-3.303531324490904808e-03
-3.282289486378431320e-03
-3.261085832491517067e-03
-3.239919664338231087e-03
-3.218790516257286072e-03
-3.197698155418038368e-03
-3.176641883328557014e-03
-3.155621467158198357e-03
-3.134636674076318741e-03
-3.113687038421630859e-03
-3.092772327363491058e-03
-3.071892308071255684e-03
-3.051046747714281082e-03
-3.030235180631279945e-03
-3.009457606822252274e-03
-2.988713560625910759e-03
-2.968002809211611748e-03
-2.947324886918067932e-03
-2.926679793745279312e-03
-2.906067064031958580e-03
-2.885486464947462082e-03
-2.864937763661146164e-03
-2.844420960173010826e-03
-2.823935821652412415e-03
-2.803481882438063622e-03
-2.783059375360608101e-03
-2.762667834758758545e-03
-2.742307260632514954e-03
-2.721977187320590019e-03
-2.701677614822983742e-03
-2.681408310309052467e-03
-2.661168808117508888e-03
-2.640959108248353004e-03
-2.620778745040297508e-03
-2.600627485662698746e-03
-2.580504864454269409e-03
-2.560410648584365845e-03
-2.540344372391700745e-03
-2.520305803045630455e-03
-2.500294707715511322e-03
-2.480310620740056038e-03
-2.460353309288620949e-03
-2.440422307699918747e-03
-2.420517383143305779e-03
-2.400638069957494736e-03
-2.380783902481198311e-03
-2.360954647883772850e-03
-2.341149840503931046e-03
-2.321369014680385590e-03
-2.301611704751849174e-03
-2.281877445057034492e-03
-2.262165769934654236e-03
-2.242476213723421097e-03
-2.222808543592691422e-03
-2.203162061050534248e-03
-2.183536300435662270e-03
-2.163930796086788177e-03
-2.144345315173268318e-03
-2.124779392033815384e-03
-2.105232793837785721e-03
-2.085705054923892021e-03
-2.066195942461490631e-03
-2.046705456450581551e-03
-2.027233364060521126e-03
-2.007779665291309357e-03
-1.988344360142946243e-03
-1.968927681446075439e-03
-1.949530094861984253e-03
-1.930151949636638165e-03
-1.910793827846646309e-03
-1.891456427983939648e-03
-1.872140681371092796e-03
-1.852847519330680370e-03
-1.833578106015920639e-03
-1.814333838410675526e-03
-1.795116229914128780e-03
-1.775926793925464153e-03
-1.756767276674509048e-03
-1.737639424391090870e-03
-1.718545216135680676e-03
-1.699486747384071350e-03
-1.680466113612055779e-03
-1.661485526710748672e-03
-1.642547082155942917e-03
-1.623653108254075050e-03
-1.604805816896259785e-03
-1.586007419973611832e-03
-1.567260012961924076e-03
-1.548565924167633057e-03
-1.529927249066531658e-03
-1.511345966719090939e-03
-1.492824056185781956e-03
-1.474363612942397594e-03
-1.455966383218765259e-03
-1.437634346075356007e-03
-1.419369247741997242e-03
-1.401172834448516369e-03
-1.383046968840062618e-03
-1.364993513561785221e-03
-1.347014214843511581e-03
-1.329111168161034584e-03
-1.311286468990147114e-03
-1.293542329221963882e-03
-1.275881077162921429e-03
-1.258305390365421772e-03
-1.240817829966545105e-03
-1.223420957103371620e-03
-1.206116983667016029e-03
-1.188907306641340256e-03
-1.171792391687631607e-03
-1.154771540313959122e-03
-1.137843006290495396e-03
-1.121004112064838409e-03
-1.104251132346689701e-03
-1.087579177692532539e-03
-1.070981961674988270e-03
-1.054451451636850834e-03
-1.037978567183017731e-03
-1.021553413011133671e-03
-1.005165977403521538e-03
-9.888062486425042152e-04
-9.724646806716918945e-04
-9.561319020576775074e-04
-9.397991816513240337e-04
-9.234582539647817612e-04
-9.071013191714882851e-04
-8.907211595214903355e-04
-8.743111975491046906e-04
-8.578653796575963497e-04
-8.413783507421612740e-04
-8.248452213592827320e-04
-8.082616841420531273e-04
-7.916240138001739979e-04
-7.749289507046341896e-04
-7.581737590953707695e-04
-7.413561106659471989e-04
-7.244740845635533333e-04
-7.075259927660226822e-04
-6.905100890435278416e-04
-6.734242197126150131e-04
-6.562656490132212639e-04
-6.390304770320653915e-04
-6.217135232873260975e-04
-6.043080356903374195e-04
-5.868060397915542126e-04
-5.691983969882130623e-04
-5.514748045243322849e-04
-5.336241447366774082e-04
-5.156351253390312195e-04
-4.974973853677511215e-04
-4.792028630618005991e-04
-4.607502196449786425e-04
-4.421548219397664070e-04
-4.234469379298388958e-04
-4.046678659506142139e-04
-3.858669369947165251e-04
-3.670973819680511951e-04
-3.484069020487368107e-04
-3.298275405541062355e-04
-3.113728307653218508e-04
-2.930393966380506754e-04
-2.748124825302511454e-04
-2.566741022747009993e-04
-2.386091364314779639e-04
-2.206093049608170986e-04
-2.026750589720904827e-04
-1.848145184339955449e-04
-1.670401252340525389e-04
-1.493639865657314658e-04
-1.317928981734439731e-04
-1.143247209256514907e-04
-9.694983600638806820e-05
-7.965940312715247273e-05
-6.245105760172009468e-05
-4.532965613179840147e-05
-2.830460107361432165e-05
-1.138479819928761572e-05
5.426676580100320280e-06
2.213472907897084951e-05
3.875024412991479039e-05
5.528638575924560428e-05
7.175485370680689812e-05
8.816310582915320992e-05
1.045132157742045820e-04
1.208022513310424984e-04
1.370235549984499812e-04
1.531686139060184360e-04
1.692294608801603317e-04
1.852014393080025911e-04
2.010851894738152623e-04
2.168861683458089828e-04
2.326116518815979362e-04
2.482674899511039257e-04
2.638563746586441994e-04
2.793780004139989614e-04
2.948300098069012165e-04
3.102095215581357479e-04
3.255145275034010410e-04
3.407449112273752689e-04
3.559028264135122299e-04
3.709922893904149532e-04
3.860180149786174297e-04
4.009842814411967993e-04
4.158941446803510189e-04
4.307492636144161224e-04
4.455499583855271339e-04
4.602957633323967457e-04
4.749860672745853662e-04
4.896206664852797985e-04
5.042002303525805473e-04
5.187267088331282139e-04
5.332028376869857311e-04
5.476319347508251667e-04
5.620168522000312805e-04
5.763596855103969574e-04
5.906611331738531590e-04
6.049204384908080101e-04
6.191358552314341068e-04
6.333049968816339970e-04
6.474255933426320553e-04
6.614960147999227047e-04
6.755156791768968105e-04
6.894849939271807671e-04
7.034058799035847187e-04
7.172793848440051079e-04
7.311051012948155403e-04
7.448824471794068813e-04
7.586107240058481693e-04
7.722879527136683464e-04
7.859098259359598160e-04
7.994698826223611832e-04
8.129609632305800915e-04
8.263777708634734154e-04
8.397210622206330299e-04
8.530007908120751381e-04
8.662296459078788757e-04
8.794152527116239071e-04
8.925564470700919628e-04
9.056443814188241959e-04
9.186663082800805569e-04
9.316099458374083042e-04
9.444686002098023891e-04
9.572464041411876678e-04
9.699577349238097668e-04
9.826202876865863800e-04
9.952477412298321724e-04
1.007846556603908539e-03
1.020416384562849998e-03
1.032952102832496166e-03
1.045446610078215599e-03
1.057894201949238777e-03
1.070292666554450989e-03
1.082643284462392330e-03
1.094949198886752129e-03
1.107213436625897884e-03
1.119437394663691521e-03
1.131619676016271114e-03
1.143755973316729069e-03
1.155844540335237980e-03
1.167882001027464867e-03
1.179863000288605690e-03
1.191784278489649296e-03
1.203644787892699242e-03
1.215443830005824566e-03
1.227178960107266903e-03
1.238845637999475002e-03
1.250438624992966652e-03
1.261954312212765217e-03
1.273393165320158005e-03
1.284760306589305401e-03
1.296064001508057117e-03
1.307313446886837482e-03
1.318516326136887074e-03
1.329677528701722622e-03
1.340799266472458839e-03
1.351881539449095726e-03
1.362923416309058666e-03
1.373924547806382179e-03
1.384885748848319054e-03
1.395809114910662174e-03
1.406696974299848080e-03
1.417550607584416866e-03
1.428370131179690361e-03
1.439154148101806641e-03
1.449900330044329166e-03
1.460606115870177746e-03
1.471269293688237667e-03
1.481888466514647007e-03
1.492463052272796631e-03
1.502993167378008366e-03
1.513479277491569519e-03
1.523922081105411053e-03
1.534322625957429409e-03
1.544682425446808338e-03
1.555003342218697071e-03
1.565288170240819454e-03
1.575539819896221161e-03
1.585761550813913345e-03
1.595955924130976200e-03
1.606124802492558956e-03
1.616268651559948921e-03
1.626387005671858788e-03
1.636478235013782978e-03
1.646540593355894089e-03
1.656572567299008369e-03
1.666572992689907551e-03
1.676541520282626152e-03
1.686478266492486000e-03
1.696383696980774403e-03
1.706258393824100494e-03
1.716102589853107929e-03
1.725916401483118534e-03
1.735700177960097790e-03
1.745454501360654831e-03
1.755180535838007927e-03
1.764880260452628136e-03
1.774556469172239304e-03
1.784213003702461720e-03
1.793854054994881153e-03
1.803484396077692509e-03
1.813108916394412518e-03
1.822731806896626949e-03
1.832355745136737823e-03
1.841979566961526871e-03
1.851596520282328129e-03
1.861194265075027943e-03
1.870756852440536022e-03
1.880267518572509289e-03
1.889711595140397549e-03
1.899079536087810993e-03
1.908368547447025776e-03
1.917582470923662186e-03
1.926730154082179070e-03
1.935821142978966236e-03
1.944862073287367821e-03
1.953854924067854881e-03
1.962797949090600014e-03
1.971687423065304756e-03
1.980521483346819878e-03
1.989301061257719994e-03
1.998029882088303566e-03
2.006713533774018288e-03
2.015357371419668198e-03
2.023966051638126373e-03
2.032543066889047623e-03
2.041090745478868484e-03
2.049611415714025497e-03
2.058106474578380585e-03
2.066577784717082977e-03
2.075027907267212868e-03
2.083460101857781410e-03
2.091877860948443413e-03
2.100284444168210030e-03
2.108682179823517799e-03
2.117071533575654030e-03
2.125452039763331413e-03
2.133822301402688026e-03
2.142180455848574638e-03
2.150524873286485672e-03
2.158854389563202858e-03
2.167169470340013504e-03
2.175470581278204918e-03
2.183758188039064407e-03
2.192032057791948318e-03
2.200290793552994728e-03
2.208532299846410751e-03
2.216754248365759850e-03
2.224953845143318176e-03
2.233128994703292847e-03
2.241278067231178284e-03
2.249400131404399872e-03
2.257494954392313957e-03
2.265562303364276886e-03
2.273601246997714043e-03
2.281610853970050812e-03
2.289589727297425270e-03
2.297536702826619148e-03
2.305450383573770523e-03
2.313329605385661125e-03
2.321173436939716339e-03
2.328981412574648857e-03
2.336753066629171371e-03
2.344488166272640228e-03
2.352186245843768120e-03
2.359847305342555046e-03
2.367472276091575623e-03
2.375063253566622734e-03
2.382623730227351189e-03
2.390157431364059448e-03
2.397668315097689629e-03
2.405158709734678268e-03
2.412629080936312675e-03
2.420077333226799965e-03
2.427500206977128983e-03
2.434893976897001266e-03
2.442255150526762009e-03
2.449580701068043709e-03
2.456868300214409828e-03
2.464116550981998444e-03
2.471325453370809555e-03
2.478495240211486816e-03
2.485625445842742920e-03
2.492716070264577866e-03
2.499767346307635307e-03
2.506779972463846207e-03
2.513754647225141525e-03
2.520693233236670494e-03
2.527597825974225998e-03
2.534470986574888229e-03
2.541315741837024689e-03
2.548134420067071915e-03
2.554929815232753754e-03
2.561703557148575783e-03
2.568457042798399925e-03
2.575190970674157143e-03
2.581905573606491089e-03
2.588601317256689072e-03
2.595278201624751091e-03
2.601936226710677147e-03
2.608575392514467239e-03
2.615195931866765022e-03
2.621797611936926842e-03
2.628380432724952698e-03
2.634944394230842590e-03
2.641489030793309212e-03
2.648014342412352562e-03
2.654519863426685333e-03
2.661005361005663872e-03
2.667471067979931831e-03
2.673916984349489212e-03
2.680343110114336014e-03
2.686749678105115891e-03
2.693136921152472496e-03
2.699504839256405830e-03
2.705853432416915894e-03
2.712182700634002686e-03
2.718492643907666206e-03
2.724783262237906456e-03
2.731054555624723434e-03
2.737306524068117142e-03
2.743539167568087578e-03
2.749752718955278397e-03
2.755947178229689598e-03
2.762122545391321182e-03
2.768278820440173149e-03
2.774415537714958191e-03
2.780532231554389000e-03
2.786628203466534615e-03
2.792701823636889458e-03
2.798751927912235260e-03
2.804778050631284714e-03
2.810784382745623589e-03
2.816784428432583809e-03
2.822797978296875954e-03
2.828841097652912140e-03
2.834919840097427368e-03
2.841031644493341446e-03
2.847170224413275719e-03
2.853329293429851532e-03
2.859503030776977539e-03
2.865689573809504509e-03
2.871893579140305519e-03
2.878124359995126724e-03
2.884389366954565048e-03
2.890690695494413376e-03
2.897022524848580360e-03
2.903370419517159462e-03
2.909714356064796448e-03
2.916036173701286316e-03
2.922323299571871758e-03
2.928571542724967003e-03
2.934785094112157822e-03
2.940975362434983253e-03
2.947156783193349838e-03
2.953341929242014885e-03
2.959537087008357048e-03
2.965742256492376328e-03
2.971951616927981377e-03
2.978155389428138733e-03
2.984344260767102242e-03
2.990511711686849594e-03
2.996655879542231560e-03
3.002779092639684677e-03
3.008886473253369331e-03
3.014984540641307831e-03
3.021077485755085945e-03
3.027166472747921944e-03
3.033248940482735634e-03
3.039319999516010284e-03
3.045373829081654549e-03
3.051404841244220734e-03
3.057409776374697685e-03
3.063387470319867134e-03
3.069337923079729080e-03
3.075261367484927177e-03
3.081158269196748734e-03
3.087027696892619133e-03
3.092867322266101837e-03
3.098674351349473000e-03
3.104445524513721466e-03
3.110178047791123390e-03
3.115870524197816849e-03
3.121521789580583572e-03
3.127132309600710869e-03
3.132702549919486046e-03
3.138232976198196411e-03
3.143723821267485619e-03
3.149174852296710014e-03
3.154585836455225945e-03
3.159956075251102448e-03
3.165284870192408562e-03
3.170571755617856979e-03
3.175816964358091354e-03
3.181020496413111687e-03
3.186183050274848938e-03
3.191305557265877724e-03
3.196388948708772659e-03
3.201434621587395668e-03
3.206443740054965019e-03
3.211417701095342636e-03
3.216357436031103134e-03
3.221264109015464783e-03
3.226138418540358543e-03
3.230981063097715378e-03
3.235792275518178940e-03
3.240572288632392883e-03
3.245321335271000862e-03
3.250039648264646530e-03
3.254727693274617195e-03
3.259386401623487473e-03
3.264017170295119286e-03
3.268621396273374557e-03
3.273200243711471558e-03
3.277755109593272209e-03
3.282286692410707474e-03
3.286795457825064659e-03
3.291281405836343765e-03
3.295745002105832100e-03
3.300186246633529663e-03
3.304605372250080109e-03
3.309003077447414398e-03
3.313380293548107147e-03
3.317737951874732971e-03
3.322076983749866486e-03
3.326398320496082306e-03
3.330702893435955048e-03
3.334990935400128365e-03
3.339262679219245911e-03
3.343518357723951340e-03
3.347758203744888306e-03
3.351982682943344116e-03
3.356191795319318771e-03
3.360386239364743233e-03
3.364566480740904808e-03
3.368733217939734459e-03
3.372886683791875839e-03
3.377027343958616257e-03
3.381155431270599365e-03
3.385271178558468819e-03
3.389374585822224617e-03
3.393466118723154068e-03
3.397545777261257172e-03
3.401614027097821236e-03
3.405671101063489914e-03
3.409717231988906860e-03
3.413752885535359383e-03
3.417778294533491135e-03
3.421793458983302116e-03
3.425798611715435982e-03
3.429793985560536385e-03
3.433779813349246979e-03
3.437756095081567764e-03
3.441723063588142395e-03
3.445680718868970871e-03
3.449629526585340500e-03
3.453569486737251282e-03
3.457500832155346870e-03
3.461423795670270920e-03
3.465338377282023430e-03
3.469244576990604401e-03
3.473142627626657486e-03
3.477032296359539032e-03
3.480913816019892693e-03
3.484787186607718468e-03
3.488652408123016357e-03
3.492509480565786362e-03
3.496358171105384827e-03
3.500198479741811752e-03
3.504030173644423485e-03
3.507853252813220024e-03
3.511667484417557716e-03
3.515472635626792908e-03
3.519268473610281944e-03
3.523054765537381172e-03
3.526831278577446938e-03
3.530597547069191933e-03
3.534353338181972504e-03
3.538098186254501343e-03
3.541831625625491142e-03
3.545553190633654594e-03
3.549262648448348045e-03
3.552959300577640533e-03
3.556642914190888405e-03
3.560312790796160698e-03
3.563968697562813759e-03
3.567609935998916626e-03
3.571236040443181992e-03
3.574846312403678894e-03
3.578440519049763680e-03
3.582017961889505386e-03
3.585577942430973053e-03
3.589120227843523026e-03
3.592644119635224342e-03
3.596149384975433350e-03
3.599635325372219086e-03
3.603101475164294243e-03
3.606547368690371513e-03
3.609972540289163589e-03
3.613376524299383163e-03
3.616758855059742928e-03
3.620119066908955574e-03
3.623456927016377449e-03
3.626771969720721245e-03
3.630063962191343307e-03
3.633332438766956329e-03
3.636577166616916656e-03
3.639797912910580635e-03
3.642994444817304611e-03
3.646166296675801277e-03
3.649313468486070633e-03
3.652435960248112679e-03
3.655533306300640106e-03
3.658605739474296570e-03
3.661653026938438416e-03
3.664675168693065643e-03
3.667672164738178253e-03
3.670644015073776245e-03
3.673590952530503273e-03
3.676512977108359337e-03
3.679410088807344437e-03
3.682282520458102226e-03
3.685130737721920013e-03
3.687954740598797798e-03
3.690754761919379234e-03
3.693531267344951630e-03
3.696284489706158638e-03
3.699014661833643913e-03
3.701722482219338417e-03
3.704408183693885803e-03
3.707072231918573380e-03
3.709715325385332108e-03
3.712337696924805641e-03
3.714940045028924942e-03
3.717523068189620972e-03
3.720087232068181038e-03
3.722633467987179756e-03
3.725162241607904434e-03
3.727674484252929688e-03
3.730170894414186478e-03
3.732652170583605766e-03
3.735119476914405823e-03
3.737573511898517609e-03
3.740015439689159393e-03
3.742446424439549446e-03
3.744867630302906036e-03
3.747280221432447433e-03
3.749685827642679214e-03
3.752085845917463303e-03
3.754481906071305275e-03
3.756875870749354362e-03
3.759269835427403450e-03
3.761666128411889076e-03
3.764067310839891434e-03
3.766476409509778023e-03
3.768896684050559998e-03
3.771332092583179474e-03
3.773786826059222221e-03
3.776265075430274010e-03
3.778771031647920609e-03
3.781308885663747787e-03
3.783882129937410355e-03
3.786493325605988503e-03
3.789144102483987808e-03
3.791834460571408272e-03
3.794562537223100662e-03
3.797324607148766518e-03
3.800115315243601799e-03
3.802927443757653236e-03
3.805753076449036598e-03
3.808583598583936691e-03
3.811410628259181976e-03
3.814226482063531876e-03
3.817024175077676773e-03
3.819797653704881668e-03
3.822541795670986176e-03
3.825252642855048180e-03
3.827926469966769218e-03
3.830559784546494484e-03
3.833149094134569168e-03
3.835690906271338463e-03
3.838181961327791214e-03
3.840618534013628960e-03
3.842997131869196892e-03
3.845315193757414818e-03
3.847570158541202545e-03
3.849760163575410843e-03
3.851884044706821442e-03
3.853940637782216072e-03
3.855929477140307426e-03
3.857850329950451851e-03
3.859703429043292999e-03
3.861489007249474525e-03
3.863207763060927391e-03
3.864860627800226212e-03
3.866449231281876564e-03
3.867975436151027679e-03
3.869441570714116096e-03
3.870850196108222008e-03
3.872204339131712914e-03
3.873507026582956314e-03
3.874761518090963364e-03
3.875971073284745216e-03
3.877138486132025719e-03
3.878266550600528717e-03
3.879358060657978058e-03
3.880415344610810280e-03
3.881440265104174614e-03
3.882434684783220291e-03
3.883400233462452888e-03
3.884338075295090675e-03
3.885249141603708267e-03
3.886133898049592972e-03
3.886993043124675751e-03
3.887827042490243912e-03
3.888635896146297455e-03
3.889419836923480034e-03
3.890179097652435303e-03
3.890913911163806915e-03
3.891624277457594872e-03
3.892310662195086479e-03
3.892973298206925392e-03
3.893612651154398918e-03
3.894229419529438019e-03
3.894824068993330002e-03
3.895397065207362175e-03
3.895949106663465500e-03
3.896481124684214592e-03
3.896993584930896759e-03
3.897487185895442963e-03
3.897962858900427818e-03
3.898421069607138634e-03
3.898862516507506371e-03
3.899287432432174683e-03
3.899696515873074532e-03
3.900089766830205917e-03
3.900467418134212494e-03
3.900829702615737915e-03
3.901176387444138527e-03
3.901507705450057983e-03
3.901823656633496284e-03
3.902124473825097084e-03
3.902410157024860382e-03
3.902680706232786179e-03
3.902936121448874474e-03
3.903176868334412575e-03
3.903402946889400482e-03
3.903614589944481850e-03
3.903811797499656677e-03
3.903994802385568619e-03
3.904163837432861328e-03
3.904319135472178459e-03
3.904460929334163666e-03
3.904589451849460602e-03
3.904704703018069267e-03
3.904806915670633316e-03
3.904896322637796402e-03
3.904972923919558525e-03
3.905036952346563339e-03
3.905088640749454498e-03
3.905128221958875656e-03
3.905155928805470467e-03
3.905171761289238930e-03
3.905175952240824699e-03
3.905168734490871429e-03
3.905150340870022774e-03
3.905121004208922386e-03
3.905081190168857574e-03
3.905030898749828339e-03
3.904970595613121986e-03
3.904900513589382172e-03
3.904820885509252548e-03
3.904732177034020424e-03
3.904634620994329453e-03
3.904528450220823288e-03
3.904414363205432892e-03
3.904292359948158264e-03
3.904163138940930367e-03
3.904026933014392853e-03
3.903884207829833031e-03
3.903735429048538208e-03
3.903580829501152039e-03
3.903420874848961830e-03
3.903256030753254890e-03
3.903086995705962181e-03
3.902914002537727356e-03
3.902737516909837723e-03
3.902558004483580589e-03
3.902375698089599609e-03
3.902191296219825745e-03
3.902005031704902649e-03
3.901817370206117630e-03
3.901628544554114342e-03
3.901438787579536438e-03
3.901248332113027573e-03
3.901057410985231400e-03
3.900865791365504265e-03
3.900673473253846169e-03
3.900480223819613457e-03
3.900285810232162476e-03
3.900089766830205917e-03
3.899891627952456474e-03
3.899690927937626839e-03
3.899486968293786049e-03
3.899279283359646797e-03
3.899066941812634468e-03
3.898849477991461754e-03
3.898626193404197693e-03
3.898396622389554977e-03
3.898160066455602646e-03
3.897916292771697044e-03
3.897664602845907211e-03
3.897404996678233147e-03
3.897137008607387543e-03
3.896860405802726746e-03
3.896575188264250755e-03
3.896281123161315918e-03
3.895978210493922234e-03
3.895666450262069702e-03
3.895345842465758324e-03
3.895016619935631752e-03
3.894679015502333641e-03
3.894333029165863991e-03
3.893978893756866455e-03
3.893616842105984688e-03
3.893247339874505997e-03
3.892870852723717690e-03
3.892488079145550728e-03
3.892100416123867035e-03
3.891709493473172188e-03
3.891317639499902725e-03
3.890927415341138840e-03
3.890539286658167839e-03
3.890150692313909531e-03
3.889756277203559875e-03
3.889349522069096565e-03
3.888923907652497292e-03
3.888474777340888977e-03
3.888000268489122391e-03
3.887501079589128494e-03
3.886979306116700172e-03
3.886437742039561272e-03
3.885879181325435638e-03
3.885305719450116158e-03
3.884718520566821098e-03
3.884118283167481422e-03
3.883504774421453476e-03
3.882877528667449951e-03
3.882235381752252579e-03
3.881577169522643089e-03
3.880901494994759560e-03
3.880207194015383720e-03
3.879492869600653648e-03
3.878757823258638382e-03
3.878001589328050613e-03
3.877224400639533997e-03
3.876427188515663147e-03
3.875610651448369026e-03
3.874775953590869904e-03
3.873923793435096741e-03
3.873055102303624153e-03
3.872170345857739449e-03
3.871269291266798973e-03
3.870352171361446381e-03
3.869418520480394363e-03
3.868468338623642921e-03
3.867501858621835709e-03
3.866519080474972725e-03
3.865520469844341278e-03
3.864506492391228676e-03
3.863477613776922226e-03
3.862434299662709236e-03
3.861376550048589706e-03
3.860304364934563637e-03
3.859217744320631027e-03
3.858116455376148224e-03
3.857000265270471573e-03
3.855869174003601074e-03
3.854722948744893074e-03
3.853561356663703918e-03
3.852383233606815338e-03
3.851184621453285217e-03
3.849955275654792786e-03
3.848696127533912659e-03
3.847418818622827530e-03
3.846139647066593170e-03
3.844873979687690735e-03
3.843629499897360802e-03
3.842396894469857216e-03
3.841155441477894783e-03
3.839886747300624847e-03
3.838583827018737793e-03
3.837254596874117851e-03
3.835916053503751755e-03
3.834586590528488159e-03
3.833277383819222450e-03
3.831985872238874435e-03
3.830695757642388344e-03
3.829385153949260712e-03
3.828035667538642883e-03
3.826640779152512550e-03
3.825205611065030098e-03
3.823744133114814758e-03
3.822271944954991341e-03
3.820799058303236961e-03
3.819326637312769890e-03
3.817846300080418587e-03
3.816345473751425743e-03
3.814813215285539627e-03
3.813244402408599854e-03
3.811642294749617577e-03
3.810016904026269913e-03
3.808380104601383209e-03
3.806741442531347275e-03
3.805104643106460571e-03
3.803466213867068291e-03
3.801818005740642548e-03
3.800150705501437187e-03
3.798457793891429901e-03
3.796737641096115112e-03
3.794994438067078590e-03
3.793235402554273605e-03
3.791468450799584389e-03
3.789698472246527672e-03
3.787925932556390762e-03
3.786147339269518852e-03
3.784356638789176941e-03
3.782547777518630028e-03
3.780717030167579651e-03
3.778864163905382156e-03
3.776992438361048698e-03
3.775106742978096008e-03
3.773211967200040817e-03
3.771310904994606972e-03
3.769403556361794472e-03
3.767487825825810432e-03
3.765560220927000046e-03
3.763617714866995811e-03
3.761658677831292152e-03
3.759683808311820030e-03
3.757695667445659637e-03
3.755697980523109436e-03
3.753694007173180580e-03
3.751685610041022301e-03
3.749673487618565559e-03
3.747656708583235741e-03
3.745633643120527267e-03
3.743602661415934563e-03
3.741563530638813972e-03
3.739516483619809151e-03
3.737462917342782021e-03
3.735404228791594505e-03
3.733342047780752182e-03
3.731276607140898705e-03
3.729207441210746765e-03
3.727133385837078094e-03
3.725053276866674423e-03
3.722965717315673828e-03
3.720870474353432655e-03
3.718767780810594559e-03
3.716658800840377808e-03
3.714544698596000671e-03
3.712426638230681419e-03
3.710305551066994667e-03
3.708182135596871376e-03
3.706056391820311546e-03
3.703928785398602486e-03
3.701799781993031502e-03
3.699669847264885902e-03
3.697540145367383957e-03
3.695411374792456627e-03
3.693284466862678528e-03
3.691159421578049660e-03
3.689035773277282715e-03
3.686913056299090385e-03
3.684790339320898056e-03
3.682666923850774765e-03
3.680541878566145897e-03
3.678415203467011452e-03
3.676286665722727776e-03
3.674156265333294868e-03
3.672024235129356384e-03
3.669890807941555977e-03
3.667756216600537300e-03
3.665620693936944008e-03
3.663484705612063408e-03
3.661348717287182808e-03
3.659213893115520477e-03
3.657080931589007378e-03
3.654951229691505432e-03
3.652825718745589256e-03
3.650705795735120773e-03
3.648592857643961906e-03
3.646488068625330925e-03
3.644393058493733406e-03
3.642308991402387619e-03
3.640237497165799141e-03
3.638179972767829895e-03
3.636138048022985458e-03
3.634112887084484100e-03
3.632106119766831398e-03
3.630119143053889275e-03
3.628153819590806961e-03
3.626212244853377342e-03
3.624296514317393303e-03
3.622409421950578690e-03
3.620553761720657349e-03
3.618732793256640434e-03
3.616950707510113716e-03
3.615212393924593925e-03
3.613524138927459717e-03
3.611894324421882629e-03
3.610335290431976318e-03
3.608866827562451363e-03
3.607521299272775650e-03
3.606334328651428223e-03
3.605314064770936966e-03
3.604450495913624763e-03
3.603721503168344498e-03
3.603090532124042511e-03
3.602513112127780914e-03
3.601943608373403549e-03
3.601334523409605026e-03
3.600640455260872841e-03
3.599833929911255836e-03
3.598913317546248436e-03
3.597895381972193718e-03
3.596808295696973801e-03
3.595684422180056572e-03
3.594548907130956650e-03
3.593414323404431343e-03
3.592284396290779114e-03
3.591156098991632462e-03
3.590019652619957924e-03
3.588860388845205307e-03
3.587665734812617302e-03
3.586427308619022369e-03
3.585141152143478394e-03
3.583810059353709221e-03
3.582443343475461006e-03
3.581052413210272789e-03
3.579646116122603416e-03
3.578230971470475197e-03
3.576810006052255630e-03
3.575381822884082794e-03
3.573941765353083611e-03
3.572484478354454041e-03
3.571005305275321007e-03
3.569499356672167778e-03
3.567962441593408585e-03
3.566391533240675926e-03
3.564784536138176918e-03
3.563139354810118675e-03
3.561455756425857544e-03
3.559735836461186409e-03
3.557983553037047386e-03
3.556204726919531822e-03
3.554406343027949333e-03
3.552596317604184151e-03
3.550780704244971275e-03
3.548963461071252823e-03
3.547146450728178024e-03
3.545329207554459572e-03
3.543509170413017273e-03
3.541683312505483627e-03
3.539848607033491135e-03
3.538002958521246910e-03
3.536144504323601723e-03
3.534272313117980957e-03
3.532386617735028267e-03
3.530486952513456345e-03
3.528573084622621536e-03
3.526644781231880188e-03
3.524701576679944992e-03
3.522743005305528641e-03
3.520768601447343826e-03
3.518777899444103241e-03
3.516770666465163231e-03
3.514745971187949181e-03
3.512702416628599167e-03
3.510639071464538574e-03
3.508555004373192787e-03
3.506449051201343536e-03
3.504320979118347168e-03
3.502171253785490990e-03
3.500000573694705963e-03
3.497809637337923050e-03
3.495599841699004173e-03
3.493372118100523949e-03
3.491127397865056992e-03
3.488866845145821571e-03
3.486591624096035957e-03
3.484302898868918419e-03
3.482002299278974533e-03
3.479691687971353531e-03
3.477372461929917336e-03
3.475046716630458832e-03
3.472715849056839943e-03
3.470381256192922592e-03
3.468044102191925049e-03
3.465705551207065582e-03
3.463366068899631500e-03
3.461026353761553764e-03
3.458686405792832375e-03
3.456346457824110985e-03
3.454006509855389595e-03
3.451665863394737244e-03
3.449324285611510277e-03
3.446981310844421387e-03
3.444636007770895958e-03
3.442287910729646683e-03
3.439936321228742599e-03
3.437580307945609093e-03
3.435219172388315201e-03
3.432852448895573616e-03
3.430479206144809723e-03
3.428099211305379868e-03
3.425712231546640396e-03
3.423317801207304001e-03
3.420915687456727028e-03
3.418505890294909477e-03
3.416088409721851349e-03
3.413663012906908989e-03
3.411229699850082397e-03
3.408788237720727921e-03
3.406338393688201904e-03
3.403879469260573387e-03
3.401411231607198715e-03
3.398932982236146927e-03
3.396444022655487061e-03
3.393943654373288155e-03
3.391431644558906555e-03
3.388907527551054955e-03
3.386371303349733353e-03
3.383823437616229057e-03
3.381265094503760338e-03
3.378697670996189117e-03
3.376123262569308281e-03
3.373544430360198021e-03
3.370964201167225838e-03
3.368385834619402885e-03
3.365813056007027626e-03
3.363249124959111214e-03
3.360697766765952110e-03
3.358162473887205124e-03
3.355646505951881409e-03
3.353152656927704811e-03
3.350683487951755524e-03
3.348241094499826431e-03
3.345827339217066765e-03
3.343443386256694794e-03
3.341090399771928787e-03
3.338768845424056053e-03
3.336478956043720245e-03
3.334220731630921364e-03
3.331993939355015755e-03
3.329798113554716110e-03
3.327632788568735123e-03
3.325497498735785484e-03
3.323391312733292580e-03
3.321313532069325447e-03
3.319262992590665817e-03
3.317238762974739075e-03
3.315239679068326950e-03
3.313264576718211174e-03
3.311312524601817131e-03
3.309382824227213860e-03
3.307474311441183090e-03
3.305586287751793861e-03
3.303717821836471558e-03
3.301867749541997910e-03
3.300035139545798302e-03
3.298219060525298119e-03
3.296418115496635437e-03
3.294631373137235641e-03
3.292857902124524117e-03
3.291096771135926247e-03
3.289347048848867416e-03
3.287608269602060318e-03
3.285879502072930336e-03
3.284160280600190163e-03
3.282449906691908836e-03
3.280747914686799049e-03
3.279053838923573494e-03
3.277366980910301208e-03
3.275686874985694885e-03
3.274013055488467216e-03
3.272345056757330894e-03
3.270682180300354958e-03
3.269024193286895752e-03
3.267370397225022316e-03
3.265720326453447342e-03
3.264073515310883522e-03
3.262429498136043549e-03
3.260787576436996460e-03
3.259147517383098602e-03
3.257508622482419014e-03
3.255870658904314041e-03
3.254232928156852722e-03
3.252595197409391403e-03
3.250957233831286430e-03
3.249318571761250496e-03
3.247678978368639946e-03
3.246038453653454781e-03
3.244396531954407692e-03
3.242753213271498680e-03
3.241108497604727745e-03
3.239462152123451233e-03
3.237814176827669144e-03
3.236164338886737823e-03
3.234512638300657272e-03
3.232859075069427490e-03
3.231203649193048477e-03
3.229545895010232925e-03
3.227885812520980835e-03
3.226223168894648552e-03
3.224557731300592422e-03
3.222889266908168793e-03
3.221217775717377663e-03
3.219542792066931725e-03
3.217864315956830978e-03
3.216182347387075424e-03
3.214496653527021408e-03
3.212807234376668930e-03
3.211114322766661644e-03
3.209417918696999550e-03
3.207718022167682648e-03
3.206014866009354591e-03
3.204308450222015381e-03
3.202599240466952324e-03
3.200887236744165421e-03
3.199172904714941978e-03
3.197456477209925652e-03
3.195738187059760094e-03
3.194018267095088959e-03
3.192297182977199554e-03
3.190575167536735535e-03
3.188852453604340553e-03
3.187129274010658264e-03
3.185406094416975975e-03
3.183682914823293686e-03
3.181960200890898705e-03
3.180237952619791031e-03
3.178516402840614319e-03
3.176795784384012222e-03
3.175076330080628395e-03
3.173358039930462837e-03
3.171641146764159203e-03
3.169925650581717491e-03
3.168211551383137703e-03
3.166499081999063492e-03
3.164788009598851204e-03
3.163078567013144493e-03
3.161370754241943359e-03
3.159664571285247803e-03
3.157959785312414169e-03
3.156256629154086113e-03
3.154554869979619980e-03
3.152854274958372116e-03
3.151155076920986176e-03
3.149457043036818504e-03
3.147759940475225449e-03
3.146063769236207008e-03
3.144368296489119530e-03
3.142673289403319359e-03
3.140978747978806496e-03
3.139284206554293633e-03
3.137589665129780769e-03
3.135894658043980598e-03
3.134199185296893120e-03
3.132502781227231026e-03
3.130805445834994316e-03
3.129106713458895683e-03
3.127406118437647820e-03
3.125703660771250725e-03
3.123998641967773438e-03
3.122291062027215958e-03
3.120580455288290977e-03
3.118866588920354843e-03
3.117148997262120247e-03
3.115427447482943535e-03
3.113701473921537399e-03
3.111970843747258186e-03
3.110235324129462242e-03
3.108494682237505913e-03
3.106748219579458237e-03
3.104995936155319214e-03
3.103237366303801537e-03
3.101472277194261551e-03
3.099700435996055603e-03
3.097921377047896385e-03
3.096134634688496590e-03
3.094339743256568909e-03
3.092536469921469688e-03
3.090724116191267967e-03
3.088902216404676437e-03
3.087070072069764137e-03
3.085226751863956451e-03
3.083371557295322418e-03
3.081503091380000114e-03
3.079619957134127617e-03
3.077720757573843002e-03
3.075803397223353386e-03
3.073865780606865883e-03
3.071905346587300301e-03
3.069919999688863754e-03
3.067907877266407013e-03
3.065867582336068153e-03
3.063798183575272560e-03
3.061699215322732925e-03
3.059571143239736557e-03
3.057415829971432686e-03
3.055237000808119774e-03
3.053040243685245514e-03
3.050832776352763176e-03
3.048622747883200645e-03
3.046418074518442154e-03
3.044226672500371933e-03
3.042055061087012291e-03
3.039908828213810921e-03
3.037792164832353592e-03
3.035708330571651459e-03
3.033659188076853752e-03
3.031645203009247780e-03
3.029665909707546234e-03
3.027719212695956230e-03
3.025802318006753922e-03
3.023911500349640846e-03
3.022042568773031235e-03
3.020191565155982971e-03
3.018354298546910286e-03
3.016527742147445679e-03
3.014709101989865303e-03
3.012895584106445312e-03
3.011084627360105515e-03
3.009273204952478409e-03
3.007458290085196495e-03
3.005636855959892273e-03
3.003806807100772858e-03
3.001966746523976326e-03
3.000116674229502678e-03
2.998257288709282875e-03
2.996389986947178841e-03
2.994515467435121536e-03
2.992633963003754616e-03
2.990744542330503464e-03
2.988844877108931541e-03
2.986932406201958656e-03
2.985004568472504616e-03
2.983059501275420189e-03
2.981096738949418068e-03
2.979116747155785561e-03
2.977120922878384590e-03
2.975111128762364388e-03
2.973089227452874184e-03
2.971056383103132248e-03
2.969013527035713196e-03
2.966960892081260681e-03
2.964898711070418358e-03
2.962826984003186226e-03
2.960746642202138901e-03
2.958658151328563690e-03
2.956562675535678864e-03
2.954461844637989998e-03
2.952356822788715363e-03
2.950249239802360535e-03
2.948140725493431091e-03
2.946032676845788956e-03
2.943926258012652397e-03
2.941822633147239685e-03
2.939722733572125435e-03
2.937627490609884262e-03
2.935537835583090782e-03
2.933454466983675957e-03
2.931378781795501709e-03
2.929312177002429962e-03
2.927255816757678986e-03
2.925211563706398010e-03
2.923181047663092613e-03
2.921166596934199333e-03
2.919170772656798363e-03
2.917197067290544510e-03
2.915249904617667198e-03
2.913333708420395851e-03
2.911453600972890854e-03
2.909613773226737976e-03
2.907817019149661064e-03
2.906064270064234734e-03
2.904353896155953407e-03
2.902682172134518623e-03
2.901043742895126343e-03
2.899432089179754257e-03
2.897839993238449097e-03
2.896260004490613937e-03
2.894685370847582817e-03
2.893109573051333427e-03
2.891526324674487114e-03
2.889930270612239838e-03
2.888316754251718521e-03
2.886681584641337395e-03
2.885021269321441650e-03
2.883333014324307442e-03
2.881615189835429192e-03
2.879867097362875938e-03
2.878089202567934990e-03
2.876283600926399231e-03
2.874453319236636162e-03
2.872602781280875206e-03
2.870737109333276749e-03
2.868861891329288483e-03
2.866982249543070793e-03
2.865102840587496758e-03
2.863227389752864838e-03
2.861357992514967918e-03
2.859495347365736961e-03
2.857639221474528313e-03
2.855788450688123703e-03
2.853940473869442940e-03
2.852092962712049484e-03
2.850243356078863144e-03
2.848388860002160072e-03
2.846527379006147385e-03
2.844657050445675850e-03
2.842776710167527199e-03
2.840885426849126816e-03
2.838982967659831047e-03
2.837069332599639893e-03
2.835144754499197006e-03
2.833209466189146042e-03
2.831264166161417961e-03
2.829309552907943726e-03
2.827346092090010643e-03
2.825374482199549675e-03
2.823395421728491783e-03
2.821409376338124275e-03
2.819417044520378113e-03
2.817419124767184258e-03
2.815416082739830017e-03
2.813408849760890007e-03
2.811397658661007881e-03
2.809383440762758255e-03
2.807366661727428436e-03
2.805348020046949387e-03
2.803327981382608414e-03
2.801307011395692825e-03
2.799285575747489929e-03
2.797264140099287033e-03
2.795243402943015099e-03
2.793223597109317780e-03
2.791205653920769691e-03
2.789190039038658142e-03
2.787177450954914093e-03
2.785168820992112160e-03
2.783165080472826958e-03
2.781166927888989449e-03
2.779175294563174248e-03
2.777190878987312317e-03
2.775214379653334618e-03
2.773246262222528458e-03
2.771286526694893837e-03
2.769334940239787102e-03
2.767390338703989983e-03
2.765450859442353249e-03
2.763514174148440361e-03
2.761577256023883820e-03
2.759637311100959778e-03
2.757692011073231697e-03
2.755740191787481308e-03
2.753782086074352264e-03
2.751818159595131874e-03
2.749849576503038406e-03
2.747877035290002823e-03
2.745899837464094162e-03
2.743916120380163193e-03
2.741923090070486069e-03
2.739917486906051636e-03
2.737895818427205086e-03
2.735855523496866226e-03
2.733794972300529480e-03
2.731713233515620232e-03
2.729610772803425789e-03
2.727488754317164421e-03
2.725349040701985359e-03
2.723193960264325142e-03
2.721026306971907616e-03
2.718849107623100281e-03
2.716665621846914291e-03
2.714478410780429840e-03
2.712289802730083466e-03
2.710101427510380745e-03
2.707913983613252640e-03
2.705727005377411842e-03
2.703539328649640083e-03
2.701348625123500824e-03
2.699152100831270218e-03
2.696947194635868073e-03
2.694731578230857849e-03
2.692503854632377625e-03
2.690263092517852783e-03
2.688009524717926979e-03
2.685743151232600212e-03
2.683464437723159790e-03
2.681173617020249367e-03
2.678870456293225288e-03
2.676554489880800247e-03
2.674225019291043282e-03
2.671880647540092468e-03
2.669520443305373192e-03
2.667143475264310837e-03
2.664749277755618095e-03
2.662337617948651314e-03
2.659908728674054146e-03
2.657463075593113899e-03
2.655001124367117882e-03
2.652523573487997055e-03
2.650031354278326035e-03
2.647524932399392128e-03
2.645005006343126297e-03
2.642472507432103157e-03
2.639928134158253670e-03
2.637372585013508797e-03
2.634806558489799500e-03
2.632230520248413086e-03
2.629644935950636864e-03
2.627049805596470833e-03
2.624445129185914993e-03
2.621830906718969345e-03
2.619206672534346581e-03
2.616572426632046700e-03
2.613927703350782394e-03
2.611272269859910011e-03
2.608606126159429550e-03
2.605929039418697357e-03
2.603241242468357086e-03
2.600542502477765083e-03
2.597832586616277695e-03
2.595111494883894920e-03
2.592379227280616760e-03
2.589635550975799561e-03
2.586880233138799667e-03
2.584113273769617081e-03
2.581334672868251801e-03
2.578544197604060173e-03
2.575742080807685852e-03
2.572928322479128838e-03
2.570102922618389130e-03
2.567265881225466728e-03
2.564417198300361633e-03
2.561557106673717499e-03
2.558685373514890671e-03
2.555802231654524803e-03
2.552907681092619896e-03
2.550001954659819603e-03
2.547085052356123924e-03
2.544157207012176514e-03
2.541218418627977371e-03
2.538268920034170151e-03
2.535308711230754852e-03
2.532337559387087822e-03
2.529355464503169060e-03
2.526362426578998566e-03
2.523358212783932686e-03
2.520342823117971420e-03
2.517316257581114769e-03
2.514278283342719078e-03
2.511228900402784348e-03
2.508168108761310577e-03
2.505095908418297768e-03
2.502012299373745918e-03
2.498917048797011375e-03
2.495810389518737793e-03
2.492692554369568825e-03
2.489563310518860817e-03
2.486422890797257423e-03
2.483271295204758644e-03
2.480108523741364479e-03
2.476934809237718582e-03
2.473750384524464607e-03
2.470555249601602554e-03
2.467349870130419731e-03
2.464134246110916138e-03
2.460908843204379082e-03
2.457673894241452217e-03
2.454429864883422852e-03
2.451176987960934639e-03
2.447915496304631233e-03
2.444646088406443596e-03
2.441368997097015381e-03
2.438084455206990242e-03
2.434793161228299141e-03
2.431495347991585732e-03
2.428191248327493668e-03
2.424881327897310257e-03
2.421565819531679153e-03
2.418245188891887665e-03
2.414919668808579445e-03
2.411589492112398148e-03
2.408254891633987427e-03
2.404916100203990936e-03
2.401573350653052330e-03
2.398226642981171608e-03
2.394876210018992424e-03
2.391522284597158432e-03
2.388164866715669632e-03
2.384803956374526024e-03
2.381439786404371262e-03
2.378072356805205345e-03
2.374701434746384621e-03
2.371327020227909088e-03
2.367949113249778748e-03
2.364567480981349945e-03
2.361181890591979027e-03
2.357792342081665993e-03
2.354398602619767189e-03
2.351000439375638962e-03
2.347597619518637657e-03
2.344189910218119621e-03
2.340777078643441200e-03
2.337358426302671432e-03
2.333933720365166664e-03
2.330502262338995934e-03
2.327063353732228279e-03
2.323616296052932739e-03
2.320160157978534698e-03
2.316694008186459541e-03
2.313217148184776306e-03
2.309729345142841339e-03
2.306230831891298294e-03
2.302722539752721786e-03
2.299206564202904701e-03
2.295685466378927231e-03
2.292161341756582260e-03
2.288635587319731712e-03
2.285108203068375587e-03
2.281578490510582924e-03
2.278044354170560837e-03
2.274503931403160095e-03
2.270955825224518776e-03
2.267399104312062263e-03
2.263834234327077866e-03
2.260261913761496544e-03
2.256682841107249260e-03
2.253097016364336014e-03
2.249503741040825844e-03
2.245901618152856827e-03
2.242289483547210693e-03
2.238666638731956482e-03
2.235033083707094193e-03
2.231390215456485748e-03
2.227739663794636726e-03
2.224082825705409050e-03
2.220420865342020988e-03
2.216754015535116196e-03
2.213081810623407364e-03
2.209403552114963531e-03
2.205718308687210083e-03
2.202026080340147018e-03
2.198327099904417992e-03
2.194621833041310310e-03
2.190910745412111282e-03
2.187194069847464561e-03
2.183472039178013802e-03
2.179744187742471695e-03
2.176010049879550934e-03
2.172269392758607864e-03
2.168522216379642487e-03
2.164768753573298454e-03
2.161009470000863075e-03
2.157244365662336349e-03
2.153473673388361931e-03
2.149697160348296165e-03
2.145914593711495399e-03
2.142125740647315979e-03
2.138330368325114250e-03
2.134528476744890213e-03
2.130719833076000214e-03
2.126904437318444252e-03
2.123082289472222328e-03
2.119252923876047134e-03
2.115416107699275017e-03
2.111571375280618668e-03
2.107718493789434433e-03
2.103857230395078659e-03
2.099987817928195000e-03
2.096110489219427109e-03
2.092226175591349602e-03
2.088335808366537094e-03
2.084440784528851509e-03
2.080542733892798424e-03
2.076643286272883415e-03
2.072743605822324753e-03
2.068844391033053398e-03
2.064945874735713005e-03
2.061047358438372612e-03
2.057148143649101257e-03
2.053247066214680672e-03
2.049343194812536240e-03
2.045436063781380653e-03
2.041525440290570259e-03
2.037611324340105057e-03
2.033693948760628700e-03
2.029773313552141190e-03
2.025849185883998871e-03
2.021921332925558090e-03
2.017989521846175194e-03
2.014053519815206528e-03
2.010113094002008438e-03
2.006168244406580925e-03
2.002219203859567642e-03
1.998266205191612244e-03
1.994309481233358383e-03
1.990349497646093369e-03
1.986386487260460854e-03
1.982420682907104492e-03
1.978452550247311592e-03
1.974482554942369461e-03
1.970510929822921753e-03
1.966537674888968468e-03
1.962563022971153259e-03
1.958586974069476128e-03
1.954609062522649765e-03
1.950629288330674171e-03
1.946647185832262039e-03
1.942662522196769714e-03
1.938675064593553543e-03
1.934684463776648045e-03
1.930690370500087738e-03
1.926692668348550797e-03
1.922691124491393566e-03
1.918685389682650566e-03
1.914675231091678143e-03
1.910660532303154469e-03
1.906641060486435890e-03
1.902616699226200581e-03
1.898587564937770367e-03
1.894553541205823421e-03
1.890514628030359745e-03
1.886470941826701164e-03
1.882422599010169506e-03
1.878369483165442944e-03
1.874311710707843304e-03
1.870249281637370586e-03
1.866182195954024792e-03
1.862110570073127747e-03
1.858034403994679451e-03
1.853953814134001732e-03
1.849868684075772762e-03
1.845779130235314369e-03
1.841685152612626553e-03
1.837586634792387486e-03
1.833483576774597168e-03
1.829375978559255600e-03
1.825263723731040955e-03
1.821146928705275059e-03
1.817025477066636086e-03
1.812899368815124035e-03
1.808768603950738907e-03
1.804633066058158875e-03
1.800492638722062111e-03
1.796347321942448616e-03
1.792196999303996563e-03
1.788041670806705952e-03
1.783881220035254955e-03
1.779715646989643574e-03
1.775544718839228153e-03
1.771368435584008694e-03
1.767186680808663368e-03
1.762999221682548523e-03
1.758805941790342331e-03
1.754606724716722965e-03
1.750401454046368599e-03
1.746189896948635578e-03
1.741971820592880249e-03
1.737747108563780785e-03
1.733515411615371704e-03
1.729276496917009354e-03
1.725030131638050079e-03
1.720775850117206573e-03
1.716513303108513355e-03
1.712241792120039463e-03
1.707960851490497589e-03
1.703669549897313118e-03
1.699366956017911434e-03
1.695051905699074268e-03
1.690722769126296043e-03
1.686377567239105701e-03
1.682013855315744877e-03
1.677628490142524242e-03
1.673217862844467163e-03
1.668778015300631523e-03
1.664304989390075207e-03
1.659795176237821579e-03
1.655246131122112274e-03
1.650657155551016331e-03
1.646029413677752018e-03
1.641365815885365009e-03
1.636670553125441074e-03
1.631948398426175117e-03
1.627204474061727524e-03
1.622444018721580505e-03
1.617672736756503582e-03
1.612896914593875408e-03
1.608124002814292908e-03
1.603362150490283966e-03
1.598619506694376469e-03
1.593903754837810993e-03
1.589220948517322540e-03
1.584574696607887745e-03
1.579966512508690357e-03
1.575396046973764896e-03
1.570861553773283958e-03
1.566360588185489178e-03
1.561890705488622189e-03
1.557449344545602798e-03
1.553033944219350815e-03
1.548641477711498737e-03
1.544268568977713585e-03
1.539911259897053242e-03
1.535565243102610111e-03
1.531226094812154770e-03
1.526889740489423275e-03
1.522552804090082645e-03
1.518212491646409035e-03
1.513866940513253212e-03
1.509514753706753254e-03
1.505154999904334545e-03
1.500786980614066124e-03
1.496410346589982510e-03
1.492024865001440048e-03
1.487630652263760567e-03
1.483228406868875027e-03
1.478819060139358044e-03
1.474404125474393368e-03
1.469985465519130230e-03
1.465564942918717861e-03
1.461144536733627319e-03
1.456725993193686008e-03
1.452311058528721333e-03
1.447901129722595215e-03
1.443497370928525925e-03
1.439100829884409904e-03
1.434712205082178116e-03
1.430331845767796040e-03
1.425959751941263676e-03
1.421595574356615543e-03
1.417238730937242508e-03
1.412888406775891781e-03
1.408543554134666920e-03
1.404203241690993309e-03
1.399866421706974506e-03
1.395532046444714069e-03
1.391199068166315556e-03
1.386866206303238869e-03
1.382532180286943913e-03
1.378195709548890591e-03
1.373855513520538807e-03
1.369510544463992119e-03
1.365159871056675911e-03
1.360802794806659222e-03
1.356438733637332916e-03
1.352067338302731514e-03
1.347688492387533188e-03
1.343301846645772457e-03
1.338907401077449322e-03
1.334504922851920128e-03
1.330094411969184875e-03
1.325675752013921738e-03
1.321249175816774368e-03
1.316814799793064594e-03
1.312373089604079723e-03
1.307924394495785236e-03
1.303469180129468441e-03
1.299007795751094818e-03
1.294540707021951675e-03
1.290068263188004494e-03
1.285590697079896927e-03
1.281108357943594456e-03
1.276621595025062561e-03
1.272130873985588551e-03
1.267636660486459732e-03
1.263139303773641586e-03
1.258639269508421421e-03
1.254136906936764717e-03
1.249632565304636955e-03
1.245126477442681789e-03
1.240618759766221046e-03
1.236109412275254726e-03
1.231598318554461002e-03
1.227085362188518047e-03
1.222570310346782207e-03
1.218052813783288002e-03
1.213532406836748123e-03
1.209008623845875263e-03
1.204480882734060287e-03
1.199948601424694061e-03
1.195411197841167450e-03
1.190867857076227665e-03
1.186317997053265572e-03
1.181761035695672035e-03
1.177196507342159748e-03
1.172624062746763229e-03
1.168043352663516998e-03
1.163454377092421055e-03
1.158857252448797226e-03
1.154252211563289165e-03
1.149639720097184181e-03
1.145020127296447754e-03
1.140394131653010845e-03
1.135762198828160763e-03
1.131125027313828468e-03
1.126483199186623096e-03
1.121837180107831955e-03
1.117187668569386005e-03
1.112535130232572556e-03
1.107880030758678913e-03
1.103222835808992386e-03
1.098563778214156628e-03
1.093903207220137119e-03
1.089241239242255688e-03
1.084578107111155987e-03
1.079913810826838017e-03
1.075248233973979950e-03
1.070581492967903614e-03
1.065913354977965355e-03
1.061243820004165173e-03
1.056572655215859413e-03
1.051899860613048077e-03
1.047225086949765682e-03
1.042548217810690403e-03
1.037868903949856758e-03
1.033187028951942921e-03
1.028502359986305237e-03
1.023814780637621880e-03
1.019123941659927368e-03
1.014429726637899876e-03
1.009731902740895748e-03
1.005030469968914986e-03
1.000325195491313934e-03
9.956161957234144211e-04
9.909032378345727921e-04
9.861864382401108742e-04
9.814657969400286674e-04
9.767414303496479988e-04
9.720133966766297817e-04
9.672817541286349297e-04
9.625466773286461830e-04
9.578082244843244553e-04
9.530665120109915733e-04
9.483216563239693642e-04
9.435737738385796547e-04
9.388229809701442719e-04
9.340693359263241291e-04
9.293129551224410534e-04
9.245538385584950447e-04
9.197920444421470165e-04
9.150276309810578823e-04
9.102605981752276421e-04
9.054908878169953823e-04
9.007185581140220165e-04
8.959436672739684582e-04
8.911661570891737938e-04
8.863859693519771099e-04
8.816031040623784065e-04
8.768175612203776836e-04
8.720293408259749413e-04
8.672383846715092659e-04
8.624446927569806576e-04
8.576482650823891163e-04
8.528490434400737286e-04
8.480470860376954079e-04
8.432422764599323273e-04
8.384346729144454002e-04
8.336242754012346268e-04
8.288110839203000069e-04
8.239951566793024540e-04
8.191764354705810547e-04
8.143549785017967224e-04
8.095307857729494572e-04
8.047039154917001724e-04
7.998743676580488682e-04
7.950421422719955444e-04
7.902072975412011147e-04
7.853698334656655788e-04
7.805298082530498505e-04
7.756872219033539295e-04
7.708421908318996429e-04
7.659946568310260773e-04
7.611447363160550594e-04
7.562924874946475029e-04
7.514379103668034077e-04
7.465810631401836872e-04
7.417220622301101685e-04
7.368609658442437649e-04
7.319977739825844765e-04
7.271326030604541302e-04
7.222655112855136395e-04
7.173966150730848312e-04
7.125259144231677055e-04
7.076535257510840893e-04
7.027795654721558094e-04
6.979040917940437794e-04
6.930271629244089127e-04
6.881488370709121227e-04
6.832692306488752365e-04
6.783883436582982540e-04
6.735062343068420887e-04
6.686229608021676540e-04
6.637384649366140366e-04
6.588528049178421497e-04
6.539659807458519936e-04
6.490779342129826546e-04
6.441886071115732193e-04
6.392978830263018608e-04
6.344057619571685791e-04
6.295120692811906338e-04
6.246166885830461979e-04
6.197195034474134445e-04
6.148203974589705467e-04
6.099191377870738506e-04
6.050154916010797024e-04
6.001092842780053616e-04
5.952002829872071743e-04
5.902882548980414867e-04
5.853729671798646450e-04
5.804541870020329952e-04
5.755316815339028835e-04
5.706052179448306561e-04
5.656745051965117455e-04
5.607393104583024979e-04
5.557994008995592594e-04
5.508545436896383762e-04
5.459045642055571079e-04
5.409492296166718006e-04
5.359883652999997139e-04
5.310217966325581074e-04
5.260493489913642406e-04
5.210709059610962868e-04
5.160863511264324188e-04
5.110955680720508099e-04
5.060984985902905464e-04
5.010950844734907150e-04
4.960852093063294888e-04
4.910688730888068676e-04
4.860459885094314814e-04
4.810165555682033300e-04
4.759805742651224136e-04
4.709380446001887321e-04
4.658889956772327423e-04
4.608334566000849009e-04
4.557714564725756645e-04
4.507030535023659468e-04
4.456283058971166611e-04
4.405472718644887209e-04
4.354600387159734964e-04
4.303666937630623579e-04
4.252673534210771322e-04
4.201621050015091896e-04
4.150510940235108137e-04
4.099344660062342882e-04
4.048123955726623535e-04
3.996850573457777500e-04
3.945526841562241316e-04
3.894155088346451521e-04
3.842737642116844654e-04
3.791276831179857254e-04
3.739775856956839561e-04
3.688237920869141817e-04
3.636666224338114262e-04
3.585063677746802568e-04
3.533432900439947844e-04
3.481776511762291193e-04
3.430095675867050886e-04
3.378390101715922356e-04
3.326658334117382765e-04
3.274896007496863604e-04
3.223097883164882660e-04
3.171256976202130318e-04
3.119365428574383259e-04
3.067415091209113598e-04
3.015398979187011719e-04
2.963310689665377140e-04
2.911145566031336784e-04
2.858900115825235844e-04
2.806571719702333212e-04
2.754159213509410620e-04
2.701662015169858932e-04
2.649080124683678150e-04
2.596414415165781975e-04
2.543666632845997810e-04
2.490838523954153061e-04
2.437933144392445683e-04
2.384953841101378202e-04
2.331904252059757710e-04
2.278788306284695864e-04
2.225609641754999757e-04
2.172372187487781048e-04
2.119079435942694545e-04
2.065735461656004190e-04
2.012344048125669360e-04
1.958909269887953997e-04
1.905435492517426610e-04
1.851927227107807994e-04
1.798389275791123509e-04
1.744826877256855369e-04
1.691244833637028933e-04
1.637647801544517279e-04
1.584039855515584350e-04
1.530425070086494088e-04
1.476807083236053586e-04
1.423189387423917651e-04
1.369575475109741092e-04
1.315969129791483283e-04
1.262374280486255884e-04
1.208795511047355831e-04
1.155237696366384625e-04
1.101706220651976764e-04
1.048206759151071310e-04
9.947459329850971699e-05
9.413302905159071088e-05
8.879665256245061755e-05
8.346617687493562698e-05
7.814228592906147242e-05
7.282559090526774526e-05
6.751666660420596600e-05
6.221598596312105656e-05
5.692389822797849774e-05
5.164062531548552215e-05
4.636628727894276381e-05
4.110094232601113617e-05
3.584459045669063926e-05
3.059718801523558795e-05
2.535870953579433262e-05
2.012915138038806617e-05
1.490854447183664888e-05
9.696901543065905571e-06
4.494224867812590674e-06
-6.995273906795773655e-07
-5.884462098038056865e-06
-1.106076979340286925e-05
-1.622873242013156414e-05
-2.138872150680981576e-05
-2.654118361533619463e-05
-3.168666444253176451e-05
-3.682578608277253807e-05
-4.195925066596828401e-05
-4.708782216766849160e-05
-5.221231549512594938e-05
-5.733358921133913100e-05
-6.245252006920054555e-05
-6.757001392543315887e-05
-7.268699846463277936e-05
-7.780439773341640830e-05
-8.292310667457059026e-05
-8.804401295492425561e-05
-9.316790965385735035e-05
-9.829555347096174955e-05
-1.034276356222108006e-04
-1.085647600120864809e-04
-1.137074141297489405e-04
-1.188560199807398021e-04
-1.240108831552788615e-04
-1.291722146561369300e-04
-1.343401381745934486e-04
-1.395146828144788742e-04
-1.446958049200475216e-04
-1.498833735240623355e-04
-1.550771994516253471e-04
-1.602771080797538161e-04
-1.654828520258888602e-04
-1.706942275632172823e-04
-1.759109873091802001e-04
-1.811329275369644165e-04
-1.863599172793328762e-04
-1.915918401209637523e-04
-1.968286524061113596e-04
-2.020703541347756982e-04
-2.073169744107872248e-04
-2.125685859937220812e-04
-2.178252907469868660e-04
-2.230872050859034061e-04
-2.283544163219630718e-04
-2.336270263185724616e-04
-2.389051369391381741e-04
-2.441888791508972645e-04
-2.494782675057649612e-04
-2.547733311075717211e-04
-2.600740699563175440e-04
-2.653804549481719732e-04
-2.706923987716436386e-04
-2.760097850114107132e-04
-2.813325263559818268e-04
-2.866604772862046957e-04
-2.919934922829270363e-04
-2.973314549308270216e-04
-3.026741906069219112e-04
-3.080215537920594215e-04
-3.133733989670872688e-04
-3.187295515090227127e-04
-3.240898950025439262e-04
-3.294542839284986258e-04
-3.348226018715649843e-04
-3.401947324164211750e-04
-3.455706173554062843e-04
-3.509501402731984854e-04
-3.563332429621368647e-04
-3.617198672145605087e-04
-3.671100712381303310e-04
-3.725039132405072451e-04
-3.779015678446739912e-04
-3.833033260889351368e-04
-3.887095954269170761e-04
-3.941208124160766602e-04
-3.995373845100402832e-04
-4.049595736432820559e-04
-4.103874671272933483e-04
-4.158208903390914202e-04
-4.212594649288803339e-04
-4.267025797162204981e-04
-4.321495944168418646e-04
-4.375997523311525583e-04
-4.430523549672216177e-04
-4.485067911446094513e-04
-4.539626534096896648e-04
-4.594195925164967775e-04
-4.648773756343871355e-04
-4.703358281403779984e-04
-4.757948918268084526e-04
-4.812543920706957579e-04
-4.867141833528876305e-04
-4.921740619465708733e-04
-4.976338241249322891e-04
-5.030932370573282242e-04
-5.085521261207759380e-04
-5.140103748999536037e-04
-5.194678669795393944e-04
-5.249246605671942234e-04
-5.303808720782399178e-04
-5.358367343433201313e-04
-5.412924801930785179e-04
-5.467483424581587315e-04
-5.522046703845262527e-04
-5.576617550104856491e-04
-5.631198873743414879e-04
-5.685792420990765095e-04
-5.740400520153343678e-04
-5.795024917460978031e-04
-5.849667359143495560e-04
-5.904329009354114532e-04
-5.959009868092834949e-04
-6.013710517436265945e-04
-6.068430375307798386e-04
-6.123168859630823135e-04
-6.177925970405340195e-04
-6.232699961401522160e-04
-6.287489668466150761e-04
-6.342294509522616863e-04
-6.397113902494311333e-04
-6.451946683228015900e-04
-6.506791687570512295e-04
-6.561647751368582249e-04
-6.616514874622225761e-04
-6.671391311101615429e-04
-6.726276478730142117e-04
-6.781168631277978420e-04
-6.836067186668515205e-04
-6.890970980748534203e-04
-6.945880013518035412e-04
-7.000793120823800564e-04
-7.055709720589220524e-04
-7.110629812814295292e-04
-7.165552233345806599e-04
-7.220477564260363579e-04
-7.275404641404747963e-04
-7.330333464778959751e-04
-7.385263452306389809e-04
-7.440194021910429001e-04
-7.495124591514468193e-04
-7.550054579041898251e-04
-7.604983402416110039e-04
-7.659909315407276154e-04
-7.714832318015396595e-04
-7.769751246087253094e-04
-7.824664935469627380e-04
-7.879572222009301186e-04
-7.934471941553056240e-04
-7.989362347871065140e-04
-8.044241112656891346e-04
-8.099107071757316589e-04
-8.153957896865904331e-04
-8.208791259676218033e-04
-8.263604249805212021e-04
-8.318393956869840622e-04
-8.373156888410449028e-04
-8.427889551967382431e-04
-8.482587873004376888e-04
-8.537247776985168457e-04
-8.591864607296884060e-04
-8.646433707326650620e-04
-8.700952166691422462e-04
-8.755416492931544781e-04
-8.809824939817190170e-04
-8.864177507348358631e-04
-8.918476523831486702e-04
-8.972727227956056595e-04
-9.026937186717987061e-04
-9.081116295419633389e-04
-9.135275031439960003e-04
-9.189426200464367867e-04
-9.243582026101648808e-04
-9.297754731960594654e-04
-9.351955959573388100e-04
-9.406195022165775299e-04
-9.460480068810284138e-04
-9.514814591966569424e-04
-9.569199755787849426e-04
-9.623632649891078472e-04
-9.678107453510165215e-04
-9.732616017572581768e-04
-9.787149028852581978e-04
-9.841697756201028824e-04
-9.896256960928440094e-04
-9.950823150575160980e-04
-1.000539632514119148e-03
-1.005998230539262295e-03
-1.011458691209554672e-03
-1.016922178678214550e-03
-1.022389857098460197e-03
-1.027863123454153538e-03
-1.033343258313834667e-03
-1.038831542246043682e-03
-1.044329139403998852e-03
-1.049836864694952965e-03
-1.055355416610836983e-03
-1.060885144397616386e-03
-1.066426397301256657e-03
-1.071979175321757793e-03
-1.077543362043797970e-03
-1.083118724636733532e-03
-1.088705030269920826e-03
-1.094301813282072544e-03
-1.099908840842545033e-03
-1.105525647290050983e-03
-1.111151650547981262e-03
-1.116786501370370388e-03
-1.122429617680609226e-03
-1.128080650232732296e-03
-1.133739016950130463e-03
-1.139404252171516418e-03
-1.145075890235602856e-03
-1.150753465481102467e-03
-1.156436628662049770e-03
-1.162125146947801113e-03
-1.167818787507712841e-03
-1.173517317511141300e-03
-1.179220736958086491e-03
-1.184928813017904758e-03
-1.190641662105917931e-03
-1.196359284222126007e-03
-1.202081795781850815e-03
-1.207809313200414181e-03
-1.213541836477816105e-03
-1.219279482029378414e-03
-1.225022366270422935e-03
-1.230770372785627842e-03
-1.236523501574993134e-03
-1.242281752638518810e-03
-1.248044893145561218e-03
-1.253812923096120358e-03
-1.259585609659552574e-03
-1.265362836420536041e-03
-1.271144254133105278e-03
-1.276929746381938457e-03
-1.282719080336391926e-03
-1.288512023165822029e-03
-1.294308458454906940e-03
-1.300108153373003006e-03
-1.305910875089466572e-03
-1.311716507188975811e-03
-1.317524933256208897e-03
-1.323335920460522175e-03
-1.329149352386593819e-03
-1.334965112619102001e-03
-1.340783084742724895e-03
-1.346603035926818848e-03
-1.352424733340740204e-03
-1.358248060569167137e-03
-1.364072668366134167e-03
-1.369898323900997639e-03
-1.375724794343113899e-03
-1.381551846861839294e-03
-1.387379132211208344e-03
-1.393206533975899220e-03
-1.399033819325268269e-03
-1.404860755428671837e-03
-1.410687225870788097e-03
-1.416513230651617050e-03
-1.422338886186480522e-03
-1.428164425306022167e-03
-1.433990080840885639e-03
-1.439816318452358246e-03
-1.445643603801727295e-03
-1.451472518965601921e-03
-1.457303529605269432e-03
-1.463137217797338963e-03
-1.468973932787775993e-03
-1.474813907407224178e-03
-1.480657141655683517e-03
-1.486503635533154011e-03
-1.492353272624313831e-03
-1.498205587267875671e-03
-1.504060230217874050e-03
-1.509916735813021660e-03
-1.515774754807353020e-03
-1.521633937954902649e-03
-1.527494052425026894e-03
-1.533354981802403927e-03
-1.539216609671711922e-03
-1.545078936032950878e-03
-1.550941960886120796e-03
-1.556805917061865330e-03
-1.562670920975506306e-03
-1.568537089042365551e-03
-1.574404654093086720e-03
-1.580273732542991638e-03
-1.586144440807402134e-03
-1.592016895301640034e-03
-1.597890979610383511e-03
-1.603766577318310738e-03
-1.609643688425421715e-03
-1.615522196516394615e-03
-1.621402218006551266e-03
-1.627284451387822628e-03
-1.633170060813426971e-03
-1.639061141759157181e-03
-1.644959906116127968e-03
-1.650867983698844910e-03
-1.656786305829882622e-03
-1.662714406847953796e-03
-1.668651239015161991e-03
-1.674595871008932590e-03
-1.680547953583300114e-03
-1.686508767306804657e-03
-1.692480873316526413e-03
-1.698467647656798363e-03
-1.704472582787275314e-03
-1.710498239845037460e-03
-1.716545782983303070e-03
-1.722615328617393970e-03
-1.728706294670701027e-03
-1.734817866235971451e-03
-1.740949344821274281e-03
-1.747100264765322208e-03
-1.753270043991506100e-03
-1.759457751177251339e-03
-1.765661872923374176e-03
-1.771880546584725380e-03
-1.778111327439546585e-03
-1.784351770766079426e-03
-1.790599897503852844e-03
-1.796854194253683090e-03
-1.803113729692995548e-03
-1.809377805329859257e-03
-1.815645955502986908e-03
-1.821917365305125713e-03
-1.828191103413701057e-03
-1.834466005675494671e-03
-1.840740791521966457e-03
-1.847014646045863628e-03
-1.853287220001220703e-03
-1.859558396972715855e-03
-1.865828759036958218e-03
-1.872098655439913273e-03
-1.878368551842868328e-03
-1.884638681076467037e-03
-1.890909159556031227e-03
-1.897179754450917244e-03
-1.903450465761125088e-03
-1.909721409901976585e-03
-1.915992586873471737e-03
-1.922264229506254196e-03
-1.928536337800323963e-03
-1.934808911755681038e-03
-1.941081718541681767e-03
-1.947354525327682495e-03
-1.953626982867717743e-03
-1.959898741915822029e-03
-1.966169802471995354e-03
-1.972440397366881371e-03
-1.978710526600480080e-03
-1.984980655834078789e-03
-1.991250785067677498e-03
-1.997521379962563515e-03
-2.003792440518736839e-03
-2.010064199566841125e-03
-2.016336889937520027e-03
-2.022610744461417198e-03
-2.028886228799819946e-03
-2.035163342952728271e-03
-2.041442552581429482e-03
-2.047723857685923576e-03
-2.054007491096854210e-03
-2.060293452814221382e-03
-2.066581510007381439e-03
-2.072871895506978035e-03
-2.079164376482367516e-03
-2.085459185764193535e-03
-2.091756090521812439e-03
-2.098055556416511536e-03
-2.104357583448290825e-03
-2.110661938786506653e-03
-2.116968855261802673e-03
-2.123278332874178886e-03
-2.129590371623635292e-03
-2.135904971510171890e-03
-2.142222132533788681e-03
-2.148542087525129318e-03
-2.154865069314837456e-03
-2.161191077902913094e-03
-2.167520346119999886e-03
-2.173853339627385139e-03
-2.180190058425068855e-03
-2.186530735343694687e-03
-2.192875836044549942e-03
-2.199225826188921928e-03
-2.205580938607454300e-03
-2.211941638961434364e-03
-2.218308160081505775e-03
-2.224680967628955841e-03
-2.231060294434428215e-03
-2.237446373328566551e-03
-2.243839204311370850e-03
-2.250239020213484764e-03
-2.256645588204264641e-03
-2.263059141114354134e-03
-2.269479446113109589e-03
-2.275906503200531006e-03
-2.282339846715331078e-03
-2.288779010996222496e-03
-2.295223763212561607e-03
-2.301673870533704758e-03
-2.308128867298364639e-03
-2.314588287845253944e-03
-2.321051666513085365e-03
-2.327518770471215248e-03
-2.333989366888999939e-03
-2.340462990105152130e-03
-2.346939407289028168e-03
-2.353418385609984398e-03
-2.359899925068020821e-03
-2.366383792832493782e-03
-2.372869988903403282e-03
-2.379358280450105667e-03
-2.385848434641957283e-03
-2.392340451478958130e-03
-2.398834330961108208e-03
-2.405329840257763863e-03
-2.411826746538281441e-03
-2.418325049802660942e-03
-2.424824284389615059e-03
-2.431324450299143791e-03
-2.437825081869959831e-03
-2.444325713440775871e-03
-2.450826345011591911e-03
-2.457326278090476990e-03
-2.463825279846787453e-03
-2.470322884619235992e-03
-2.476818626746535301e-03
-2.483312040567398071e-03
-2.489802660420536995e-03
-2.496290020644664764e-03
-2.502773888409137726e-03
-2.509253798052668571e-03
-2.515729283913969994e-03
-2.522200113162398338e-03
-2.528666285797953606e-03
-2.535127568989992142e-03
-2.541583729907870293e-03
-2.548035001382231712e-03
-2.554481616243720055e-03
-2.560923807322978973e-03
-2.567362273111939430e-03
-2.573797479271888733e-03
-2.580230124294757843e-03
-2.586661139503121376e-03
-2.593090990558266640e-03
-2.599519910290837288e-03
-2.605947665870189667e-03
-2.612373791635036469e-03
-2.618797589093446732e-03
-2.625217894092202187e-03
-2.631633542478084564e-03
-2.638043835759162903e-03
-2.644448308274149895e-03
-2.650846727192401886e-03
-2.657239092513918877e-03
-2.663625869899988174e-03
-2.670007525011897087e-03
-2.676384756341576576e-03
-2.682757796719670296e-03
-2.689127577468752861e-03
-2.695494331419467926e-03
-2.701858524233102798e-03
-2.708220621570944786e-03
-2.714581089094281197e-03
-2.720940392464399338e-03
-2.727298997342586517e-03
-2.733657136559486389e-03
-2.740015508607029915e-03
-2.746374346315860748e-03
-2.752733882516622543e-03
-2.759094582870602608e-03
-2.765456447377800941e-03
-2.771819708868861198e-03
-2.778184367343783379e-03
-2.784550422802567482e-03
-2.790917642414569855e-03
-2.797285560518503189e-03
-2.803653944283723831e-03
-2.810022328048944473e-03
-2.816390246152877808e-03
-2.822757000103592873e-03
-2.829122124239802361e-03
-2.835485152900218964e-03
-2.841846086084842682e-03
-2.848204923793673515e-03
-2.854561898857355118e-03
-2.860917709767818451e-03
-2.867272822186350822e-03
-2.873628167435526848e-03
-2.879984211176633835e-03
-2.886341186240315437e-03
-2.892699325457215309e-03
-2.899058628827333450e-03
-2.905418863520026207e-03
-2.911779796704649925e-03
-2.918141661211848259e-03
-2.924504457041621208e-03
-2.930868417024612427e-03
-2.937233773991465569e-03
-2.943600993603467941e-03
-2.949970541521906853e-03
-2.956342883408069611e-03
-2.962718484923243523e-03
-2.969098277390003204e-03
-2.975482726469635963e-03
-2.981872530654072762e-03
-2.988268155604600906e-03
-2.994669834151864052e-03
-3.001077799126505852e-03
-3.007491817697882652e-03
-3.013911889865994453e-03
-3.020338015630841255e-03
-3.026769729331135750e-03
-3.033206798136234283e-03
-3.039648756384849548e-03
-3.046095138415694237e-03
-3.052545245736837387e-03
-3.058998612686991692e-03
-3.065454773604869843e-03
-3.071913029998540878e-03
-3.078372916206717491e-03
-3.084833733737468719e-03
-3.091295016929507256e-03
-3.097756300121545792e-03
-3.104217117652297020e-03
-3.110676771029829979e-03
-3.117134794592857361e-03
-3.123590955510735512e-03
-3.130044555291533470e-03
-3.136495361104607582e-03
-3.142942674458026886e-03
-3.149386262521147728e-03
-3.155825426802039146e-03
-3.162260167300701141e-03
-3.168690018355846405e-03
-3.175114747136831284e-03
-3.181534120813012123e-03
-3.187947906553745270e-03
-3.194356337189674377e-03
-3.200759412720799446e-03
-3.207157133147120476e-03
-3.213549498468637466e-03
-3.219936974346637726e-03
-3.226319793611764908e-03
-3.232698189094662666e-03
-3.239072160795331001e-03
-3.245442407205700874e-03
-3.251808928325772285e-03
-3.258172189816832542e-03
-3.264532424509525299e-03
-3.270890330895781517e-03
-3.277246141806244850e-03
-3.283600090071558952e-03
-3.289952874183654785e-03
-3.296304726973176003e-03
-3.302656346932053566e-03
-3.309007966890931129e-03
-3.315360052511096001e-03
-3.321712836623191833e-03
-3.328066552057862282e-03
-3.334421431645750999e-03
-3.340777708217501640e-03
-3.347135381773114204e-03
-3.353494452312588692e-03
-3.359854919835925102e-03
-3.366216784343123436e-03
-3.372579813003540039e-03
-3.378944005817174911e-03
-3.385309129953384399e-03
-3.391675185412168503e-03
-3.398042172193527222e-03
-3.404410090297460556e-03
-3.410778939723968506e-03
-3.417148720473051071e-03
-3.423519432544708252e-03
-3.429891075938940048e-03
-3.436263650655746460e-03
-3.442637389525771141e-03
-3.449012292549014091e-03
-3.455388126894831657e-03
-3.461765125393867493e-03
-3.468143520876765251e-03
-3.474523080512881279e-03
-3.480904037132859230e-03
-3.487286390736699104e-03
-3.493669908493757248e-03
-3.500055056065320969e-03
-3.506441600620746613e-03
-3.512829542160034180e-03
-3.519218647852540016e-03
-3.525609150528907776e-03
-3.532000817358493805e-03
-3.538393648341298103e-03
-3.544787643477320671e-03
-3.551182802766561508e-03
-3.557579126209020615e-03
-3.563976380974054337e-03
-3.570374799892306328e-03
-3.576774150133132935e-03
-3.583174431696534157e-03
-3.589575644582509995e-03
-3.595977788791060448e-03
-3.602380864322185516e-03
-3.608785104006528854e-03
-3.615190275013446808e-03
-3.621596377342939377e-03
-3.628003643825650215e-03
-3.634412074461579323e-03
-3.640821436420083046e-03
-3.647231962531805038e-03
-3.653643652796745300e-03
-3.660056507214903831e-03
-3.666470525786280632e-03
-3.672885708510875702e-03
-3.679302055388689041e-03
-3.685719566419720650e-03
-3.692138241603970528e-03
-3.698558080941438675e-03
-3.704979084432125092e-03
-3.711401019245386124e-03
-3.717823885381221771e-03
-3.724247682839632034e-03
-3.730672178789973259e-03
-3.737097140401601791e-03
-3.743522334843873978e-03
-3.749947762116789818e-03
-3.756372956559062004e-03
-3.762797918170690536e-03
-3.769222414121031761e-03
-3.775646211579442024e-03
-3.782069310545921326e-03
-3.788491245359182358e-03
-3.794912016019225121e-03
-3.801331389695405960e-03
-3.807749366387724876e-03
-3.814165247604250908e-03
-3.820579033344984055e-03
-3.826990257948637009e-03
-3.833398688584566116e-03
-3.839804092422127724e-03
-3.846206236630678177e-03
-3.852604655548930168e-03
-3.858999349176883698e-03
-3.865390084683895111e-03
-3.871777094900608063e-03
-3.878160146996378899e-03
-3.884539473801851273e-03
-3.890915075317025185e-03
-3.897287417203187943e-03
-3.903656732290983200e-03
-3.910023253411054611e-03
-3.916387446224689484e-03
-3.922749776393175125e-03
-3.929110709577798843e-03
-3.935470245778560638e-03
-3.941829316318035126e-03
-3.948187921196222305e-03
-3.954546526074409485e-03
-3.960905130952596664e-03
-3.967264201492071152e-03
-3.973623737692832947e-03
-3.979984205216169357e-03
-3.986345604062080383e-03
-3.992707934230566025e-03
-3.999071195721626282e-03
-4.005435388535261154e-03
-4.011800047010183334e-03
-4.018165636807680130e-03
-4.024532157927751541e-03
-4.030899144709110260e-03
-4.037267062813043594e-03
-4.043635446578264236e-03
-4.050004296004772186e-03
-4.056373611092567444e-03
-4.062743391841650009e-03
-4.069113638252019882e-03
-4.075484350323677063e-03
-4.081855528056621552e-03
-4.088227171450853348e-03
-4.094599280506372452e-03
-4.100971855223178864e-03
-4.107344895601272583e-03
-4.113718401640653610e-03
-4.120092839002609253e-03
-4.126467742025852203e-03
-4.132843576371669769e-03
-4.139220342040061951e-03
-4.145598039031028748e-03
-4.151976201683282852e-03
-4.158355761319398880e-03
-4.164736252278089523e-03
-4.171117674559354782e-03
-4.177500028163194656e-03
-4.183883778750896454e-03
-4.190268460661172867e-03
-4.196654073894023895e-03
-4.203041084110736847e-03
-4.209429491311311722e-03
-4.215818829834461212e-03
-4.222209565341472626e-03
-4.228601232171058655e-03
-4.234994295984506607e-03
-4.241388756781816483e-03
-4.247784148901700974e-03
-4.254180938005447388e-03
-4.260579124093055725e-03
-4.266978707164525986e-03
-4.273379687219858170e-03
-4.279782064259052277e-03
-4.286185838282108307e-03
-4.292591009289026260e-03
-4.298998042941093445e-03
-4.305406473577022552e-03
-4.311816301196813583e-03
-4.318227991461753845e-03
-4.324641544371843338e-03
-4.331056959927082062e-03
-4.337473772466182709e-03
-4.343892447650432587e-03
-4.350313451141119003e-03
-4.356736317276954651e-03
-4.363161511719226837e-03
-4.369588568806648254e-03
-4.376017954200506210e-03
-4.382449667900800705e-03
-4.388884175568819046e-03
-4.395321011543273926e-03
-4.401760641485452652e-03
-4.408203065395355225e-03
-4.414648748934268951e-03
-4.421097226440906525e-03
-4.427548963576555252e-03
-4.434003960341215134e-03
-4.440462682396173477e-03
-4.446924664080142975e-03
-4.453390371054410934e-03
-4.459860268980264664e-03
-4.466333892196416855e-03
-4.472811706364154816e-03
-4.479293711483478546e-03
-4.485780373215675354e-03
-4.492271225899457932e-03
-4.498766735196113586e-03
-4.505267366766929626e-03
-4.511772654950618744e-03
-4.518283065408468246e-03
-4.524798598140478134e-03
-4.531319718807935715e-03
-4.537845961749553680e-03
-4.544377792626619339e-03
-4.550915677100419998e-03
-4.557459149509668350e-03
-4.564008675515651703e-03
-4.570564255118370056e-03
-4.577125888317823410e-03
-4.583693575114011765e-03
-4.590267781168222427e-03
-4.596848506480455399e-03
-4.603435751050710678e-03
-4.610029514878988266e-03
-4.616630263626575470e-03
-4.623237997293472290e-03
-4.629852250218391418e-03
-4.636473488062620163e-03
-4.643101710826158524e-03
-4.649736918509006500e-03
-4.656379576772451401e-03
-4.663029219955205917e-03
-4.669686313718557358e-03
-4.676350392401218414e-03
-4.683021921664476395e-03
-4.689700901508331299e-03
-4.696387331932783127e-03
-4.703081212937831879e-03
-4.709782544523477554e-03
-4.716491326689720154e-03
-4.723207559436559677e-03
-4.729931242763996124e-03
-4.736662376672029495e-03
-4.743401426821947098e-03
-4.750147927552461624e-03
-4.756901878863573074e-03
-4.763663280755281448e-03
-4.770432133227586746e-03
-4.777208901941776276e-03
-4.783993121236562729e-03
-4.790784791111946106e-03
-4.797583911567926407e-03
-4.804390482604503632e-03
-4.811204504221677780e-03
-4.818025976419448853e-03
-4.824854899197816849e-03
-4.831691272556781769e-03
-4.838535096496343613e-03
-4.845386371016502380e-03
-4.852245096117258072e-03
-4.859111271798610687e-03
-4.865984432399272919e-03
-4.872865043580532074e-03
-4.879753105342388153e-03
-4.886648152023553848e-03
-4.893550649285316467e-03
-4.900460597127676010e-03
-4.907377529889345169e-03
-4.914301913231611252e-03
-4.921233281493186951e-03
-4.928171634674072266e-03
-4.935117438435554504e-03
-4.942070227116346359e-03
-4.949030000716447830e-03
-4.955996759235858917e-03
-4.962970502674579620e-03
-4.969951696693897247e-03
-4.976939875632524490e-03
-4.983935039490461349e-03
-4.990937188267707825e-03
-4.997946321964263916e-03
-5.004962440580129623e-03
-5.011985544115304947e-03
-5.019015632569789886e-03
-5.026052705943584442e-03
-5.033096764236688614e-03
-5.040147807449102402e-03
-5.047205835580825806e-03
-5.054270848631858826e-03
-5.061343312263488770e-03
-5.068422760814428329e-03
-5.075509194284677505e-03
-5.082602612674236298e-03
-5.089703481644392014e-03
-5.096811335533857346e-03
-5.103926640003919601e-03
-5.111049395054578781e-03
-5.118179135024547577e-03
-5.125316325575113297e-03
-5.132460966706275940e-03
-5.139613058418035507e-03
-5.146773066371679306e-03
-5.153940524905920029e-03
-5.161115899682044983e-03
-5.168298725038766861e-03
-5.175489466637372971e-03
-5.182688590139150620e-03
-5.189895629882812500e-03
-5.197110585868358612e-03
-5.204333923757076263e-03
-5.211565643548965454e-03
-5.218805745244026184e-03
-5.226053763180971146e-03
-5.233310163021087646e-03
-5.240574944764375687e-03
-5.247848108410835266e-03
-5.255129653960466385e-03
-5.262419581413269043e-03
-5.269717425107955933e-03
-5.277023650705814362e-03
-5.284337792545557022e-03
-5.291659850627183914e-03
-5.298989824950695038e-03
-5.306327249854803085e-03
-5.313672125339508057e-03
-5.321024451404809952e-03
-5.328383762389421463e-03
-5.335750058293342590e-03
-5.343122873455286026e-03
-5.350502207875251770e-03
-5.357887595891952515e-03
-5.365279037505388260e-03
-5.372676532715559006e-03
-5.380080081522464752e-03
-5.387489218264818192e-03
-5.394903942942619324e-03
-5.402324255555868149e-03
-5.409750621765851974e-03
-5.417182575911283493e-03
-5.424620583653450012e-03
-5.432064179331064224e-03
-5.439513828605413437e-03
-5.446969997137784958e-03
-5.454432219266891479e-03
-5.461900960654020309e-03
-5.469376221299171448e-03
-5.476858001202344894e-03
-5.484346300363540649e-03
-5.491841118782758713e-03
-5.499342456459999084e-03
-5.506850313395261765e-03
-5.514364689588546753e-03
-5.521885585039854050e-03
-5.529412534087896347e-03
-5.536945536732673645e-03
-5.544484592974185944e-03
-5.552029237151145935e-03
-5.559579469263553619e-03
-5.567134823650121689e-03
-5.574695300310850143e-03
-5.582260433584451675e-03
-5.589830223470926285e-03
-5.597404204308986664e-03
-5.604981910437345505e-03
-5.612563341856002808e-03
-5.620148498564958572e-03
-5.627736914902925491e-03
-5.635328590869903564e-03
-5.642923060804605484e-03
-5.650520324707031250e-03
-5.658120382577180862e-03
-5.665723234415054321e-03
-5.673328414559364319e-03
-5.680935923010110855e-03
-5.688545759767293930e-03
-5.696157924830913544e-03
-5.703772418200969696e-03
-5.711389239877462387e-03
-5.719008389860391617e-03
-5.726630333811044693e-03
-5.734254606068134308e-03
-5.741881206631660461e-03
-5.749510135501623154e-03
-5.757141858339309692e-03
-5.764776375144720078e-03
-5.772413685917854309e-03
-5.780053324997425079e-03
-5.787695758044719696e-03
-5.795340985059738159e-03
-5.802989471703767776e-03
-5.810640752315521240e-03
-5.818294826894998550e-03
-5.825951695442199707e-03
-5.833611357957124710e-03
-5.841274280101060867e-03
-5.848939996212720871e-03
-5.856608506292104721e-03
-5.864280276000499725e-03
-5.871954839676618576e-03
-5.879632197320461273e-03
-5.887312348932027817e-03
-5.894995760172605515e-03
-5.902681965380907059e-03
-5.910370964556932449e-03
-5.918062757700681686e-03
-5.925757344812154770e-03
-5.933454725891351700e-03
-5.941155366599559784e-03
-5.948858801275491714e-03
-5.956564564257860184e-03
-5.964273121207952499e-03
-5.971984472125768661e-03
-5.979698151350021362e-03
-5.987414624541997910e-03
-5.995133426040410995e-03
-6.002854090183973312e-03
-6.010577082633972168e-03
-6.018301937729120255e-03
-6.026028655469417572e-03
-6.033756770193576813e-03
-6.041486281901597977e-03
-6.049216724932193756e-03
-6.056948099285364151e-03
-6.064679939299821854e-03
-6.072412244975566864e-03
-6.080144550651311874e-03
-6.087876390665769577e-03
-6.095607765018939972e-03
-6.103338208049535751e-03
-6.111067254096269608e-03
-6.118794903159141541e-03
-6.126520689576864243e-03
-6.134244147688150406e-03
-6.141965277493000031e-03
-6.149683613330125809e-03
-6.157399155199527740e-03
-6.165110971778631210e-03
-6.172819063067436218e-03
-6.180523429065942764e-03
-6.188223604112863541e-03
-6.195919588208198547e-03
-6.203610915690660477e-03
-6.211297586560249329e-03
-6.218979135155677795e-03
-6.226655561476945877e-03
-6.234327331185340881e-03
-6.241993978619575500e-03
-6.249655503779649734e-03
-6.257311906665563583e-03
-6.264963187277317047e-03
-6.272609811276197433e-03
-6.280251778662204742e-03
-6.287889555096626282e-03
-6.295523606240749359e-03
-6.303153932094573975e-03
-6.310780532658100128e-03
-6.318403873592615128e-03
-6.326024420559406281e-03
-6.333641707897186279e-03
-6.341255735605955124e-03
-6.348866038024425507e-03
-6.356471683830022812e-03
-6.364071741700172424e-03
-6.371665280312299728e-03
-6.379252299666404724e-03
-6.386832334101200104e-03
-6.394405383616685867e-03
-6.401971448212862015e-03
-6.409530993551015854e-03
-6.417083553969860077e-03
-6.424629595130681992e-03
-6.432169117033481598e-03
-6.439702585339546204e-03
-6.447229534387588501e-03
-6.454750429838895798e-03
-6.462265271693468094e-03
-6.469774059951305389e-03
-6.477276794612407684e-03
-6.484773010015487671e-03
-6.492262706160545349e-03
-6.499744951725006104e-03
-6.507219746708869934e-03
-6.514687091112136841e-03
-6.522146519273519516e-03
-6.529598031193017960e-03
-6.537042092531919479e-03
-6.544478703290224075e-03
-6.551908794790506363e-03
-6.559332367032766342e-03
-6.566750817000865936e-03
-6.574164144694805145e-03
-6.581573281437158585e-03
-6.588979158550500870e-03
-6.596381776034832001e-03
-6.603782065212726593e-03
-6.611180026084184647e-03
-6.618576124310493469e-03
-6.625970825552940369e-03
-6.633364129811525345e-03
-6.640756502747535706e-03
-6.648147478699684143e-03
-6.655537523329257965e-03
-6.662926170974969864e-03
-6.670313887298107147e-03
-6.677700206637382507e-03
-6.685085128992795944e-03
-6.692468654364347458e-03
-6.699850782752037048e-03
-6.707231514155864716e-03
-6.714610382914543152e-03
-6.721987854689359665e-03
-6.729363463819026947e-03
-6.736736744642257690e-03
-6.744108162820339203e-03
-6.751477252691984177e-03
-6.758844479918479919e-03
-6.766208913177251816e-03
-6.773571018129587173e-03
-6.780930794775485992e-03
-6.788287777453660965e-03
-6.795641966164112091e-03
-6.802993360906839371e-03
-6.810341496020555496e-03
-6.817686837166547775e-03
-6.825028918683528900e-03
-6.832367740571498871e-03
-6.839703302830457687e-03
-6.847035605460405350e-03
-6.854364648461341858e-03
-6.861690431833267212e-03
-6.869012955576181412e-03
-6.876332219690084457e-03
-6.883648224174976349e-03
-6.890960969030857086e-03
-6.898269988596439362e-03
-6.905575748533010483e-03
-6.912877783179283142e-03
-6.920176092535257339e-03
-6.927470676600933075e-03
-6.934761535376310349e-03
-6.942048668861389160e-03
-6.949332077056169510e-03
-6.956611759960651398e-03
-6.963887717574834824e-03
-6.971159484237432480e-03
-6.978427525609731674e-03
-6.985691841691732407e-03
-6.992952432483434677e-03
-7.000209297984838486e-03
-7.007462438195943832e-03
-7.014711853116750717e-03
-7.021957542747259140e-03
-7.029199507087469101e-03
-7.036437746137380600e-03
-7.043672259896993637e-03
-7.050903048366308212e-03
-7.058130577206611633e-03
-7.065354380756616592e-03
-7.072574459016323090e-03
-7.079791277647018433e-03
-7.087004370987415314e-03
-7.094213739037513733e-03
-7.101419847458600998e-03
-7.108622230589389801e-03
-7.115821354091167450e-03
-7.123016752302646637e-03
-7.130208425223827362e-03
-7.137396372854709625e-03
-7.144580595195293427e-03
-7.151761092245578766e-03
-7.158937864005565643e-03
-7.166110444813966751e-03
-7.173279300332069397e-03
-7.180443964898586273e-03
-7.187604438513517380e-03
-7.194760255515575409e-03
-7.201911881566047668e-03
-7.209058851003646851e-03
-7.216201163828372955e-03
-7.223338354378938675e-03
-7.230470422655344009e-03
-7.237597368657588959e-03
-7.244719192385673523e-03
-7.251835428178310394e-03
-7.258946076035499573e-03
-7.266051135957241058e-03
-7.273150607943534851e-03
-7.280244026333093643e-03
-7.287330925464630127e-03
-7.294411770999431610e-03
-7.301486097276210785e-03
-7.308553904294967651e-03
-7.315615192055702209e-03
-7.322669494897127151e-03
-7.329717278480529785e-03
-7.336758077144622803e-03
-7.343791890889406204e-03
-7.350818254053592682e-03
-7.357837632298469543e-03
-7.364849559962749481e-03
-7.371854037046432495e-03
-7.378851063549518585e-03
-7.385840173810720444e-03
-7.392821833491325378e-03
-7.399795576930046082e-03
-7.406761404126882553e-03
-7.413719315081834793e-03
-7.420669309794902802e-03
-7.427610922604799271e-03
-7.434544619172811508e-03
-7.441469933837652206e-03
-7.448386866599321365e-03
-7.455295417457818985e-03
-7.462195586413145065e-03
-7.469086907804012299e-03
-7.475969847291707993e-03
-7.482844404876232147e-03
-7.489710114896297455e-03
-7.496567908674478531e-03
-7.503417320549488068e-03
-7.510258350521326065e-03
-7.517091464251279831e-03
-7.523917127400636673e-03
-7.530735339969396591e-03
-7.537546101957559586e-03
-7.544350344687700272e-03
-7.551148533821105957e-03
-7.557940669357776642e-03
-7.564727682620286942e-03
-7.571510039269924164e-03
-7.578288670629262924e-03
-7.585064042359590530e-03
-7.591836620122194290e-03
-7.598607335239648819e-03
-7.605377119034528732e-03
-7.612146437168121338e-03
-7.618915755301713943e-03
-7.625686004757881165e-03
-7.632457651197910309e-03
-7.639231160283088684e-03
-7.646006997674703598e-03
-7.652785163372755051e-03
-7.659566588699817657e-03
-7.666351273655891418e-03
-7.673139218240976334e-03
-7.679930422455072403e-03
-7.686725351959466934e-03
-7.693523541092872620e-03
-7.700324989855289459e-03
-7.707129698246717453e-03
-7.713937200605869293e-03
-7.720747496932744980e-03
-7.727560121566057205e-03
-7.734375074505805969e-03
-7.741191890090703964e-03
-7.748010102659463882e-03
-7.754829246550798416e-03
-7.761649321764707565e-03
-7.768469396978616714e-03
-7.775289006531238556e-03
-7.782107684761285782e-03
-7.788924966007471085e-03
-7.795739918947219849e-03
-7.802552077919244766e-03
-7.809360511600971222e-03
-7.816164754331111908e-03
-7.822963409125804901e-03
-7.829756475985050201e-03
-7.836543023586273193e-03
-7.843324914574623108e-03
-7.850104942917823792e-03
-7.856884971261024475e-03
-7.863666862249374390e-03
-7.870452478528022766e-03
-7.877245545387268066e-03
-7.884049788117408752e-03
-7.890867069363594055e-03
-7.897696457803249359e-03
-7.904535159468650818e-03
-7.911380380392074585e-03
-7.918227463960647583e-03
-7.925073616206645966e-03
-7.931917905807495117e-03
-7.938760332763195038e-03
-7.945601828396320343e-03
-7.952442392706871033e-03
-7.959282025694847107e-03
-7.966120727360248566e-03
-7.972959429025650024e-03
-7.979799062013626099e-03
-7.986640557646751404e-03
-7.993485778570175171e-03
-8.000334724783897400e-03
-8.007188327610492706e-03
-8.014047518372535706e-03
-8.020911365747451782e-03
-8.027779869735240936e-03
-8.034652099013328552e-03
-8.041527122259140015e-03
-8.048404008150100708e-03
-8.055280894041061401e-03
-8.062156848609447479e-03
-8.069030940532684326e-03
-8.075903169810771942e-03
-8.082772605121135712e-03
-8.089640177786350250e-03
-8.096504956483840942e-03
-8.103367872536182404e-03
-8.110228925943374634e-03
-8.117088116705417633e-03
-8.123945444822311401e-03
-8.130799978971481323e-03
-8.137650787830352783e-03
-8.144498802721500397e-03
-8.151343092322349548e-03
-8.158185519278049469e-03
-8.165026083588600159e-03
-8.171864785254001617e-03
-8.178701624274253845e-03
-8.185536600649356842e-03
-8.192370645701885223e-03
-8.199202828109264374e-03
-8.206034079194068909e-03
-8.212864398956298828e-03
-8.219693787395954132e-03
-8.226522244513034821e-03
-8.233349770307540894e-03
-8.240175433456897736e-03
-8.246999233961105347e-03
-8.253822103142738342e-03
-8.260643109679222107e-03
-8.267462253570556641e-03
-8.274279534816741943e-03
-8.281094953417778015e-03
-8.287907578051090240e-03
-8.294717408716678619e-03
-8.301524445414543152e-03
-8.308329619467258453e-03
-8.315131999552249908e-03
-8.321931585669517517e-03
-8.328727446496486664e-03
-8.335520513355731964e-03
-8.342309854924678802e-03
-8.349095471203327179e-03
-8.355878293514251709e-03
-8.362657390534877777e-03
-8.369431830942630768e-03
-8.376202546060085297e-03
-8.382968604564666748e-03
-8.389730937778949738e-03
-8.396488614380359650e-03
-8.403241634368896484e-03
-8.409989997744560242e-03
-8.416733704507350922e-03
-8.423472754657268524e-03
-8.430207148194313049e-03
-8.436936885118484497e-03
-8.443662896752357483e-03
-8.450384251773357391e-03
-8.457101881504058838e-03
-8.463815785944461823e-03
-8.470525033771991730e-03
-8.477230556309223175e-03
-8.483932353556156158e-03
-8.490631356835365295e-03
-8.497326634824275970e-03
-8.504019118845462799e-03
-8.510708808898925781e-03
-8.517395704984664917e-03
-8.524079807102680206e-03
-8.530761115252971649e-03
-8.537439629435539246e-03
-8.544116280972957611e-03
-8.550790138542652130e-03
-8.557462133467197418e-03
-8.564131334424018860e-03
-8.570798672735691071e-03
-8.577464148402214050e-03
-8.584127761423587799e-03
-8.590789511799812317e-03
-8.597449399530887604e-03
-8.604107424616813660e-03
-8.610763587057590485e-03
-8.617418818175792694e-03
-8.624072186648845673e-03
-8.630723692476749420e-03
-8.637373335659503937e-03
-8.644021116197109222e-03
-8.650667034089565277e-03
-8.657311089336872101e-03
-8.663953281939029694e-03
-8.670594543218612671e-03
-8.677233941853046417e-03
-8.683871477842330933e-03
-8.690507151186466217e-03
-8.697140961885452271e-03
-8.703772909939289093e-03
-8.710402995347976685e-03
-8.717031218111515045e-03
-8.723656646907329559e-03
-8.730280213057994843e-03
-8.736901916563510895e-03
-8.743521757423877716e-03
-8.750138804316520691e-03
-8.756753988564014435e-03
-8.763366378843784332e-03
-8.769975975155830383e-03
-8.776583708822727203e-03
-8.783188648521900177e-03
-8.789790794253349304e-03
-8.796390146017074585e-03
-8.802986703813076019e-03
-8.809580467641353607e-03
-8.816171437501907349e-03
-8.822758682072162628e-03
-8.829343132674694061e-03
-8.835923857986927032e-03
-8.842500858008861542e-03
-8.849075064063072205e-03
-8.855645544826984406e-03
-8.862212300300598145e-03
-8.868775330483913422e-03
-8.875333704054355621e-03
-8.881888352334499359e-03
-8.888438344001770020e-03
-8.894983679056167603e-03
-8.901525288820266724e-03
-8.908062241971492767e-03
-8.914593607187271118e-03
-8.921120315790176392e-03
-8.927642367780208588e-03
-8.934158831834793091e-03
-8.940669707953929901e-03
-8.947175927460193634e-03
-8.953676559031009674e-03
-8.960171602666378021e-03
-8.966661058366298676e-03
-8.973144926130771637e-03
-8.979624137282371521e-03
-8.986097760498523712e-03
-8.992566727101802826e-03
-8.999031037092208862e-03
-9.005489759147167206e-03
-9.011944755911827087e-03
-9.018395096063613892e-03
-9.024840779602527618e-03
-9.031282737851142883e-03
-9.037720970809459686e-03
-9.044155478477478027e-03
-9.050586260855197906e-03
-9.057013317942619324e-03
-9.063437581062316895e-03
-9.069859050214290619e-03
-9.076277725398540497e-03
-9.082693606615066528e-03
-9.089107625186443329e-03
-9.095518849790096283e-03
-9.101928211748600006e-03
-9.108334779739379883e-03
-9.114740416407585144e-03
-9.121143259108066559e-03
-9.127547033131122589e-03
-9.133946150541305542e-03
-9.140349924564361572e-03
-9.146743454039096832e-03
-9.153153747320175171e-03
-9.159531444311141968e-03
-9.165967814624309540e-03
