5.799889564514160156e-02,5.418215319514274597e-02,-1.618137024343013763e-02,-7.498667109757661819e-04,-2.117010764777660370e-02,-4.921957850456237793e-02,-3.581223636865615845e-02,2.940009161829948425e-02,-4.768386110663414001e-02,-5.426158010959625244e-02
6.244792416691780090e-02,5.712312832474708557e-02,-1.935560256242752075e-02,-2.949530025944113731e-03,-2.402020990848541260e-02,-5.046342685818672180e-02,-3.761520609259605408e-02,3.144925832748413086e-02,-4.579311981797218323e-02,-5.465402826666831970e-02
6.529995054006576538e-02,5.918512865900993347e-02,-2.078754082322120667e-02,-4.248081706464290619e-03,-2.489992044866085052e-02,-5.041408538818359375e-02,-3.944459930062294006e-02,3.309067338705062866e-02,-4.865460097789764404e-02,-5.292163416743278503e-02
6.623977422714233398e-02,6.205951049923896790e-02,-2.101583220064640045e-02,-6.897502578794956207e-03,-2.304287441074848175e-02,-5.008533969521522522e-02,-4.226492345333099365e-02,3.488783538341522217e-02,-5.067501962184906006e-02,-5.270446464419364929e-02
6.721436232328414917e-02,6.351689994335174561e-02,-2.317851968109607697e-02,-7.705851923674345016e-03,-2.162452973425388336e-02,-5.018125846982002258e-02,-4.393577203154563904e-02,3.695326671004295349e-02,-5.227347463369369507e-02,-5.206099525094032288e-02
6.794229894876480103e-02,6.560785323381423950e-02,-2.307207696139812469e-02,-8.788609877228736877e-03,-2.103894390165805817e-02,-5.102140456438064575e-02,-4.582174867391586304e-02,3.711199387907981873e-02,-5.243410915136337280e-02,-5.166823044419288635e-02
6.918055564165115356e-02,6.738338619470596313e-02,-2.462743595242500305e-02,-9.405199438333511353e-03,-2.165474370121955872e-02,-5.128686130046844482e-02,-4.602577164769172668e-02,3.793073818087577820e-02,-5.323852971196174622e-02,-5.120244622230529785e-02
6.977809965610504150e-02,6.827726960182189941e-02,-2.582832425832748413e-02,-9.577140212059020996e-03,-2.000073157250881195e-02,-5.137377232313156128e-02,-4.777098819613456726e-02,3.926394507288932800e-02,-5.379033088684082031e-02,-5.171917006373405457e-02
7.112051546573638916e-02,6.915318220853805542e-02,-2.644223906099796295e-02,-1.040423382073640823e-02,-1.908349618315696716e-02,-5.155486240983009338e-02,-4.919019341468811035e-02,3.883530944585800171e-02,-5.362991616129875183e-02,-5.140494182705879211e-02
7.158536463975906372e-02,6.903839111328125000e-02,-2.707257121801376343e-02,-9.528216905891895294e-03,-1.823177747428417206e-02,-5.238028988242149353e-02,-4.962735995650291443e-02,3.919583559036254883e-02,-5.355988815426826477e-02,-5.194282904267311096e-02
7.254412770271301270e-02,6.967463344335556030e-02,-2.751525491476058960e-02,-9.898171760141849518e-03,-1.819017715752124786e-02,-5.235913023352622986e-02,-5.072906240820884705e-02,3.980539366602897644e-02,-5.339337512850761414e-02,-5.234778299927711487e-02
7.257168740034103394e-02,7.030867785215377808e-02,-2.836904302239418030e-02,-9.965755976736545563e-03,-1.784476265311241150e-02,-5.202634260058403015e-02,-5.030142515897750854e-02,4.034952074289321899e-02,-5.386773869395256042e-02,-5.298629403114318848e-02
7.391773164272308350e-02,6.954655051231384277e-02,-2.915172278881072998e-02,-7.976563647389411926e-03,-1.791061833500862122e-02,-5.332734435796737671e-02,-5.098097398877143860e-02,4.021168127655982971e-02,-5.319536849856376648e-02,-5.350623279809951782e-02
7.434348762035369873e-02,7.003638148307800293e-02,-2.941110543906688690e-02,-9.251545183360576630e-03,-1.726353913545608521e-02,-5.303005129098892212e-02,-5.217643454670906067e-02,4.080633074045181274e-02,-5.245655775070190430e-02,-5.402037128806114197e-02
7.592473924160003662e-02,6.899774819612503052e-02,-2.956780977547168732e-02,-8.093300275504589081e-03,-1.774703525006771088e-02,-5.334785208106040955e-02,-5.275854840874671936e-02,4.064156860113143921e-02,-5.222968012094497681e-02,-5.441293865442276001e-02
7.683209329843521118e-02,6.883133202791213989e-02,-3.009430505335330963e-02,-8.216988295316696167e-03,-1.671340316534042358e-02,-5.303001031279563904e-02,-5.373660847544670105e-02,3.884260356426239014e-02,-5.115776881575584412e-02,-5.469518899917602539e-02
7.778974622488021851e-02,6.867028027772903442e-02,-2.984525263309478760e-02,-8.204328827559947968e-03,-1.678325235843658447e-02,-5.259099230170249939e-02,-5.374037846922874451e-02,3.891865536570549011e-02,-5.096752569079399109e-02,-5.624390393495559692e-02
7.829559594392776489e-02,6.850701570510864258e-02,-2.912351116538047791e-02,-7.228850852698087692e-03,-1.796615310013294220e-02,-5.311748012900352478e-02,-5.468458309769630432e-02,3.776574134826660156e-02,-5.055334046483039856e-02,-5.545967817306518555e-02
7.883417606353759766e-02,6.849314272403717041e-02,-2.911790646612644196e-02,-6.477409042418003082e-03,-1.735612750053405762e-02,-5.366209149360656738e-02,-5.629706010222434998e-02,3.773283585906028748e-02,-5.037001147866249084e-02,-5.556619539856910706e-02
7.977666705846786499e-02,6.821309775114059448e-02,-2.978415228426456451e-02,-6.587222218513488770e-03,-1.673373021185398102e-02,-5.354611948132514954e-02,-5.782032385468482971e-02,3.644168749451637268e-02,-4.823175817728042603e-02,-5.652282014489173889e-02
8.006598800420761108e-02,6.694546341896057129e-02,-2.982374466955661774e-02,-5.715117324143648148e-03,-1.803163997828960419e-02,-5.375159904360771179e-02,-5.577947571873664856e-02,3.692255914211273193e-02,-4.876974970102310181e-02,-5.655576661229133606e-02
8.168492466211318970e-02,6.658905744552612305e-02,-2.986189723014831543e-02,-5.426847841590642929e-03,-1.743030175566673279e-02,-5.289279669523239136e-02,-5.788498371839523315e-02,3.617779538035392761e-02,-4.873200133442878723e-02,-5.705285444855690002e-02
8.248848468065261841e-02,6.540419906377792358e-02,-3.079891577363014221e-02,-4.486366175115108490e-03,-1.750517450273036957e-02,-5.275826156139373779e-02,-5.783239752054214478e-02,3.533446788787841797e-02,-4.800565168261528015e-02,-5.734086781740188599e-02
8.381436020135879517e-02,6.604413688182830811e-02,-3.079591318964958191e-02,-4.844860639423131943e-03,-1.811205968260765076e-02,-5.309540778398513794e-02,-5.825915560126304626e-02,3.498376905918121338e-02,-4.709955304861068726e-02,-5.811529606580734253e-02
8.389984816312789917e-02,6.520297378301620483e-02,-3.072273917496204376e-02,-3.717057174071669579e-03,-1.707927510142326355e-02,-5.223837867379188538e-02,-6.019123271107673645e-02,3.352466970682144165e-02,-4.666336625814437866e-02,-5.861680582165718079e-02
8.425392210483551025e-02,6.416596472263336182e-02,-2.945901639759540558e-02,-3.542449558153748512e-03,-1.858778297901153564e-02,-5.282242968678474426e-02,-5.945843085646629333e-02,3.357877954840660095e-02,-4.617908596992492676e-02,-5.863056704401969910e-02
8.507186919450759888e-02,6.454578787088394165e-02,-3.024659119546413422e-02,-3.734677098691463470e-03,-1.811697892844676971e-02,-5.190587416291236877e-02,-6.055910140275955200e-02,3.284784406423568726e-02,-4.632950574159622192e-02,-5.851177498698234558e-02
8.574545383453369141e-02,6.426030397415161133e-02,-3.040683455765247345e-02,-2.939826343208551407e-03,-1.850059069693088531e-02,-5.181925371289253235e-02,-6.151463836431503296e-02,3.253376856446266174e-02,-4.601224511861801147e-02,-5.878467112779617310e-02
8.724366128444671631e-02,6.330405920743942261e-02,-2.993541024625301361e-02,-3.155509941279888153e-03,-1.826719753444194794e-02,-5.156206712126731873e-02,-6.214776635169982910e-02,3.275002539157867432e-02,-4.592372849583625793e-02,-5.955284088850021362e-02
8.832781016826629639e-02,6.212583184242248535e-02,-3.030941076576709747e-02,-2.886308357119560242e-03,-1.759600453078746796e-02,-5.079777538776397705e-02,-6.367045640945434570e-02,3.207321465015411377e-02,-4.570579528808593750e-02,-5.950512364506721497e-02
