-3.653382509946823120e-02,-5.700546503067016602e-02,-6.419537961483001709e-02,-6.139735132455825806e-02,-2.547788433730602264e-02,-1.471127010881900787e-02,6.070965435355901718e-03,6.672848016023635864e-02,5.404158309102058411e-02,-2.009997144341468811e-02
-3.653382509946823120e-02,-5.700546503067016602e-02,-6.419537961483001709e-02,-6.139735132455825806e-02,-2.547788433730602264e-02,-1.471127010881900787e-02,6.070965435355901718e-03,6.672848016023635864e-02,5.404158309102058411e-02,-2.009997144341468811e-02
-3.794300183653831482e-02,-5.148877575993537903e-02,-5.822255462408065796e-02,-6.633572280406951904e-02,-1.876039430499076843e-02,-2.166706323623657227e-02,-3.609938081353902817e-03,7.296763360500335693e-02,5.406224727630615234e-02,-2.282109297811985016e-02
-3.794300183653831482e-02,-5.148877575993537903e-02,-5.822255462408065796e-02,-6.633572280406951904e-02,-1.876039430499076843e-02,-2.166706323623657227e-02,-3.609938081353902817e-03,7.296763360500335693e-02,5.406224727630615234e-02,-2.282109297811985016e-02
-3.762224689126014709e-02,-4.407229647040367126e-02,-5.686172097921371460e-02,-6.708112359046936035e-02,-1.770034246146678925e-02,-2.751369960606098175e-02,-9.515259414911270142e-03,7.343721389770507812e-02,5.506588146090507507e-02,-2.077626623213291168e-02
-3.762224689126014709e-02,-4.407229647040367126e-02,-5.686172097921371460e-02,-6.708112359046936035e-02,-1.770034246146678925e-02,-2.751369960606098175e-02,-9.515259414911270142e-03,7.343721389770507812e-02,5.506588146090507507e-02,-2.077626623213291168e-02
-3.730341419577598572e-02,-3.865541517734527588e-02,-5.799888446927070618e-02,-6.746977567672729492e-02,-1.536599360406398773e-02,-3.260337188839912415e-02,-1.191797852516174316e-02,7.393749803304672241e-02,5.574706941843032837e-02,-1.914754696190357208e-02
-3.730341419577598572e-02,-3.865541517734527588e-02,-5.799888446927070618e-02,-6.746977567672729492e-02,-1.536599360406398773e-02,-3.260337188839912415e-02,-1.191797852516174316e-02,7.393749803304672241e-02,5.574706941843032837e-02,-1.914754696190357208e-02
-3.732298314571380615e-02,-3.236233815550804138e-02,-5.977502837777137756e-02,-6.828063726425170898e-02,-1.438677869737148285e-02,-3.551496937870979309e-02,-1.459395419806241989e-02,7.473061233758926392e-02,5.639626458287239075e-02,-1.762600615620613098e-02
-3.732298314571380615e-02,-3.236233815550804138e-02,-5.977502837777137756e-02,-6.828063726425170898e-02,-1.438677869737148285e-02,-3.551496937870979309e-02,-1.459395419806241989e-02,7.473061233758926392e-02,5.639626458287239075e-02,-1.762600615620613098e-02
-3.645331412553787231e-02,-2.582363225519657135e-02,-6.016683205962181091e-02,-6.928692758083343506e-02,-1.385811343789100647e-02,-3.972844779491424561e-02,-1.696560159325599670e-02,7.636765390634536743e-02,5.616995319724082947e-02,-1.605589129030704498e-02
-3.645331412553787231e-02,-2.582363225519657135e-02,-6.016683205962181091e-02,-6.928692758083343506e-02,-1.385811343789100647e-02,-3.972844779491424561e-02,-1.696560159325599670e-02,7.636765390634536743e-02,5.616995319724082947e-02,-1.605589129030704498e-02
-3.629852831363677979e-02,-2.012425847351551056e-02,-6.207691505551338196e-02,-7.018459588289260864e-02,-1.248265616595745087e-02,-4.318116232752799988e-02,-1.860543899238109589e-02,7.644166797399520874e-02,5.676984041929244995e-02,-1.367170456796884537e-02
-3.629852831363677979e-02,-2.012425847351551056e-02,-6.207691505551338196e-02,-7.018459588289260864e-02,-1.248265616595745087e-02,-4.318116232752799988e-02,-1.860543899238109589e-02,7.644166797399520874e-02,5.676984041929244995e-02,-1.367170456796884537e-02
-3.415143862366676331e-02,-1.493500173091888428e-02,-6.448025256395339966e-02,-7.135970890522003174e-02,-1.326684001833200455e-02,-4.597583785653114319e-02,-1.797082833945751190e-02,7.756498456001281738e-02,5.729205906391143799e-02,-1.253702491521835327e-02
-3.415143862366676331e-02,-1.493500173091888428e-02,-6.448025256395339966e-02,-7.135970890522003174e-02,-1.326684001833200455e-02,-4.597583785653114319e-02,-1.797082833945751190e-02,7.756498456001281738e-02,5.729205906391143799e-02,-1.253702491521835327e-02
-3.309621661901473999e-02,-1.058886293321847916e-02,-6.488911807537078857e-02,-7.138133049011230469e-02,-1.322350837290287018e-02,-4.989605769515037537e-02,-1.932906918227672577e-02,7.859244197607040405e-02,5.769664049148559570e-02,-1.136147696524858475e-02
-3.309621661901473999e-02,-1.058886293321847916e-02,-6.488911807537078857e-02,-7.138133049011230469e-02,-1.322350837290287018e-02,-4.989605769515037537e-02,-1.932906918227672577e-02,7.859244197607040405e-02,5.769664049148559570e-02,-1.136147696524858475e-02
-3.091386519372463226e-02,-6.101143080741167068e-03,-6.642152369022369385e-02,-7.370951026678085327e-02,-1.243140827864408493e-02,-5.282955244183540344e-02,-1.965910941362380981e-02,7.987441867589950562e-02,5.852860584855079651e-02,-1.053401362150907516e-02
-3.091386519372463226e-02,-6.101143080741167068e-03,-6.642152369022369385e-02,-7.370951026678085327e-02,-1.243140827864408493e-02,-5.282955244183540344e-02,-1.965910941362380981e-02,7.987441867589950562e-02,5.852860584855079651e-02,-1.053401362150907516e-02
-2.944561094045639038e-02,5.292897694744169712e-04,-6.841538846492767334e-02,-7.482441514730453491e-02,-1.333885267376899719e-02,-5.459338799118995667e-02,-1.980040594935417175e-02,8.057450503110885620e-02,5.773019418120384216e-02,-8.505912497639656067e-03
-2.944561094045639038e-02,5.292897694744169712e-04,-6.841538846492767334e-02,-7.482441514730453491e-02,-1.333885267376899719e-02,-5.459338799118995667e-02,-1.980040594935417175e-02,8.057450503110885620e-02,5.773019418120384216e-02,-8.505912497639656067e-03
-2.813695371150970459e-02,3.647473407909274101e-03,-7.002519816160202026e-02,-7.462026178836822510e-02,-1.218661479651927948e-02,-5.645770952105522156e-02,-2.109692990779876709e-02,8.248566091060638428e-02,5.776410177350044250e-02,-9.326706640422344208e-03
-2.813695371150970459e-02,3.647473407909274101e-03,-7.002519816160202026e-02,-7.462026178836822510e-02,-1.218661479651927948e-02,-5.645770952105522156e-02,-2.109692990779876709e-02,8.248566091060638428e-02,5.776410177350044250e-02,-9.326706640422344208e-03
-2.569111622869968414e-02,7.193609140813350677e-03,-7.097271829843521118e-02,-7.682490348815917969e-02,-1.308413129299879074e-02,-5.898088961839675903e-02,-2.122835814952850342e-02,8.374957740306854248e-02,5.952460318803787231e-02,-8.838666602969169617e-03
-2.569111622869968414e-02,7.193609140813350677e-03,-7.097271829843521118e-02,-7.682490348815917969e-02,-1.308413129299879074e-02,-5.898088961839675903e-02,-2.122835814952850342e-02,8.374957740306854248e-02,5.952460318803787231e-02,-8.838666602969169617e-03
-2.676296420395374298e-02,1.051874738186597824e-02,-7.132185250520706177e-02,-7.713128626346588135e-02,-1.313690189272165298e-02,-6.198949366807937622e-02,-1.951654814183712006e-02,8.537520468235015869e-02,5.897955596446990967e-02,-7.818074896931648254e-03
-2.676296420395374298e-02,1.051874738186597824e-02,-7.132185250520706177e-02,-7.713128626346588135e-02,-1.313690189272165298e-02,-6.198949366807937622e-02,-1.951654814183712006e-02,8.537520468235015869e-02,5.897955596446990967e-02,-7.818074896931648254e-03
-2.502964064478874207e-02,1.375506445765495300e-02,-7.173468917608261108e-02,-7.830706238746643066e-02,-1.192183885723352432e-02,-6.449701637029647827e-02,-2.141067758202552795e-02,8.584119379520416260e-02,6.007921695709228516e-02,-7.596817333251237869e-03
-2.502964064478874207e-02,1.375506445765495300e-02,-7.173468917608261108e-02,-7.830706238746643066e-02,-1.192183885723352432e-02,-6.449701637029647827e-02,-2.141067758202552795e-02,8.584119379520416260e-02,6.007921695709228516e-02,-7.596817333251237869e-03
-2.161670848727226257e-02,1.579114794731140137e-02,-7.253970205783843994e-02,-8.047192543745040894e-02,-1.388625148683786392e-02,-6.607835739850997925e-02,-2.063349634408950806e-02,8.689062297344207764e-02,6.058687716722488403e-02,-6.247212644666433334e-03
-2.161670848727226257e-02,1.579114794731140137e-02,-7.253970205783843994e-02,-8.047192543745040894e-02,-1.388625148683786392e-02,-6.607835739850997925e-02,-2.063349634408950806e-02,8.689062297344207764e-02,6.058687716722488403e-02,-6.247212644666433334e-03
-2.146129310131072998e-02,2.022655308246612549e-02,-7.272923737764358521e-02,-8.162196725606918335e-02,-1.489073503762483597e-02,-6.878961622714996338e-02,-2.131664939224720001e-02,8.817363530397415161e-02,6.120705604553222656e-02,-4.891617689281702042e-03
-2.146129310131072998e-02,2.022655308246612549e-02,-7.272923737764358521e-02,-8.162196725606918335e-02,-1.489073503762483597e-02,-6.878961622714996338e-02,-2.131664939224720001e-02,8.817363530397415161e-02,6.120705604553222656e-02,-4.891617689281702042e-03
-1.877312175929546356e-02,2.059576101601123810e-02,-7.386611402034759521e-02,-8.181320875883102417e-02,-1.445630844682455063e-02,-6.926207244396209717e-02,-2.122346125543117523e-02,8.759598433971405029e-02,6.123762950301170349e-02,-4.674025811254978180e-03
-1.877312175929546356e-02,2.059576101601123810e-02,-7.386611402034759521e-02,-8.181320875883102417e-02,-1.445630844682455063e-02,-6.926207244396209717e-02,-2.122346125543117523e-02,8.759598433971405029e-02,6.123762950301170349e-02,-4.674025811254978180e-03
-1.620761118829250336e-02,2.284182980656623840e-02,-7.534760236740112305e-02,-8.311856538057327271e-02,-1.510852482169866562e-02,-7.138482481241226196e-02,-1.985790766775608063e-02,8.893548697233200073e-02,6.125101819634437561e-02,-3.692918457090854645e-03
-1.620761118829250336e-02,2.284182980656623840e-02,-7.534760236740112305e-02,-8.311856538057327271e-02,-1.510852482169866562e-02,-7.138482481241226196e-02,-1.985790766775608063e-02,8.893548697233200073e-02,6.125101819634437561e-02,-3.692918457090854645e-03
-1.729402132332324982e-02,2.566663548350334167e-02,-7.554382830858230591e-02,-8.357182890176773071e-02,-1.629038900136947632e-02,-7.323526591062545776e-02,-1.907127723097801208e-02,8.948668092489242554e-02,6.362637132406234741e-02,-4.332869779318571091e-03
-1.729402132332324982e-02,2.566663548350334167e-02,-7.554382830858230591e-02,-8.357182890176773071e-02,-1.629038900136947632e-02,-7.323526591062545776e-02,-1.907127723097801208e-02,8.948668092489242554e-02,6.362637132406234741e-02,-4.332869779318571091e-03
-1.504008937627077103e-02,2.741351723670959473e-02,-7.624047994613647461e-02,-8.508176356554031372e-02,-1.687463931739330292e-02,-7.451600581407546997e-02,-1.944143883883953094e-02,9.093285351991653442e-02,6.451535224914550781e-02,-4.379495978355407715e-03
-1.504008937627077103e-02,2.741351723670959473e-02,-7.624047994613647461e-02,-8.508176356554031372e-02,-1.687463931739330292e-02,-7.451600581407546997e-02,-1.944143883883953094e-02,9.093285351991653442e-02,6.451535224914550781e-02,-4.379495978355407715e-03
-1.475319452583789825e-02,3.005533479154109955e-02,-7.539883255958557129e-02,-8.639570325613021851e-02,-1.738085784018039703e-02,-7.640447467565536499e-02,-1.914028823375701904e-02,9.129321575164794922e-02,6.380292028188705444e-02,-2.760155592113733292e-03
-1.475319452583789825e-02,3.005533479154109955e-02,-7.539883255958557129e-02,-8.639570325613021851e-02,-1.738085784018039703e-02,-7.640447467565536499e-02,-1.914028823375701904e-02,9.129321575164794922e-02,6.380292028188705444e-02,-2.760155592113733292e-03
-1.158730965107679367e-02,3.055646084249019623e-02,-7.608895748853683472e-02,-8.691127598285675049e-02,-1.847441680729389191e-02,-7.904127240180969238e-02,-1.894014514982700348e-02,9.201112389564514160e-02,6.529813259840011597e-02,-2.462448785081505775e-03
-1.158730965107679367e-02,3.055646084249019623e-02,-7.608895748853683472e-02,-8.691127598285675049e-02,-1.847441680729389191e-02,-7.904127240180969238e-02,-1.894014514982700348e-02,9.201112389564514160e-02,6.529813259840011597e-02,-2.462448785081505775e-03
-1.121872756630182266e-02,3.303660079836845398e-02,-7.742610573768615723e-02,-8.856327086687088013e-02,-1.904871128499507904e-02,-7.957003265619277954e-02,-1.789407432079315186e-02,9.388510882854461670e-02,6.486191600561141968e-02,-1.553810900077223778e-03
-1.121872756630182266e-02,3.303660079836845398e-02,-7.742610573768615723e-02,-8.856327086687088013e-02,-1.904871128499507904e-02,-7.957003265619277954e-02,-1.789407432079315186e-02,9.388510882854461670e-02,6.486191600561141968e-02,-1.553810900077223778e-03
-1.083942689001560211e-02,3.522132337093353271e-02,-7.776486873626708984e-02,-8.899775892496109009e-02,-2.017708308994770050e-02,-8.214079588651657104e-02,-1.701859757304191589e-02,9.562634676694869995e-02,6.623017787933349609e-02,-2.027928363531827927e-03
-1.083942689001560211e-02,3.522132337093353271e-02,-7.776486873626708984e-02,-8.899775892496109009e-02,-2.017708308994770050e-02,-8.214079588651657104e-02,-1.701859757304191589e-02,9.562634676694869995e-02,6.623017787933349609e-02,-2.027928363531827927e-03
-8.351027965545654297e-03,3.539551794528961182e-02,-7.709813117980957031e-02,-9.123536199331283569e-02,-2.057181112468242645e-02,-8.267867565155029297e-02,-1.703700423240661621e-02,9.505495429039001465e-02,6.663580983877182007e-02,-8.198813302442431450e-04
-8.351027965545654297e-03,3.539551794528961182e-02,-7.709813117980957031e-02,-9.123536199331283569e-02,-2.057181112468242645e-02,-8.267867565155029297e-02,-1.703700423240661621e-02,9.505495429039001465e-02,6.663580983877182007e-02,-8.198813302442431450e-04
-7.946116849780082703e-03,3.818065673112869263e-02,-7.760687172412872314e-02,-9.168998152017593384e-02,-2.121271193027496338e-02,-8.420483022928237915e-02,-1.661574654281139374e-02,9.535195678472518921e-02,6.763606518507003784e-02,-8.181802695617079735e-04
-7.946116849780082703e-03,3.818065673112869263e-02,-7.760687172412872314e-02,-9.168998152017593384e-02,-2.121271193027496338e-02,-8.420483022928237915e-02,-1.661574654281139374e-02,9.535195678472518921e-02,6.763606518507003784e-02,-8.181802695617079735e-04
-5.801040679216384888e-03,3.818039223551750183e-02,-7.715010643005371094e-02,-9.334391355514526367e-02,-2.294228412210941315e-02,-8.682303875684738159e-02,-1.351801864802837372e-02,9.732479602098464966e-02,6.840389221906661987e-02,-1.229088287800550461e-03
-5.801040679216384888e-03,3.818039223551750183e-02,-7.715010643005371094e-02,-9.334391355514526367e-02,-2.294228412210941315e-02,-8.682303875684738159e-02,-1.351801864802837372e-02,9.732479602098464966e-02,6.840389221906661987e-02,-1.229088287800550461e-03
-4.539427347481250763e-03,4.071230813860893250e-02,-7.760258764028549194e-02,-9.451882541179656982e-02,-2.312107942998409271e-02,-8.789837360382080078e-02,-1.399750541895627975e-02,9.696912020444869995e-02,6.963928043842315674e-02,-7.991614402271807194e-04
-4.539427347481250763e-03,4.071230813860893250e-02,-7.760258764028549194e-02,-9.451882541179656982e-02,-2.312107942998409271e-02,-8.789837360382080078e-02,-1.399750541895627975e-02,9.696912020444869995e-02,6.963928043842315674e-02,-7.991614402271807194e-04
-2.419325988739728928e-03,4.007475823163986206e-02,-7.862625271081924438e-02,-9.419465065002441406e-02,-2.268938720226287842e-02,-8.780707418918609619e-02,-1.593662612140178680e-02,9.912393242120742798e-02,6.940209865570068359e-02,-2.175869187340140343e-03
-2.419325988739728928e-03,4.007475823163986206e-02,-7.862625271081924438e-02,-9.419465065002441406e-02,-2.268938720226287842e-02,-8.780707418918609619e-02,-1.593662612140178680e-02,9.912393242120742798e-02,6.940209865570068359e-02,-2.175869187340140343e-03
