-3.058897517621517181e-02,4.124826192855834961e-02,5.317108705639839172e-02,-6.396804004907608032e-02,7.841238752007484436e-03,2.200084924697875977e-02,5.383695662021636963e-02,-5.116172507405281067e-02,-2.493677474558353424e-02,5.852131918072700500e-02
-3.058897517621517181e-02,4.124826192855834961e-02,5.317108705639839172e-02,-6.396804004907608032e-02,7.841238752007484436e-03,2.200084924697875977e-02,5.383695662021636963e-02,-5.116172507405281067e-02,-2.493677474558353424e-02,5.852131918072700500e-02
-3.492734581232070923e-02,4.894552007317543030e-02,5.701577663421630859e-02,-6.790656596422195435e-02,2.151369303464889526e-02,1.068354118615388870e-02,4.902984201908111572e-02,-4.850751534104347229e-02,-2.348889224231243134e-02,5.259376764297485352e-02
-3.492734581232070923e-02,4.894552007317543030e-02,5.701577663421630859e-02,-6.790656596422195435e-02,2.151369303464889526e-02,1.068354118615388870e-02,4.902984201908111572e-02,-4.850751534104347229e-02,-2.348889224231243134e-02,5.259376764297485352e-02
-3.482757881283760071e-02,5.932312458753585815e-02,5.651002377271652222e-02,-6.824897229671478271e-02,2.811377681791782379e-02,3.568059066310524940e-03,4.574395716190338135e-02,-5.187404155731201172e-02,-1.973985135555267334e-02,4.806332290172576904e-02
-3.482757881283760071e-02,5.932312458753585815e-02,5.651002377271652222e-02,-6.824897229671478271e-02,2.811377681791782379e-02,3.568059066310524940e-03,4.574395716190338135e-02,-5.187404155731201172e-02,-1.973985135555267334e-02,4.806332290172576904e-02
-3.533203154802322388e-02,6.724213808774948120e-02,5.415166541934013367e-02,-6.738288700580596924e-02,3.493383154273033142e-02,-2.892530756071209908e-03,4.383159801363945007e-02,-5.294540151953697205e-02,-1.692349277436733246e-02,4.417893663048744202e-02
-3.533203154802322388e-02,6.724213808774948120e-02,5.415166541934013367e-02,-6.738288700580596924e-02,3.493383154273033142e-02,-2.892530756071209908e-03,4.383159801363945007e-02,-5.294540151953697205e-02,-1.692349277436733246e-02,4.417893663048744202e-02
-3.430490940809249878e-02,7.552889734506607056e-02,5.053376778960227966e-02,-6.863776594400405884e-02,3.937167301774024963e-02,-7.947320118546485901e-03,4.214252904057502747e-02,-5.311284586787223816e-02,-1.379491854459047318e-02,4.247965291142463684e-02
-3.430490940809249878e-02,7.552889734506607056e-02,5.053376778960227966e-02,-6.863776594400405884e-02,3.937167301774024963e-02,-7.947320118546485901e-03,4.214252904057502747e-02,-5.311284586787223816e-02,-1.379491854459047318e-02,4.247965291142463684e-02
-3.357796370983123779e-02,8.103775978088378906e-02,4.974916949868202209e-02,-7.057400047779083252e-02,4.314581304788589478e-02,-1.316249743103981018e-02,4.087288677692413330e-02,-5.338545888662338257e-02,-1.165518071502447128e-02,4.224931821227073669e-02
-3.357796370983123779e-02,8.103775978088378906e-02,4.974916949868202209e-02,-7.057400047779083252e-02,4.314581304788589478e-02,-1.316249743103981018e-02,4.087288677692413330e-02,-5.338545888662338257e-02,-1.165518071502447128e-02,4.224931821227073669e-02
-3.095293790102005005e-02,8.787776529788970947e-02,4.849239066243171692e-02,-7.375255972146987915e-02,4.557207226753234863e-02,-1.675600558519363403e-02,3.961094841361045837e-02,-5.405654758214950562e-02,-1.030230987817049026e-02,4.270665347576141357e-02
-3.095293790102005005e-02,8.787776529788970947e-02,4.849239066243171692e-02,-7.375255972146987915e-02,4.557207226753234863e-02,-1.675600558519363403e-02,3.961094841361045837e-02,-5.405654758214950562e-02,-1.030230987817049026e-02,4.270665347576141357e-02
-2.979934401810169220e-02,9.369093924760818481e-02,4.607733711600303650e-02,-7.571953535079956055e-02,4.684543609619140625e-02,-1.970398798584938049e-02,4.033067822456359863e-02,-5.196436122059822083e-02,-9.840266779065132141e-03,4.232518374919891357e-02
-2.979934401810169220e-02,9.369093924760818481e-02,4.607733711600303650e-02,-7.571953535079956055e-02,4.684543609619140625e-02,-1.970398798584938049e-02,4.033067822456359863e-02,-5.196436122059822083e-02,-9.840266779065132141e-03,4.232518374919891357e-02
-2.897242456674575806e-02,9.853036701679229736e-02,4.615520685911178589e-02,-7.777329534292221069e-02,4.893182963132858276e-02,-2.500676177442073822e-02,3.872577100992202759e-02,-5.188121646642684937e-02,-7.837914861738681793e-03,4.375617578625679016e-02
-2.897242456674575806e-02,9.853036701679229736e-02,4.615520685911178589e-02,-7.777329534292221069e-02,4.893182963132858276e-02,-2.500676177442073822e-02,3.872577100992202759e-02,-5.188121646642684937e-02,-7.837914861738681793e-03,4.375617578625679016e-02
-2.677417919039726257e-02,1.035941466689109802e-01,4.574416950345039368e-02,-8.041255176067352295e-02,5.062617361545562744e-02,-2.896565757691860199e-02,3.804377466440200806e-02,-5.109636113047599792e-02,-6.570057943463325500e-03,4.391382262110710144e-02
-2.677417919039726257e-02,1.035941466689109802e-01,4.574416950345039368e-02,-8.041255176067352295e-02,5.062617361545562744e-02,-2.896565757691860199e-02,3.804377466440200806e-02,-5.109636113047599792e-02,-6.570057943463325500e-03,4.391382262110710144e-02
-2.615300007164478302e-02,1.107892021536827087e-01,4.440819472074508667e-02,-8.226668089628219604e-02,4.984278231859207153e-02,-3.141921013593673706e-02,3.837728127837181091e-02,-4.945655167102813721e-02,-6.850020494312047958e-03,4.513675719499588013e-02
-2.615300007164478302e-02,1.107892021536827087e-01,4.440819472074508667e-02,-8.226668089628219604e-02,4.984278231859207153e-02,-3.141921013593673706e-02,3.837728127837181091e-02,-4.945655167102813721e-02,-6.850020494312047958e-03,4.513675719499588013e-02
-2.462512627243995667e-02,1.137551665306091309e-01,4.280368238687515259e-02,-8.282276242971420288e-02,5.106647312641143799e-02,-3.374062106013298035e-02,3.738519176840782166e-02,-4.859926179051399231e-02,-5.832454655319452286e-03,4.511865600943565369e-02
-2.462512627243995667e-02,1.137551665306091309e-01,4.280368238687515259e-02,-8.282276242971420288e-02,5.106647312641143799e-02,-3.374062106013298035e-02,3.738519176840782166e-02,-4.859926179051399231e-02,-5.832454655319452286e-03,4.511865600943565369e-02
-2.414010837674140930e-02,1.173798963427543640e-01,4.235318675637245178e-02,-8.553101122379302979e-02,5.096607282757759094e-02,-3.660785779356956482e-02,3.822171315550804138e-02,-4.730477184057235718e-02,-3.994769882410764694e-03,4.571463540196418762e-02
-2.414010837674140930e-02,1.173798963427543640e-01,4.235318675637245178e-02,-8.553101122379302979e-02,5.096607282757759094e-02,-3.660785779356956482e-02,3.822171315550804138e-02,-4.730477184057235718e-02,-3.994769882410764694e-03,4.571463540196418762e-02
-2.137442119419574738e-02,1.220390126109123230e-01,4.250286519527435303e-02,-8.718698471784591675e-02,5.024389922618865967e-02,-3.918108716607093811e-02,3.825680166482925415e-02,-4.501526057720184326e-02,-4.942430183291435242e-03,4.542430117726325989e-02
-2.137442119419574738e-02,1.220390126109123230e-01,4.250286519527435303e-02,-8.718698471784591675e-02,5.024389922618865967e-02,-3.918108716607093811e-02,3.825680166482925415e-02,-4.501526057720184326e-02,-4.942430183291435242e-03,4.542430117726325989e-02
-1.969057321548461914e-02,1.250136643648147583e-01,4.252221807837486267e-02,-8.818557858467102051e-02,5.210053920745849609e-02,-4.268378391861915588e-02,3.658828511834144592e-02,-4.495457187294960022e-02,-4.211359191685914993e-03,4.622624069452285767e-02
-1.969057321548461914e-02,1.250136643648147583e-01,4.252221807837486267e-02,-8.818557858467102051e-02,5.210053920745849609e-02,-4.268378391861915588e-02,3.658828511834144592e-02,-4.495457187294960022e-02,-4.211359191685914993e-03,4.622624069452285767e-02
-1.733177527785301208e-02,1.262428164482116699e-01,4.250244423747062683e-02,-9.100814163684844971e-02,5.143234878778457642e-02,-4.414957016706466675e-02,3.706488013267517090e-02,-4.349599406123161316e-02,-3.625868353992700577e-03,4.697535932064056396e-02
-1.733177527785301208e-02,1.262428164482116699e-01,4.250244423747062683e-02,-9.100814163684844971e-02,5.143234878778457642e-02,-4.414957016706466675e-02,3.706488013267517090e-02,-4.349599406123161316e-02,-3.625868353992700577e-03,4.697535932064056396e-02
-1.717728003859519958e-02,1.304739117622375488e-01,4.142060875892639160e-02,-9.160896390676498413e-02,5.121258273720741272e-02,-4.629566520452499390e-02,3.723882511258125305e-02,-4.277747869491577148e-02,-2.403769176453351974e-03,4.693044349551200867e-02
-1.717728003859519958e-02,1.304739117622375488e-01,4.142060875892639160e-02,-9.160896390676498413e-02,5.121258273720741272e-02,-4.629566520452499390e-02,3.723882511258125305e-02,-4.277747869491577148e-02,-2.403769176453351974e-03,4.693044349551200867e-02
-1.552237290889024734e-02,1.331671476364135742e-01,4.078740999102592468e-02,-9.230338782072067261e-02,5.258832499384880066e-02,-4.674245417118072510e-02,3.657656162977218628e-02,-4.278849810361862183e-02,-3.290586173534393311e-03,4.682004824280738831e-02
-1.552237290889024734e-02,1.331671476364135742e-01,4.078740999102592468e-02,-9.230338782072067261e-02,5.258832499384880066e-02,-4.674245417118072510e-02,3.657656162977218628e-02,-4.278849810361862183e-02,-3.290586173534393311e-03,4.682004824280738831e-02
-1.448015868663787842e-02,1.360724419355392456e-01,4.059184715151786804e-02,-9.397976100444793701e-02,5.171873420476913452e-02,-4.908891022205352783e-02,3.798996284604072571e-02,-4.168746247887611389e-02,-3.319366369396448135e-03,4.809007421135902405e-02
-1.448015868663787842e-02,1.360724419355392456e-01,4.059184715151786804e-02,-9.397976100444793701e-02,5.171873420476913452e-02,-4.908891022205352783e-02,3.798996284604072571e-02,-4.168746247887611389e-02,-3.319366369396448135e-03,4.809007421135902405e-02
-1.418846938759088516e-02,1.387857496738433838e-01,3.991426527500152588e-02,-9.506657719612121582e-02,5.279520899057388306e-02,-5.141100287437438965e-02,3.845616430044174194e-02,-4.078935831785202026e-02,-1.562784891575574875e-03,4.710132628679275513e-02
-1.418846938759088516e-02,1.387857496738433838e-01,3.991426527500152588e-02,-9.506657719612121582e-02,5.279520899057388306e-02,-5.141100287437438965e-02,3.845616430044174194e-02,-4.078935831785202026e-02,-1.562784891575574875e-03,4.710132628679275513e-02
-1.167211495339870453e-02,1.416240334510803223e-01,3.989213705062866211e-02,-9.704616665840148926e-02,5.210544914007186890e-02,-5.221085622906684875e-02,3.780819475650787354e-02,-3.825830295681953430e-02,-2.104468178004026413e-03,4.647582769393920898e-02
-1.167211495339870453e-02,1.416240334510803223e-01,3.989213705062866211e-02,-9.704616665840148926e-02,5.210544914007186890e-02,-5.221085622906684875e-02,3.780819475650787354e-02,-3.825830295681953430e-02,-2.104468178004026413e-03,4.647582769393920898e-02
-1.203607954084873199e-02,1.458922624588012695e-01,4.156217724084854126e-02,-9.895133972167968750e-02,5.279105529189109802e-02,-5.409235879778862000e-02,3.782293945550918579e-02,-3.926855698227882385e-02,-2.668423112481832504e-03,4.786702990531921387e-02
-1.203607954084873199e-02,1.458922624588012695e-01,4.156217724084854126e-02,-9.895133972167968750e-02,5.279105529189109802e-02,-5.409235879778862000e-02,3.782293945550918579e-02,-3.926855698227882385e-02,-2.668423112481832504e-03,4.786702990531921387e-02
-8.996934629976749420e-03,1.490933299064636230e-01,3.980807587504386902e-02,-1.006046533584594727e-01,5.315560474991798401e-02,-5.499058961868286133e-02,3.813055157661437988e-02,-3.892325609922409058e-02,-1.232938258908689022e-03,4.687668010592460632e-02
-8.996934629976749420e-03,1.490933299064636230e-01,3.980807587504386902e-02,-1.006046533584594727e-01,5.315560474991798401e-02,-5.499058961868286133e-02,3.813055157661437988e-02,-3.892325609922409058e-02,-1.232938258908689022e-03,4.687668010592460632e-02
-9.208567440509796143e-03,1.494302153587341309e-01,3.967558965086936951e-02,-1.008799299597740173e-01,5.338626727461814880e-02,-5.614056065678596497e-02,3.851604834198951721e-02,-3.820893913507461548e-02,-1.592557295225560665e-03,4.771798849105834961e-02
-9.208567440509796143e-03,1.494302153587341309e-01,3.967558965086936951e-02,-1.008799299597740173e-01,5.338626727461814880e-02,-5.614056065678596497e-02,3.851604834198951721e-02,-3.820893913507461548e-02,-1.592557295225560665e-03,4.771798849105834961e-02
-9.088061749935150146e-03,1.526008397340774536e-01,4.002699255943298340e-02,-1.013046950101852417e-01,5.151686444878578186e-02,-5.844631418585777283e-02,4.033550620079040527e-02,-3.699252754449844360e-02,-2.593134529888629913e-03,4.882307723164558411e-02
-9.088061749935150146e-03,1.526008397340774536e-01,4.002699255943298340e-02,-1.013046950101852417e-01,5.151686444878578186e-02,-5.844631418585777283e-02,4.033550620079040527e-02,-3.699252754449844360e-02,-2.593134529888629913e-03,4.882307723164558411e-02
-8.140247315168380737e-03,1.525035947561264038e-01,4.073873907327651978e-02,-1.043124645948410034e-01,5.136173963546752930e-02,-5.803755298256874084e-02,4.008673503994941711e-02,-3.610863536596298218e-02,-8.107409230433404446e-04,4.801283776760101318e-02
-8.140247315168380737e-03,1.525035947561264038e-01,4.073873907327651978e-02,-1.043124645948410034e-01,5.136173963546752930e-02,-5.803755298256874084e-02,4.008673503994941711e-02,-3.610863536596298218e-02,-8.107409230433404446e-04,4.801283776760101318e-02
-6.277868989855051041e-03,1.570360362529754639e-01,4.040147736668586731e-02,-1.053591221570968628e-01,5.106884241104125977e-02,-5.980466678738594055e-02,4.044973850250244141e-02,-3.640644997358322144e-02,-1.087145530618727207e-03,4.872832074761390686e-02
-6.277868989855051041e-03,1.570360362529754639e-01,4.040147736668586731e-02,-1.053591221570968628e-01,5.106884241104125977e-02,-5.980466678738594055e-02,4.044973850250244141e-02,-3.640644997358322144e-02,-1.087145530618727207e-03,4.872832074761390686e-02
-6.244178861379623413e-03,1.586335450410842896e-01,4.046367481350898743e-02,-1.058686450123786926e-01,5.137276276946067810e-02,-6.197405606508255005e-02,4.199535027146339417e-02,-3.547892346978187561e-02,-2.435184142086654902e-04,4.776740819215774536e-02
-6.244178861379623413e-03,1.586335450410842896e-01,4.046367481350898743e-02,-1.058686450123786926e-01,5.137276276946067810e-02,-6.197405606508255005e-02,4.199535027146339417e-02,-3.547892346978187561e-02,-2.435184142086654902e-04,4.776740819215774536e-02
-3.990503028035163879e-03,1.615819483995437622e-01,3.951202332973480225e-02,-1.060671955347061157e-01,5.141693726181983948e-02,-6.348188966512680054e-02,4.159608110785484314e-02,-3.437533974647521973e-02,3.480598934402223676e-06,4.672323539853096008e-02
-3.990503028035163879e-03,1.615819483995437622e-01,3.951202332973480225e-02,-1.060671955347061157e-01,5.141693726181983948e-02,-6.348188966512680054e-02,4.159608110785484314e-02,-3.437533974647521973e-02,3.480598934402223676e-06,4.672323539853096008e-02
-2.259136876091361046e-03,1.612892597913742065e-01,3.897685185074806213e-02,-1.073488146066665649e-01,5.208808556199073792e-02,-6.351037323474884033e-02,4.083028808236122131e-02,-3.488749265670776367e-02,7.518742349930107594e-04,4.738879203796386719e-02
-2.259136876091361046e-03,1.612892597913742065e-01,3.897685185074806213e-02,-1.073488146066665649e-01,5.208808556199073792e-02,-6.351037323474884033e-02,4.083028808236122131e-02,-3.488749265670776367e-02,7.518742349930107594e-04,4.738879203796386719e-02
