-1.857887580990791321e-02,-4.921944066882133484e-02,-5.464237183332443237e-02,4.960253089666366577e-02,2.886461466550827026e-02,2.833925373852252960e-02,-3.665191680192947388e-02,1.189781539142131805e-02,6.416963785886764526e-02,1.701566018164157867e-02
-1.857887580990791321e-02,-4.921944066882133484e-02,-5.464237183332443237e-02,4.960253089666366577e-02,2.886461466550827026e-02,2.833925373852252960e-02,-3.665191680192947388e-02,1.189781539142131805e-02,6.416963785886764526e-02,1.701566018164157867e-02
-2.140457183122634888e-02,-4.453687742352485657e-02,-5.054318532347679138e-02,4.326520487666130066e-02,3.938224911689758301e-02,1.956736668944358826e-02,-4.030789062380790710e-02,1.375703047960996628e-02,6.407004594802856445e-02,1.666384562849998474e-02
-2.140457183122634888e-02,-4.453687742352485657e-02,-5.054318532347679138e-02,4.326520487666130066e-02,3.938224911689758301e-02,1.956736668944358826e-02,-4.030789062380790710e-02,1.375703047960996628e-02,6.407004594802856445e-02,1.666384562849998474e-02
-2.142506837844848633e-02,-3.682178631424903870e-02,-4.961673915386199951e-02,4.205628111958503723e-02,4.263801872730255127e-02,1.557505130767822266e-02,-4.422250390052795410e-02,1.035741530358791351e-02,6.457229703664779663e-02,1.759565249085426331e-02
-2.142506837844848633e-02,-3.682178631424903870e-02,-4.961673915386199951e-02,4.205628111958503723e-02,4.263801872730255127e-02,1.557505130767822266e-02,-4.422250390052795410e-02,1.035741530358791351e-02,6.457229703664779663e-02,1.759565249085426331e-02
-2.146873250603675842e-02,-3.118414059281349182e-02,-5.100686103105545044e-02,4.077419638633728027e-02,4.700859263539314270e-02,1.174378022551536560e-02,-4.526784643530845642e-02,8.605474606156349182e-03,6.501699984073638916e-02,1.802317425608634949e-02
-2.146873250603675842e-02,-3.118414059281349182e-02,-5.100686103105545044e-02,4.077419638633728027e-02,4.700859263539314270e-02,1.174378022551536560e-02,-4.526784643530845642e-02,8.605474606156349182e-03,6.501699984073638916e-02,1.802317425608634949e-02
-1.942085474729537964e-02,-2.483752928674221039e-02,-5.326610431075096130e-02,3.986954316496849060e-02,5.051990225911140442e-02,7.246099412441253662e-03,-4.712399095296859741e-02,8.615814149379730225e-03,6.552034616470336914e-02,1.804559119045734406e-02
-1.942085474729537964e-02,-2.483752928674221039e-02,-5.326610431075096130e-02,3.986954316496849060e-02,5.051990225911140442e-02,7.246099412441253662e-03,-4.712399095296859741e-02,8.615814149379730225e-03,6.552034616470336914e-02,1.804559119045734406e-02
-1.744804531335830688e-02,-1.926608197391033173e-02,-5.435694754123687744e-02,3.822551667690277100e-02,5.250935629010200500e-02,3.588275983929634094e-03,-4.865345731377601624e-02,8.100724779069423676e-03,6.556577235460281372e-02,1.963742636144161224e-02
-1.744804531335830688e-02,-1.926608197391033173e-02,-5.435694754123687744e-02,3.822551667690277100e-02,5.250935629010200500e-02,3.588275983929634094e-03,-4.865345731377601624e-02,8.100724779069423676e-03,6.556577235460281372e-02,1.963742636144161224e-02
-1.530087366700172424e-02,-1.452387962490320206e-02,-5.600561946630477905e-02,3.483747690916061401e-02,5.504202842712402344e-02,6.175112212076783180e-04,-5.067277699708938599e-02,8.399824611842632294e-03,6.670530885457992554e-02,2.131986804306507111e-02
-1.530087366700172424e-02,-1.452387962490320206e-02,-5.600561946630477905e-02,3.483747690916061401e-02,5.504202842712402344e-02,6.175112212076783180e-04,-5.067277699708938599e-02,8.399824611842632294e-03,6.670530885457992554e-02,2.131986804306507111e-02
-1.286702416837215424e-02,-1.011219527572393417e-02,-5.834621563553810120e-02,3.275448456406593323e-02,5.563455820083618164e-02,-8.965170709416270256e-04,-4.960719123482704163e-02,9.130242280662059784e-03,6.585451215505599976e-02,2.234040014445781708e-02
-1.286702416837215424e-02,-1.011219527572393417e-02,-5.834621563553810120e-02,3.275448456406593323e-02,5.563455820083618164e-02,-8.965170709416270256e-04,-4.960719123482704163e-02,9.130242280662059784e-03,6.585451215505599976e-02,2.234040014445781708e-02
-1.000508852303028107e-02,-5.007698200643062592e-03,-5.885190889239311218e-02,3.008718043565750122e-02,5.634550005197525024e-02,-4.923895932734012604e-03,-5.141166597604751587e-02,8.905874565243721008e-03,6.691706180572509766e-02,2.478096820414066315e-02
-1.000508852303028107e-02,-5.007698200643062592e-03,-5.885190889239311218e-02,3.008718043565750122e-02,5.634550005197525024e-02,-4.923895932734012604e-03,-5.141166597604751587e-02,8.905874565243721008e-03,6.691706180572509766e-02,2.478096820414066315e-02
-7.206140551716089249e-03,-1.029963372275233269e-03,-5.956661328673362732e-02,2.815226092934608459e-02,5.727102607488632202e-02,-7.923853583633899689e-03,-5.124577879905700684e-02,9.945407509803771973e-03,6.610356271266937256e-02,2.575482241809368134e-02
-7.206140551716089249e-03,-1.029963372275233269e-03,-5.956661328673362732e-02,2.815226092934608459e-02,5.727102607488632202e-02,-7.923853583633899689e-03,-5.124577879905700684e-02,9.945407509803771973e-03,6.610356271266937256e-02,2.575482241809368134e-02
-4.476954694837331772e-03,4.608190152794122696e-03,-6.066617369651794434e-02,2.467364631593227386e-02,5.689235404133796692e-02,-9.020394645631313324e-03,-5.141795799136161804e-02,1.012968085706233978e-02,6.623914837837219238e-02,2.728278376162052155e-02
-4.476954694837331772e-03,4.608190152794122696e-03,-6.066617369651794434e-02,2.467364631593227386e-02,5.689235404133796692e-02,-9.020394645631313324e-03,-5.141795799136161804e-02,1.012968085706233978e-02,6.623914837837219238e-02,2.728278376162052155e-02
-3.926711156964302063e-03,8.036189712584018707e-03,-6.191099807620048523e-02,2.535552531480789185e-02,5.849968641996383667e-02,-1.113111246377229691e-02,-5.291249975562095642e-02,1.099984068423509598e-02,6.502630561590194702e-02,2.805611491203308105e-02
-3.926711156964302063e-03,8.036189712584018707e-03,-6.191099807620048523e-02,2.535552531480789185e-02,5.849968641996383667e-02,-1.113111246377229691e-02,-5.291249975562095642e-02,1.099984068423509598e-02,6.502630561590194702e-02,2.805611491203308105e-02
-1.234228024259209633e-03,1.064504869282245636e-02,-6.297881901264190674e-02,2.264333330094814301e-02,5.727612972259521484e-02,-1.447923574596643448e-02,-5.099703371524810791e-02,1.286998018622398376e-02,6.629889458417892456e-02,2.935743145644664764e-02
-1.234228024259209633e-03,1.064504869282245636e-02,-6.297881901264190674e-02,2.264333330094814301e-02,5.727612972259521484e-02,-1.447923574596643448e-02,-5.099703371524810791e-02,1.286998018622398376e-02,6.629889458417892456e-02,2.935743145644664764e-02
1.202819112222641706e-05,1.330461073666810989e-02,-6.359422206878662109e-02,2.099587023258209229e-02,5.807201564311981201e-02,-1.656359061598777771e-02,-4.934353008866310120e-02,1.397417113184928894e-02,6.546349823474884033e-02,3.003241308033466339e-02
1.202819112222641706e-05,1.330461073666810989e-02,-6.359422206878662109e-02,2.099587023258209229e-02,5.807201564311981201e-02,-1.656359061598777771e-02,-4.934353008866310120e-02,1.397417113184928894e-02,6.546349823474884033e-02,3.003241308033466339e-02
2.648089546710252762e-03,1.657756604254245758e-02,-6.283883750438690186e-02,1.888215355575084686e-02,5.952054262161254883e-02,-1.900271512567996979e-02,-5.207124352455139160e-02,1.452540699392557144e-02,6.554768979549407959e-02,3.072958625853061676e-02
2.648089546710252762e-03,1.657756604254245758e-02,-6.283883750438690186e-02,1.888215355575084686e-02,5.952054262161254883e-02,-1.900271512567996979e-02,-5.207124352455139160e-02,1.452540699392557144e-02,6.554768979549407959e-02,3.072958625853061676e-02
6.482223980128765106e-03,1.981603540480136871e-02,-6.307582557201385498e-02,1.585496403276920319e-02,5.792897567152976990e-02,-2.122555114328861237e-02,-5.085491389036178589e-02,1.507839467376470566e-02,6.593382358551025391e-02,3.232727199792861938e-02
6.482223980128765106e-03,1.981603540480136871e-02,-6.307582557201385498e-02,1.585496403276920319e-02,5.792897567152976990e-02,-2.122555114328861237e-02,-5.085491389036178589e-02,1.507839467376470566e-02,6.593382358551025391e-02,3.232727199792861938e-02
6.258859764784574509e-03,2.329749241471290588e-02,-6.337802112102508545e-02,1.509194076061248779e-02,5.737231671810150146e-02,-2.341786772012710571e-02,-5.062869191169738770e-02,1.745649054646492004e-02,6.565792858600616455e-02,3.248645737767219543e-02
6.258859764784574509e-03,2.329749241471290588e-02,-6.337802112102508545e-02,1.509194076061248779e-02,5.737231671810150146e-02,-2.341786772012710571e-02,-5.062869191169738770e-02,1.745649054646492004e-02,6.565792858600616455e-02,3.248645737767219543e-02
9.278426878154277802e-03,2.632927335798740387e-02,-6.332839280366897583e-02,1.334720943123102188e-02,5.841428041458129883e-02,-2.371049113571643829e-02,-5.119070783257484436e-02,1.726823300123214722e-02,6.432897597551345825e-02,3.256127983331680298e-02
9.278426878154277802e-03,2.632927335798740387e-02,-6.332839280366897583e-02,1.334720943123102188e-02,5.841428041458129883e-02,-2.371049113571643829e-02,-5.119070783257484436e-02,1.726823300123214722e-02,6.432897597551345825e-02,3.256127983331680298e-02
1.114322710782289505e-02,2.659993991255760193e-02,-6.361234933137893677e-02,1.296772249042987823e-02,5.820128321647644043e-02,-2.590554580092430115e-02,-5.071354657411575317e-02,1.753760688006877899e-02,6.403947621583938599e-02,3.418064117431640625e-02
1.114322710782289505e-02,2.659993991255760193e-02,-6.361234933137893677e-02,1.296772249042987823e-02,5.820128321647644043e-02,-2.590554580092430115e-02,-5.071354657411575317e-02,1.753760688006877899e-02,6.403947621583938599e-02,3.418064117431640625e-02
1.274892780929803848e-02,2.930381335318088531e-02,-6.354773789644241333e-02,1.016157772392034531e-02,5.739847198128700256e-02,-2.826923690736293793e-02,-4.879594966769218445e-02,1.850494183599948883e-02,6.608883291482925415e-02,3.380209580063819885e-02
1.274892780929803848e-02,2.930381335318088531e-02,-6.354773789644241333e-02,1.016157772392034531e-02,5.739847198128700256e-02,-2.826923690736293793e-02,-4.879594966769218445e-02,1.850494183599948883e-02,6.608883291482925415e-02,3.380209580063819885e-02
1.397533528506755829e-02,3.105941973626613617e-02,-6.338582932949066162e-02,9.492629207670688629e-03,5.587223544716835022e-02,-2.818125113844871521e-02,-4.953832551836967468e-02,1.950528286397457123e-02,6.483868509531021118e-02,3.466965258121490479e-02
1.397533528506755829e-02,3.105941973626613617e-02,-6.338582932949066162e-02,9.492629207670688629e-03,5.587223544716835022e-02,-2.818125113844871521e-02,-4.953832551836967468e-02,1.950528286397457123e-02,6.483868509531021118e-02,3.466965258121490479e-02
1.540039945393800735e-02,3.424020856618881226e-02,-6.306738406419754028e-02,6.111432798206806183e-03,5.604586750268936157e-02,-2.918726205825805664e-02,-4.768125712871551514e-02,1.989438757300376892e-02,6.428807228803634644e-02,3.573311120271682739e-02
1.540039945393800735e-02,3.424020856618881226e-02,-6.306738406419754028e-02,6.111432798206806183e-03,5.604586750268936157e-02,-2.918726205825805664e-02,-4.768125712871551514e-02,1.989438757300376892e-02,6.428807228803634644e-02,3.573311120271682739e-02
1.830120757222175598e-02,3.372573107481002808e-02,-6.267353892326354980e-02,4.556566942483186722e-03,5.705221742391586304e-02,-3.073427826166152954e-02,-4.829031974077224731e-02,2.114995755255222321e-02,6.502123177051544189e-02,3.478227555751800537e-02
1.830120757222175598e-02,3.372573107481002808e-02,-6.267353892326354980e-02,4.556566942483186722e-03,5.705221742391586304e-02,-3.073427826166152954e-02,-4.829031974077224731e-02,2.114995755255222321e-02,6.502123177051544189e-02,3.478227555751800537e-02
2.008916437625885010e-02,3.558414056897163391e-02,-6.346645951271057129e-02,4.110607784241437912e-03,5.525934696197509766e-02,-3.143349289894104004e-02,-4.812146723270416260e-02,2.237745560705661774e-02,6.417154520750045776e-02,3.587528318166732788e-02
2.008916437625885010e-02,3.558414056897163391e-02,-6.346645951271057129e-02,4.110607784241437912e-03,5.525934696197509766e-02,-3.143349289894104004e-02,-4.812146723270416260e-02,2.237745560705661774e-02,6.417154520750045776e-02,3.587528318166732788e-02
2.099164947867393494e-02,3.787810355424880981e-02,-6.317744404077529907e-02,2.898759441450238228e-03,5.448850244283676147e-02,-3.375323116779327393e-02,-4.807116463780403137e-02,2.365713752806186676e-02,6.494770944118499756e-02,3.614887967705726624e-02
2.099164947867393494e-02,3.787810355424880981e-02,-6.317744404077529907e-02,2.898759441450238228e-03,5.448850244283676147e-02,-3.375323116779327393e-02,-4.807116463780403137e-02,2.365713752806186676e-02,6.494770944118499756e-02,3.614887967705726624e-02
2.262018807232379913e-02,3.471625223755836487e-02,-6.230820715427398682e-02,4.381681792438030243e-04,5.424004420638084412e-02,-3.395453467965126038e-02,-4.607186838984489441e-02,2.371412143111228943e-02,6.570851802825927734e-02,3.688234090805053711e-02
2.262018807232379913e-02,3.471625223755836487e-02,-6.230820715427398682e-02,4.381681792438030243e-04,5.424004420638084412e-02,-3.395453467965126038e-02,-4.607186838984489441e-02,2.371412143111228943e-02,6.570851802825927734e-02,3.688234090805053711e-02
2.598361857235431671e-02,3.829118981957435608e-02,-6.339228898286819458e-02,-4.279672866687178612e-04,5.461059510707855225e-02,-3.549578413367271423e-02,-4.698270931839942932e-02,2.409069612622261047e-02,6.510701030492782593e-02,3.739096224308013916e-02
2.598361857235431671e-02,3.829118981957435608e-02,-6.339228898286819458e-02,-4.279672866687178612e-04,5.461059510707855225e-02,-3.549578413367271423e-02,-4.698270931839942932e-02,2.409069612622261047e-02,6.510701030492782593e-02,3.739096224308013916e-02
2.513146772980690002e-02,4.044371470808982849e-02,-6.299405544996261597e-02,-1.489080372266471386e-03,5.415005609393119812e-02,-3.603699430823326111e-02,-4.513902589678764343e-02,2.485232986509799957e-02,6.457193940877914429e-02,3.731359168887138367e-02
2.513146772980690002e-02,4.044371470808982849e-02,-6.299405544996261597e-02,-1.489080372266471386e-03,5.415005609393119812e-02,-3.603699430823326111e-02,-4.513902589678764343e-02,2.485232986509799957e-02,6.457193940877914429e-02,3.731359168887138367e-02
2.733488008379936218e-02,4.224992170929908752e-02,-6.358870118856430054e-02,-1.729707117192447186e-03,5.275942012667655945e-02,-3.736792877316474915e-02,-4.427721351385116577e-02,2.455729804933071136e-02,6.469627469778060913e-02,3.813815116882324219e-02
2.733488008379936218e-02,4.224992170929908752e-02,-6.358870118856430054e-02,-1.729707117192447186e-03,5.275942012667655945e-02,-3.736792877316474915e-02,-4.427721351385116577e-02,2.455729804933071136e-02,6.469627469778060913e-02,3.813815116882324219e-02
2.951775118708610535e-02,4.259191453456878662e-02,-6.408679485321044922e-02,-3.112928243353962898e-03,5.377414450049400330e-02,-3.678373247385025024e-02,-4.678373038768768311e-02,2.573806792497634888e-02,6.554479897022247314e-02,3.680117800831794739e-02
2.951775118708610535e-02,4.259191453456878662e-02,-6.408679485321044922e-02,-3.112928243353962898e-03,5.377414450049400330e-02,-3.678373247385025024e-02,-4.678373038768768311e-02,2.573806792497634888e-02,6.554479897022247314e-02,3.680117800831794739e-02
