6.234607100486755371e-02,2.767456322908401489e-02,5.315423384308815002e-02,3.914059326052665710e-02,1.428536139428615570e-02,-4.946909844875335693e-02,-4.390713758766651154e-03,6.232964619994163513e-02,-5.035118386149406433e-02,-2.742226049304008484e-02
6.234607100486755371e-02,2.767456322908401489e-02,5.315423384308815002e-02,3.914059326052665710e-02,1.428536139428615570e-02,-4.946909844875335693e-02,-4.390713758766651154e-03,6.232964619994163513e-02,-5.035118386149406433e-02,-2.742226049304008484e-02
5.707837641239166260e-02,3.238245844841003418e-02,5.866405740380287170e-02,3.638918325304985046e-02,2.491787634789943695e-02,-5.944745615124702454e-02,-1.068139076232910156e-02,6.743279844522476196e-02,-4.817721992731094360e-02,-3.339026868343353271e-02
5.707837641239166260e-02,3.238245844841003418e-02,5.866405740380287170e-02,3.638918325304985046e-02,2.491787634789943695e-02,-5.944745615124702454e-02,-1.068139076232910156e-02,6.743279844522476196e-02,-4.817721992731094360e-02,-3.339026868343353271e-02
5.491698905825614929e-02,4.015595465898513794e-02,6.096255034208297729e-02,3.724912926554679871e-02,2.781159803271293640e-02,-6.530985236167907715e-02,-1.588242128491401672e-02,6.896855682134628296e-02,-4.661777243018150330e-02,-3.657725453376770020e-02
5.491698905825614929e-02,4.015595465898513794e-02,6.096255034208297729e-02,3.724912926554679871e-02,2.781159803271293640e-02,-6.530985236167907715e-02,-1.588242128491401672e-02,6.896855682134628296e-02,-4.661777243018150330e-02,-3.657725453376770020e-02
5.397868528962135315e-02,4.800872877240180969e-02,6.042135879397392273e-02,3.784771636128425598e-02,3.137471154332160950e-02,-6.929009407758712769e-02,-1.955293118953704834e-02,7.040835916996002197e-02,-4.660474136471748352e-02,-3.915325924754142761e-02
5.397868528962135315e-02,4.800872877240180969e-02,6.042135879397392273e-02,3.784771636128425598e-02,3.137471154332160950e-02,-6.929009407758712769e-02,-1.955293118953704834e-02,7.040835916996002197e-02,-4.660474136471748352e-02,-3.915325924754142761e-02
5.437980964779853821e-02,5.525419861078262329e-02,5.802195146679878235e-02,3.752865642309188843e-02,3.425078466534614563e-02,-7.309268414974212646e-02,-2.228524349629878998e-02,7.152395695447921753e-02,-4.513140022754669189e-02,-4.051061719655990601e-02
5.437980964779853821e-02,5.525419861078262329e-02,5.802195146679878235e-02,3.752865642309188843e-02,3.425078466534614563e-02,-7.309268414974212646e-02,-2.228524349629878998e-02,7.152395695447921753e-02,-4.513140022754669189e-02,-4.051061719655990601e-02
5.509512498974800110e-02,6.144669651985168457e-02,5.834817513823509216e-02,3.658502921462059021e-02,3.541420772671699524e-02,-7.718128710985183716e-02,-2.467491663992404938e-02,7.318853586912155151e-02,-4.470836371183395386e-02,-4.114026576280593872e-02
5.509512498974800110e-02,6.144669651985168457e-02,5.834817513823509216e-02,3.658502921462059021e-02,3.541420772671699524e-02,-7.718128710985183716e-02,-2.467491663992404938e-02,7.318853586912155151e-02,-4.470836371183395386e-02,-4.114026576280593872e-02
5.539524182677268982e-02,6.719104200601577759e-02,5.733526125550270081e-02,3.475462645292282104e-02,3.784300014376640320e-02,-8.101879060268402100e-02,-2.723444998264312744e-02,7.435659319162368774e-02,-4.334429651498794556e-02,-4.073246940970420837e-02
5.539524182677268982e-02,6.719104200601577759e-02,5.733526125550270081e-02,3.475462645292282104e-02,3.784300014376640320e-02,-8.101879060268402100e-02,-2.723444998264312744e-02,7.435659319162368774e-02,-4.334429651498794556e-02,-4.073246940970420837e-02
5.702893063426017761e-02,7.232023775577545166e-02,5.522442981600761414e-02,3.356536477804183960e-02,3.834223002195358276e-02,-8.337257802486419678e-02,-2.692210488021373749e-02,7.735560089349746704e-02,-4.404162243008613586e-02,-4.132612049579620361e-02
5.702893063426017761e-02,7.232023775577545166e-02,5.522442981600761414e-02,3.356536477804183960e-02,3.834223002195358276e-02,-8.337257802486419678e-02,-2.692210488021373749e-02,7.735560089349746704e-02,-4.404162243008613586e-02,-4.132612049579620361e-02
5.794446542859077454e-02,7.835210859775543213e-02,5.583767965435981750e-02,3.193036466836929321e-02,3.869305551052093506e-02,-8.768275380134582520e-02,-2.900412492454051971e-02,7.872579246759414673e-02,-4.347480461001396179e-02,-4.037747904658317566e-02
5.794446542859077454e-02,7.835210859775543213e-02,5.583767965435981750e-02,3.193036466836929321e-02,3.869305551052093506e-02,-8.768275380134582520e-02,-2.900412492454051971e-02,7.872579246759414673e-02,-4.347480461001396179e-02,-4.037747904658317566e-02
5.978937074542045593e-02,8.111422508955001831e-02,5.589478090405464172e-02,3.023755550384521484e-02,4.032366722822189331e-02,-9.078466147184371948e-02,-3.084032051265239716e-02,7.970780879259109497e-02,-4.281409457325935364e-02,-3.987501934170722961e-02
5.978937074542045593e-02,8.111422508955001831e-02,5.589478090405464172e-02,3.023755550384521484e-02,4.032366722822189331e-02,-9.078466147184371948e-02,-3.084032051265239716e-02,7.970780879259109497e-02,-4.281409457325935364e-02,-3.987501934170722961e-02
6.045905500650405884e-02,8.702363818883895874e-02,5.503303185105323792e-02,2.863555774092674255e-02,3.998306021094322205e-02,-9.355403482913970947e-02,-3.200189769268035889e-02,8.108466118574142456e-02,-4.201601445674896240e-02,-3.890117630362510681e-02
6.045905500650405884e-02,8.702363818883895874e-02,5.503303185105323792e-02,2.863555774092674255e-02,3.998306021094322205e-02,-9.355403482913970947e-02,-3.200189769268035889e-02,8.108466118574142456e-02,-4.201601445674896240e-02,-3.890117630362510681e-02
6.155570596456527710e-02,9.033007174730300903e-02,5.380335450172424316e-02,2.981686778366565704e-02,4.133858159184455872e-02,-9.630104154348373413e-02,-3.496810048818588257e-02,8.292418718338012695e-02,-4.192766174674034119e-02,-3.935725241899490356e-02
6.155570596456527710e-02,9.033007174730300903e-02,5.380335450172424316e-02,2.981686778366565704e-02,4.133858159184455872e-02,-9.630104154348373413e-02,-3.496810048818588257e-02,8.292418718338012695e-02,-4.192766174674034119e-02,-3.935725241899490356e-02
6.240194663405418396e-02,9.458951652050018311e-02,5.371209979057312012e-02,2.814587019383907318e-02,4.049758240580558777e-02,-9.944685548543930054e-02,-3.592586889863014221e-02,8.456382900476455688e-02,-4.071627184748649597e-02,-3.836362063884735107e-02
6.240194663405418396e-02,9.458951652050018311e-02,5.371209979057312012e-02,2.814587019383907318e-02,4.049758240580558777e-02,-9.944685548543930054e-02,-3.592586889863014221e-02,8.456382900476455688e-02,-4.071627184748649597e-02,-3.836362063884735107e-02
6.310082226991653442e-02,9.716782718896865845e-02,5.385405570268630981e-02,2.739443257451057434e-02,4.078520834445953369e-02,-1.019343733787536621e-01,-3.551813587546348572e-02,8.627663552761077881e-02,-4.129051789641380310e-02,-3.829562291502952576e-02
6.310082226991653442e-02,9.716782718896865845e-02,5.385405570268630981e-02,2.739443257451057434e-02,4.078520834445953369e-02,-1.019343733787536621e-01,-3.551813587546348572e-02,8.627663552761077881e-02,-4.129051789641380310e-02,-3.829562291502952576e-02
6.421045958995819092e-02,1.009250208735466003e-01,5.416465178132057190e-02,2.536123618483543396e-02,4.232050478458404541e-02,-1.033061072230339050e-01,-3.841813653707504272e-02,8.609087020158767700e-02,-4.060879722237586975e-02,-3.758721798658370972e-02
6.421045958995819092e-02,1.009250208735466003e-01,5.416465178132057190e-02,2.536123618483543396e-02,4.232050478458404541e-02,-1.033061072230339050e-01,-3.841813653707504272e-02,8.609087020158767700e-02,-4.060879722237586975e-02,-3.758721798658370972e-02
6.599145382642745972e-02,1.014038547873497009e-01,5.314116179943084717e-02,2.421273663640022278e-02,4.111846536397933960e-02,-1.052624508738517761e-01,-3.842617198824882507e-02,8.820553123950958252e-02,-3.907567262649536133e-02,-3.718504309654235840e-02
6.599145382642745972e-02,1.014038547873497009e-01,5.314116179943084717e-02,2.421273663640022278e-02,4.111846536397933960e-02,-1.052624508738517761e-01,-3.842617198824882507e-02,8.820553123950958252e-02,-3.907567262649536133e-02,-3.718504309654235840e-02
6.527688354253768921e-02,1.045239344239234924e-01,5.303281173110008240e-02,2.356798201799392700e-02,4.033325985074043274e-02,-1.070731431245803833e-01,-3.883982449769973755e-02,8.972732722759246826e-02,-3.830535337328910828e-02,-3.699722513556480408e-02
6.527688354253768921e-02,1.045239344239234924e-01,5.303281173110008240e-02,2.356798201799392700e-02,4.033325985074043274e-02,-1.070731431245803833e-01,-3.883982449769973755e-02,8.972732722759246826e-02,-3.830535337328910828e-02,-3.699722513556480408e-02
6.762142479419708252e-02,1.062392592430114746e-01,5.228928849101066589e-02,2.284806966781616211e-02,4.272549226880073547e-02,-1.080972626805305481e-01,-4.016475379467010498e-02,8.971927314996719360e-02,-3.851500526070594788e-02,-3.742139786481857300e-02
6.762142479419708252e-02,1.062392592430114746e-01,5.228928849101066589e-02,2.284806966781616211e-02,4.272549226880073547e-02,-1.080972626805305481e-01,-4.016475379467010498e-02,8.971927314996719360e-02,-3.851500526070594788e-02,-3.742139786481857300e-02
6.820299476385116577e-02,1.091365218162536621e-01,5.278122052550315857e-02,2.231346070766448975e-02,4.207268729805946350e-02,-1.091952472925186157e-01,-4.052626341581344604e-02,8.956453204154968262e-02,-3.934667631983757019e-02,-3.621701151132583618e-02
6.820299476385116577e-02,1.091365218162536621e-01,5.278122052550315857e-02,2.231346070766448975e-02,4.207268729805946350e-02,-1.091952472925186157e-01,-4.052626341581344604e-02,8.956453204154968262e-02,-3.934667631983757019e-02,-3.621701151132583618e-02
6.799960136413574219e-02,1.127524524927139282e-01,5.211539939045906067e-02,2.143267728388309479e-02,4.178897663950920105e-02,-1.118913292884826660e-01,-4.025765880942344666e-02,9.033922106027603149e-02,-3.715870529413223267e-02,-3.633124753832817078e-02
6.799960136413574219e-02,1.127524524927139282e-01,5.211539939045906067e-02,2.143267728388309479e-02,4.178897663950920105e-02,-1.118913292884826660e-01,-4.025765880942344666e-02,9.033922106027603149e-02,-3.715870529413223267e-02,-3.633124753832817078e-02
6.928772479295730591e-02,1.145911216735839844e-01,5.187900364398956299e-02,2.039726264774799347e-02,4.098575934767723083e-02,-1.114996224641799927e-01,-4.074463248252868652e-02,9.180592745542526245e-02,-3.852209821343421936e-02,-3.596589714288711548e-02
6.928772479295730591e-02,1.145911216735839844e-01,5.187900364398956299e-02,2.039726264774799347e-02,4.098575934767723083e-02,-1.114996224641799927e-01,-4.074463248252868652e-02,9.180592745542526245e-02,-3.852209821343421936e-02,-3.596589714288711548e-02
6.898841261863708496e-02,1.171172708272933960e-01,5.416068434715270996e-02,1.919129490852355957e-02,4.095602780580520630e-02,-1.140908598899841309e-01,-4.108599200844764709e-02,9.144381433725357056e-02,-3.891525045037269592e-02,-3.455111384391784668e-02
6.898841261863708496e-02,1.171172708272933960e-01,5.416068434715270996e-02,1.919129490852355957e-02,4.095602780580520630e-02,-1.140908598899841309e-01,-4.108599200844764709e-02,9.144381433725357056e-02,-3.891525045037269592e-02,-3.455111384391784668e-02
7.077259570360183716e-02,1.183635368943214417e-01,5.340591445565223694e-02,1.895489171147346497e-02,4.180780798196792603e-02,-1.164422854781150818e-01,-4.113663733005523682e-02,9.161615371704101562e-02,-3.791154921054840088e-02,-3.466679900884628296e-02
7.077259570360183716e-02,1.183635368943214417e-01,5.340591445565223694e-02,1.895489171147346497e-02,4.180780798196792603e-02,-1.164422854781150818e-01,-4.113663733005523682e-02,9.161615371704101562e-02,-3.791154921054840088e-02,-3.466679900884628296e-02
7.104855030775070190e-02,1.205293685197830200e-01,5.257536843419075012e-02,1.755097508430480957e-02,4.259712621569633484e-02,-1.155285611748695374e-01,-4.286608099937438965e-02,9.160113334655761719e-02,-3.765622898936271667e-02,-3.419371321797370911e-02
7.104855030775070190e-02,1.205293685197830200e-01,5.257536843419075012e-02,1.755097508430480957e-02,4.259712621569633484e-02,-1.155285611748695374e-01,-4.286608099937438965e-02,9.160113334655761719e-02,-3.765622898936271667e-02,-3.419371321797370911e-02
7.087422907352447510e-02,1.232218742370605469e-01,5.224801972508430481e-02,1.783266477286815643e-02,4.204549640417098999e-02,-1.186173558235168457e-01,-4.193179309368133545e-02,9.395305067300796509e-02,-3.815663233399391174e-02,-3.406392410397529602e-02
7.087422907352447510e-02,1.232218742370605469e-01,5.224801972508430481e-02,1.783266477286815643e-02,4.204549640417098999e-02,-1.186173558235168457e-01,-4.193179309368133545e-02,9.395305067300796509e-02,-3.815663233399391174e-02,-3.406392410397529602e-02
7.329593598842620850e-02,1.221701651811599731e-01,5.300275981426239014e-02,1.603722386062145233e-02,4.221820831298828125e-02,-1.190296262502670288e-01,-4.213040322065353394e-02,9.329452365636825562e-02,-3.695473447442054749e-02,-3.402803093194961548e-02
7.329593598842620850e-02,1.221701651811599731e-01,5.300275981426239014e-02,1.603722386062145233e-02,4.221820831298828125e-02,-1.190296262502670288e-01,-4.213040322065353394e-02,9.329452365636825562e-02,-3.695473447442054749e-02,-3.402803093194961548e-02
7.313873618841171265e-02,1.270252913236618042e-01,5.241956934332847595e-02,1.557402685284614563e-02,4.229013994336128235e-02,-1.195390149950981140e-01,-4.343999177217483521e-02,9.374211728572845459e-02,-3.727744519710540771e-02,-3.391628339886665344e-02
7.313873618841171265e-02,1.270252913236618042e-01,5.241956934332847595e-02,1.557402685284614563e-02,4.229013994336128235e-02,-1.195390149950981140e-01,-4.343999177217483521e-02,9.374211728572845459e-02,-3.727744519710540771e-02,-3.391628339886665344e-02
7.439328730106353760e-02,1.283430904150009155e-01,5.272109061479568481e-02,1.472191885113716125e-02,4.169126972556114197e-02,-1.223074868321418762e-01,-4.038948565721511841e-02,9.466534107923507690e-02,-3.737600892782211304e-02,-3.396607935428619385e-02
7.439328730106353760e-02,1.283430904150009155e-01,5.272109061479568481e-02,1.472191885113716125e-02,4.169126972556114197e-02,-1.223074868321418762e-01,-4.038948565721511841e-02,9.466534107923507690e-02,-3.737600892782211304e-02,-3.396607935428619385e-02
7.556442171335220337e-02,1.294002681970596313e-01,5.194089934229850769e-02,1.466572377830743790e-02,4.314227029681205750e-02,-1.233806461095809937e-01,-4.123760014772415161e-02,9.502317756414413452e-02,-3.745894506573677063e-02,-3.413018956780433655e-02
7.556442171335220337e-02,1.294002681970596313e-01,5.194089934229850769e-02,1.466572377830743790e-02,4.314227029681205750e-02,-1.233806461095809937e-01,-4.123760014772415161e-02,9.502317756414413452e-02,-3.745894506573677063e-02,-3.413018956780433655e-02
7.672787457704544067e-02,1.316603720188140869e-01,5.191906914114952087e-02,1.355434767901897430e-02,4.339125007390975952e-02,-1.231740191578865051e-01,-4.232501238584518433e-02,9.556408971548080444e-02,-3.769833967089653015e-02,-3.456275537610054016e-02
7.672787457704544067e-02,1.316603720188140869e-01,5.191906914114952087e-02,1.355434767901897430e-02,4.339125007390975952e-02,-1.231740191578865051e-01,-4.232501238584518433e-02,9.556408971548080444e-02,-3.769833967089653015e-02,-3.456275537610054016e-02
