-4.346811398863792419e-02,7.920675911009311676e-03,-4.137288033962249756e-02,-1.061793565750122070e-01,1.133000999689102173e-01,-1.536957267671823502e-02,1.241405960172414780e-02,1.369712948799133301e-01,9.587151929736137390e-03,7.169379293918609619e-02
-4.346811398863792419e-02,7.920675911009311676e-03,-4.137288033962249756e-02,-1.061793565750122070e-01,1.133000999689102173e-01,-1.536957267671823502e-02,1.241405960172414780e-02,1.369712948799133301e-01,9.587151929736137390e-03,7.169379293918609619e-02
-7.102351635694503784e-02,-8.295697718858718872e-02,-3.754443302750587463e-02,-1.085028573870658875e-01,1.616655439138412476e-01,-3.097320348024368286e-02,2.169161289930343628e-02,2.030568867921829224e-01,2.557479403913021088e-02,5.677523836493492126e-02
-7.102351635694503784e-02,-8.295697718858718872e-02,-3.754443302750587463e-02,-1.085028573870658875e-01,1.616655439138412476e-01,-3.097320348024368286e-02,2.169161289930343628e-02,2.030568867921829224e-01,2.557479403913021088e-02,5.677523836493492126e-02
-1.178995072841644287e-01,-1.485918015241622925e-01,-4.931393638253211975e-02,-9.090895950794219971e-02,2.007413059473037720e-01,-4.148586839437484741e-02,2.551180683076381683e-02,2.412946075201034546e-01,6.372278183698654175e-02,4.408210143446922302e-02
-1.178995072841644287e-01,-1.485918015241622925e-01,-4.931393638253211975e-02,-9.090895950794219971e-02,2.007413059473037720e-01,-4.148586839437484741e-02,2.551180683076381683e-02,2.412946075201034546e-01,6.372278183698654175e-02,4.408210143446922302e-02
-1.369948089122772217e-01,-2.183762788772583008e-01,-4.697190225124359131e-02,-6.378906220197677612e-02,2.505465447902679443e-01,-7.107368111610412598e-02,2.412434481084346771e-02,2.732316851615905762e-01,7.976949214935302734e-02,3.484034910798072815e-02
-1.369948089122772217e-01,-2.183762788772583008e-01,-4.697190225124359131e-02,-6.378906220197677612e-02,2.505465447902679443e-01,-7.107368111610412598e-02,2.412434481084346771e-02,2.732316851615905762e-01,7.976949214935302734e-02,3.484034910798072815e-02
-1.592381745576858521e-01,-2.734529376029968262e-01,-5.781112983822822571e-02,-2.976779453456401825e-02,2.796779572963714600e-01,-8.730123937129974365e-02,3.073194809257984161e-02,3.127560615539550781e-01,1.161166206002235413e-01,-1.554173231124877930e-02
-1.592381745576858521e-01,-2.734529376029968262e-01,-5.781112983822822571e-02,-2.976779453456401825e-02,2.796779572963714600e-01,-8.730123937129974365e-02,3.073194809257984161e-02,3.127560615539550781e-01,1.161166206002235413e-01,-1.554173231124877930e-02
-1.903352141380310059e-01,-3.200927376747131348e-01,-5.763137340545654297e-02,-1.177581143565475941e-03,2.993243336677551270e-01,-9.393823146820068359e-02,1.825615018606185913e-02,3.494201302528381348e-01,1.498132646083831787e-01,-5.130567774176597595e-02
-1.903352141380310059e-01,-3.200927376747131348e-01,-5.763137340545654297e-02,-1.177581143565475941e-03,2.993243336677551270e-01,-9.393823146820068359e-02,1.825615018606185913e-02,3.494201302528381348e-01,1.498132646083831787e-01,-5.130567774176597595e-02
-2.153397351503372192e-01,-3.484682738780975342e-01,-5.520479753613471985e-02,2.929584495723247528e-02,3.219743371009826660e-01,-1.116996780037879944e-01,-1.935644424520432949e-03,3.722513914108276367e-01,1.814670115709304810e-01,-8.286432921886444092e-02
-2.153397351503372192e-01,-3.484682738780975342e-01,-5.520479753613471985e-02,2.929584495723247528e-02,3.219743371009826660e-01,-1.116996780037879944e-01,-1.935644424520432949e-03,3.722513914108276367e-01,1.814670115709304810e-01,-8.286432921886444092e-02
-2.277556359767913818e-01,-3.782139420509338379e-01,-6.854966282844543457e-02,4.250128939747810364e-02,3.377003073692321777e-01,-1.151120886206626892e-01,-2.332283183932304382e-02,3.976267576217651367e-01,2.062600702047348022e-01,-9.067181497812271118e-02
-2.277556359767913818e-01,-3.782139420509338379e-01,-6.854966282844543457e-02,4.250128939747810364e-02,3.377003073692321777e-01,-1.151120886206626892e-01,-2.332283183932304382e-02,3.976267576217651367e-01,2.062600702047348022e-01,-9.067181497812271118e-02
-2.422205358743667603e-01,-4.087014794349670410e-01,-6.466156989336013794e-02,7.248344272375106812e-02,3.498841226100921631e-01,-1.265811324119567871e-01,-3.805123642086982727e-02,4.129745662212371826e-01,2.245090454816818237e-01,-1.095105856657028198e-01
-2.422205358743667603e-01,-4.087014794349670410e-01,-6.466156989336013794e-02,7.248344272375106812e-02,3.498841226100921631e-01,-1.265811324119567871e-01,-3.805123642086982727e-02,4.129745662212371826e-01,2.245090454816818237e-01,-1.095105856657028198e-01
-2.574274539947509766e-01,-4.373183548450469971e-01,-7.560990750789642334e-02,8.707937598228454590e-02,3.590670228004455566e-01,-1.231912970542907715e-01,-5.717011168599128723e-02,4.327648878097534180e-01,2.461397945880889893e-01,-1.144348233938217163e-01
-2.574274539947509766e-01,-4.373183548450469971e-01,-7.560990750789642334e-02,8.707937598228454590e-02,3.590670228004455566e-01,-1.231912970542907715e-01,-5.717011168599128723e-02,4.327648878097534180e-01,2.461397945880889893e-01,-1.144348233938217163e-01
-2.855176329612731934e-01,-4.558930695056915283e-01,-9.193784743547439575e-02,9.968298673629760742e-02,3.833782672882080078e-01,-1.325015574693679810e-01,-6.137526407837867737e-02,4.536342322826385498e-01,2.567112445831298828e-01,-1.171712800860404968e-01
-2.855176329612731934e-01,-4.558930695056915283e-01,-9.193784743547439575e-02,9.968298673629760742e-02,3.833782672882080078e-01,-1.325015574693679810e-01,-6.137526407837867737e-02,4.536342322826385498e-01,2.567112445831298828e-01,-1.171712800860404968e-01
-2.952524423599243164e-01,-4.844186305999755859e-01,-9.869017452001571655e-02,1.097787693142890930e-01,4.030189812183380127e-01,-1.322156190872192383e-01,-6.770816445350646973e-02,4.620923995971679688e-01,2.721587121486663818e-01,-1.280387938022613525e-01
-2.952524423599243164e-01,-4.844186305999755859e-01,-9.869017452001571655e-02,1.097787693142890930e-01,4.030189812183380127e-01,-1.322156190872192383e-01,-6.770816445350646973e-02,4.620923995971679688e-01,2.721587121486663818e-01,-1.280387938022613525e-01
-3.222687244415283203e-01,-4.987255930900573730e-01,-9.651152789592742920e-02,1.243269145488739014e-01,4.018336832523345947e-01,-1.196848452091217041e-01,-6.750563532114028931e-02,4.668554365634918213e-01,2.944863438606262207e-01,-1.548337489366531372e-01
-3.222687244415283203e-01,-4.987255930900573730e-01,-9.651152789592742920e-02,1.243269145488739014e-01,4.018336832523345947e-01,-1.196848452091217041e-01,-6.750563532114028931e-02,4.668554365634918213e-01,2.944863438606262207e-01,-1.548337489366531372e-01
-3.398263156414031982e-01,-5.147554278373718262e-01,-1.003567129373550415e-01,1.335838437080383301e-01,4.053905904293060303e-01,-1.108940318226814270e-01,-6.958401948213577271e-02,4.765280783176422119e-01,3.131950795650482178e-01,-1.754757016897201538e-01
-3.398263156414031982e-01,-5.147554278373718262e-01,-1.003567129373550415e-01,1.335838437080383301e-01,4.053905904293060303e-01,-1.108940318226814270e-01,-6.958401948213577271e-02,4.765280783176422119e-01,3.131950795650482178e-01,-1.754757016897201538e-01
-3.465293347835540771e-01,-5.383697152137756348e-01,-1.081109941005706787e-01,1.308577358722686768e-01,4.257253706455230713e-01,-1.047882512211799622e-01,-6.914902478456497192e-02,4.810405969619750977e-01,3.257057964801788330e-01,-1.843772977590560913e-01
-3.465293347835540771e-01,-5.383697152137756348e-01,-1.081109941005706787e-01,1.308577358722686768e-01,4.257253706455230713e-01,-1.047882512211799622e-01,-6.914902478456497192e-02,4.810405969619750977e-01,3.257057964801788330e-01,-1.843772977590560913e-01
-3.818041086196899414e-01,-5.613455176353454590e-01,-1.113752722740173340e-01,1.357948631048202515e-01,4.391458332538604736e-01,-1.016307920217514038e-01,-9.074380993843078613e-02,5.167975425720214844e-01,3.346795439720153809e-01,-1.825065761804580688e-01
-3.818041086196899414e-01,-5.613455176353454590e-01,-1.113752722740173340e-01,1.357948631048202515e-01,4.391458332538604736e-01,-1.016307920217514038e-01,-9.074380993843078613e-02,5.167975425720214844e-01,3.346795439720153809e-01,-1.825065761804580688e-01
-4.019395709037780762e-01,-5.854151844978332520e-01,-1.196059510111808777e-01,1.494281440973281860e-01,4.406956434249877930e-01,-9.389045834541320801e-02,-1.023040562868118286e-01,5.361577868461608887e-01,3.424020707607269287e-01,-1.802589446306228638e-01
-4.019395709037780762e-01,-5.854151844978332520e-01,-1.196059510111808777e-01,1.494281440973281860e-01,4.406956434249877930e-01,-9.389045834541320801e-02,-1.023040562868118286e-01,5.361577868461608887e-01,3.424020707607269287e-01,-1.802589446306228638e-01
-4.127279818058013916e-01,-6.092332601547241211e-01,-1.127478405833244324e-01,1.625349819660186768e-01,4.354253113269805908e-01,-6.865521520376205444e-02,-1.123387217521667480e-01,5.267171859741210938e-01,3.534684479236602783e-01,-1.889664530754089355e-01
-4.127279818058013916e-01,-6.092332601547241211e-01,-1.127478405833244324e-01,1.625349819660186768e-01,4.354253113269805908e-01,-6.865521520376205444e-02,-1.123387217521667480e-01,5.267171859741210938e-01,3.534684479236602783e-01,-1.889664530754089355e-01
-4.188246130943298340e-01,-6.136918067932128906e-01,-1.185927391052246094e-01,1.698594540357589722e-01,4.288274049758911133e-01,-6.094656512141227722e-02,-1.248206123709678650e-01,5.405389666557312012e-01,3.680910170078277588e-01,-2.031080424785614014e-01
-4.188246130943298340e-01,-6.136918067932128906e-01,-1.185927391052246094e-01,1.698594540357589722e-01,4.288274049758911133e-01,-6.094656512141227722e-02,-1.248206123709678650e-01,5.405389666557312012e-01,3.680910170078277588e-01,-2.031080424785614014e-01
-4.345010817050933838e-01,-6.191533803939819336e-01,-1.209199577569961548e-01,1.707181334495544434e-01,4.370120465755462646e-01,-4.733541980385780334e-02,-1.481124907732009888e-01,5.543215870857238770e-01,3.788815438747406006e-01,-2.112755179405212402e-01
-4.345010817050933838e-01,-6.191533803939819336e-01,-1.209199577569961548e-01,1.707181334495544434e-01,4.370120465755462646e-01,-4.733541980385780334e-02,-1.481124907732009888e-01,5.543215870857238770e-01,3.788815438747406006e-01,-2.112755179405212402e-01
-4.287530183792114258e-01,-6.329716444015502930e-01,-1.282348185777664185e-01,1.756822466850280762e-01,4.364743828773498535e-01,-2.974533289670944214e-02,-1.662597209215164185e-01,5.576817989349365234e-01,4.004210829734802246e-01,-2.303599864244461060e-01
-4.287530183792114258e-01,-6.329716444015502930e-01,-1.282348185777664185e-01,1.756822466850280762e-01,4.364743828773498535e-01,-2.974533289670944214e-02,-1.662597209215164185e-01,5.576817989349365234e-01,4.004210829734802246e-01,-2.303599864244461060e-01
-4.301694631576538086e-01,-6.435676217079162598e-01,-1.348378211259841919e-01,1.788860857486724854e-01,4.311107099056243896e-01,-2.600700408220291138e-02,-1.800144314765930176e-01,5.665580034255981445e-01,4.210673868656158447e-01,-2.344276607036590576e-01
-4.301694631576538086e-01,-6.435676217079162598e-01,-1.348378211259841919e-01,1.788860857486724854e-01,4.311107099056243896e-01,-2.600700408220291138e-02,-1.800144314765930176e-01,5.665580034255981445e-01,4.210673868656158447e-01,-2.344276607036590576e-01
-4.287401437759399414e-01,-6.531796455383300781e-01,-1.426751464605331421e-01,1.912004649639129639e-01,4.398989379405975342e-01,-3.144535049796104431e-02,-1.891555488109588623e-01,5.629718303680419922e-01,4.354625344276428223e-01,-2.389945089817047119e-01
-4.287401437759399414e-01,-6.531796455383300781e-01,-1.426751464605331421e-01,1.912004649639129639e-01,4.398989379405975342e-01,-3.144535049796104431e-02,-1.891555488109588623e-01,5.629718303680419922e-01,4.354625344276428223e-01,-2.389945089817047119e-01
-4.330544173717498779e-01,-6.730669140815734863e-01,-1.530189216136932373e-01,1.925076693296432495e-01,4.540035426616668701e-01,-2.404642663896083832e-02,-2.098111212253570557e-01,5.740652680397033691e-01,4.349039494991302490e-01,-2.240245789289474487e-01
-4.330544173717498779e-01,-6.730669140815734863e-01,-1.530189216136932373e-01,1.925076693296432495e-01,4.540035426616668701e-01,-2.404642663896083832e-02,-2.098111212253570557e-01,5.740652680397033691e-01,4.349039494991302490e-01,-2.240245789289474487e-01
-4.399838447570800781e-01,-6.735109090805053711e-01,-1.545711159706115723e-01,1.882448196411132812e-01,4.674081802368164062e-01,-1.115252450108528137e-02,-2.207970321178436279e-01,5.604122281074523926e-01,4.464853703975677490e-01,-2.265688329935073853e-01
-4.399838447570800781e-01,-6.735109090805053711e-01,-1.545711159706115723e-01,1.882448196411132812e-01,4.674081802368164062e-01,-1.115252450108528137e-02,-2.207970321178436279e-01,5.604122281074523926e-01,4.464853703975677490e-01,-2.265688329935073853e-01
-4.378545582294464111e-01,-6.949578523635864258e-01,-1.542877256870269775e-01,1.855935007333755493e-01,4.571723043918609619e-01,6.650347728282213211e-03,-2.338461577892303467e-01,5.707474350929260254e-01,4.643312692642211914e-01,-2.359534949064254761e-01
-4.378545582294464111e-01,-6.949578523635864258e-01,-1.542877256870269775e-01,1.855935007333755493e-01,4.571723043918609619e-01,6.650347728282213211e-03,-2.338461577892303467e-01,5.707474350929260254e-01,4.643312692642211914e-01,-2.359534949064254761e-01
-4.424436986446380615e-01,-7.034193277359008789e-01,-1.602842509746551514e-01,1.822387427091598511e-01,4.473288953304290771e-01,1.520816516131162643e-02,-2.330243587493896484e-01,5.770970582962036133e-01,4.825668036937713623e-01,-2.427579611539840698e-01
-4.424436986446380615e-01,-7.034193277359008789e-01,-1.602842509746551514e-01,1.822387427091598511e-01,4.473288953304290771e-01,1.520816516131162643e-02,-2.330243587493896484e-01,5.770970582962036133e-01,4.825668036937713623e-01,-2.427579611539840698e-01
-4.371822178363800049e-01,-7.133834362030029297e-01,-1.570345908403396606e-01,1.803286671638488770e-01,4.389012157917022705e-01,1.907762698829174042e-02,-2.348135411739349365e-01,5.775121450424194336e-01,4.946042299270629883e-01,-2.488668709993362427e-01
-4.371822178363800049e-01,-7.133834362030029297e-01,-1.570345908403396606e-01,1.803286671638488770e-01,4.389012157917022705e-01,1.907762698829174042e-02,-2.348135411739349365e-01,5.775121450424194336e-01,4.946042299270629883e-01,-2.488668709993362427e-01
-4.331836104393005371e-01,-7.240809798240661621e-01,-1.543884575366973877e-01,1.827999800443649292e-01,4.296619594097137451e-01,3.040367551147937775e-02,-2.435196787118911743e-01,5.763472914695739746e-01,5.055834650993347168e-01,-2.559153139591217041e-01
-4.331836104393005371e-01,-7.240809798240661621e-01,-1.543884575366973877e-01,1.827999800443649292e-01,4.296619594097137451e-01,3.040367551147937775e-02,-2.435196787118911743e-01,5.763472914695739746e-01,5.055834650993347168e-01,-2.559153139591217041e-01
-4.344514906406402588e-01,-7.382006049156188965e-01,-1.562523245811462402e-01,1.857655048370361328e-01,4.317046105861663818e-01,3.678737580776214600e-02,-2.450094372034072876e-01,5.732777714729309082e-01,5.121284127235412598e-01,-2.576783299446105957e-01
-4.344514906406402588e-01,-7.382006049156188965e-01,-1.562523245811462402e-01,1.857655048370361328e-01,4.317046105861663818e-01,3.678737580776214600e-02,-2.450094372034072876e-01,5.732777714729309082e-01,5.121284127235412598e-01,-2.576783299446105957e-01
