-1.149078086018562317e-02,-5.440328642725944519e-02,-2.060362137854099274e-02,2.009294554591178894e-02,3.850235790014266968e-02,-3.963490203022956848e-02,-1.752671226859092712e-02,-4.419498145580291748e-02,3.653243929147720337e-02,-3.101411275565624237e-03
-1.149078086018562317e-02,-5.440328642725944519e-02,-2.060362137854099274e-02,2.009294554591178894e-02,3.850235790014266968e-02,-3.963490203022956848e-02,-1.752671226859092712e-02,-4.419498145580291748e-02,3.653243929147720337e-02,-3.101411275565624237e-03
-1.553918607532978058e-02,-4.901121929287910461e-02,-1.699038967490196228e-02,1.485877204686403275e-02,4.724103584885597229e-02,-5.318306386470794678e-02,-2.294521220028400421e-02,-3.408923745155334473e-02,3.781840577721595764e-02,-4.099965561181306839e-03
-1.553918607532978058e-02,-4.901121929287910461e-02,-1.699038967490196228e-02,1.485877204686403275e-02,4.724103584885597229e-02,-5.318306386470794678e-02,-2.294521220028400421e-02,-3.408923745155334473e-02,3.781840577721595764e-02,-4.099965561181306839e-03
-1.411996874958276749e-02,-3.945052996277809143e-02,-1.541275624185800552e-02,1.551395282149314880e-02,4.958045482635498047e-02,-6.194665282964706421e-02,-2.894228883087635040e-02,-3.260469436645507812e-02,3.822155296802520752e-02,-3.925134427845478058e-03
-1.411996874958276749e-02,-3.945052996277809143e-02,-1.541275624185800552e-02,1.551395282149314880e-02,4.958045482635498047e-02,-6.194665282964706421e-02,-2.894228883087635040e-02,-3.260469436645507812e-02,3.822155296802520752e-02,-3.925134427845478058e-03
-1.320868544280529022e-02,-3.179367631673812866e-02,-1.589464396238327026e-02,1.605004630982875824e-02,5.350647494196891785e-02,-6.867054104804992676e-02,-3.237286210060119629e-02,-3.218834847211837769e-02,3.898179158568382263e-02,-4.460931289941072464e-03
-1.320868544280529022e-02,-3.179367631673812866e-02,-1.589464396238327026e-02,1.605004630982875824e-02,5.350647494196891785e-02,-6.867054104804992676e-02,-3.237286210060119629e-02,-3.218834847211837769e-02,3.898179158568382263e-02,-4.460931289941072464e-03
-1.285795588046312332e-02,-2.334320545196533203e-02,-1.747155934572219849e-02,1.598402112722396851e-02,5.566002056002616882e-02,-7.448868453502655029e-02,-3.473065048456192017e-02,-3.112607449293136597e-02,4.092710092663764954e-02,-5.072962958365678787e-03
-1.285795588046312332e-02,-2.334320545196533203e-02,-1.747155934572219849e-02,1.598402112722396851e-02,5.566002056002616882e-02,-7.448868453502655029e-02,-3.473065048456192017e-02,-3.112607449293136597e-02,4.092710092663764954e-02,-5.072962958365678787e-03
-1.061137951910495758e-02,-1.656094007194042206e-02,-1.821213215589523315e-02,1.498557161539793015e-02,5.731540545821189880e-02,-8.005281537771224976e-02,-3.644824400544166565e-02,-3.065887838602066040e-02,4.237726703286170959e-02,-4.825932905077934265e-03
-1.061137951910495758e-02,-1.656094007194042206e-02,-1.821213215589523315e-02,1.498557161539793015e-02,5.731540545821189880e-02,-8.005281537771224976e-02,-3.644824400544166565e-02,-3.065887838602066040e-02,4.237726703286170959e-02,-4.825932905077934265e-03
-1.025989279150962830e-02,-1.036429684609174728e-02,-1.981799118220806122e-02,1.413747761398553848e-02,5.896769836544990540e-02,-8.372727781534194946e-02,-3.775904700160026550e-02,-3.010530397295951843e-02,4.361468181014060974e-02,-4.466785117983818054e-03
-1.025989279150962830e-02,-1.036429684609174728e-02,-1.981799118220806122e-02,1.413747761398553848e-02,5.896769836544990540e-02,-8.372727781534194946e-02,-3.775904700160026550e-02,-3.010530397295951843e-02,4.361468181014060974e-02,-4.466785117983818054e-03
-8.111882954835891724e-03,-5.987374112010002136e-03,-2.376497536897659302e-02,1.341605000197887421e-02,5.965865403413772583e-02,-8.596210181713104248e-02,-3.667093813419342041e-02,-2.828055806457996368e-02,4.443348944187164307e-02,-4.790051374584436417e-03
-8.111882954835891724e-03,-5.987374112010002136e-03,-2.376497536897659302e-02,1.341605000197887421e-02,5.965865403413772583e-02,-8.596210181713104248e-02,-3.667093813419342041e-02,-2.828055806457996368e-02,4.443348944187164307e-02,-4.790051374584436417e-03
-6.691964808851480484e-03,-9.692701278254389763e-04,-2.399759925901889801e-02,1.267852075397968292e-02,5.941631644964218140e-02,-8.947374671697616577e-02,-3.892353922128677368e-02,-2.731518074870109558e-02,4.615227878093719482e-02,-4.529309924691915512e-03
-6.691964808851480484e-03,-9.692701278254389763e-04,-2.399759925901889801e-02,1.267852075397968292e-02,5.941631644964218140e-02,-8.947374671697616577e-02,-3.892353922128677368e-02,-2.731518074870109558e-02,4.615227878093719482e-02,-4.529309924691915512e-03
-5.752264987677335739e-03,3.594962181523442268e-03,-2.459025010466575623e-02,1.195388194173574448e-02,5.903554707765579224e-02,-9.150517731904983521e-02,-3.948706388473510742e-02,-2.510957047343254089e-02,4.549424722790718079e-02,-4.439905285835266113e-03
-5.752264987677335739e-03,3.594962181523442268e-03,-2.459025010466575623e-02,1.195388194173574448e-02,5.903554707765579224e-02,-9.150517731904983521e-02,-3.948706388473510742e-02,-2.510957047343254089e-02,4.549424722790718079e-02,-4.439905285835266113e-03
-5.467802286148071289e-03,8.938629180192947388e-03,-2.687664330005645752e-02,1.155083067715167999e-02,5.862100794911384583e-02,-9.063499420881271362e-02,-4.079263284802436829e-02,-2.460292354226112366e-02,4.483829811215400696e-02,-3.954327665269374847e-03
-5.467802286148071289e-03,8.938629180192947388e-03,-2.687664330005645752e-02,1.155083067715167999e-02,5.862100794911384583e-02,-9.063499420881271362e-02,-4.079263284802436829e-02,-2.460292354226112366e-02,4.483829811215400696e-02,-3.954327665269374847e-03
-4.999456927180290222e-03,1.261358149349689484e-02,-2.840928919613361359e-02,1.290051732212305069e-02,5.895267054438591003e-02,-9.077084809541702271e-02,-4.125970229506492615e-02,-2.370926924049854279e-02,4.278221353888511658e-02,-4.324147012084722519e-03
-4.999456927180290222e-03,1.261358149349689484e-02,-2.840928919613361359e-02,1.290051732212305069e-02,5.895267054438591003e-02,-9.077084809541702271e-02,-4.125970229506492615e-02,-2.370926924049854279e-02,4.278221353888511658e-02,-4.324147012084722519e-03
-4.979810211807489395e-03,1.551683060824871063e-02,-2.868621237576007843e-02,1.186565123498439789e-02,5.731351301074028015e-02,-9.035474061965942383e-02,-4.174750298261642456e-02,-2.043000422418117523e-02,4.317063465714454651e-02,-6.522177252918481827e-03
-4.979810211807489395e-03,1.551683060824871063e-02,-2.868621237576007843e-02,1.186565123498439789e-02,5.731351301074028015e-02,-9.035474061965942383e-02,-4.174750298261642456e-02,-2.043000422418117523e-02,4.317063465714454651e-02,-6.522177252918481827e-03
-4.716381896287202835e-03,1.532563287764787674e-02,-2.839552238583564758e-02,1.350056845694780350e-02,5.722341313958168030e-02,-9.025575220584869385e-02,-4.006966575980186462e-02,-1.954136043787002563e-02,3.796398267149925232e-02,-5.062789190560579300e-03
-4.716381896287202835e-03,1.532563287764787674e-02,-2.839552238583564758e-02,1.350056845694780350e-02,5.722341313958168030e-02,-9.025575220584869385e-02,-4.006966575980186462e-02,-1.954136043787002563e-02,3.796398267149925232e-02,-5.062789190560579300e-03
-2.840385073795914650e-03,1.730998419225215912e-02,-2.966005355119705200e-02,1.375346351414918900e-02,5.776335671544075012e-02,-9.045943617820739746e-02,-4.262130707502365112e-02,-1.858691684901714325e-02,3.699507936835289001e-02,-4.601072985678911209e-03
-2.840385073795914650e-03,1.730998419225215912e-02,-2.966005355119705200e-02,1.375346351414918900e-02,5.776335671544075012e-02,-9.045943617820739746e-02,-4.262130707502365112e-02,-1.858691684901714325e-02,3.699507936835289001e-02,-4.601072985678911209e-03
-3.323649521917104721e-03,1.894289068877696991e-02,-2.930374257266521454e-02,1.289820298552513123e-02,5.611334741115570068e-02,-9.015760570764541626e-02,-4.329095035791397095e-02,-1.688420586287975311e-02,3.623852133750915527e-02,-3.996236715465784073e-03
-3.323649521917104721e-03,1.894289068877696991e-02,-2.930374257266521454e-02,1.289820298552513123e-02,5.611334741115570068e-02,-9.015760570764541626e-02,-4.329095035791397095e-02,-1.688420586287975311e-02,3.623852133750915527e-02,-3.996236715465784073e-03
-2.137693110853433609e-03,1.984675601124763489e-02,-2.983109466731548309e-02,1.268519368022680283e-02,5.460497364401817322e-02,-8.990012854337692261e-02,-4.186787456274032593e-02,-1.470725517719984055e-02,3.469832986593246460e-02,-4.661601502448320389e-03
-2.137693110853433609e-03,1.984675601124763489e-02,-2.983109466731548309e-02,1.268519368022680283e-02,5.460497364401817322e-02,-8.990012854337692261e-02,-4.186787456274032593e-02,-1.470725517719984055e-02,3.469832986593246460e-02,-4.661601502448320389e-03
-2.141623059287667274e-03,2.357910387217998505e-02,-3.076192177832126617e-02,1.321836002171039581e-02,5.587731674313545227e-02,-8.797622472047805786e-02,-4.307227954268455505e-02,-1.515951100736856461e-02,3.161942958831787109e-02,-4.494431428611278534e-03
-2.141623059287667274e-03,2.357910387217998505e-02,-3.076192177832126617e-02,1.321836002171039581e-02,5.587731674313545227e-02,-8.797622472047805786e-02,-4.307227954268455505e-02,-1.515951100736856461e-02,3.161942958831787109e-02,-4.494431428611278534e-03
-1.850230270065367222e-03,2.222958207130432129e-02,-2.940559387207031250e-02,1.343116629868745804e-02,5.595458671450614929e-02,-8.876387029886245728e-02,-4.568986967206001282e-02,-1.393055357038974762e-02,2.919888682663440704e-02,-2.311269054189324379e-03
-1.850230270065367222e-03,2.222958207130432129e-02,-2.940559387207031250e-02,1.343116629868745804e-02,5.595458671450614929e-02,-8.876387029886245728e-02,-4.568986967206001282e-02,-1.393055357038974762e-02,2.919888682663440704e-02,-2.311269054189324379e-03
-6.919085513800382614e-03,2.429330348968505859e-02,-2.863096259534358978e-02,1.280926819890737534e-02,5.451154336333274841e-02,-8.987077325582504272e-02,-4.423259943723678589e-02,-9.797204285860061646e-03,2.995239011943340302e-02,-3.622449468821287155e-03
-6.919085513800382614e-03,2.429330348968505859e-02,-2.863096259534358978e-02,1.280926819890737534e-02,5.451154336333274841e-02,-8.987077325582504272e-02,-4.423259943723678589e-02,-9.797204285860061646e-03,2.995239011943340302e-02,-3.622449468821287155e-03
-5.053087137639522552e-03,2.510094083845615387e-02,-2.906437218189239502e-02,1.424274034798145294e-02,5.212589353322982788e-02,-8.719195425510406494e-02,-4.556958749890327454e-02,-9.712049737572669983e-03,2.646786160767078400e-02,-2.802847186103463173e-03
-5.053087137639522552e-03,2.510094083845615387e-02,-2.906437218189239502e-02,1.424274034798145294e-02,5.212589353322982788e-02,-8.719195425510406494e-02,-4.556958749890327454e-02,-9.712049737572669983e-03,2.646786160767078400e-02,-2.802847186103463173e-03
-2.782285213470458984e-03,2.718881331384181976e-02,-2.890414558351039886e-02,1.266682427376508713e-02,5.170925334095954895e-02,-8.633854985237121582e-02,-4.840229824185371399e-02,-6.766604725271463394e-03,2.502184174954891205e-02,-3.621590789407491684e-03
-2.782285213470458984e-03,2.718881331384181976e-02,-2.890414558351039886e-02,1.266682427376508713e-02,5.170925334095954895e-02,-8.633854985237121582e-02,-4.840229824185371399e-02,-6.766604725271463394e-03,2.502184174954891205e-02,-3.621590789407491684e-03
-3.015154739841818810e-03,2.533898130059242249e-02,-3.048611246049404144e-02,1.270619127899408340e-02,5.088606476783752441e-02,-8.496537059545516968e-02,-4.806551337242126465e-02,-5.738103762269020081e-03,2.367173135280609131e-02,-1.704553258605301380e-03
-3.015154739841818810e-03,2.533898130059242249e-02,-3.048611246049404144e-02,1.270619127899408340e-02,5.088606476783752441e-02,-8.496537059545516968e-02,-4.806551337242126465e-02,-5.738103762269020081e-03,2.367173135280609131e-02,-1.704553258605301380e-03
-3.011377528309822083e-03,2.924481406807899475e-02,-3.660217672586441040e-02,1.472563669085502625e-02,5.418728291988372803e-02,-8.622279763221740723e-02,-4.786320030689239502e-02,-2.609839197248220444e-03,2.488502860069274902e-02,-4.525086842477321625e-03
-3.011377528309822083e-03,2.924481406807899475e-02,-3.660217672586441040e-02,1.472563669085502625e-02,5.418728291988372803e-02,-8.622279763221740723e-02,-4.786320030689239502e-02,-2.609839197248220444e-03,2.488502860069274902e-02,-4.525086842477321625e-03
-2.511239377781748772e-03,3.398166969418525696e-02,-3.402895480394363403e-02,1.397295016795396805e-02,4.914959520101547241e-02,-8.790323138236999512e-02,-5.049420148134231567e-02,2.993444912135601044e-03,2.032963931560516357e-02,-3.122515743598341942e-03
-2.511239377781748772e-03,3.398166969418525696e-02,-3.402895480394363403e-02,1.397295016795396805e-02,4.914959520101547241e-02,-8.790323138236999512e-02,-5.049420148134231567e-02,2.993444912135601044e-03,2.032963931560516357e-02,-3.122515743598341942e-03
4.227929366606986150e-06,3.412786871194839478e-02,-3.193538635969161987e-02,1.232071314007043839e-02,4.586681351065635681e-02,-8.727153390645980835e-02,-5.328558385372161865e-02,4.577274899929761887e-03,1.758656650781631470e-02,-6.608410621993243694e-04
4.227929366606986150e-06,3.412786871194839478e-02,-3.193538635969161987e-02,1.232071314007043839e-02,4.586681351065635681e-02,-8.727153390645980835e-02,-5.328558385372161865e-02,4.577274899929761887e-03,1.758656650781631470e-02,-6.608410621993243694e-04
-3.211572475265711546e-04,3.865891695022583008e-02,-3.931078687310218811e-02,1.342368219047784805e-02,4.864042997360229492e-02,-8.622153848409652710e-02,-5.556161329150199890e-02,9.778959676623344421e-03,1.849391870200634003e-02,-3.501930972561240196e-03
-3.211572475265711546e-04,3.865891695022583008e-02,-3.931078687310218811e-02,1.342368219047784805e-02,4.864042997360229492e-02,-8.622153848409652710e-02,-5.556161329150199890e-02,9.778959676623344421e-03,1.849391870200634003e-02,-3.501930972561240196e-03
4.228553734719753265e-03,4.440561681985855103e-02,-4.124633222818374634e-02,1.003393903374671936e-02,4.139099270105361938e-02,-8.540255576372146606e-02,-5.701288580894470215e-02,1.131206098943948746e-02,1.889006979763507843e-02,1.787833607522770762e-04
4.228553734719753265e-03,4.440561681985855103e-02,-4.124633222818374634e-02,1.003393903374671936e-02,4.139099270105361938e-02,-8.540255576372146606e-02,-5.701288580894470215e-02,1.131206098943948746e-02,1.889006979763507843e-02,1.787833607522770762e-04
4.085773543920367956e-04,3.356430307030677795e-02,-4.055869206786155701e-02,1.747360453009605408e-02,3.251407667994499207e-02,-7.519059628248214722e-02,-7.053115218877792358e-02,2.908072061836719513e-02,1.291953306645154953e-02,-7.600852288305759430e-03
4.085773543920367956e-04,3.356430307030677795e-02,-4.055869206786155701e-02,1.747360453009605408e-02,3.251407667994499207e-02,-7.519059628248214722e-02,-7.053115218877792358e-02,2.908072061836719513e-02,1.291953306645154953e-02,-7.600852288305759430e-03
-8.666584268212318420e-03,1.411092840135097504e-02,-1.811023242771625519e-02,2.568472735583782196e-02,2.138000540435314178e-02,-6.016185507178306580e-02,-1.072986647486686707e-01,1.878514140844345093e-02,1.461014151573181152e-02,-1.632246421650052071e-03
-8.666584268212318420e-03,1.411092840135097504e-02,-1.811023242771625519e-02,2.568472735583782196e-02,2.138000540435314178e-02,-6.016185507178306580e-02,-1.072986647486686707e-01,1.878514140844345093e-02,1.461014151573181152e-02,-1.632246421650052071e-03
