-6.924004852771759033e-02,-5.956999212503433228e-02,-4.097580164670944214e-02,-8.258018642663955688e-02,3.341059759259223938e-02,-6.964867562055587769e-02,-4.860144108533859253e-02,1.104757413268089294e-01,-8.810833096504211426e-02,5.664431676268577576e-02
-6.924004852771759033e-02,-5.956999212503433228e-02,-4.097580164670944214e-02,-8.258018642663955688e-02,3.341059759259223938e-02,-6.964867562055587769e-02,-4.860144108533859253e-02,1.104757413268089294e-01,-8.810833096504211426e-02,5.664431676268577576e-02
-1.260018050670623779e-01,-1.082485616207122803e-01,-3.236425668001174927e-02,-7.144609838724136353e-02,9.682545065879821777e-02,-7.448414713144302368e-02,-3.413511812686920166e-02,1.312252134084701538e-01,-5.697868019342422485e-02,-6.966916378587484360e-03
-1.260018050670623779e-01,-1.082485616207122803e-01,-3.236425668001174927e-02,-7.144609838724136353e-02,9.682545065879821777e-02,-7.448414713144302368e-02,-3.413511812686920166e-02,1.312252134084701538e-01,-5.697868019342422485e-02,-6.966916378587484360e-03
-1.566164344549179077e-01,-1.574020385742187500e-01,-2.495515346527099609e-02,-4.515861347317695618e-02,1.454540342092514038e-01,-7.860903441905975342e-02,-3.258639946579933167e-02,1.285940706729888916e-01,-1.825558021664619446e-02,-5.842664465308189392e-02
-1.566164344549179077e-01,-1.574020385742187500e-01,-2.495515346527099609e-02,-4.515861347317695618e-02,1.454540342092514038e-01,-7.860903441905975342e-02,-3.258639946579933167e-02,1.285940706729888916e-01,-1.825558021664619446e-02,-5.842664465308189392e-02
-1.858488321304321289e-01,-1.967134475708007812e-01,-2.855467982590198517e-02,-1.518443506211042404e-02,1.796956956386566162e-01,-8.221672475337982178e-02,-3.675598651170730591e-02,1.253372728824615479e-01,2.752838656306266785e-02,-9.866398572921752930e-02
-1.858488321304321289e-01,-1.967134475708007812e-01,-2.855467982590198517e-02,-1.518443506211042404e-02,1.796956956386566162e-01,-8.221672475337982178e-02,-3.675598651170730591e-02,1.253372728824615479e-01,2.752838656306266785e-02,-9.866398572921752930e-02
-2.098842263221740723e-01,-2.491046935319900513e-01,-3.284714370965957642e-02,9.201839566230773926e-03,1.983759701251983643e-01,-7.226064056158065796e-02,-3.137479722499847412e-02,1.217527985572814941e-01,6.986089795827865601e-02,-1.283016800880432129e-01
-2.098842263221740723e-01,-2.491046935319900513e-01,-3.284714370965957642e-02,9.201839566230773926e-03,1.983759701251983643e-01,-7.226064056158065796e-02,-3.137479722499847412e-02,1.217527985572814941e-01,6.986089795827865601e-02,-1.283016800880432129e-01
-2.370472699403762817e-01,-2.864498794078826904e-01,-3.967842087149620056e-02,2.780205197632312775e-02,2.229397296905517578e-01,-7.310223579406738281e-02,-4.076272994279861450e-02,1.286111921072006226e-01,9.774844348430633545e-02,-1.410234421491622925e-01
-2.370472699403762817e-01,-2.864498794078826904e-01,-3.967842087149620056e-02,2.780205197632312775e-02,2.229397296905517578e-01,-7.310223579406738281e-02,-4.076272994279861450e-02,1.286111921072006226e-01,9.774844348430633545e-02,-1.410234421491622925e-01
-2.619996964931488037e-01,-3.310494422912597656e-01,-5.303580313920974731e-02,4.380478337407112122e-02,2.348882704973220825e-01,-6.059440597891807556e-02,-4.520632326602935791e-02,1.478948295116424561e-01,1.228852644562721252e-01,-1.542955040931701660e-01
-2.619996964931488037e-01,-3.310494422912597656e-01,-5.303580313920974731e-02,4.380478337407112122e-02,2.348882704973220825e-01,-6.059440597891807556e-02,-4.520632326602935791e-02,1.478948295116424561e-01,1.228852644562721252e-01,-1.542955040931701660e-01
-2.810531556606292725e-01,-3.610824644565582275e-01,-5.483457818627357483e-02,6.376471370458602905e-02,2.308052480220794678e-01,-5.338740721344947815e-02,-5.694307386875152588e-02,1.691275984048843384e-01,1.437400281429290771e-01,-1.696761548519134521e-01
-2.810531556606292725e-01,-3.610824644565582275e-01,-5.483457818627357483e-02,6.376471370458602905e-02,2.308052480220794678e-01,-5.338740721344947815e-02,-5.694307386875152588e-02,1.691275984048843384e-01,1.437400281429290771e-01,-1.696761548519134521e-01
-3.085229694843292236e-01,-3.826254904270172119e-01,-4.141834750771522522e-02,8.808746933937072754e-02,2.228872925043106079e-01,-4.765517637133598328e-02,-8.188050240278244019e-02,1.852116882801055908e-01,1.625853925943374634e-01,-1.819189637899398804e-01
-3.085229694843292236e-01,-3.826254904270172119e-01,-4.141834750771522522e-02,8.808746933937072754e-02,2.228872925043106079e-01,-4.765517637133598328e-02,-8.188050240278244019e-02,1.852116882801055908e-01,1.625853925943374634e-01,-1.819189637899398804e-01
-3.380559980869293213e-01,-4.212864637374877930e-01,-3.192390501499176025e-02,9.609024226665496826e-02,2.345087826251983643e-01,-4.007588326930999756e-02,-9.042906016111373901e-02,1.993254423141479492e-01,1.897192299365997314e-01,-2.007000893354415894e-01
-3.380559980869293213e-01,-4.212864637374877930e-01,-3.192390501499176025e-02,9.609024226665496826e-02,2.345087826251983643e-01,-4.007588326930999756e-02,-9.042906016111373901e-02,1.993254423141479492e-01,1.897192299365997314e-01,-2.007000893354415894e-01
-3.596998155117034912e-01,-4.474357664585113525e-01,-4.290099814534187317e-02,1.071666553616523743e-01,2.534945011138916016e-01,-3.795886784791946411e-02,-1.085488572716712952e-01,2.210207432508468628e-01,2.050330340862274170e-01,-2.068951576948165894e-01
-3.596998155117034912e-01,-4.474357664585113525e-01,-4.290099814534187317e-02,1.071666553616523743e-01,2.534945011138916016e-01,-3.795886784791946411e-02,-1.085488572716712952e-01,2.210207432508468628e-01,2.050330340862274170e-01,-2.068951576948165894e-01
-3.672501146793365479e-01,-4.737305343151092529e-01,-5.726955831050872803e-02,1.155633926391601562e-01,2.604958117008209229e-01,-3.507696837186813354e-02,-1.291654109954833984e-01,2.477579265832901001e-01,2.190078794956207275e-01,-2.077614217996597290e-01
-3.672501146793365479e-01,-4.737305343151092529e-01,-5.726955831050872803e-02,1.155633926391601562e-01,2.604958117008209229e-01,-3.507696837186813354e-02,-1.291654109954833984e-01,2.477579265832901001e-01,2.190078794956207275e-01,-2.077614217996597290e-01
-3.659678995609283447e-01,-4.942013323307037354e-01,-6.200795248150825500e-02,1.131058856844902039e-01,2.699836492538452148e-01,-2.538635395467281342e-02,-1.476596295833587646e-01,2.517235279083251953e-01,2.322481423616409302e-01,-2.058898955583572388e-01
-3.659678995609283447e-01,-4.942013323307037354e-01,-6.200795248150825500e-02,1.131058856844902039e-01,2.699836492538452148e-01,-2.538635395467281342e-02,-1.476596295833587646e-01,2.517235279083251953e-01,2.322481423616409302e-01,-2.058898955583572388e-01
-3.741352260112762451e-01,-5.172350406646728516e-01,-6.084136664867401123e-02,1.151271015405654907e-01,2.842416465282440186e-01,-1.068310346454381943e-02,-1.571355909109115601e-01,2.402388155460357666e-01,2.615339756011962891e-01,-2.246163487434387207e-01
-3.741352260112762451e-01,-5.172350406646728516e-01,-6.084136664867401123e-02,1.151271015405654907e-01,2.842416465282440186e-01,-1.068310346454381943e-02,-1.571355909109115601e-01,2.402388155460357666e-01,2.615339756011962891e-01,-2.246163487434387207e-01
-3.864844739437103271e-01,-5.358963608741760254e-01,-6.644741445779800415e-02,1.187364459037780762e-01,2.945777773857116699e-01,6.912555545568466187e-04,-1.606369167566299438e-01,2.383703589439392090e-01,2.846417725086212158e-01,-2.399037182331085205e-01
-3.864844739437103271e-01,-5.358963608741760254e-01,-6.644741445779800415e-02,1.187364459037780762e-01,2.945777773857116699e-01,6.912555545568466187e-04,-1.606369167566299438e-01,2.383703589439392090e-01,2.846417725086212158e-01,-2.399037182331085205e-01
-3.886768221855163574e-01,-5.495610237121582031e-01,-7.185173034667968750e-02,1.175411120057106018e-01,2.932022809982299805e-01,1.179037895053625107e-02,-1.743740290403366089e-01,2.486632168292999268e-01,2.977751493453979492e-01,-2.429026514291763306e-01
-3.886768221855163574e-01,-5.495610237121582031e-01,-7.185173034667968750e-02,1.175411120057106018e-01,2.932022809982299805e-01,1.179037895053625107e-02,-1.743740290403366089e-01,2.486632168292999268e-01,2.977751493453979492e-01,-2.429026514291763306e-01
-3.983511626720428467e-01,-5.665150880813598633e-01,-7.539251446723937988e-02,1.326824724674224854e-01,2.845577895641326904e-01,1.462426781654357910e-02,-1.893249452114105225e-01,2.636912763118743896e-01,3.173213005065917969e-01,-2.523841559886932373e-01
-3.983511626720428467e-01,-5.665150880813598633e-01,-7.539251446723937988e-02,1.326824724674224854e-01,2.845577895641326904e-01,1.462426781654357910e-02,-1.893249452114105225e-01,2.636912763118743896e-01,3.173213005065917969e-01,-2.523841559886932373e-01
-4.081253111362457275e-01,-5.837437510490417480e-01,-7.124900817871093750e-02,1.391116678714752197e-01,2.745037972927093506e-01,2.954902872443199158e-02,-1.902817338705062866e-01,2.543038129806518555e-01,3.382804989814758301e-01,-2.628506124019622803e-01
-4.081253111362457275e-01,-5.837437510490417480e-01,-7.124900817871093750e-02,1.391116678714752197e-01,2.745037972927093506e-01,2.954902872443199158e-02,-1.902817338705062866e-01,2.543038129806518555e-01,3.382804989814758301e-01,-2.628506124019622803e-01
-4.146159291267395020e-01,-6.188105344772338867e-01,-8.314389735460281372e-02,1.497156769037246704e-01,2.793560624122619629e-01,4.795728251338005066e-02,-2.073667645454406738e-01,2.581556141376495361e-01,3.580038249492645264e-01,-2.653983235359191895e-01
-4.146159291267395020e-01,-6.188105344772338867e-01,-8.314389735460281372e-02,1.497156769037246704e-01,2.793560624122619629e-01,4.795728251338005066e-02,-2.073667645454406738e-01,2.581556141376495361e-01,3.580038249492645264e-01,-2.653983235359191895e-01
-4.262252151966094971e-01,-6.382297873497009277e-01,-8.139870315790176392e-02,1.585805118083953857e-01,2.829178273677825928e-01,4.728235676884651184e-02,-2.221008688211441040e-01,2.662805020809173584e-01,3.758351504802703857e-01,-2.700605094432830811e-01
-4.262252151966094971e-01,-6.382297873497009277e-01,-8.139870315790176392e-02,1.585805118083953857e-01,2.829178273677825928e-01,4.728235676884651184e-02,-2.221008688211441040e-01,2.662805020809173584e-01,3.758351504802703857e-01,-2.700605094432830811e-01
-4.266443550586700439e-01,-6.534950733184814453e-01,-9.021938592195510864e-02,1.592318117618560791e-01,2.977724373340606689e-01,5.208985134959220886e-02,-2.315168976783752441e-01,2.678053677082061768e-01,3.870406150817871094e-01,-2.737853527069091797e-01
-4.266443550586700439e-01,-6.534950733184814453e-01,-9.021938592195510864e-02,1.592318117618560791e-01,2.977724373340606689e-01,5.208985134959220886e-02,-2.315168976783752441e-01,2.678053677082061768e-01,3.870406150817871094e-01,-2.737853527069091797e-01
-4.300862550735473633e-01,-6.742194294929504395e-01,-9.133462607860565186e-02,1.591276824474334717e-01,2.999325692653656006e-01,6.028317287564277649e-02,-2.332451939582824707e-01,2.670591771602630615e-01,4.013000726699829102e-01,-2.792296409606933594e-01
-4.300862550735473633e-01,-6.742194294929504395e-01,-9.133462607860565186e-02,1.591276824474334717e-01,2.999325692653656006e-01,6.028317287564277649e-02,-2.332451939582824707e-01,2.670591771602630615e-01,4.013000726699829102e-01,-2.792296409606933594e-01
-4.343342483043670654e-01,-6.819435954093933105e-01,-8.993373066186904907e-02,1.607829481363296509e-01,2.920720875263214111e-01,6.845728307962417603e-02,-2.373480796813964844e-01,2.722956538200378418e-01,4.083030521869659424e-01,-2.848178744316101074e-01
-4.343342483043670654e-01,-6.819435954093933105e-01,-8.993373066186904907e-02,1.607829481363296509e-01,2.920720875263214111e-01,6.845728307962417603e-02,-2.373480796813964844e-01,2.722956538200378418e-01,4.083030521869659424e-01,-2.848178744316101074e-01
-4.386857450008392334e-01,-6.964098215103149414e-01,-9.319446980953216553e-02,1.613964885473251343e-01,2.831881344318389893e-01,7.335028797388076782e-02,-2.388089746236801147e-01,2.750246226787567139e-01,4.198442101478576660e-01,-2.798330187797546387e-01
-4.386857450008392334e-01,-6.964098215103149414e-01,-9.319446980953216553e-02,1.613964885473251343e-01,2.831881344318389893e-01,7.335028797388076782e-02,-2.388089746236801147e-01,2.750246226787567139e-01,4.198442101478576660e-01,-2.798330187797546387e-01
-4.458475112915039062e-01,-7.157467603683471680e-01,-9.175392985343933105e-02,1.720854043960571289e-01,2.778402864933013916e-01,7.007981091737747192e-02,-2.564257383346557617e-01,2.862851321697235107e-01,4.365621507167816162e-01,-2.791620194911956787e-01
-4.458475112915039062e-01,-7.157467603683471680e-01,-9.175392985343933105e-02,1.720854043960571289e-01,2.778402864933013916e-01,7.007981091737747192e-02,-2.564257383346557617e-01,2.862851321697235107e-01,4.365621507167816162e-01,-2.791620194911956787e-01
-4.471528530120849609e-01,-7.424679398536682129e-01,-1.035149022936820984e-01,1.724243313074111938e-01,2.770762443542480469e-01,8.962883800268173218e-02,-2.630040943622589111e-01,2.902723848819732666e-01,4.521926641464233398e-01,-2.838440835475921631e-01
-4.471528530120849609e-01,-7.424679398536682129e-01,-1.035149022936820984e-01,1.724243313074111938e-01,2.770762443542480469e-01,8.962883800268173218e-02,-2.630040943622589111e-01,2.902723848819732666e-01,4.521926641464233398e-01,-2.838440835475921631e-01
-4.485070109367370605e-01,-7.758916020393371582e-01,-1.153143644332885742e-01,1.676245331764221191e-01,2.765557169914245605e-01,1.007219403982162476e-01,-2.615248262882232666e-01,2.918431758880615234e-01,4.755457341670989990e-01,-2.830594778060913086e-01
-4.485070109367370605e-01,-7.758916020393371582e-01,-1.153143644332885742e-01,1.676245331764221191e-01,2.765557169914245605e-01,1.007219403982162476e-01,-2.615248262882232666e-01,2.918431758880615234e-01,4.755457341670989990e-01,-2.830594778060913086e-01
-4.546613991260528564e-01,-7.989442348480224609e-01,-1.226675212383270264e-01,1.786422580480575562e-01,2.790683507919311523e-01,1.100646927952766418e-01,-2.740733921527862549e-01,2.830547988414764404e-01,4.934816062450408936e-01,-2.793506383895874023e-01
-4.546613991260528564e-01,-7.989442348480224609e-01,-1.226675212383270264e-01,1.786422580480575562e-01,2.790683507919311523e-01,1.100646927952766418e-01,-2.740733921527862549e-01,2.830547988414764404e-01,4.934816062450408936e-01,-2.793506383895874023e-01
-4.546723663806915283e-01,-8.245753645896911621e-01,-1.311782598495483398e-01,1.780461221933364868e-01,2.918449342250823975e-01,1.125486940145492554e-01,-2.863524258136749268e-01,2.759450972080230713e-01,5.133609771728515625e-01,-2.712706029415130615e-01
-4.546723663806915283e-01,-8.245753645896911621e-01,-1.311782598495483398e-01,1.780461221933364868e-01,2.918449342250823975e-01,1.125486940145492554e-01,-2.863524258136749268e-01,2.759450972080230713e-01,5.133609771728515625e-01,-2.712706029415130615e-01
-4.503175318241119385e-01,-8.460429310798645020e-01,-1.348934620618820190e-01,1.858018189668655396e-01,2.921252548694610596e-01,1.128613725304603577e-01,-2.954066097736358643e-01,2.837362587451934814e-01,5.228185057640075684e-01,-2.763194441795349121e-01
-4.503175318241119385e-01,-8.460429310798645020e-01,-1.348934620618820190e-01,1.858018189668655396e-01,2.921252548694610596e-01,1.128613725304603577e-01,-2.954066097736358643e-01,2.837362587451934814e-01,5.228185057640075684e-01,-2.763194441795349121e-01
