3.235583379864692688e-02,-3.282523155212402344e-02,1.128996908664703369e-02,-3.833056241273880005e-02,8.266677148640155792e-03,-2.006724849343299866e-02,-5.369958933442831039e-03,-4.353427886962890625e-02,3.410776611417531967e-03,5.853142589330673218e-02
3.173923119902610779e-02,-3.270559385418891907e-02,9.770854376256465912e-03,-3.659728541970252991e-02,6.927881389856338501e-03,-1.742765493690967560e-02,-4.494915250688791275e-03,-4.386188462376594543e-02,2.991556888446211815e-03,5.709938332438468933e-02
3.095356374979019165e-02,-3.208578005433082581e-02,1.027117203921079636e-02,-3.808771073818206787e-02,8.092839270830154419e-03,-1.723046787083148956e-02,-5.162956658750772476e-03,-4.256769269704818726e-02,1.021919772028923035e-03,5.832069367170333862e-02
3.100385330617427826e-02,-3.054918907582759857e-02,9.015720337629318237e-03,-3.800485283136367798e-02,9.807554073631763458e-03,-1.761621795594692230e-02,-5.933615844696760178e-03,-4.247367754578590393e-02,-2.284575486555695534e-03,6.081259995698928833e-02
3.079875558614730835e-02,-2.980608493089675903e-02,8.543813601136207581e-03,-3.805219009518623352e-02,1.056001801043748856e-02,-1.754889823496341705e-02,-6.808612961322069168e-03,-4.230998829007148743e-02,-3.519562305882573128e-03,6.194223091006278992e-02
3.009471856057643890e-02,-2.971187792718410492e-02,7.862023077905178070e-03,-3.948676586151123047e-02,1.189844030886888504e-02,-1.676918566226959229e-02,-7.153318729251623154e-03,-4.068620875477790833e-02,-4.867530427873134613e-03,6.292862445116043091e-02
2.995514683425426483e-02,-2.858626097440719604e-02,6.538763176649808884e-03,-3.934738785028457642e-02,1.343230064958333969e-02,-1.683859340846538544e-02,-7.999525405466556549e-03,-4.131694138050079346e-02,-5.509413313120603561e-03,6.361128389835357666e-02
2.986816130578517914e-02,-2.842500805854797363e-02,6.633006967604160309e-03,-3.910239785909652710e-02,1.314247865229845047e-02,-1.620748639106750488e-02,-9.036660194396972656e-03,-4.172373190522193909e-02,-5.677873268723487854e-03,6.419483572244644165e-02
3.019957989454269409e-02,-2.803290449082851410e-02,4.302774090319871902e-03,-3.936330974102020264e-02,1.364444009959697723e-02,-1.731081865727901459e-02,-8.717270568013191223e-03,-4.078170284628868103e-02,-5.542448256164789200e-03,6.545604020357131958e-02
3.051095828413963318e-02,-2.847986668348312378e-02,4.229809157550334930e-03,-3.978970646858215332e-02,1.359452400356531143e-02,-1.809114590287208557e-02,-8.945567533373832703e-03,-4.023917764425277710e-02,-3.822977421805262566e-03,6.466609984636306763e-02
3.025424480438232422e-02,-2.881299331784248352e-02,4.592210054397583008e-03,-3.854025900363922119e-02,1.273471210151910782e-02,-1.793306320905685425e-02,-9.176547639071941376e-03,-4.189693927764892578e-02,-4.459467716515064240e-03,6.642702966928482056e-02
3.051429800689220428e-02,-2.865806221961975098e-02,4.026331938803195953e-03,-3.895885124802589417e-02,1.334385108202695847e-02,-1.695761270821094513e-02,-8.797190152108669281e-03,-4.214259982109069824e-02,-4.020269960165023804e-03,6.477812677621841431e-02
3.022466599941253662e-02,-2.921724505722522736e-02,3.310032421723008156e-03,-3.828155621886253357e-02,1.345788780599832535e-02,-1.763538643717765808e-02,-9.378271177411079407e-03,-4.243373498320579529e-02,-3.324935678392648697e-03,6.587643176317214966e-02
3.170187771320343018e-02,-3.058604523539543152e-02,3.490954404696822166e-03,-3.888728842139244080e-02,1.296875532716512680e-02,-1.756210625171661377e-02,-8.621236309409141541e-03,-4.309485107660293579e-02,-3.428097814321517944e-03,6.668978184461593628e-02
3.190525993704795837e-02,-3.068623133003711700e-02,3.082635113969445229e-03,-3.866190835833549500e-02,1.214131340384483337e-02,-1.728237420320510864e-02,-1.000052131712436676e-02,-4.277100041508674622e-02,-1.879039569757878780e-03,6.603186577558517456e-02
3.201323747634887695e-02,-3.251085802912712097e-02,3.365566488355398178e-03,-3.791391104459762573e-02,1.140270661562681198e-02,-1.767164841294288635e-02,-1.047953777015209198e-02,-4.311983659863471985e-02,-7.403612835332751274e-04,6.662563234567642212e-02
3.381612151861190796e-02,-3.289704397320747375e-02,2.349840244278311729e-03,-3.832270950078964233e-02,1.110184472054243088e-02,-1.660330593585968018e-02,-1.023190189152956009e-02,-4.351295530796051025e-02,-3.929464146494865417e-04,6.556864827871322632e-02
3.319031372666358948e-02,-3.391563892364501953e-02,2.297218888998031616e-03,-3.734451904892921448e-02,1.190939266234636307e-02,-1.705807261168956757e-02,-1.036604680120944977e-02,-4.392375797033309937e-02,-1.413982536178082228e-04,6.576359272003173828e-02
3.434170037508010864e-02,-3.518570587038993835e-02,2.170512452721595764e-03,-3.686475753784179688e-02,1.151931472122669220e-02,-1.660568080842494965e-02,-1.073385495692491531e-02,-4.419054463505744934e-02,1.648421166464686394e-04,6.539899855852127075e-02
3.422572463750839233e-02,-3.537897393107414246e-02,1.721055246889591217e-03,-3.667576611042022705e-02,1.131251733750104904e-02,-1.657416485249996185e-02,-1.115473266690969467e-02,-4.357581213116645813e-02,5.105484742671251297e-04,6.534443795680999756e-02
3.641793876886367798e-02,-3.668263554573059082e-02,1.006525591947138309e-03,-3.623410686850547791e-02,1.014955621212720871e-02,-1.742258481681346893e-02,-1.076638884842395782e-02,-4.437796771526336670e-02,1.621255767531692982e-03,6.567496806383132935e-02
3.633248433470726013e-02,-3.704855218529701233e-02,5.262630293145775795e-04,-3.617573902010917664e-02,9.717391803860664368e-03,-1.626097597181797028e-02,-1.048978231847286224e-02,-4.535266384482383728e-02,1.891465042717754841e-03,6.554376333951950073e-02
3.699508309364318848e-02,-3.875418752431869507e-02,5.303508078213781118e-05,-3.420573472976684570e-02,9.478469379246234894e-03,-1.661976240575313568e-02,-1.058627106249332428e-02,-4.597724601626396179e-02,1.614832552149891853e-03,6.621745228767395020e-02
3.802857920527458191e-02,-3.988946974277496338e-02,3.100833273492753506e-04,-3.509705886244773865e-02,8.805534802377223969e-03,-1.555153913795948029e-02,-1.118337828665971756e-02,-4.494631662964820862e-02,2.264134818688035011e-03,6.518507003784179688e-02
3.847080469131469727e-02,-4.144282639026641846e-02,-9.070562664419412613e-04,-3.391243144869804382e-02,9.843390434980392456e-03,-1.592281088232994080e-02,-1.035481318831443787e-02,-4.538716003298759460e-02,2.173044485971331596e-03,6.514253467321395874e-02
3.944644704461097717e-02,-4.236941784620285034e-02,-1.124710252042859793e-04,-3.388513252139091492e-02,8.812605403363704681e-03,-1.558497548103332520e-02,-1.043709367513656616e-02,-4.679197818040847778e-02,3.129427554085850716e-03,6.475237756967544556e-02
4.066424444317817688e-02,-4.241533577442169189e-02,4.200094845145940781e-04,-3.291333466768264771e-02,7.863384671509265900e-03,-1.570973172783851624e-02,-1.203902717679738998e-02,-4.691693931818008423e-02,3.163935616612434387e-03,6.472310423851013184e-02
3.995025902986526489e-02,-4.481305554509162903e-02,2.711809793254360557e-05,-3.217481076717376709e-02,8.404940366744995117e-03,-1.540014240890741348e-02,-1.084212865680456161e-02,-4.799569398164749146e-02,3.738159313797950745e-03,6.482104212045669556e-02
4.165557026863098145e-02,-4.421321302652359009e-02,-1.754892873577773571e-04,-3.232499212026596069e-02,8.060851134359836578e-03,-1.449359208345413208e-02,-1.116386055946350098e-02,-4.795956239104270935e-02,2.757742768153548241e-03,6.428974121809005737e-02
4.189986735582351685e-02,-4.534656926989555359e-02,-6.027453928254544735e-04,-3.127914294600486755e-02,6.590357981622219086e-03,-1.421852782368659973e-02,-1.064708083868026733e-02,-4.682640731334686279e-02,2.759919501841068268e-03,6.376346200704574585e-02
