2.828233130276203156e-02,-3.617393970489501953e-02,-7.392722181975841522e-03,-3.475510329008102417e-02,6.373018026351928711e-02,-4.744799807667732239e-02,6.723282858729362488e-03,2.362503483891487122e-02,-3.842775896191596985e-02,-1.278288755565881729e-02
2.828233130276203156e-02,-3.617393970489501953e-02,-7.392722181975841522e-03,-3.475510329008102417e-02,6.373018026351928711e-02,-4.744799807667732239e-02,6.723282858729362488e-03,2.362503483891487122e-02,-3.842775896191596985e-02,-1.278288755565881729e-02
-7.346381433308124542e-03,-1.172893047332763672e-01,2.914018370211124420e-02,-3.503023833036422729e-02,1.758064776659011841e-01,-5.760283768177032471e-02,6.003321707248687744e-02,6.276980787515640259e-02,-4.264570400118827820e-02,-1.149295568466186523e-01
-7.346381433308124542e-03,-1.172893047332763672e-01,2.914018370211124420e-02,-3.503023833036422729e-02,1.758064776659011841e-01,-5.760283768177032471e-02,6.003321707248687744e-02,6.276980787515640259e-02,-4.264570400118827820e-02,-1.149295568466186523e-01
-8.078561723232269287e-02,-1.895486861467361450e-01,4.715807363390922546e-02,7.922198623418807983e-03,2.467270046472549438e-01,-5.431347340345382690e-02,8.941518515348434448e-02,5.737681686878204346e-02,6.838500266894698143e-04,-1.708224713802337646e-01
-8.078561723232269287e-02,-1.895486861467361450e-01,4.715807363390922546e-02,7.922198623418807983e-03,2.467270046472549438e-01,-5.431347340345382690e-02,8.941518515348434448e-02,5.737681686878204346e-02,6.838500266894698143e-04,-1.708224713802337646e-01
-1.311544626951217651e-01,-2.428966313600540161e-01,6.427421420812606812e-02,4.510587453842163086e-02,2.975982427597045898e-01,-6.107187643647193909e-02,1.074992641806602478e-01,8.913470059633255005e-02,2.426313795149326324e-02,-2.342088222503662109e-01
-1.311544626951217651e-01,-2.428966313600540161e-01,6.427421420812606812e-02,4.510587453842163086e-02,2.975982427597045898e-01,-6.107187643647193909e-02,1.074992641806602478e-01,8.913470059633255005e-02,2.426313795149326324e-02,-2.342088222503662109e-01
-1.571878343820571899e-01,-3.012752830982208252e-01,6.462181359529495239e-02,6.508454680442810059e-02,3.534812629222869873e-01,-4.619961231946945190e-02,1.026734188199043274e-01,9.403217583894729614e-02,6.633388251066207886e-02,-2.879998385906219482e-01
-1.571878343820571899e-01,-3.012752830982208252e-01,6.462181359529495239e-02,6.508454680442810059e-02,3.534812629222869873e-01,-4.619961231946945190e-02,1.026734188199043274e-01,9.403217583894729614e-02,6.633388251066207886e-02,-2.879998385906219482e-01
-1.909053474664688110e-01,-3.602862358093261719e-01,6.186398491263389587e-02,6.862116605043411255e-02,4.145537018775939941e-01,-2.275831066071987152e-02,1.108177900314331055e-01,9.699849039316177368e-02,8.820623159408569336e-02,-3.224950134754180908e-01
-1.909053474664688110e-01,-3.602862358093261719e-01,6.186398491263389587e-02,6.862116605043411255e-02,4.145537018775939941e-01,-2.275831066071987152e-02,1.108177900314331055e-01,9.699849039316177368e-02,8.820623159408569336e-02,-3.224950134754180908e-01
-2.209504991769790649e-01,-4.063791334629058838e-01,3.027764335274696350e-02,6.562007218599319458e-02,4.618653357028961182e-01,-1.096816919744014740e-02,1.290927529335021973e-01,1.167228221893310547e-01,1.212351471185684204e-01,-3.508301079273223877e-01
-2.209504991769790649e-01,-4.063791334629058838e-01,3.027764335274696350e-02,6.562007218599319458e-02,4.618653357028961182e-01,-1.096816919744014740e-02,1.290927529335021973e-01,1.167228221893310547e-01,1.212351471185684204e-01,-3.508301079273223877e-01
-2.538660168647766113e-01,-4.496626853942871094e-01,2.129895053803920746e-02,8.925788104534149170e-02,4.967160224914550781e-01,1.000547967851161957e-02,1.150018870830535889e-01,1.173707470297813416e-01,1.522603929042816162e-01,-3.739827573299407959e-01
-2.538660168647766113e-01,-4.496626853942871094e-01,2.129895053803920746e-02,8.925788104534149170e-02,4.967160224914550781e-01,1.000547967851161957e-02,1.150018870830535889e-01,1.173707470297813416e-01,1.522603929042816162e-01,-3.739827573299407959e-01
-2.877492308616638184e-01,-4.986838698387145996e-01,1.822964847087860107e-02,1.203269287943840027e-01,5.297572016716003418e-01,1.133506000041961670e-02,1.060200035572052002e-01,1.341298371553421021e-01,1.763728708028793335e-01,-3.981669545173645020e-01
-2.877492308616638184e-01,-4.986838698387145996e-01,1.822964847087860107e-02,1.203269287943840027e-01,5.297572016716003418e-01,1.133506000041961670e-02,1.060200035572052002e-01,1.341298371553421021e-01,1.763728708028793335e-01,-3.981669545173645020e-01
-3.032727539539337158e-01,-5.368898510932922363e-01,1.189043745398521423e-02,1.318361014127731323e-01,5.553969144821166992e-01,1.641998812556266785e-02,8.848647028207778931e-02,1.490185409784317017e-01,1.934836208820343018e-01,-4.043706059455871582e-01
-3.032727539539337158e-01,-5.368898510932922363e-01,1.189043745398521423e-02,1.318361014127731323e-01,5.553969144821166992e-01,1.641998812556266785e-02,8.848647028207778931e-02,1.490185409784317017e-01,1.934836208820343018e-01,-4.043706059455871582e-01
-3.048965930938720703e-01,-6.005529761314392090e-01,1.163292210549116135e-03,1.338725686073303223e-01,5.652769804000854492e-01,4.351894184947013855e-02,9.563886374235153198e-02,1.618095189332962036e-01,2.148353159427642822e-01,-4.146212339401245117e-01
-3.048965930938720703e-01,-6.005529761314392090e-01,1.163292210549116135e-03,1.338725686073303223e-01,5.652769804000854492e-01,4.351894184947013855e-02,9.563886374235153198e-02,1.618095189332962036e-01,2.148353159427642822e-01,-4.146212339401245117e-01
-3.208910822868347168e-01,-6.242535114288330078e-01,-3.572402894496917725e-02,1.518254429101943970e-01,5.789883732795715332e-01,4.735570028424263000e-02,8.691947907209396362e-02,1.883955597877502441e-01,2.320234924554824829e-01,-4.141557514667510986e-01
-3.208910822868347168e-01,-6.242535114288330078e-01,-3.572402894496917725e-02,1.518254429101943970e-01,5.789883732795715332e-01,4.735570028424263000e-02,8.691947907209396362e-02,1.883955597877502441e-01,2.320234924554824829e-01,-4.141557514667510986e-01
-3.408441543579101562e-01,-6.714030504226684570e-01,-5.786392837762832642e-02,1.639078557491302490e-01,6.176192164421081543e-01,4.826661571860313416e-02,7.892192155122756958e-02,2.063879668712615967e-01,2.598540782928466797e-01,-4.257653653621673584e-01
-3.408441543579101562e-01,-6.714030504226684570e-01,-5.786392837762832642e-02,1.639078557491302490e-01,6.176192164421081543e-01,4.826661571860313416e-02,7.892192155122756958e-02,2.063879668712615967e-01,2.598540782928466797e-01,-4.257653653621673584e-01
-3.511000573635101318e-01,-7.017336487770080566e-01,-9.311318397521972656e-02,1.551290154457092285e-01,6.391162276268005371e-01,7.428554445505142212e-02,7.076445966958999634e-02,2.253166586160659790e-01,2.852032780647277832e-01,-4.297354221343994141e-01
-3.511000573635101318e-01,-7.017336487770080566e-01,-9.311318397521972656e-02,1.551290154457092285e-01,6.391162276268005371e-01,7.428554445505142212e-02,7.076445966958999634e-02,2.253166586160659790e-01,2.852032780647277832e-01,-4.297354221343994141e-01
-3.491314947605133057e-01,-7.194405794143676758e-01,-1.162454634904861450e-01,1.336192935705184937e-01,6.681494116783142090e-01,1.089986786246299744e-01,7.663630694150924683e-02,1.982590854167938232e-01,3.250952064990997314e-01,-4.542017281055450439e-01
-3.491314947605133057e-01,-7.194405794143676758e-01,-1.162454634904861450e-01,1.336192935705184937e-01,6.681494116783142090e-01,1.089986786246299744e-01,7.663630694150924683e-02,1.982590854167938232e-01,3.250952064990997314e-01,-4.542017281055450439e-01
-3.605391085147857666e-01,-7.434289455413818359e-01,-1.277628093957901001e-01,1.394904404878616333e-01,7.024388909339904785e-01,1.360034197568893433e-01,7.563147693872451782e-02,1.611024588346481323e-01,3.533025979995727539e-01,-4.731391668319702148e-01
-3.605391085147857666e-01,-7.434289455413818359e-01,-1.277628093957901001e-01,1.394904404878616333e-01,7.024388909339904785e-01,1.360034197568893433e-01,7.563147693872451782e-02,1.611024588346481323e-01,3.533025979995727539e-01,-4.731391668319702148e-01
-3.615977466106414795e-01,-7.827988862991333008e-01,-1.420210748910903931e-01,1.376328915357589722e-01,7.200887799263000488e-01,1.653789132833480835e-01,4.983402788639068604e-02,1.679280400276184082e-01,3.836634755134582520e-01,-4.824255108833312988e-01
-3.615977466106414795e-01,-7.827988862991333008e-01,-1.420210748910903931e-01,1.376328915357589722e-01,7.200887799263000488e-01,1.653789132833480835e-01,4.983402788639068604e-02,1.679280400276184082e-01,3.836634755134582520e-01,-4.824255108833312988e-01
-3.737168908119201660e-01,-8.027095794677734375e-01,-1.473935544490814209e-01,1.476953625679016113e-01,7.343268394470214844e-01,1.877128481864929199e-01,2.434844896197319031e-02,1.817531287670135498e-01,3.928179740905761719e-01,-4.972451925277709961e-01
-3.737168908119201660e-01,-8.027095794677734375e-01,-1.473935544490814209e-01,1.476953625679016113e-01,7.343268394470214844e-01,1.877128481864929199e-01,2.434844896197319031e-02,1.817531287670135498e-01,3.928179740905761719e-01,-4.972451925277709961e-01
-3.700527250766754150e-01,-8.383960127830505371e-01,-1.527330428361892700e-01,1.504817306995391846e-01,7.509953975677490234e-01,2.075903713703155518e-01,1.049294695258140564e-02,1.806223094463348389e-01,4.114893972873687744e-01,-5.102730393409729004e-01
-3.700527250766754150e-01,-8.383960127830505371e-01,-1.527330428361892700e-01,1.504817306995391846e-01,7.509953975677490234e-01,2.075903713703155518e-01,1.049294695258140564e-02,1.806223094463348389e-01,4.114893972873687744e-01,-5.102730393409729004e-01
-3.786890208721160889e-01,-8.721749186515808105e-01,-1.524512171745300293e-01,1.482466906309127808e-01,7.781566381454467773e-01,2.166122943162918091e-01,-1.932173222303390503e-02,1.987627148628234863e-01,4.226135015487670898e-01,-5.111072063446044922e-01
-3.786890208721160889e-01,-8.721749186515808105e-01,-1.524512171745300293e-01,1.482466906309127808e-01,7.781566381454467773e-01,2.166122943162918091e-01,-1.932173222303390503e-02,1.987627148628234863e-01,4.226135015487670898e-01,-5.111072063446044922e-01
-3.825424015522003174e-01,-9.028117656707763672e-01,-1.432861983776092529e-01,1.429868340492248535e-01,8.061724901199340820e-01,2.355585098266601562e-01,-3.632316738367080688e-02,1.898257434368133545e-01,4.304879605770111084e-01,-5.185301899909973145e-01
-3.825424015522003174e-01,-9.028117656707763672e-01,-1.432861983776092529e-01,1.429868340492248535e-01,8.061724901199340820e-01,2.355585098266601562e-01,-3.632316738367080688e-02,1.898257434368133545e-01,4.304879605770111084e-01,-5.185301899909973145e-01
-3.797568976879119873e-01,-9.083099961280822754e-01,-1.447955816984176636e-01,1.282848119735717773e-01,8.400027155876159668e-01,2.332701683044433594e-01,-4.281995445489883423e-02,1.736487895250320435e-01,4.477304816246032715e-01,-5.257186889648437500e-01
-3.797568976879119873e-01,-9.083099961280822754e-01,-1.447955816984176636e-01,1.282848119735717773e-01,8.400027155876159668e-01,2.332701683044433594e-01,-4.281995445489883423e-02,1.736487895250320435e-01,4.477304816246032715e-01,-5.257186889648437500e-01
-3.974990546703338623e-01,-9.116467833518981934e-01,-1.552159339189529419e-01,1.450902968645095825e-01,8.628701567649841309e-01,2.254487723112106323e-01,-6.259621679782867432e-02,1.866162270307540894e-01,4.528474211692810059e-01,-5.302415490150451660e-01
-3.974990546703338623e-01,-9.116467833518981934e-01,-1.552159339189529419e-01,1.450902968645095825e-01,8.628701567649841309e-01,2.254487723112106323e-01,-6.259621679782867432e-02,1.866162270307540894e-01,4.528474211692810059e-01,-5.302415490150451660e-01
-3.844352662563323975e-01,-9.379984736442565918e-01,-1.607923209667205811e-01,1.511034667491912842e-01,8.631752133369445801e-01,2.327463179826736450e-01,-9.212571382522583008e-02,2.069896310567855835e-01,4.529576003551483154e-01,-5.199584364891052246e-01
-3.844352662563323975e-01,-9.379984736442565918e-01,-1.607923209667205811e-01,1.511034667491912842e-01,8.631752133369445801e-01,2.327463179826736450e-01,-9.212571382522583008e-02,2.069896310567855835e-01,4.529576003551483154e-01,-5.199584364891052246e-01
-3.682065606117248535e-01,-9.549166560173034668e-01,-1.600937992334365845e-01,1.467782258987426758e-01,8.561632037162780762e-01,2.510248124599456787e-01,-1.030147895216941833e-01,2.048074156045913696e-01,4.657030701637268066e-01,-5.285176038742065430e-01
-3.682065606117248535e-01,-9.549166560173034668e-01,-1.600937992334365845e-01,1.467782258987426758e-01,8.561632037162780762e-01,2.510248124599456787e-01,-1.030147895216941833e-01,2.048074156045913696e-01,4.657030701637268066e-01,-5.285176038742065430e-01
-3.496099114418029785e-01,-9.580245018005371094e-01,-1.568600088357925415e-01,1.449720710515975952e-01,8.762428760528564453e-01,2.597440481185913086e-01,-1.236063987016677856e-01,1.896472275257110596e-01,4.488244056701660156e-01,-5.188174247741699219e-01
-3.496099114418029785e-01,-9.580245018005371094e-01,-1.568600088357925415e-01,1.449720710515975952e-01,8.762428760528564453e-01,2.597440481185913086e-01,-1.236063987016677856e-01,1.896472275257110596e-01,4.488244056701660156e-01,-5.188174247741699219e-01
-3.372389674186706543e-01,-1.002855181694030762e+00,-1.492375284433364868e-01,1.468323469161987305e-01,8.886340260505676270e-01,2.687124013900756836e-01,-1.394108384847640991e-01,1.939702779054641724e-01,4.560171067714691162e-01,-5.220209956169128418e-01
-3.372389674186706543e-01,-1.002855181694030762e+00,-1.492375284433364868e-01,1.468323469161987305e-01,8.886340260505676270e-01,2.687124013900756836e-01,-1.394108384847640991e-01,1.939702779054641724e-01,4.560171067714691162e-01,-5.220209956169128418e-01
-3.259077668190002441e-01,-1.018916845321655273e+00,-1.564634740352630615e-01,1.419891119003295898e-01,8.992397189140319824e-01,2.740761041641235352e-01,-1.439601927995681763e-01,1.908822059631347656e-01,4.653366804122924805e-01,-5.243554115295410156e-01
-3.259077668190002441e-01,-1.018916845321655273e+00,-1.564634740352630615e-01,1.419891119003295898e-01,8.992397189140319824e-01,2.740761041641235352e-01,-1.439601927995681763e-01,1.908822059631347656e-01,4.653366804122924805e-01,-5.243554115295410156e-01
-3.141026794910430908e-01,-1.031664252281188965e+00,-1.661632806062698364e-01,1.401071548461914062e-01,9.098141789436340332e-01,2.837471663951873779e-01,-1.537317782640457153e-01,1.885548084974288940e-01,4.720648825168609619e-01,-5.282159447669982910e-01
-3.141026794910430908e-01,-1.031664252281188965e+00,-1.661632806062698364e-01,1.401071548461914062e-01,9.098141789436340332e-01,2.837471663951873779e-01,-1.537317782640457153e-01,1.885548084974288940e-01,4.720648825168609619e-01,-5.282159447669982910e-01
-3.022489547729492188e-01,-1.059157013893127441e+00,-1.671951711177825928e-01,1.432383954524993896e-01,9.190137982368469238e-01,2.882492244243621826e-01,-1.643951833248138428e-01,1.901700496673583984e-01,4.729042351245880127e-01,-5.262083411216735840e-01
-3.022489547729492188e-01,-1.059157013893127441e+00,-1.671951711177825928e-01,1.432383954524993896e-01,9.190137982368469238e-01,2.882492244243621826e-01,-1.643951833248138428e-01,1.901700496673583984e-01,4.729042351245880127e-01,-5.262083411216735840e-01
