1.547795254737138748e-03,-9.824901819229125977e-03,-5.004394799470901489e-02,1.525643095374107361e-02,-5.037968978285789490e-02,-6.920067220926284790e-02,6.667325645685195923e-02,-2.358908997848629951e-03,2.154928818345069885e-02,-1.548297610133886337e-02
1.547795254737138748e-03,-9.824901819229125977e-03,-5.004394799470901489e-02,1.525643095374107361e-02,-5.037968978285789490e-02,-6.920067220926284790e-02,6.667325645685195923e-02,-2.358908997848629951e-03,2.154928818345069885e-02,-1.548297610133886337e-02
-1.585814403370022774e-03,-3.679012646898627281e-03,-4.649393260478973389e-02,9.397219866514205933e-03,-3.883376717567443848e-02,-8.120696246623992920e-02,6.151767075061798096e-02,3.098308341577649117e-03,2.194247581064701080e-02,-1.751389168202877045e-02
-1.585814403370022774e-03,-3.679012646898627281e-03,-4.649393260478973389e-02,9.397219866514205933e-03,-3.883376717567443848e-02,-8.120696246623992920e-02,6.151767075061798096e-02,3.098308341577649117e-03,2.194247581064701080e-02,-1.751389168202877045e-02
-1.091172103770077229e-03,6.475292611867189407e-03,-4.585291072726249695e-02,6.489758845418691635e-03,-3.356271609663963318e-02,-8.803290873765945435e-02,5.706306546926498413e-02,7.336323033086955547e-04,2.327187173068523407e-02,-1.699687168002128601e-02
-1.091172103770077229e-03,6.475292611867189407e-03,-4.585291072726249695e-02,6.489758845418691635e-03,-3.356271609663963318e-02,-8.803290873765945435e-02,5.706306546926498413e-02,7.336323033086955547e-04,2.327187173068523407e-02,-1.699687168002128601e-02
-2.609919874885235913e-06,1.493540965020656586e-02,-4.760555550456047058e-02,5.304650869220495224e-03,-2.825900539755821228e-02,-9.398273378610610962e-02,5.528171733021736145e-02,6.158322212286293507e-04,2.289557456970214844e-02,-1.726385951042175293e-02
-2.609919874885235913e-06,1.493540965020656586e-02,-4.760555550456047058e-02,5.304650869220495224e-03,-2.825900539755821228e-02,-9.398273378610610962e-02,5.528171733021736145e-02,6.158322212286293507e-04,2.289557456970214844e-02,-1.726385951042175293e-02
2.023780485615134239e-03,2.322909794747829437e-02,-4.962851479649543762e-02,3.681289497762918472e-03,-2.545223198831081390e-02,-9.956710040569305420e-02,5.369674786925315857e-02,1.142848632298409939e-03,2.386591397225856781e-02,-1.705149188637733459e-02
2.023780485615134239e-03,2.322909794747829437e-02,-4.962851479649543762e-02,3.681289497762918472e-03,-2.545223198831081390e-02,-9.956710040569305420e-02,5.369674786925315857e-02,1.142848632298409939e-03,2.386591397225856781e-02,-1.705149188637733459e-02
4.575306084007024765e-03,3.041350468993186951e-02,-5.039773136377334595e-02,2.546825213357806206e-03,-2.270383015275001526e-02,-1.044689267873764038e-01,5.260299891233444214e-02,6.000504363328218460e-04,2.295140549540519714e-02,-1.618577167391777039e-02
4.575306084007024765e-03,3.041350468993186951e-02,-5.039773136377334595e-02,2.546825213357806206e-03,-2.270383015275001526e-02,-1.044689267873764038e-01,5.260299891233444214e-02,6.000504363328218460e-04,2.295140549540519714e-02,-1.618577167391777039e-02
6.600246299058198929e-03,3.760493174195289612e-02,-5.149672925472259521e-02,2.417153591522946954e-04,-2.072357945144176483e-02,-1.091748699545860291e-01,5.127678439021110535e-02,1.452787895686924458e-03,2.298258431255817413e-02,-1.479907054454088211e-02
6.600246299058198929e-03,3.760493174195289612e-02,-5.149672925472259521e-02,2.417153591522946954e-04,-2.072357945144176483e-02,-1.091748699545860291e-01,5.127678439021110535e-02,1.452787895686924458e-03,2.298258431255817413e-02,-1.479907054454088211e-02
1.006520632654428482e-02,4.396991431713104248e-02,-5.392513051629066467e-02,-1.111498451791703701e-03,-2.079953253269195557e-02,-1.123842969536781311e-01,5.216448009014129639e-02,3.287449479103088379e-03,2.226165868341922760e-02,-1.451539248228073120e-02
1.006520632654428482e-02,4.396991431713104248e-02,-5.392513051629066467e-02,-1.111498451791703701e-03,-2.079953253269195557e-02,-1.123842969536781311e-01,5.216448009014129639e-02,3.287449479103088379e-03,2.226165868341922760e-02,-1.451539248228073120e-02
1.155650243163108826e-02,5.026168003678321838e-02,-5.367000401020050049e-02,-2.324569271877408028e-03,-2.055351808667182922e-02,-1.167228743433952332e-01,5.106711760163307190e-02,4.115406423807144165e-03,2.182948775589466095e-02,-1.301545836031436920e-02
1.155650243163108826e-02,5.026168003678321838e-02,-5.367000401020050049e-02,-2.324569271877408028e-03,-2.055351808667182922e-02,-1.167228743433952332e-01,5.106711760163307190e-02,4.115406423807144165e-03,2.182948775589466095e-02,-1.301545836031436920e-02
1.494007930159568787e-02,5.505439639091491699e-02,-5.350656434893608093e-02,-3.914406057447195053e-03,-1.900747232139110565e-02,-1.189852431416511536e-01,5.042687430977821350e-02,3.792666830122470856e-03,2.021878398954868317e-02,-1.268380414694547653e-02
1.494007930159568787e-02,5.505439639091491699e-02,-5.350656434893608093e-02,-3.914406057447195053e-03,-1.900747232139110565e-02,-1.189852431416511536e-01,5.042687430977821350e-02,3.792666830122470856e-03,2.021878398954868317e-02,-1.268380414694547653e-02
1.667228341102600098e-02,6.069288402795791626e-02,-5.451400950551033020e-02,-5.453415680676698685e-03,-2.062141336500644684e-02,-1.198989450931549072e-01,5.099143832921981812e-02,5.074301268905401230e-03,1.848488114774227142e-02,-1.122232899069786072e-02
1.667228341102600098e-02,6.069288402795791626e-02,-5.451400950551033020e-02,-5.453415680676698685e-03,-2.062141336500644684e-02,-1.198989450931549072e-01,5.099143832921981812e-02,5.074301268905401230e-03,1.848488114774227142e-02,-1.122232899069786072e-02
1.873290352523326874e-02,6.366373598575592041e-02,-5.454888194799423218e-02,-4.657762590795755386e-03,-1.937594823539257050e-02,-1.201881915330886841e-01,4.925494641065597534e-02,6.278426852077245712e-03,1.511736679822206497e-02,-1.190841849893331528e-02
1.873290352523326874e-02,6.366373598575592041e-02,-5.454888194799423218e-02,-4.657762590795755386e-03,-1.937594823539257050e-02,-1.201881915330886841e-01,4.925494641065597534e-02,6.278426852077245712e-03,1.511736679822206497e-02,-1.190841849893331528e-02
2.127090655267238617e-02,6.650236248970031738e-02,-5.443076789379119873e-02,-5.533459596335887909e-03,-2.038642205297946930e-02,-1.223002523183822632e-01,4.947569593787193298e-02,7.510698400437831879e-03,1.422592159360647202e-02,-1.137693319469690323e-02
2.127090655267238617e-02,6.650236248970031738e-02,-5.443076789379119873e-02,-5.533459596335887909e-03,-2.038642205297946930e-02,-1.223002523183822632e-01,4.947569593787193298e-02,7.510698400437831879e-03,1.422592159360647202e-02,-1.137693319469690323e-02
2.278978750109672546e-02,6.878094375133514404e-02,-5.385246500372886658e-02,-6.459667347371578217e-03,-2.039674855768680573e-02,-1.219940558075904846e-01,5.073286965489387512e-02,1.019270159304141998e-02,1.018286030739545822e-02,-1.233215443789958954e-02
2.278978750109672546e-02,6.878094375133514404e-02,-5.385246500372886658e-02,-6.459667347371578217e-03,-2.039674855768680573e-02,-1.219940558075904846e-01,5.073286965489387512e-02,1.019270159304141998e-02,1.018286030739545822e-02,-1.233215443789958954e-02
2.584595605731010437e-02,7.179719209671020508e-02,-5.333728343248367310e-02,-5.616184324026107788e-03,-1.982374303042888641e-02,-1.235487386584281921e-01,4.821772128343582153e-02,9.487238712608814240e-03,7.332145702093839645e-03,-1.081387139856815338e-02
2.584595605731010437e-02,7.179719209671020508e-02,-5.333728343248367310e-02,-5.616184324026107788e-03,-1.982374303042888641e-02,-1.235487386584281921e-01,4.821772128343582153e-02,9.487238712608814240e-03,7.332145702093839645e-03,-1.081387139856815338e-02
2.767981775104999542e-02,7.245392352342605591e-02,-5.240970477461814880e-02,-6.933754775673151016e-03,-2.195228263735771179e-02,-1.226116418838500977e-01,4.737738519906997681e-02,1.186462678015232086e-02,5.401806440204381943e-03,-1.076089777052402496e-02
2.767981775104999542e-02,7.245392352342605591e-02,-5.240970477461814880e-02,-6.933754775673151016e-03,-2.195228263735771179e-02,-1.226116418838500977e-01,4.737738519906997681e-02,1.186462678015232086e-02,5.401806440204381943e-03,-1.076089777052402496e-02
2.879335731267929077e-02,7.535625249147415161e-02,-5.263323336839675903e-02,-6.254586856812238693e-03,-2.269423007965087891e-02,-1.232356429100036621e-01,4.689160734415054321e-02,1.311461441218852997e-02,3.323093755170702934e-03,-1.081309374421834946e-02
2.879335731267929077e-02,7.535625249147415161e-02,-5.263323336839675903e-02,-6.254586856812238693e-03,-2.269423007965087891e-02,-1.232356429100036621e-01,4.689160734415054321e-02,1.311461441218852997e-02,3.323093755170702934e-03,-1.081309374421834946e-02
3.071422129869461060e-02,7.677789777517318726e-02,-5.164398252964019775e-02,-6.069798488169908524e-03,-2.242214232683181763e-02,-1.229080259799957275e-01,4.751673340797424316e-02,1.378418784588575363e-02,-3.786410088650882244e-04,-1.159702241420745850e-02
3.071422129869461060e-02,7.677789777517318726e-02,-5.164398252964019775e-02,-6.069798488169908524e-03,-2.242214232683181763e-02,-1.229080259799957275e-01,4.751673340797424316e-02,1.378418784588575363e-02,-3.786410088650882244e-04,-1.159702241420745850e-02
3.206866979598999023e-02,7.817926257848739624e-02,-5.142620578408241272e-02,-5.737490020692348480e-03,-2.266887947916984558e-02,-1.234322488307952881e-01,4.698114097118377686e-02,1.427530217915773392e-02,-3.210897324606776237e-03,-1.023129280656576157e-02
3.206866979598999023e-02,7.817926257848739624e-02,-5.142620578408241272e-02,-5.737490020692348480e-03,-2.266887947916984558e-02,-1.234322488307952881e-01,4.698114097118377686e-02,1.427530217915773392e-02,-3.210897324606776237e-03,-1.023129280656576157e-02
3.310332819819450378e-02,8.094360679388046265e-02,-5.174973979592323303e-02,-4.872574936598539352e-03,-2.472807280719280243e-02,-1.250290870666503906e-01,4.823283851146697998e-02,1.530078891664743423e-02,-4.221841227263212204e-03,-1.022757310420274734e-02
3.310332819819450378e-02,8.094360679388046265e-02,-5.174973979592323303e-02,-4.872574936598539352e-03,-2.472807280719280243e-02,-1.250290870666503906e-01,4.823283851146697998e-02,1.530078891664743423e-02,-4.221841227263212204e-03,-1.022757310420274734e-02
3.520341962575912476e-02,8.164824545383453369e-02,-5.063083022832870483e-02,-4.359602462500333786e-03,-2.468949556350708008e-02,-1.253126859664916992e-01,4.749750345945358276e-02,1.759546250104904175e-02,-8.229587227106094360e-03,-1.095043309032917023e-02
3.520341962575912476e-02,8.164824545383453369e-02,-5.063083022832870483e-02,-4.359602462500333786e-03,-2.468949556350708008e-02,-1.253126859664916992e-01,4.749750345945358276e-02,1.759546250104904175e-02,-8.229587227106094360e-03,-1.095043309032917023e-02
3.700904548168182373e-02,8.237030357122421265e-02,-4.807529598474502563e-02,-6.166016682982444763e-03,-2.576345950365066528e-02,-1.266406327486038208e-01,4.637739807367324829e-02,1.752370968461036682e-02,-9.649817831814289093e-03,-8.891427889466285706e-03
3.700904548168182373e-02,8.237030357122421265e-02,-4.807529598474502563e-02,-6.166016682982444763e-03,-2.576345950365066528e-02,-1.266406327486038208e-01,4.637739807367324829e-02,1.752370968461036682e-02,-9.649817831814289093e-03,-8.891427889466285706e-03
3.836687281727790833e-02,8.465541154146194458e-02,-4.709018766880035400e-02,-5.594394169747829437e-03,-2.708808891475200653e-02,-1.269782632589340210e-01,4.635731130838394165e-02,1.749845780432224274e-02,-1.173538248986005783e-02,-8.921305648982524872e-03
3.836687281727790833e-02,8.465541154146194458e-02,-4.709018766880035400e-02,-5.594394169747829437e-03,-2.708808891475200653e-02,-1.269782632589340210e-01,4.635731130838394165e-02,1.749845780432224274e-02,-1.173538248986005783e-02,-8.921305648982524872e-03
3.818541020154953003e-02,8.586647361516952515e-02,-4.695789515972137451e-02,-5.523758474737405777e-03,-2.734695002436637878e-02,-1.262716203927993774e-01,4.595523327589035034e-02,1.862010546028614044e-02,-1.402519643306732178e-02,-8.668422698974609375e-03
3.818541020154953003e-02,8.586647361516952515e-02,-4.695789515972137451e-02,-5.523758474737405777e-03,-2.734695002436637878e-02,-1.262716203927993774e-01,4.595523327589035034e-02,1.862010546028614044e-02,-1.402519643306732178e-02,-8.668422698974609375e-03
3.865627571940422058e-02,8.625627309083938599e-02,-4.672167822718620300e-02,-4.144325852394104004e-03,-2.905371040105819702e-02,-1.290944814682006836e-01,4.769810289144515991e-02,2.077531814575195312e-02,-1.597994379699230194e-02,-8.145554922521114349e-03
3.865627571940422058e-02,8.625627309083938599e-02,-4.672167822718620300e-02,-4.144325852394104004e-03,-2.905371040105819702e-02,-1.290944814682006836e-01,4.769810289144515991e-02,2.077531814575195312e-02,-1.597994379699230194e-02,-8.145554922521114349e-03
4.017831012606620789e-02,8.594324439764022827e-02,-4.480279237031936646e-02,-5.653103347867727280e-03,-2.985561452805995941e-02,-1.279928684234619141e-01,4.628377035260200500e-02,2.125461213290691376e-02,-1.742458529770374298e-02,-7.833616808056831360e-03
4.017831012606620789e-02,8.594324439764022827e-02,-4.480279237031936646e-02,-5.653103347867727280e-03,-2.985561452805995941e-02,-1.279928684234619141e-01,4.628377035260200500e-02,2.125461213290691376e-02,-1.742458529770374298e-02,-7.833616808056831360e-03
4.254417121410369873e-02,8.808629214763641357e-02,-4.467091709375381470e-02,-4.110604990273714066e-03,-3.261179849505424500e-02,-1.305716782808303833e-01,4.698974639177322388e-02,2.205383218824863434e-02,-1.957130990922451019e-02,-6.623675581067800522e-03
4.254417121410369873e-02,8.808629214763641357e-02,-4.467091709375381470e-02,-4.110604990273714066e-03,-3.261179849505424500e-02,-1.305716782808303833e-01,4.698974639177322388e-02,2.205383218824863434e-02,-1.957130990922451019e-02,-6.623675581067800522e-03
4.222243279218673706e-02,9.064857661724090576e-02,-4.298443719744682312e-02,-5.581356119364500046e-03,-3.252555802464485168e-02,-1.311508268117904663e-01,4.783547297120094299e-02,2.417315356433391571e-02,-2.100482769310474396e-02,-8.355719968676567078e-03
4.222243279218673706e-02,9.064857661724090576e-02,-4.298443719744682312e-02,-5.581356119364500046e-03,-3.252555802464485168e-02,-1.311508268117904663e-01,4.783547297120094299e-02,2.417315356433391571e-02,-2.100482769310474396e-02,-8.355719968676567078e-03
4.365298151969909668e-02,9.078156948089599609e-02,-4.250314459204673767e-02,-4.626370035111904144e-03,-3.285360708832740784e-02,-1.314435899257659912e-01,4.767826572060585022e-02,2.433430403470993042e-02,-2.340424060821533203e-02,-7.980827242136001587e-03
4.365298151969909668e-02,9.078156948089599609e-02,-4.250314459204673767e-02,-4.626370035111904144e-03,-3.285360708832740784e-02,-1.314435899257659912e-01,4.767826572060585022e-02,2.433430403470993042e-02,-2.340424060821533203e-02,-7.980827242136001587e-03
4.581994563341140747e-02,9.158440679311752319e-02,-4.193558916449546814e-02,-4.846160765737295151e-03,-3.362895920872688293e-02,-1.311838328838348389e-01,4.523071274161338806e-02,2.561089396476745605e-02,-2.371364831924438477e-02,-9.070144034922122955e-03
4.581994563341140747e-02,9.158440679311752319e-02,-4.193558916449546814e-02,-4.846160765737295151e-03,-3.362895920872688293e-02,-1.311838328838348389e-01,4.523071274161338806e-02,2.561089396476745605e-02,-2.371364831924438477e-02,-9.070144034922122955e-03
