-5.883423238992691040e-02,-1.040729973465204239e-02,-2.422884339466691017e-03,-8.384956419467926025e-02,6.185461301356554031e-03,-7.950226962566375732e-02,-2.175889536738395691e-02,6.633427739143371582e-02,2.205865085124969482e-02,-1.410032529383897781e-02
-5.883423238992691040e-02,-1.040729973465204239e-02,-2.422884339466691017e-03,-8.384956419467926025e-02,6.185461301356554031e-03,-7.950226962566375732e-02,-2.175889536738395691e-02,6.633427739143371582e-02,2.205865085124969482e-02,-1.410032529383897781e-02
-6.072585657238960266e-02,-2.089471323415637016e-03,7.352788234129548073e-04,-9.132406860589981079e-02,1.700804382562637329e-02,-9.239380806684494019e-02,-2.197854407131671906e-02,7.106382399797439575e-02,1.867036148905754089e-02,-1.554500125348567963e-02
-6.072585657238960266e-02,-2.089471323415637016e-03,7.352788234129548073e-04,-9.132406860589981079e-02,1.700804382562637329e-02,-9.239380806684494019e-02,-2.197854407131671906e-02,7.106382399797439575e-02,1.867036148905754089e-02,-1.554500125348567963e-02
-5.830249562859535217e-02,7.788574323058128357e-03,5.931062041781842709e-04,-9.286531805992126465e-02,2.152397669851779938e-02,-1.002844646573066711e-01,-2.362544462084770203e-02,6.933023780584335327e-02,1.858856901526451111e-02,-1.651243679225444794e-02
-5.830249562859535217e-02,7.788574323058128357e-03,5.931062041781842709e-04,-9.286531805992126465e-02,2.152397669851779938e-02,-1.002844646573066711e-01,-2.362544462084770203e-02,6.933023780584335327e-02,1.858856901526451111e-02,-1.651243679225444794e-02
-5.714341253042221069e-02,1.584056206047534943e-02,-1.625502831302583218e-03,-9.448401629924774170e-02,2.849529124796390533e-02,-1.063704565167427063e-01,-2.390437945723533630e-02,6.833849847316741943e-02,1.776760816574096680e-02,-1.739089563488960266e-02
-5.714341253042221069e-02,1.584056206047534943e-02,-1.625502831302583218e-03,-9.448401629924774170e-02,2.849529124796390533e-02,-1.063704565167427063e-01,-2.390437945723533630e-02,6.833849847316741943e-02,1.776760816574096680e-02,-1.739089563488960266e-02
-5.652295798063278198e-02,2.167400531470775604e-02,-5.186659749597311020e-03,-9.561938792467117310e-02,3.333493322134017944e-02,-1.111961379647254944e-01,-2.400740236043930054e-02,6.899777799844741821e-02,1.921659708023071289e-02,-1.821546256542205811e-02
-5.652295798063278198e-02,2.167400531470775604e-02,-5.186659749597311020e-03,-9.561938792467117310e-02,3.333493322134017944e-02,-1.111961379647254944e-01,-2.400740236043930054e-02,6.899777799844741821e-02,1.921659708023071289e-02,-1.821546256542205811e-02
-5.354147776961326599e-02,2.782930061221122742e-02,-6.050773430615663528e-03,-9.792283922433853149e-02,3.665737807750701904e-02,-1.170917153358459473e-01,-2.413822710514068604e-02,6.963834911584854126e-02,1.873064786195755005e-02,-1.751958020031452179e-02
-5.354147776961326599e-02,2.782930061221122742e-02,-6.050773430615663528e-03,-9.792283922433853149e-02,3.665737807750701904e-02,-1.170917153358459473e-01,-2.413822710514068604e-02,6.963834911584854126e-02,1.873064786195755005e-02,-1.751958020031452179e-02
-5.268900841474533081e-02,3.360531479120254517e-02,-8.470510132610797882e-03,-1.010160669684410095e-01,3.944890946149826050e-02,-1.203686892986297607e-01,-2.511084824800491333e-02,7.058592885732650757e-02,1.961026340723037720e-02,-1.603324525058269501e-02
-5.268900841474533081e-02,3.360531479120254517e-02,-8.470510132610797882e-03,-1.010160669684410095e-01,3.944890946149826050e-02,-1.203686892986297607e-01,-2.511084824800491333e-02,7.058592885732650757e-02,1.961026340723037720e-02,-1.603324525058269501e-02
-5.083216354250907898e-02,3.781863674521446228e-02,-1.061393693089485168e-02,-1.033945977687835693e-01,4.145102947950363159e-02,-1.238606274127960205e-01,-2.321251295506954193e-02,7.285535335540771484e-02,1.951661147177219391e-02,-1.625514589250087738e-02
-5.083216354250907898e-02,3.781863674521446228e-02,-1.061393693089485168e-02,-1.033945977687835693e-01,4.145102947950363159e-02,-1.238606274127960205e-01,-2.321251295506954193e-02,7.285535335540771484e-02,1.951661147177219391e-02,-1.625514589250087738e-02
-4.969863966107368469e-02,4.194648563861846924e-02,-1.135380472987890244e-02,-1.055422276258468628e-01,4.282347857952117920e-02,-1.276544034481048584e-01,-2.367286756634712219e-02,7.320488989353179932e-02,2.079752273857593536e-02,-1.484360545873641968e-02
-4.969863966107368469e-02,4.194648563861846924e-02,-1.135380472987890244e-02,-1.055422276258468628e-01,4.282347857952117920e-02,-1.276544034481048584e-01,-2.367286756634712219e-02,7.320488989353179932e-02,2.079752273857593536e-02,-1.484360545873641968e-02
-4.714911803603172302e-02,4.723630473017692566e-02,-1.260703150182962418e-02,-1.076587662100791931e-01,4.310273006558418274e-02,-1.301245093345642090e-01,-2.343750372529029846e-02,7.422994822263717651e-02,2.158455178141593933e-02,-1.523833535611629486e-02
-4.714911803603172302e-02,4.723630473017692566e-02,-1.260703150182962418e-02,-1.076587662100791931e-01,4.310273006558418274e-02,-1.301245093345642090e-01,-2.343750372529029846e-02,7.422994822263717651e-02,2.158455178141593933e-02,-1.523833535611629486e-02
-4.744392633438110352e-02,5.235028639435768127e-02,-1.361308153718709946e-02,-1.091989055275917053e-01,4.335251078009605408e-02,-1.308264732360839844e-01,-2.324541471898555756e-02,7.433275878429412842e-02,2.113191038370132446e-02,-1.415803562849760056e-02
-4.744392633438110352e-02,5.235028639435768127e-02,-1.361308153718709946e-02,-1.091989055275917053e-01,4.335251078009605408e-02,-1.308264732360839844e-01,-2.324541471898555756e-02,7.433275878429412842e-02,2.113191038370132446e-02,-1.415803562849760056e-02
-4.676883295178413391e-02,5.444533377885818481e-02,-1.483485475182533264e-02,-1.092458143830299377e-01,4.477401450276374817e-02,-1.315342634916305542e-01,-2.406048774719238281e-02,7.630413770675659180e-02,2.002009004354476929e-02,-1.476946007460355759e-02
-4.676883295178413391e-02,5.444533377885818481e-02,-1.483485475182533264e-02,-1.092458143830299377e-01,4.477401450276374817e-02,-1.315342634916305542e-01,-2.406048774719238281e-02,7.630413770675659180e-02,2.002009004354476929e-02,-1.476946007460355759e-02
-4.589826241135597229e-02,5.717508122324943542e-02,-1.513954531401395798e-02,-1.111764609813690186e-01,4.402878507971763611e-02,-1.324539333581924438e-01,-2.377110347151756287e-02,7.827053219079971313e-02,2.025845274329185486e-02,-1.489281188696622849e-02
-4.589826241135597229e-02,5.717508122324943542e-02,-1.513954531401395798e-02,-1.111764609813690186e-01,4.402878507971763611e-02,-1.324539333581924438e-01,-2.377110347151756287e-02,7.827053219079971313e-02,2.025845274329185486e-02,-1.489281188696622849e-02
-4.469195380806922913e-02,5.976092070341110229e-02,-1.458523236215114594e-02,-1.119733974337577820e-01,4.394017532467842102e-02,-1.338536739349365234e-01,-2.227192372083663940e-02,8.016273379325866699e-02,1.733425259590148926e-02,-1.461847871541976929e-02
-4.469195380806922913e-02,5.976092070341110229e-02,-1.458523236215114594e-02,-1.119733974337577820e-01,4.394017532467842102e-02,-1.338536739349365234e-01,-2.227192372083663940e-02,8.016273379325866699e-02,1.733425259590148926e-02,-1.461847871541976929e-02
-4.281665757298469543e-02,6.220787391066551208e-02,-1.413477584719657898e-02,-1.122547015547752380e-01,4.456186667084693909e-02,-1.343290656805038452e-01,-2.466156706213951111e-02,8.053483814001083374e-02,1.619443483650684357e-02,-1.484626531600952148e-02
-4.281665757298469543e-02,6.220787391066551208e-02,-1.413477584719657898e-02,-1.122547015547752380e-01,4.456186667084693909e-02,-1.343290656805038452e-01,-2.466156706213951111e-02,8.053483814001083374e-02,1.619443483650684357e-02,-1.484626531600952148e-02
-4.142534732818603516e-02,6.415401399135589600e-02,-1.544972136616706848e-02,-1.136781424283981323e-01,4.336393252015113831e-02,-1.330765634775161743e-01,-2.523754909634590149e-02,8.223862200975418091e-02,1.546429283916950226e-02,-1.437624637037515640e-02
-4.142534732818603516e-02,6.415401399135589600e-02,-1.544972136616706848e-02,-1.136781424283981323e-01,4.336393252015113831e-02,-1.330765634775161743e-01,-2.523754909634590149e-02,8.223862200975418091e-02,1.546429283916950226e-02,-1.437624637037515640e-02
-4.223907366394996643e-02,6.641907989978790283e-02,-1.458938326686620712e-02,-1.138196364045143127e-01,4.177807644009590149e-02,-1.342515051364898682e-01,-2.421843819320201874e-02,8.366227149963378906e-02,1.455905381590127945e-02,-1.428909040987491608e-02
-4.223907366394996643e-02,6.641907989978790283e-02,-1.458938326686620712e-02,-1.138196364045143127e-01,4.177807644009590149e-02,-1.342515051364898682e-01,-2.421843819320201874e-02,8.366227149963378906e-02,1.455905381590127945e-02,-1.428909040987491608e-02
-3.925973922014236450e-02,6.899092346429824829e-02,-1.517517119646072388e-02,-1.143586263060569763e-01,4.150235280394554138e-02,-1.332916915416717529e-01,-2.529225312173366547e-02,8.447885513305664062e-02,1.218240242451429367e-02,-1.447098702192306519e-02
-3.925973922014236450e-02,6.899092346429824829e-02,-1.517517119646072388e-02,-1.143586263060569763e-01,4.150235280394554138e-02,-1.332916915416717529e-01,-2.529225312173366547e-02,8.447885513305664062e-02,1.218240242451429367e-02,-1.447098702192306519e-02
-3.890199959278106689e-02,7.051957398653030396e-02,-1.498145889490842819e-02,-1.152075380086898804e-01,4.080879688262939453e-02,-1.328763961791992188e-01,-2.552649751305580139e-02,8.483954519033432007e-02,1.094486098736524582e-02,-1.349927298724651337e-02
-3.890199959278106689e-02,7.051957398653030396e-02,-1.498145889490842819e-02,-1.152075380086898804e-01,4.080879688262939453e-02,-1.328763961791992188e-01,-2.552649751305580139e-02,8.483954519033432007e-02,1.094486098736524582e-02,-1.349927298724651337e-02
-3.747546672821044922e-02,7.255994528532028198e-02,-1.579295657575130463e-02,-1.152788475155830383e-01,3.909787535667419434e-02,-1.337397247552871704e-01,-2.403951622545719147e-02,8.690406382083892822e-02,1.095248013734817505e-02,-1.479744445532560349e-02
-3.747546672821044922e-02,7.255994528532028198e-02,-1.579295657575130463e-02,-1.152788475155830383e-01,3.909787535667419434e-02,-1.337397247552871704e-01,-2.403951622545719147e-02,8.690406382083892822e-02,1.095248013734817505e-02,-1.479744445532560349e-02
-3.658582270145416260e-02,7.326191663742065430e-02,-1.476428005844354630e-02,-1.163643226027488708e-01,3.817661106586456299e-02,-1.334099769592285156e-01,-2.462363988161087036e-02,9.009171277284622192e-02,8.850169368088245392e-03,-1.550856977701187134e-02
-3.658582270145416260e-02,7.326191663742065430e-02,-1.476428005844354630e-02,-1.163643226027488708e-01,3.817661106586456299e-02,-1.334099769592285156e-01,-2.462363988161087036e-02,9.009171277284622192e-02,8.850169368088245392e-03,-1.550856977701187134e-02
-3.506261110305786133e-02,7.556720077991485596e-02,-1.343518402427434921e-02,-1.164869442582130432e-01,3.754026442766189575e-02,-1.341847926378250122e-01,-2.615480870008468628e-02,9.061487019062042236e-02,6.648221518844366074e-03,-1.483743172138929367e-02
-3.506261110305786133e-02,7.556720077991485596e-02,-1.343518402427434921e-02,-1.164869442582130432e-01,3.754026442766189575e-02,-1.341847926378250122e-01,-2.615480870008468628e-02,9.061487019062042236e-02,6.648221518844366074e-03,-1.483743172138929367e-02
-3.416350856423377991e-02,7.525795698165893555e-02,-1.287451758980751038e-02,-1.169926077127456665e-01,3.649728745222091675e-02,-1.343901306390762329e-01,-2.516020648181438446e-02,9.265681356191635132e-02,5.280147306621074677e-03,-1.530513539910316467e-02
-3.416350856423377991e-02,7.525795698165893555e-02,-1.287451758980751038e-02,-1.169926077127456665e-01,3.649728745222091675e-02,-1.343901306390762329e-01,-2.516020648181438446e-02,9.265681356191635132e-02,5.280147306621074677e-03,-1.530513539910316467e-02
-3.257045522332191467e-02,7.761768251657485962e-02,-1.253329869359731674e-02,-1.174250170588493347e-01,3.572803735733032227e-02,-1.334409415721893311e-01,-2.649945020675659180e-02,9.409918636083602905e-02,2.814101753756403923e-03,-1.560372952371835709e-02
-3.257045522332191467e-02,7.761768251657485962e-02,-1.253329869359731674e-02,-1.174250170588493347e-01,3.572803735733032227e-02,-1.334409415721893311e-01,-2.649945020675659180e-02,9.409918636083602905e-02,2.814101753756403923e-03,-1.560372952371835709e-02
-3.206938505172729492e-02,8.002690225839614868e-02,-1.241494249552488327e-02,-1.173639670014381409e-01,3.301718831062316895e-02,-1.338882446289062500e-01,-2.551411092281341553e-02,9.694094210863113403e-02,1.881342614069581032e-03,-1.682977378368377686e-02
-3.206938505172729492e-02,8.002690225839614868e-02,-1.241494249552488327e-02,-1.173639670014381409e-01,3.301718831062316895e-02,-1.338882446289062500e-01,-2.551411092281341553e-02,9.694094210863113403e-02,1.881342614069581032e-03,-1.682977378368377686e-02
-2.993513084948062897e-02,7.816255092620849609e-02,-1.105656102299690247e-02,-1.188227832317352295e-01,3.256578743457794189e-02,-1.319358497858047485e-01,-2.729473263025283813e-02,9.758538752794265747e-02,6.030665826983749866e-04,-1.685982197523117065e-02
-2.993513084948062897e-02,7.816255092620849609e-02,-1.105656102299690247e-02,-1.188227832317352295e-01,3.256578743457794189e-02,-1.319358497858047485e-01,-2.729473263025283813e-02,9.758538752794265747e-02,6.030665826983749866e-04,-1.685982197523117065e-02
-2.922898717224597931e-02,8.037212491035461426e-02,-1.056498941034078598e-02,-1.183778941631317139e-01,3.283222392201423645e-02,-1.326362043619155884e-01,-2.826336584985256195e-02,9.903996437788009644e-02,-1.369380159303545952e-03,-1.764893718063831329e-02
-2.922898717224597931e-02,8.037212491035461426e-02,-1.056498941034078598e-02,-1.183778941631317139e-01,3.283222392201423645e-02,-1.326362043619155884e-01,-2.826336584985256195e-02,9.903996437788009644e-02,-1.369380159303545952e-03,-1.764893718063831329e-02
-2.786535024642944336e-02,8.111866563558578491e-02,-1.045023836195468903e-02,-1.194144561886787415e-01,3.099358081817626953e-02,-1.330952048301696777e-01,-2.523612976074218750e-02,1.013772562146186829e-01,-3.178961342200636864e-03,-1.803478226065635681e-02
-2.786535024642944336e-02,8.111866563558578491e-02,-1.045023836195468903e-02,-1.194144561886787415e-01,3.099358081817626953e-02,-1.330952048301696777e-01,-2.523612976074218750e-02,1.013772562146186829e-01,-3.178961342200636864e-03,-1.803478226065635681e-02
-2.633442543447017670e-02,8.197669684886932373e-02,-1.079862844198942184e-02,-1.199331805109977722e-01,3.109746798872947693e-02,-1.328159719705581665e-01,-2.664131484925746918e-02,1.025182381272315979e-01,-3.104561241343617439e-03,-1.903900131583213806e-02
-2.633442543447017670e-02,8.197669684886932373e-02,-1.079862844198942184e-02,-1.199331805109977722e-01,3.109746798872947693e-02,-1.328159719705581665e-01,-2.664131484925746918e-02,1.025182381272315979e-01,-3.104561241343617439e-03,-1.903900131583213806e-02
-2.684452012181282043e-02,8.569313585758209229e-02,-1.000126544386148453e-02,-1.206844672560691833e-01,2.931658737361431122e-02,-1.307269632816314697e-01,-2.707140520215034485e-02,1.031608581542968750e-01,-4.932052455842494965e-03,-1.956027373671531677e-02
-2.684452012181282043e-02,8.569313585758209229e-02,-1.000126544386148453e-02,-1.206844672560691833e-01,2.931658737361431122e-02,-1.307269632816314697e-01,-2.707140520215034485e-02,1.031608581542968750e-01,-4.932052455842494965e-03,-1.956027373671531677e-02
