-5.335376784205436707e-02,1.129322033375501633e-02,-1.013072952628135681e-02,3.862017393112182617e-02,2.712380886077880859e-02,3.914019092917442322e-02,1.605934649705886841e-02,7.376813888549804688e-02,3.316788002848625183e-02,1.398703362792730331e-02
-5.335376784205436707e-02,1.129322033375501633e-02,-1.013072952628135681e-02,3.862017393112182617e-02,2.712380886077880859e-02,3.914019092917442322e-02,1.605934649705886841e-02,7.376813888549804688e-02,3.316788002848625183e-02,1.398703362792730331e-02
-5.210543051362037659e-02,1.947122812271118164e-02,-8.583676069974899292e-03,3.116764687001705170e-02,3.353797271847724915e-02,2.795255742967128754e-02,5.510781891644001007e-03,8.148796856403350830e-02,3.817601129412651062e-02,1.341962628066539764e-02
-5.210543051362037659e-02,1.947122812271118164e-02,-8.583676069974899292e-03,3.116764687001705170e-02,3.353797271847724915e-02,2.795255742967128754e-02,5.510781891644001007e-03,8.148796856403350830e-02,3.817601129412651062e-02,1.341962628066539764e-02
-4.883497208356857300e-02,2.943798340857028961e-02,-7.599698379635810852e-03,2.718300186097621918e-02,3.574758768081665039e-02,2.146567963063716888e-02,-3.404628369025886059e-04,8.350656926631927490e-02,3.945099189877510071e-02,1.307094469666481018e-02
-4.883497208356857300e-02,2.943798340857028961e-02,-7.599698379635810852e-03,2.718300186097621918e-02,3.574758768081665039e-02,2.146567963063716888e-02,-3.404628369025886059e-04,8.350656926631927490e-02,3.945099189877510071e-02,1.307094469666481018e-02
-4.743706062436103821e-02,3.779204562306404114e-02,-7.828515022993087769e-03,2.416896447539329529e-02,3.935319185256958008e-02,1.695349439978599548e-02,-2.802044386044144630e-03,8.443413674831390381e-02,3.839969262480735779e-02,1.346533279865980148e-02
-4.743706062436103821e-02,3.779204562306404114e-02,-7.828515022993087769e-03,2.416896447539329529e-02,3.935319185256958008e-02,1.695349439978599548e-02,-2.802044386044144630e-03,8.443413674831390381e-02,3.839969262480735779e-02,1.346533279865980148e-02
-4.498177394270896912e-02,4.687318205833435059e-02,-9.241860359907150269e-03,2.209677919745445251e-02,4.059267789125442505e-02,1.246237661689519882e-02,-5.150604527443647385e-03,8.559413254261016846e-02,3.851853683590888977e-02,1.415436901152133942e-02
-4.498177394270896912e-02,4.687318205833435059e-02,-9.241860359907150269e-03,2.209677919745445251e-02,4.059267789125442505e-02,1.246237661689519882e-02,-5.150604527443647385e-03,8.559413254261016846e-02,3.851853683590888977e-02,1.415436901152133942e-02
-4.181138053536415100e-02,5.554444342851638794e-02,-9.632628411054611206e-03,1.997238770127296448e-02,4.079556837677955627e-02,9.934712201356887817e-03,-7.508927490562200546e-03,8.700316399335861206e-02,3.762493655085563660e-02,1.347697433084249496e-02
-4.181138053536415100e-02,5.554444342851638794e-02,-9.632628411054611206e-03,1.997238770127296448e-02,4.079556837677955627e-02,9.934712201356887817e-03,-7.508927490562200546e-03,8.700316399335861206e-02,3.762493655085563660e-02,1.347697433084249496e-02
-3.942451253533363342e-02,6.264016032218933105e-02,-1.090153492987155914e-02,1.671832986176013947e-02,4.190851747989654541e-02,6.631608121097087860e-03,-9.752028621733188629e-03,8.712713420391082764e-02,3.840992972254753113e-02,1.579537801444530487e-02
-3.942451253533363342e-02,6.264016032218933105e-02,-1.090153492987155914e-02,1.671832986176013947e-02,4.190851747989654541e-02,6.631608121097087860e-03,-9.752028621733188629e-03,8.712713420391082764e-02,3.840992972254753113e-02,1.579537801444530487e-02
-3.888812288641929626e-02,6.635026633739471436e-02,-1.320211216807365417e-02,1.593172736465930939e-02,4.116640612483024597e-02,4.594396334141492844e-03,-8.951134048402309418e-03,8.876681327819824219e-02,3.890940919518470764e-02,1.703898049890995026e-02
-3.888812288641929626e-02,6.635026633739471436e-02,-1.320211216807365417e-02,1.593172736465930939e-02,4.116640612483024597e-02,4.594396334141492844e-03,-8.951134048402309418e-03,8.876681327819824219e-02,3.890940919518470764e-02,1.703898049890995026e-02
-3.566977754235267639e-02,7.099440693855285645e-02,-1.299270242452621460e-02,1.353759784251451492e-02,4.203949868679046631e-02,1.064005424268543720e-03,-9.389994665980339050e-03,8.981923758983612061e-02,3.848659992218017578e-02,1.765308156609535217e-02
-3.566977754235267639e-02,7.099440693855285645e-02,-1.299270242452621460e-02,1.353759784251451492e-02,4.203949868679046631e-02,1.064005424268543720e-03,-9.389994665980339050e-03,8.981923758983612061e-02,3.848659992218017578e-02,1.765308156609535217e-02
-3.462262079119682312e-02,7.659629732370376587e-02,-1.392013579607009888e-02,1.208717748522758484e-02,4.319909960031509399e-02,-1.888609258458018303e-03,-1.026096846908330917e-02,9.083574265241622925e-02,3.857215493917465210e-02,1.830048114061355591e-02
-3.462262079119682312e-02,7.659629732370376587e-02,-1.392013579607009888e-02,1.208717748522758484e-02,4.319909960031509399e-02,-1.888609258458018303e-03,-1.026096846908330917e-02,9.083574265241622925e-02,3.857215493917465210e-02,1.830048114061355591e-02
-3.230129927396774292e-02,8.376034349203109741e-02,-1.562040857970714569e-02,1.115491706877946854e-02,4.209553822875022888e-02,-3.284638747572898865e-03,-1.160274539142847061e-02,9.036845713853836060e-02,3.822552040219306946e-02,2.011595293879508972e-02
-3.230129927396774292e-02,8.376034349203109741e-02,-1.562040857970714569e-02,1.115491706877946854e-02,4.209553822875022888e-02,-3.284638747572898865e-03,-1.160274539142847061e-02,9.036845713853836060e-02,3.822552040219306946e-02,2.011595293879508972e-02
-3.127097338438034058e-02,8.639146387577056885e-02,-1.687170751392841339e-02,1.017848309129476547e-02,4.300085455179214478e-02,-4.819617606699466705e-03,-1.199560239911079407e-02,9.123273193836212158e-02,3.819576278328895569e-02,2.083985880017280579e-02
-3.127097338438034058e-02,8.639146387577056885e-02,-1.687170751392841339e-02,1.017848309129476547e-02,4.300085455179214478e-02,-4.819617606699466705e-03,-1.199560239911079407e-02,9.123273193836212158e-02,3.819576278328895569e-02,2.083985880017280579e-02
-3.070319630205631256e-02,9.011018276214599609e-02,-1.713268086314201355e-02,8.443648926913738251e-03,4.353689402341842651e-02,-7.829206995666027069e-03,-1.204743795096874237e-02,9.259292483329772949e-02,3.935259953141212463e-02,2.104704082012176514e-02
-3.070319630205631256e-02,9.011018276214599609e-02,-1.713268086314201355e-02,8.443648926913738251e-03,4.353689402341842651e-02,-7.829206995666027069e-03,-1.204743795096874237e-02,9.259292483329772949e-02,3.935259953141212463e-02,2.104704082012176514e-02
-2.845360897481441498e-02,9.374171495437622070e-02,-1.794977672398090363e-02,7.452870253473520279e-03,4.296803846955299377e-02,-1.060485839843750000e-02,-9.802602231502532959e-03,9.262709319591522217e-02,3.874694555997848511e-02,2.237723767757415771e-02
-2.845360897481441498e-02,9.374171495437622070e-02,-1.794977672398090363e-02,7.452870253473520279e-03,4.296803846955299377e-02,-1.060485839843750000e-02,-9.802602231502532959e-03,9.262709319591522217e-02,3.874694555997848511e-02,2.237723767757415771e-02
-2.700094319880008698e-02,9.669684618711471558e-02,-1.851331628859043121e-02,6.569657940417528152e-03,4.513292014598846436e-02,-1.215163338929414749e-02,-1.096403505653142929e-02,9.340547025203704834e-02,3.781237080693244934e-02,2.241187728941440582e-02
-2.700094319880008698e-02,9.669684618711471558e-02,-1.851331628859043121e-02,6.569657940417528152e-03,4.513292014598846436e-02,-1.215163338929414749e-02,-1.096403505653142929e-02,9.340547025203704834e-02,3.781237080693244934e-02,2.241187728941440582e-02
-2.474130690097808838e-02,9.881951659917831421e-02,-1.868391968309879303e-02,3.703830996528267860e-03,4.318642243742942810e-02,-1.315895281732082367e-02,-1.055668480694293976e-02,9.464383125305175781e-02,3.835757076740264893e-02,2.385738864541053772e-02
-2.474130690097808838e-02,9.881951659917831421e-02,-1.868391968309879303e-02,3.703830996528267860e-03,4.318642243742942810e-02,-1.315895281732082367e-02,-1.055668480694293976e-02,9.464383125305175781e-02,3.835757076740264893e-02,2.385738864541053772e-02
-2.411436662077903748e-02,1.014340147376060486e-01,-1.837834715843200684e-02,3.271204186603426933e-03,4.390920698642730713e-02,-1.534247118979692459e-02,-1.149918604642152786e-02,9.415397793054580688e-02,3.824785351753234863e-02,2.517240680754184723e-02
-2.411436662077903748e-02,1.014340147376060486e-01,-1.837834715843200684e-02,3.271204186603426933e-03,4.390920698642730713e-02,-1.534247118979692459e-02,-1.149918604642152786e-02,9.415397793054580688e-02,3.824785351753234863e-02,2.517240680754184723e-02
-2.167241647839546204e-02,1.037472933530807495e-01,-1.919889263808727264e-02,2.301505301147699356e-03,4.487418755888938904e-02,-1.634500548243522644e-02,-9.936721995472908020e-03,9.521985054016113281e-02,3.624753654003143311e-02,2.508535794913768768e-02
-2.167241647839546204e-02,1.037472933530807495e-01,-1.919889263808727264e-02,2.301505301147699356e-03,4.487418755888938904e-02,-1.634500548243522644e-02,-9.936721995472908020e-03,9.521985054016113281e-02,3.624753654003143311e-02,2.508535794913768768e-02
-1.940695755183696747e-02,1.048831120133399963e-01,-1.974632032215595245e-02,1.587233040481805801e-03,4.320469871163368225e-02,-1.868806034326553345e-02,-9.934445843100547791e-03,9.555703401565551758e-02,3.664996474981307983e-02,2.734221331775188446e-02
-1.940695755183696747e-02,1.048831120133399963e-01,-1.974632032215595245e-02,1.587233040481805801e-03,4.320469871163368225e-02,-1.868806034326553345e-02,-9.934445843100547791e-03,9.555703401565551758e-02,3.664996474981307983e-02,2.734221331775188446e-02
-1.977252960205078125e-02,1.084512770175933838e-01,-2.009010873734951019e-02,5.659858579747378826e-04,4.249789565801620483e-02,-2.044011093676090240e-02,-8.347649127244949341e-03,9.677806496620178223e-02,3.832054510712623596e-02,2.590195834636688232e-02
-1.977252960205078125e-02,1.084512770175933838e-01,-2.009010873734951019e-02,5.659858579747378826e-04,4.249789565801620483e-02,-2.044011093676090240e-02,-8.347649127244949341e-03,9.677806496620178223e-02,3.832054510712623596e-02,2.590195834636688232e-02
-1.829642429947853088e-02,1.096369698643684387e-01,-2.063445188105106354e-02,-8.360892534255981445e-04,4.307198897004127502e-02,-2.047235518693923950e-02,-8.901687338948249817e-03,9.732589125633239746e-02,3.804056346416473389e-02,2.629132010042667389e-02
-1.829642429947853088e-02,1.096369698643684387e-01,-2.063445188105106354e-02,-8.360892534255981445e-04,4.307198897004127502e-02,-2.047235518693923950e-02,-8.901687338948249817e-03,9.732589125633239746e-02,3.804056346416473389e-02,2.629132010042667389e-02
-1.643728837370872498e-02,1.129774600267410278e-01,-1.900104992091655731e-02,-2.133382949978113174e-03,4.339070990681648254e-02,-2.206913940608501434e-02,-8.529406972229480743e-03,9.680414944887161255e-02,3.520425036549568176e-02,2.792447991669178009e-02
-1.643728837370872498e-02,1.129774600267410278e-01,-1.900104992091655731e-02,-2.133382949978113174e-03,4.339070990681648254e-02,-2.206913940608501434e-02,-8.529406972229480743e-03,9.680414944887161255e-02,3.520425036549568176e-02,2.792447991669178009e-02
-1.542622409760951996e-02,1.123123466968536377e-01,-1.928759552538394928e-02,-3.823607927188277245e-03,4.362701624631881714e-02,-2.367549762129783630e-02,-7.056421600282192230e-03,9.652619808912277222e-02,3.698075935244560242e-02,2.863937430083751678e-02
-1.542622409760951996e-02,1.123123466968536377e-01,-1.928759552538394928e-02,-3.823607927188277245e-03,4.362701624631881714e-02,-2.367549762129783630e-02,-7.056421600282192230e-03,9.652619808912277222e-02,3.698075935244560242e-02,2.863937430083751678e-02
-1.466993894428014755e-02,1.150968000292778015e-01,-2.010998874902725220e-02,-5.422145593911409378e-03,4.394339770078659058e-02,-2.280959859490394592e-02,-7.420609705150127411e-03,9.832142293453216553e-02,3.467994928359985352e-02,2.927443757653236389e-02
-1.466993894428014755e-02,1.150968000292778015e-01,-2.010998874902725220e-02,-5.422145593911409378e-03,4.394339770078659058e-02,-2.280959859490394592e-02,-7.420609705150127411e-03,9.832142293453216553e-02,3.467994928359985352e-02,2.927443757653236389e-02
-1.430941838771104813e-02,1.177972480654716492e-01,-2.022293210029602051e-02,-4.180499352514743805e-03,4.291466623544692993e-02,-2.620228566229343414e-02,-6.233136635273694992e-03,9.856038540601730347e-02,3.461907058954238892e-02,2.979152090847492218e-02
-1.430941838771104813e-02,1.177972480654716492e-01,-2.022293210029602051e-02,-4.180499352514743805e-03,4.291466623544692993e-02,-2.620228566229343414e-02,-6.233136635273694992e-03,9.856038540601730347e-02,3.461907058954238892e-02,2.979152090847492218e-02
-1.443098671734333038e-02,1.188853234052658081e-01,-1.972243003547191620e-02,-5.737593863159418106e-03,4.198506847023963928e-02,-2.611265145242214203e-02,-6.461688783019781113e-03,9.909680485725402832e-02,3.593850508332252502e-02,2.940041571855545044e-02
-1.443098671734333038e-02,1.188853234052658081e-01,-1.972243003547191620e-02,-5.737593863159418106e-03,4.198506847023963928e-02,-2.611265145242214203e-02,-6.461688783019781113e-03,9.909680485725402832e-02,3.593850508332252502e-02,2.940041571855545044e-02
-1.213428750634193420e-02,1.210905611515045166e-01,-2.015237696468830109e-02,-8.019573055207729340e-03,4.343042522668838501e-02,-2.733005583286285400e-02,-5.485573317855596542e-03,9.870371222496032715e-02,3.552998229861259460e-02,3.023293986916542053e-02
-1.213428750634193420e-02,1.210905611515045166e-01,-2.015237696468830109e-02,-8.019573055207729340e-03,4.343042522668838501e-02,-2.733005583286285400e-02,-5.485573317855596542e-03,9.870371222496032715e-02,3.552998229861259460e-02,3.023293986916542053e-02
-1.128108333796262741e-02,1.218239739537239075e-01,-1.942193694412708282e-02,-8.935651741921901703e-03,4.295635968446731567e-02,-2.825087122619152069e-02,-4.097985103726387024e-03,9.874241054058074951e-02,3.474330902099609375e-02,3.089091368019580841e-02
-1.128108333796262741e-02,1.218239739537239075e-01,-1.942193694412708282e-02,-8.935651741921901703e-03,4.295635968446731567e-02,-2.825087122619152069e-02,-4.097985103726387024e-03,9.874241054058074951e-02,3.474330902099609375e-02,3.089091368019580841e-02
-1.002301368862390518e-02,1.241193711757659912e-01,-1.962653361260890961e-02,-9.229154326021671295e-03,4.243803396821022034e-02,-2.875321730971336365e-02,-2.900743624195456505e-03,9.918606281280517578e-02,3.307369351387023926e-02,3.107526712119579315e-02
-1.002301368862390518e-02,1.241193711757659912e-01,-1.962653361260890961e-02,-9.229154326021671295e-03,4.243803396821022034e-02,-2.875321730971336365e-02,-2.900743624195456505e-03,9.918606281280517578e-02,3.307369351387023926e-02,3.107526712119579315e-02
-8.591734804213047028e-03,1.262502372264862061e-01,-1.983150281012058258e-02,-1.032935921102762222e-02,4.229050129652023315e-02,-3.024910017848014832e-02,-3.019009949639439583e-03,1.000335365533828735e-01,3.454071283340454102e-02,3.002439439296722412e-02
-8.591734804213047028e-03,1.262502372264862061e-01,-1.983150281012058258e-02,-1.032935921102762222e-02,4.229050129652023315e-02,-3.024910017848014832e-02,-3.019009949639439583e-03,1.000335365533828735e-01,3.454071283340454102e-02,3.002439439296722412e-02
