5.271406099200248718e-02,4.668591916561126709e-02,-5.774945020675659180e-02,-2.880282886326313019e-02,3.990734741091728210e-02,-5.309600755572319031e-02,2.263565734028816223e-02,4.136471077799797058e-02,7.241953164339065552e-02,3.065817430615425110e-02
5.271406099200248718e-02,4.668591916561126709e-02,-5.774945020675659180e-02,-2.880282886326313019e-02,3.990734741091728210e-02,-5.309600755572319031e-02,2.263565734028816223e-02,4.136471077799797058e-02,7.241953164339065552e-02,3.065817430615425110e-02
5.171825364232063293e-02,5.165633559226989746e-02,-5.598457530140876770e-02,-3.430922329425811768e-02,4.923038929700851440e-02,-6.268112361431121826e-02,1.888423413038253784e-02,4.699151217937469482e-02,7.229592651128768921e-02,2.906193770468235016e-02
5.171825364232063293e-02,5.165633559226989746e-02,-5.598457530140876770e-02,-3.430922329425811768e-02,4.923038929700851440e-02,-6.268112361431121826e-02,1.888423413038253784e-02,4.699151217937469482e-02,7.229592651128768921e-02,2.906193770468235016e-02
5.313197150826454163e-02,6.012759357690811157e-02,-5.585741624236106873e-02,-3.469188883900642395e-02,5.303161963820457458e-02,-6.991568207740783691e-02,1.525048259645700455e-02,4.642063751816749573e-02,7.227648794651031494e-02,2.944323420524597168e-02
5.313197150826454163e-02,6.012759357690811157e-02,-5.585741624236106873e-02,-3.469188883900642395e-02,5.303161963820457458e-02,-6.991568207740783691e-02,1.525048259645700455e-02,4.642063751816749573e-02,7.227648794651031494e-02,2.944323420524597168e-02
5.409988760948181152e-02,6.752764433622360229e-02,-5.744959786534309387e-02,-3.495001420378684998e-02,5.773817747831344604e-02,-7.620458304882049561e-02,1.379112806171178818e-02,4.780869930982589722e-02,7.105123996734619141e-02,2.913096733391284943e-02
5.409988760948181152e-02,6.752764433622360229e-02,-5.744959786534309387e-02,-3.495001420378684998e-02,5.773817747831344604e-02,-7.620458304882049561e-02,1.379112806171178818e-02,4.780869930982589722e-02,7.105123996734619141e-02,2.913096733391284943e-02
5.550038069486618042e-02,7.475320249795913696e-02,-5.992148816585540771e-02,-3.580078855156898499e-02,6.059847772121429443e-02,-8.145762234926223755e-02,1.236065011471509933e-02,4.952414333820343018e-02,7.133717089891433716e-02,2.915053255856037140e-02
5.550038069486618042e-02,7.475320249795913696e-02,-5.992148816585540771e-02,-3.580078855156898499e-02,6.059847772121429443e-02,-8.145762234926223755e-02,1.236065011471509933e-02,4.952414333820343018e-02,7.133717089891433716e-02,2.915053255856037140e-02
5.807078257203102112e-02,8.040820062160491943e-02,-6.101723760366439819e-02,-3.756901994347572327e-02,6.254981458187103271e-02,-8.661469072103500366e-02,1.138153765350580215e-02,5.147252604365348816e-02,7.162998616695404053e-02,2.935021743178367615e-02
5.807078257203102112e-02,8.040820062160491943e-02,-6.101723760366439819e-02,-3.756901994347572327e-02,6.254981458187103271e-02,-8.661469072103500366e-02,1.138153765350580215e-02,5.147252604365348816e-02,7.162998616695404053e-02,2.935021743178367615e-02
5.981869623064994812e-02,8.644339442253112793e-02,-6.360179930925369263e-02,-3.890543058514595032e-02,6.446127593517303467e-02,-8.939220011234283447e-02,1.019139401614665985e-02,5.222148075699806213e-02,7.082285732030868530e-02,3.098404593765735626e-02
5.981869623064994812e-02,8.644339442253112793e-02,-6.360179930925369263e-02,-3.890543058514595032e-02,6.446127593517303467e-02,-8.939220011234283447e-02,1.019139401614665985e-02,5.222148075699806213e-02,7.082285732030868530e-02,3.098404593765735626e-02
6.074522808194160461e-02,9.077773243188858032e-02,-6.652405112981796265e-02,-3.957117348909378052e-02,6.383035331964492798e-02,-8.971838653087615967e-02,1.127002481371164322e-02,5.449192970991134644e-02,6.860493868589401245e-02,3.219914808869361877e-02
6.074522808194160461e-02,9.077773243188858032e-02,-6.652405112981796265e-02,-3.957117348909378052e-02,6.383035331964492798e-02,-8.971838653087615967e-02,1.127002481371164322e-02,5.449192970991134644e-02,6.860493868589401245e-02,3.219914808869361877e-02
6.242541596293449402e-02,9.466608613729476929e-02,-6.617590039968490601e-02,-3.929635137319564819e-02,6.348606199026107788e-02,-9.123642742633819580e-02,9.695294313132762909e-03,5.617353320121765137e-02,6.523481756448745728e-02,3.351177647709846497e-02
6.242541596293449402e-02,9.466608613729476929e-02,-6.617590039968490601e-02,-3.929635137319564819e-02,6.348606199026107788e-02,-9.123642742633819580e-02,9.695294313132762909e-03,5.617353320121765137e-02,6.523481756448745728e-02,3.351177647709846497e-02
6.471960246562957764e-02,9.681887179613113403e-02,-6.700347363948822021e-02,-3.962571918964385986e-02,6.267485022544860840e-02,-9.215828031301498413e-02,8.851450867950916290e-03,5.886707827448844910e-02,6.322470307350158691e-02,3.413781896233558655e-02
6.471960246562957764e-02,9.681887179613113403e-02,-6.700347363948822021e-02,-3.962571918964385986e-02,6.267485022544860840e-02,-9.215828031301498413e-02,8.851450867950916290e-03,5.886707827448844910e-02,6.322470307350158691e-02,3.413781896233558655e-02
6.420318782329559326e-02,1.018621176481246948e-01,-6.763395667076110840e-02,-3.989962488412857056e-02,6.144354864954948425e-02,-8.973113447427749634e-02,8.082511834800243378e-03,6.053527444601058960e-02,5.956007912755012512e-02,3.409649804234504700e-02
6.420318782329559326e-02,1.018621176481246948e-01,-6.763395667076110840e-02,-3.989962488412857056e-02,6.144354864954948425e-02,-8.973113447427749634e-02,8.082511834800243378e-03,6.053527444601058960e-02,5.956007912755012512e-02,3.409649804234504700e-02
6.456962227821350098e-02,1.039621978998184204e-01,-6.881126761436462402e-02,-3.854278475046157837e-02,6.118020415306091309e-02,-8.997820317745208740e-02,7.910874672234058380e-03,6.205558776855468750e-02,5.726077780127525330e-02,3.422073274850845337e-02
6.456962227821350098e-02,1.039621978998184204e-01,-6.881126761436462402e-02,-3.854278475046157837e-02,6.118020415306091309e-02,-8.997820317745208740e-02,7.910874672234058380e-03,6.205558776855468750e-02,5.726077780127525330e-02,3.422073274850845337e-02
6.525696069002151489e-02,1.053614616394042969e-01,-6.917421519756317139e-02,-3.839140757918357849e-02,5.890138819813728333e-02,-9.076585620641708374e-02,7.910169661045074463e-03,6.478992849588394165e-02,5.628790706396102905e-02,3.448684513568878174e-02
6.525696069002151489e-02,1.053614616394042969e-01,-6.917421519756317139e-02,-3.839140757918357849e-02,5.890138819813728333e-02,-9.076585620641708374e-02,7.910169661045074463e-03,6.478992849588394165e-02,5.628790706396102905e-02,3.448684513568878174e-02
6.659739464521408081e-02,1.061163619160652161e-01,-6.963538378477096558e-02,-3.862728923559188843e-02,5.670985206961631775e-02,-8.944419771432876587e-02,8.364801295101642609e-03,6.674328446388244629e-02,5.274856835603713989e-02,3.603250160813331604e-02
6.659739464521408081e-02,1.061163619160652161e-01,-6.963538378477096558e-02,-3.862728923559188843e-02,5.670985206961631775e-02,-8.944419771432876587e-02,8.364801295101642609e-03,6.674328446388244629e-02,5.274856835603713989e-02,3.603250160813331604e-02
6.640850752592086792e-02,1.064722314476966858e-01,-6.925747543573379517e-02,-3.927979990839958191e-02,5.625806376338005066e-02,-8.849112689495086670e-02,7.521527353674173355e-03,6.747371703386306763e-02,5.259556695818901062e-02,3.567380085587501526e-02
6.640850752592086792e-02,1.064722314476966858e-01,-6.925747543573379517e-02,-3.927979990839958191e-02,5.625806376338005066e-02,-8.849112689495086670e-02,7.521527353674173355e-03,6.747371703386306763e-02,5.259556695818901062e-02,3.567380085587501526e-02
6.831335276365280151e-02,1.037945896387100220e-01,-7.026493549346923828e-02,-3.984979540109634399e-02,5.590539798140525818e-02,-8.655293285846710205e-02,7.795971352607011795e-03,6.927459686994552612e-02,5.051951482892036438e-02,3.629309311509132385e-02
6.831335276365280151e-02,1.037945896387100220e-01,-7.026493549346923828e-02,-3.984979540109634399e-02,5.590539798140525818e-02,-8.655293285846710205e-02,7.795971352607011795e-03,6.927459686994552612e-02,5.051951482892036438e-02,3.629309311509132385e-02
6.690210849046707153e-02,1.061216145753860474e-01,-7.039496302604675293e-02,-3.865873813629150391e-02,5.372986942529678345e-02,-8.797240257263183594e-02,6.842211820185184479e-03,7.071667164564132690e-02,5.152169242501258850e-02,3.610838204622268677e-02
6.690210849046707153e-02,1.061216145753860474e-01,-7.039496302604675293e-02,-3.865873813629150391e-02,5.372986942529678345e-02,-8.797240257263183594e-02,6.842211820185184479e-03,7.071667164564132690e-02,5.152169242501258850e-02,3.610838204622268677e-02
6.888317316770553589e-02,1.059581413865089417e-01,-7.052862644195556641e-02,-4.030651971697807312e-02,5.223841220140457153e-02,-8.741721510887145996e-02,7.663675583899021149e-03,7.231903076171875000e-02,4.872449114918708801e-02,3.836603835225105286e-02
6.888317316770553589e-02,1.059581413865089417e-01,-7.052862644195556641e-02,-4.030651971697807312e-02,5.223841220140457153e-02,-8.741721510887145996e-02,7.663675583899021149e-03,7.231903076171875000e-02,4.872449114918708801e-02,3.836603835225105286e-02
6.994087249040603638e-02,1.067111343145370483e-01,-7.161338627338409424e-02,-3.851589933037757874e-02,5.215447768568992615e-02,-8.862900733947753906e-02,6.158261094242334366e-03,7.188759744167327881e-02,4.931108281016349792e-02,3.848712518811225891e-02
6.994087249040603638e-02,1.067111343145370483e-01,-7.161338627338409424e-02,-3.851589933037757874e-02,5.215447768568992615e-02,-8.862900733947753906e-02,6.158261094242334366e-03,7.188759744167327881e-02,4.931108281016349792e-02,3.848712518811225891e-02
6.990883499383926392e-02,1.060409843921661377e-01,-7.009986042976379395e-02,-4.093261063098907471e-02,5.082206800580024719e-02,-8.730207383632659912e-02,6.920275744050741196e-03,7.358933240175247192e-02,4.830751568078994751e-02,3.858930245041847229e-02
6.990883499383926392e-02,1.060409843921661377e-01,-7.009986042976379395e-02,-4.093261063098907471e-02,5.082206800580024719e-02,-8.730207383632659912e-02,6.920275744050741196e-03,7.358933240175247192e-02,4.830751568078994751e-02,3.858930245041847229e-02
7.026164978742599487e-02,1.072793677449226379e-01,-7.140162587165832520e-02,-4.076306521892547607e-02,4.696252942085266113e-02,-8.648192137479782104e-02,8.270175196230411530e-03,7.615924626588821411e-02,4.654933512210845947e-02,3.971550613641738892e-02
7.026164978742599487e-02,1.072793677449226379e-01,-7.140162587165832520e-02,-4.076306521892547607e-02,4.696252942085266113e-02,-8.648192137479782104e-02,8.270175196230411530e-03,7.615924626588821411e-02,4.654933512210845947e-02,3.971550613641738892e-02
7.218958437442779541e-02,1.114402413368225098e-01,-7.423898577690124512e-02,-4.263257607817649841e-02,4.809479787945747375e-02,-8.878539502620697021e-02,6.559464149177074432e-03,7.873506844043731689e-02,4.901801794767379761e-02,3.925787284970283508e-02
7.218958437442779541e-02,1.114402413368225098e-01,-7.423898577690124512e-02,-4.263257607817649841e-02,4.809479787945747375e-02,-8.878539502620697021e-02,6.559464149177074432e-03,7.873506844043731689e-02,4.901801794767379761e-02,3.925787284970283508e-02
7.244380563497543335e-02,1.113567128777503967e-01,-7.331304997205734253e-02,-4.375964775681495667e-02,4.530563950538635254e-02,-8.693616092205047607e-02,4.941901192069053650e-03,8.220420777797698975e-02,4.787462577223777771e-02,3.861522302031517029e-02
7.244380563497543335e-02,1.113567128777503967e-01,-7.331304997205734253e-02,-4.375964775681495667e-02,4.530563950538635254e-02,-8.693616092205047607e-02,4.941901192069053650e-03,8.220420777797698975e-02,4.787462577223777771e-02,3.861522302031517029e-02
7.536928355693817139e-02,1.114502698183059692e-01,-7.334446907043457031e-02,-4.439765214920043945e-02,4.514158889651298523e-02,-8.602716028690338135e-02,2.855332102626562119e-03,8.104149997234344482e-02,4.671056568622589111e-02,4.028876125812530518e-02
7.536928355693817139e-02,1.114502698183059692e-01,-7.334446907043457031e-02,-4.439765214920043945e-02,4.514158889651298523e-02,-8.602716028690338135e-02,2.855332102626562119e-03,8.104149997234344482e-02,4.671056568622589111e-02,4.028876125812530518e-02
7.443114370107650757e-02,1.159863173961639404e-01,-7.162389159202575684e-02,-4.166208952665328979e-02,4.424093663692474365e-02,-9.105650335550308228e-02,6.217057816684246063e-03,8.414193987846374512e-02,4.217419028282165527e-02,3.861160948872566223e-02
7.443114370107650757e-02,1.159863173961639404e-01,-7.162389159202575684e-02,-4.166208952665328979e-02,4.424093663692474365e-02,-9.105650335550308228e-02,6.217057816684246063e-03,8.414193987846374512e-02,4.217419028282165527e-02,3.861160948872566223e-02
7.441716641187667847e-02,1.156358420848846436e-01,-7.003819942474365234e-02,-4.246710985898971558e-02,3.732497245073318481e-02,-8.993306010961532593e-02,4.151600413024425507e-03,8.639152348041534424e-02,4.374332353472709656e-02,3.957173228263854980e-02
7.441716641187667847e-02,1.156358420848846436e-01,-7.003819942474365234e-02,-4.246710985898971558e-02,3.732497245073318481e-02,-8.993306010961532593e-02,4.151600413024425507e-03,8.639152348041534424e-02,4.374332353472709656e-02,3.957173228263854980e-02
6.989064067602157593e-02,1.207529976963996887e-01,-7.378751784563064575e-02,-3.624748811125755310e-02,3.225064650177955627e-02,-9.134810417890548706e-02,2.844930393621325493e-03,9.066731482744216919e-02,4.493233561515808105e-02,3.752886131405830383e-02
6.989064067602157593e-02,1.207529976963996887e-01,-7.378751784563064575e-02,-3.624748811125755310e-02,3.225064650177955627e-02,-9.134810417890548706e-02,2.844930393621325493e-03,9.066731482744216919e-02,4.493233561515808105e-02,3.752886131405830383e-02
6.867011636495590210e-02,1.217295154929161072e-01,-8.502416312694549561e-02,-3.544153273105621338e-02,4.085877910256385803e-02,-8.848684281110763550e-02,1.123483176343142986e-03,9.884686022996902466e-02,4.561492800712585449e-02,3.231465443968772888e-02
6.867011636495590210e-02,1.217295154929161072e-01,-8.502416312694549561e-02,-3.544153273105621338e-02,4.085877910256385803e-02,-8.848684281110763550e-02,1.123483176343142986e-03,9.884686022996902466e-02,4.561492800712585449e-02,3.231465443968772888e-02
5.960730090737342834e-02,1.058744117617607117e-01,-7.991331815719604492e-02,-2.766821347177028656e-02,3.508114814758300781e-02,-8.256652951240539551e-02,-1.298972032964229584e-02,8.763301372528076172e-02,4.780313372611999512e-02,4.645727202296257019e-02
5.960730090737342834e-02,1.058744117617607117e-01,-7.991331815719604492e-02,-2.766821347177028656e-02,3.508114814758300781e-02,-8.256652951240539551e-02,-1.298972032964229584e-02,8.763301372528076172e-02,4.780313372611999512e-02,4.645727202296257019e-02
4.870690405368804932e-02,9.262830018997192383e-02,-1.105088666081428528e-01,-4.074114933609962463e-02,4.237230122089385986e-02,-6.599404662847518921e-02,-1.262225676327943802e-02,1.039266586303710938e-01,4.765489697456359863e-02,6.669514626264572144e-02
4.870690405368804932e-02,9.262830018997192383e-02,-1.105088666081428528e-01,-4.074114933609962463e-02,4.237230122089385986e-02,-6.599404662847518921e-02,-1.262225676327943802e-02,1.039266586303710938e-01,4.765489697456359863e-02,6.669514626264572144e-02
