2.511633560061454773e-02,2.295377291738986969e-02,-2.313972078263759613e-02,1.653152890503406525e-02,2.289503626525402069e-02,-2.903842553496360779e-02,5.695480853319168091e-03,7.391737774014472961e-03,-3.224539011716842651e-02,4.964912682771682739e-02
2.535308711230754852e-02,2.484585903584957123e-02,-2.492477186024188995e-02,1.602132618427276611e-02,2.283794432878494263e-02,-3.084477968513965607e-02,6.204064004123210907e-03,9.208005852997303009e-03,-3.641229122877120972e-02,5.294902622699737549e-02
2.449776045978069305e-02,2.746144495904445648e-02,-2.610990405082702637e-02,1.517568714916706085e-02,2.497808635234832764e-02,-3.137295693159103394e-02,5.085664335638284683e-03,1.106540206819772720e-02,-3.969119489192962646e-02,5.416442081332206726e-02
2.431708015501499176e-02,2.964794076979160309e-02,-2.821471355855464935e-02,1.395101007074117661e-02,2.723444625735282898e-02,-3.160744532942771912e-02,3.508214373141527176e-03,1.268410123884677887e-02,-4.101395979523658752e-02,5.504366010427474976e-02
2.459888719022274017e-02,3.174203261733055115e-02,-2.812846191227436066e-02,1.244829129427671432e-02,2.772437967360019684e-02,-3.196380659937858582e-02,2.936033532023429871e-03,1.263380236923694611e-02,-4.265395179390907288e-02,5.663306638598442078e-02
2.456517331302165985e-02,3.298785910010337830e-02,-2.939189039170742035e-02,1.082563772797584534e-02,2.753483690321445465e-02,-3.085765801370143890e-02,1.511356676928699017e-03,1.367647759616374969e-02,-4.254975914955139160e-02,5.750196427106857300e-02
2.349486388266086578e-02,3.347557038068771362e-02,-3.003413602709770203e-02,1.133397780358791351e-02,2.909187227487564087e-02,-3.219620510935783386e-02,1.751835225149989128e-03,1.394256576895713806e-02,-4.291870445013046265e-02,5.811115726828575134e-02
2.321578934788703918e-02,3.407732024788856506e-02,-3.137502819299697876e-02,1.167028024792671204e-02,2.995532006025314331e-02,-3.186497837305068970e-02,6.133679562481120229e-05,1.353579759597778320e-02,-4.254753142595291138e-02,5.866670608520507812e-02
2.251063100993633270e-02,3.445253893733024597e-02,-3.244030103087425232e-02,1.092260610312223434e-02,2.987643703818321228e-02,-3.149037063121795654e-02,4.648654139600694180e-04,1.501756347715854645e-02,-4.257576912641525269e-02,5.882897600531578064e-02
2.341870963573455811e-02,3.414545208215713501e-02,-3.339471668004989624e-02,1.164555363357067108e-02,3.074776567518711090e-02,-3.203038498759269714e-02,-9.626570681575685740e-05,1.417387556284666061e-02,-4.168250411748886108e-02,5.828161165118217468e-02
2.324768714606761932e-02,3.373657912015914917e-02,-3.357125818729400635e-02,1.180309243500232697e-02,3.129136562347412109e-02,-3.224521502852439880e-02,-5.020311800763010979e-04,1.442935969680547714e-02,-4.220579937100410461e-02,5.931431800127029419e-02
2.366385050117969513e-02,3.346990048885345459e-02,-3.467130661010742188e-02,1.173839066177606583e-02,3.127109259366989136e-02,-3.332336619496345520e-02,-7.479406485799700022e-05,1.471287477761507034e-02,-4.090959578752517700e-02,5.929204449057579041e-02
2.300336956977844238e-02,3.282899409532546997e-02,-3.538216277956962585e-02,1.226740423589944839e-02,3.125587478280067444e-02,-3.335910663008689880e-02,-8.142485166899859905e-04,1.558354403823614120e-02,-3.949388861656188965e-02,5.850291624665260315e-02
2.312790602445602417e-02,3.247620537877082825e-02,-3.689516335725784302e-02,1.266802940517663956e-02,3.085484355688095093e-02,-3.172597289085388184e-02,-8.865427225828170776e-04,1.423967350274324417e-02,-4.031491652131080627e-02,6.024548783898353577e-02
2.395544014871120453e-02,3.166504204273223877e-02,-3.731716051697731018e-02,1.312295161187648773e-02,3.149451315402984619e-02,-3.383393213152885437e-02,-1.334299799054861069e-03,1.471632905304431915e-02,-3.846852853894233704e-02,5.954651162028312683e-02
2.382013946771621704e-02,3.179790452122688293e-02,-3.881100565195083618e-02,1.354381628334522247e-02,3.053884580731391907e-02,-3.364194557070732117e-02,-3.929808444809168577e-04,1.396543346345424652e-02,-3.748460859060287476e-02,5.954655259847640991e-02
2.367143891751766205e-02,3.088538721203804016e-02,-3.818475455045700073e-02,1.324813067913055420e-02,3.000876121222972870e-02,-3.344751149415969849e-02,1.204150903504341841e-04,1.440859213471412659e-02,-3.728139773011207581e-02,5.943828821182250977e-02
2.486715838313102722e-02,3.039164841175079346e-02,-3.916010260581970215e-02,1.350149139761924744e-02,2.983685582876205444e-02,-3.373932465910911560e-02,-1.349898171611130238e-03,1.477613579481840134e-02,-3.643681854009628296e-02,5.964943021535873413e-02
2.625740133225917816e-02,2.949181571602821350e-02,-3.960670530796051025e-02,1.354343630373477936e-02,2.928976528346538544e-02,-3.444519266486167908e-02,-1.240248791873455048e-03,1.486591529101133347e-02,-3.531050682067871094e-02,5.933103710412979126e-02
2.540213987231254578e-02,2.858220227062702179e-02,-3.947982937097549438e-02,1.368815544992685318e-02,2.885057032108306885e-02,-3.427664190530776978e-02,-1.289997133426368237e-03,1.385748945176601410e-02,-3.479238972067832947e-02,6.070233136415481567e-02
2.580106072127819061e-02,2.890053950250148773e-02,-4.052456095814704895e-02,1.380669791251420975e-02,2.903141267597675323e-02,-3.471818193793296814e-02,-1.862265868112444878e-03,1.426156330853700638e-02,-3.362866118550300598e-02,5.990746989846229553e-02
2.681159228086471558e-02,2.807620540261268616e-02,-4.144447669386863708e-02,1.449650805443525314e-02,2.951585315167903900e-02,-3.437945619225502014e-02,-1.686684554442763329e-03,1.351035200059413910e-02,-3.448262438178062439e-02,6.069759652018547058e-02
2.707243710756301880e-02,2.763126976788043976e-02,-4.166892915964126587e-02,1.516460068523883820e-02,2.815415151417255402e-02,-3.451682254672050476e-02,-1.769138965755701065e-03,1.240087486803531647e-02,-3.267828002572059631e-02,6.014757975935935974e-02
2.741904929280281067e-02,2.657942660152912140e-02,-4.214039817452430725e-02,1.606458798050880432e-02,2.815602906048297882e-02,-3.524332493543624878e-02,-2.445853082463145256e-03,1.316364016383886337e-02,-3.160023316740989685e-02,5.950850993394851685e-02
2.777522802352905273e-02,2.621031925082206726e-02,-4.225962981581687927e-02,1.507972553372383118e-02,2.761040814220905304e-02,-3.389383479952812195e-02,-2.238640561699867249e-03,1.346957869827747345e-02,-3.206445276737213135e-02,5.987001582980155945e-02
2.909610979259014130e-02,2.547681331634521484e-02,-4.342279955744743347e-02,1.617592386901378632e-02,2.694619074463844299e-02,-3.476780652999877930e-02,-1.758818863891065121e-03,1.400688290596008301e-02,-3.101804293692111969e-02,5.874763056635856628e-02
2.904936112463474274e-02,2.530111186206340790e-02,-4.261284321546554565e-02,1.574151590466499329e-02,2.732395380735397339e-02,-3.509331494569778442e-02,-1.686525065451860428e-03,1.330956351011991501e-02,-3.118385188281536102e-02,5.948127061128616333e-02
2.927124314010143280e-02,2.372986078262329102e-02,-4.308649525046348572e-02,1.571857742965221405e-02,2.763121016323566437e-02,-3.570218011736869812e-02,-1.174438511952757835e-03,1.427190005779266357e-02,-3.039499372243881226e-02,5.932588502764701843e-02
3.001264110207557678e-02,2.463749423623085022e-02,-4.474070295691490173e-02,1.613670215010643005e-02,2.702978625893592834e-02,-3.551803901791572571e-02,-1.481122104451060295e-03,1.419871207326650620e-02,-2.953858114778995514e-02,5.845762416720390320e-02
3.059019148349761963e-02,2.394652739167213440e-02,-4.481520876288414001e-02,1.763455942273139954e-02,2.659914083778858185e-02,-3.574151918292045593e-02,-8.812078158371150494e-04,1.417108252644538879e-02,-3.007065318524837494e-02,5.795117095112800598e-02
