-2.843509241938591003e-02,1.801543310284614563e-02,7.250549271702766418e-03,-5.420984327793121338e-02,6.252087652683258057e-02,1.605266518890857697e-02,3.635478019714355469e-02,3.778386628255248070e-03,3.701919317245483398e-02,3.464752063155174255e-02
-3.324768319725990295e-02,2.165905386209487915e-02,2.231939230114221573e-03,-5.240594595670700073e-02,6.165856868028640747e-02,1.868833601474761963e-02,3.228695690631866455e-02,3.940054215490818024e-03,3.933026269078254700e-02,3.764997795224189758e-02
-3.468456864356994629e-02,2.505728788673877716e-02,-9.580561891198158264e-04,-5.358247086405754089e-02,6.340663880109786987e-02,1.917839050292968750e-02,3.112995810806751251e-02,5.329001229256391525e-03,3.596412762999534607e-02,4.048980027437210083e-02
-3.484483063220977783e-02,2.714502438902854919e-02,-1.480886014178395271e-03,-5.442490056157112122e-02,6.572452932596206665e-02,1.854098215699195862e-02,2.927300147712230682e-02,6.196761503815650940e-03,3.480631113052368164e-02,4.055872187018394470e-02
-3.537672385573387146e-02,2.892227098345756531e-02,-2.458405215293169022e-03,-5.575259402394294739e-02,6.623324006795883179e-02,1.866052858531475067e-02,2.807076834142208099e-02,7.621000520884990692e-03,3.319461643695831299e-02,4.258169606328010559e-02
-3.570181131362915039e-02,2.980268001556396484e-02,-4.273938946425914764e-03,-5.688994005322456360e-02,6.731282919645309448e-02,1.811208203434944153e-02,2.874350547790527344e-02,8.067172951996326447e-03,3.399415314197540283e-02,4.264268651604652405e-02
-3.548381477594375610e-02,3.046830557286739349e-02,-4.000638145953416824e-03,-5.654489248991012573e-02,6.909576803445816040e-02,1.777300238609313965e-02,2.743283659219741821e-02,8.098633959889411926e-03,3.229993581771850586e-02,4.314795136451721191e-02
-3.564094379544258118e-02,3.151164948940277100e-02,-3.923368640244007111e-03,-5.711691454052925110e-02,7.034587860107421875e-02,1.775109209120273590e-02,2.601365372538566589e-02,7.665129844099283218e-03,3.230933472514152527e-02,4.325618222355842590e-02
-3.632102906703948975e-02,3.320212662220001221e-02,-5.662253592163324356e-03,-5.767440050840377808e-02,7.014673203229904175e-02,1.771591231226921082e-02,2.570969238877296448e-02,8.349153213202953339e-03,3.355926647782325745e-02,4.279588162899017334e-02
-3.590565547347068787e-02,3.394237533211708069e-02,-5.837418138980865479e-03,-5.845103412866592407e-02,6.977421790361404419e-02,1.740185543894767761e-02,2.540204674005508423e-02,7.754328660666942596e-03,3.474535048007965088e-02,4.266857728362083435e-02
-3.582946211099624634e-02,3.438974916934967041e-02,-6.051044911146163940e-03,-5.733673274517059326e-02,6.978376209735870361e-02,1.782699115574359894e-02,2.434911951422691345e-02,7.785967085510492325e-03,3.366115316748619080e-02,4.292766749858856201e-02
-3.597278147935867310e-02,3.461387008428573608e-02,-6.395195145159959793e-03,-5.773176625370979309e-02,6.986909359693527222e-02,1.725965179502964020e-02,2.479545213282108307e-02,6.869842298328876495e-03,3.513433039188385010e-02,4.258180782198905945e-02
-3.615206107497215271e-02,3.526424244046211243e-02,-6.676457356661558151e-03,-5.766990780830383301e-02,7.029578834772109985e-02,1.760759018361568451e-02,2.363730780780315399e-02,6.361716426908969879e-03,3.636740148067474365e-02,4.123776406049728394e-02
-3.468140587210655212e-02,3.463819250464439392e-02,-7.688124198466539383e-03,-5.807441473007202148e-02,7.020444422960281372e-02,1.727289520204067230e-02,2.272631973028182983e-02,6.845793221145868301e-03,3.754322975873947144e-02,4.116067662835121155e-02
-3.492661565542221069e-02,3.452219069004058838e-02,-8.878801949322223663e-03,-5.792023614048957825e-02,7.053941488265991211e-02,1.732578314840793610e-02,2.253035642206668854e-02,6.640485953539609909e-03,3.781874105334281921e-02,4.196947067975997925e-02
-3.566918894648551941e-02,3.390190750360488892e-02,-8.627741597592830658e-03,-5.729504674673080444e-02,7.066083699464797974e-02,1.723478175699710846e-02,2.124584838747978210e-02,6.334645207971334457e-03,3.914976492524147034e-02,4.151913151144981384e-02
-3.503827378153800964e-02,3.343182802200317383e-02,-9.021415375173091888e-03,-5.755264684557914734e-02,7.020446658134460449e-02,1.781195215880870819e-02,2.173126116394996643e-02,5.529789254069328308e-03,3.979864344000816345e-02,4.111960902810096741e-02
-3.508013859391212463e-02,3.425951302051544189e-02,-9.625053033232688904e-03,-5.636220052838325500e-02,6.885173916816711426e-02,1.757946051657199860e-02,2.148730494081974030e-02,5.066618788987398148e-03,4.050345346331596375e-02,4.063127189874649048e-02
-3.458643332123756409e-02,3.306965529918670654e-02,-1.059138774871826172e-02,-5.645155534148216248e-02,7.041201740503311157e-02,1.654749549925327301e-02,2.155694551765918732e-02,5.140582099556922913e-03,4.156246781349182129e-02,4.057097434997558594e-02
-3.445574268698692322e-02,3.287548944354057312e-02,-1.084178034216165543e-02,-5.654081329703330994e-02,6.936059147119522095e-02,1.738849282264709473e-02,2.043392322957515717e-02,5.115626845508813858e-03,4.211186990141868591e-02,4.096233844757080078e-02
-3.392112627625465393e-02,3.285730257630348206e-02,-1.122367475181818008e-02,-5.636740103363990784e-02,6.976183503866195679e-02,1.717994362115859985e-02,2.065206319093704224e-02,4.086463712155818939e-03,4.217320308089256287e-02,4.121833667159080505e-02
-3.299302607774734497e-02,3.281694650650024414e-02,-1.278635114431381226e-02,-5.602251738309860229e-02,6.857301294803619385e-02,1.820010878145694733e-02,1.973646320402622223e-02,4.290359094738960266e-03,4.287804290652275085e-02,4.093473032116889954e-02
-3.271256014704704285e-02,3.312996029853820801e-02,-1.312165427953004837e-02,-5.601980909705162048e-02,6.863800436258316040e-02,1.759450510144233704e-02,2.033529244363307953e-02,4.014558624476194382e-03,4.337226599454879761e-02,4.052946716547012329e-02
-3.216253966093063354e-02,3.227490559220314026e-02,-1.439192984253168106e-02,-5.514433607459068298e-02,6.912349164485931396e-02,1.837932690978050232e-02,1.969011873006820679e-02,2.752384869381785393e-03,4.343548417091369629e-02,4.107514768838882446e-02
-3.295340016484260559e-02,3.176286444067955017e-02,-1.429881155490875244e-02,-5.590308830142021179e-02,6.882592290639877319e-02,1.903460547327995300e-02,1.898088864982128143e-02,3.149763215333223343e-03,4.460726678371429443e-02,4.091390594840049744e-02
-3.116984851658344269e-02,3.157560527324676514e-02,-1.602588593959808350e-02,-5.435333028435707092e-02,6.768223643302917480e-02,1.867582090198993683e-02,1.955075375735759735e-02,2.179212402552366257e-03,4.462508484721183777e-02,4.120247066020965576e-02
-3.068496845662593842e-02,3.182405233383178711e-02,-1.471313647925853729e-02,-5.491178110241889954e-02,6.776860356330871582e-02,1.869111321866512299e-02,1.943991146981716156e-02,1.781624392606317997e-03,4.388678818941116333e-02,4.145416617393493652e-02
-2.953386679291725159e-02,3.209038451313972473e-02,-1.678471639752388000e-02,-5.520313978195190430e-02,6.803777813911437988e-02,1.908982172608375549e-02,1.847373135387897491e-02,1.869787229225039482e-03,4.464437812566757202e-02,4.148139432072639465e-02
-2.953926846385002136e-02,3.172519057989120483e-02,-1.756369695067405701e-02,-5.503106117248535156e-02,6.752388179302215576e-02,1.936597935855388641e-02,1.817135140299797058e-02,1.892066677100956440e-03,4.511972516775131226e-02,4.189769178628921509e-02
-2.965648658573627472e-02,3.231066092848777771e-02,-1.805238984525203705e-02,-5.499183386564254761e-02,6.791732460260391235e-02,1.961457729339599609e-02,1.801606081426143646e-02,1.335894688963890076e-03,4.465580731630325317e-02,4.240485280752182007e-02
