4.594394564628601074e-02,2.934877946972846985e-02,-5.958785861730575562e-02,-5.502428859472274780e-02,-6.596260354854166508e-04,1.993428543210029602e-02,-4.676372557878494263e-02,6.813320517539978027e-02,-3.778530284762382507e-02,3.096603415906429291e-02
4.594394564628601074e-02,2.934877946972846985e-02,-5.958785861730575562e-02,-5.502428859472274780e-02,-6.596260354854166508e-04,1.993428543210029602e-02,-4.676372557878494263e-02,6.813320517539978027e-02,-3.778530284762382507e-02,3.096603415906429291e-02
4.985248297452926636e-02,2.948154509067535400e-02,-6.337252259254455566e-02,-5.944398045539855957e-02,1.959340414032340050e-03,1.473565306514501572e-02,-5.626071989536285400e-02,7.485412061214447021e-02,-3.299286589026451111e-02,3.494301810860633850e-02
4.985248297452926636e-02,2.948154509067535400e-02,-6.337252259254455566e-02,-5.944398045539855957e-02,1.959340414032340050e-03,1.473565306514501572e-02,-5.626071989536285400e-02,7.485412061214447021e-02,-3.299286589026451111e-02,3.494301810860633850e-02
5.224976688623428345e-02,3.224731609225273132e-02,-6.506203860044479370e-02,-6.233293935656547546e-02,1.881034811958670616e-03,9.940670803189277649e-03,-6.334294378757476807e-02,7.894097268581390381e-02,-3.099294379353523254e-02,3.998421505093574524e-02
5.224976688623428345e-02,3.224731609225273132e-02,-6.506203860044479370e-02,-6.233293935656547546e-02,1.881034811958670616e-03,9.940670803189277649e-03,-6.334294378757476807e-02,7.894097268581390381e-02,-3.099294379353523254e-02,3.998421505093574524e-02
5.362518504261970520e-02,3.377725556492805481e-02,-6.888368725776672363e-02,-6.348701566457748413e-02,3.147652139887213707e-03,6.676110904663801193e-03,-6.740323454141616821e-02,8.368866890668869019e-02,-2.990976348519325256e-02,4.253213480114936829e-02
5.362518504261970520e-02,3.377725556492805481e-02,-6.888368725776672363e-02,-6.348701566457748413e-02,3.147652139887213707e-03,6.676110904663801193e-03,-6.740323454141616821e-02,8.368866890668869019e-02,-2.990976348519325256e-02,4.253213480114936829e-02
5.576250329613685608e-02,3.613549470901489258e-02,-7.150328904390335083e-02,-6.321097165346145630e-02,1.848126994445919991e-03,4.924389533698558807e-03,-7.069823890924453735e-02,8.802627027034759521e-02,-3.051915578544139862e-02,4.386620596051216125e-02
5.576250329613685608e-02,3.613549470901489258e-02,-7.150328904390335083e-02,-6.321097165346145630e-02,1.848126994445919991e-03,4.924389533698558807e-03,-7.069823890924453735e-02,8.802627027034759521e-02,-3.051915578544139862e-02,4.386620596051216125e-02
5.767927318811416626e-02,3.794956207275390625e-02,-7.227634638547897339e-02,-6.327198445796966553e-02,1.289313076995313168e-03,3.406181931495666504e-03,-7.353777438402175903e-02,9.150349348783493042e-02,-3.243098407983779907e-02,4.513216391205787659e-02
5.767927318811416626e-02,3.794956207275390625e-02,-7.227634638547897339e-02,-6.327198445796966553e-02,1.289313076995313168e-03,3.406181931495666504e-03,-7.353777438402175903e-02,9.150349348783493042e-02,-3.243098407983779907e-02,4.513216391205787659e-02
5.824203789234161377e-02,3.943913802504539490e-02,-7.392030209302902222e-02,-6.507885456085205078e-02,5.140177090652287006e-04,3.532026195898652077e-03,-7.552396506071090698e-02,9.373579919338226318e-02,-3.252756968140602112e-02,4.753367975354194641e-02
5.824203789234161377e-02,3.943913802504539490e-02,-7.392030209302902222e-02,-6.507885456085205078e-02,5.140177090652287006e-04,3.532026195898652077e-03,-7.552396506071090698e-02,9.373579919338226318e-02,-3.252756968140602112e-02,4.753367975354194641e-02
5.973739922046661377e-02,4.207024723291397095e-02,-7.718057185411453247e-02,-6.437749415636062622e-02,-2.221747068688273430e-03,2.281117951497435570e-03,-7.591146230697631836e-02,9.850016236305236816e-02,-3.446495905518531799e-02,4.958781972527503967e-02
5.973739922046661377e-02,4.207024723291397095e-02,-7.718057185411453247e-02,-6.437749415636062622e-02,-2.221747068688273430e-03,2.281117951497435570e-03,-7.591146230697631836e-02,9.850016236305236816e-02,-3.446495905518531799e-02,4.958781972527503967e-02
5.830483511090278625e-02,4.261333867907524109e-02,-7.549040764570236206e-02,-6.486392766237258911e-02,-4.129098262637853622e-03,2.276320243254303932e-03,-7.716585695743560791e-02,1.003803983330726624e-01,-3.565073013305664062e-02,5.092868208885192871e-02
5.830483511090278625e-02,4.261333867907524109e-02,-7.549040764570236206e-02,-6.486392766237258911e-02,-4.129098262637853622e-03,2.276320243254303932e-03,-7.716585695743560791e-02,1.003803983330726624e-01,-3.565073013305664062e-02,5.092868208885192871e-02
5.871533975005149841e-02,4.257700964808464050e-02,-7.654535025358200073e-02,-6.485807895660400391e-02,-5.649068392813205719e-03,1.658262684941291809e-03,-7.830714434385299683e-02,1.031016632914543152e-01,-3.669562563300132751e-02,5.307385697960853577e-02
5.871533975005149841e-02,4.257700964808464050e-02,-7.654535025358200073e-02,-6.485807895660400391e-02,-5.649068392813205719e-03,1.658262684941291809e-03,-7.830714434385299683e-02,1.031016632914543152e-01,-3.669562563300132751e-02,5.307385697960853577e-02
5.855618417263031006e-02,4.774913936853408813e-02,-7.731137424707412720e-02,-6.594341993331909180e-02,-7.776610087603330612e-03,1.989521319046616554e-03,-7.895472645759582520e-02,1.039656624197959900e-01,-3.841565549373626709e-02,5.525609478354454041e-02
5.855618417263031006e-02,4.774913936853408813e-02,-7.731137424707412720e-02,-6.594341993331909180e-02,-7.776610087603330612e-03,1.989521319046616554e-03,-7.895472645759582520e-02,1.039656624197959900e-01,-3.841565549373626709e-02,5.525609478354454041e-02
5.919417366385459900e-02,4.638713225722312927e-02,-7.797951251268386841e-02,-6.482695043087005615e-02,-7.616441231220960617e-03,1.302388263866305351e-03,-8.072556555271148682e-02,1.057432889938354492e-01,-3.882624953985214233e-02,5.537662282586097717e-02
5.919417366385459900e-02,4.638713225722312927e-02,-7.797951251268386841e-02,-6.482695043087005615e-02,-7.616441231220960617e-03,1.302388263866305351e-03,-8.072556555271148682e-02,1.057432889938354492e-01,-3.882624953985214233e-02,5.537662282586097717e-02
5.968965962529182434e-02,4.904328659176826477e-02,-7.757423818111419678e-02,-6.689600646495819092e-02,-9.908595122396945953e-03,1.016433816403150558e-03,-8.347268402576446533e-02,1.088801920413970947e-01,-3.990107774734497070e-02,5.734896287322044373e-02
5.968965962529182434e-02,4.904328659176826477e-02,-7.757423818111419678e-02,-6.689600646495819092e-02,-9.908595122396945953e-03,1.016433816403150558e-03,-8.347268402576446533e-02,1.088801920413970947e-01,-3.990107774734497070e-02,5.734896287322044373e-02
5.999194830656051636e-02,4.873317480087280273e-02,-7.705542445182800293e-02,-6.780925393104553223e-02,-1.165260840207338333e-02,1.516593736596405506e-03,-8.181396126747131348e-02,1.112418174743652344e-01,-4.403465241193771362e-02,5.963535979390144348e-02
5.999194830656051636e-02,4.873317480087280273e-02,-7.705542445182800293e-02,-6.780925393104553223e-02,-1.165260840207338333e-02,1.516593736596405506e-03,-8.181396126747131348e-02,1.112418174743652344e-01,-4.403465241193771362e-02,5.963535979390144348e-02
5.925554037094116211e-02,5.086624994874000549e-02,-7.680706679821014404e-02,-6.760437041521072388e-02,-1.181658077985048294e-02,-3.058269794564694166e-04,-8.521090447902679443e-02,1.116337329149246216e-01,-4.236689582467079163e-02,6.020037457346916199e-02
5.925554037094116211e-02,5.086624994874000549e-02,-7.680706679821014404e-02,-6.760437041521072388e-02,-1.181658077985048294e-02,-3.058269794564694166e-04,-8.521090447902679443e-02,1.116337329149246216e-01,-4.236689582467079163e-02,6.020037457346916199e-02
6.053785234689712524e-02,5.014416947960853577e-02,-7.400102168321609497e-02,-6.983777880668640137e-02,-1.445120666176080704e-02,-1.052495324984192848e-03,-8.461964875459671021e-02,1.147313341498374939e-01,-4.553549364209175110e-02,6.184682622551918030e-02
6.053785234689712524e-02,5.014416947960853577e-02,-7.400102168321609497e-02,-6.983777880668640137e-02,-1.445120666176080704e-02,-1.052495324984192848e-03,-8.461964875459671021e-02,1.147313341498374939e-01,-4.553549364209175110e-02,6.184682622551918030e-02
6.064597144722938538e-02,5.282136797904968262e-02,-7.438197731971740723e-02,-7.143686711788177490e-02,-1.558574941009283066e-02,-1.999003579840064049e-03,-8.529023826122283936e-02,1.165894418954849243e-01,-4.572824761271476746e-02,6.324651837348937988e-02
6.064597144722938538e-02,5.282136797904968262e-02,-7.438197731971740723e-02,-7.143686711788177490e-02,-1.558574941009283066e-02,-1.999003579840064049e-03,-8.529023826122283936e-02,1.165894418954849243e-01,-4.572824761271476746e-02,6.324651837348937988e-02
6.081036850810050964e-02,5.154824256896972656e-02,-7.322099059820175171e-02,-7.143584638833999634e-02,-1.554681081324815750e-02,-1.460934290662407875e-03,-8.645278215408325195e-02,1.176048368215560913e-01,-4.885969683527946472e-02,6.467751413583755493e-02
6.081036850810050964e-02,5.154824256896972656e-02,-7.322099059820175171e-02,-7.143584638833999634e-02,-1.554681081324815750e-02,-1.460934290662407875e-03,-8.645278215408325195e-02,1.176048368215560913e-01,-4.885969683527946472e-02,6.467751413583755493e-02
6.065918132662773132e-02,5.374453216791152954e-02,-7.544677704572677612e-02,-7.180581241846084595e-02,-1.738233864307403564e-02,-2.234220737591385841e-03,-8.755134791135787964e-02,1.184791475534439087e-01,-4.714067652821540833e-02,6.668028235435485840e-02
6.065918132662773132e-02,5.374453216791152954e-02,-7.544677704572677612e-02,-7.180581241846084595e-02,-1.738233864307403564e-02,-2.234220737591385841e-03,-8.755134791135787964e-02,1.184791475534439087e-01,-4.714067652821540833e-02,6.668028235435485840e-02
6.321206688880920410e-02,5.795440822839736938e-02,-7.383582741022109985e-02,-7.418055832386016846e-02,-2.018103562295436859e-02,-3.161687171086668968e-03,-8.799706399440765381e-02,1.206837147474288940e-01,-4.870265349745750427e-02,6.651863455772399902e-02
6.321206688880920410e-02,5.795440822839736938e-02,-7.383582741022109985e-02,-7.418055832386016846e-02,-2.018103562295436859e-02,-3.161687171086668968e-03,-8.799706399440765381e-02,1.206837147474288940e-01,-4.870265349745750427e-02,6.651863455772399902e-02
6.154379621148109436e-02,5.539099127054214478e-02,-7.246050983667373657e-02,-7.559606432914733887e-02,-1.569787226617336273e-02,-9.023061720654368401e-04,-9.262186288833618164e-02,1.212467700242996216e-01,-5.073354393243789673e-02,6.736622750759124756e-02
6.154379621148109436e-02,5.539099127054214478e-02,-7.246050983667373657e-02,-7.559606432914733887e-02,-1.569787226617336273e-02,-9.023061720654368401e-04,-9.262186288833618164e-02,1.212467700242996216e-01,-5.073354393243789673e-02,6.736622750759124756e-02
6.436486542224884033e-02,5.914201587438583374e-02,-7.493176311254501343e-02,-7.919674366712570190e-02,-1.919833198189735413e-02,8.176303235813975334e-04,-9.220656007528305054e-02,1.226947084069252014e-01,-5.218185111880302429e-02,7.125113904476165771e-02
6.436486542224884033e-02,5.914201587438583374e-02,-7.493176311254501343e-02,-7.919674366712570190e-02,-1.919833198189735413e-02,8.176303235813975334e-04,-9.220656007528305054e-02,1.226947084069252014e-01,-5.218185111880302429e-02,7.125113904476165771e-02
6.701442599296569824e-02,5.604588240385055542e-02,-7.415187358856201172e-02,-7.883939146995544434e-02,-2.183985523879528046e-02,1.392537960782647133e-03,-8.980958908796310425e-02,1.231300383806228638e-01,-5.340334028005599976e-02,7.083946466445922852e-02
6.701442599296569824e-02,5.604588240385055542e-02,-7.415187358856201172e-02,-7.883939146995544434e-02,-2.183985523879528046e-02,1.392537960782647133e-03,-8.980958908796310425e-02,1.231300383806228638e-01,-5.340334028005599976e-02,7.083946466445922852e-02
6.378962844610214233e-02,5.750694870948791504e-02,-7.477884739637374878e-02,-7.665715366601943970e-02,-2.126134559512138367e-02,-3.163657151162624359e-03,-9.453089535236358643e-02,1.279777437448501587e-01,-5.081588029861450195e-02,6.922204792499542236e-02
6.378962844610214233e-02,5.750694870948791504e-02,-7.477884739637374878e-02,-7.665715366601943970e-02,-2.126134559512138367e-02,-3.163657151162624359e-03,-9.453089535236358643e-02,1.279777437448501587e-01,-5.081588029861450195e-02,6.922204792499542236e-02
6.183848902583122253e-02,6.019809842109680176e-02,-7.480476796627044678e-02,-7.843902707099914551e-02,-2.305335365235805511e-02,-2.222833922132849693e-03,-9.477449953556060791e-02,1.309013813734054565e-01,-5.261786654591560364e-02,7.063829898834228516e-02
6.183848902583122253e-02,6.019809842109680176e-02,-7.480476796627044678e-02,-7.843902707099914551e-02,-2.305335365235805511e-02,-2.222833922132849693e-03,-9.477449953556060791e-02,1.309013813734054565e-01,-5.261786654591560364e-02,7.063829898834228516e-02
5.762993544340133667e-02,6.220450997352600098e-02,-7.436344027519226074e-02,-8.171511441469192505e-02,-2.022129483520984650e-02,4.025811329483985901e-03,-9.693276882171630859e-02,1.362566202878952026e-01,-5.871672928333282471e-02,6.976545602083206177e-02
5.762993544340133667e-02,6.220450997352600098e-02,-7.436344027519226074e-02,-8.171511441469192505e-02,-2.022129483520984650e-02,4.025811329483985901e-03,-9.693276882171630859e-02,1.362566202878952026e-01,-5.871672928333282471e-02,6.976545602083206177e-02
5.820010602474212646e-02,6.356944888830184937e-02,-7.372482866048812866e-02,-8.132554590702056885e-02,-1.852030493319034576e-02,6.171511020511388779e-03,-9.872291982173919678e-02,1.316175460815429688e-01,-5.470539629459381104e-02,6.641378253698348999e-02
5.820010602474212646e-02,6.356944888830184937e-02,-7.372482866048812866e-02,-8.132554590702056885e-02,-1.852030493319034576e-02,6.171511020511388779e-03,-9.872291982173919678e-02,1.316175460815429688e-01,-5.470539629459381104e-02,6.641378253698348999e-02
5.263154581189155579e-02,6.876452267169952393e-02,-7.623773813247680664e-02,-7.670748978853225708e-02,-2.562747523188591003e-02,8.184618316590785980e-03,-1.132988557219505310e-01,1.452888250350952148e-01,-5.740519985556602478e-02,6.536465138196945190e-02
5.263154581189155579e-02,6.876452267169952393e-02,-7.623773813247680664e-02,-7.670748978853225708e-02,-2.562747523188591003e-02,8.184618316590785980e-03,-1.132988557219505310e-01,1.452888250350952148e-01,-5.740519985556602478e-02,6.536465138196945190e-02
3.750893473625183105e-02,7.913378626108169556e-02,-7.602580636739730835e-02,-5.854016542434692383e-02,-3.340169414877891541e-02,9.329425171017646790e-03,-1.199582964181900024e-01,1.414845734834671021e-01,-6.885580718517303467e-02,7.040472328662872314e-02
3.750893473625183105e-02,7.913378626108169556e-02,-7.602580636739730835e-02,-5.854016542434692383e-02,-3.340169414877891541e-02,9.329425171017646790e-03,-1.199582964181900024e-01,1.414845734834671021e-01,-6.885580718517303467e-02,7.040472328662872314e-02
4.272645339369773865e-02,6.258406490087509155e-02,-9.618406742811203003e-02,-6.056928634643554688e-02,-3.142135590314865112e-02,1.279124151915311813e-02,-1.055070310831069946e-01,1.435000747442245483e-01,-7.800326496362686157e-02,9.299387782812118530e-02
4.272645339369773865e-02,6.258406490087509155e-02,-9.618406742811203003e-02,-6.056928634643554688e-02,-3.142135590314865112e-02,1.279124151915311813e-02,-1.055070310831069946e-01,1.435000747442245483e-01,-7.800326496362686157e-02,9.299387782812118530e-02
