1.802507042884826660e-02,-5.419032275676727295e-02,-1.960481517016887665e-02,-1.345539465546607971e-03,-5.022434517741203308e-02,4.798271693289279938e-03,-7.255077362060546875e-03,2.913390053436160088e-03,4.730693995952606201e-02,-3.599629923701286316e-02
1.802507042884826660e-02,-5.419032275676727295e-02,-1.960481517016887665e-02,-1.345539465546607971e-03,-5.022434517741203308e-02,4.798271693289279938e-03,-7.255077362060546875e-03,2.913390053436160088e-03,4.730693995952606201e-02,-3.599629923701286316e-02
1.729915104806423187e-02,-5.358012020587921143e-02,-1.945257931947708130e-02,9.499755833530798554e-05,-4.985614493489265442e-02,4.483104217797517776e-03,-6.799200084060430527e-03,7.192048942670226097e-04,4.698697477579116821e-02,-3.523877263069152832e-02
1.729915104806423187e-02,-5.358012020587921143e-02,-1.945257931947708130e-02,9.499755833530798554e-05,-4.985614493489265442e-02,4.483104217797517776e-03,-6.799200084060430527e-03,7.192048942670226097e-04,4.698697477579116821e-02,-3.523877263069152832e-02
1.640299148857593536e-02,-5.330433696508407593e-02,-1.940375939011573792e-02,9.269624715670943260e-04,-5.130460485816001892e-02,5.553192459046840668e-03,-5.008261650800704956e-03,6.276675849221646786e-04,4.617891088128089905e-02,-3.557986021041870117e-02
1.640299148857593536e-02,-5.330433696508407593e-02,-1.940375939011573792e-02,9.269624715670943260e-04,-5.130460485816001892e-02,5.553192459046840668e-03,-5.008261650800704956e-03,6.276675849221646786e-04,4.617891088128089905e-02,-3.557986021041870117e-02
1.600085757672786713e-02,-5.510824173688888550e-02,-1.810389384627342224e-02,2.921771490946412086e-03,-5.273745208978652954e-02,6.608502008020877838e-03,-2.695004688575863838e-03,-3.175031451974064112e-04,4.629366099834442139e-02,-3.757092356681823730e-02
1.600085757672786713e-02,-5.510824173688888550e-02,-1.810389384627342224e-02,2.921771490946412086e-03,-5.273745208978652954e-02,6.608502008020877838e-03,-2.695004688575863838e-03,-3.175031451974064112e-04,4.629366099834442139e-02,-3.757092356681823730e-02
1.538908574730157852e-02,-5.538746714591979980e-02,-1.669373549520969391e-02,3.537502372637391090e-03,-5.409934371709823608e-02,6.903546396642923355e-03,-2.424588892608880997e-03,3.883638419210910797e-04,4.594448953866958618e-02,-3.823991864919662476e-02
1.538908574730157852e-02,-5.538746714591979980e-02,-1.669373549520969391e-02,3.537502372637391090e-03,-5.409934371709823608e-02,6.903546396642923355e-03,-2.424588892608880997e-03,3.883638419210910797e-04,4.594448953866958618e-02,-3.823991864919662476e-02
1.592509634792804718e-02,-5.756194144487380981e-02,-1.572497561573982239e-02,4.712208174169063568e-03,-5.536190420389175415e-02,7.758839987218379974e-03,-2.178344177082180977e-03,2.092721842927858233e-04,4.607160389423370361e-02,-3.835109248757362366e-02
1.592509634792804718e-02,-5.756194144487380981e-02,-1.572497561573982239e-02,4.712208174169063568e-03,-5.536190420389175415e-02,7.758839987218379974e-03,-2.178344177082180977e-03,2.092721842927858233e-04,4.607160389423370361e-02,-3.835109248757362366e-02
1.598172076046466827e-02,-5.953864380717277527e-02,-1.549118850380182266e-02,5.133411847054958344e-03,-5.561972409486770630e-02,8.520790375769138336e-03,-1.921134185977280140e-03,-1.207450186484493315e-04,4.667258262634277344e-02,-3.796772658824920654e-02
1.598172076046466827e-02,-5.953864380717277527e-02,-1.549118850380182266e-02,5.133411847054958344e-03,-5.561972409486770630e-02,8.520790375769138336e-03,-1.921134185977280140e-03,-1.207450186484493315e-04,4.667258262634277344e-02,-3.796772658824920654e-02
1.559119392186403275e-02,-6.264970451593399048e-02,-1.449107006192207336e-02,6.278207991272211075e-03,-5.444146320223808289e-02,9.076905436813831329e-03,-9.813269134610891342e-04,-6.792387284804135561e-05,4.646858572959899902e-02,-3.903958946466445923e-02
1.559119392186403275e-02,-6.264970451593399048e-02,-1.449107006192207336e-02,6.278207991272211075e-03,-5.444146320223808289e-02,9.076905436813831329e-03,-9.813269134610891342e-04,-6.792387284804135561e-05,4.646858572959899902e-02,-3.903958946466445923e-02
1.433500368148088455e-02,-6.600391119718551636e-02,-1.315272226929664612e-02,7.980722934007644653e-03,-5.389887094497680664e-02,9.925031103193759918e-03,4.452957946341484785e-04,-4.032369179185479879e-04,4.648709669709205627e-02,-3.989909589290618896e-02
1.433500368148088455e-02,-6.600391119718551636e-02,-1.315272226929664612e-02,7.980722934007644653e-03,-5.389887094497680664e-02,9.925031103193759918e-03,4.452957946341484785e-04,-4.032369179185479879e-04,4.648709669709205627e-02,-3.989909589290618896e-02
1.323468238115310669e-02,-6.772909313440322876e-02,-1.310381386429071426e-02,9.770375676453113556e-03,-5.390476062893867493e-02,1.060333941131830215e-02,2.130000852048397064e-03,-1.032731728628277779e-03,4.555502161383628845e-02,-3.977865353226661682e-02
1.323468238115310669e-02,-6.772909313440322876e-02,-1.310381386429071426e-02,9.770375676453113556e-03,-5.390476062893867493e-02,1.060333941131830215e-02,2.130000852048397064e-03,-1.032731728628277779e-03,4.555502161383628845e-02,-3.977865353226661682e-02
1.144481357187032700e-02,-6.844606995582580566e-02,-1.138705573976039886e-02,1.098448690026998520e-02,-5.316365137696266174e-02,1.008951012045145035e-02,3.762816544622182846e-03,-2.098517492413520813e-03,4.502192884683609009e-02,-4.075211286544799805e-02
1.144481357187032700e-02,-6.844606995582580566e-02,-1.138705573976039886e-02,1.098448690026998520e-02,-5.316365137696266174e-02,1.008951012045145035e-02,3.762816544622182846e-03,-2.098517492413520813e-03,4.502192884683609009e-02,-4.075211286544799805e-02
1.031051576137542725e-02,-6.871766597032546997e-02,-8.663709275424480438e-03,1.164534594863653183e-02,-5.376662313938140869e-02,1.156728342175483704e-02,3.467083675786852837e-03,-3.588853403925895691e-03,4.492444172501564026e-02,-4.190625995397567749e-02
1.031051576137542725e-02,-6.871766597032546997e-02,-8.663709275424480438e-03,1.164534594863653183e-02,-5.376662313938140869e-02,1.156728342175483704e-02,3.467083675786852837e-03,-3.588853403925895691e-03,4.492444172501564026e-02,-4.190625995397567749e-02
1.089380122721195221e-02,-7.188969105482101440e-02,-6.864301860332489014e-03,1.235509198158979416e-02,-5.515825003385543823e-02,1.302844472229480743e-02,2.725917147472500801e-03,-2.878291998058557510e-03,4.619092494249343872e-02,-4.305388405919075012e-02
1.089380122721195221e-02,-7.188969105482101440e-02,-6.864301860332489014e-03,1.235509198158979416e-02,-5.515825003385543823e-02,1.302844472229480743e-02,2.725917147472500801e-03,-2.878291998058557510e-03,4.619092494249343872e-02,-4.305388405919075012e-02
9.210593067109584808e-03,-7.365061342716217041e-02,-6.037424784153699875e-03,1.280644349753856659e-02,-5.555182695388793945e-02,1.390649471431970596e-02,2.995819551870226860e-03,-2.397343749180436134e-03,4.642161354422569275e-02,-4.237985610961914062e-02
9.210593067109584808e-03,-7.365061342716217041e-02,-6.037424784153699875e-03,1.280644349753856659e-02,-5.555182695388793945e-02,1.390649471431970596e-02,2.995819551870226860e-03,-2.397343749180436134e-03,4.642161354422569275e-02,-4.237985610961914062e-02
7.305797189474105835e-03,-7.617934048175811768e-02,-5.513032898306846619e-03,1.307847443968057632e-02,-5.620400980114936829e-02,1.524037029594182968e-02,3.632379928603768349e-03,-2.090142341330647469e-03,4.815791547298431396e-02,-4.201295226812362671e-02
7.305797189474105835e-03,-7.617934048175811768e-02,-5.513032898306846619e-03,1.307847443968057632e-02,-5.620400980114936829e-02,1.524037029594182968e-02,3.632379928603768349e-03,-2.090142341330647469e-03,4.815791547298431396e-02,-4.201295226812362671e-02
6.042103748768568039e-03,-7.906266301870346069e-02,-3.793492913246154785e-03,1.551835145801305771e-02,-5.714061111211776733e-02,1.616636104881763458e-02,3.445752197876572609e-03,-3.004415426403284073e-03,4.814117029309272766e-02,-4.099414497613906860e-02
6.042103748768568039e-03,-7.906266301870346069e-02,-3.793492913246154785e-03,1.551835145801305771e-02,-5.714061111211776733e-02,1.616636104881763458e-02,3.445752197876572609e-03,-3.004415426403284073e-03,4.814117029309272766e-02,-4.099414497613906860e-02
4.001988098025321960e-03,-7.981375604867935181e-02,-1.551280962303280830e-03,1.665776409208774567e-02,-5.699915066361427307e-02,1.739400252699851990e-02,3.354996442794799805e-03,-3.450909163802862167e-03,4.680864512920379639e-02,-4.121913760900497437e-02
4.001988098025321960e-03,-7.981375604867935181e-02,-1.551280962303280830e-03,1.665776409208774567e-02,-5.699915066361427307e-02,1.739400252699851990e-02,3.354996442794799805e-03,-3.450909163802862167e-03,4.680864512920379639e-02,-4.121913760900497437e-02
4.951310344040393829e-03,-8.156757056713104248e-02,-3.916041168849915266e-04,1.789468154311180115e-02,-5.781633406877517700e-02,1.867720670998096466e-02,3.330153413116931915e-03,-3.582857316359877586e-03,4.602969437837600708e-02,-4.234233126044273376e-02
4.951310344040393829e-03,-8.156757056713104248e-02,-3.916041168849915266e-04,1.789468154311180115e-02,-5.781633406877517700e-02,1.867720670998096466e-02,3.330153413116931915e-03,-3.582857316359877586e-03,4.602969437837600708e-02,-4.234233126044273376e-02
3.541245358064770699e-03,-8.307518064975738525e-02,2.612104290165007114e-04,1.797764562070369720e-02,-5.838866531848907471e-02,1.969126053154468536e-02,4.036314319819211960e-03,-3.751687472686171532e-03,4.644497856497764587e-02,-4.149110987782478333e-02
3.541245358064770699e-03,-8.307518064975738525e-02,2.612104290165007114e-04,1.797764562070369720e-02,-5.838866531848907471e-02,1.969126053154468536e-02,4.036314319819211960e-03,-3.751687472686171532e-03,4.644497856497764587e-02,-4.149110987782478333e-02
3.221272258087992668e-03,-8.379717171192169189e-02,3.743362904060631990e-04,1.885872706770896912e-02,-5.851987376809120178e-02,2.037322148680686951e-02,4.494309891015291214e-03,-3.448734525591135025e-03,4.601220041513442993e-02,-4.231005907058715820e-02
3.221272258087992668e-03,-8.379717171192169189e-02,3.743362904060631990e-04,1.885872706770896912e-02,-5.851987376809120178e-02,2.037322148680686951e-02,4.494309891015291214e-03,-3.448734525591135025e-03,4.601220041513442993e-02,-4.231005907058715820e-02
2.542897360399365425e-03,-8.354375511407852173e-02,-5.493750213645398617e-04,1.896682381629943848e-02,-5.693301931023597717e-02,1.999796554446220398e-02,6.366879213601350784e-03,-5.515024531632661819e-03,4.547571390867233276e-02,-4.159487411379814148e-02
2.542897360399365425e-03,-8.354375511407852173e-02,-5.493750213645398617e-04,1.896682381629943848e-02,-5.693301931023597717e-02,1.999796554446220398e-02,6.366879213601350784e-03,-5.515024531632661819e-03,4.547571390867233276e-02,-4.159487411379814148e-02
1.548152649775147438e-03,-8.594243973493576050e-02,-6.992351263761520386e-04,1.977103762328624725e-02,-5.795847997069358826e-02,2.216434292495250702e-02,6.781010422855615616e-03,-5.654255859553813934e-03,4.684598743915557861e-02,-4.149049520492553711e-02
1.548152649775147438e-03,-8.594243973493576050e-02,-6.992351263761520386e-04,1.977103762328624725e-02,-5.795847997069358826e-02,2.216434292495250702e-02,6.781010422855615616e-03,-5.654255859553813934e-03,4.684598743915557861e-02,-4.149049520492553711e-02
1.320558018051087856e-03,-8.950541168451309204e-02,-1.713903620839118958e-04,2.167428657412528992e-02,-5.839172378182411194e-02,2.422442659735679626e-02,5.579342599958181381e-03,-5.908780731260776520e-03,4.860053583979606628e-02,-4.192190244793891907e-02
1.320558018051087856e-03,-8.950541168451309204e-02,-1.713903620839118958e-04,2.167428657412528992e-02,-5.839172378182411194e-02,2.422442659735679626e-02,5.579342599958181381e-03,-5.908780731260776520e-03,4.860053583979606628e-02,-4.192190244793891907e-02
1.087938668206334114e-03,-9.160831570625305176e-02,-6.366319139488041401e-04,2.347190305590629578e-02,-5.962441116571426392e-02,2.605669014155864716e-02,4.319705069065093994e-03,-6.644207052886486053e-03,5.000325664877891541e-02,-4.086292535066604614e-02
1.087938668206334114e-03,-9.160831570625305176e-02,-6.366319139488041401e-04,2.347190305590629578e-02,-5.962441116571426392e-02,2.605669014155864716e-02,4.319705069065093994e-03,-6.644207052886486053e-03,5.000325664877891541e-02,-4.086292535066604614e-02
2.957450924441218376e-03,-9.828343987464904785e-02,9.043606114573776722e-04,2.623633667826652527e-02,-6.232989206910133362e-02,2.893582917749881744e-02,3.239309589844197035e-04,-5.550755187869071960e-03,5.121710523962974548e-02,-3.854011744260787964e-02
2.957450924441218376e-03,-9.828343987464904785e-02,9.043606114573776722e-04,2.623633667826652527e-02,-6.232989206910133362e-02,2.893582917749881744e-02,3.239309589844197035e-04,-5.550755187869071960e-03,5.121710523962974548e-02,-3.854011744260787964e-02
3.856999566778540611e-03,-1.038369983434677124e-01,8.255826542153954506e-04,2.894391492009162903e-02,-6.396382302045822144e-02,3.202667087316513062e-02,-1.359501970000565052e-03,-4.761008545756340027e-03,5.240245535969734192e-02,-3.785476461052894592e-02
3.856999566778540611e-03,-1.038369983434677124e-01,8.255826542153954506e-04,2.894391492009162903e-02,-6.396382302045822144e-02,3.202667087316513062e-02,-1.359501970000565052e-03,-4.761008545756340027e-03,5.240245535969734192e-02,-3.785476461052894592e-02
4.550955258309841156e-03,-1.087029948830604553e-01,-1.878866896731778979e-04,3.049198351800441742e-02,-6.261437386274337769e-02,3.400995209813117981e-02,-1.803493243642151356e-03,-4.771881271153688431e-03,5.385977402329444885e-02,-3.816702961921691895e-02
4.550955258309841156e-03,-1.087029948830604553e-01,-1.878866896731778979e-04,3.049198351800441742e-02,-6.261437386274337769e-02,3.400995209813117981e-02,-1.803493243642151356e-03,-4.771881271153688431e-03,5.385977402329444885e-02,-3.816702961921691895e-02
3.444630187004804611e-03,-1.107646077871322632e-01,-1.431916491128504276e-03,3.369662910699844360e-02,-6.360681354999542236e-02,3.518544137477874756e-02,-2.977684140205383301e-03,-4.765079356729984283e-03,5.640778318047523499e-02,-3.846390917897224426e-02
3.444630187004804611e-03,-1.107646077871322632e-01,-1.431916491128504276e-03,3.369662910699844360e-02,-6.360681354999542236e-02,3.518544137477874756e-02,-2.977684140205383301e-03,-4.765079356729984283e-03,5.640778318047523499e-02,-3.846390917897224426e-02
2.697000047191977501e-03,-1.138089001178741455e-01,-2.569748554378747940e-03,3.577866405248641968e-02,-6.424694508314132690e-02,3.708665445446968079e-02,-3.149130614474415779e-03,-4.152255598455667496e-03,5.882852897047996521e-02,-3.958358615636825562e-02
2.697000047191977501e-03,-1.138089001178741455e-01,-2.569748554378747940e-03,3.577866405248641968e-02,-6.424694508314132690e-02,3.708665445446968079e-02,-3.149130614474415779e-03,-4.152255598455667496e-03,5.882852897047996521e-02,-3.958358615636825562e-02
1.385782263241708279e-03,-1.163071468472480774e-01,-2.899606944993138313e-03,3.790039941668510437e-02,-6.685558706521987915e-02,3.930891305208206177e-02,-4.786449018865823746e-03,-3.550685942173004150e-03,6.083765998482704163e-02,-3.809154406189918518e-02
1.385782263241708279e-03,-1.163071468472480774e-01,-2.899606944993138313e-03,3.790039941668510437e-02,-6.685558706521987915e-02,3.930891305208206177e-02,-4.786449018865823746e-03,-3.550685942173004150e-03,6.083765998482704163e-02,-3.809154406189918518e-02
-7.184977876022458076e-04,-1.184723675251007080e-01,-4.055525641888380051e-03,3.984168171882629395e-02,-6.732892245054244995e-02,4.072338715195655823e-02,-4.050514195114374161e-03,-4.966054111719131470e-03,6.173823773860931396e-02,-3.569206595420837402e-02
-7.184977876022458076e-04,-1.184723675251007080e-01,-4.055525641888380051e-03,3.984168171882629395e-02,-6.732892245054244995e-02,4.072338715195655823e-02,-4.050514195114374161e-03,-4.966054111719131470e-03,6.173823773860931396e-02,-3.569206595420837402e-02
-1.801778911612927914e-03,-1.218383312225341797e-01,-5.188300739973783493e-03,4.102246463298797607e-02,-6.738070398569107056e-02,4.260921850800514221e-02,-4.746080841869115829e-03,-5.611769855022430420e-03,6.349538266658782959e-02,-3.337861225008964539e-02
-1.801778911612927914e-03,-1.218383312225341797e-01,-5.188300739973783493e-03,4.102246463298797607e-02,-6.738070398569107056e-02,4.260921850800514221e-02,-4.746080841869115829e-03,-5.611769855022430420e-03,6.349538266658782959e-02,-3.337861225008964539e-02
-1.425455207936465740e-03,-1.234083920717239380e-01,-7.275475654751062393e-03,4.197664186358451843e-02,-6.767496466636657715e-02,4.512157663702964783e-02,-5.662298761308193207e-03,-4.945338703691959381e-03,6.428981572389602661e-02,-3.377882763743400574e-02
-1.425455207936465740e-03,-1.234083920717239380e-01,-7.275475654751062393e-03,4.197664186358451843e-02,-6.767496466636657715e-02,4.512157663702964783e-02,-5.662298761308193207e-03,-4.945338703691959381e-03,6.428981572389602661e-02,-3.377882763743400574e-02
1.120911038015037775e-04,-1.252844631671905518e-01,-8.515951223671436310e-03,4.386933147907257080e-02,-6.900737434625625610e-02,4.755622893571853638e-02,-7.959172129631042480e-03,-4.815275780856609344e-03,6.547392159700393677e-02,-3.428192064166069031e-02
1.120911038015037775e-04,-1.252844631671905518e-01,-8.515951223671436310e-03,4.386933147907257080e-02,-6.900737434625625610e-02,4.755622893571853638e-02,-7.959172129631042480e-03,-4.815275780856609344e-03,6.547392159700393677e-02,-3.428192064166069031e-02
-1.037545516737736762e-04,-1.289247572422027588e-01,-9.888794273138046265e-03,4.565824568271636963e-02,-6.918733566999435425e-02,5.002635344862937927e-02,-9.085387922823429108e-03,-4.371799062937498093e-03,6.643946468830108643e-02,-3.329296410083770752e-02
-1.037545516737736762e-04,-1.289247572422027588e-01,-9.888794273138046265e-03,4.565824568271636963e-02,-6.918733566999435425e-02,5.002635344862937927e-02,-9.085387922823429108e-03,-4.371799062937498093e-03,6.643946468830108643e-02,-3.329296410083770752e-02
-1.218099845573306084e-03,-1.318919658660888672e-01,-9.887571446597576141e-03,4.526977613568305969e-02,-6.721599400043487549e-02,5.200769379734992981e-02,-8.893550373613834381e-03,-3.703221678733825684e-03,6.611038744449615479e-02,-3.300548344850540161e-02
-1.218099845573306084e-03,-1.318919658660888672e-01,-9.887571446597576141e-03,4.526977613568305969e-02,-6.721599400043487549e-02,5.200769379734992981e-02,-8.893550373613834381e-03,-3.703221678733825684e-03,6.611038744449615479e-02,-3.300548344850540161e-02
-7.756889681331813335e-04,-1.373043805360794067e-01,-7.560396101325750351e-03,4.395824670791625977e-02,-6.597787886857986450e-02,5.365830287337303162e-02,-7.949152961373329163e-03,-4.541301168501377106e-03,6.730443239212036133e-02,-3.282365202903747559e-02
-7.756889681331813335e-04,-1.373043805360794067e-01,-7.560396101325750351e-03,4.395824670791625977e-02,-6.597787886857986450e-02,5.365830287337303162e-02,-7.949152961373329163e-03,-4.541301168501377106e-03,6.730443239212036133e-02,-3.282365202903747559e-02
-9.309157612733542919e-04,-1.400658637285232544e-01,-6.449003703892230988e-03,4.376702383160591125e-02,-6.494447588920593262e-02,5.521138012409210205e-02,-7.747149560600519180e-03,-6.302011664956808090e-03,6.888133287429809570e-02,-3.331696987152099609e-02
-9.309157612733542919e-04,-1.400658637285232544e-01,-6.449003703892230988e-03,4.376702383160591125e-02,-6.494447588920593262e-02,5.521138012409210205e-02,-7.747149560600519180e-03,-6.302011664956808090e-03,6.888133287429809570e-02,-3.331696987152099609e-02
6.728348671458661556e-04,-1.424328237771987915e-01,-5.892760120332241058e-03,4.388503730297088623e-02,-6.438739597797393799e-02,5.628172308206558228e-02,-7.144917733967304230e-03,-8.192976936697959900e-03,6.969304382801055908e-02,-3.431744128465652466e-02
6.728348671458661556e-04,-1.424328237771987915e-01,-5.892760120332241058e-03,4.388503730297088623e-02,-6.438739597797393799e-02,5.628172308206558228e-02,-7.144917733967304230e-03,-8.192976936697959900e-03,6.969304382801055908e-02,-3.431744128465652466e-02
3.070396836847066879e-03,-1.453190594911575317e-01,-6.217486690729856491e-03,4.556711390614509583e-02,-6.679060310125350952e-02,5.809795483946800232e-02,-9.151468984782695770e-03,-9.381731040775775909e-03,7.168399542570114136e-02,-3.352183848619461060e-02
3.070396836847066879e-03,-1.453190594911575317e-01,-6.217486690729856491e-03,4.556711390614509583e-02,-6.679060310125350952e-02,5.809795483946800232e-02,-9.151468984782695770e-03,-9.381731040775775909e-03,7.168399542570114136e-02,-3.352183848619461060e-02
3.043683711439371109e-03,-1.497468203306198120e-01,-7.257771678268909454e-03,4.817914590239524841e-02,-6.757799535989761353e-02,6.018530204892158508e-02,-1.103843282908201218e-02,-9.231435135006904602e-03,7.342877238988876343e-02,-3.187137097120285034e-02
3.043683711439371109e-03,-1.497468203306198120e-01,-7.257771678268909454e-03,4.817914590239524841e-02,-6.757799535989761353e-02,6.018530204892158508e-02,-1.103843282908201218e-02,-9.231435135006904602e-03,7.342877238988876343e-02,-3.187137097120285034e-02
2.707644831389188766e-03,-1.528880298137664795e-01,-8.702903985977172852e-03,5.045194923877716064e-02,-6.726098805665969849e-02,6.209762021899223328e-02,-1.205138117074966431e-02,-9.867977350950241089e-03,7.568272948265075684e-02,-3.202703222632408142e-02
2.707644831389188766e-03,-1.528880298137664795e-01,-8.702903985977172852e-03,5.045194923877716064e-02,-6.726098805665969849e-02,6.209762021899223328e-02,-1.205138117074966431e-02,-9.867977350950241089e-03,7.568272948265075684e-02,-3.202703222632408142e-02
2.199984621256589890e-03,-1.554771959781646729e-01,-8.319857530295848846e-03,5.174487084150314331e-02,-6.895896047353744507e-02,6.338307261466979980e-02,-1.246693078428506851e-02,-9.905706159770488739e-03,7.769533991813659668e-02,-3.173027187585830688e-02
2.199984621256589890e-03,-1.554771959781646729e-01,-8.319857530295848846e-03,5.174487084150314331e-02,-6.895896047353744507e-02,6.338307261466979980e-02,-1.246693078428506851e-02,-9.905706159770488739e-03,7.769533991813659668e-02,-3.173027187585830688e-02
1.916653010994195938e-03,-1.583862453699111938e-01,-9.009098634123802185e-03,5.373311042785644531e-02,-6.974742561578750610e-02,6.526492536067962646e-02,-1.375636179000139236e-02,-9.709151461720466614e-03,7.962483912706375122e-02,-3.175384923815727234e-02
1.916653010994195938e-03,-1.583862453699111938e-01,-9.009098634123802185e-03,5.373311042785644531e-02,-6.974742561578750610e-02,6.526492536067962646e-02,-1.375636179000139236e-02,-9.709151461720466614e-03,7.962483912706375122e-02,-3.175384923815727234e-02
1.003542565740644932e-03,-1.607560515403747559e-01,-1.001381780952215195e-02,5.563420429825782776e-02,-7.079643756151199341e-02,6.763395667076110840e-02,-1.491931546479463577e-02,-9.602702222764492035e-03,8.093850314617156982e-02,-3.094668500125408173e-02
1.003542565740644932e-03,-1.607560515403747559e-01,-1.001381780952215195e-02,5.563420429825782776e-02,-7.079643756151199341e-02,6.763395667076110840e-02,-1.491931546479463577e-02,-9.602702222764492035e-03,8.093850314617156982e-02,-3.094668500125408173e-02
-8.391448063775897026e-04,-1.625239700078964233e-01,-1.179825607687234879e-02,5.756331980228424072e-02,-7.126093655824661255e-02,6.974419951438903809e-02,-1.533069275319576263e-02,-9.144714102149009705e-03,8.224797248840332031e-02,-3.047536686062812805e-02
-8.391448063775897026e-04,-1.625239700078964233e-01,-1.179825607687234879e-02,5.756331980228424072e-02,-7.126093655824661255e-02,6.974419951438903809e-02,-1.533069275319576263e-02,-9.144714102149009705e-03,8.224797248840332031e-02,-3.047536686062812805e-02
-1.799243385903537273e-03,-1.644406318664550781e-01,-1.132825203239917755e-02,5.912956222891807556e-02,-7.196307927370071411e-02,7.187697291374206543e-02,-1.835146732628345490e-02,-9.222188033163547516e-03,8.331488072872161865e-02,-2.914192155003547668e-02
-1.799243385903537273e-03,-1.644406318664550781e-01,-1.132825203239917755e-02,5.912956222891807556e-02,-7.196307927370071411e-02,7.187697291374206543e-02,-1.835146732628345490e-02,-9.222188033163547516e-03,8.331488072872161865e-02,-2.914192155003547668e-02
-2.360759768635034561e-03,-1.661304533481597900e-01,-1.253032218664884567e-02,6.058213114738464355e-02,-7.182335108518600464e-02,7.245376706123352051e-02,-1.912408880889415741e-02,-1.041877362877130508e-02,8.435104042291641235e-02,-2.692425996065139771e-02
-2.360759768635034561e-03,-1.661304533481597900e-01,-1.253032218664884567e-02,6.058213114738464355e-02,-7.182335108518600464e-02,7.245376706123352051e-02,-1.912408880889415741e-02,-1.041877362877130508e-02,8.435104042291641235e-02,-2.692425996065139771e-02
-3.915990237146615982e-03,-1.676541417837142944e-01,-1.140123791992664337e-02,6.163241341710090637e-02,-7.290899753570556641e-02,7.514639943838119507e-02,-2.068263106048107147e-02,-1.022364385426044464e-02,8.449821174144744873e-02,-2.654124982655048370e-02
-3.915990237146615982e-03,-1.676541417837142944e-01,-1.140123791992664337e-02,6.163241341710090637e-02,-7.290899753570556641e-02,7.514639943838119507e-02,-2.068263106048107147e-02,-1.022364385426044464e-02,8.449821174144744873e-02,-2.654124982655048370e-02
-4.833023529499769211e-03,-1.690806001424789429e-01,-1.300102379173040390e-02,6.162856146693229675e-02,-7.131084799766540527e-02,7.728496938943862915e-02,-1.986833475530147552e-02,-1.141954213380813599e-02,8.464629948139190674e-02,-2.608621865510940552e-02
-4.833023529499769211e-03,-1.690806001424789429e-01,-1.300102379173040390e-02,6.162856146693229675e-02,-7.131084799766540527e-02,7.728496938943862915e-02,-1.986833475530147552e-02,-1.141954213380813599e-02,8.464629948139190674e-02,-2.608621865510940552e-02
