-5.719035863876342773e-02,-5.634845048189163208e-02,-2.164896577596664429e-02,-2.638871222734451294e-02,3.942243754863739014e-03,-1.776253432035446167e-02,1.274930220097303391e-02,-3.049469925463199615e-02,-1.887066103518009186e-02,2.644707076251506805e-02
-5.719035863876342773e-02,-5.634845048189163208e-02,-2.164896577596664429e-02,-2.638871222734451294e-02,3.942243754863739014e-03,-1.776253432035446167e-02,1.274930220097303391e-02,-3.049469925463199615e-02,-1.887066103518009186e-02,2.644707076251506805e-02
-5.766738951206207275e-02,-5.654965713620185852e-02,-2.136875875294208527e-02,-2.655242569744586945e-02,3.770448965951800346e-03,-1.775939576327800751e-02,1.243027299642562866e-02,-3.026313148438930511e-02,-1.846322603523731232e-02,2.703465521335601807e-02
-5.766738951206207275e-02,-5.654965713620185852e-02,-2.136875875294208527e-02,-2.655242569744586945e-02,3.770448965951800346e-03,-1.775939576327800751e-02,1.243027299642562866e-02,-3.026313148438930511e-02,-1.846322603523731232e-02,2.703465521335601807e-02
-5.814052745699882507e-02,-5.614974722266197205e-02,-2.102031186223030090e-02,-2.655194327235221863e-02,3.384263720363378525e-03,-1.773972995579242706e-02,1.249826792627573013e-02,-3.045517578721046448e-02,-1.820737123489379883e-02,2.687217108905315399e-02
-5.814052745699882507e-02,-5.614974722266197205e-02,-2.102031186223030090e-02,-2.655194327235221863e-02,3.384263720363378525e-03,-1.773972995579242706e-02,1.249826792627573013e-02,-3.045517578721046448e-02,-1.820737123489379883e-02,2.687217108905315399e-02
-5.902346596121788025e-02,-5.560079962015151978e-02,-2.089435048401355743e-02,-2.714677713811397552e-02,3.581362543627619743e-03,-1.731879264116287231e-02,1.286046300083398819e-02,-3.086947090923786163e-02,-1.803296431899070740e-02,2.673394419252872467e-02
-5.902346596121788025e-02,-5.560079962015151978e-02,-2.089435048401355743e-02,-2.714677713811397552e-02,3.581362543627619743e-03,-1.731879264116287231e-02,1.286046300083398819e-02,-3.086947090923786163e-02,-1.803296431899070740e-02,2.673394419252872467e-02
-5.940412357449531555e-02,-5.576502904295921326e-02,-2.078325115144252777e-02,-2.709268033504486084e-02,3.841774538159370422e-03,-1.718337647616863251e-02,1.258906256407499313e-02,-3.070841357111930847e-02,-1.817319914698600769e-02,2.700231038033962250e-02
-5.940412357449531555e-02,-5.576502904295921326e-02,-2.078325115144252777e-02,-2.709268033504486084e-02,3.841774538159370422e-03,-1.718337647616863251e-02,1.258906256407499313e-02,-3.070841357111930847e-02,-1.817319914698600769e-02,2.700231038033962250e-02
-5.974881723523139954e-02,-5.523397773504257202e-02,-2.103814110159873962e-02,-2.713183313608169556e-02,3.761410014703869820e-03,-1.773839443922042847e-02,1.325576752424240112e-02,-3.029184043407440186e-02,-1.803086884319782257e-02,2.637657709419727325e-02
-5.974881723523139954e-02,-5.523397773504257202e-02,-2.103814110159873962e-02,-2.713183313608169556e-02,3.761410014703869820e-03,-1.773839443922042847e-02,1.325576752424240112e-02,-3.029184043407440186e-02,-1.803086884319782257e-02,2.637657709419727325e-02
-5.883109569549560547e-02,-5.426843836903572083e-02,-2.157179079949855804e-02,-2.767723239958286285e-02,3.144912887364625931e-03,-1.770170032978057861e-02,1.254761312156915665e-02,-3.011105768382549286e-02,-1.786822639405727386e-02,2.641793899238109589e-02
-5.883109569549560547e-02,-5.426843836903572083e-02,-2.157179079949855804e-02,-2.767723239958286285e-02,3.144912887364625931e-03,-1.770170032978057861e-02,1.254761312156915665e-02,-3.011105768382549286e-02,-1.786822639405727386e-02,2.641793899238109589e-02
-5.936424806714057922e-02,-5.515642091631889343e-02,-2.155643887817859650e-02,-2.734851837158203125e-02,3.687862074002623558e-03,-1.725159212946891785e-02,1.148258056491613388e-02,-2.969184890389442444e-02,-1.707827672362327576e-02,2.639031782746315002e-02
-5.936424806714057922e-02,-5.515642091631889343e-02,-2.155643887817859650e-02,-2.734851837158203125e-02,3.687862074002623558e-03,-1.725159212946891785e-02,1.148258056491613388e-02,-2.969184890389442444e-02,-1.707827672362327576e-02,2.639031782746315002e-02
-5.971779674291610718e-02,-5.551344156265258789e-02,-2.111161127686500549e-02,-2.721740305423736572e-02,3.525986569002270699e-03,-1.685162261128425598e-02,1.124881673604249954e-02,-2.948752045631408691e-02,-1.725487597286701202e-02,2.651829458773136139e-02
-5.971779674291610718e-02,-5.551344156265258789e-02,-2.111161127686500549e-02,-2.721740305423736572e-02,3.525986569002270699e-03,-1.685162261128425598e-02,1.124881673604249954e-02,-2.948752045631408691e-02,-1.725487597286701202e-02,2.651829458773136139e-02
-5.978113412857055664e-02,-5.532158166170120239e-02,-2.030024118721485138e-02,-2.673289366066455841e-02,3.217745106667280197e-03,-1.674070395529270172e-02,1.143896114081144333e-02,-2.952339500188827515e-02,-1.785141415894031525e-02,2.562228776514530182e-02
-5.978113412857055664e-02,-5.532158166170120239e-02,-2.030024118721485138e-02,-2.673289366066455841e-02,3.217745106667280197e-03,-1.674070395529270172e-02,1.143896114081144333e-02,-2.952339500188827515e-02,-1.785141415894031525e-02,2.562228776514530182e-02
-6.062456592917442322e-02,-5.584319308400154114e-02,-1.893911510705947876e-02,-2.686981484293937683e-02,3.088924568146467209e-03,-1.631777361035346985e-02,1.116974931210279465e-02,-2.958894334733486176e-02,-1.726673543453216553e-02,2.518164180219173431e-02
-6.062456592917442322e-02,-5.584319308400154114e-02,-1.893911510705947876e-02,-2.686981484293937683e-02,3.088924568146467209e-03,-1.631777361035346985e-02,1.116974931210279465e-02,-2.958894334733486176e-02,-1.726673543453216553e-02,2.518164180219173431e-02
-6.143887341022491455e-02,-5.666679143905639648e-02,-1.782971061766147614e-02,-2.664521895349025726e-02,2.653781790286302567e-03,-1.691262237727642059e-02,1.159090548753738403e-02,-2.828147634863853455e-02,-1.680085994303226471e-02,2.429664321243762970e-02
-6.143887341022491455e-02,-5.666679143905639648e-02,-1.782971061766147614e-02,-2.664521895349025726e-02,2.653781790286302567e-03,-1.691262237727642059e-02,1.159090548753738403e-02,-2.828147634863853455e-02,-1.680085994303226471e-02,2.429664321243762970e-02
-6.045215949416160583e-02,-5.711137875914573669e-02,-1.605440862476825714e-02,-2.612394094467163086e-02,1.790782785974442959e-03,-1.770828478038311005e-02,1.120137330144643784e-02,-2.816300094127655029e-02,-1.806144975125789642e-02,2.465223707258701324e-02
-6.045215949416160583e-02,-5.711137875914573669e-02,-1.605440862476825714e-02,-2.612394094467163086e-02,1.790782785974442959e-03,-1.770828478038311005e-02,1.120137330144643784e-02,-2.816300094127655029e-02,-1.806144975125789642e-02,2.465223707258701324e-02
-6.026948243379592896e-02,-5.835710465908050537e-02,-1.572469994425773621e-02,-2.563668787479400635e-02,1.512159127742052078e-03,-1.688713394105434418e-02,1.156219374388456345e-02,-2.812643721699714661e-02,-1.871419325470924377e-02,2.466706931591033936e-02
-6.026948243379592896e-02,-5.835710465908050537e-02,-1.572469994425773621e-02,-2.563668787479400635e-02,1.512159127742052078e-03,-1.688713394105434418e-02,1.156219374388456345e-02,-2.812643721699714661e-02,-1.871419325470924377e-02,2.466706931591033936e-02
-6.002499163150787354e-02,-5.959396809339523315e-02,-1.475149393081665039e-02,-2.412576042115688324e-02,-4.572743637254461646e-05,-1.669744774699211121e-02,1.121110096573829651e-02,-2.881951630115509033e-02,-1.739296875894069672e-02,2.430902235209941864e-02
-6.002499163150787354e-02,-5.959396809339523315e-02,-1.475149393081665039e-02,-2.412576042115688324e-02,-4.572743637254461646e-05,-1.669744774699211121e-02,1.121110096573829651e-02,-2.881951630115509033e-02,-1.739296875894069672e-02,2.430902235209941864e-02
-5.712962895631790161e-02,-6.199348717927932739e-02,-1.275395695120096207e-02,-2.471113577485084534e-02,3.577088646125048399e-04,-1.611490361392498016e-02,1.194331515580415726e-02,-3.149455413222312927e-02,-1.719381660223007202e-02,2.340349927544593811e-02
-5.712962895631790161e-02,-6.199348717927932739e-02,-1.275395695120096207e-02,-2.471113577485084534e-02,3.577088646125048399e-04,-1.611490361392498016e-02,1.194331515580415726e-02,-3.149455413222312927e-02,-1.719381660223007202e-02,2.340349927544593811e-02
-5.521919578313827515e-02,-6.423435360193252563e-02,-1.126936916261911392e-02,-2.459286153316497803e-02,-1.917835616040974855e-04,-1.584502682089805603e-02,1.297122240066528320e-02,-3.232186287641525269e-02,-1.718632131814956665e-02,2.240717411041259766e-02
-5.521919578313827515e-02,-6.423435360193252563e-02,-1.126936916261911392e-02,-2.459286153316497803e-02,-1.917835616040974855e-04,-1.584502682089805603e-02,1.297122240066528320e-02,-3.232186287641525269e-02,-1.718632131814956665e-02,2.240717411041259766e-02
-5.521779134869575500e-02,-6.629831343889236450e-02,-9.155038744211196899e-03,-2.425170131027698517e-02,-1.358463661745190620e-03,-1.529312971979379654e-02,1.443498115986585617e-02,-3.340004011988639832e-02,-1.707682944834232330e-02,2.229475043714046478e-02
-5.521779134869575500e-02,-6.629831343889236450e-02,-9.155038744211196899e-03,-2.425170131027698517e-02,-1.358463661745190620e-03,-1.529312971979379654e-02,1.443498115986585617e-02,-3.340004011988639832e-02,-1.707682944834232330e-02,2.229475043714046478e-02
-5.401995778083801270e-02,-6.886626780033111572e-02,-6.801616866141557693e-03,-2.368896454572677612e-02,-2.739187330007553101e-03,-1.402581296861171722e-02,1.488888543099164963e-02,-3.403539210557937622e-02,-1.680512726306915283e-02,2.100202254951000214e-02
-5.401995778083801270e-02,-6.886626780033111572e-02,-6.801616866141557693e-03,-2.368896454572677612e-02,-2.739187330007553101e-03,-1.402581296861171722e-02,1.488888543099164963e-02,-3.403539210557937622e-02,-1.680512726306915283e-02,2.100202254951000214e-02
-5.315386876463890076e-02,-7.310929149389266968e-02,-5.238396581262350082e-03,-2.131235413253307343e-02,-4.117390606552362442e-03,-1.276621595025062561e-02,1.580069214105606079e-02,-3.420811519026756287e-02,-1.670382358133792877e-02,2.003170922398567200e-02
-5.315386876463890076e-02,-7.310929149389266968e-02,-5.238396581262350082e-03,-2.131235413253307343e-02,-4.117390606552362442e-03,-1.276621595025062561e-02,1.580069214105606079e-02,-3.420811519026756287e-02,-1.670382358133792877e-02,2.003170922398567200e-02
-5.204156786203384399e-02,-7.622572779655456543e-02,-3.943295218050479889e-03,-2.011297456920146942e-02,-4.462963435798883438e-03,-1.262869965285062790e-02,1.740920543670654297e-02,-3.605133667588233948e-02,-1.619105413556098938e-02,1.972713321447372437e-02
-5.204156786203384399e-02,-7.622572779655456543e-02,-3.943295218050479889e-03,-2.011297456920146942e-02,-4.462963435798883438e-03,-1.262869965285062790e-02,1.740920543670654297e-02,-3.605133667588233948e-02,-1.619105413556098938e-02,1.972713321447372437e-02
-5.249473825097084045e-02,-7.921419292688369751e-02,-1.842091325670480728e-03,-1.972278393805027008e-02,-3.182279644533991814e-03,-1.201437041163444519e-02,1.951143145561218262e-02,-3.788206353783607483e-02,-1.645333878695964813e-02,1.905455254018306732e-02
-5.249473825097084045e-02,-7.921419292688369751e-02,-1.842091325670480728e-03,-1.972278393805027008e-02,-3.182279644533991814e-03,-1.201437041163444519e-02,1.951143145561218262e-02,-3.788206353783607483e-02,-1.645333878695964813e-02,1.905455254018306732e-02
-5.211997404694557190e-02,-8.229278773069381714e-02,-1.066500190063379705e-04,-2.064583078026771545e-02,-2.042956184595823288e-03,-1.164114661514759064e-02,2.079263702034950256e-02,-3.782263025641441345e-02,-1.690084673464298248e-02,1.888101547956466675e-02
-5.211997404694557190e-02,-8.229278773069381714e-02,-1.066500190063379705e-04,-2.064583078026771545e-02,-2.042956184595823288e-03,-1.164114661514759064e-02,2.079263702034950256e-02,-3.782263025641441345e-02,-1.690084673464298248e-02,1.888101547956466675e-02
-5.075051262974739075e-02,-8.491059392690658569e-02,9.847590699791908264e-04,-1.930233836174011230e-02,-2.821578877046704292e-03,-1.098180934786796570e-02,2.128681167960166931e-02,-3.839172422885894775e-02,-1.638695411384105682e-02,1.761164143681526184e-02
-5.075051262974739075e-02,-8.491059392690658569e-02,9.847590699791908264e-04,-1.930233836174011230e-02,-2.821578877046704292e-03,-1.098180934786796570e-02,2.128681167960166931e-02,-3.839172422885894775e-02,-1.638695411384105682e-02,1.761164143681526184e-02
-4.983511194586753845e-02,-8.636017888784408569e-02,1.660868059843778610e-03,-1.813131384551525116e-02,-4.368655849248170853e-03,-1.024114526808261871e-02,2.236340753734111786e-02,-3.929184749722480774e-02,-1.590009406208992004e-02,1.653246395289897919e-02
-4.983511194586753845e-02,-8.636017888784408569e-02,1.660868059843778610e-03,-1.813131384551525116e-02,-4.368655849248170853e-03,-1.024114526808261871e-02,2.236340753734111786e-02,-3.929184749722480774e-02,-1.590009406208992004e-02,1.653246395289897919e-02
-4.945144057273864746e-02,-8.948677033185958862e-02,3.792817704379558563e-03,-1.667556166648864746e-02,-6.036511156708002090e-03,-9.071644395589828491e-03,2.410837635397911072e-02,-4.135746881365776062e-02,-1.613362506031990051e-02,1.702152192592620850e-02
-4.945144057273864746e-02,-8.948677033185958862e-02,3.792817704379558563e-03,-1.667556166648864746e-02,-6.036511156708002090e-03,-9.071644395589828491e-03,2.410837635397911072e-02,-4.135746881365776062e-02,-1.613362506031990051e-02,1.702152192592620850e-02
-4.912013188004493713e-02,-9.244344383478164673e-02,4.034607671201229095e-03,-1.542259473353624344e-02,-6.649849470704793930e-03,-7.084015291184186935e-03,2.519892714917659760e-02,-4.252595081925392151e-02,-1.602126657962799072e-02,1.705418340861797333e-02
-4.912013188004493713e-02,-9.244344383478164673e-02,4.034607671201229095e-03,-1.542259473353624344e-02,-6.649849470704793930e-03,-7.084015291184186935e-03,2.519892714917659760e-02,-4.252595081925392151e-02,-1.602126657962799072e-02,1.705418340861797333e-02
-4.760956764221191406e-02,-9.656497836112976074e-02,5.869763903319835663e-03,-1.467393618077039719e-02,-7.858790457248687744e-03,-5.635594949126243591e-03,2.605467103421688080e-02,-4.212694987654685974e-02,-1.698244549334049225e-02,1.693923026323318481e-02
-4.760956764221191406e-02,-9.656497836112976074e-02,5.869763903319835663e-03,-1.467393618077039719e-02,-7.858790457248687744e-03,-5.635594949126243591e-03,2.605467103421688080e-02,-4.212694987654685974e-02,-1.698244549334049225e-02,1.693923026323318481e-02
-4.672016203403472900e-02,-9.882079809904098511e-02,7.917524315416812897e-03,-1.401828788220882416e-02,-8.285060524940490723e-03,-4.644862376153469086e-03,2.719772048294544220e-02,-4.356306046247482300e-02,-1.726906932890415192e-02,1.582386344671249390e-02
-4.672016203403472900e-02,-9.882079809904098511e-02,7.917524315416812897e-03,-1.401828788220882416e-02,-8.285060524940490723e-03,-4.644862376153469086e-03,2.719772048294544220e-02,-4.356306046247482300e-02,-1.726906932890415192e-02,1.582386344671249390e-02
-4.544958844780921936e-02,-1.015295013785362244e-01,8.572418242692947388e-03,-1.379851251840591431e-02,-8.931809104979038239e-03,-3.740426851436495781e-03,2.682542987167835236e-02,-4.272136837244033813e-02,-1.616081222891807556e-02,1.479685958474874496e-02
-4.544958844780921936e-02,-1.015295013785362244e-01,8.572418242692947388e-03,-1.379851251840591431e-02,-8.931809104979038239e-03,-3.740426851436495781e-03,2.682542987167835236e-02,-4.272136837244033813e-02,-1.616081222891807556e-02,1.479685958474874496e-02
-4.490562528371810913e-02,-1.069863289594650269e-01,1.034823432564735413e-02,-1.212239731103181839e-02,-8.095274679362773895e-03,-1.286258455365896225e-03,2.776578813791275024e-02,-4.429415985941886902e-02,-1.681437343358993530e-02,1.506875269114971161e-02
-4.490562528371810913e-02,-1.069863289594650269e-01,1.034823432564735413e-02,-1.212239731103181839e-02,-8.095274679362773895e-03,-1.286258455365896225e-03,2.776578813791275024e-02,-4.429415985941886902e-02,-1.681437343358993530e-02,1.506875269114971161e-02
-4.347522929310798645e-02,-1.096636429429054260e-01,1.171642169356346130e-02,-1.136330422013998032e-02,-8.146442472934722900e-03,-6.900099688209593296e-04,2.825989574193954468e-02,-4.604132100939750671e-02,-1.485226396471261978e-02,1.324387080967426300e-02
-4.347522929310798645e-02,-1.096636429429054260e-01,1.171642169356346130e-02,-1.136330422013998032e-02,-8.146442472934722900e-03,-6.900099688209593296e-04,2.825989574193954468e-02,-4.604132100939750671e-02,-1.485226396471261978e-02,1.324387080967426300e-02
-4.193002730607986450e-02,-1.135877817869186401e-01,1.282870862632989883e-02,-1.117237191647291183e-02,-9.112733416259288788e-03,1.377034699544310570e-03,2.823412045836448669e-02,-4.554784297943115234e-02,-1.438451278954744339e-02,1.275054085999727249e-02
-4.193002730607986450e-02,-1.135877817869186401e-01,1.282870862632989883e-02,-1.117237191647291183e-02,-9.112733416259288788e-03,1.377034699544310570e-03,2.823412045836448669e-02,-4.554784297943115234e-02,-1.438451278954744339e-02,1.275054085999727249e-02
-4.118746146559715271e-02,-1.161817088723182678e-01,1.354412268847227097e-02,-9.709766134619712830e-03,-9.112845174968242645e-03,2.630217932164669037e-03,2.867672219872474670e-02,-4.674872756004333496e-02,-1.397601049393415451e-02,1.189194712787866592e-02
-4.118746146559715271e-02,-1.161817088723182678e-01,1.354412268847227097e-02,-9.709766134619712830e-03,-9.112845174968242645e-03,2.630217932164669037e-03,2.867672219872474670e-02,-4.674872756004333496e-02,-1.397601049393415451e-02,1.189194712787866592e-02
-4.049450531601905823e-02,-1.183475777506828308e-01,1.478203292936086655e-02,-7.567283697426319122e-03,-1.101465057581663132e-02,4.339774139225482941e-03,2.662247233092784882e-02,-4.726164042949676514e-02,-1.262443605810403824e-02,1.158754248172044754e-02
-4.049450531601905823e-02,-1.183475777506828308e-01,1.478203292936086655e-02,-7.567283697426319122e-03,-1.101465057581663132e-02,4.339774139225482941e-03,2.662247233092784882e-02,-4.726164042949676514e-02,-1.262443605810403824e-02,1.158754248172044754e-02
-4.040779173374176025e-02,-1.205337047576904297e-01,1.546851638704538345e-02,-6.495043169707059860e-03,-1.228636037558317184e-02,6.631775293499231339e-03,2.692111209034919739e-02,-4.838160797953605652e-02,-1.167815551161766052e-02,1.114096678793430328e-02
-4.040779173374176025e-02,-1.205337047576904297e-01,1.546851638704538345e-02,-6.495043169707059860e-03,-1.228636037558317184e-02,6.631775293499231339e-03,2.692111209034919739e-02,-4.838160797953605652e-02,-1.167815551161766052e-02,1.114096678793430328e-02
-4.080231115221977234e-02,-1.234831959009170532e-01,1.671014912426471710e-02,-6.060983054339885712e-03,-1.225460227578878403e-02,8.393397554755210876e-03,2.860638871788978577e-02,-4.965043440461158752e-02,-1.145239546895027161e-02,1.091676950454711914e-02
-4.080231115221977234e-02,-1.234831959009170532e-01,1.671014912426471710e-02,-6.060983054339885712e-03,-1.225460227578878403e-02,8.393397554755210876e-03,2.860638871788978577e-02,-4.965043440461158752e-02,-1.145239546895027161e-02,1.091676950454711914e-02
-4.236523434519767761e-02,-1.274645775556564331e-01,1.926321536302566528e-02,-5.814517382532358170e-03,-1.261244155466556549e-02,1.095586176961660385e-02,3.008361347019672394e-02,-5.001644417643547058e-02,-1.163814775645732880e-02,1.119131315499544144e-02
-4.236523434519767761e-02,-1.274645775556564331e-01,1.926321536302566528e-02,-5.814517382532358170e-03,-1.261244155466556549e-02,1.095586176961660385e-02,3.008361347019672394e-02,-5.001644417643547058e-02,-1.163814775645732880e-02,1.119131315499544144e-02
-4.243890196084976196e-02,-1.295896768569946289e-01,2.024842798709869385e-02,-4.756686277687549591e-03,-1.379469037055969238e-02,1.344703324139118195e-02,2.999323047697544098e-02,-5.068862065672874451e-02,-1.094865333288908005e-02,1.035269163548946381e-02
-4.243890196084976196e-02,-1.295896768569946289e-01,2.024842798709869385e-02,-4.756686277687549591e-03,-1.379469037055969238e-02,1.344703324139118195e-02,2.999323047697544098e-02,-5.068862065672874451e-02,-1.094865333288908005e-02,1.035269163548946381e-02
-4.278301075100898743e-02,-1.305476129055023193e-01,1.985309273004531860e-02,-4.869087599217891693e-03,-1.293241605162620544e-02,1.419690251350402832e-02,3.154905512928962708e-02,-5.167621001601219177e-02,-1.099586207419633865e-02,1.025231182575225830e-02
-4.278301075100898743e-02,-1.305476129055023193e-01,1.985309273004531860e-02,-4.869087599217891693e-03,-1.293241605162620544e-02,1.419690251350402832e-02,3.154905512928962708e-02,-5.167621001601219177e-02,-1.099586207419633865e-02,1.025231182575225830e-02
-4.284019023180007935e-02,-1.323612630367279053e-01,2.070006541907787323e-02,-4.982006736099720001e-03,-1.386477891355752945e-02,1.496226899325847626e-02,3.139380738139152527e-02,-5.079932883381843567e-02,-1.060846727341413498e-02,1.064086798578500748e-02
-4.284019023180007935e-02,-1.323612630367279053e-01,2.070006541907787323e-02,-4.982006736099720001e-03,-1.386477891355752945e-02,1.496226899325847626e-02,3.139380738139152527e-02,-5.079932883381843567e-02,-1.060846727341413498e-02,1.064086798578500748e-02
-4.323439300060272217e-02,-1.340226382017135620e-01,2.069661393761634827e-02,-3.404463641345500946e-03,-1.539580803364515305e-02,1.710305735468864441e-02,2.847595699131488800e-02,-4.957059025764465332e-02,-1.050504203885793686e-02,1.218192931264638901e-02
-4.323439300060272217e-02,-1.340226382017135620e-01,2.069661393761634827e-02,-3.404463641345500946e-03,-1.539580803364515305e-02,1.710305735468864441e-02,2.847595699131488800e-02,-4.957059025764465332e-02,-1.050504203885793686e-02,1.218192931264638901e-02
-4.289946332573890686e-02,-1.363837569952011108e-01,2.112940326333045959e-02,-3.752159886062145233e-03,-1.617525517940521240e-02,1.874468661844730377e-02,2.684176154434680939e-02,-4.804373160004615784e-02,-1.002768985927104950e-02,1.311254687607288361e-02
-4.289946332573890686e-02,-1.363837569952011108e-01,2.112940326333045959e-02,-3.752159886062145233e-03,-1.617525517940521240e-02,1.874468661844730377e-02,2.684176154434680939e-02,-4.804373160004615784e-02,-1.002768985927104950e-02,1.311254687607288361e-02
-4.168336838483810425e-02,-1.383445858955383301e-01,2.124790474772453308e-02,-4.134273156523704529e-03,-1.781217381358146667e-02,2.075070142745971680e-02,2.661210671067237854e-02,-4.748465120792388916e-02,-7.843339815735816956e-03,1.138612814247608185e-02
-4.168336838483810425e-02,-1.383445858955383301e-01,2.124790474772453308e-02,-4.134273156523704529e-03,-1.781217381358146667e-02,2.075070142745971680e-02,2.661210671067237854e-02,-4.748465120792388916e-02,-7.843339815735816956e-03,1.138612814247608185e-02
-4.150618612766265869e-02,-1.402839422225952148e-01,2.165424451231956482e-02,-3.136338200420141220e-03,-1.925590448081493378e-02,2.268339134752750397e-02,2.514839172363281250e-02,-4.672946408390998840e-02,-6.786180194467306137e-03,1.099089439958333969e-02
-4.150618612766265869e-02,-1.402839422225952148e-01,2.165424451231956482e-02,-3.136338200420141220e-03,-1.925590448081493378e-02,2.268339134752750397e-02,2.514839172363281250e-02,-4.672946408390998840e-02,-6.786180194467306137e-03,1.099089439958333969e-02
-4.210093989968299866e-02,-1.406805813312530518e-01,2.191738970577716827e-02,-1.951048267073929310e-03,-1.874741166830062866e-02,2.432531490921974182e-02,2.401386760175228119e-02,-4.837280139327049255e-02,-6.872817408293485641e-03,1.128597371280193329e-02
-4.210093989968299866e-02,-1.406805813312530518e-01,2.191738970577716827e-02,-1.951048267073929310e-03,-1.874741166830062866e-02,2.432531490921974182e-02,2.401386760175228119e-02,-4.837280139327049255e-02,-6.872817408293485641e-03,1.128597371280193329e-02
-4.233048856258392334e-02,-1.407910138368606567e-01,2.150901220738887787e-02,-1.617033383809030056e-03,-1.951842382550239563e-02,2.501937747001647949e-02,2.420192025601863861e-02,-4.901213943958282471e-02,-5.817054770886898041e-03,1.119940448552370071e-02
-4.233048856258392334e-02,-1.407910138368606567e-01,2.150901220738887787e-02,-1.617033383809030056e-03,-1.951842382550239563e-02,2.501937747001647949e-02,2.420192025601863861e-02,-4.901213943958282471e-02,-5.817054770886898041e-03,1.119940448552370071e-02
-4.318476095795631409e-02,-1.429700106382369995e-01,2.217443659901618958e-02,-1.008442253805696964e-03,-1.931721158325672150e-02,2.656136080622673035e-02,2.391901053488254547e-02,-4.923785105347633362e-02,-5.290100816637277603e-03,1.137678138911724091e-02
-4.318476095795631409e-02,-1.429700106382369995e-01,2.217443659901618958e-02,-1.008442253805696964e-03,-1.931721158325672150e-02,2.656136080622673035e-02,2.391901053488254547e-02,-4.923785105347633362e-02,-5.290100816637277603e-03,1.137678138911724091e-02
-4.519987478852272034e-02,-1.455549299716949463e-01,2.203079499304294586e-02,-2.623284817673265934e-04,-1.808083616197109222e-02,2.834608405828475952e-02,2.510159462690353394e-02,-4.936691746115684509e-02,-5.475061479955911636e-03,1.171788480132818222e-02
-4.519987478852272034e-02,-1.455549299716949463e-01,2.203079499304294586e-02,-2.623284817673265934e-04,-1.808083616197109222e-02,2.834608405828475952e-02,2.510159462690353394e-02,-4.936691746115684509e-02,-5.475061479955911636e-03,1.171788480132818222e-02
-4.586175829172134399e-02,-1.481790244579315186e-01,2.288640663027763367e-02,9.328910891781561077e-06,-1.757548749446868896e-02,3.042753972113132477e-02,2.566570974886417389e-02,-5.049774423241615295e-02,-5.312784109264612198e-03,1.192224863916635513e-02
-4.586175829172134399e-02,-1.481790244579315186e-01,2.288640663027763367e-02,9.328910891781561077e-06,-1.757548749446868896e-02,3.042753972113132477e-02,2.566570974886417389e-02,-5.049774423241615295e-02,-5.312784109264612198e-03,1.192224863916635513e-02
