5.591367837041616440e-03,7.171151041984558105e-02,2.356706559658050537e-02,-1.570713892579078674e-02,4.858602583408355713e-02,-5.446939170360565186e-02,4.793363809585571289e-02,3.260063007473945618e-02,2.046507783234119415e-03,-1.971683651208877563e-02
5.132410675287246704e-03,7.510631531476974487e-02,2.077979966998100281e-02,-1.570503786206245422e-02,4.757649451494216919e-02,-5.452134460210800171e-02,4.637289047241210938e-02,3.186664357781410217e-02,5.354509223252534866e-03,-1.988005265593528748e-02
5.117114167660474777e-03,7.712976634502410889e-02,1.913550123572349548e-02,-1.657696440815925598e-02,4.880796372890472412e-02,-5.570573359727859497e-02,4.484579339623451233e-02,3.412511944770812988e-02,3.131686709821224213e-03,-1.820671185851097107e-02
4.828266799449920654e-03,7.907717674970626831e-02,1.702716760337352753e-02,-1.609539426863193512e-02,5.109729990363121033e-02,-5.721418187022209167e-02,4.269281029701232910e-02,3.544818237423896790e-02,1.679701381362974644e-03,-1.678489707410335541e-02
4.031731747090816498e-03,8.111596852540969849e-02,1.685585826635360718e-02,-1.780480891466140747e-02,5.146891251206398010e-02,-5.647018551826477051e-02,4.204478487372398376e-02,3.608161583542823792e-02,4.832731792703270912e-05,-1.541081909090280533e-02
3.800412174314260483e-03,8.303685486316680908e-02,1.560230646282434464e-02,-1.746250689029693604e-02,5.207804962992668152e-02,-5.722086504101753235e-02,4.059647768735885620e-02,3.543209284543991089e-02,-5.465715657919645309e-04,-1.347569283097982407e-02
2.891189651563763618e-03,8.369808644056320190e-02,1.463986840099096298e-02,-1.807183027267456055e-02,5.348385870456695557e-02,-5.717881768941879272e-02,3.887625411152839661e-02,3.691187128424644470e-02,4.602488479577004910e-04,-1.404951699078083038e-02
3.271405817940831184e-03,8.537198603153228760e-02,1.332181133329868317e-02,-1.701458357274532318e-02,5.426250398159027100e-02,-5.790436640381813049e-02,3.801682218909263611e-02,3.656415641307830811e-02,-7.277055556187406182e-05,-1.401257328689098358e-02
1.795349991880357265e-03,8.556980639696121216e-02,1.310917269438505173e-02,-1.741170883178710938e-02,5.494512245059013367e-02,-5.895234644412994385e-02,3.882395848631858826e-02,3.699870407581329346e-02,1.306791906245052814e-03,-1.452001743018627167e-02
2.902802312746644020e-03,8.562903851270675659e-02,1.246010139584541321e-02,-1.689101569354534149e-02,5.570520088076591492e-02,-5.836181715130805969e-02,3.611383959650993347e-02,3.766077384352684021e-02,1.982009503990411758e-03,-1.578956097364425659e-02
3.673203289508819580e-03,8.560763299465179443e-02,1.036781258881092072e-02,-1.610045321285724640e-02,5.625426396727561951e-02,-6.011604517698287964e-02,3.620716929435729980e-02,3.745328262448310852e-02,3.313710680231451988e-03,-1.533403433859348297e-02
1.994968159124255180e-03,8.606091886758804321e-02,1.005410309880971909e-02,-1.542617101222276688e-02,5.653554201126098633e-02,-5.979009345173835754e-02,3.467305004596710205e-02,3.812548518180847168e-02,3.820896847173571587e-03,-1.530356053262948990e-02
3.105471609160304070e-03,8.668610453605651855e-02,9.487884119153022766e-03,-1.535092014819383621e-02,5.561204627156257629e-02,-6.063360348343849182e-02,3.426898270845413208e-02,3.807281702756881714e-02,5.000046454370021820e-03,-1.555757317692041397e-02
4.664823412895202637e-03,8.553925901651382446e-02,8.998621255159378052e-03,-1.447201054543256760e-02,5.466733127832412720e-02,-6.109391152858734131e-02,3.437233343720436096e-02,3.907465934753417969e-02,5.543047096580266953e-03,-1.653884164988994598e-02
2.981633879244327545e-03,8.667530119419097900e-02,8.109941147267818451e-03,-1.387452892959117889e-02,5.575525015592575073e-02,-6.126953288912773132e-02,3.271761536598205566e-02,3.820221498608589172e-02,7.115037180483341217e-03,-1.666020974516868591e-02
3.783173393458127975e-03,8.505478501319885254e-02,8.409628644585609436e-03,-1.339013408869504929e-02,5.585148558020591736e-02,-6.232931837439537048e-02,3.277451172471046448e-02,3.799816966056823730e-02,8.176735602319240570e-03,-1.678410172462463379e-02
4.577890969812870026e-03,8.514314889907836914e-02,8.368725888431072235e-03,-1.320401486009359360e-02,5.573858693242073059e-02,-6.174106895923614502e-02,3.049932047724723816e-02,3.712997213006019592e-02,9.321534074842929840e-03,-1.712692342698574066e-02
5.546358879655599594e-03,8.545638620853424072e-02,7.076045032590627670e-03,-1.195604261010885239e-02,5.564728379249572754e-02,-6.205468997359275818e-02,2.958517149090766907e-02,3.652705252170562744e-02,1.098854746669530869e-02,-1.877324283123016357e-02
4.748885054141283035e-03,8.480652421712875366e-02,7.787565235048532486e-03,-1.230613328516483307e-02,5.490119010210037231e-02,-6.180753931403160095e-02,2.898433990776538849e-02,3.585266694426536560e-02,1.172675006091594696e-02,-1.752637512981891632e-02
5.908237770199775696e-03,8.451780676841735840e-02,7.177514024078845978e-03,-1.161166653037071228e-02,5.563485622406005859e-02,-6.316901743412017822e-02,2.823766879737377167e-02,3.485412895679473877e-02,1.329072471708059311e-02,-1.804828830063343048e-02
5.394739564508199692e-03,8.370489627122879028e-02,7.140329573303461075e-03,-1.072082854807376862e-02,5.548286810517311096e-02,-6.294767558574676514e-02,2.861954458057880402e-02,3.597133234143257141e-02,1.317612547427415848e-02,-1.915063336491584778e-02
3.754492616280913353e-03,8.469801396131515503e-02,7.748287171125411987e-03,-1.047062315046787262e-02,5.530809238553047180e-02,-6.259812414646148682e-02,2.732247672975063324e-02,3.492036834359169006e-02,1.426831446588039398e-02,-1.941863074898719788e-02
5.485793575644493103e-03,8.408515155315399170e-02,7.586151827126741409e-03,-1.036678906530141830e-02,5.471917614340782166e-02,-6.211127713322639465e-02,2.580385282635688782e-02,3.524801135063171387e-02,1.464056316763162613e-02,-1.982782594859600067e-02
6.561151705682277679e-03,8.329348266124725342e-02,7.519759703427553177e-03,-8.716863580048084259e-03,5.499785766005516052e-02,-6.267123669385910034e-02,2.561879158020019531e-02,3.394306823611259460e-02,1.476224325597286224e-02,-2.016693726181983948e-02
6.023219786584377289e-03,8.270949870347976685e-02,7.907797582447528839e-03,-8.623305708169937134e-03,5.475877225399017334e-02,-6.248694285750389099e-02,2.505777403712272644e-02,3.362771868705749512e-02,1.525775343179702759e-02,-1.975932903587818146e-02
7.087199948728084564e-03,8.277153968811035156e-02,8.002191781997680664e-03,-8.517671376466751099e-03,5.475942790508270264e-02,-6.189426779747009277e-02,2.377254515886306763e-02,3.294616937637329102e-02,1.552065275609493256e-02,-2.026566490530967712e-02
8.909070864319801331e-03,8.277724683284759521e-02,6.514175795018672943e-03,-7.476739119738340378e-03,5.446120351552963257e-02,-6.254433840513229370e-02,2.356760017573833466e-02,3.380578383803367615e-02,1.569083891808986664e-02,-2.109705284237861633e-02
8.267235942184925079e-03,8.267860859632492065e-02,7.433069404214620590e-03,-6.851723417639732361e-03,5.407619848847389221e-02,-6.201960891485214233e-02,2.192172966897487640e-02,3.374549746513366699e-02,1.619899831712245941e-02,-2.170467004179954529e-02
8.538144640624523163e-03,8.191046118736267090e-02,6.735343020409345627e-03,-5.214357282966375351e-03,5.444968864321708679e-02,-6.213639676570892334e-02,2.108107134699821472e-02,3.142045810818672180e-02,1.699039526283740997e-02,-2.125455997884273529e-02
9.869905188679695129e-03,8.189175277948379517e-02,7.517602294683456421e-03,-5.458291620016098022e-03,5.353239923715591431e-02,-6.158304587006568909e-02,2.163165621459484100e-02,3.232748433947563171e-02,1.642727293074131012e-02,-2.280682139098644257e-02
