-2.528150938451290131e-02,4.309656098484992981e-03,-2.604080364108085632e-02,-6.216227635741233826e-02,-2.523734979331493378e-02,-7.708097994327545166e-02,3.575666248798370361e-02,1.137325074523687363e-02,-3.529081121087074280e-02,-2.100924775004386902e-02
-2.528150938451290131e-02,4.309656098484992981e-03,-2.604080364108085632e-02,-6.216227635741233826e-02,-2.523734979331493378e-02,-7.708097994327545166e-02,3.575666248798370361e-02,1.137325074523687363e-02,-3.529081121087074280e-02,-2.100924775004386902e-02
-2.889852039515972137e-02,6.392469629645347595e-03,-1.960473135113716125e-02,-6.856127083301544189e-02,-1.634142920374870300e-02,-8.755069226026535034e-02,3.480237349867820740e-02,1.394107472151517868e-02,-3.346638381481170654e-02,-2.232846245169639587e-02
-2.889852039515972137e-02,6.392469629645347595e-03,-1.960473135113716125e-02,-6.856127083301544189e-02,-1.634142920374870300e-02,-8.755069226026535034e-02,3.480237349867820740e-02,1.394107472151517868e-02,-3.346638381481170654e-02,-2.232846245169639587e-02
-2.860450930893421173e-02,1.242696866393089294e-02,-1.845919154584407806e-02,-7.096633315086364746e-02,-1.449377276003360748e-02,-9.080652147531509399e-02,3.190213814377784729e-02,1.227093674242496490e-02,-3.176348283886909485e-02,-2.231382392346858978e-02
-2.860450930893421173e-02,1.242696866393089294e-02,-1.845919154584407806e-02,-7.096633315086364746e-02,-1.449377276003360748e-02,-9.080652147531509399e-02,3.190213814377784729e-02,1.227093674242496490e-02,-3.176348283886909485e-02,-2.231382392346858978e-02
-2.765753865242004395e-02,1.746538653969764709e-02,-1.869571022689342499e-02,-7.247130572795867920e-02,-1.108243875205516815e-02,-9.493922442197799683e-02,3.105710260570049286e-02,1.292439550161361694e-02,-3.160705417394638062e-02,-2.362462878227233887e-02
-2.765753865242004395e-02,1.746538653969764709e-02,-1.869571022689342499e-02,-7.247130572795867920e-02,-1.108243875205516815e-02,-9.493922442197799683e-02,3.105710260570049286e-02,1.292439550161361694e-02,-3.160705417394638062e-02,-2.362462878227233887e-02
-2.558759972453117371e-02,2.372787334024906158e-02,-2.015741355717182159e-02,-7.437475025653839111e-02,-8.450715802609920502e-03,-9.885474294424057007e-02,2.866686135530471802e-02,1.354106608778238297e-02,-3.089626319706439972e-02,-2.339579723775386810e-02
-2.558759972453117371e-02,2.372787334024906158e-02,-2.015741355717182159e-02,-7.437475025653839111e-02,-8.450715802609920502e-03,-9.885474294424057007e-02,2.866686135530471802e-02,1.354106608778238297e-02,-3.089626319706439972e-02,-2.339579723775386810e-02
-2.351621538400650024e-02,2.911289222538471222e-02,-2.031935378909111023e-02,-7.592284679412841797e-02,-6.242022849619388580e-03,-1.031412109732627869e-01,2.742215618491172791e-02,1.372096501290798187e-02,-3.138134256005287170e-02,-2.251288667321205139e-02
-2.351621538400650024e-02,2.911289222538471222e-02,-2.031935378909111023e-02,-7.592284679412841797e-02,-6.242022849619388580e-03,-1.031412109732627869e-01,2.742215618491172791e-02,1.372096501290798187e-02,-3.138134256005287170e-02,-2.251288667321205139e-02
-2.062273025512695312e-02,3.429356589913368225e-02,-2.158520743250846863e-02,-7.859364151954650879e-02,-3.925703465938568115e-03,-1.069029271602630615e-01,2.648088522255420685e-02,1.448080036789178848e-02,-3.128848224878311157e-02,-2.155446261167526245e-02
-2.062273025512695312e-02,3.429356589913368225e-02,-2.158520743250846863e-02,-7.859364151954650879e-02,-3.925703465938568115e-03,-1.069029271602630615e-01,2.648088522255420685e-02,1.448080036789178848e-02,-3.128848224878311157e-02,-2.155446261167526245e-02
-1.836596801877021790e-02,3.876221552491188049e-02,-2.358208410441875458e-02,-8.052904158830642700e-02,-3.272779518738389015e-03,-1.096072494983673096e-01,2.754746377468109131e-02,1.725350506603717804e-02,-3.205808997154235840e-02,-2.156238444149494171e-02
-1.836596801877021790e-02,3.876221552491188049e-02,-2.358208410441875458e-02,-8.052904158830642700e-02,-3.272779518738389015e-03,-1.096072494983673096e-01,2.754746377468109131e-02,1.725350506603717804e-02,-3.205808997154235840e-02,-2.156238444149494171e-02
-1.558632589876651764e-02,4.352974146604537964e-02,-2.353982254862785339e-02,-8.284314721822738647e-02,-1.997567014768719673e-03,-1.144158691167831421e-01,2.631762251257896423e-02,1.823502965271472931e-02,-3.156017139554023743e-02,-2.016181126236915588e-02
-1.558632589876651764e-02,4.352974146604537964e-02,-2.353982254862785339e-02,-8.284314721822738647e-02,-1.997567014768719673e-03,-1.144158691167831421e-01,2.631762251257896423e-02,1.823502965271472931e-02,-3.156017139554023743e-02,-2.016181126236915588e-02
-1.243696641176939011e-02,4.825306683778762817e-02,-2.417717501521110535e-02,-8.552847802639007568e-02,-7.489740964956581593e-04,-1.179428920149803162e-01,2.688488550484180450e-02,1.973700337111949921e-02,-3.155492991209030151e-02,-2.025980688631534576e-02
-1.243696641176939011e-02,4.825306683778762817e-02,-2.417717501521110535e-02,-8.552847802639007568e-02,-7.489740964956581593e-04,-1.179428920149803162e-01,2.688488550484180450e-02,1.973700337111949921e-02,-3.155492991209030151e-02,-2.025980688631534576e-02
-1.050529908388853073e-02,5.446230992674827576e-02,-2.515897713601589203e-02,-8.755469322204589844e-02,1.487007466494105756e-05,-1.197440773248672485e-01,2.591036818921566010e-02,2.163486927747726440e-02,-3.302112966775894165e-02,-1.965878345072269440e-02
-1.050529908388853073e-02,5.446230992674827576e-02,-2.515897713601589203e-02,-8.755469322204589844e-02,1.487007466494105756e-05,-1.197440773248672485e-01,2.591036818921566010e-02,2.163486927747726440e-02,-3.302112966775894165e-02,-1.965878345072269440e-02
-8.810967206954956055e-03,5.704156309366226196e-02,-2.715892903506755829e-02,-8.772101998329162598e-02,1.347700832411646843e-03,-1.219294145703315735e-01,2.513838745653629303e-02,2.344664745032787323e-02,-3.304773569107055664e-02,-1.961446553468704224e-02
-8.810967206954956055e-03,5.704156309366226196e-02,-2.715892903506755829e-02,-8.772101998329162598e-02,1.347700832411646843e-03,-1.219294145703315735e-01,2.513838745653629303e-02,2.344664745032787323e-02,-3.304773569107055664e-02,-1.961446553468704224e-02
-5.966580938547849655e-03,6.039733067154884338e-02,-2.813298255205154419e-02,-9.037036448717117310e-02,2.750673738773912191e-04,-1.251496970653533936e-01,2.546588890254497528e-02,2.600178867578506470e-02,-3.146643191576004028e-02,-1.916573755443096161e-02
-5.966580938547849655e-03,6.039733067154884338e-02,-2.813298255205154419e-02,-9.037036448717117310e-02,2.750673738773912191e-04,-1.251496970653533936e-01,2.546588890254497528e-02,2.600178867578506470e-02,-3.146643191576004028e-02,-1.916573755443096161e-02
-3.686191281303763390e-03,6.287028640508651733e-02,-2.861412987112998962e-02,-9.235333651304244995e-02,1.359008136205375195e-03,-1.278011500835418701e-01,2.731738984584808350e-02,2.849774993956089020e-02,-3.241100162267684937e-02,-1.962961256504058838e-02
-3.686191281303763390e-03,6.287028640508651733e-02,-2.861412987112998962e-02,-9.235333651304244995e-02,1.359008136205375195e-03,-1.278011500835418701e-01,2.731738984584808350e-02,2.849774993956089020e-02,-3.241100162267684937e-02,-1.962961256504058838e-02
-1.402786816470324993e-03,6.572532653808593750e-02,-2.915029041469097137e-02,-9.364675730466842651e-02,3.126879688352346420e-03,-1.298018395900726318e-01,2.527899481356143951e-02,2.862143516540527344e-02,-3.177980706095695496e-02,-1.934575848281383514e-02
-1.402786816470324993e-03,6.572532653808593750e-02,-2.915029041469097137e-02,-9.364675730466842651e-02,3.126879688352346420e-03,-1.298018395900726318e-01,2.527899481356143951e-02,2.862143516540527344e-02,-3.177980706095695496e-02,-1.934575848281383514e-02
1.907890662550926208e-03,6.840621680021286011e-02,-2.937109209597110748e-02,-9.621708095073699951e-02,9.567309170961380005e-04,-1.322061717510223389e-01,2.610198408365249634e-02,3.042570315301418304e-02,-3.019301965832710266e-02,-1.921391300857067108e-02
1.907890662550926208e-03,6.840621680021286011e-02,-2.937109209597110748e-02,-9.621708095073699951e-02,9.567309170961380005e-04,-1.322061717510223389e-01,2.610198408365249634e-02,3.042570315301418304e-02,-3.019301965832710266e-02,-1.921391300857067108e-02
3.943649120628833771e-03,7.204035669565200806e-02,-3.037714958190917969e-02,-9.736969321966171265e-02,1.864558435045182705e-03,-1.344840228557586670e-01,2.599829807877540588e-02,3.076506033539772034e-02,-3.028774261474609375e-02,-1.827470958232879639e-02
3.943649120628833771e-03,7.204035669565200806e-02,-3.037714958190917969e-02,-9.736969321966171265e-02,1.864558435045182705e-03,-1.344840228557586670e-01,2.599829807877540588e-02,3.076506033539772034e-02,-3.028774261474609375e-02,-1.827470958232879639e-02
6.232768762856721878e-03,7.412315160036087036e-02,-3.054057992994785309e-02,-9.871469438076019287e-02,2.983161481097340584e-03,-1.360053271055221558e-01,2.562743052840232849e-02,3.179366886615753174e-02,-3.044015541672706604e-02,-1.878054998815059662e-02
6.232768762856721878e-03,7.412315160036087036e-02,-3.054057992994785309e-02,-9.871469438076019287e-02,2.983161481097340584e-03,-1.360053271055221558e-01,2.562743052840232849e-02,3.179366886615753174e-02,-3.044015541672706604e-02,-1.878054998815059662e-02
7.614424917846918106e-03,7.559221982955932617e-02,-3.129747509956359863e-02,-9.949364513158798218e-02,3.092155791819095612e-03,-1.377360075712203979e-01,2.569990605115890503e-02,3.229884058237075806e-02,-3.000999242067337036e-02,-1.784509420394897461e-02
7.614424917846918106e-03,7.559221982955932617e-02,-3.129747509956359863e-02,-9.949364513158798218e-02,3.092155791819095612e-03,-1.377360075712203979e-01,2.569990605115890503e-02,3.229884058237075806e-02,-3.000999242067337036e-02,-1.784509420394897461e-02
9.175227023661136627e-03,7.741504162549972534e-02,-3.158486634492874146e-02,-1.018437594175338745e-01,2.544806106016039848e-03,-1.400751471519470215e-01,2.607082575559616089e-02,3.358821198344230652e-02,-2.734853141009807587e-02,-1.809820532798767090e-02
9.175227023661136627e-03,7.741504162549972534e-02,-3.158486634492874146e-02,-1.018437594175338745e-01,2.544806106016039848e-03,-1.400751471519470215e-01,2.607082575559616089e-02,3.358821198344230652e-02,-2.734853141009807587e-02,-1.809820532798767090e-02
1.277725026011466980e-02,8.067478239536285400e-02,-3.195207566022872925e-02,-1.035327911376953125e-01,1.604519085958600044e-03,-1.409136354923248291e-01,2.534715831279754639e-02,3.498440980911254883e-02,-2.763964608311653137e-02,-1.836149953305721283e-02
1.277725026011466980e-02,8.067478239536285400e-02,-3.195207566022872925e-02,-1.035327911376953125e-01,1.604519085958600044e-03,-1.409136354923248291e-01,2.534715831279754639e-02,3.498440980911254883e-02,-2.763964608311653137e-02,-1.836149953305721283e-02
1.323243696242570877e-02,8.242249488830566406e-02,-3.121159225702285767e-02,-1.049234047532081604e-01,1.869501895271241665e-03,-1.437357515096664429e-01,2.612118981778621674e-02,3.456167504191398621e-02,-2.699636667966842651e-02,-1.681473292410373688e-02
1.323243696242570877e-02,8.242249488830566406e-02,-3.121159225702285767e-02,-1.049234047532081604e-01,1.869501895271241665e-03,-1.437357515096664429e-01,2.612118981778621674e-02,3.456167504191398621e-02,-2.699636667966842651e-02,-1.681473292410373688e-02
1.690552756190299988e-02,8.228648453950881958e-02,-3.164979070425033569e-02,-1.063247397541999817e-01,1.533571979962289333e-03,-1.448453217744827271e-01,2.596815861761569977e-02,3.605924174189567566e-02,-2.614288590848445892e-02,-1.762158051133155823e-02
1.690552756190299988e-02,8.228648453950881958e-02,-3.164979070425033569e-02,-1.063247397541999817e-01,1.533571979962289333e-03,-1.448453217744827271e-01,2.596815861761569977e-02,3.605924174189567566e-02,-2.614288590848445892e-02,-1.762158051133155823e-02
1.819875650107860565e-02,8.640064299106597900e-02,-3.331999853253364563e-02,-1.068030968308448792e-01,2.037238795310258865e-03,-1.448771208524703979e-01,2.691355533897876740e-02,3.637099638581275940e-02,-2.763080410659313202e-02,-1.747447624802589417e-02
1.819875650107860565e-02,8.640064299106597900e-02,-3.331999853253364563e-02,-1.068030968308448792e-01,2.037238795310258865e-03,-1.448771208524703979e-01,2.691355533897876740e-02,3.637099638581275940e-02,-2.763080410659313202e-02,-1.747447624802589417e-02
1.920205354690551758e-02,8.810779452323913574e-02,-3.284174576401710510e-02,-1.077791377902030945e-01,4.668465699069201946e-04,-1.478774845600128174e-01,2.820244617760181427e-02,3.772584348917007446e-02,-2.624332346022129059e-02,-1.745142042636871338e-02
1.920205354690551758e-02,8.810779452323913574e-02,-3.284174576401710510e-02,-1.077791377902030945e-01,4.668465699069201946e-04,-1.478774845600128174e-01,2.820244617760181427e-02,3.772584348917007446e-02,-2.624332346022129059e-02,-1.745142042636871338e-02
2.090315707027912140e-02,8.783257007598876953e-02,-3.178621456027030945e-02,-1.107510030269622803e-01,1.676840474829077721e-03,-1.481587737798690796e-01,2.700675651431083679e-02,3.782312944531440735e-02,-2.449594251811504364e-02,-1.789966598153114319e-02
2.090315707027912140e-02,8.783257007598876953e-02,-3.178621456027030945e-02,-1.107510030269622803e-01,1.676840474829077721e-03,-1.481587737798690796e-01,2.700675651431083679e-02,3.782312944531440735e-02,-2.449594251811504364e-02,-1.789966598153114319e-02
2.282027713954448700e-02,9.068584442138671875e-02,-3.258875384926795959e-02,-1.115974113345146179e-01,4.825991345569491386e-04,-1.501469463109970093e-01,2.844006381928920746e-02,3.812299668788909912e-02,-2.450725436210632324e-02,-1.668729819357395172e-02
2.282027713954448700e-02,9.068584442138671875e-02,-3.258875384926795959e-02,-1.115974113345146179e-01,4.825991345569491386e-04,-1.501469463109970093e-01,2.844006381928920746e-02,3.812299668788909912e-02,-2.450725436210632324e-02,-1.668729819357395172e-02
2.333323471248149872e-02,9.276582300662994385e-02,-3.275919333100318909e-02,-1.129363551735877991e-01,6.429036147892475128e-04,-1.521281003952026367e-01,2.954937517642974854e-02,3.920585662126541138e-02,-2.334346063435077667e-02,-1.724806055426597595e-02
2.333323471248149872e-02,9.276582300662994385e-02,-3.275919333100318909e-02,-1.129363551735877991e-01,6.429036147892475128e-04,-1.521281003952026367e-01,2.954937517642974854e-02,3.920585662126541138e-02,-2.334346063435077667e-02,-1.724806055426597595e-02
2.481787838041782379e-02,9.553952515125274658e-02,-3.323916345834732056e-02,-1.129868179559707642e-01,9.708994766697287560e-04,-1.524264812469482422e-01,2.847336605191230774e-02,3.989113494753837585e-02,-2.413884364068508148e-02,-1.789873279631137848e-02
2.481787838041782379e-02,9.553952515125274658e-02,-3.323916345834732056e-02,-1.129868179559707642e-01,9.708994766697287560e-04,-1.524264812469482422e-01,2.847336605191230774e-02,3.989113494753837585e-02,-2.413884364068508148e-02,-1.789873279631137848e-02
2.851250581443309784e-02,9.514237195253372192e-02,-3.356966003775596619e-02,-1.140599995851516724e-01,1.607326208613812923e-03,-1.532714813947677612e-01,2.680318616330623627e-02,4.061910137534141541e-02,-2.294409088790416718e-02,-1.882818154990673065e-02
2.851250581443309784e-02,9.514237195253372192e-02,-3.356966003775596619e-02,-1.140599995851516724e-01,1.607326208613812923e-03,-1.532714813947677612e-01,2.680318616330623627e-02,4.061910137534141541e-02,-2.294409088790416718e-02,-1.882818154990673065e-02
