-1.856010034680366516e-02,-4.520404618233442307e-03,-4.890789091587066650e-02,4.364297538995742798e-02,2.461437880992889404e-02,-6.748930364847183228e-02,-3.665250493213534355e-03,6.210588291287422180e-02,-2.895526401698589325e-02,3.403964266180992126e-02
-1.856010034680366516e-02,-4.520404618233442307e-03,-4.890789091587066650e-02,4.364297538995742798e-02,2.461437880992889404e-02,-6.748930364847183228e-02,-3.665250493213534355e-03,6.210588291287422180e-02,-2.895526401698589325e-02,3.403964266180992126e-02
-1.916094496846199036e-02,6.536788772791624069e-03,-4.198627546429634094e-02,3.955777361989021301e-02,3.454013913869857788e-02,-7.917084544897079468e-02,-9.954127483069896698e-03,6.334301829338073730e-02,-2.946993894875049591e-02,2.844547666609287262e-02
-1.916094496846199036e-02,6.536788772791624069e-03,-4.198627546429634094e-02,3.955777361989021301e-02,3.454013913869857788e-02,-7.917084544897079468e-02,-9.954127483069896698e-03,6.334301829338073730e-02,-2.946993894875049591e-02,2.844547666609287262e-02
-1.748522743582725525e-02,1.687767170369625092e-02,-3.887660801410675049e-02,3.753855824470520020e-02,3.706697374582290649e-02,-8.429531008005142212e-02,-1.617908477783203125e-02,6.619233638048171997e-02,-3.096628747880458832e-02,2.508462220430374146e-02
-1.748522743582725525e-02,1.687767170369625092e-02,-3.887660801410675049e-02,3.753855824470520020e-02,3.706697374582290649e-02,-8.429531008005142212e-02,-1.617908477783203125e-02,6.619233638048171997e-02,-3.096628747880458832e-02,2.508462220430374146e-02
-1.728277467191219330e-02,2.575408853590488434e-02,-3.753967955708503723e-02,3.612357750535011292e-02,3.997338190674781799e-02,-8.846599608659744263e-02,-1.963930018246173859e-02,6.997013837099075317e-02,-3.409774973988533020e-02,2.335069887340068817e-02
-1.728277467191219330e-02,2.575408853590488434e-02,-3.753967955708503723e-02,3.612357750535011292e-02,3.997338190674781799e-02,-8.846599608659744263e-02,-1.963930018246173859e-02,6.997013837099075317e-02,-3.409774973988533020e-02,2.335069887340068817e-02
-1.632962003350257874e-02,3.279587998986244202e-02,-3.662470728158950806e-02,3.565663471817970276e-02,4.106968641281127930e-02,-8.954446762800216675e-02,-2.294602617621421814e-02,7.157810777425765991e-02,-3.715707361698150635e-02,2.197962813079357147e-02
-1.632962003350257874e-02,3.279587998986244202e-02,-3.662470728158950806e-02,3.565663471817970276e-02,4.106968641281127930e-02,-8.954446762800216675e-02,-2.294602617621421814e-02,7.157810777425765991e-02,-3.715707361698150635e-02,2.197962813079357147e-02
-1.524352468550205231e-02,3.856294974684715271e-02,-3.493339940905570984e-02,3.431918099522590637e-02,3.969412297010421753e-02,-9.059691429138183594e-02,-2.441746927797794342e-02,7.447323203086853027e-02,-4.037221893668174744e-02,2.172902226448059082e-02
-1.524352468550205231e-02,3.856294974684715271e-02,-3.493339940905570984e-02,3.431918099522590637e-02,3.969412297010421753e-02,-9.059691429138183594e-02,-2.441746927797794342e-02,7.447323203086853027e-02,-4.037221893668174744e-02,2.172902226448059082e-02
-1.531895622611045837e-02,4.544047638773918152e-02,-3.399881348013877869e-02,3.367260470986366272e-02,3.969639912247657776e-02,-9.063177555799484253e-02,-2.716566063463687897e-02,7.657855004072189331e-02,-4.396665096282958984e-02,2.132821828126907349e-02
-1.531895622611045837e-02,4.544047638773918152e-02,-3.399881348013877869e-02,3.367260470986366272e-02,3.969639912247657776e-02,-9.063177555799484253e-02,-2.716566063463687897e-02,7.657855004072189331e-02,-4.396665096282958984e-02,2.132821828126907349e-02
-1.636538095772266388e-02,4.964139312505722046e-02,-3.453291207551956177e-02,3.282658010721206665e-02,3.904322162270545959e-02,-8.974973857402801514e-02,-2.628366835415363312e-02,7.945916801691055298e-02,-4.717535898089408875e-02,2.121019549667835236e-02
-1.636538095772266388e-02,4.964139312505722046e-02,-3.453291207551956177e-02,3.282658010721206665e-02,3.904322162270545959e-02,-8.974973857402801514e-02,-2.628366835415363312e-02,7.945916801691055298e-02,-4.717535898089408875e-02,2.121019549667835236e-02
-1.613623462617397308e-02,5.410204082727432251e-02,-3.286788612604141235e-02,3.141100704669952393e-02,3.743655979633331299e-02,-8.944895863533020020e-02,-2.881690859794616699e-02,8.111475408077239990e-02,-4.944961518049240112e-02,2.206585370004177094e-02
-1.613623462617397308e-02,5.410204082727432251e-02,-3.286788612604141235e-02,3.141100704669952393e-02,3.743655979633331299e-02,-8.944895863533020020e-02,-2.881690859794616699e-02,8.111475408077239990e-02,-4.944961518049240112e-02,2.206585370004177094e-02
-1.728492788970470428e-02,5.735084041953086853e-02,-3.114272095263004303e-02,3.040505945682525635e-02,3.643683716654777527e-02,-9.000658243894577026e-02,-2.928272075951099396e-02,8.546862006187438965e-02,-5.221111327409744263e-02,2.112727053463459015e-02
-1.728492788970470428e-02,5.735084041953086853e-02,-3.114272095263004303e-02,3.040505945682525635e-02,3.643683716654777527e-02,-9.000658243894577026e-02,-2.928272075951099396e-02,8.546862006187438965e-02,-5.221111327409744263e-02,2.112727053463459015e-02
-1.696008071303367615e-02,6.231872737407684326e-02,-3.045740909874439240e-02,2.969948016107082367e-02,3.532692790031433105e-02,-8.860326558351516724e-02,-3.095737099647521973e-02,8.527385443449020386e-02,-5.561318993568420410e-02,2.262585610151290894e-02
-1.696008071303367615e-02,6.231872737407684326e-02,-3.045740909874439240e-02,2.969948016107082367e-02,3.532692790031433105e-02,-8.860326558351516724e-02,-3.095737099647521973e-02,8.527385443449020386e-02,-5.561318993568420410e-02,2.262585610151290894e-02
-1.770655438303947449e-02,6.467875093221664429e-02,-3.025599010288715363e-02,2.977297641336917877e-02,3.386798501014709473e-02,-8.738169819116592407e-02,-3.155807033181190491e-02,8.898470550775527954e-02,-5.837578698992729187e-02,2.138871140778064728e-02
-1.770655438303947449e-02,6.467875093221664429e-02,-3.025599010288715363e-02,2.977297641336917877e-02,3.386798501014709473e-02,-8.738169819116592407e-02,-3.155807033181190491e-02,8.898470550775527954e-02,-5.837578698992729187e-02,2.138871140778064728e-02
-1.968730986118316650e-02,6.666798144578933716e-02,-2.917963825166225433e-02,2.795997448265552521e-02,3.330308198928833008e-02,-8.725221455097198486e-02,-3.162298724055290222e-02,9.129728376865386963e-02,-5.967290326952934265e-02,2.186325006186962128e-02
-1.968730986118316650e-02,6.666798144578933716e-02,-2.917963825166225433e-02,2.795997448265552521e-02,3.330308198928833008e-02,-8.725221455097198486e-02,-3.162298724055290222e-02,9.129728376865386963e-02,-5.967290326952934265e-02,2.186325006186962128e-02
-1.880646869540214539e-02,6.709240376949310303e-02,-2.749397419393062592e-02,2.731530927121639252e-02,3.221338614821434021e-02,-8.668559044599533081e-02,-3.152357414364814758e-02,9.498740732669830322e-02,-6.422334164381027222e-02,2.129090391099452972e-02
-1.880646869540214539e-02,6.709240376949310303e-02,-2.749397419393062592e-02,2.731530927121639252e-02,3.221338614821434021e-02,-8.668559044599533081e-02,-3.152357414364814758e-02,9.498740732669830322e-02,-6.422334164381027222e-02,2.129090391099452972e-02
-2.017875015735626221e-02,7.080128788948059082e-02,-2.637485228478908539e-02,2.616836316883563995e-02,3.174072504043579102e-02,-8.445870876312255859e-02,-3.374110534787178040e-02,9.563013911247253418e-02,-6.558239459991455078e-02,2.064628712832927704e-02
-2.017875015735626221e-02,7.080128788948059082e-02,-2.637485228478908539e-02,2.616836316883563995e-02,3.174072504043579102e-02,-8.445870876312255859e-02,-3.374110534787178040e-02,9.563013911247253418e-02,-6.558239459991455078e-02,2.064628712832927704e-02
-1.900655589997768402e-02,7.243922352790832520e-02,-2.584049105644226074e-02,2.268457226455211639e-02,3.124668076634407043e-02,-8.479785174131393433e-02,-3.349267691373825073e-02,9.823428839445114136e-02,-6.698267906904220581e-02,2.170194685459136963e-02
-1.900655589997768402e-02,7.243922352790832520e-02,-2.584049105644226074e-02,2.268457226455211639e-02,3.124668076634407043e-02,-8.479785174131393433e-02,-3.349267691373825073e-02,9.823428839445114136e-02,-6.698267906904220581e-02,2.170194685459136963e-02
-2.044255845248699188e-02,7.489971816539764404e-02,-2.518385089933872223e-02,2.167003601789474487e-02,3.079936280846595764e-02,-8.465246856212615967e-02,-3.324920684099197388e-02,9.895444661378860474e-02,-6.741838902235031128e-02,2.160793915390968323e-02
-2.044255845248699188e-02,7.489971816539764404e-02,-2.518385089933872223e-02,2.167003601789474487e-02,3.079936280846595764e-02,-8.465246856212615967e-02,-3.324920684099197388e-02,9.895444661378860474e-02,-6.741838902235031128e-02,2.160793915390968323e-02
-2.200060524046421051e-02,7.605108618736267090e-02,-2.379566244781017303e-02,1.928550004959106445e-02,3.140890598297119141e-02,-8.295658230781555176e-02,-3.403617441654205322e-02,9.960033744573593140e-02,-6.981842964887619019e-02,2.312936447560787201e-02
-2.200060524046421051e-02,7.605108618736267090e-02,-2.379566244781017303e-02,1.928550004959106445e-02,3.140890598297119141e-02,-8.295658230781555176e-02,-3.403617441654205322e-02,9.960033744573593140e-02,-6.981842964887619019e-02,2.312936447560787201e-02
-2.243334241211414337e-02,7.667136192321777344e-02,-2.404925413429737091e-02,1.924991235136985779e-02,3.026185929775238037e-02,-8.213688433170318604e-02,-3.374557197093963623e-02,1.003206819295883179e-01,-7.129857689142227173e-02,2.406880632042884827e-02
-2.243334241211414337e-02,7.667136192321777344e-02,-2.404925413429737091e-02,1.924991235136985779e-02,3.026185929775238037e-02,-8.213688433170318604e-02,-3.374557197093963623e-02,1.003206819295883179e-01,-7.129857689142227173e-02,2.406880632042884827e-02
-2.283698506653308868e-02,7.994710654020309448e-02,-2.271649800240993500e-02,1.857212558388710022e-02,2.950139902532100677e-02,-8.264547586441040039e-02,-3.518076241016387939e-02,1.046641692519187927e-01,-7.311133295297622681e-02,2.168102189898490906e-02
-2.283698506653308868e-02,7.994710654020309448e-02,-2.271649800240993500e-02,1.857212558388710022e-02,2.950139902532100677e-02,-8.264547586441040039e-02,-3.518076241016387939e-02,1.046641692519187927e-01,-7.311133295297622681e-02,2.168102189898490906e-02
-2.324693836271762848e-02,8.176051825284957886e-02,-2.200968191027641296e-02,1.721228472888469696e-02,2.979406155645847321e-02,-8.064209669828414917e-02,-3.483984246850013733e-02,1.054652109742164612e-01,-7.687676697969436646e-02,2.237982861697673798e-02
-2.324693836271762848e-02,8.176051825284957886e-02,-2.200968191027641296e-02,1.721228472888469696e-02,2.979406155645847321e-02,-8.064209669828414917e-02,-3.483984246850013733e-02,1.054652109742164612e-01,-7.687676697969436646e-02,2.237982861697673798e-02
-2.461229451000690460e-02,8.195739984512329102e-02,-2.033640816807746887e-02,1.604441367089748383e-02,2.839582599699497223e-02,-8.128333836793899536e-02,-3.622725605964660645e-02,1.075900495052337646e-01,-7.691354304552078247e-02,2.292840555310249329e-02
-2.461229451000690460e-02,8.195739984512329102e-02,-2.033640816807746887e-02,1.604441367089748383e-02,2.839582599699497223e-02,-8.128333836793899536e-02,-3.622725605964660645e-02,1.075900495052337646e-01,-7.691354304552078247e-02,2.292840555310249329e-02
-2.508018352091312408e-02,8.202578872442245483e-02,-1.929618045687675476e-02,1.596962660551071167e-02,2.915485762059688568e-02,-8.060725778341293335e-02,-3.681359440088272095e-02,1.074242815375328064e-01,-7.788005471229553223e-02,2.235612645745277405e-02
-2.508018352091312408e-02,8.202578872442245483e-02,-1.929618045687675476e-02,1.596962660551071167e-02,2.915485762059688568e-02,-8.060725778341293335e-02,-3.681359440088272095e-02,1.074242815375328064e-01,-7.788005471229553223e-02,2.235612645745277405e-02
-2.740047127008438110e-02,8.426497876644134521e-02,-1.856619678437709808e-02,1.427383068948984146e-02,2.809837087988853455e-02,-7.857604324817657471e-02,-3.753494098782539368e-02,1.105414256453514099e-01,-8.023966103792190552e-02,2.236511744558811188e-02
-2.740047127008438110e-02,8.426497876644134521e-02,-1.856619678437709808e-02,1.427383068948984146e-02,2.809837087988853455e-02,-7.857604324817657471e-02,-3.753494098782539368e-02,1.105414256453514099e-01,-8.023966103792190552e-02,2.236511744558811188e-02
-2.693521231412887573e-02,8.461385220289230347e-02,-1.775003783404827118e-02,1.413602475076913834e-02,2.662562206387519836e-02,-7.947509735822677612e-02,-3.677224740386009216e-02,1.135677397251129150e-01,-8.119527250528335571e-02,2.077288366854190826e-02
-2.693521231412887573e-02,8.461385220289230347e-02,-1.775003783404827118e-02,1.413602475076913834e-02,2.662562206387519836e-02,-7.947509735822677612e-02,-3.677224740386009216e-02,1.135677397251129150e-01,-8.119527250528335571e-02,2.077288366854190826e-02
-2.725621871650218964e-02,8.561670035123825073e-02,-1.646449044346809387e-02,1.294647250324487686e-02,2.765548788011074066e-02,-7.861935347318649292e-02,-3.781303018331527710e-02,1.133123710751533508e-01,-8.320523053407669067e-02,2.155111916363239288e-02
-2.725621871650218964e-02,8.561670035123825073e-02,-1.646449044346809387e-02,1.294647250324487686e-02,2.765548788011074066e-02,-7.861935347318649292e-02,-3.781303018331527710e-02,1.133123710751533508e-01,-8.320523053407669067e-02,2.155111916363239288e-02
-2.781844511628150940e-02,8.831985294818878174e-02,-1.596143096685409546e-02,1.291836705058813095e-02,2.537185885012149811e-02,-7.798014581203460693e-02,-3.513765335083007812e-02,1.130453124642372131e-01,-8.490424603223800659e-02,2.173602208495140076e-02
-2.781844511628150940e-02,8.831985294818878174e-02,-1.596143096685409546e-02,1.291836705058813095e-02,2.537185885012149811e-02,-7.798014581203460693e-02,-3.513765335083007812e-02,1.130453124642372131e-01,-8.490424603223800659e-02,2.173602208495140076e-02
-2.864637784659862518e-02,8.903411030769348145e-02,-1.461774948984384537e-02,1.192673295736312866e-02,2.640124782919883728e-02,-7.877743989229202271e-02,-3.767177462577819824e-02,1.159780770540237427e-01,-8.500082045793533325e-02,2.002596110105514526e-02
-2.864637784659862518e-02,8.903411030769348145e-02,-1.461774948984384537e-02,1.192673295736312866e-02,2.640124782919883728e-02,-7.877743989229202271e-02,-3.767177462577819824e-02,1.159780770540237427e-01,-8.500082045793533325e-02,2.002596110105514526e-02
-2.860320359468460083e-02,8.955328166484832764e-02,-1.449513621628284454e-02,1.268611475825309753e-02,2.687435969710350037e-02,-7.853565365076065063e-02,-3.851387277245521545e-02,1.163231208920478821e-01,-8.693380653858184814e-02,2.017720602452754974e-02
-2.860320359468460083e-02,8.955328166484832764e-02,-1.449513621628284454e-02,1.268611475825309753e-02,2.687435969710350037e-02,-7.853565365076065063e-02,-3.851387277245521545e-02,1.163231208920478821e-01,-8.693380653858184814e-02,2.017720602452754974e-02
-2.909364551305770874e-02,8.868132531642913818e-02,-1.221608463674783707e-02,1.290838513523340225e-02,2.718472853302955627e-02,-7.910095900297164917e-02,-4.006887227296829224e-02,1.170410364866256714e-01,-8.804713934659957886e-02,1.973198726773262024e-02
-2.909364551305770874e-02,8.868132531642913818e-02,-1.221608463674783707e-02,1.290838513523340225e-02,2.718472853302955627e-02,-7.910095900297164917e-02,-4.006887227296829224e-02,1.170410364866256714e-01,-8.804713934659957886e-02,1.973198726773262024e-02
