-6.460225582122802734e-02,4.498277232050895691e-02,-1.842684857547283173e-02,1.270116958767175674e-02,-1.130742020905017853e-02,-1.116718817502260208e-02,4.939914122223854065e-02,3.736557438969612122e-02,-2.622697688639163971e-02,5.816304311156272888e-02
-6.460225582122802734e-02,4.498277232050895691e-02,-1.842684857547283173e-02,1.270116958767175674e-02,-1.130742020905017853e-02,-1.116718817502260208e-02,4.939914122223854065e-02,3.736557438969612122e-02,-2.622697688639163971e-02,5.816304311156272888e-02
-5.955112725496292114e-02,5.218786373734474182e-02,-1.962541788816452026e-02,6.245677825063467026e-03,-3.765080124139785767e-03,-1.946394890546798706e-02,3.684718906879425049e-02,4.274763911962509155e-02,-2.130411192774772644e-02,5.886123701930046082e-02
-5.955112725496292114e-02,5.218786373734474182e-02,-1.962541788816452026e-02,6.245677825063467026e-03,-3.765080124139785767e-03,-1.946394890546798706e-02,3.684718906879425049e-02,4.274763911962509155e-02,-2.130411192774772644e-02,5.886123701930046082e-02
-5.601869150996208191e-02,5.773576349020004272e-02,-2.084054797887802124e-02,4.085124470293521881e-03,-1.222068327479064465e-03,-2.685642056167125702e-02,2.970089204609394073e-02,4.412169009447097778e-02,-1.720245927572250366e-02,6.114328280091285706e-02
-5.601869150996208191e-02,5.773576349020004272e-02,-2.084054797887802124e-02,4.085124470293521881e-03,-1.222068327479064465e-03,-2.685642056167125702e-02,2.970089204609394073e-02,4.412169009447097778e-02,-1.720245927572250366e-02,6.114328280091285706e-02
-5.422750115394592285e-02,6.424799561500549316e-02,-2.344416826963424683e-02,1.448682625778019428e-03,1.419128151610493660e-03,-3.255258128046989441e-02,2.671823650598526001e-02,4.691410064697265625e-02,-1.530168484896421432e-02,6.246699020266532898e-02
-5.422750115394592285e-02,6.424799561500549316e-02,-2.344416826963424683e-02,1.448682625778019428e-03,1.419128151610493660e-03,-3.255258128046989441e-02,2.671823650598526001e-02,4.691410064697265625e-02,-1.530168484896421432e-02,6.246699020266532898e-02
-5.189504474401473999e-02,6.844367086887359619e-02,-2.676105499267578125e-02,6.013106903992593288e-04,2.649887930601835251e-03,-3.575962036848068237e-02,2.324295602738857269e-02,4.867461696267127991e-02,-1.310116238892078400e-02,6.353727728128433228e-02
-5.189504474401473999e-02,6.844367086887359619e-02,-2.676105499267578125e-02,6.013106903992593288e-04,2.649887930601835251e-03,-3.575962036848068237e-02,2.324295602738857269e-02,4.867461696267127991e-02,-1.310116238892078400e-02,6.353727728128433228e-02
-4.964257776737213135e-02,7.216103374958038330e-02,-2.820584364235401154e-02,-7.389695383608341217e-04,3.579043317586183548e-03,-3.819198161363601685e-02,2.176277153193950653e-02,5.021085962653160095e-02,-1.351546123623847961e-02,6.470525264739990234e-02
-4.964257776737213135e-02,7.216103374958038330e-02,-2.820584364235401154e-02,-7.389695383608341217e-04,3.579043317586183548e-03,-3.819198161363601685e-02,2.176277153193950653e-02,5.021085962653160095e-02,-1.351546123623847961e-02,6.470525264739990234e-02
-4.919487982988357544e-02,7.622446864843368530e-02,-3.082417696714401245e-02,-2.477641683071851730e-03,4.046172834932804108e-03,-3.997214138507843018e-02,2.138877287507057190e-02,5.163941904902458191e-02,-1.281958632171154022e-02,6.657055020332336426e-02
-4.919487982988357544e-02,7.622446864843368530e-02,-3.082417696714401245e-02,-2.477641683071851730e-03,4.046172834932804108e-03,-3.997214138507843018e-02,2.138877287507057190e-02,5.163941904902458191e-02,-1.281958632171154022e-02,6.657055020332336426e-02
-4.768630117177963257e-02,7.696484774351119995e-02,-3.415906429290771484e-02,-2.983663929626345634e-03,3.095472464337944984e-03,-4.101531952619552612e-02,2.263400889933109283e-02,5.347901582717895508e-02,-1.255571097135543823e-02,6.858524680137634277e-02
-4.768630117177963257e-02,7.696484774351119995e-02,-3.415906429290771484e-02,-2.983663929626345634e-03,3.095472464337944984e-03,-4.101531952619552612e-02,2.263400889933109283e-02,5.347901582717895508e-02,-1.255571097135543823e-02,6.858524680137634277e-02
-4.729598760604858398e-02,7.938463985919952393e-02,-3.421508148312568665e-02,-3.989517223089933395e-03,2.024516928941011429e-03,-4.342728108167648315e-02,2.207921631634235382e-02,5.545481294393539429e-02,-1.205445639789104462e-02,6.979820877313613892e-02
-4.729598760604858398e-02,7.938463985919952393e-02,-3.421508148312568665e-02,-3.989517223089933395e-03,2.024516928941011429e-03,-4.342728108167648315e-02,2.207921631634235382e-02,5.545481294393539429e-02,-1.205445639789104462e-02,6.979820877313613892e-02
-4.654243960976600647e-02,8.090403676033020020e-02,-3.454563021659851074e-02,-5.981278140097856522e-03,2.588116331025958061e-03,-4.470296204090118408e-02,2.073464170098304749e-02,5.606577545404434204e-02,-1.176560204476118088e-02,7.187429815530776978e-02
-4.654243960976600647e-02,8.090403676033020020e-02,-3.454563021659851074e-02,-5.981278140097856522e-03,2.588116331025958061e-03,-4.470296204090118408e-02,2.073464170098304749e-02,5.606577545404434204e-02,-1.176560204476118088e-02,7.187429815530776978e-02
-4.736356809735298157e-02,8.310103416442871094e-02,-3.609290346503257751e-02,-7.350769359618425369e-03,3.289744025096297264e-03,-4.443874210119247437e-02,2.054426260292530060e-02,5.816409736871719360e-02,-1.280891615897417068e-02,7.283338159322738647e-02
-4.736356809735298157e-02,8.310103416442871094e-02,-3.609290346503257751e-02,-7.350769359618425369e-03,3.289744025096297264e-03,-4.443874210119247437e-02,2.054426260292530060e-02,5.816409736871719360e-02,-1.280891615897417068e-02,7.283338159322738647e-02
-4.450904205441474915e-02,8.355724066495895386e-02,-3.749122098088264465e-02,-7.049384526908397675e-03,4.068941343575716019e-03,-4.502869024872779846e-02,2.024096436798572540e-02,5.824410170316696167e-02,-1.406813599169254303e-02,7.334411889314651489e-02
-4.450904205441474915e-02,8.355724066495895386e-02,-3.749122098088264465e-02,-7.049384526908397675e-03,4.068941343575716019e-03,-4.502869024872779846e-02,2.024096436798572540e-02,5.824410170316696167e-02,-1.406813599169254303e-02,7.334411889314651489e-02
-4.610668495297431946e-02,8.554800599813461304e-02,-3.884053602814674377e-02,-9.177134372293949127e-03,4.683798179030418396e-03,-4.561445862054824829e-02,2.031773515045642853e-02,5.880520865321159363e-02,-1.293735671788454056e-02,7.540530711412429810e-02
-4.610668495297431946e-02,8.554800599813461304e-02,-3.884053602814674377e-02,-9.177134372293949127e-03,4.683798179030418396e-03,-4.561445862054824829e-02,2.031773515045642853e-02,5.880520865321159363e-02,-1.293735671788454056e-02,7.540530711412429810e-02
-4.528477042913436890e-02,8.629427105188369751e-02,-4.033825919032096863e-02,-7.765674032270908356e-03,3.382766852155327797e-03,-4.671112075448036194e-02,2.326869219541549683e-02,5.917576327919960022e-02,-1.542008481919765472e-02,7.702609896659851074e-02
-4.528477042913436890e-02,8.629427105188369751e-02,-4.033825919032096863e-02,-7.765674032270908356e-03,3.382766852155327797e-03,-4.671112075448036194e-02,2.326869219541549683e-02,5.917576327919960022e-02,-1.542008481919765472e-02,7.702609896659851074e-02
-4.506271705031394958e-02,8.672715723514556885e-02,-4.014794901013374329e-02,-9.213247336447238922e-03,4.897299222648143768e-03,-4.791931807994842529e-02,2.119846642017364502e-02,6.100072711706161499e-02,-1.487452909350395203e-02,7.696663588285446167e-02
-4.506271705031394958e-02,8.672715723514556885e-02,-4.014794901013374329e-02,-9.213247336447238922e-03,4.897299222648143768e-03,-4.791931807994842529e-02,2.119846642017364502e-02,6.100072711706161499e-02,-1.487452909350395203e-02,7.696663588285446167e-02
-4.430675506591796875e-02,8.659909665584564209e-02,-4.062609001994132996e-02,-9.156488813459873199e-03,8.665985660627484322e-04,-4.626281559467315674e-02,2.248812280595302582e-02,6.053107231855392456e-02,-1.668197847902774811e-02,8.004707843065261841e-02
-4.430675506591796875e-02,8.659909665584564209e-02,-4.062609001994132996e-02,-9.156488813459873199e-03,8.665985660627484322e-04,-4.626281559467315674e-02,2.248812280595302582e-02,6.053107231855392456e-02,-1.668197847902774811e-02,8.004707843065261841e-02
-4.240342229604721069e-02,8.739682286977767944e-02,-3.985843807458877563e-02,-1.091741491109132767e-02,2.680985489860177040e-03,-4.986453428864479065e-02,2.229406498372554779e-02,6.215155124664306641e-02,-1.716449111700057983e-02,8.055090904235839844e-02
-4.240342229604721069e-02,8.739682286977767944e-02,-3.985843807458877563e-02,-1.091741491109132767e-02,2.680985489860177040e-03,-4.986453428864479065e-02,2.229406498372554779e-02,6.215155124664306641e-02,-1.716449111700057983e-02,8.055090904235839844e-02
-4.359690845012664795e-02,8.953107148408889771e-02,-4.120491072535514832e-02,-1.163792051374912262e-02,2.290195319801568985e-03,-4.778886586427688599e-02,2.331369556486606598e-02,6.273320317268371582e-02,-1.826180703938007355e-02,8.079194277524948120e-02
-4.359690845012664795e-02,8.953107148408889771e-02,-4.120491072535514832e-02,-1.163792051374912262e-02,2.290195319801568985e-03,-4.778886586427688599e-02,2.331369556486606598e-02,6.273320317268371582e-02,-1.826180703938007355e-02,8.079194277524948120e-02
-4.303245618939399719e-02,9.307507425546646118e-02,-4.186010733246803284e-02,-1.400095503777265549e-02,3.507862100377678871e-03,-5.010784417390823364e-02,2.215549908578395844e-02,6.104161590337753296e-02,-1.595917344093322754e-02,8.311626315116882324e-02
-4.303245618939399719e-02,9.307507425546646118e-02,-4.186010733246803284e-02,-1.400095503777265549e-02,3.507862100377678871e-03,-5.010784417390823364e-02,2.215549908578395844e-02,6.104161590337753296e-02,-1.595917344093322754e-02,8.311626315116882324e-02
-4.244485870003700256e-02,9.530994296073913574e-02,-4.169723019003868103e-02,-1.405639480799436569e-02,4.985282663255929947e-03,-5.008836463093757629e-02,2.272072248160839081e-02,6.056943163275718689e-02,-1.786416023969650269e-02,8.245889842510223389e-02
-4.244485870003700256e-02,9.530994296073913574e-02,-4.169723019003868103e-02,-1.405639480799436569e-02,4.985282663255929947e-03,-5.008836463093757629e-02,2.272072248160839081e-02,6.056943163275718689e-02,-1.786416023969650269e-02,8.245889842510223389e-02
-4.011642932891845703e-02,9.400448203086853027e-02,-4.166037216782569885e-02,-1.602642983198165894e-02,3.718685824424028397e-03,-5.028309673070907593e-02,2.395533211529254913e-02,6.239854544401168823e-02,-1.815174147486686707e-02,8.282037079334259033e-02
-4.011642932891845703e-02,9.400448203086853027e-02,-4.166037216782569885e-02,-1.602642983198165894e-02,3.718685824424028397e-03,-5.028309673070907593e-02,2.395533211529254913e-02,6.239854544401168823e-02,-1.815174147486686707e-02,8.282037079334259033e-02
-3.625624254345893860e-02,9.664917737245559692e-02,-4.149330779910087585e-02,-1.667987182736396790e-02,6.661956431344151497e-04,-4.927214980125427246e-02,1.817137561738491058e-02,6.325898319482803345e-02,-1.995535194873809814e-02,8.521772921085357666e-02
-3.625624254345893860e-02,9.664917737245559692e-02,-4.149330779910087585e-02,-1.667987182736396790e-02,6.661956431344151497e-04,-4.927214980125427246e-02,1.817137561738491058e-02,6.325898319482803345e-02,-1.995535194873809814e-02,8.521772921085357666e-02
-3.801719844341278076e-02,1.006154641509056091e-01,-4.522793740034103394e-02,-1.044621132314205170e-02,-2.083325060084462166e-03,-5.150429159402847290e-02,1.827838085591793060e-02,6.468965858221054077e-02,-2.423911541700363159e-02,8.788080513477325439e-02
-3.801719844341278076e-02,1.006154641509056091e-01,-4.522793740034103394e-02,-1.044621132314205170e-02,-2.083325060084462166e-03,-5.150429159402847290e-02,1.827838085591793060e-02,6.468965858221054077e-02,-2.423911541700363159e-02,8.788080513477325439e-02
-4.106331244111061096e-02,9.922546148300170898e-02,-4.354862868785858154e-02,-1.610217057168483734e-02,-6.722915568388998508e-04,-5.105347186326980591e-02,1.803255639970302582e-02,6.988379359245300293e-02,-2.532140724360942841e-02,8.920967578887939453e-02
-4.106331244111061096e-02,9.922546148300170898e-02,-4.354862868785858154e-02,-1.610217057168483734e-02,-6.722915568388998508e-04,-5.105347186326980591e-02,1.803255639970302582e-02,6.988379359245300293e-02,-2.532140724360942841e-02,8.920967578887939453e-02
-3.885937854647636414e-02,1.025603264570236206e-01,-4.861108213663101196e-02,-1.435348484665155411e-02,2.967773471027612686e-03,-5.276596546173095703e-02,2.224021777510643005e-02,6.792197376489639282e-02,-2.520391903817653656e-02,8.796056360006332397e-02
-3.885937854647636414e-02,1.025603264570236206e-01,-4.861108213663101196e-02,-1.435348484665155411e-02,2.967773471027612686e-03,-5.276596546173095703e-02,2.224021777510643005e-02,6.792197376489639282e-02,-2.520391903817653656e-02,8.796056360006332397e-02
-4.082192108035087585e-02,1.030498966574668884e-01,-5.124960467219352722e-02,-1.943209767341613770e-02,4.616382997483015060e-03,-4.905559867620468140e-02,1.905562914907932281e-02,6.873627007007598877e-02,-2.361440658569335938e-02,9.202571213245391846e-02
-4.082192108035087585e-02,1.030498966574668884e-01,-5.124960467219352722e-02,-1.943209767341613770e-02,4.616382997483015060e-03,-4.905559867620468140e-02,1.905562914907932281e-02,6.873627007007598877e-02,-2.361440658569335938e-02,9.202571213245391846e-02
-3.752620518207550049e-02,1.066051572561264038e-01,-5.309462919831275940e-02,-1.380535773932933807e-02,-1.399619271978735924e-03,-4.721136018633842468e-02,9.300876408815383911e-03,7.103649526834487915e-02,-2.883879467844963074e-02,9.504610300064086914e-02
-3.752620518207550049e-02,1.066051572561264038e-01,-5.309462919831275940e-02,-1.380535773932933807e-02,-1.399619271978735924e-03,-4.721136018633842468e-02,9.300876408815383911e-03,7.103649526834487915e-02,-2.883879467844963074e-02,9.504610300064086914e-02
-3.453909233212471008e-02,1.199302524328231812e-01,-5.873513221740722656e-02,-1.443438604474067688e-02,6.743954727426171303e-04,-5.080536380410194397e-02,2.231270074844360352e-02,7.508303970098495483e-02,-3.055635280907154083e-02,8.626375347375869751e-02
-3.453909233212471008e-02,1.199302524328231812e-01,-5.873513221740722656e-02,-1.443438604474067688e-02,6.743954727426171303e-04,-5.080536380410194397e-02,2.231270074844360352e-02,7.508303970098495483e-02,-3.055635280907154083e-02,8.626375347375869751e-02
-2.676553465425968170e-02,1.180648356676101685e-01,-6.361201405525207520e-02,-1.417210511863231659e-02,-1.372219156473875046e-02,-5.406502261757850647e-02,1.235534064471721649e-02,8.955478668212890625e-02,-2.611425891518592834e-02,8.831805735826492310e-02
-2.676553465425968170e-02,1.180648356676101685e-01,-6.361201405525207520e-02,-1.417210511863231659e-02,-1.372219156473875046e-02,-5.406502261757850647e-02,1.235534064471721649e-02,8.955478668212890625e-02,-2.611425891518592834e-02,8.831805735826492310e-02
-4.834702610969543457e-02,8.747687190771102905e-02,-7.017982751131057739e-02,-5.894258618354797363e-03,5.825532600283622742e-03,-6.462123990058898926e-02,-1.328078331425786018e-03,7.902321219444274902e-02,-2.276117727160453796e-02,1.206589713692665100e-01
-4.834702610969543457e-02,8.747687190771102905e-02,-7.017982751131057739e-02,-5.894258618354797363e-03,5.825532600283622742e-03,-6.462123990058898926e-02,-1.328078331425786018e-03,7.902321219444274902e-02,-2.276117727160453796e-02,1.206589713692665100e-01
