1.771230995655059814e-02,1.099533494561910629e-02,-5.946539342403411865e-02,3.440800681710243225e-02,5.670351907610893250e-02,2.082306519150733948e-02,7.131397258490324020e-03,-3.498623892664909363e-02,-2.122021652758121490e-02,2.984545193612575531e-03
1.771230995655059814e-02,1.099533494561910629e-02,-5.946539342403411865e-02,3.440800681710243225e-02,5.670351907610893250e-02,2.082306519150733948e-02,7.131397258490324020e-03,-3.498623892664909363e-02,-2.122021652758121490e-02,2.984545193612575531e-03
2.075705118477344513e-02,1.248230691999197006e-02,-6.278533488512039185e-02,2.956721186637878418e-02,6.010115146636962891e-02,1.194310002028942108e-02,-5.757824517786502838e-03,-2.707375027239322662e-02,-1.197163388133049011e-02,5.657464265823364258e-03
2.075705118477344513e-02,1.248230691999197006e-02,-6.278533488512039185e-02,2.956721186637878418e-02,6.010115146636962891e-02,1.194310002028942108e-02,-5.757824517786502838e-03,-2.707375027239322662e-02,-1.197163388133049011e-02,5.657464265823364258e-03
2.459171228110790253e-02,1.764487661421298981e-02,-6.522509455680847168e-02,2.878123149275779724e-02,5.940971150994300842e-02,5.422693677246570587e-03,-1.220345310866832733e-02,-2.310971170663833618e-02,-9.056377224624156952e-03,7.623834069818258286e-03
2.459171228110790253e-02,1.764487661421298981e-02,-6.522509455680847168e-02,2.878123149275779724e-02,5.940971150994300842e-02,5.422693677246570587e-03,-1.220345310866832733e-02,-2.310971170663833618e-02,-9.056377224624156952e-03,7.623834069818258286e-03
2.462647110223770142e-02,2.124529704451560974e-02,-6.793884932994842529e-02,2.753107622265815735e-02,6.045343726873397827e-02,2.377254422754049301e-03,-1.558807678520679474e-02,-1.902645081281661987e-02,-8.200307376682758331e-03,9.025395847856998444e-03
2.462647110223770142e-02,2.124529704451560974e-02,-6.793884932994842529e-02,2.753107622265815735e-02,6.045343726873397827e-02,2.377254422754049301e-03,-1.558807678520679474e-02,-1.902645081281661987e-02,-8.200307376682758331e-03,9.025395847856998444e-03
2.542226575314998627e-02,2.391079440712928772e-02,-6.872396171092987061e-02,2.747367881238460541e-02,5.878436192870140076e-02,2.377949655055999756e-03,-1.922395825386047363e-02,-1.597585342824459076e-02,-9.879262186586856842e-03,1.059593632817268372e-02
2.542226575314998627e-02,2.391079440712928772e-02,-6.872396171092987061e-02,2.747367881238460541e-02,5.878436192870140076e-02,2.377949655055999756e-03,-1.922395825386047363e-02,-1.597585342824459076e-02,-9.879262186586856842e-03,1.059593632817268372e-02
2.575653605163097382e-02,2.782942354679107666e-02,-6.908661127090454102e-02,2.682886086404323578e-02,5.724111944437026978e-02,3.534626215696334839e-03,-2.114705368876457214e-02,-1.316431071609258652e-02,-1.284429244697093964e-02,1.114680431783199310e-02
2.575653605163097382e-02,2.782942354679107666e-02,-6.908661127090454102e-02,2.682886086404323578e-02,5.724111944437026978e-02,3.534626215696334839e-03,-2.114705368876457214e-02,-1.316431071609258652e-02,-1.284429244697093964e-02,1.114680431783199310e-02
2.529315091669559479e-02,3.159182146191596985e-02,-7.071264088153839111e-02,2.624327130615711212e-02,5.535276606678962708e-02,5.281319841742515564e-03,-2.307514287531375885e-02,-1.022642944008111954e-02,-1.476468145847320557e-02,1.212911680340766907e-02
2.529315091669559479e-02,3.159182146191596985e-02,-7.071264088153839111e-02,2.624327130615711212e-02,5.535276606678962708e-02,5.281319841742515564e-03,-2.307514287531375885e-02,-1.022642944008111954e-02,-1.476468145847320557e-02,1.212911680340766907e-02
2.569946274161338806e-02,3.478596732020378113e-02,-7.215353846549987793e-02,2.587804570794105530e-02,5.372090637683868408e-02,5.930468440055847168e-03,-2.314618416130542755e-02,-6.918255705386400223e-03,-1.723126694560050964e-02,1.241681072860956192e-02
2.569946274161338806e-02,3.478596732020378113e-02,-7.215353846549987793e-02,2.587804570794105530e-02,5.372090637683868408e-02,5.930468440055847168e-03,-2.314618416130542755e-02,-6.918255705386400223e-03,-1.723126694560050964e-02,1.241681072860956192e-02
2.587676420807838440e-02,3.526663780212402344e-02,-7.171964645385742188e-02,2.597575262188911438e-02,5.230772867798805237e-02,5.242992658168077469e-03,-2.416955865919589996e-02,-5.505887325853109360e-03,-1.844121515750885010e-02,1.406045909970998764e-02
2.587676420807838440e-02,3.526663780212402344e-02,-7.171964645385742188e-02,2.597575262188911438e-02,5.230772867798805237e-02,5.242992658168077469e-03,-2.416955865919589996e-02,-5.505887325853109360e-03,-1.844121515750885010e-02,1.406045909970998764e-02
2.472261525690555573e-02,3.806220740079879761e-02,-7.216764986515045166e-02,2.553892694413661957e-02,5.237389728426933289e-02,6.283369380980730057e-03,-2.668510749936103821e-02,-2.768221311271190643e-03,-2.073268592357635498e-02,1.440173387527465820e-02
2.472261525690555573e-02,3.806220740079879761e-02,-7.216764986515045166e-02,2.553892694413661957e-02,5.237389728426933289e-02,6.283369380980730057e-03,-2.668510749936103821e-02,-2.768221311271190643e-03,-2.073268592357635498e-02,1.440173387527465820e-02
2.643021009862422943e-02,4.172123596072196960e-02,-7.229303568601608276e-02,2.424579299986362457e-02,5.154138058423995972e-02,6.270886398851871490e-03,-2.641036361455917358e-02,-1.214818097651004791e-03,-2.394028753042221069e-02,1.527342200279235840e-02
2.643021009862422943e-02,4.172123596072196960e-02,-7.229303568601608276e-02,2.424579299986362457e-02,5.154138058423995972e-02,6.270886398851871490e-03,-2.641036361455917358e-02,-1.214818097651004791e-03,-2.394028753042221069e-02,1.527342200279235840e-02
2.543011307716369629e-02,4.183406382799148560e-02,-7.381600141525268555e-02,2.573874965310096741e-02,5.122065171599388123e-02,7.552632596343755722e-03,-2.758835442364215851e-02,1.316129462793469429e-03,-2.545245923101902008e-02,1.468193531036376953e-02
2.543011307716369629e-02,4.183406382799148560e-02,-7.381600141525268555e-02,2.573874965310096741e-02,5.122065171599388123e-02,7.552632596343755722e-03,-2.758835442364215851e-02,1.316129462793469429e-03,-2.545245923101902008e-02,1.468193531036376953e-02
2.508153207600116730e-02,4.432773217558860779e-02,-7.392490655183792114e-02,2.362865582108497620e-02,5.049376189708709717e-02,9.079710580408573151e-03,-2.877965755760669708e-02,3.374430583789944649e-03,-2.640270441770553589e-02,1.468144915997982025e-02
2.508153207600116730e-02,4.432773217558860779e-02,-7.392490655183792114e-02,2.362865582108497620e-02,5.049376189708709717e-02,9.079710580408573151e-03,-2.877965755760669708e-02,3.374430583789944649e-03,-2.640270441770553589e-02,1.468144915997982025e-02
2.649779431521892548e-02,4.775837808847427368e-02,-7.515805959701538086e-02,2.382425777614116669e-02,4.904770851135253906e-02,9.553845040500164032e-03,-2.801007591187953949e-02,3.419073298573493958e-03,-2.966787852346897125e-02,1.662160269916057587e-02
2.649779431521892548e-02,4.775837808847427368e-02,-7.515805959701538086e-02,2.382425777614116669e-02,4.904770851135253906e-02,9.553845040500164032e-03,-2.801007591187953949e-02,3.419073298573493958e-03,-2.966787852346897125e-02,1.662160269916057587e-02
2.517501078546047211e-02,4.766611754894256592e-02,-7.431382685899734497e-02,2.532143518328666687e-02,4.914653301239013672e-02,1.095682755112648010e-02,-3.164134174585342407e-02,5.439708009362220764e-03,-3.138219192624092102e-02,1.550459396094083786e-02
2.517501078546047211e-02,4.766611754894256592e-02,-7.431382685899734497e-02,2.532143518328666687e-02,4.914653301239013672e-02,1.095682755112648010e-02,-3.164134174585342407e-02,5.439708009362220764e-03,-3.138219192624092102e-02,1.550459396094083786e-02
2.647257968783378601e-02,4.844455793499946594e-02,-7.572380453348159790e-02,2.378526702523231506e-02,4.824708029627799988e-02,1.166937127709388733e-02,-3.019404597580432892e-02,7.577475626021623611e-03,-3.274666145443916321e-02,1.590517535805702209e-02
2.647257968783378601e-02,4.844455793499946594e-02,-7.572380453348159790e-02,2.378526702523231506e-02,4.824708029627799988e-02,1.166937127709388733e-02,-3.019404597580432892e-02,7.577475626021623611e-03,-3.274666145443916321e-02,1.590517535805702209e-02
2.744604274630546570e-02,5.077505856752395630e-02,-7.679007202386856079e-02,2.211863920092582703e-02,5.027049034833908081e-02,1.179584674537181854e-02,-2.970152348279953003e-02,7.874892093241214752e-03,-3.400522097945213318e-02,1.599429547786712646e-02
2.744604274630546570e-02,5.077505856752395630e-02,-7.679007202386856079e-02,2.211863920092582703e-02,5.027049034833908081e-02,1.179584674537181854e-02,-2.970152348279953003e-02,7.874892093241214752e-03,-3.400522097945213318e-02,1.599429547786712646e-02
2.893651276826858521e-02,5.273625254631042480e-02,-7.831028103828430176e-02,2.285305410623550415e-02,4.908988624811172485e-02,1.098804175853729248e-02,-3.050535731017589569e-02,9.391561150550842285e-03,-3.672602027654647827e-02,1.806341670453548431e-02
2.893651276826858521e-02,5.273625254631042480e-02,-7.831028103828430176e-02,2.285305410623550415e-02,4.908988624811172485e-02,1.098804175853729248e-02,-3.050535731017589569e-02,9.391561150550842285e-03,-3.672602027654647827e-02,1.806341670453548431e-02
3.112231008708477020e-02,5.151150748133659363e-02,-7.891461253166198730e-02,2.247960865497589111e-02,5.106830969452857971e-02,1.153470482677221298e-02,-3.248680010437965393e-02,1.110093202441930771e-02,-3.994274139404296875e-02,1.877618581056594849e-02
3.112231008708477020e-02,5.151150748133659363e-02,-7.891461253166198730e-02,2.247960865497589111e-02,5.106830969452857971e-02,1.153470482677221298e-02,-3.248680010437965393e-02,1.110093202441930771e-02,-3.994274139404296875e-02,1.877618581056594849e-02
2.870325371623039246e-02,5.555048957467079163e-02,-7.980205118656158447e-02,2.333730272948741913e-02,4.519443958997726440e-02,1.355503499507904053e-02,-2.999967895448207855e-02,1.399442646652460098e-02,-4.066813737154006958e-02,1.770734228193759918e-02
2.870325371623039246e-02,5.555048957467079163e-02,-7.980205118656158447e-02,2.333730272948741913e-02,4.519443958997726440e-02,1.355503499507904053e-02,-2.999967895448207855e-02,1.399442646652460098e-02,-4.066813737154006958e-02,1.770734228193759918e-02
3.208441659808158875e-02,5.690168589353561401e-02,-7.911183685064315796e-02,2.391282469034194946e-02,4.857464507222175598e-02,1.325176935642957687e-02,-3.360072895884513855e-02,1.503717619925737381e-02,-4.591609165072441101e-02,1.733318902552127838e-02
3.208441659808158875e-02,5.690168589353561401e-02,-7.911183685064315796e-02,2.391282469034194946e-02,4.857464507222175598e-02,1.325176935642957687e-02,-3.360072895884513855e-02,1.503717619925737381e-02,-4.591609165072441101e-02,1.733318902552127838e-02
3.204409778118133545e-02,5.611122027039527893e-02,-7.991683483123779297e-02,2.350967563688755035e-02,4.954068362712860107e-02,1.065742317587137222e-02,-3.968529030680656433e-02,1.668223366141319275e-02,-4.365243017673492432e-02,1.986815035343170166e-02
3.204409778118133545e-02,5.611122027039527893e-02,-7.991683483123779297e-02,2.350967563688755035e-02,4.954068362712860107e-02,1.065742317587137222e-02,-3.968529030680656433e-02,1.668223366141319275e-02,-4.365243017673492432e-02,1.986815035343170166e-02
3.223220258951187134e-02,5.826041474938392639e-02,-8.307725936174392700e-02,2.220205031335353851e-02,5.026170238852500916e-02,1.432919222861528397e-02,-3.643096983432769775e-02,2.041560970246791840e-02,-4.788326472043991089e-02,1.827728003263473511e-02
3.223220258951187134e-02,5.826041474938392639e-02,-8.307725936174392700e-02,2.220205031335353851e-02,5.026170238852500916e-02,1.432919222861528397e-02,-3.643096983432769775e-02,2.041560970246791840e-02,-4.788326472043991089e-02,1.827728003263473511e-02
3.153931349515914917e-02,5.811627209186553955e-02,-8.321807533502578735e-02,1.988014206290245056e-02,5.356226116418838501e-02,1.142651401460170746e-02,-3.735856711864471436e-02,2.227538451552391052e-02,-4.875288903713226318e-02,2.057081647217273712e-02
3.153931349515914917e-02,5.811627209186553955e-02,-8.321807533502578735e-02,1.988014206290245056e-02,5.356226116418838501e-02,1.142651401460170746e-02,-3.735856711864471436e-02,2.227538451552391052e-02,-4.875288903713226318e-02,2.057081647217273712e-02
3.259980306029319763e-02,6.351864337921142578e-02,-8.716957271099090576e-02,2.357270568609237671e-02,5.066386237740516663e-02,1.302701979875564575e-02,-3.837767243385314941e-02,2.294514328241348267e-02,-5.141837522387504578e-02,2.087692916393280029e-02
3.259980306029319763e-02,6.351864337921142578e-02,-8.716957271099090576e-02,2.357270568609237671e-02,5.066386237740516663e-02,1.302701979875564575e-02,-3.837767243385314941e-02,2.294514328241348267e-02,-5.141837522387504578e-02,2.087692916393280029e-02
3.540904819965362549e-02,6.364449113607406616e-02,-9.114068001508712769e-02,2.318063750863075256e-02,5.173923447728157043e-02,1.224512234330177307e-02,-3.718837723135948181e-02,3.073839843273162842e-02,-5.577761679887771606e-02,1.957586035132408142e-02
3.540904819965362549e-02,6.364449113607406616e-02,-9.114068001508712769e-02,2.318063750863075256e-02,5.173923447728157043e-02,1.224512234330177307e-02,-3.718837723135948181e-02,3.073839843273162842e-02,-5.577761679887771606e-02,1.957586035132408142e-02
3.502996638417243958e-02,6.580904871225357056e-02,-9.300632029771804810e-02,2.511036768555641174e-02,4.748041555285453796e-02,1.623061485588550568e-02,-4.457425326108932495e-02,3.515850007534027100e-02,-5.719332769513130188e-02,1.956241577863693237e-02
3.502996638417243958e-02,6.580904871225357056e-02,-9.300632029771804810e-02,2.511036768555641174e-02,4.748041555285453796e-02,1.623061485588550568e-02,-4.457425326108932495e-02,3.515850007534027100e-02,-5.719332769513130188e-02,1.956241577863693237e-02
3.137445077300071716e-02,7.330379635095596313e-02,-1.004289910197257996e-01,2.167462930083274841e-02,5.146953463554382324e-02,1.821888796985149384e-02,-4.100548475980758667e-02,3.831775858998298645e-02,-5.879546701908111572e-02,2.122592926025390625e-02
3.137445077300071716e-02,7.330379635095596313e-02,-1.004289910197257996e-01,2.167462930083274841e-02,5.146953463554382324e-02,1.821888796985149384e-02,-4.100548475980758667e-02,3.831775858998298645e-02,-5.879546701908111572e-02,2.122592926025390625e-02
3.277718648314476013e-02,6.218016520142555237e-02,-9.965576976537704468e-02,3.080848976969718933e-02,3.938361257314682007e-02,1.596212014555931091e-02,-4.327480494976043701e-02,4.270294308662414551e-02,-6.285074353218078613e-02,2.683601155877113342e-02
3.277718648314476013e-02,6.218016520142555237e-02,-9.965576976537704468e-02,3.080848976969718933e-02,3.938361257314682007e-02,1.596212014555931091e-02,-4.327480494976043701e-02,4.270294308662414551e-02,-6.285074353218078613e-02,2.683601155877113342e-02
4.372414574027061462e-02,8.586002886295318604e-02,-1.269301176071166992e-01,3.978058323264122009e-02,2.007894590497016907e-02,3.401820361614227295e-02,-3.096833825111389160e-02,2.823860198259353638e-02,-3.638113290071487427e-02,1.632438786327838898e-02
4.372414574027061462e-02,8.586002886295318604e-02,-1.269301176071166992e-01,3.978058323264122009e-02,2.007894590497016907e-02,3.401820361614227295e-02,-3.096833825111389160e-02,2.823860198259353638e-02,-3.638113290071487427e-02,1.632438786327838898e-02
