2.840613946318626404e-02,-2.968862093985080719e-02,-1.908159255981445312e-02,2.980196289718151093e-02,7.389681041240692139e-02,-3.348321467638015747e-02,5.604093149304389954e-02,-4.795824736356735229e-02,-4.892329219728708267e-03,2.406648732721805573e-02
2.690694853663444519e-02,-3.094581887125968933e-02,-2.335268817842006683e-02,3.025917895138263702e-02,7.555806636810302734e-02,-3.081273101270198822e-02,5.662910267710685730e-02,-4.701877757906913757e-02,-4.186999052762985229e-03,2.373807504773139954e-02
2.599863894283771515e-02,-2.755377627909183502e-02,-2.560222148895263672e-02,2.894090116024017334e-02,7.724371552467346191e-02,-2.995392121374607086e-02,5.531052500009536743e-02,-4.659175500273704529e-02,-8.052889257669448853e-03,2.673132531344890594e-02
2.619842253625392914e-02,-2.629993110895156860e-02,-2.678696624934673309e-02,2.808640711009502411e-02,7.862522453069686890e-02,-2.989105507731437683e-02,5.492832139134407043e-02,-4.368916526436805725e-02,-9.732008911669254303e-03,2.568133547902107239e-02
2.650916203856468201e-02,-2.468699030578136444e-02,-2.693275548517704010e-02,2.631261013448238373e-02,7.951192557811737061e-02,-2.867831662297248840e-02,5.464214086532592773e-02,-4.490140080451965332e-02,-1.190990395843982697e-02,2.721962518990039825e-02
2.697459608316421509e-02,-2.309778705239295959e-02,-2.836447209119796753e-02,2.512656897306442261e-02,8.045477420091629028e-02,-2.830136567354202271e-02,5.382058396935462952e-02,-4.532526060938835144e-02,-1.219001505523920059e-02,2.789454348385334015e-02
2.694264799356460571e-02,-2.223935350775718689e-02,-2.908574976027011871e-02,2.458753436803817749e-02,8.074944466352462769e-02,-2.924282290041446686e-02,5.418574437499046326e-02,-4.469801485538482666e-02,-1.287534832954406738e-02,2.919832803308963776e-02
2.790895849466323853e-02,-2.151305973529815674e-02,-2.925997599959373474e-02,2.312279865145683289e-02,8.249337971210479736e-02,-2.991597168147563934e-02,5.269902199506759644e-02,-4.550534859299659729e-02,-1.233954820781946182e-02,2.991380915045738220e-02
2.799046039581298828e-02,-2.084197662770748138e-02,-2.999462746083736420e-02,2.231719344854354858e-02,8.342505991458892822e-02,-2.916868217289447784e-02,5.219537019729614258e-02,-4.545086622238159180e-02,-1.237633079290390015e-02,2.955370210111141205e-02
2.742731757462024689e-02,-2.064892090857028961e-02,-3.011114336550235748e-02,2.257397770881652832e-02,8.331038057804107666e-02,-2.971222996711730957e-02,5.224831402301788330e-02,-4.479908943176269531e-02,-1.251874305307865143e-02,3.000495582818984985e-02
2.860357984900474548e-02,-2.071334049105644226e-02,-3.289715573191642761e-02,2.271548472344875336e-02,8.358469605445861816e-02,-3.020171076059341431e-02,5.197223275899887085e-02,-4.501628875732421875e-02,-1.101762708276510239e-02,3.034922853112220764e-02
2.708097919821739197e-02,-1.975687593221664429e-02,-3.233113512396812439e-02,2.176553383469581604e-02,8.348607271909713745e-02,-2.965745143592357635e-02,5.188981071114540100e-02,-4.525367170572280884e-02,-1.004422735422849655e-02,2.980039641261100769e-02
2.765207551419734955e-02,-2.003971859812736511e-02,-3.262976929545402527e-02,2.183869853615760803e-02,8.329723030328750610e-02,-3.057605959475040436e-02,5.237575620412826538e-02,-4.649758338928222656e-02,-9.880964644253253937e-03,3.140315413475036621e-02
2.807829156517982483e-02,-2.037250064313411713e-02,-3.321472555398941040e-02,2.174049802124500275e-02,8.448573201894760132e-02,-3.062149137258529663e-02,5.139065161347389221e-02,-4.663457721471786499e-02,-8.021112531423568726e-03,2.953439950942993164e-02
2.839164435863494873e-02,-2.123980037868022919e-02,-3.289294987916946411e-02,2.105641737580299377e-02,8.486696332693099976e-02,-3.069281205534934998e-02,5.097981169819831848e-02,-4.832233488559722900e-02,-6.786599289625883102e-03,3.025862388312816620e-02
2.805816754698753357e-02,-2.185923978686332703e-02,-3.334318101406097412e-02,2.218692190945148468e-02,8.489362895488739014e-02,-3.031584620475769043e-02,4.999214783310890198e-02,-4.893291741609573364e-02,-6.235874257981777191e-03,3.026938438415527344e-02
2.815788052976131439e-02,-2.222375385463237762e-02,-3.334845229983329773e-02,2.183968573808670044e-02,8.399654924869537354e-02,-3.019811771810054779e-02,5.018335208296775818e-02,-4.758486896753311157e-02,-5.292199086397886276e-03,2.905003726482391357e-02
2.744038589298725128e-02,-2.201353758573532104e-02,-3.302500769495964050e-02,2.311729080975055695e-02,8.409762382507324219e-02,-3.125288337469100952e-02,4.935004562139511108e-02,-4.893457517027854919e-02,-5.475512705743312836e-03,3.080230951309204102e-02
2.778197266161441803e-02,-2.210241369903087616e-02,-3.436044231057167053e-02,2.207447029650211334e-02,8.344408869743347168e-02,-3.044419921934604645e-02,4.975778982043266296e-02,-4.870668798685073853e-02,-4.026832990348339081e-03,3.021332435309886932e-02
2.782834321260452271e-02,-2.238266728818416595e-02,-3.465553745627403259e-02,2.218035422265529633e-02,8.333580195903778076e-02,-3.147055953741073608e-02,4.980465397238731384e-02,-5.007791519165039062e-02,-2.468440681695938110e-03,3.081546351313591003e-02
2.816082723438739777e-02,-2.173692546784877777e-02,-3.518126904964447021e-02,2.270555123686790466e-02,8.210472762584686279e-02,-3.141251206398010254e-02,4.997419565916061401e-02,-5.063014477491378784e-02,-2.409964334219694138e-03,3.107538260519504547e-02
2.766520529985427856e-02,-2.222261577844619751e-02,-3.478102385997772217e-02,2.334962412714958191e-02,8.206703513860702515e-02,-3.217754885554313660e-02,5.012541264295578003e-02,-5.092919990420341492e-02,-1.220063888467848301e-03,3.024951927363872528e-02
2.781082689762115479e-02,-2.193112857639789581e-02,-3.555973619222640991e-02,2.284045517444610596e-02,8.215159922838211060e-02,-3.057422488927841187e-02,4.875652492046356201e-02,-5.153643712401390076e-02,-7.927610422484576702e-04,3.021487034857273102e-02
2.842077054083347321e-02,-2.308015525341033936e-02,-3.560098260641098022e-02,2.295712009072303772e-02,8.203583210706710815e-02,-3.084741160273551941e-02,4.914213344454765320e-02,-5.250882357358932495e-02,-6.074683624319732189e-04,3.112865053117275238e-02
2.822794392704963684e-02,-2.384318597614765167e-02,-3.574716299772262573e-02,2.296273596584796906e-02,8.243295550346374512e-02,-3.051437623798847198e-02,4.834460839629173279e-02,-5.329740792512893677e-02,7.533585303463041782e-04,3.070179373025894165e-02
2.891244739294052124e-02,-2.291465736925601959e-02,-3.653406724333763123e-02,2.358084358274936676e-02,8.149186521768569946e-02,-3.038205578923225403e-02,4.827982559800148010e-02,-5.282837897539138794e-02,5.422069225460290909e-04,3.006995469331741333e-02
2.913675457239151001e-02,-2.352391742169857025e-02,-3.632897138595581055e-02,2.389513701200485229e-02,8.188874274492263794e-02,-3.070754744112491608e-02,4.811177775263786316e-02,-5.379452183842658997e-02,6.982969352975487709e-04,3.053485602140426636e-02
2.943645231425762177e-02,-2.383575029671192169e-02,-3.675834834575653076e-02,2.435506694018840790e-02,8.168096840381622314e-02,-2.976158633828163147e-02,4.833559319376945496e-02,-5.417811870574951172e-02,1.826421066652983427e-04,3.030040860176086426e-02
2.879581227898597717e-02,-2.336728200316429138e-02,-3.738493099808692932e-02,2.439518272876739502e-02,8.164842426776885986e-02,-2.966500632464885712e-02,4.749731346964836121e-02,-5.411987751722335815e-02,1.284715719521045685e-03,2.992665581405162811e-02
2.979153022170066833e-02,-2.366762235760688782e-02,-3.780877962708473206e-02,2.439176477491855621e-02,8.187793195247650146e-02,-2.944035641849040985e-02,4.789919406175613403e-02,-5.537363886833190918e-02,7.551058079116046429e-04,3.067498840391635895e-02
