-3.497054055333137512e-02,-4.023570939898490906e-02,2.795317582786083221e-02,-3.843181952834129333e-02,4.833111539483070374e-02,2.727835066616535187e-02,4.411007836461067200e-02,1.400191336870193481e-01,-4.038106650114059448e-03,7.161078602075576782e-02
-3.497054055333137512e-02,-4.023570939898490906e-02,2.795317582786083221e-02,-3.843181952834129333e-02,4.833111539483070374e-02,2.727835066616535187e-02,4.411007836461067200e-02,1.400191336870193481e-01,-4.038106650114059448e-03,7.161078602075576782e-02
-8.133852481842041016e-02,-1.120817437767982483e-01,3.808652982115745544e-02,-4.581578075885772705e-02,6.049939990043640137e-02,3.166576474905014038e-02,7.436700910329818726e-02,1.931735873222351074e-01,4.323983564972877502e-02,7.012807577848434448e-02
-8.133852481842041016e-02,-1.120817437767982483e-01,3.808652982115745544e-02,-4.581578075885772705e-02,6.049939990043640137e-02,3.166576474905014038e-02,7.436700910329818726e-02,1.931735873222351074e-01,4.323983564972877502e-02,7.012807577848434448e-02
-1.130032613873481750e-01,-1.561942547559738159e-01,3.118832223117351532e-02,-3.511561825871467590e-02,9.730444848537445068e-02,4.671313613653182983e-02,7.828836888074874878e-02,2.041555941104888916e-01,1.033773496747016907e-01,2.843739837408065796e-02
-1.130032613873481750e-01,-1.561942547559738159e-01,3.118832223117351532e-02,-3.511561825871467590e-02,9.730444848537445068e-02,4.671313613653182983e-02,7.828836888074874878e-02,2.041555941104888916e-01,1.033773496747016907e-01,2.843739837408065796e-02
-1.378071010112762451e-01,-1.922408789396286011e-01,2.076211757957935333e-02,-1.903574913740158081e-02,1.215023547410964966e-01,6.003171578049659729e-02,7.335530221462249756e-02,2.163679599761962891e-01,1.535044908523559570e-01,-8.284369483590126038e-03
-1.378071010112762451e-01,-1.922408789396286011e-01,2.076211757957935333e-02,-1.903574913740158081e-02,1.215023547410964966e-01,6.003171578049659729e-02,7.335530221462249756e-02,2.163679599761962891e-01,1.535044908523559570e-01,-8.284369483590126038e-03
-1.489157676696777344e-01,-2.338900864124298096e-01,1.291809789836406708e-02,-2.759921830147504807e-03,1.353927403688430786e-01,7.098202407360076904e-02,5.719117447733879089e-02,2.441701143980026245e-01,1.965620666742324829e-01,-4.528001323342323303e-02
-1.489157676696777344e-01,-2.338900864124298096e-01,1.291809789836406708e-02,-2.759921830147504807e-03,1.353927403688430786e-01,7.098202407360076904e-02,5.719117447733879089e-02,2.441701143980026245e-01,1.965620666742324829e-01,-4.528001323342323303e-02
-1.554097533226013184e-01,-2.783712148666381836e-01,8.926912210881710052e-03,-6.773604545742273331e-03,1.530950963497161865e-01,7.959218323230743408e-02,5.828634649515151978e-02,2.682983875274658203e-01,2.219174057245254517e-01,-6.314738839864730835e-02
-1.554097533226013184e-01,-2.783712148666381836e-01,8.926912210881710052e-03,-6.773604545742273331e-03,1.530950963497161865e-01,7.959218323230743408e-02,5.828634649515151978e-02,2.682983875274658203e-01,2.219174057245254517e-01,-6.314738839864730835e-02
-1.623554676771163940e-01,-3.087171018123626709e-01,1.736989128403365612e-03,3.949321806430816650e-03,1.438028514385223389e-01,9.356498718261718750e-02,5.495655909180641174e-02,2.957238256931304932e-01,2.510190308094024658e-01,-9.364493191242218018e-02
-1.623554676771163940e-01,-3.087171018123626709e-01,1.736989128403365612e-03,3.949321806430816650e-03,1.438028514385223389e-01,9.356498718261718750e-02,5.495655909180641174e-02,2.957238256931304932e-01,2.510190308094024658e-01,-9.364493191242218018e-02
-1.858597248792648315e-01,-3.423964381217956543e-01,-1.262576039880514145e-02,1.750377938151359558e-02,1.523548364639282227e-01,1.037402078509330750e-01,6.459502130746841431e-02,3.120623528957366943e-01,2.730896472930908203e-01,-1.093486621975898743e-01
-1.858597248792648315e-01,-3.423964381217956543e-01,-1.262576039880514145e-02,1.750377938151359558e-02,1.523548364639282227e-01,1.037402078509330750e-01,6.459502130746841431e-02,3.120623528957366943e-01,2.730896472930908203e-01,-1.093486621975898743e-01
-1.938378363847732544e-01,-3.644043803215026855e-01,-2.801564335823059082e-02,2.381797693669795990e-02,1.585468202829360962e-01,1.047250255942344666e-01,7.906596362590789795e-02,3.159933686256408691e-01,2.908960878849029541e-01,-1.160178184509277344e-01
-1.938378363847732544e-01,-3.644043803215026855e-01,-2.801564335823059082e-02,2.381797693669795990e-02,1.585468202829360962e-01,1.047250255942344666e-01,7.906596362590789795e-02,3.159933686256408691e-01,2.908960878849029541e-01,-1.160178184509277344e-01
-2.104767411947250366e-01,-3.850958645343780518e-01,-3.094697557389736176e-02,2.285977080464363098e-02,1.625865995883941650e-01,1.077516302466392517e-01,7.632859051227569580e-02,3.265824913978576660e-01,3.133705258369445801e-01,-1.196402162313461304e-01
-2.104767411947250366e-01,-3.850958645343780518e-01,-3.094697557389736176e-02,2.285977080464363098e-02,1.625865995883941650e-01,1.077516302466392517e-01,7.632859051227569580e-02,3.265824913978576660e-01,3.133705258369445801e-01,-1.196402162313461304e-01
-2.078318595886230469e-01,-3.902749121189117432e-01,-3.122360259294509888e-02,2.307190746068954468e-02,1.594548374414443970e-01,1.015647947788238525e-01,8.120681345462799072e-02,3.265922069549560547e-01,3.235825896263122559e-01,-1.229769885540008545e-01
-2.078318595886230469e-01,-3.902749121189117432e-01,-3.122360259294509888e-02,2.307190746068954468e-02,1.594548374414443970e-01,1.015647947788238525e-01,8.120681345462799072e-02,3.265922069549560547e-01,3.235825896263122559e-01,-1.229769885540008545e-01
-2.177548408508300781e-01,-4.172902405261993408e-01,-3.616245463490486145e-02,2.872609719634056091e-02,1.690670698881149292e-01,1.066564172506332397e-01,7.574669271707534790e-02,3.265137374401092529e-01,3.441038429737091064e-01,-1.231007799506187439e-01
-2.177548408508300781e-01,-4.172902405261993408e-01,-3.616245463490486145e-02,2.872609719634056091e-02,1.690670698881149292e-01,1.066564172506332397e-01,7.574669271707534790e-02,3.265137374401092529e-01,3.441038429737091064e-01,-1.231007799506187439e-01
-2.229743152856826782e-01,-4.357199668884277344e-01,-4.267276823520660400e-02,2.002651989459991455e-02,1.888533979654312134e-01,1.184382662177085876e-01,7.983796298503875732e-02,3.171707391738891602e-01,3.568384647369384766e-01,-1.261653304100036621e-01
-2.229743152856826782e-01,-4.357199668884277344e-01,-4.267276823520660400e-02,2.002651989459991455e-02,1.888533979654312134e-01,1.184382662177085876e-01,7.983796298503875732e-02,3.171707391738891602e-01,3.568384647369384766e-01,-1.261653304100036621e-01
-2.365861535072326660e-01,-4.618559181690216064e-01,-5.484684556722640991e-02,1.411050092428922653e-02,2.080236375331878662e-01,1.181909814476966858e-01,8.440285176038742065e-02,3.287935853004455566e-01,3.719976544380187988e-01,-1.247557178139686584e-01
-2.365861535072326660e-01,-4.618559181690216064e-01,-5.484684556722640991e-02,1.411050092428922653e-02,2.080236375331878662e-01,1.181909814476966858e-01,8.440285176038742065e-02,3.287935853004455566e-01,3.719976544380187988e-01,-1.247557178139686584e-01
-2.595962584018707275e-01,-4.814132452011108398e-01,-7.222847640514373779e-02,1.978821493685245514e-02,2.259794324636459351e-01,1.163609772920608521e-01,8.314872533082962036e-02,3.432214260101318359e-01,3.888291120529174805e-01,-1.244048029184341431e-01
-2.595962584018707275e-01,-4.814132452011108398e-01,-7.222847640514373779e-02,1.978821493685245514e-02,2.259794324636459351e-01,1.163609772920608521e-01,8.314872533082962036e-02,3.432214260101318359e-01,3.888291120529174805e-01,-1.244048029184341431e-01
-2.790154516696929932e-01,-4.973281025886535645e-01,-8.120982348918914795e-02,2.561043202877044678e-02,2.221334576606750488e-01,1.245560273528099060e-01,7.544825971126556396e-02,3.612690269947052002e-01,4.024964272975921631e-01,-1.242052316665649414e-01
-2.790154516696929932e-01,-4.973281025886535645e-01,-8.120982348918914795e-02,2.561043202877044678e-02,2.221334576606750488e-01,1.245560273528099060e-01,7.544825971126556396e-02,3.612690269947052002e-01,4.024964272975921631e-01,-1.242052316665649414e-01
-2.823121547698974609e-01,-5.081745982170104980e-01,-9.204993396997451782e-02,3.280172124505043030e-02,2.210941612720489502e-01,1.245747283101081848e-01,6.798110902309417725e-02,3.745350837707519531e-01,4.099849462509155273e-01,-1.228394061326980591e-01
-2.823121547698974609e-01,-5.081745982170104980e-01,-9.204993396997451782e-02,3.280172124505043030e-02,2.210941612720489502e-01,1.245747283101081848e-01,6.798110902309417725e-02,3.745350837707519531e-01,4.099849462509155273e-01,-1.228394061326980591e-01
-2.914611101150512695e-01,-5.354307293891906738e-01,-1.009867116808891296e-01,3.833837434649467468e-02,2.316703945398330688e-01,1.291813701391220093e-01,4.885092750191688538e-02,3.866871595382690430e-01,4.236800074577331543e-01,-1.144986301660537720e-01
-2.914611101150512695e-01,-5.354307293891906738e-01,-1.009867116808891296e-01,3.833837434649467468e-02,2.316703945398330688e-01,1.291813701391220093e-01,4.885092750191688538e-02,3.866871595382690430e-01,4.236800074577331543e-01,-1.144986301660537720e-01
-2.881814539432525635e-01,-5.444943904876708984e-01,-1.001290231943130493e-01,6.089970096945762634e-02,2.267728149890899658e-01,1.224414408206939697e-01,3.318376466631889343e-02,3.861709833145141602e-01,4.355410933494567871e-01,-1.221637651324272156e-01
-2.881814539432525635e-01,-5.444943904876708984e-01,-1.001290231943130493e-01,6.089970096945762634e-02,2.267728149890899658e-01,1.224414408206939697e-01,3.318376466631889343e-02,3.861709833145141602e-01,4.355410933494567871e-01,-1.221637651324272156e-01
-2.923699617385864258e-01,-5.465106368064880371e-01,-1.042496189475059509e-01,7.077530026435852051e-02,2.251469045877456665e-01,1.125500276684761047e-01,1.621147058904170990e-02,3.930794894695281982e-01,4.491868615150451660e-01,-1.177736371755599976e-01
-2.923699617385864258e-01,-5.465106368064880371e-01,-1.042496189475059509e-01,7.077530026435852051e-02,2.251469045877456665e-01,1.125500276684761047e-01,1.621147058904170990e-02,3.930794894695281982e-01,4.491868615150451660e-01,-1.177736371755599976e-01
-2.859930694103240967e-01,-5.453867912292480469e-01,-1.107892543077468872e-01,6.862741708755493164e-02,2.179126739501953125e-01,1.199426874518394470e-01,1.821932941675186157e-02,3.864624202251434326e-01,4.583207070827484131e-01,-1.199559941887855530e-01
-2.859930694103240967e-01,-5.453867912292480469e-01,-1.107892543077468872e-01,6.862741708755493164e-02,2.179126739501953125e-01,1.199426874518394470e-01,1.821932941675186157e-02,3.864624202251434326e-01,4.583207070827484131e-01,-1.199559941887855530e-01
-2.771905958652496338e-01,-5.652249455451965332e-01,-1.165629997849464417e-01,6.174081563949584961e-02,2.153005897998809814e-01,1.304173767566680908e-01,5.506805144250392914e-03,3.838686347007751465e-01,4.710924923419952393e-01,-1.054191887378692627e-01
-2.771905958652496338e-01,-5.652249455451965332e-01,-1.165629997849464417e-01,6.174081563949584961e-02,2.153005897998809814e-01,1.304173767566680908e-01,5.506805144250392914e-03,3.838686347007751465e-01,4.710924923419952393e-01,-1.054191887378692627e-01
-2.739309966564178467e-01,-5.770406126976013184e-01,-1.187517195940017700e-01,6.100153923034667969e-02,2.012323141098022461e-01,1.440330445766448975e-01,4.762157797813415527e-03,3.727742731571197510e-01,4.901439547538757324e-01,-1.052867695689201355e-01
-2.739309966564178467e-01,-5.770406126976013184e-01,-1.187517195940017700e-01,6.100153923034667969e-02,2.012323141098022461e-01,1.440330445766448975e-01,4.762157797813415527e-03,3.727742731571197510e-01,4.901439547538757324e-01,-1.052867695689201355e-01
-2.681623995304107666e-01,-5.898317694664001465e-01,-1.123663857579231262e-01,6.196675077080726624e-02,1.886450648307800293e-01,1.515478491783142090e-01,5.636261776089668274e-03,3.637822568416595459e-01,5.102916955947875977e-01,-1.177951619029045105e-01
-2.681623995304107666e-01,-5.898317694664001465e-01,-1.123663857579231262e-01,6.196675077080726624e-02,1.886450648307800293e-01,1.515478491783142090e-01,5.636261776089668274e-03,3.637822568416595459e-01,5.102916955947875977e-01,-1.177951619029045105e-01
-2.643080651760101318e-01,-6.021715402603149414e-01,-1.157393008470535278e-01,6.130316853523254395e-02,1.941496729850769043e-01,1.549629122018814087e-01,-8.965563960373401642e-03,3.560345470905303955e-01,5.307543873786926270e-01,-1.165471151471138000e-01
-2.643080651760101318e-01,-6.021715402603149414e-01,-1.157393008470535278e-01,6.130316853523254395e-02,1.941496729850769043e-01,1.549629122018814087e-01,-8.965563960373401642e-03,3.560345470905303955e-01,5.307543873786926270e-01,-1.165471151471138000e-01
-2.627886831760406494e-01,-6.178566813468933105e-01,-1.313108354806900024e-01,5.853275954723358154e-02,2.112957090139389038e-01,1.511981934309005737e-01,-1.456157304346561432e-02,3.606090545654296875e-01,5.464948415756225586e-01,-1.148268282413482666e-01
-2.627886831760406494e-01,-6.178566813468933105e-01,-1.313108354806900024e-01,5.853275954723358154e-02,2.112957090139389038e-01,1.511981934309005737e-01,-1.456157304346561432e-02,3.606090545654296875e-01,5.464948415756225586e-01,-1.148268282413482666e-01
-2.761117219924926758e-01,-6.293501853942871094e-01,-1.451210230588912964e-01,6.763359904289245605e-02,2.178656309843063354e-01,1.468397378921508789e-01,-2.377394586801528931e-02,3.670091331005096436e-01,5.639847517013549805e-01,-1.096619889140129089e-01
-2.761117219924926758e-01,-6.293501853942871094e-01,-1.451210230588912964e-01,6.763359904289245605e-02,2.178656309843063354e-01,1.468397378921508789e-01,-2.377394586801528931e-02,3.670091331005096436e-01,5.639847517013549805e-01,-1.096619889140129089e-01
-2.860764265060424805e-01,-6.400892734527587891e-01,-1.556418091058731079e-01,6.311548501253128052e-02,2.219467014074325562e-01,1.557353287935256958e-01,-3.197159245610237122e-02,3.699916005134582520e-01,5.783656239509582520e-01,-1.025417521595954895e-01
-2.860764265060424805e-01,-6.400892734527587891e-01,-1.556418091058731079e-01,6.311548501253128052e-02,2.219467014074325562e-01,1.557353287935256958e-01,-3.197159245610237122e-02,3.699916005134582520e-01,5.783656239509582520e-01,-1.025417521595954895e-01
-2.844042181968688965e-01,-6.509178876876831055e-01,-1.659192293882369995e-01,7.228649407625198364e-02,2.233595550060272217e-01,1.565170586109161377e-01,-4.533181712031364441e-02,3.742408454418182373e-01,5.913201570510864258e-01,-1.034661233425140381e-01
-2.844042181968688965e-01,-6.509178876876831055e-01,-1.659192293882369995e-01,7.228649407625198364e-02,2.233595550060272217e-01,1.565170586109161377e-01,-4.533181712031364441e-02,3.742408454418182373e-01,5.913201570510864258e-01,-1.034661233425140381e-01
-2.795430421829223633e-01,-6.669753789901733398e-01,-1.686175316572189331e-01,7.422217726707458496e-02,2.271661758422851562e-01,1.534959822893142700e-01,-5.580328032374382019e-02,3.753290176391601562e-01,6.048294305801391602e-01,-1.023517772555351257e-01
-2.795430421829223633e-01,-6.669753789901733398e-01,-1.686175316572189331e-01,7.422217726707458496e-02,2.271661758422851562e-01,1.534959822893142700e-01,-5.580328032374382019e-02,3.753290176391601562e-01,6.048294305801391602e-01,-1.023517772555351257e-01
