6.413454562425613403e-02,-3.568051382899284363e-02,-7.215445488691329956e-02,1.980002596974372864e-02,-3.171096742153167725e-02,-1.823173463344573975e-02,-5.884233978576958179e-04,-2.628899179399013519e-02,1.154495123773813248e-02,3.989340364933013916e-02
6.413454562425613403e-02,-3.568051382899284363e-02,-7.215445488691329956e-02,1.980002596974372864e-02,-3.171096742153167725e-02,-1.823173463344573975e-02,-5.884233978576958179e-04,-2.628899179399013519e-02,1.154495123773813248e-02,3.989340364933013916e-02
7.033342123031616211e-02,-2.757918275892734528e-02,-7.177611440420150757e-02,1.496517099440097809e-02,-2.318930625915527344e-02,-3.270140290260314941e-02,-8.197386749088764191e-03,-2.273258753120899200e-02,1.298075355589389801e-02,3.940160572528839111e-02
7.033342123031616211e-02,-2.757918275892734528e-02,-7.177611440420150757e-02,1.496517099440097809e-02,-2.318930625915527344e-02,-3.270140290260314941e-02,-8.197386749088764191e-03,-2.273258753120899200e-02,1.298075355589389801e-02,3.940160572528839111e-02
7.601647824048995972e-02,-1.908089406788349152e-02,-7.184905558824539185e-02,1.039397902786731720e-02,-1.959998160600662231e-02,-4.174008965492248535e-02,-1.502455212175846100e-02,-2.095814794301986694e-02,1.430401485413312912e-02,4.152577370405197144e-02
7.601647824048995972e-02,-1.908089406788349152e-02,-7.184905558824539185e-02,1.039397902786731720e-02,-1.959998160600662231e-02,-4.174008965492248535e-02,-1.502455212175846100e-02,-2.095814794301986694e-02,1.430401485413312912e-02,4.152577370405197144e-02
7.972190529108047485e-02,-1.059412956237792969e-02,-7.516555488109588623e-02,8.000835776329040527e-03,-1.518622506409883499e-02,-5.079795047640800476e-02,-1.730117946863174438e-02,-1.762082614004611969e-02,1.563800871372222900e-02,4.182199016213417053e-02
7.972190529108047485e-02,-1.059412956237792969e-02,-7.516555488109588623e-02,8.000835776329040527e-03,-1.518622506409883499e-02,-5.079795047640800476e-02,-1.730117946863174438e-02,-1.762082614004611969e-02,1.563800871372222900e-02,4.182199016213417053e-02
8.378334343433380127e-02,-4.327364265918731689e-03,-7.685382664203643799e-02,4.483362659811973572e-03,-1.306488178670406342e-02,-5.765569582581520081e-02,-1.942469738423824310e-02,-1.466622389853000641e-02,1.565819792449474335e-02,4.476841911673545837e-02
8.378334343433380127e-02,-4.327364265918731689e-03,-7.685382664203643799e-02,4.483362659811973572e-03,-1.306488178670406342e-02,-5.765569582581520081e-02,-1.942469738423824310e-02,-1.466622389853000641e-02,1.565819792449474335e-02,4.476841911673545837e-02
8.567088842391967773e-02,1.746099791489541531e-03,-7.817471772432327271e-02,2.246589399874210358e-03,-1.136636920273303986e-02,-6.270394474267959595e-02,-2.090947516262531281e-02,-1.219389960169792175e-02,1.550693158060312271e-02,4.639342799782752991e-02
8.567088842391967773e-02,1.746099791489541531e-03,-7.817471772432327271e-02,2.246589399874210358e-03,-1.136636920273303986e-02,-6.270394474267959595e-02,-2.090947516262531281e-02,-1.219389960169792175e-02,1.550693158060312271e-02,4.639342799782752991e-02
8.832875639200210571e-02,7.308232598006725311e-03,-7.991193979978561401e-02,-1.792895491234958172e-03,-1.105572190135717392e-02,-6.734754145145416260e-02,-2.126069739460945129e-02,-9.211449883878231049e-03,1.591756939888000488e-02,4.933010414242744446e-02
8.832875639200210571e-02,7.308232598006725311e-03,-7.991193979978561401e-02,-1.792895491234958172e-03,-1.105572190135717392e-02,-6.734754145145416260e-02,-2.126069739460945129e-02,-9.211449883878231049e-03,1.591756939888000488e-02,4.933010414242744446e-02
9.198036789894104004e-02,1.321542635560035706e-02,-8.191180974245071411e-02,-4.712805151939392090e-03,-1.170959975570440292e-02,-7.158953696489334106e-02,-2.170573361217975616e-02,-6.101808045059442520e-03,1.610625535249710083e-02,5.131322517991065979e-02
9.198036789894104004e-02,1.321542635560035706e-02,-8.191180974245071411e-02,-4.712805151939392090e-03,-1.170959975570440292e-02,-7.158953696489334106e-02,-2.170573361217975616e-02,-6.101808045059442520e-03,1.610625535249710083e-02,5.131322517991065979e-02
9.461361914873123169e-02,1.626408658921718597e-02,-8.283520489931106567e-02,-6.778180133551359177e-03,-1.109085232019424438e-02,-7.589855790138244629e-02,-2.225725725293159485e-02,-4.093456547707319260e-03,1.637646183371543884e-02,5.363532528281211853e-02
9.461361914873123169e-02,1.626408658921718597e-02,-8.283520489931106567e-02,-6.778180133551359177e-03,-1.109085232019424438e-02,-7.589855790138244629e-02,-2.225725725293159485e-02,-4.093456547707319260e-03,1.637646183371543884e-02,5.363532528281211853e-02
9.712095558643341064e-02,1.986053958535194397e-02,-8.347675949335098267e-02,-1.039003394544124603e-02,-1.140979863703250885e-02,-7.971034198999404907e-02,-2.166651003062725067e-02,-1.613914384506642818e-03,1.724371314048767090e-02,5.557478964328765869e-02
9.712095558643341064e-02,1.986053958535194397e-02,-8.347675949335098267e-02,-1.039003394544124603e-02,-1.140979863703250885e-02,-7.971034198999404907e-02,-2.166651003062725067e-02,-1.613914384506642818e-03,1.724371314048767090e-02,5.557478964328765869e-02
9.753618389368057251e-02,2.554561570286750793e-02,-8.450203388929367065e-02,-1.106695644557476044e-02,-1.209271699190139771e-02,-8.275426924228668213e-02,-2.268651500344276428e-02,-4.873768484685570002e-04,1.733466237783432007e-02,5.757667496800422668e-02
9.753618389368057251e-02,2.554561570286750793e-02,-8.450203388929367065e-02,-1.106695644557476044e-02,-1.209271699190139771e-02,-8.275426924228668213e-02,-2.268651500344276428e-02,-4.873768484685570002e-04,1.733466237783432007e-02,5.757667496800422668e-02
9.933347254991531372e-02,2.777625806629657745e-02,-8.684567362070083618e-02,-1.098399516195058823e-02,-1.225668750703334808e-02,-8.606536686420440674e-02,-2.402876503765583038e-02,2.884267363697290421e-03,1.714897900819778442e-02,5.920951068401336670e-02
9.933347254991531372e-02,2.777625806629657745e-02,-8.684567362070083618e-02,-1.098399516195058823e-02,-1.225668750703334808e-02,-8.606536686420440674e-02,-2.402876503765583038e-02,2.884267363697290421e-03,1.714897900819778442e-02,5.920951068401336670e-02
1.020513474941253662e-01,3.027915209531784058e-02,-8.706191182136535645e-02,-1.501560583710670471e-02,-1.266632787883281708e-02,-8.903209120035171509e-02,-2.393558435142040253e-02,5.244548898190259933e-03,1.863948069512844086e-02,6.039689481258392334e-02
1.020513474941253662e-01,3.027915209531784058e-02,-8.706191182136535645e-02,-1.501560583710670471e-02,-1.266632787883281708e-02,-8.903209120035171509e-02,-2.393558435142040253e-02,5.244548898190259933e-03,1.863948069512844086e-02,6.039689481258392334e-02
1.036729961633682251e-01,3.360377252101898193e-02,-8.799344301223754883e-02,-1.541484706103801727e-02,-1.416172273457050323e-02,-9.121759980916976929e-02,-2.263895794749259949e-02,7.375053130090236664e-03,1.688120327889919281e-02,6.169198825955390930e-02
1.036729961633682251e-01,3.360377252101898193e-02,-8.799344301223754883e-02,-1.541484706103801727e-02,-1.416172273457050323e-02,-9.121759980916976929e-02,-2.263895794749259949e-02,7.375053130090236664e-03,1.688120327889919281e-02,6.169198825955390930e-02
1.066528260707855225e-01,3.625244274735450745e-02,-8.839973062276840210e-02,-1.773402839899063110e-02,-1.326543278992176056e-02,-9.444238245487213135e-02,-2.363698929548263550e-02,8.654206991195678711e-03,1.637673936784267426e-02,6.395275890827178955e-02
1.066528260707855225e-01,3.625244274735450745e-02,-8.839973062276840210e-02,-1.773402839899063110e-02,-1.326543278992176056e-02,-9.444238245487213135e-02,-2.363698929548263550e-02,8.654206991195678711e-03,1.637673936784267426e-02,6.395275890827178955e-02
1.083628088235855103e-01,3.660093992948532104e-02,-9.009162336587905884e-02,-1.982968673110008240e-02,-1.619548536837100983e-02,-9.581558406352996826e-02,-2.102840691804885864e-02,1.270994171500205994e-02,1.590373367071151733e-02,6.558655947446823120e-02
1.083628088235855103e-01,3.660093992948532104e-02,-9.009162336587905884e-02,-1.982968673110008240e-02,-1.619548536837100983e-02,-9.581558406352996826e-02,-2.102840691804885864e-02,1.270994171500205994e-02,1.590373367071151733e-02,6.558655947446823120e-02
1.105418279767036438e-01,4.021956771612167358e-02,-8.953309059143066406e-02,-2.131276391446590424e-02,-1.587970927357673645e-02,-9.887530654668807983e-02,-2.290502749383449554e-02,1.460615266114473343e-02,1.557570602744817734e-02,6.601028144359588623e-02
1.105418279767036438e-01,4.021956771612167358e-02,-8.953309059143066406e-02,-2.131276391446590424e-02,-1.587970927357673645e-02,-9.887530654668807983e-02,-2.290502749383449554e-02,1.460615266114473343e-02,1.557570602744817734e-02,6.601028144359588623e-02
1.120326370000839233e-01,4.248631745576858521e-02,-9.209270030260086060e-02,-2.104257605969905853e-02,-1.550888270139694214e-02,-1.000757366418838501e-01,-2.117260731756687164e-02,1.439972966909408569e-02,1.470412779599428177e-02,6.746491789817810059e-02
1.120326370000839233e-01,4.248631745576858521e-02,-9.209270030260086060e-02,-2.104257605969905853e-02,-1.550888270139694214e-02,-1.000757366418838501e-01,-2.117260731756687164e-02,1.439972966909408569e-02,1.470412779599428177e-02,6.746491789817810059e-02
1.158276870846748352e-01,4.287516325712203979e-02,-9.260756522417068481e-02,-2.295631170272827148e-02,-1.729254610836505890e-02,-1.028707548975944519e-01,-2.028183825314044952e-02,1.647166721522808075e-02,1.480714790523052216e-02,6.914535909891128540e-02
1.158276870846748352e-01,4.287516325712203979e-02,-9.260756522417068481e-02,-2.295631170272827148e-02,-1.729254610836505890e-02,-1.028707548975944519e-01,-2.028183825314044952e-02,1.647166721522808075e-02,1.480714790523052216e-02,6.914535909891128540e-02
1.153165474534034729e-01,4.810858145356178284e-02,-9.277557581663131714e-02,-2.314415574073791504e-02,-1.821482740342617035e-02,-1.059897392988204956e-01,-1.936224661767482758e-02,1.900755427777767181e-02,1.359089650213718414e-02,6.956179440021514893e-02
1.153165474534034729e-01,4.810858145356178284e-02,-9.277557581663131714e-02,-2.314415574073791504e-02,-1.821482740342617035e-02,-1.059897392988204956e-01,-1.936224661767482758e-02,1.900755427777767181e-02,1.359089650213718414e-02,6.956179440021514893e-02
1.168783903121948242e-01,4.804080352187156677e-02,-9.319344907999038696e-02,-2.597835659980773926e-02,-1.923860609531402588e-02,-1.063634976744651794e-01,-1.998025737702846527e-02,2.083911933004856110e-02,1.405462622642517090e-02,7.135041803121566772e-02
1.168783903121948242e-01,4.804080352187156677e-02,-9.319344907999038696e-02,-2.597835659980773926e-02,-1.923860609531402588e-02,-1.063634976744651794e-01,-1.998025737702846527e-02,2.083911933004856110e-02,1.405462622642517090e-02,7.135041803121566772e-02
1.187785789370536804e-01,5.077818408608436584e-02,-9.314184635877609253e-02,-2.705742605030536652e-02,-1.785080507397651672e-02,-1.087761744856834412e-01,-1.965807005763053894e-02,2.141987718641757965e-02,1.216188631951808929e-02,7.260386645793914795e-02
1.187785789370536804e-01,5.077818408608436584e-02,-9.314184635877609253e-02,-2.705742605030536652e-02,-1.785080507397651672e-02,-1.087761744856834412e-01,-1.965807005763053894e-02,2.141987718641757965e-02,1.216188631951808929e-02,7.260386645793914795e-02
1.210151836276054382e-01,5.137903243303298950e-02,-9.404550492763519287e-02,-2.783608995378017426e-02,-1.970446668565273285e-02,-1.097202971577644348e-01,-1.813444681465625763e-02,2.284551225602626801e-02,1.170507632195949554e-02,7.325752824544906616e-02
1.210151836276054382e-01,5.137903243303298950e-02,-9.404550492763519287e-02,-2.783608995378017426e-02,-1.970446668565273285e-02,-1.097202971577644348e-01,-1.813444681465625763e-02,2.284551225602626801e-02,1.170507632195949554e-02,7.325752824544906616e-02
1.224172860383987427e-01,5.153962969779968262e-02,-9.493644535541534424e-02,-2.894596010446548462e-02,-2.074712514877319336e-02,-1.113082244992256165e-01,-1.937404833734035492e-02,2.580979280173778534e-02,1.107760705053806305e-02,7.522480189800262451e-02
1.224172860383987427e-01,5.153962969779968262e-02,-9.493644535541534424e-02,-2.894596010446548462e-02,-2.074712514877319336e-02,-1.113082244992256165e-01,-1.937404833734035492e-02,2.580979280173778534e-02,1.107760705053806305e-02,7.522480189800262451e-02
1.239204481244087219e-01,5.451326444745063782e-02,-9.455295652151107788e-02,-2.896905690431594849e-02,-2.135705575346946716e-02,-1.144400760531425476e-01,-1.775647699832916260e-02,2.871615067124366760e-02,9.053164161741733551e-03,7.459608465433120728e-02
1.239204481244087219e-01,5.451326444745063782e-02,-9.455295652151107788e-02,-2.896905690431594849e-02,-2.135705575346946716e-02,-1.144400760531425476e-01,-1.775647699832916260e-02,2.871615067124366760e-02,9.053164161741733551e-03,7.459608465433120728e-02
1.258906722068786621e-01,5.543091520667076111e-02,-9.623130410909652710e-02,-3.150122985243797302e-02,-2.093131281435489655e-02,-1.142906546592712402e-01,-1.862343586981296539e-02,2.892035990953445435e-02,9.719341062009334564e-03,7.644725590944290161e-02
1.258906722068786621e-01,5.543091520667076111e-02,-9.623130410909652710e-02,-3.150122985243797302e-02,-2.093131281435489655e-02,-1.142906546592712402e-01,-1.862343586981296539e-02,2.892035990953445435e-02,9.719341062009334564e-03,7.644725590944290161e-02
1.289892047643661499e-01,5.730124190449714661e-02,-9.602554142475128174e-02,-3.174628317356109619e-02,-2.209115400910377502e-02,-1.170213818550109863e-01,-1.843085512518882751e-02,2.972572296857833862e-02,8.975006639957427979e-03,7.725173234939575195e-02
1.289892047643661499e-01,5.730124190449714661e-02,-9.602554142475128174e-02,-3.174628317356109619e-02,-2.209115400910377502e-02,-1.170213818550109863e-01,-1.843085512518882751e-02,2.972572296857833862e-02,8.975006639957427979e-03,7.725173234939575195e-02
1.293202936649322510e-01,5.884220823645591736e-02,-9.602091461420059204e-02,-3.310935944318771362e-02,-2.331674657762050629e-02,-1.192605197429656982e-01,-1.639709807932376862e-02,3.227305412292480469e-02,8.237347938120365143e-03,7.789345830678939819e-02
1.293202936649322510e-01,5.884220823645591736e-02,-9.602091461420059204e-02,-3.310935944318771362e-02,-2.331674657762050629e-02,-1.192605197429656982e-01,-1.639709807932376862e-02,3.227305412292480469e-02,8.237347938120365143e-03,7.789345830678939819e-02
1.314008831977844238e-01,5.937794968485832214e-02,-9.698316454887390137e-02,-3.332371264696121216e-02,-2.314202301204204559e-02,-1.195631921291351318e-01,-1.686026901006698608e-02,3.337534144520759583e-02,7.018617354333400726e-03,7.824686169624328613e-02
1.314008831977844238e-01,5.937794968485832214e-02,-9.698316454887390137e-02,-3.332371264696121216e-02,-2.314202301204204559e-02,-1.195631921291351318e-01,-1.686026901006698608e-02,3.337534144520759583e-02,7.018617354333400726e-03,7.824686169624328613e-02
1.329638361930847168e-01,6.028371304273605347e-02,-9.699907153844833374e-02,-3.435075655579566956e-02,-2.328635007143020630e-02,-1.200754493474960327e-01,-1.693538390100002289e-02,3.511124849319458008e-02,6.423869635909795761e-03,7.762571424245834351e-02
1.329638361930847168e-01,6.028371304273605347e-02,-9.699907153844833374e-02,-3.435075655579566956e-02,-2.328635007143020630e-02,-1.200754493474960327e-01,-1.693538390100002289e-02,3.511124849319458008e-02,6.423869635909795761e-03,7.762571424245834351e-02
