3.095486760139465332e-02,-8.775128982961177826e-03,5.299385264515876770e-02,-6.677151471376419067e-02,-3.853799030184745789e-02,-9.090387262403964996e-03,2.911759167909622192e-02,2.176938578486442566e-03,-2.351770550012588501e-02,1.846909709274768829e-02
3.095486760139465332e-02,-8.775128982961177826e-03,5.299385264515876770e-02,-6.677151471376419067e-02,-3.853799030184745789e-02,-9.090387262403964996e-03,2.911759167909622192e-02,2.176938578486442566e-03,-2.351770550012588501e-02,1.846909709274768829e-02
3.669030591845512390e-02,-3.642397234216332436e-03,5.199118703603744507e-02,-7.306193560361862183e-02,-3.095292299985885620e-02,-1.962534151971340179e-02,2.053135447204113007e-02,8.059684187173843384e-03,-1.830230094492435455e-02,1.594907417893409729e-02
3.669030591845512390e-02,-3.642397234216332436e-03,5.199118703603744507e-02,-7.306193560361862183e-02,-3.095292299985885620e-02,-1.962534151971340179e-02,2.053135447204113007e-02,8.059684187173843384e-03,-1.830230094492435455e-02,1.594907417893409729e-02
4.103035852313041687e-02,6.092682480812072754e-03,4.900798946619033813e-02,-7.623381912708282471e-02,-2.838859707117080688e-02,-2.656097896397113800e-02,1.499148365110158920e-02,1.309292390942573547e-02,-1.771900057792663574e-02,1.585742458701133728e-02
4.103035852313041687e-02,6.092682480812072754e-03,4.900798946619033813e-02,-7.623381912708282471e-02,-2.838859707117080688e-02,-2.656097896397113800e-02,1.499148365110158920e-02,1.309292390942573547e-02,-1.771900057792663574e-02,1.585742458701133728e-02
4.317004233598709106e-02,1.411858666688203812e-02,4.623465240001678467e-02,-7.857885956764221191e-02,-2.422179840505123138e-02,-3.330831229686737061e-02,1.110995002090930939e-02,1.799887046217918396e-02,-1.738166622817516327e-02,1.560218166559934616e-02
4.317004233598709106e-02,1.411858666688203812e-02,4.623465240001678467e-02,-7.857885956764221191e-02,-2.422179840505123138e-02,-3.330831229686737061e-02,1.110995002090930939e-02,1.799887046217918396e-02,-1.738166622817516327e-02,1.560218166559934616e-02
4.664063453674316406e-02,2.070897072553634644e-02,4.267476499080657959e-02,-7.922100275754928589e-02,-2.336267381906509399e-02,-3.857092931866645813e-02,7.076667156070470810e-03,2.210502326488494873e-02,-1.566000096499919891e-02,1.557293254882097244e-02
4.664063453674316406e-02,2.070897072553634644e-02,4.267476499080657959e-02,-7.922100275754928589e-02,-2.336267381906509399e-02,-3.857092931866645813e-02,7.076667156070470810e-03,2.210502326488494873e-02,-1.566000096499919891e-02,1.557293254882097244e-02
4.808072745800018311e-02,2.626605890691280365e-02,4.116300120949745178e-02,-8.077668398618698120e-02,-2.194317616522312164e-02,-4.215769842267036438e-02,6.005632691085338593e-03,2.535076066851615906e-02,-1.730019412934780121e-02,1.675767824053764343e-02
4.808072745800018311e-02,2.626605890691280365e-02,4.116300120949745178e-02,-8.077668398618698120e-02,-2.194317616522312164e-02,-4.215769842267036438e-02,6.005632691085338593e-03,2.535076066851615906e-02,-1.730019412934780121e-02,1.675767824053764343e-02
4.823097586631774902e-02,3.081034496426582336e-02,3.822462260723114014e-02,-8.250683546066284180e-02,-2.057302556931972504e-02,-4.525502771139144897e-02,4.785045981407165527e-03,2.782685495913028717e-02,-1.567743159830570221e-02,1.788189634680747986e-02
4.823097586631774902e-02,3.081034496426582336e-02,3.822462260723114014e-02,-8.250683546066284180e-02,-2.057302556931972504e-02,-4.525502771139144897e-02,4.785045981407165527e-03,2.782685495913028717e-02,-1.567743159830570221e-02,1.788189634680747986e-02
5.122879892587661743e-02,3.666066005825996399e-02,3.540408238768577576e-02,-8.411791920661926270e-02,-2.196573838591575623e-02,-4.834222048521041870e-02,5.184830632060766220e-03,3.209908306598663330e-02,-1.603836566209793091e-02,1.815863884985446930e-02
5.122879892587661743e-02,3.666066005825996399e-02,3.540408238768577576e-02,-8.411791920661926270e-02,-2.196573838591575623e-02,-4.834222048521041870e-02,5.184830632060766220e-03,3.209908306598663330e-02,-1.603836566209793091e-02,1.815863884985446930e-02
5.239581689238548279e-02,4.062642157077789307e-02,3.528787568211555481e-02,-8.618395775556564331e-02,-2.257992140948772430e-02,-5.192897468805313110e-02,5.576618481427431107e-03,3.381940349936485291e-02,-1.540084742009639740e-02,1.959166303277015686e-02
5.239581689238548279e-02,4.062642157077789307e-02,3.528787568211555481e-02,-8.618395775556564331e-02,-2.257992140948772430e-02,-5.192897468805313110e-02,5.576618481427431107e-03,3.381940349936485291e-02,-1.540084742009639740e-02,1.959166303277015686e-02
5.438926443457603455e-02,4.574797302484512329e-02,3.376542031764984131e-02,-8.772188425064086914e-02,-2.149538882076740265e-02,-5.378802493214607239e-02,3.611583961173892021e-03,3.503404557704925537e-02,-1.570985279977321625e-02,2.041760087013244629e-02
5.438926443457603455e-02,4.574797302484512329e-02,3.376542031764984131e-02,-8.772188425064086914e-02,-2.149538882076740265e-02,-5.378802493214607239e-02,3.611583961173892021e-03,3.503404557704925537e-02,-1.570985279977321625e-02,2.041760087013244629e-02
5.570749565958976746e-02,5.028247833251953125e-02,3.284755721688270569e-02,-8.966949582099914551e-02,-2.182909287512302399e-02,-5.568863824009895325e-02,3.464596811681985855e-03,3.699795529246330261e-02,-1.625364646315574646e-02,2.156032621860504150e-02
5.570749565958976746e-02,5.028247833251953125e-02,3.284755721688270569e-02,-8.966949582099914551e-02,-2.182909287512302399e-02,-5.568863824009895325e-02,3.464596811681985855e-03,3.699795529246330261e-02,-1.625364646315574646e-02,2.156032621860504150e-02
5.605510994791984558e-02,5.415536835789680481e-02,3.133891522884368896e-02,-9.163869172334671021e-02,-2.292298711836338043e-02,-5.686958506703376770e-02,3.622456220909953117e-03,4.019749909639358521e-02,-1.591299287974834442e-02,2.173644490540027618e-02
5.605510994791984558e-02,5.415536835789680481e-02,3.133891522884368896e-02,-9.163869172334671021e-02,-2.292298711836338043e-02,-5.686958506703376770e-02,3.622456220909953117e-03,4.019749909639358521e-02,-1.591299287974834442e-02,2.173644490540027618e-02
5.834812298417091370e-02,5.714160203933715820e-02,3.122034855186939240e-02,-9.291937202215194702e-02,-2.404703199863433838e-02,-5.931454896926879883e-02,2.651125891134142876e-03,4.246863722801208496e-02,-1.609074138104915619e-02,2.240278013050556183e-02
5.834812298417091370e-02,5.714160203933715820e-02,3.122034855186939240e-02,-9.291937202215194702e-02,-2.404703199863433838e-02,-5.931454896926879883e-02,2.651125891134142876e-03,4.246863722801208496e-02,-1.609074138104915619e-02,2.240278013050556183e-02
5.947987362742424011e-02,6.139821559190750122e-02,3.011462092399597168e-02,-9.440276026725769043e-02,-2.477270551025867462e-02,-6.120805069804191589e-02,4.351628944277763367e-03,4.394502937793731689e-02,-1.668661832809448242e-02,2.310194447636604309e-02
5.947987362742424011e-02,6.139821559190750122e-02,3.011462092399597168e-02,-9.440276026725769043e-02,-2.477270551025867462e-02,-6.120805069804191589e-02,4.351628944277763367e-03,4.394502937793731689e-02,-1.668661832809448242e-02,2.310194447636604309e-02
6.077749282121658325e-02,6.341762840747833252e-02,2.948291227221488953e-02,-9.694119542837142944e-02,-2.288476563990116119e-02,-6.250888854265213013e-02,3.639221424236893654e-03,4.601090028882026672e-02,-1.598411053419113159e-02,2.225562743842601776e-02
6.077749282121658325e-02,6.341762840747833252e-02,2.948291227221488953e-02,-9.694119542837142944e-02,-2.288476563990116119e-02,-6.250888854265213013e-02,3.639221424236893654e-03,4.601090028882026672e-02,-1.598411053419113159e-02,2.225562743842601776e-02
6.300368905067443848e-02,6.630692631006240845e-02,2.903433330357074738e-02,-9.969096630811691284e-02,-2.414681948721408844e-02,-6.430815905332565308e-02,3.265993203967809677e-03,4.795737564563751221e-02,-1.595388166606426239e-02,2.391724288463592529e-02
6.300368905067443848e-02,6.630692631006240845e-02,2.903433330357074738e-02,-9.969096630811691284e-02,-2.414681948721408844e-02,-6.430815905332565308e-02,3.265993203967809677e-03,4.795737564563751221e-02,-1.595388166606426239e-02,2.391724288463592529e-02
6.246843561530113220e-02,6.989196687936782837e-02,2.908083982765674591e-02,-1.001506000757217407e-01,-2.479858696460723877e-02,-6.760743260383605957e-02,4.221757408231496811e-03,4.890465363860130310e-02,-1.580628193914890289e-02,2.516076155006885529e-02
6.246843561530113220e-02,6.989196687936782837e-02,2.908083982765674591e-02,-1.001506000757217407e-01,-2.479858696460723877e-02,-6.760743260383605957e-02,4.221757408231496811e-03,4.890465363860130310e-02,-1.580628193914890289e-02,2.516076155006885529e-02
6.496251374483108521e-02,7.262257486581802368e-02,2.803953550755977631e-02,-1.024384200572967529e-01,-2.445734851062297821e-02,-6.740467250347137451e-02,4.617517348378896713e-03,4.924156516790390015e-02,-1.642180979251861572e-02,2.551238425076007843e-02
6.496251374483108521e-02,7.262257486581802368e-02,2.803953550755977631e-02,-1.024384200572967529e-01,-2.445734851062297821e-02,-6.740467250347137451e-02,4.617517348378896713e-03,4.924156516790390015e-02,-1.642180979251861572e-02,2.551238425076007843e-02
6.550803035497665405e-02,7.415518909692764282e-02,2.780667506158351898e-02,-1.038840562105178833e-01,-2.451469004154205322e-02,-6.926845014095306396e-02,6.161140277981758118e-03,5.024164542555809021e-02,-1.639905571937561035e-02,2.626433968544006348e-02
6.550803035497665405e-02,7.415518909692764282e-02,2.780667506158351898e-02,-1.038840562105178833e-01,-2.451469004154205322e-02,-6.926845014095306396e-02,6.161140277981758118e-03,5.024164542555809021e-02,-1.639905571937561035e-02,2.626433968544006348e-02
6.675364822149276733e-02,7.680439203977584839e-02,2.726494334638118744e-02,-1.049151048064231873e-01,-2.470359019935131073e-02,-6.985199451446533203e-02,6.757967639714479446e-03,5.136104300618171692e-02,-1.616571657359600067e-02,2.513392083346843719e-02
6.675364822149276733e-02,7.680439203977584839e-02,2.726494334638118744e-02,-1.049151048064231873e-01,-2.470359019935131073e-02,-6.985199451446533203e-02,6.757967639714479446e-03,5.136104300618171692e-02,-1.616571657359600067e-02,2.513392083346843719e-02
6.828062236309051514e-02,7.808829843997955322e-02,2.717670053243637085e-02,-1.071539893746376038e-01,-2.580592781305313110e-02,-7.127826660871505737e-02,7.412039674818515778e-03,5.433905869722366333e-02,-1.684824749827384949e-02,2.580631710588932037e-02
6.828062236309051514e-02,7.808829843997955322e-02,2.717670053243637085e-02,-1.071539893746376038e-01,-2.580592781305313110e-02,-7.127826660871505737e-02,7.412039674818515778e-03,5.433905869722366333e-02,-1.684824749827384949e-02,2.580631710588932037e-02
6.905388832092285156e-02,8.115839958190917969e-02,2.819121070206165314e-02,-1.099911853671073914e-01,-2.655172534286975861e-02,-7.200445234775543213e-02,8.087464608252048492e-03,5.386691913008689880e-02,-1.813499815762042999e-02,2.847760915756225586e-02
6.905388832092285156e-02,8.115839958190917969e-02,2.819121070206165314e-02,-1.099911853671073914e-01,-2.655172534286975861e-02,-7.200445234775543213e-02,8.087464608252048492e-03,5.386691913008689880e-02,-1.813499815762042999e-02,2.847760915756225586e-02
7.077345252037048340e-02,8.181564509868621826e-02,2.739282697439193726e-02,-1.102873757481575012e-01,-2.657542750239372253e-02,-7.371447235345840454e-02,7.792280986905097961e-03,5.519328638911247253e-02,-1.725152507424354553e-02,2.796526625752449036e-02
7.077345252037048340e-02,8.181564509868621826e-02,2.739282697439193726e-02,-1.102873757481575012e-01,-2.657542750239372253e-02,-7.371447235345840454e-02,7.792280986905097961e-03,5.519328638911247253e-02,-1.725152507424354553e-02,2.796526625752449036e-02
7.085122913122177124e-02,8.333826810121536255e-02,2.796768955886363983e-02,-1.117760986089706421e-01,-2.669781446456909180e-02,-7.385923713445663452e-02,7.225406821817159653e-03,5.541488155722618103e-02,-1.834965124726295471e-02,2.963397651910781860e-02
7.085122913122177124e-02,8.333826810121536255e-02,2.796768955886363983e-02,-1.117760986089706421e-01,-2.669781446456909180e-02,-7.385923713445663452e-02,7.225406821817159653e-03,5.541488155722618103e-02,-1.834965124726295471e-02,2.963397651910781860e-02
7.180074602365493774e-02,8.500888198614120483e-02,2.763348817825317383e-02,-1.126868799328804016e-01,-2.783198095858097076e-02,-7.641021907329559326e-02,8.403941988945007324e-03,5.829830467700958252e-02,-1.832950487732887268e-02,2.953576669096946716e-02
7.180074602365493774e-02,8.500888198614120483e-02,2.763348817825317383e-02,-1.126868799328804016e-01,-2.783198095858097076e-02,-7.641021907329559326e-02,8.403941988945007324e-03,5.829830467700958252e-02,-1.832950487732887268e-02,2.953576669096946716e-02
7.375918328762054443e-02,8.502840995788574219e-02,2.800396643579006195e-02,-1.154050305485725403e-01,-2.796112746000289917e-02,-7.665081322193145752e-02,9.642442688345909119e-03,5.832862481474876404e-02,-1.814617402851581573e-02,3.030149079859256744e-02
7.375918328762054443e-02,8.502840995788574219e-02,2.800396643579006195e-02,-1.154050305485725403e-01,-2.796112746000289917e-02,-7.665081322193145752e-02,9.642442688345909119e-03,5.832862481474876404e-02,-1.814617402851581573e-02,3.030149079859256744e-02
7.717871665954589844e-02,8.764786273241043091e-02,2.688681706786155701e-02,-1.167991831898689270e-01,-2.787563577294349670e-02,-7.841058820486068726e-02,1.012539770454168320e-02,5.929509550333023071e-02,-1.839720457792282104e-02,3.045340441167354584e-02
7.717871665954589844e-02,8.764786273241043091e-02,2.688681706786155701e-02,-1.167991831898689270e-01,-2.787563577294349670e-02,-7.841058820486068726e-02,1.012539770454168320e-02,5.929509550333023071e-02,-1.839720457792282104e-02,3.045340441167354584e-02
7.552945613861083984e-02,9.041677415370941162e-02,2.777239680290222168e-02,-1.184976324439048767e-01,-2.768063172698020935e-02,-7.924473285675048828e-02,1.169826649129390717e-02,6.007061898708343506e-02,-1.951985061168670654e-02,3.119998052716255188e-02
7.552945613861083984e-02,9.041677415370941162e-02,2.777239680290222168e-02,-1.184976324439048767e-01,-2.768063172698020935e-02,-7.924473285675048828e-02,1.169826649129390717e-02,6.007061898708343506e-02,-1.951985061168670654e-02,3.119998052716255188e-02
7.730321586132049561e-02,9.207784384489059448e-02,2.625540085136890411e-02,-1.198363453149795532e-01,-2.765861712396144867e-02,-7.888657599687576294e-02,1.152621954679489136e-02,6.158999353647232056e-02,-1.936473511159420013e-02,3.048223257064819336e-02
7.730321586132049561e-02,9.207784384489059448e-02,2.625540085136890411e-02,-1.198363453149795532e-01,-2.765861712396144867e-02,-7.888657599687576294e-02,1.152621954679489136e-02,6.158999353647232056e-02,-1.936473511159420013e-02,3.048223257064819336e-02
7.833760231733322144e-02,9.200236201286315918e-02,2.660178951919078827e-02,-1.206792518496513367e-01,-2.708922699093818665e-02,-8.030296117067337036e-02,1.100719813257455826e-02,6.301049888134002686e-02,-1.988211832940578461e-02,3.076354041695594788e-02
7.833760231733322144e-02,9.200236201286315918e-02,2.660178951919078827e-02,-1.206792518496513367e-01,-2.708922699093818665e-02,-8.030296117067337036e-02,1.100719813257455826e-02,6.301049888134002686e-02,-1.988211832940578461e-02,3.076354041695594788e-02
