3.929049242287874222e-03,1.744601503014564514e-02,-2.936147525906562805e-02,-2.443332783877849579e-02,-3.114771330729126930e-03,8.933953009545803070e-03,-3.010275401175022125e-02,2.689334563910961151e-02,7.161085307598114014e-02,5.260016024112701416e-02
3.929049242287874222e-03,1.744601503014564514e-02,-2.936147525906562805e-02,-2.443332783877849579e-02,-3.114771330729126930e-03,8.933953009545803070e-03,-3.010275401175022125e-02,2.689334563910961151e-02,7.161085307598114014e-02,5.260016024112701416e-02
9.730274789035320282e-03,2.339502237737178802e-02,-2.540569379925727844e-02,-3.053946048021316528e-02,1.000277791172266006e-02,-6.189765874296426773e-03,-3.086903691291809082e-02,2.272156998515129089e-02,7.223086059093475342e-02,5.010455474257469177e-02
9.730274789035320282e-03,2.339502237737178802e-02,-2.540569379925727844e-02,-3.053946048021316528e-02,1.000277791172266006e-02,-6.189765874296426773e-03,-3.086903691291809082e-02,2.272156998515129089e-02,7.223086059093475342e-02,5.010455474257469177e-02
1.600598543882369995e-02,3.184515237808227539e-02,-2.505373954772949219e-02,-3.303319960832595825e-02,1.580757647752761841e-02,-1.589835621416568756e-02,-3.485873341560363770e-02,2.177328616380691528e-02,7.250875979661941528e-02,4.932221025228500366e-02
1.600598543882369995e-02,3.184515237808227539e-02,-2.505373954772949219e-02,-3.303319960832595825e-02,1.580757647752761841e-02,-1.589835621416568756e-02,-3.485873341560363770e-02,2.177328616380691528e-02,7.250875979661941528e-02,4.932221025228500366e-02
1.870657689869403839e-02,3.836210444569587708e-02,-2.612926624715328217e-02,-3.596223890781402588e-02,2.093684300780296326e-02,-2.138686738908290863e-02,-3.618510439991950989e-02,2.196825481951236725e-02,7.229737937450408936e-02,4.884370043873786926e-02
1.870657689869403839e-02,3.836210444569587708e-02,-2.612926624715328217e-02,-3.596223890781402588e-02,2.093684300780296326e-02,-2.138686738908290863e-02,-3.618510439991950989e-02,2.196825481951236725e-02,7.229737937450408936e-02,4.884370043873786926e-02
2.190527692437171936e-02,4.699327051639556885e-02,-2.710573561489582062e-02,-3.899165615439414978e-02,2.349661663174629211e-02,-2.433636784553527832e-02,-3.790193423628807068e-02,2.262461557984352112e-02,7.140912115573883057e-02,4.781616106629371643e-02
2.190527692437171936e-02,4.699327051639556885e-02,-2.710573561489582062e-02,-3.899165615439414978e-02,2.349661663174629211e-02,-2.433636784553527832e-02,-3.790193423628807068e-02,2.262461557984352112e-02,7.140912115573883057e-02,4.781616106629371643e-02
2.415931783616542816e-02,5.228623002767562866e-02,-2.653962373733520508e-02,-4.179399460554122925e-02,2.596814930438995361e-02,-2.575344592332839966e-02,-3.925197198987007141e-02,2.294003590941429138e-02,6.861732900142669678e-02,4.847339540719985962e-02
2.415931783616542816e-02,5.228623002767562866e-02,-2.653962373733520508e-02,-4.179399460554122925e-02,2.596814930438995361e-02,-2.575344592332839966e-02,-3.925197198987007141e-02,2.294003590941429138e-02,6.861732900142669678e-02,4.847339540719985962e-02
2.561781927943229675e-02,5.817714333534240723e-02,-2.633345313370227814e-02,-4.495862498879432678e-02,2.719313465058803558e-02,-2.622395381331443787e-02,-4.000460729002952576e-02,2.330554462969303131e-02,6.598422676324844360e-02,4.975272342562675476e-02
2.561781927943229675e-02,5.817714333534240723e-02,-2.633345313370227814e-02,-4.495862498879432678e-02,2.719313465058803558e-02,-2.622395381331443787e-02,-4.000460729002952576e-02,2.330554462969303131e-02,6.598422676324844360e-02,4.975272342562675476e-02
2.875974215567111969e-02,6.424020230770111084e-02,-2.882682345807552338e-02,-4.698837175965309143e-02,2.750564180314540863e-02,-2.594021894037723541e-02,-3.813266754150390625e-02,2.408866584300994873e-02,6.376434862613677979e-02,4.906475543975830078e-02
2.875974215567111969e-02,6.424020230770111084e-02,-2.882682345807552338e-02,-4.698837175965309143e-02,2.750564180314540863e-02,-2.594021894037723541e-02,-3.813266754150390625e-02,2.408866584300994873e-02,6.376434862613677979e-02,4.906475543975830078e-02
2.960335835814476013e-02,6.839960813522338867e-02,-2.717037498950958252e-02,-4.964515939354896545e-02,2.825853228569030762e-02,-2.730452455580234528e-02,-3.770273551344871521e-02,2.495878934860229492e-02,6.192452087998390198e-02,4.910584539175033569e-02
2.960335835814476013e-02,6.839960813522338867e-02,-2.717037498950958252e-02,-4.964515939354896545e-02,2.825853228569030762e-02,-2.730452455580234528e-02,-3.770273551344871521e-02,2.495878934860229492e-02,6.192452087998390198e-02,4.910584539175033569e-02
2.968759462237358093e-02,7.295841723680496216e-02,-2.702945657074451447e-02,-5.106658861041069031e-02,2.956703677773475647e-02,-2.755233831703662872e-02,-3.791920095682144165e-02,2.638905681669712067e-02,5.969294905662536621e-02,4.836937785148620605e-02
2.968759462237358093e-02,7.295841723680496216e-02,-2.702945657074451447e-02,-5.106658861041069031e-02,2.956703677773475647e-02,-2.755233831703662872e-02,-3.791920095682144165e-02,2.638905681669712067e-02,5.969294905662536621e-02,4.836937785148620605e-02
2.950084954500198364e-02,7.918361574411392212e-02,-2.686525695025920868e-02,-5.247130244970321655e-02,2.855408936738967896e-02,-2.702048420906066895e-02,-3.617738187313079834e-02,2.714487165212631226e-02,5.637796223163604736e-02,4.872957617044448853e-02
2.950084954500198364e-02,7.918361574411392212e-02,-2.686525695025920868e-02,-5.247130244970321655e-02,2.855408936738967896e-02,-2.702048420906066895e-02,-3.617738187313079834e-02,2.714487165212631226e-02,5.637796223163604736e-02,4.872957617044448853e-02
3.108587116003036499e-02,8.146063983440399170e-02,-2.779644355177879333e-02,-5.177076905965805054e-02,2.953343838453292847e-02,-2.775074355304241180e-02,-3.761422261595726013e-02,2.928114682435989380e-02,5.422059074044227600e-02,4.786669835448265076e-02
3.108587116003036499e-02,8.146063983440399170e-02,-2.779644355177879333e-02,-5.177076905965805054e-02,2.953343838453292847e-02,-2.775074355304241180e-02,-3.761422261595726013e-02,2.928114682435989380e-02,5.422059074044227600e-02,4.786669835448265076e-02
2.962880395352840424e-02,8.511727303266525269e-02,-2.720377594232559204e-02,-5.379202589392662048e-02,2.890657261013984680e-02,-2.922821603715419769e-02,-3.560660406947135925e-02,3.046569973230361938e-02,5.396813154220581055e-02,4.836151376366615295e-02
2.962880395352840424e-02,8.511727303266525269e-02,-2.720377594232559204e-02,-5.379202589392662048e-02,2.890657261013984680e-02,-2.922821603715419769e-02,-3.560660406947135925e-02,3.046569973230361938e-02,5.396813154220581055e-02,4.836151376366615295e-02
3.112893365323543549e-02,8.543354272842407227e-02,-2.559070847928524017e-02,-5.543283373117446899e-02,2.857789769768714905e-02,-2.852067723870277405e-02,-3.351412713527679443e-02,3.259398415684700012e-02,5.065260455012321472e-02,4.705588519573211670e-02
3.112893365323543549e-02,8.543354272842407227e-02,-2.559070847928524017e-02,-5.543283373117446899e-02,2.857789769768714905e-02,-2.852067723870277405e-02,-3.351412713527679443e-02,3.259398415684700012e-02,5.065260455012321472e-02,4.705588519573211670e-02
3.106355294585227966e-02,8.925663679838180542e-02,-2.586724609136581421e-02,-5.664927512407302856e-02,3.003184497356414795e-02,-2.894714102149009705e-02,-3.515177220106124878e-02,3.383522108197212219e-02,4.982811957597732544e-02,4.664935544133186340e-02
3.106355294585227966e-02,8.925663679838180542e-02,-2.586724609136581421e-02,-5.664927512407302856e-02,3.003184497356414795e-02,-2.894714102149009705e-02,-3.515177220106124878e-02,3.383522108197212219e-02,4.982811957597732544e-02,4.664935544133186340e-02
3.173777461051940918e-02,8.987242728471755981e-02,-2.404262125492095947e-02,-5.873627588152885437e-02,2.956118620932102203e-02,-2.852983586490154266e-02,-3.424790501594543457e-02,3.484557941555976868e-02,4.849719256162643433e-02,4.607459902763366699e-02
3.173777461051940918e-02,8.987242728471755981e-02,-2.404262125492095947e-02,-5.873627588152885437e-02,2.956118620932102203e-02,-2.852983586490154266e-02,-3.424790501594543457e-02,3.484557941555976868e-02,4.849719256162643433e-02,4.607459902763366699e-02
3.022956289350986481e-02,9.351845085620880127e-02,-2.285378240048885345e-02,-6.047995388507843018e-02,2.812239900231361389e-02,-3.062850050628185272e-02,-3.289877995848655701e-02,3.689101338386535645e-02,4.916923493146896362e-02,4.564033076167106628e-02
3.022956289350986481e-02,9.351845085620880127e-02,-2.285378240048885345e-02,-6.047995388507843018e-02,2.812239900231361389e-02,-3.062850050628185272e-02,-3.289877995848655701e-02,3.689101338386535645e-02,4.916923493146896362e-02,4.564033076167106628e-02
3.072877414524555206e-02,9.428480267524719238e-02,-2.279709279537200928e-02,-5.954094976186752319e-02,2.967504039406776428e-02,-2.949155308306217194e-02,-3.242198005318641663e-02,3.756671398878097534e-02,4.485503956675529480e-02,4.506292194128036499e-02
3.072877414524555206e-02,9.428480267524719238e-02,-2.279709279537200928e-02,-5.954094976186752319e-02,2.967504039406776428e-02,-2.949155308306217194e-02,-3.242198005318641663e-02,3.756671398878097534e-02,4.485503956675529480e-02,4.506292194128036499e-02
3.147822245955467224e-02,9.500589221715927124e-02,-2.194301597774028778e-02,-6.058559194207191467e-02,2.909593097865581512e-02,-3.021741285920143127e-02,-3.117063455283641815e-02,3.665319457650184631e-02,4.321269690990447998e-02,4.723338037729263306e-02
3.147822245955467224e-02,9.500589221715927124e-02,-2.194301597774028778e-02,-6.058559194207191467e-02,2.909593097865581512e-02,-3.021741285920143127e-02,-3.117063455283641815e-02,3.665319457650184631e-02,4.321269690990447998e-02,4.723338037729263306e-02
2.964421361684799194e-02,9.567055851221084595e-02,-1.983639411628246307e-02,-6.275704503059387207e-02,2.866286225616931915e-02,-3.231019154191017151e-02,-2.887427993118762970e-02,3.878568112850189209e-02,4.426492005586624146e-02,4.612362012267112732e-02
2.964421361684799194e-02,9.567055851221084595e-02,-1.983639411628246307e-02,-6.275704503059387207e-02,2.866286225616931915e-02,-3.231019154191017151e-02,-2.887427993118762970e-02,3.878568112850189209e-02,4.426492005586624146e-02,4.612362012267112732e-02
3.047065436840057373e-02,9.817256778478622437e-02,-1.927893236279487610e-02,-6.434383243322372437e-02,2.848327346146106720e-02,-3.009376302361488342e-02,-3.001097962260246277e-02,4.112757742404937744e-02,4.081461951136589050e-02,4.551354423165321350e-02
3.047065436840057373e-02,9.817256778478622437e-02,-1.927893236279487610e-02,-6.434383243322372437e-02,2.848327346146106720e-02,-3.009376302361488342e-02,-3.001097962260246277e-02,4.112757742404937744e-02,4.081461951136589050e-02,4.551354423165321350e-02
2.866442687809467316e-02,1.012969687581062317e-01,-1.890661381185054779e-02,-6.483010202646255493e-02,2.890119887888431549e-02,-3.086945414543151855e-02,-2.963579446077346802e-02,4.136712849140167236e-02,3.932345658540725708e-02,4.658727347850799561e-02
2.866442687809467316e-02,1.012969687581062317e-01,-1.890661381185054779e-02,-6.483010202646255493e-02,2.890119887888431549e-02,-3.086945414543151855e-02,-2.963579446077346802e-02,4.136712849140167236e-02,3.932345658540725708e-02,4.658727347850799561e-02
2.990161627531051636e-02,1.017558053135871887e-01,-1.813415065407752991e-02,-6.579778343439102173e-02,2.977514639496803284e-02,-3.142190352082252502e-02,-2.922531403601169586e-02,4.192807897925376892e-02,3.781349584460258484e-02,4.631737992167472839e-02
2.990161627531051636e-02,1.017558053135871887e-01,-1.813415065407752991e-02,-6.579778343439102173e-02,2.977514639496803284e-02,-3.142190352082252502e-02,-2.922531403601169586e-02,4.192807897925376892e-02,3.781349584460258484e-02,4.631737992167472839e-02
2.967357635498046875e-02,1.023709774017333984e-01,-1.756077446043491364e-02,-6.557281315326690674e-02,2.894250862300395966e-02,-3.198201209306716919e-02,-2.845404669642448425e-02,4.384807869791984558e-02,3.658655285835266113e-02,4.550673440098762512e-02
2.967357635498046875e-02,1.023709774017333984e-01,-1.756077446043491364e-02,-6.557281315326690674e-02,2.894250862300395966e-02,-3.198201209306716919e-02,-2.845404669642448425e-02,4.384807869791984558e-02,3.658655285835266113e-02,4.550673440098762512e-02
2.925200201570987701e-02,1.040642336010932922e-01,-1.747792027890682220e-02,-6.506871432065963745e-02,2.698963321745395660e-02,-3.368095681071281433e-02,-2.582312375307083130e-02,4.658614844083786011e-02,3.458183631300926208e-02,4.528031870722770691e-02
2.925200201570987701e-02,1.040642336010932922e-01,-1.747792027890682220e-02,-6.506871432065963745e-02,2.698963321745395660e-02,-3.368095681071281433e-02,-2.582312375307083130e-02,4.658614844083786011e-02,3.458183631300926208e-02,4.528031870722770691e-02
2.964748255908489227e-02,1.030607745051383972e-01,-1.550235319882631302e-02,-6.635906547307968140e-02,2.865001372992992401e-02,-3.207392618060112000e-02,-2.815286815166473389e-02,4.601347818970680237e-02,3.307150676846504211e-02,4.538302868604660034e-02
2.964748255908489227e-02,1.030607745051383972e-01,-1.550235319882631302e-02,-6.635906547307968140e-02,2.865001372992992401e-02,-3.207392618060112000e-02,-2.815286815166473389e-02,4.601347818970680237e-02,3.307150676846504211e-02,4.538302868604660034e-02
3.086049482226371765e-02,1.061825007200241089e-01,-1.481502596288919449e-02,-6.712646782398223877e-02,2.793486230075359344e-02,-3.517353907227516174e-02,-2.551589347422122955e-02,4.677235335111618042e-02,3.209729865193367004e-02,4.532650485634803772e-02
3.086049482226371765e-02,1.061825007200241089e-01,-1.481502596288919449e-02,-6.712646782398223877e-02,2.793486230075359344e-02,-3.517353907227516174e-02,-2.551589347422122955e-02,4.677235335111618042e-02,3.209729865193367004e-02,4.532650485634803772e-02
2.858394384384155273e-02,1.073506549000740051e-01,-1.388557720929384232e-02,-6.784097850322723389e-02,2.974241413176059723e-02,-3.434704244136810303e-02,-2.424503117799758911e-02,4.787213355302810669e-02,2.979279682040214539e-02,4.417721554636955261e-02
2.858394384384155273e-02,1.073506549000740051e-01,-1.388557720929384232e-02,-6.784097850322723389e-02,2.974241413176059723e-02,-3.434704244136810303e-02,-2.424503117799758911e-02,4.787213355302810669e-02,2.979279682040214539e-02,4.417721554636955261e-02
2.944002486765384674e-02,1.098091378808021545e-01,-1.372386794537305832e-02,-6.747766584157943726e-02,2.954190410673618317e-02,-3.437248989939689636e-02,-2.616797015070915222e-02,4.849595576524734497e-02,2.940814942121505737e-02,4.305257275700569153e-02
2.944002486765384674e-02,1.098091378808021545e-01,-1.372386794537305832e-02,-6.747766584157943726e-02,2.954190410673618317e-02,-3.437248989939689636e-02,-2.616797015070915222e-02,4.849595576524734497e-02,2.940814942121505737e-02,4.305257275700569153e-02
2.882475964725017548e-02,1.110658869147300720e-01,-1.450539659708738327e-02,-6.830206513404846191e-02,3.005588427186012268e-02,-3.304312378168106079e-02,-2.530195005238056183e-02,4.808454960584640503e-02,2.736404724419116974e-02,4.465081915259361267e-02
2.882475964725017548e-02,1.110658869147300720e-01,-1.450539659708738327e-02,-6.830206513404846191e-02,3.005588427186012268e-02,-3.304312378168106079e-02,-2.530195005238056183e-02,4.808454960584640503e-02,2.736404724419116974e-02,4.465081915259361267e-02
