-4.570178687572479248e-02,-3.762041032314300537e-02,-5.532121285796165466e-02,-8.693297207355499268e-02,1.710974238812923431e-02,3.710437938570976257e-02,5.547972768545150757e-02,-4.377821087837219238e-02,3.955128043889999390e-02,5.509823560714721680e-03
-4.570178687572479248e-02,-3.762041032314300537e-02,-5.532121285796165466e-02,-8.693297207355499268e-02,1.710974238812923431e-02,3.710437938570976257e-02,5.547972768545150757e-02,-4.377821087837219238e-02,3.955128043889999390e-02,5.509823560714721680e-03
-4.018613323569297791e-02,-3.128311038017272949e-02,-5.414857342839241028e-02,-9.363480657339096069e-02,2.809078805148601532e-02,2.632620371878147125e-02,5.251025781035423279e-02,-4.685459658503532410e-02,4.056680947542190552e-02,5.357056856155395508e-03
-4.018613323569297791e-02,-3.128311038017272949e-02,-5.414857342839241028e-02,-9.363480657339096069e-02,2.809078805148601532e-02,2.632620371878147125e-02,5.251025781035423279e-02,-4.685459658503532410e-02,4.056680947542190552e-02,5.357056856155395508e-03
-3.809762001037597656e-02,-2.416273951530456543e-02,-5.680060386657714844e-02,-9.721743315458297729e-02,3.203727304935455322e-02,2.185197174549102783e-02,5.023964494466781616e-02,-4.655044525861740112e-02,4.100111499428749084e-02,6.967301014810800552e-03
-3.809762001037597656e-02,-2.416273951530456543e-02,-5.680060386657714844e-02,-9.721743315458297729e-02,3.203727304935455322e-02,2.185197174549102783e-02,5.023964494466781616e-02,-4.655044525861740112e-02,4.100111499428749084e-02,6.967301014810800552e-03
-3.508988395333290100e-02,-1.700948365032672882e-02,-5.918761715292930603e-02,-9.972717612981796265e-02,3.699917718768119812e-02,1.470329705625772476e-02,4.941115528345108032e-02,-4.500105232000350952e-02,4.088518023490905762e-02,7.421205285936594009e-03
-3.508988395333290100e-02,-1.700948365032672882e-02,-5.918761715292930603e-02,-9.972717612981796265e-02,3.699917718768119812e-02,1.470329705625772476e-02,4.941115528345108032e-02,-4.500105232000350952e-02,4.088518023490905762e-02,7.421205285936594009e-03
-3.352536261081695557e-02,-8.818982169032096863e-03,-6.159464269876480103e-02,-1.029802337288856506e-01,3.787004947662353516e-02,1.108638942241668701e-02,4.825302958488464355e-02,-4.248528927564620972e-02,4.154568910598754883e-02,8.315450511872768402e-03
-3.352536261081695557e-02,-8.818982169032096863e-03,-6.159464269876480103e-02,-1.029802337288856506e-01,3.787004947662353516e-02,1.108638942241668701e-02,4.825302958488464355e-02,-4.248528927564620972e-02,4.154568910598754883e-02,8.315450511872768402e-03
-3.069838322699069977e-02,-4.225851967930793762e-03,-6.212997063994407654e-02,-1.061866879463195801e-01,3.830879181623458862e-02,7.431422360241413116e-03,4.820919409394264221e-02,-4.126604646444320679e-02,4.235675185918807983e-02,9.275208227336406708e-03
-3.069838322699069977e-02,-4.225851967930793762e-03,-6.212997063994407654e-02,-1.061866879463195801e-01,3.830879181623458862e-02,7.431422360241413116e-03,4.820919409394264221e-02,-4.126604646444320679e-02,4.235675185918807983e-02,9.275208227336406708e-03
-2.832507342100143433e-02,2.719578100368380547e-03,-6.438500434160232544e-02,-1.100608333945274353e-01,3.845869004726409912e-02,3.990485332906246185e-03,4.730120301246643066e-02,-3.812900930643081665e-02,4.340673983097076416e-02,1.056128181517124176e-02
-2.832507342100143433e-02,2.719578100368380547e-03,-6.438500434160232544e-02,-1.100608333945274353e-01,3.845869004726409912e-02,3.990485332906246185e-03,4.730120301246643066e-02,-3.812900930643081665e-02,4.340673983097076416e-02,1.056128181517124176e-02
-2.768663130700588226e-02,7.527668494731187820e-03,-6.681711226701736450e-02,-1.131227910518646240e-01,3.845041990280151367e-02,1.837685354985296726e-03,4.901226609945297241e-02,-3.551003336906433105e-02,4.376896470785140991e-02,1.185589935630559921e-02
-2.768663130700588226e-02,7.527668494731187820e-03,-6.681711226701736450e-02,-1.131227910518646240e-01,3.845041990280151367e-02,1.837685354985296726e-03,4.901226609945297241e-02,-3.551003336906433105e-02,4.376896470785140991e-02,1.185589935630559921e-02
-2.754584327340126038e-02,1.378869544714689255e-02,-6.671607494354248047e-02,-1.164987683296203613e-01,3.783725574612617493e-02,-1.756342360749840736e-03,4.934773594141006470e-02,-3.483335301280021667e-02,4.539485275745391846e-02,1.387225370854139328e-02
-2.754584327340126038e-02,1.378869544714689255e-02,-6.671607494354248047e-02,-1.164987683296203613e-01,3.783725574612617493e-02,-1.756342360749840736e-03,4.934773594141006470e-02,-3.483335301280021667e-02,4.539485275745391846e-02,1.387225370854139328e-02
-2.503710426390171051e-02,1.886000484228134155e-02,-6.788104027509689331e-02,-1.185902133584022522e-01,3.851050883531570435e-02,-5.433537065982818604e-03,4.917111247777938843e-02,-3.278697282075881958e-02,4.617185518145561218e-02,1.390498783439397812e-02
-2.503710426390171051e-02,1.886000484228134155e-02,-6.788104027509689331e-02,-1.185902133584022522e-01,3.851050883531570435e-02,-5.433537065982818604e-03,4.917111247777938843e-02,-3.278697282075881958e-02,4.617185518145561218e-02,1.390498783439397812e-02
-2.368097752332687378e-02,2.602241560816764832e-02,-6.913193315267562866e-02,-1.215550675988197327e-01,3.785595297813415527e-02,-6.937878206372261047e-03,4.885965585708618164e-02,-3.046529553830623627e-02,4.538504034280776978e-02,1.508725062012672424e-02
-2.368097752332687378e-02,2.602241560816764832e-02,-6.913193315267562866e-02,-1.215550675988197327e-01,3.785595297813415527e-02,-6.937878206372261047e-03,4.885965585708618164e-02,-3.046529553830623627e-02,4.538504034280776978e-02,1.508725062012672424e-02
-2.201476320624351501e-02,2.730292268097400665e-02,-7.091587036848068237e-02,-1.219975054264068604e-01,3.874876722693443298e-02,-9.965961799025535583e-03,4.932983592152595520e-02,-2.911747805774211884e-02,4.654410853981971741e-02,1.543254125863313675e-02
-2.201476320624351501e-02,2.730292268097400665e-02,-7.091587036848068237e-02,-1.219975054264068604e-01,3.874876722693443298e-02,-9.965961799025535583e-03,4.932983592152595520e-02,-2.911747805774211884e-02,4.654410853981971741e-02,1.543254125863313675e-02
-2.196805179119110107e-02,3.287762403488159180e-02,-7.194439321756362915e-02,-1.255583912134170532e-01,3.712840378284454346e-02,-1.216968987137079239e-02,5.060647800564765930e-02,-2.677343972027301788e-02,4.850985109806060791e-02,1.607215777039527893e-02
-2.196805179119110107e-02,3.287762403488159180e-02,-7.194439321756362915e-02,-1.255583912134170532e-01,3.712840378284454346e-02,-1.216968987137079239e-02,5.060647800564765930e-02,-2.677343972027301788e-02,4.850985109806060791e-02,1.607215777039527893e-02
-2.123527415096759796e-02,3.696108609437942505e-02,-7.273116707801818848e-02,-1.275156587362289429e-01,3.705934435129165649e-02,-1.420660130679607391e-02,5.225032567977905273e-02,-2.416374720633029938e-02,4.766086116433143616e-02,1.626932062208652496e-02
-2.123527415096759796e-02,3.696108609437942505e-02,-7.273116707801818848e-02,-1.275156587362289429e-01,3.705934435129165649e-02,-1.420660130679607391e-02,5.225032567977905273e-02,-2.416374720633029938e-02,4.766086116433143616e-02,1.626932062208652496e-02
-1.881074719130992889e-02,4.096540063619613647e-02,-7.241684198379516602e-02,-1.295018345117568970e-01,3.685712069272994995e-02,-1.714005880057811737e-02,5.187582597136497498e-02,-2.417260222136974335e-02,4.800659418106079102e-02,1.764981076121330261e-02
-1.881074719130992889e-02,4.096540063619613647e-02,-7.241684198379516602e-02,-1.295018345117568970e-01,3.685712069272994995e-02,-1.714005880057811737e-02,5.187582597136497498e-02,-2.417260222136974335e-02,4.800659418106079102e-02,1.764981076121330261e-02
-1.671292446553707123e-02,4.416705667972564697e-02,-7.369726896286010742e-02,-1.330139636993408203e-01,3.544839471578598022e-02,-1.855409890413284302e-02,5.302741751074790955e-02,-2.244625985622406006e-02,4.931112006306648254e-02,1.875582709908485413e-02
-1.671292446553707123e-02,4.416705667972564697e-02,-7.369726896286010742e-02,-1.330139636993408203e-01,3.544839471578598022e-02,-1.855409890413284302e-02,5.302741751074790955e-02,-2.244625985622406006e-02,4.931112006306648254e-02,1.875582709908485413e-02
-1.572252810001373291e-02,4.683792218565940857e-02,-7.458581775426864624e-02,-1.329560428857803345e-01,3.567725419998168945e-02,-2.101877890527248383e-02,5.352466180920600891e-02,-2.147628366947174072e-02,4.928499832749366760e-02,1.886790432035923004e-02
-1.572252810001373291e-02,4.683792218565940857e-02,-7.458581775426864624e-02,-1.329560428857803345e-01,3.567725419998168945e-02,-2.101877890527248383e-02,5.352466180920600891e-02,-2.147628366947174072e-02,4.928499832749366760e-02,1.886790432035923004e-02
-1.385385822504758835e-02,4.999286308884620667e-02,-7.469904422760009766e-02,-1.349274218082427979e-01,3.597782552242279053e-02,-2.217879891395568848e-02,5.366548895835876465e-02,-2.082554623484611511e-02,4.889255762100219727e-02,1.916524209082126617e-02
-1.385385822504758835e-02,4.999286308884620667e-02,-7.469904422760009766e-02,-1.349274218082427979e-01,3.597782552242279053e-02,-2.217879891395568848e-02,5.366548895835876465e-02,-2.082554623484611511e-02,4.889255762100219727e-02,1.916524209082126617e-02
-1.353946328163146973e-02,5.221348255872726440e-02,-7.588401436805725098e-02,-1.371869891881942749e-01,3.534872829914093018e-02,-2.432823553681373596e-02,5.643817409873008728e-02,-1.935386657714843750e-02,4.907271638512611389e-02,2.099636569619178772e-02
-1.353946328163146973e-02,5.221348255872726440e-02,-7.588401436805725098e-02,-1.371869891881942749e-01,3.534872829914093018e-02,-2.432823553681373596e-02,5.643817409873008728e-02,-1.935386657714843750e-02,4.907271638512611389e-02,2.099636569619178772e-02
-1.254379004240036011e-02,5.701005831360816956e-02,-7.662368565797805786e-02,-1.384019851684570312e-01,3.429764509201049805e-02,-2.669949829578399658e-02,5.710367113351821899e-02,-1.841287501156330109e-02,5.075773969292640686e-02,2.044227533042430878e-02
-1.254379004240036011e-02,5.701005831360816956e-02,-7.662368565797805786e-02,-1.384019851684570312e-01,3.429764509201049805e-02,-2.669949829578399658e-02,5.710367113351821899e-02,-1.841287501156330109e-02,5.075773969292640686e-02,2.044227533042430878e-02
-9.934945963323116302e-03,5.761196836829185486e-02,-7.793252170085906982e-02,-1.407652795314788818e-01,3.388853371143341064e-02,-2.680670097470283508e-02,5.680612102150917053e-02,-1.535924617201089859e-02,5.053750053048133850e-02,2.044413611292839050e-02
-9.934945963323116302e-03,5.761196836829185486e-02,-7.793252170085906982e-02,-1.407652795314788818e-01,3.388853371143341064e-02,-2.680670097470283508e-02,5.680612102150917053e-02,-1.535924617201089859e-02,5.053750053048133850e-02,2.044413611292839050e-02
-9.484966285526752472e-03,6.177914515137672424e-02,-7.772304862737655640e-02,-1.419005393981933594e-01,3.370805084705352783e-02,-2.933873236179351807e-02,5.783407762646675110e-02,-1.569727808237075806e-02,5.049339309334754944e-02,2.167572826147079468e-02
-9.484966285526752472e-03,6.177914515137672424e-02,-7.772304862737655640e-02,-1.419005393981933594e-01,3.370805084705352783e-02,-2.933873236179351807e-02,5.783407762646675110e-02,-1.569727808237075806e-02,5.049339309334754944e-02,2.167572826147079468e-02
-5.978504661470651627e-03,6.286555528640747070e-02,-7.836802303791046143e-02,-1.436413377523422241e-01,3.378669172525405884e-02,-3.239374235272407532e-02,5.781765654683113098e-02,-1.446920074522495270e-02,5.201421305537223816e-02,2.176642790436744690e-02
-5.978504661470651627e-03,6.286555528640747070e-02,-7.836802303791046143e-02,-1.436413377523422241e-01,3.378669172525405884e-02,-3.239374235272407532e-02,5.781765654683113098e-02,-1.446920074522495270e-02,5.201421305537223816e-02,2.176642790436744690e-02
-5.065737757831811905e-03,6.443942338228225708e-02,-7.932747155427932739e-02,-1.457110494375228882e-01,3.485656157135963440e-02,-3.252838924527168274e-02,5.804261565208435059e-02,-1.306696049869060516e-02,5.056352913379669189e-02,2.309276722371578217e-02
-5.065737757831811905e-03,6.443942338228225708e-02,-7.932747155427932739e-02,-1.457110494375228882e-01,3.485656157135963440e-02,-3.252838924527168274e-02,5.804261565208435059e-02,-1.306696049869060516e-02,5.056352913379669189e-02,2.309276722371578217e-02
-4.060191567987203598e-03,6.571092456579208374e-02,-8.049537986516952515e-02,-1.456377953290939331e-01,3.312101960182189941e-02,-3.564995899796485901e-02,6.016358360648155212e-02,-9.568784385919570923e-03,5.107965320348739624e-02,2.234704978764057159e-02
-4.060191567987203598e-03,6.571092456579208374e-02,-8.049537986516952515e-02,-1.456377953290939331e-01,3.312101960182189941e-02,-3.564995899796485901e-02,6.016358360648155212e-02,-9.568784385919570923e-03,5.107965320348739624e-02,2.234704978764057159e-02
-2.506973687559366226e-03,6.808038800954818726e-02,-8.029943704605102539e-02,-1.487483382225036621e-01,3.365178778767585754e-02,-3.707773983478546143e-02,5.985568836331367493e-02,-1.002426538616418839e-02,5.342691391706466675e-02,2.258131280541419983e-02
-2.506973687559366226e-03,6.808038800954818726e-02,-8.029943704605102539e-02,-1.487483382225036621e-01,3.365178778767585754e-02,-3.707773983478546143e-02,5.985568836331367493e-02,-1.002426538616418839e-02,5.342691391706466675e-02,2.258131280541419983e-02
7.763307075947523117e-04,6.976161152124404907e-02,-8.164212852716445923e-02,-1.481155157089233398e-01,3.305280581116676331e-02,-3.900321200489997864e-02,6.087814271450042725e-02,-1.028488297015428543e-02,5.244497954845428467e-02,2.360943332314491272e-02
7.763307075947523117e-04,6.976161152124404907e-02,-8.164212852716445923e-02,-1.481155157089233398e-01,3.305280581116676331e-02,-3.900321200489997864e-02,6.087814271450042725e-02,-1.028488297015428543e-02,5.244497954845428467e-02,2.360943332314491272e-02
1.599699840880930424e-03,7.314095646142959595e-02,-8.093401044607162476e-02,-1.503890454769134521e-01,3.288592025637626648e-02,-3.974658250808715820e-02,6.333229690790176392e-02,-9.391749277710914612e-03,5.144301429390907288e-02,2.302403934299945831e-02
1.599699840880930424e-03,7.314095646142959595e-02,-8.093401044607162476e-02,-1.503890454769134521e-01,3.288592025637626648e-02,-3.974658250808715820e-02,6.333229690790176392e-02,-9.391749277710914612e-03,5.144301429390907288e-02,2.302403934299945831e-02
2.461457159370183945e-03,7.622165977954864502e-02,-8.319093286991119385e-02,-1.499970704317092896e-01,3.173543885350227356e-02,-4.181879386305809021e-02,6.165017187595367432e-02,-6.679809186607599258e-03,5.289721116423606873e-02,2.248477376997470856e-02
2.461457159370183945e-03,7.622165977954864502e-02,-8.319093286991119385e-02,-1.499970704317092896e-01,3.173543885350227356e-02,-4.181879386305809021e-02,6.165017187595367432e-02,-6.679809186607599258e-03,5.289721116423606873e-02,2.248477376997470856e-02
3.308986779302358627e-03,7.605588436126708984e-02,-8.306073397397994995e-02,-1.529505550861358643e-01,3.266903758049011230e-02,-4.246291518211364746e-02,6.171813234686851501e-02,-6.097975652664899826e-03,5.413507670164108276e-02,2.310019731521606445e-02
3.308986779302358627e-03,7.605588436126708984e-02,-8.306073397397994995e-02,-1.529505550861358643e-01,3.266903758049011230e-02,-4.246291518211364746e-02,6.171813234686851501e-02,-6.097975652664899826e-03,5.413507670164108276e-02,2.310019731521606445e-02
