-3.058711625635623932e-02,-2.131159044802188873e-02,1.238888222724199295e-02,3.047785721719264984e-02,2.222673967480659485e-02,-9.006839245557785034e-03,-2.374834753572940826e-02,-1.773590594530105591e-02,2.378094010055065155e-02,1.930638588964939117e-02
-3.058711625635623932e-02,-2.131159044802188873e-02,1.238888222724199295e-02,3.047785721719264984e-02,2.222673967480659485e-02,-9.006839245557785034e-03,-2.374834753572940826e-02,-1.773590594530105591e-02,2.378094010055065155e-02,1.930638588964939117e-02
-2.708985842764377594e-02,-1.197489816695451736e-02,1.388262864202260971e-02,2.388655953109264374e-02,3.293838351964950562e-02,-2.271821536123752594e-02,-2.878739126026630402e-02,-1.710841618478298187e-02,2.433754317462444305e-02,1.840494014322757721e-02
-2.708985842764377594e-02,-1.197489816695451736e-02,1.388262864202260971e-02,2.388655953109264374e-02,3.293838351964950562e-02,-2.271821536123752594e-02,-2.878739126026630402e-02,-1.710841618478298187e-02,2.433754317462444305e-02,1.840494014322757721e-02
-2.541292831301689148e-02,-3.972657490521669388e-03,1.487541664391756058e-02,2.100881189107894897e-02,3.720923513174057007e-02,-2.915573306381702423e-02,-3.505787253379821777e-02,-1.516185421496629715e-02,2.277087979018688202e-02,1.963922753930091858e-02
-2.541292831301689148e-02,-3.972657490521669388e-03,1.487541664391756058e-02,2.100881189107894897e-02,3.720923513174057007e-02,-2.915573306381702423e-02,-3.505787253379821777e-02,-1.516185421496629715e-02,2.277087979018688202e-02,1.963922753930091858e-02
-2.529986575245857239e-02,6.209745770320296288e-04,1.428576093167066574e-02,2.053019590675830841e-02,3.986886516213417053e-02,-3.188976645469665527e-02,-3.786760568618774414e-02,-1.262485049664974213e-02,1.933144219219684601e-02,2.105354517698287964e-02
-2.529986575245857239e-02,6.209745770320296288e-04,1.428576093167066574e-02,2.053019590675830841e-02,3.986886516213417053e-02,-3.188976645469665527e-02,-3.786760568618774414e-02,-1.262485049664974213e-02,1.933144219219684601e-02,2.105354517698287964e-02
-2.515781298279762268e-02,5.438246764242649078e-03,1.545906532555818558e-02,2.061236836016178131e-02,3.957111015915870667e-02,-3.362135216593742371e-02,-4.191135987639427185e-02,-1.042876299470663071e-02,1.635763607919216156e-02,2.231557853519916534e-02
-2.515781298279762268e-02,5.438246764242649078e-03,1.545906532555818558e-02,2.061236836016178131e-02,3.957111015915870667e-02,-3.362135216593742371e-02,-4.191135987639427185e-02,-1.042876299470663071e-02,1.635763607919216156e-02,2.231557853519916534e-02
-2.656696364283561707e-02,9.801243431866168976e-03,1.683938875794410706e-02,2.110098302364349365e-02,3.944884240627288818e-02,-3.385942056775093079e-02,-4.517840221524238586e-02,-7.662163116037845612e-03,1.216135174036026001e-02,2.289465814828872681e-02
-2.656696364283561707e-02,9.801243431866168976e-03,1.683938875794410706e-02,2.110098302364349365e-02,3.944884240627288818e-02,-3.385942056775093079e-02,-4.517840221524238586e-02,-7.662163116037845612e-03,1.216135174036026001e-02,2.289465814828872681e-02
-2.770591154694557190e-02,1.326366979628801346e-02,1.811163872480392456e-02,2.162854187190532684e-02,3.772480413317680359e-02,-3.249271214008331299e-02,-4.730385914444923401e-02,-7.038170471787452698e-03,8.622106164693832397e-03,2.435126528143882751e-02
-2.770591154694557190e-02,1.326366979628801346e-02,1.811163872480392456e-02,2.162854187190532684e-02,3.772480413317680359e-02,-3.249271214008331299e-02,-4.730385914444923401e-02,-7.038170471787452698e-03,8.622106164693832397e-03,2.435126528143882751e-02
-2.791219949722290039e-02,1.766154915094375610e-02,1.713557355105876923e-02,2.107117325067520142e-02,3.557336702942848206e-02,-3.019167482852935791e-02,-4.746251180768013000e-02,-4.378717392683029175e-03,4.592215176671743393e-03,2.497574314475059509e-02
-2.791219949722290039e-02,1.766154915094375610e-02,1.713557355105876923e-02,2.107117325067520142e-02,3.557336702942848206e-02,-3.019167482852935791e-02,-4.746251180768013000e-02,-4.378717392683029175e-03,4.592215176671743393e-03,2.497574314475059509e-02
-2.896803617477416992e-02,1.905772089958190918e-02,1.918701082468032837e-02,2.076161652803421021e-02,3.376819565892219543e-02,-2.893932536244392395e-02,-4.912195727229118347e-02,-2.055916702374815941e-03,8.824855322018265724e-04,2.609181590378284454e-02
-2.896803617477416992e-02,1.905772089958190918e-02,1.918701082468032837e-02,2.076161652803421021e-02,3.376819565892219543e-02,-2.893932536244392395e-02,-4.912195727229118347e-02,-2.055916702374815941e-03,8.824855322018265724e-04,2.609181590378284454e-02
-3.040683455765247345e-02,2.277471683919429779e-02,2.048159204423427582e-02,2.027011662721633911e-02,3.249097615480422974e-02,-2.798475325107574463e-02,-5.146801844239234924e-02,-3.779028484132140875e-04,-1.854949048720300198e-03,2.692076750099658966e-02
-3.040683455765247345e-02,2.277471683919429779e-02,2.048159204423427582e-02,2.027011662721633911e-02,3.249097615480422974e-02,-2.798475325107574463e-02,-5.146801844239234924e-02,-3.779028484132140875e-04,-1.854949048720300198e-03,2.692076750099658966e-02
-3.175256401300430298e-02,2.722113765776157379e-02,2.116044610738754272e-02,1.965536549687385559e-02,2.991610765457153320e-02,-2.588268369436264038e-02,-5.129931122064590454e-02,1.716106315143406391e-03,-6.115883123129606247e-03,2.776121348142623901e-02
-3.175256401300430298e-02,2.722113765776157379e-02,2.116044610738754272e-02,1.965536549687385559e-02,2.991610765457153320e-02,-2.588268369436264038e-02,-5.129931122064590454e-02,1.716106315143406391e-03,-6.115883123129606247e-03,2.776121348142623901e-02
-3.289858624339103699e-02,2.975662797689437866e-02,2.159393578767776489e-02,2.068515121936798096e-02,2.839071303606033325e-02,-2.429885417222976685e-02,-5.501596257090568542e-02,3.856598399579524994e-03,-8.050155825912952423e-03,2.741172350943088531e-02
-3.289858624339103699e-02,2.975662797689437866e-02,2.159393578767776489e-02,2.068515121936798096e-02,2.839071303606033325e-02,-2.429885417222976685e-02,-5.501596257090568542e-02,3.856598399579524994e-03,-8.050155825912952423e-03,2.741172350943088531e-02
-3.437928110361099243e-02,3.219615668058395386e-02,2.307410165667533875e-02,1.982163637876510620e-02,2.643048577010631561e-02,-2.318649366497993469e-02,-5.666737630963325500e-02,5.108218174427747726e-03,-9.411476552486419678e-03,2.809590101242065430e-02
-3.437928110361099243e-02,3.219615668058395386e-02,2.307410165667533875e-02,1.982163637876510620e-02,2.643048577010631561e-02,-2.318649366497993469e-02,-5.666737630963325500e-02,5.108218174427747726e-03,-9.411476552486419678e-03,2.809590101242065430e-02
-3.512224927544593811e-02,3.418092057108879089e-02,2.479329146444797516e-02,1.925582438707351685e-02,2.508194372057914734e-02,-2.287190034985542297e-02,-5.575131252408027649e-02,6.888712290674448013e-03,-1.359728723764419556e-02,2.908778749406337738e-02
-3.512224927544593811e-02,3.418092057108879089e-02,2.479329146444797516e-02,1.925582438707351685e-02,2.508194372057914734e-02,-2.287190034985542297e-02,-5.575131252408027649e-02,6.888712290674448013e-03,-1.359728723764419556e-02,2.908778749406337738e-02
-3.493358567357063293e-02,3.586608543992042542e-02,2.564716152846813202e-02,1.926225051283836365e-02,2.434426918625831604e-02,-2.195628546178340912e-02,-5.894635617733001709e-02,8.447852917015552521e-03,-1.569855213165283203e-02,2.939012274146080017e-02
-3.493358567357063293e-02,3.586608543992042542e-02,2.564716152846813202e-02,1.926225051283836365e-02,2.434426918625831604e-02,-2.195628546178340912e-02,-5.894635617733001709e-02,8.447852917015552521e-03,-1.569855213165283203e-02,2.939012274146080017e-02
-3.507173433899879456e-02,3.924885019659996033e-02,2.697177790105342865e-02,1.720106974244117737e-02,2.192757837474346161e-02,-2.078643254935741425e-02,-6.033338978886604309e-02,1.109972968697547913e-02,-1.720196381211280823e-02,2.906960062682628632e-02
-3.507173433899879456e-02,3.924885019659996033e-02,2.697177790105342865e-02,1.720106974244117737e-02,2.192757837474346161e-02,-2.078643254935741425e-02,-6.033338978886604309e-02,1.109972968697547913e-02,-1.720196381211280823e-02,2.906960062682628632e-02
-3.672748804092407227e-02,4.211667180061340332e-02,2.765701338648796082e-02,1.775886490941047668e-02,2.091776579618453979e-02,-2.123419940471649170e-02,-6.048478931188583374e-02,1.203868351876735687e-02,-1.857782155275344849e-02,2.908340655267238617e-02
-3.672748804092407227e-02,4.211667180061340332e-02,2.765701338648796082e-02,1.775886490941047668e-02,2.091776579618453979e-02,-2.123419940471649170e-02,-6.048478931188583374e-02,1.203868351876735687e-02,-1.857782155275344849e-02,2.908340655267238617e-02
-3.724973648786544800e-02,4.382921382784843445e-02,2.772375941276550293e-02,1.758414134383201599e-02,2.093633264303207397e-02,-1.979337818920612335e-02,-6.109831482172012329e-02,1.244920399039983749e-02,-2.157025039196014404e-02,3.012208826839923859e-02
-3.724973648786544800e-02,4.382921382784843445e-02,2.772375941276550293e-02,1.758414134383201599e-02,2.093633264303207397e-02,-1.979337818920612335e-02,-6.109831482172012329e-02,1.244920399039983749e-02,-2.157025039196014404e-02,3.012208826839923859e-02
-3.857692331075668335e-02,4.623255878686904907e-02,2.836463786661624908e-02,1.658934727311134338e-02,1.889659650623798370e-02,-1.916656829416751862e-02,-6.289324909448623657e-02,1.538804545998573303e-02,-2.265699580311775208e-02,3.030114993453025818e-02
-3.857692331075668335e-02,4.623255878686904907e-02,2.836463786661624908e-02,1.658934727311134338e-02,1.889659650623798370e-02,-1.916656829416751862e-02,-6.289324909448623657e-02,1.538804545998573303e-02,-2.265699580311775208e-02,3.030114993453025818e-02
-4.142771288752555847e-02,4.674937576055526733e-02,3.005498275160789490e-02,1.689774170517921448e-02,1.758435927331447601e-02,-1.814887858927249908e-02,-6.179351732134819031e-02,1.606856659054756165e-02,-2.392029203474521637e-02,2.973692864179611206e-02
-4.142771288752555847e-02,4.674937576055526733e-02,3.005498275160789490e-02,1.689774170517921448e-02,1.758435927331447601e-02,-1.814887858927249908e-02,-6.179351732134819031e-02,1.606856659054756165e-02,-2.392029203474521637e-02,2.973692864179611206e-02
-4.188767075538635254e-02,4.836336523294448853e-02,2.984678186476230621e-02,1.582046598196029663e-02,1.597486063838005066e-02,-1.596834510564804077e-02,-6.393281370401382446e-02,1.705284044146537781e-02,-2.568100392818450928e-02,3.157344087958335876e-02
-4.188767075538635254e-02,4.836336523294448853e-02,2.984678186476230621e-02,1.582046598196029663e-02,1.597486063838005066e-02,-1.596834510564804077e-02,-6.393281370401382446e-02,1.705284044146537781e-02,-2.568100392818450928e-02,3.157344087958335876e-02
-4.156090691685676575e-02,5.036471784114837646e-02,3.192533180117607117e-02,1.509390678256750107e-02,1.418255362659692764e-02,-1.736764796078205109e-02,-6.495383381843566895e-02,1.868222467601299286e-02,-2.832278050482273102e-02,3.299504518508911133e-02
-4.156090691685676575e-02,5.036471784114837646e-02,3.192533180117607117e-02,1.509390678256750107e-02,1.418255362659692764e-02,-1.736764796078205109e-02,-6.495383381843566895e-02,1.868222467601299286e-02,-2.832278050482273102e-02,3.299504518508911133e-02
-4.185814782977104187e-02,5.350967124104499817e-02,3.185461089015007019e-02,1.454628631472587585e-02,1.392701361328363419e-02,-1.782552711665630341e-02,-6.595666706562042236e-02,1.754834689199924469e-02,-2.694904804229736328e-02,3.332016617059707642e-02
-4.185814782977104187e-02,5.350967124104499817e-02,3.185461089015007019e-02,1.454628631472587585e-02,1.392701361328363419e-02,-1.782552711665630341e-02,-6.595666706562042236e-02,1.754834689199924469e-02,-2.694904804229736328e-02,3.332016617059707642e-02
-4.401606693863868713e-02,5.514957383275032043e-02,3.251999616622924805e-02,1.393331866711378098e-02,1.265709940344095230e-02,-1.543163228780031204e-02,-6.729565560817718506e-02,2.002866938710212708e-02,-2.927952446043491364e-02,3.303996846079826355e-02
-4.401606693863868713e-02,5.514957383275032043e-02,3.251999616622924805e-02,1.393331866711378098e-02,1.265709940344095230e-02,-1.543163228780031204e-02,-6.729565560817718506e-02,2.002866938710212708e-02,-2.927952446043491364e-02,3.303996846079826355e-02
-4.447900876402854919e-02,5.680838972330093384e-02,3.261562064290046692e-02,1.500462274998426437e-02,1.103571709245443344e-02,-1.734794303774833679e-02,-6.616459041833877563e-02,2.159675024449825287e-02,-2.985809184610843658e-02,3.261716663837432861e-02
-4.447900876402854919e-02,5.680838972330093384e-02,3.261562064290046692e-02,1.500462274998426437e-02,1.103571709245443344e-02,-1.734794303774833679e-02,-6.616459041833877563e-02,2.159675024449825287e-02,-2.985809184610843658e-02,3.261716663837432861e-02
-4.457994177937507629e-02,5.772834643721580505e-02,3.447284922003746033e-02,1.283205859363079071e-02,1.203016843646764755e-02,-1.590408943593502045e-02,-6.804919987916946411e-02,2.191583998501300812e-02,-3.151407465338706970e-02,3.282256051898002625e-02
-4.457994177937507629e-02,5.772834643721580505e-02,3.447284922003746033e-02,1.283205859363079071e-02,1.203016843646764755e-02,-1.590408943593502045e-02,-6.804919987916946411e-02,2.191583998501300812e-02,-3.151407465338706970e-02,3.282256051898002625e-02
-4.475982114672660828e-02,6.104661896824836731e-02,3.389107063412666321e-02,1.226776838302612305e-02,1.018725428730249405e-02,-1.633193902671337128e-02,-6.817562133073806763e-02,2.322718873620033264e-02,-3.208725154399871826e-02,3.345409780740737915e-02
-4.475982114672660828e-02,6.104661896824836731e-02,3.389107063412666321e-02,1.226776838302612305e-02,1.018725428730249405e-02,-1.633193902671337128e-02,-6.817562133073806763e-02,2.322718873620033264e-02,-3.208725154399871826e-02,3.345409780740737915e-02
-4.676559567451477051e-02,6.105408072471618652e-02,3.542352840304374695e-02,1.170352380722761154e-02,1.063333638012409210e-02,-1.585628464818000793e-02,-6.834425777196884155e-02,2.463240548968315125e-02,-3.336137533187866211e-02,3.272409364581108093e-02
-4.676559567451477051e-02,6.105408072471618652e-02,3.542352840304374695e-02,1.170352380722761154e-02,1.063333638012409210e-02,-1.585628464818000793e-02,-6.834425777196884155e-02,2.463240548968315125e-02,-3.336137533187866211e-02,3.272409364581108093e-02
-4.668033123016357422e-02,6.435814499855041504e-02,3.382201492786407471e-02,1.250386238098144531e-02,9.420331567525863647e-03,-1.598365046083927155e-02,-6.917225569486618042e-02,2.509551681578159332e-02,-3.436616808176040649e-02,3.363002091646194458e-02
-4.668033123016357422e-02,6.435814499855041504e-02,3.382201492786407471e-02,1.250386238098144531e-02,9.420331567525863647e-03,-1.598365046083927155e-02,-6.917225569486618042e-02,2.509551681578159332e-02,-3.436616808176040649e-02,3.363002091646194458e-02
-4.730227217078208923e-02,6.608051061630249023e-02,3.506632894277572632e-02,1.193943899124860764e-02,1.114775985479354858e-02,-1.674608141183853149e-02,-7.128727436065673828e-02,2.508147619664669037e-02,-3.560011461377143860e-02,3.404540196061134338e-02
-4.730227217078208923e-02,6.608051061630249023e-02,3.506632894277572632e-02,1.193943899124860764e-02,1.114775985479354858e-02,-1.674608141183853149e-02,-7.128727436065673828e-02,2.508147619664669037e-02,-3.560011461377143860e-02,3.404540196061134338e-02
