-3.744596382603049278e-03,4.030329734086990356e-02,-9.515495039522647858e-03,-3.614098578691482544e-02,3.973386064171791077e-02,2.250390971312299371e-04,-5.559375882148742676e-02,1.111313924193382263e-01,-5.659254640340805054e-02,8.400658145546913147e-03
-3.744596382603049278e-03,4.030329734086990356e-02,-9.515495039522647858e-03,-3.614098578691482544e-02,3.973386064171791077e-02,2.250390971312299371e-04,-5.559375882148742676e-02,1.111313924193382263e-01,-5.659254640340805054e-02,8.400658145546913147e-03
-2.495845220983028412e-02,-7.644533365964889526e-02,3.908920288085937500e-02,-4.021941125392913818e-02,1.457382291555404663e-01,2.064177207648754120e-02,-4.907505586743354797e-02,1.626751571893692017e-01,-6.791422516107559204e-02,-8.436739444732666016e-02
-2.495845220983028412e-02,-7.644533365964889526e-02,3.908920288085937500e-02,-4.021941125392913818e-02,1.457382291555404663e-01,2.064177207648754120e-02,-4.907505586743354797e-02,1.626751571893692017e-01,-6.791422516107559204e-02,-8.436739444732666016e-02
-6.808704137802124023e-02,-1.571209579706192017e-01,7.232428342103958130e-02,-7.927273400127887726e-03,2.352735549211502075e-01,1.867121830582618713e-02,-4.176382720470428467e-02,1.603167057037353516e-01,-5.093146115541458130e-02,-1.516572237014770508e-01
-6.808704137802124023e-02,-1.571209579706192017e-01,7.232428342103958130e-02,-7.927273400127887726e-03,2.352735549211502075e-01,1.867121830582618713e-02,-4.176382720470428467e-02,1.603167057037353516e-01,-5.093146115541458130e-02,-1.516572237014770508e-01
-9.938752651214599609e-02,-2.095948010683059692e-01,8.577044308185577393e-02,2.967585250735282898e-02,2.893392443656921387e-01,1.184534560889005661e-02,-4.304948449134826660e-02,1.572728306055068970e-01,-1.428118813782930374e-02,-2.071740925312042236e-01
-9.938752651214599609e-02,-2.095948010683059692e-01,8.577044308185577393e-02,2.967585250735282898e-02,2.893392443656921387e-01,1.184534560889005661e-02,-4.304948449134826660e-02,1.572728306055068970e-01,-1.428118813782930374e-02,-2.071740925312042236e-01
-1.173748672008514404e-01,-2.465532124042510986e-01,1.088808774948120117e-01,3.647952526807785034e-02,3.105548322200775146e-01,-1.335518434643745422e-03,-1.469102129340171814e-02,1.657305359840393066e-01,1.633018068969249725e-02,-2.542566359043121338e-01
-1.173748672008514404e-01,-2.465532124042510986e-01,1.088808774948120117e-01,3.647952526807785034e-02,3.105548322200775146e-01,-1.335518434643745422e-03,-1.469102129340171814e-02,1.657305359840393066e-01,1.633018068969249725e-02,-2.542566359043121338e-01
-1.341859549283981323e-01,-3.028802573680877686e-01,1.108881235122680664e-01,5.914912372827529907e-02,3.540810644626617432e-01,-3.167136386036872864e-02,-6.060332059860229492e-03,1.827385574579238892e-01,4.252301156520843506e-02,-2.778356671333312988e-01
-1.341859549283981323e-01,-3.028802573680877686e-01,1.108881235122680664e-01,5.914912372827529907e-02,3.540810644626617432e-01,-3.167136386036872864e-02,-6.060332059860229492e-03,1.827385574579238892e-01,4.252301156520843506e-02,-2.778356671333312988e-01
-1.673580706119537354e-01,-3.379742503166198730e-01,1.204294711351394653e-01,8.770333975553512573e-02,3.833406567573547363e-01,-5.823863670229911804e-02,-1.608953811228275299e-02,2.087012827396392822e-01,7.554428279399871826e-02,-3.085227608680725098e-01
-1.673580706119537354e-01,-3.379742503166198730e-01,1.204294711351394653e-01,8.770333975553512573e-02,3.833406567573547363e-01,-5.823863670229911804e-02,-1.608953811228275299e-02,2.087012827396392822e-01,7.554428279399871826e-02,-3.085227608680725098e-01
-1.865572184324264526e-01,-3.810987472534179688e-01,1.157348677515983582e-01,1.015402451157569885e-01,4.082744419574737549e-01,-6.957565993070602417e-02,-1.506729982793331146e-02,2.372158765792846680e-01,9.929291903972625732e-02,-3.277861773967742920e-01
-1.865572184324264526e-01,-3.810987472534179688e-01,1.157348677515983582e-01,1.015402451157569885e-01,4.082744419574737549e-01,-6.957565993070602417e-02,-1.506729982793331146e-02,2.372158765792846680e-01,9.929291903972625732e-02,-3.277861773967742920e-01
-2.004752904176712036e-01,-4.253631532192230225e-01,1.194923967123031616e-01,1.316879242658615112e-01,4.339811503887176514e-01,-8.593917638063430786e-02,-4.506623372435569763e-03,2.460692226886749268e-01,1.260934174060821533e-01,-3.654564321041107178e-01
-2.004752904176712036e-01,-4.253631532192230225e-01,1.194923967123031616e-01,1.316879242658615112e-01,4.339811503887176514e-01,-8.593917638063430786e-02,-4.506623372435569763e-03,2.460692226886749268e-01,1.260934174060821533e-01,-3.654564321041107178e-01
-2.371880114078521729e-01,-4.712076783180236816e-01,1.293141096830368042e-01,1.613543331623077393e-01,4.378754496574401855e-01,-7.627646625041961670e-02,-1.121306605637073517e-02,2.572916150093078613e-01,1.741851568222045898e-01,-3.976860344409942627e-01
-2.371880114078521729e-01,-4.712076783180236816e-01,1.293141096830368042e-01,1.613543331623077393e-01,4.378754496574401855e-01,-7.627646625041961670e-02,-1.121306605637073517e-02,2.572916150093078613e-01,1.741851568222045898e-01,-3.976860344409942627e-01
-2.787536382675170898e-01,-5.375407338142395020e-01,1.379153579473495483e-01,1.869938075542449951e-01,4.423528909683227539e-01,-7.636198401451110840e-02,-7.849516347050666809e-03,2.979337275028228760e-01,2.117809504270553589e-01,-4.190559089183807373e-01
-2.787536382675170898e-01,-5.375407338142395020e-01,1.379153579473495483e-01,1.869938075542449951e-01,4.423528909683227539e-01,-7.636198401451110840e-02,-7.849516347050666809e-03,2.979337275028228760e-01,2.117809504270553589e-01,-4.190559089183807373e-01
-3.066585958003997803e-01,-5.800207853317260742e-01,1.515262126922607422e-01,2.073326110839843750e-01,4.608910083770751953e-01,-7.673966884613037109e-02,-3.858532290905714035e-03,3.313413858413696289e-01,2.242729663848876953e-01,-4.578235149383544922e-01
-3.066585958003997803e-01,-5.800207853317260742e-01,1.515262126922607422e-01,2.073326110839843750e-01,4.608910083770751953e-01,-7.673966884613037109e-02,-3.858532290905714035e-03,3.313413858413696289e-01,2.242729663848876953e-01,-4.578235149383544922e-01
-3.495275378227233887e-01,-5.914623141288757324e-01,1.632591784000396729e-01,2.266576588153839111e-01,4.776259064674377441e-01,-8.393955230712890625e-02,-1.159868761897087097e-02,3.749250471591949463e-01,2.350600361824035645e-01,-4.984715282917022705e-01
-3.495275378227233887e-01,-5.914623141288757324e-01,1.632591784000396729e-01,2.266576588153839111e-01,4.776259064674377441e-01,-8.393955230712890625e-02,-1.159868761897087097e-02,3.749250471591949463e-01,2.350600361824035645e-01,-4.984715282917022705e-01
-3.650986850261688232e-01,-6.368812322616577148e-01,1.636659950017929077e-01,2.380681037902832031e-01,4.999585151672363281e-01,-8.825363963842391968e-02,-3.538050875067710876e-02,4.186905026435852051e-01,2.440859824419021606e-01,-5.040309429168701172e-01
-3.650986850261688232e-01,-6.368812322616577148e-01,1.636659950017929077e-01,2.380681037902832031e-01,4.999585151672363281e-01,-8.825363963842391968e-02,-3.538050875067710876e-02,4.186905026435852051e-01,2.440859824419021606e-01,-5.040309429168701172e-01
-3.714407086372375488e-01,-6.706997156143188477e-01,1.631508171558380127e-01,2.395854443311691284e-01,4.793035387992858887e-01,-7.082583010196685791e-02,-9.712293744087219238e-03,4.144455492496490479e-01,2.896543741226196289e-01,-5.332231521606445312e-01
-3.714407086372375488e-01,-6.706997156143188477e-01,1.631508171558380127e-01,2.395854443311691284e-01,4.793035387992858887e-01,-7.082583010196685791e-02,-9.712293744087219238e-03,4.144455492496490479e-01,2.896543741226196289e-01,-5.332231521606445312e-01
-3.832966685295104980e-01,-6.815455555915832520e-01,1.516929566860198975e-01,2.504301667213439941e-01,4.659042060375213623e-01,-6.590589880943298340e-02,-8.918334729969501495e-03,4.186860322952270508e-01,3.202891349792480469e-01,-5.419158339500427246e-01
-3.832966685295104980e-01,-6.815455555915832520e-01,1.516929566860198975e-01,2.504301667213439941e-01,4.659042060375213623e-01,-6.590589880943298340e-02,-8.918334729969501495e-03,4.186860322952270508e-01,3.202891349792480469e-01,-5.419158339500427246e-01
-3.926593065261840820e-01,-7.023636698722839355e-01,1.537903547286987305e-01,2.585206925868988037e-01,4.772062897682189941e-01,-8.240884542465209961e-02,2.325316518545150757e-02,4.255270957946777344e-01,3.293376863002777100e-01,-5.694385766983032227e-01
-3.926593065261840820e-01,-7.023636698722839355e-01,1.537903547286987305e-01,2.585206925868988037e-01,4.772062897682189941e-01,-8.240884542465209961e-02,2.325316518545150757e-02,4.255270957946777344e-01,3.293376863002777100e-01,-5.694385766983032227e-01
-4.063515961170196533e-01,-7.216930985450744629e-01,1.345846951007843018e-01,2.628078758716583252e-01,4.894834160804748535e-01,-8.624452352523803711e-02,4.373643547296524048e-02,4.331364929676055908e-01,3.428628146648406982e-01,-5.770152807235717773e-01
-4.063515961170196533e-01,-7.216930985450744629e-01,1.345846951007843018e-01,2.628078758716583252e-01,4.894834160804748535e-01,-8.624452352523803711e-02,4.373643547296524048e-02,4.331364929676055908e-01,3.428628146648406982e-01,-5.770152807235717773e-01
-3.895924091339111328e-01,-7.086019515991210938e-01,1.267021447420120239e-01,2.617951035499572754e-01,4.815031588077545166e-01,-8.156740665435791016e-02,6.925936788320541382e-02,4.164161086082458496e-01,3.621858358383178711e-01,-6.157652139663696289e-01
-3.895924091339111328e-01,-7.086019515991210938e-01,1.267021447420120239e-01,2.617951035499572754e-01,4.815031588077545166e-01,-8.156740665435791016e-02,6.925936788320541382e-02,4.164161086082458496e-01,3.621858358383178711e-01,-6.157652139663696289e-01
-4.081643223762512207e-01,-7.271609306335449219e-01,1.285529732704162598e-01,2.859969437122344971e-01,4.938841462135314941e-01,-8.629029989242553711e-02,5.231869220733642578e-02,4.270802140235900879e-01,3.779117166996002197e-01,-6.313154101371765137e-01
-4.081643223762512207e-01,-7.271609306335449219e-01,1.285529732704162598e-01,2.859969437122344971e-01,4.938841462135314941e-01,-8.629029989242553711e-02,5.231869220733642578e-02,4.270802140235900879e-01,3.779117166996002197e-01,-6.313154101371765137e-01
-4.358241558074951172e-01,-7.319651246070861816e-01,1.220684945583343506e-01,2.997370362281799316e-01,5.055556297302246094e-01,-9.447026252746582031e-02,4.927897825837135315e-02,4.362183213233947754e-01,3.962941169738769531e-01,-6.412078142166137695e-01
-4.358241558074951172e-01,-7.319651246070861816e-01,1.220684945583343506e-01,2.997370362281799316e-01,5.055556297302246094e-01,-9.447026252746582031e-02,4.927897825837135315e-02,4.362183213233947754e-01,3.962941169738769531e-01,-6.412078142166137695e-01
-4.631810486316680908e-01,-7.504780888557434082e-01,1.102815791964530945e-01,3.049183785915374756e-01,5.294241309165954590e-01,-9.440690279006958008e-02,3.018977306783199310e-02,4.356582462787628174e-01,4.278273582458496094e-01,-6.345376968383789062e-01
-4.631810486316680908e-01,-7.504780888557434082e-01,1.102815791964530945e-01,3.049183785915374756e-01,5.294241309165954590e-01,-9.440690279006958008e-02,3.018977306783199310e-02,4.356582462787628174e-01,4.278273582458496094e-01,-6.345376968383789062e-01
-4.718155562877655029e-01,-7.641426920890808105e-01,8.191036432981491089e-02,3.067133426666259766e-01,5.520163178443908691e-01,-8.848391473293304443e-02,2.323567308485507965e-02,4.465052783489227295e-01,4.441436529159545898e-01,-6.394645571708679199e-01
-4.718155562877655029e-01,-7.641426920890808105e-01,8.191036432981491089e-02,3.067133426666259766e-01,5.520163178443908691e-01,-8.848391473293304443e-02,2.323567308485507965e-02,4.465052783489227295e-01,4.441436529159545898e-01,-6.394645571708679199e-01
-4.854331612586975098e-01,-7.969659566879272461e-01,7.618539035320281982e-02,3.018348515033721924e-01,5.645695328712463379e-01,-6.851167231798171997e-02,7.570137735456228256e-03,4.536476731300354004e-01,4.644640982151031494e-01,-6.384378075599670410e-01
-4.854331612586975098e-01,-7.969659566879272461e-01,7.618539035320281982e-02,3.018348515033721924e-01,5.645695328712463379e-01,-6.851167231798171997e-02,7.570137735456228256e-03,4.536476731300354004e-01,4.644640982151031494e-01,-6.384378075599670410e-01
-4.961600899696350098e-01,-8.199919462203979492e-01,7.802493125200271606e-02,3.206647634506225586e-01,5.722815394401550293e-01,-5.908080190420150757e-02,7.169037126004695892e-03,4.402006864547729492e-01,4.849947094917297363e-01,-6.578199267387390137e-01
-4.961600899696350098e-01,-8.199919462203979492e-01,7.802493125200271606e-02,3.206647634506225586e-01,5.722815394401550293e-01,-5.908080190420150757e-02,7.169037126004695892e-03,4.402006864547729492e-01,4.849947094917297363e-01,-6.578199267387390137e-01
-5.035744309425354004e-01,-8.234894871711730957e-01,6.421359628438949585e-02,3.311945199966430664e-01,6.034210324287414551e-01,-5.147086828947067261e-02,-9.982146322727203369e-03,4.216535985469818115e-01,5.048278570175170898e-01,-6.695494055747985840e-01
-5.035744309425354004e-01,-8.234894871711730957e-01,6.421359628438949585e-02,3.311945199966430664e-01,6.034210324287414551e-01,-5.147086828947067261e-02,-9.982146322727203369e-03,4.216535985469818115e-01,5.048278570175170898e-01,-6.695494055747985840e-01
-5.108070969581604004e-01,-8.387802839279174805e-01,5.513976141810417175e-02,3.278105258941650391e-01,6.278635859489440918e-01,-4.444938525557518005e-02,-1.680386997759342194e-02,4.174127578735351562e-01,5.231634974479675293e-01,-6.789160370826721191e-01
-5.108070969581604004e-01,-8.387802839279174805e-01,5.513976141810417175e-02,3.278105258941650391e-01,6.278635859489440918e-01,-4.444938525557518005e-02,-1.680386997759342194e-02,4.174127578735351562e-01,5.231634974479675293e-01,-6.789160370826721191e-01
-5.412357449531555176e-01,-8.372970223426818848e-01,4.527745395898818970e-02,3.097402155399322510e-01,6.357297897338867188e-01,-1.820676028728485107e-02,-2.002650499343872070e-02,4.257248938083648682e-01,5.476425290107727051e-01,-6.919480562210083008e-01
-5.412357449531555176e-01,-8.372970223426818848e-01,4.527745395898818970e-02,3.097402155399322510e-01,6.357297897338867188e-01,-1.820676028728485107e-02,-2.002650499343872070e-02,4.257248938083648682e-01,5.476425290107727051e-01,-6.919480562210083008e-01
-5.431352853775024414e-01,-8.551457524299621582e-01,5.469726026058197021e-02,3.153963387012481689e-01,6.451011300086975098e-01,-1.397324167191982269e-02,-3.282503783702850342e-02,4.242928922176361084e-01,5.700927972793579102e-01,-7.169858217239379883e-01
-5.431352853775024414e-01,-8.551457524299621582e-01,5.469726026058197021e-02,3.153963387012481689e-01,6.451011300086975098e-01,-1.397324167191982269e-02,-3.282503783702850342e-02,4.242928922176361084e-01,5.700927972793579102e-01,-7.169858217239379883e-01
-5.451934337615966797e-01,-8.825684785842895508e-01,3.685708343982696533e-02,3.010241389274597168e-01,6.661067008972167969e-01,-6.800674367696046829e-03,-3.930988162755966187e-02,4.383815228939056396e-01,5.857085585594177246e-01,-7.166253328323364258e-01
-5.451934337615966797e-01,-8.825684785842895508e-01,3.685708343982696533e-02,3.010241389274597168e-01,6.661067008972167969e-01,-6.800674367696046829e-03,-3.930988162755966187e-02,4.383815228939056396e-01,5.857085585594177246e-01,-7.166253328323364258e-01
