-5.257743597030639648e-02,2.586731873452663422e-02,-7.289716042578220367e-03,-1.072162389755249023e-02,3.962676972150802612e-02,-5.844015628099441528e-02,-4.696493968367576599e-02,-2.844265848398208618e-02,6.382525712251663208e-02,-3.377465531229972839e-02
-5.257743597030639648e-02,2.586731873452663422e-02,-7.289716042578220367e-03,-1.072162389755249023e-02,3.962676972150802612e-02,-5.844015628099441528e-02,-4.696493968367576599e-02,-2.844265848398208618e-02,6.382525712251663208e-02,-3.377465531229972839e-02
-5.042477324604988098e-02,3.475525230169296265e-02,-6.702329963445663452e-03,-1.824753172695636749e-02,4.728977009654045105e-02,-6.796937435865402222e-02,-5.506080761551856995e-02,-2.688250690698623657e-02,6.751292198896408081e-02,-3.300681337714195251e-02
-5.042477324604988098e-02,3.475525230169296265e-02,-6.702329963445663452e-03,-1.824753172695636749e-02,4.728977009654045105e-02,-6.796937435865402222e-02,-5.506080761551856995e-02,-2.688250690698623657e-02,6.751292198896408081e-02,-3.300681337714195251e-02
-5.027647316455841064e-02,4.596509784460067749e-02,-6.892919074743986130e-03,-2.175422012805938721e-02,5.020520836114883423e-02,-7.302134484052658081e-02,-6.120382994413375854e-02,-2.688860520720481873e-02,6.947352737188339233e-02,-3.293047845363616943e-02
-5.027647316455841064e-02,4.596509784460067749e-02,-6.892919074743986130e-03,-2.175422012805938721e-02,5.020520836114883423e-02,-7.302134484052658081e-02,-6.120382994413375854e-02,-2.688860520720481873e-02,6.947352737188339233e-02,-3.293047845363616943e-02
-5.034941062331199646e-02,5.354087054729461670e-02,-7.494851946830749512e-03,-2.321561425924301147e-02,5.488404631614685059e-02,-7.835742086172103882e-02,-6.443472951650619507e-02,-2.621341124176979065e-02,7.017175853252410889e-02,-3.375289961695671082e-02
-5.034941062331199646e-02,5.354087054729461670e-02,-7.494851946830749512e-03,-2.321561425924301147e-02,5.488404631614685059e-02,-7.835742086172103882e-02,-6.443472951650619507e-02,-2.621341124176979065e-02,7.017175853252410889e-02,-3.375289961695671082e-02
-4.993462935090065002e-02,5.975199490785598755e-02,-7.465175818651914597e-03,-2.536715939640998840e-02,5.659543722867965698e-02,-8.089885115623474121e-02,-6.708816438913345337e-02,-2.578026056289672852e-02,7.146771997213363647e-02,-3.454346954822540283e-02
-4.993462935090065002e-02,5.975199490785598755e-02,-7.465175818651914597e-03,-2.536715939640998840e-02,5.659543722867965698e-02,-8.089885115623474121e-02,-6.708816438913345337e-02,-2.578026056289672852e-02,7.146771997213363647e-02,-3.454346954822540283e-02
-5.078186467289924622e-02,6.584221124649047852e-02,-7.412320468574762344e-03,-2.684907056391239166e-02,5.766020715236663818e-02,-8.354158699512481689e-02,-6.734402477741241455e-02,-2.448613941669464111e-02,7.152539491653442383e-02,-3.525931388139724731e-02
-5.078186467289924622e-02,6.584221124649047852e-02,-7.412320468574762344e-03,-2.684907056391239166e-02,5.766020715236663818e-02,-8.354158699512481689e-02,-6.734402477741241455e-02,-2.448613941669464111e-02,7.152539491653442383e-02,-3.525931388139724731e-02
-5.180527642369270325e-02,7.026896625757217407e-02,-6.825168617069721222e-03,-2.884044125676155090e-02,5.795207247138023376e-02,-8.638730645179748535e-02,-6.893218308687210083e-02,-2.234144322574138641e-02,7.266666740179061890e-02,-3.493164852261543274e-02
-5.180527642369270325e-02,7.026896625757217407e-02,-6.825168617069721222e-03,-2.884044125676155090e-02,5.795207247138023376e-02,-8.638730645179748535e-02,-6.893218308687210083e-02,-2.234144322574138641e-02,7.266666740179061890e-02,-3.493164852261543274e-02
-5.134998634457588196e-02,7.506345957517623901e-02,-8.993946015834808350e-03,-2.869345434010028839e-02,5.803718790411949158e-02,-8.713627606630325317e-02,-6.932975351810455322e-02,-2.036551572382450104e-02,7.130166143178939819e-02,-3.502855077385902405e-02
-5.134998634457588196e-02,7.506345957517623901e-02,-8.993946015834808350e-03,-2.869345434010028839e-02,5.803718790411949158e-02,-8.713627606630325317e-02,-6.932975351810455322e-02,-2.036551572382450104e-02,7.130166143178939819e-02,-3.502855077385902405e-02
-5.037006363272666931e-02,7.683357596397399902e-02,-8.498117327690124512e-03,-3.025706484913825989e-02,5.767440423369407654e-02,-8.967417478561401367e-02,-6.978888064622879028e-02,-1.863390952348709106e-02,7.237528264522552490e-02,-3.473692759871482849e-02
-5.037006363272666931e-02,7.683357596397399902e-02,-8.498117327690124512e-03,-3.025706484913825989e-02,5.767440423369407654e-02,-8.967417478561401367e-02,-6.978888064622879028e-02,-1.863390952348709106e-02,7.237528264522552490e-02,-3.473692759871482849e-02
-5.012078210711479187e-02,7.946208864450454712e-02,-8.158676326274871826e-03,-3.100735321640968323e-02,5.756840109825134277e-02,-9.092144668102264404e-02,-7.030033320188522339e-02,-1.649911329150199890e-02,7.186528295278549194e-02,-3.546627610921859741e-02
-5.012078210711479187e-02,7.946208864450454712e-02,-8.158676326274871826e-03,-3.100735321640968323e-02,5.756840109825134277e-02,-9.092144668102264404e-02,-7.030033320188522339e-02,-1.649911329150199890e-02,7.186528295278549194e-02,-3.546627610921859741e-02
-5.206572264432907104e-02,8.524276316165924072e-02,-8.579997345805168152e-03,-3.132565319538116455e-02,5.630252137780189514e-02,-9.162160009145736694e-02,-7.062444090843200684e-02,-1.542640477418899536e-02,7.123054563999176025e-02,-3.461462259292602539e-02
-5.206572264432907104e-02,8.524276316165924072e-02,-8.579997345805168152e-03,-3.132565319538116455e-02,5.630252137780189514e-02,-9.162160009145736694e-02,-7.062444090843200684e-02,-1.542640477418899536e-02,7.123054563999176025e-02,-3.461462259292602539e-02
-5.035324394702911377e-02,8.539861440658569336e-02,-9.429626166820526123e-03,-3.045280650258064270e-02,5.775890871882438660e-02,-9.301236271858215332e-02,-7.245273888111114502e-02,-1.417481154203414917e-02,7.078275084495544434e-02,-3.512613475322723389e-02
-5.035324394702911377e-02,8.539861440658569336e-02,-9.429626166820526123e-03,-3.045280650258064270e-02,5.775890871882438660e-02,-9.301236271858215332e-02,-7.245273888111114502e-02,-1.417481154203414917e-02,7.078275084495544434e-02,-3.512613475322723389e-02
-5.140399560332298279e-02,8.795916289091110229e-02,-8.863531984388828278e-03,-3.163969516754150391e-02,5.668446421623229980e-02,-9.416237473487854004e-02,-7.300267368555068970e-02,-1.185466069728136063e-02,7.104504108428955078e-02,-3.509073331952095032e-02
-5.140399560332298279e-02,8.795916289091110229e-02,-8.863531984388828278e-03,-3.163969516754150391e-02,5.668446421623229980e-02,-9.416237473487854004e-02,-7.300267368555068970e-02,-1.185466069728136063e-02,7.104504108428955078e-02,-3.509073331952095032e-02
-4.965935274958610535e-02,8.830408006906509399e-02,-9.342501871287822723e-03,-3.119809925556182861e-02,5.605226382613182068e-02,-9.609602391719818115e-02,-7.086347788572311401e-02,-1.107214298099279404e-02,6.893175095319747925e-02,-3.358282521367073059e-02
-4.965935274958610535e-02,8.830408006906509399e-02,-9.342501871287822723e-03,-3.119809925556182861e-02,5.605226382613182068e-02,-9.609602391719818115e-02,-7.086347788572311401e-02,-1.107214298099279404e-02,6.893175095319747925e-02,-3.358282521367073059e-02
-4.724265635013580322e-02,9.211357682943344116e-02,-9.187957271933555603e-03,-3.174306079745292664e-02,5.579597502946853638e-02,-9.753801673650741577e-02,-7.463820278644561768e-02,-9.149522520601749420e-03,6.882724165916442871e-02,-3.426937758922576904e-02
-4.724265635013580322e-02,9.211357682943344116e-02,-9.187957271933555603e-03,-3.174306079745292664e-02,5.579597502946853638e-02,-9.753801673650741577e-02,-7.463820278644561768e-02,-9.149522520601749420e-03,6.882724165916442871e-02,-3.426937758922576904e-02
-4.674396291375160217e-02,9.211196750402450562e-02,-9.509605355560779572e-03,-3.285722434520721436e-02,5.558636412024497986e-02,-9.791948646306991577e-02,-7.514673471450805664e-02,-6.911710835993289948e-03,6.909258663654327393e-02,-3.460783883929252625e-02
-4.674396291375160217e-02,9.211196750402450562e-02,-9.509605355560779572e-03,-3.285722434520721436e-02,5.558636412024497986e-02,-9.791948646306991577e-02,-7.514673471450805664e-02,-6.911710835993289948e-03,6.909258663654327393e-02,-3.460783883929252625e-02
-4.544284194707870483e-02,9.560300409793853760e-02,-9.740781970322132111e-03,-3.330707550048828125e-02,5.499531328678131104e-02,-9.987870603799819946e-02,-7.479935139417648315e-02,-5.414964631199836731e-03,6.801879405975341797e-02,-3.440045192837715149e-02
-4.544284194707870483e-02,9.560300409793853760e-02,-9.740781970322132111e-03,-3.330707550048828125e-02,5.499531328678131104e-02,-9.987870603799819946e-02,-7.479935139417648315e-02,-5.414964631199836731e-03,6.801879405975341797e-02,-3.440045192837715149e-02
-4.480876773595809937e-02,9.542575478553771973e-02,-9.636056609451770782e-03,-3.291731327772140503e-02,5.497990176081657410e-02,-1.001064479351043701e-01,-7.516004145145416260e-02,-4.975185729563236237e-03,6.612873822450637817e-02,-3.326829895377159119e-02
-4.480876773595809937e-02,9.542575478553771973e-02,-9.636056609451770782e-03,-3.291731327772140503e-02,5.497990176081657410e-02,-1.001064479351043701e-01,-7.516004145145416260e-02,-4.975185729563236237e-03,6.612873822450637817e-02,-3.326829895377159119e-02
-4.379097744822502136e-02,9.684115648269653320e-02,-9.676130488514900208e-03,-3.288646042346954346e-02,5.484205856919288635e-02,-1.013642325997352600e-01,-7.554645836353302002e-02,-4.726260434836149216e-03,6.459010392427444458e-02,-3.170014172792434692e-02
-4.379097744822502136e-02,9.684115648269653320e-02,-9.676130488514900208e-03,-3.288646042346954346e-02,5.484205856919288635e-02,-1.013642325997352600e-01,-7.554645836353302002e-02,-4.726260434836149216e-03,6.459010392427444458e-02,-3.170014172792434692e-02
-4.360130056738853455e-02,9.928490221500396729e-02,-1.022971235215663910e-02,-3.329316899180412292e-02,5.548878386616706848e-02,-1.033466383814811707e-01,-7.607822865247726440e-02,-3.108280012384057045e-03,6.620612740516662598e-02,-3.323210030794143677e-02
-4.360130056738853455e-02,9.928490221500396729e-02,-1.022971235215663910e-02,-3.329316899180412292e-02,5.548878386616706848e-02,-1.033466383814811707e-01,-7.607822865247726440e-02,-3.108280012384057045e-03,6.620612740516662598e-02,-3.323210030794143677e-02
-4.325254634022712708e-02,1.016829311847686768e-01,-1.016580406576395035e-02,-3.413213416934013367e-02,5.398132652044296265e-02,-1.035163626074790955e-01,-7.630565762519836426e-02,-1.167872571386396885e-03,6.466726958751678467e-02,-3.267446160316467285e-02
-4.325254634022712708e-02,1.016829311847686768e-01,-1.016580406576395035e-02,-3.413213416934013367e-02,5.398132652044296265e-02,-1.035163626074790955e-01,-7.630565762519836426e-02,-1.167872571386396885e-03,6.466726958751678467e-02,-3.267446160316467285e-02
-4.246776551008224487e-02,1.039949283003807068e-01,-8.376797661185264587e-03,-3.447879478335380554e-02,5.335608869791030884e-02,-1.048998907208442688e-01,-7.701783627271652222e-02,-9.996322914958000183e-04,6.234772503376007080e-02,-3.133713081479072571e-02
-4.246776551008224487e-02,1.039949283003807068e-01,-8.376797661185264587e-03,-3.447879478335380554e-02,5.335608869791030884e-02,-1.048998907208442688e-01,-7.701783627271652222e-02,-9.996322914958000183e-04,6.234772503376007080e-02,-3.133713081479072571e-02
-4.116018861532211304e-02,1.055487617850303650e-01,-8.730391040444374084e-03,-3.436949849128723145e-02,5.325040221214294434e-02,-1.068518385291099548e-01,-7.702372968196868896e-02,-1.868132385425269604e-03,6.286755204200744629e-02,-3.033456951379776001e-02
-4.116018861532211304e-02,1.055487617850303650e-01,-8.730391040444374084e-03,-3.436949849128723145e-02,5.325040221214294434e-02,-1.068518385291099548e-01,-7.702372968196868896e-02,-1.868132385425269604e-03,6.286755204200744629e-02,-3.033456951379776001e-02
-4.066420719027519226e-02,1.061383858323097229e-01,-8.515424095094203949e-03,-3.556516394019126892e-02,5.282023176550865173e-02,-1.070551574230194092e-01,-7.755111157894134521e-02,1.194993383251130581e-03,6.135189533233642578e-02,-3.053172118961811066e-02
-4.066420719027519226e-02,1.061383858323097229e-01,-8.515424095094203949e-03,-3.556516394019126892e-02,5.282023176550865173e-02,-1.070551574230194092e-01,-7.755111157894134521e-02,1.194993383251130581e-03,6.135189533233642578e-02,-3.053172118961811066e-02
-4.109537228941917419e-02,1.098940223455429077e-01,-9.332741610705852509e-03,-3.392606973648071289e-02,5.081803351640701294e-02,-1.094350367784500122e-01,-7.617308944463729858e-02,2.277578692883253098e-03,6.047135591506958008e-02,-3.018784895539283752e-02
-4.109537228941917419e-02,1.098940223455429077e-01,-9.332741610705852509e-03,-3.392606973648071289e-02,5.081803351640701294e-02,-1.094350367784500122e-01,-7.617308944463729858e-02,2.277578692883253098e-03,6.047135591506958008e-02,-3.018784895539283752e-02
-3.918684273958206177e-02,1.084033772349357605e-01,-8.362161926925182343e-03,-3.515719994902610779e-02,5.040036141872406006e-02,-1.092385053634643555e-01,-7.760611176490783691e-02,2.806623233482241631e-03,5.941254645586013794e-02,-2.889607101678848267e-02
-3.918684273958206177e-02,1.084033772349357605e-01,-8.362161926925182343e-03,-3.515719994902610779e-02,5.040036141872406006e-02,-1.092385053634643555e-01,-7.760611176490783691e-02,2.806623233482241631e-03,5.941254645586013794e-02,-2.889607101678848267e-02
-3.755668550729751587e-02,1.112860813736915588e-01,-8.208373561501502991e-03,-3.502272441983222961e-02,5.075251311063766479e-02,-1.108593493700027466e-01,-7.740684598684310913e-02,2.265292918309569359e-03,5.835992842912673950e-02,-2.870692871510982513e-02
-3.755668550729751587e-02,1.112860813736915588e-01,-8.208373561501502991e-03,-3.502272441983222961e-02,5.075251311063766479e-02,-1.108593493700027466e-01,-7.740684598684310913e-02,2.265292918309569359e-03,5.835992842912673950e-02,-2.870692871510982513e-02
-3.766279295086860657e-02,1.117891371250152588e-01,-8.129423484206199646e-03,-3.514593467116355896e-02,5.145071074366569519e-02,-1.122386679053306580e-01,-7.760367542505264282e-02,4.440821707248687744e-03,5.740510672330856323e-02,-2.923874557018280029e-02
-3.766279295086860657e-02,1.117891371250152588e-01,-8.129423484206199646e-03,-3.514593467116355896e-02,5.145071074366569519e-02,-1.122386679053306580e-01,-7.760367542505264282e-02,4.440821707248687744e-03,5.740510672330856323e-02,-2.923874557018280029e-02
-3.733115270733833313e-02,1.135978922247886658e-01,-9.430667385458946228e-03,-3.438091650605201721e-02,5.122584849596023560e-02,-1.123090311884880066e-01,-7.630941271781921387e-02,3.923699259757995605e-03,5.665254965424537659e-02,-2.899682335555553436e-02
-3.733115270733833313e-02,1.135978922247886658e-01,-9.430667385458946228e-03,-3.438091650605201721e-02,5.122584849596023560e-02,-1.123090311884880066e-01,-7.630941271781921387e-02,3.923699259757995605e-03,5.665254965424537659e-02,-2.899682335555553436e-02
-3.553055599331855774e-02,1.144328340888023376e-01,-9.103388525545597076e-03,-3.488959372043609619e-02,5.127414315938949585e-02,-1.139628440141677856e-01,-7.780601829290390015e-02,6.235555279999971390e-03,5.437109246850013733e-02,-2.811363153159618378e-02
-3.553055599331855774e-02,1.144328340888023376e-01,-9.103388525545597076e-03,-3.488959372043609619e-02,5.127414315938949585e-02,-1.139628440141677856e-01,-7.780601829290390015e-02,6.235555279999971390e-03,5.437109246850013733e-02,-2.811363153159618378e-02
