-1.898057200014591217e-02,4.039942473173141479e-02,4.433922842144966125e-02,-4.413471370935440063e-02,9.749202989041805267e-03,6.853134185075759888e-02,-5.710558220744132996e-02,3.928321972489356995e-02,4.676256328821182251e-02,6.024933233857154846e-02
-1.850286312401294708e-02,4.160781949758529663e-02,4.332617670297622681e-02,-4.525871202349662781e-02,6.429026369005441666e-03,7.167599350214004517e-02,-5.995572358369827271e-02,4.255788773298263550e-02,5.000285431742668152e-02,5.701941251754760742e-02
-1.884597167372703552e-02,4.353280365467071533e-02,4.361175745725631714e-02,-4.853038117289543152e-02,8.514830842614173889e-03,7.257001101970672607e-02,-6.195157021284103394e-02,4.604358598589897156e-02,4.734608903527259827e-02,5.672626197338104248e-02
-1.887476630508899689e-02,4.558593034744262695e-02,4.228964820504188538e-02,-4.932712763547897339e-02,9.578606113791465759e-03,7.243736833333969116e-02,-6.372396647930145264e-02,4.766371473670005798e-02,4.464798048138618469e-02,5.880471691489219666e-02
-1.939935423433780670e-02,4.865140467882156372e-02,4.186778888106346130e-02,-5.183970555663108826e-02,9.576243348419666290e-03,7.344491779804229736e-02,-6.457149237394332886e-02,4.762740805745124817e-02,4.411670938134193420e-02,5.969077348709106445e-02
-1.829733513295650482e-02,4.862560704350471497e-02,4.109231382608413696e-02,-5.212467163801193237e-02,1.060865819454193115e-02,7.363166660070419312e-02,-6.618330627679824829e-02,4.796641319990158081e-02,4.397990182042121887e-02,5.980429425835609436e-02
-1.707371324300765991e-02,4.983184114098548889e-02,4.045164585113525391e-02,-5.375082790851593018e-02,1.099058240652084351e-02,7.397871464490890503e-02,-6.721927225589752197e-02,4.902200773358345032e-02,4.350468516349792480e-02,5.970303341746330261e-02
-1.728332601487636566e-02,5.102264881134033203e-02,3.822095319628715515e-02,-5.442124232649803162e-02,1.053233724087476730e-02,7.418280094861984253e-02,-6.630469113588333130e-02,4.930897429585456848e-02,4.382182285189628601e-02,6.031235307455062866e-02
-1.811415702104568481e-02,5.198914185166358948e-02,3.971497341990470886e-02,-5.495428293943405151e-02,1.072146836668252945e-02,7.411751896142959595e-02,-6.716670095920562744e-02,4.853516817092895508e-02,4.373241588473320007e-02,6.086723133921623230e-02
-1.691345497965812683e-02,5.354797095060348511e-02,3.735462576150894165e-02,-5.619627609848976135e-02,1.061714813113212585e-02,7.550238817930221558e-02,-6.864149123430252075e-02,4.967368766665458679e-02,4.409098997712135315e-02,6.019756570458412170e-02
-1.680391281843185425e-02,5.346323549747467041e-02,3.647046163678169250e-02,-5.555397644639015198e-02,1.140189543366432190e-02,7.468607276678085327e-02,-6.903132796287536621e-02,4.879229888319969177e-02,4.495760425925254822e-02,6.057323887944221497e-02
-1.696339435875415802e-02,5.354709178209304810e-02,3.607645630836486816e-02,-5.545010045170783997e-02,1.067480910569429398e-02,7.557182759046554565e-02,-6.896308809518814087e-02,4.834451526403427124e-02,4.563070461153984070e-02,6.000786274671554565e-02
-1.695495657622814178e-02,5.445256456732749939e-02,3.582628816366195679e-02,-5.589938163757324219e-02,9.613721631467342377e-03,7.575615495443344116e-02,-6.875299662351608276e-02,4.895211011171340942e-02,4.570884257555007935e-02,5.986653640866279602e-02
-1.631535589694976807e-02,5.459863319993019104e-02,3.602367639541625977e-02,-5.509641394019126892e-02,1.010364107787609100e-02,7.594732940196990967e-02,-7.043476402759552002e-02,4.702985286712646484e-02,4.628524556756019592e-02,5.985396727919578552e-02
-1.598822884261608124e-02,5.372500419616699219e-02,3.515625000000000000e-02,-5.582726746797561646e-02,9.515390731394290924e-03,7.583609968423843384e-02,-7.021044939756393433e-02,4.723607003688812256e-02,4.879586771130561829e-02,5.889962986111640930e-02
-1.627357304096221924e-02,5.343323945999145508e-02,3.550536930561065674e-02,-5.551789328455924988e-02,8.790493011474609375e-03,7.676788419485092163e-02,-7.181125879287719727e-02,4.658802971243858337e-02,4.930396378040313721e-02,5.940616130828857422e-02
-1.557495072484016418e-02,5.414088815450668335e-02,3.538621962070465088e-02,-5.550192669034004211e-02,7.582999765872955322e-03,7.705987244844436646e-02,-7.177377492189407349e-02,4.615321755409240723e-02,4.863592237234115601e-02,6.028801947832107544e-02
-1.536541618406772614e-02,5.376036092638969421e-02,3.548602387309074402e-02,-5.553973838686943054e-02,7.599297445267438889e-03,7.715315371751785278e-02,-7.249073684215545654e-02,4.565462470054626465e-02,5.013842880725860596e-02,5.932358279824256897e-02
-1.390937808901071548e-02,5.209203064441680908e-02,3.445107862353324890e-02,-5.488384142518043518e-02,7.442398928105831146e-03,7.757235318422317505e-02,-7.256869971752166748e-02,4.468838870525360107e-02,5.037878453731536865e-02,6.003162637352943420e-02
-1.546777691692113876e-02,5.245741829276084900e-02,3.451326489448547363e-02,-5.502858757972717285e-02,6.816087290644645691e-03,7.786658406257629395e-02,-7.334154844284057617e-02,4.488677904009819031e-02,5.180516093969345093e-02,5.973777547478675842e-02
-1.445970870554447174e-02,5.137629061937332153e-02,3.383236378431320190e-02,-5.477505177259445190e-02,5.862497258931398392e-03,7.783273607492446899e-02,-7.296221703290939331e-02,4.430024325847625732e-02,5.321522802114486694e-02,5.932756140828132629e-02
-1.219920720905065536e-02,5.081941559910774231e-02,3.377139940857887268e-02,-5.411730334162712097e-02,4.763556644320487976e-03,7.786802947521209717e-02,-7.544799894094467163e-02,4.289266094565391541e-02,5.493902787566184998e-02,5.897400155663490295e-02
-1.335214171558618546e-02,5.099524930119514465e-02,3.383871167898178101e-02,-5.454314872622489929e-02,4.387740045785903931e-03,7.860065996646881104e-02,-7.443376630544662476e-02,4.196327179670333862e-02,5.479240417480468750e-02,5.974484607577323914e-02
-1.275227963924407959e-02,5.135714635252952576e-02,3.408528119325637817e-02,-5.466109514236450195e-02,3.969086334109306335e-03,7.864858210086822510e-02,-7.588466256856918335e-02,4.129531979560852051e-02,5.582201853394508362e-02,5.942758172750473022e-02
-1.187404152005910873e-02,5.102585628628730774e-02,3.334806486964225769e-02,-5.442135408520698547e-02,3.338092705234885216e-03,7.909382879734039307e-02,-7.718516141176223755e-02,4.060781374573707581e-02,5.681765452027320862e-02,5.955235287547111511e-02
-1.187460683286190033e-02,5.053296685218811035e-02,3.257204219698905945e-02,-5.362283438444137573e-02,2.739316783845424652e-03,8.010090142488479614e-02,-7.783259451389312744e-02,4.005177691578865051e-02,5.707866325974464417e-02,5.958098545670509338e-02
-1.055822428315877914e-02,4.996096342802047729e-02,3.235273435711860657e-02,-5.303685367107391357e-02,1.803645864129066467e-03,8.001783490180969238e-02,-7.735189795494079590e-02,3.912274539470672607e-02,5.737433955073356628e-02,5.943658202886581421e-02
-1.063890382647514343e-02,4.855514317750930786e-02,3.247645124793052673e-02,-5.342305451631546021e-02,1.499468577094376087e-03,8.090125024318695068e-02,-7.721754163503646851e-02,3.901650384068489075e-02,5.773575603961944580e-02,5.960792675614356995e-02
-1.046780589967966080e-02,4.868513345718383789e-02,3.199885785579681396e-02,-5.172285437583923340e-02,1.340288552455604076e-03,8.121710270643234253e-02,-7.794489711523056030e-02,3.798371180891990662e-02,5.727894231677055359e-02,5.962724238634109497e-02
-8.558768779039382935e-03,4.766331613063812256e-02,3.149016574025154114e-02,-5.200256779789924622e-02,1.117811771109700203e-03,8.175279945135116577e-02,-7.909172773361206055e-02,3.765126317739486694e-02,5.778371170163154602e-02,5.976888537406921387e-02
