2.233738824725151062e-02,-1.970204897224903107e-02,5.654662847518920898e-02,-2.105783484876155853e-02,-2.623696438968181610e-02,-6.089091673493385315e-02,4.070742428302764893e-02,-1.049135252833366394e-02,4.464124143123626709e-02,5.022012442350387573e-02
2.233738824725151062e-02,-1.970204897224903107e-02,5.654662847518920898e-02,-2.105783484876155853e-02,-2.623696438968181610e-02,-6.089091673493385315e-02,4.070742428302764893e-02,-1.049135252833366394e-02,4.464124143123626709e-02,5.022012442350387573e-02
1.900121010839939117e-02,-1.600158400833606720e-02,6.046686321496963501e-02,-2.622693777084350586e-02,-1.568427868187427521e-02,-7.311303168535232544e-02,3.838974609971046448e-02,-3.175064222887158394e-03,4.391694068908691406e-02,4.771614074707031250e-02
1.900121010839939117e-02,-1.600158400833606720e-02,6.046686321496963501e-02,-2.622693777084350586e-02,-1.568427868187427521e-02,-7.311303168535232544e-02,3.838974609971046448e-02,-3.175064222887158394e-03,4.391694068908691406e-02,4.771614074707031250e-02
1.860235817730426788e-02,-7.534652017056941986e-03,6.092741340398788452e-02,-2.619196847081184387e-02,-1.154216658324003220e-02,-7.966127246618270874e-02,3.548650816082954407e-02,-3.527491120621562004e-03,4.394155368208885193e-02,4.642952233552932739e-02
1.860235817730426788e-02,-7.534652017056941986e-03,6.092741340398788452e-02,-2.619196847081184387e-02,-1.154216658324003220e-02,-7.966127246618270874e-02,3.548650816082954407e-02,-3.527491120621562004e-03,4.394155368208885193e-02,4.642952233552932739e-02
1.850037463009357452e-02,-7.411216502077877522e-04,5.880254134535789490e-02,-2.499719709157943726e-02,-7.076062727719545364e-03,-8.555598556995391846e-02,3.318042308092117310e-02,-3.323156619444489479e-03,4.518137872219085693e-02,4.515837505459785461e-02
1.850037463009357452e-02,-7.411216502077877522e-04,5.880254134535789490e-02,-2.499719709157943726e-02,-7.076062727719545364e-03,-8.555598556995391846e-02,3.318042308092117310e-02,-3.323156619444489479e-03,4.518137872219085693e-02,4.515837505459785461e-02
2.029356174170970917e-02,6.568463519215583801e-03,5.696992576122283936e-02,-2.590991184115409851e-02,-4.816601052880287170e-03,-9.011597186326980591e-02,3.192635253071784973e-02,-4.207490943372249603e-03,4.638147354125976562e-02,4.520924761891365051e-02
2.029356174170970917e-02,6.568463519215583801e-03,5.696992576122283936e-02,-2.590991184115409851e-02,-4.816601052880287170e-03,-9.011597186326980591e-02,3.192635253071784973e-02,-4.207490943372249603e-03,4.638147354125976562e-02,4.520924761891365051e-02
2.339975722134113312e-02,1.252144202589988708e-02,5.572585016489028931e-02,-2.708674594759941101e-02,-2.992675174027681351e-03,-9.481873363256454468e-02,3.038028813898563385e-02,-3.389451187103986740e-03,4.710179939866065979e-02,4.505698755383491516e-02
2.339975722134113312e-02,1.252144202589988708e-02,5.572585016489028931e-02,-2.708674594759941101e-02,-2.992675174027681351e-03,-9.481873363256454468e-02,3.038028813898563385e-02,-3.389451187103986740e-03,4.710179939866065979e-02,4.505698755383491516e-02
2.545661479234695435e-02,1.745696179568767548e-02,5.328729003667831421e-02,-2.908955700695514679e-02,2.075499651255086064e-04,-9.903348982334136963e-02,2.882941253483295441e-02,-3.461012849584221840e-03,4.835190251469612122e-02,4.681805893778800964e-02
2.545661479234695435e-02,1.745696179568767548e-02,5.328729003667831421e-02,-2.908955700695514679e-02,2.075499651255086064e-04,-9.903348982334136963e-02,2.882941253483295441e-02,-3.461012849584221840e-03,4.835190251469612122e-02,4.681805893778800964e-02
2.754139527678489685e-02,2.376838028430938721e-02,4.968431219458580017e-02,-3.007721528410911560e-02,1.646702003199607134e-04,-1.003997623920440674e-01,3.034493699669837952e-02,-6.636677426286041737e-04,4.761201888322830200e-02,4.543594643473625183e-02
2.754139527678489685e-02,2.376838028430938721e-02,4.968431219458580017e-02,-3.007721528410911560e-02,1.646702003199607134e-04,-1.003997623920440674e-01,3.034493699669837952e-02,-6.636677426286041737e-04,4.761201888322830200e-02,4.543594643473625183e-02
2.989355847239494324e-02,2.776475995779037476e-02,4.884896054863929749e-02,-3.187326714396476746e-02,1.789403613656759262e-03,-1.041883304715156555e-01,2.872589044272899628e-02,7.464989903382956982e-05,4.866934195160865784e-02,4.636203497648239136e-02
2.989355847239494324e-02,2.776475995779037476e-02,4.884896054863929749e-02,-3.187326714396476746e-02,1.789403613656759262e-03,-1.041883304715156555e-01,2.872589044272899628e-02,7.464989903382956982e-05,4.866934195160865784e-02,4.636203497648239136e-02
3.251465409994125366e-02,3.140278160572052002e-02,4.761058464646339417e-02,-3.316942974925041199e-02,3.591820364817976952e-03,-1.051448732614517212e-01,2.770571224391460419e-02,8.926984737627208233e-04,4.844435304403305054e-02,4.506262764334678650e-02
3.251465409994125366e-02,3.140278160572052002e-02,4.761058464646339417e-02,-3.316942974925041199e-02,3.591820364817976952e-03,-1.051448732614517212e-01,2.770571224391460419e-02,8.926984737627208233e-04,4.844435304403305054e-02,4.506262764334678650e-02
3.310346230864524841e-02,3.686779364943504333e-02,4.477450251579284668e-02,-3.458393365144729614e-02,3.976679872721433640e-03,-1.062942519783973694e-01,2.890677191317081451e-02,8.264643838629126549e-04,4.866288602352142334e-02,4.623670876026153564e-02
3.310346230864524841e-02,3.686779364943504333e-02,4.477450251579284668e-02,-3.458393365144729614e-02,3.976679872721433640e-03,-1.062942519783973694e-01,2.890677191317081451e-02,8.264643838629126549e-04,4.866288602352142334e-02,4.623670876026153564e-02
3.410141915082931519e-02,4.023439064621925354e-02,4.200865328311920166e-02,-3.249446675181388855e-02,4.039471037685871124e-03,-1.074368953704833984e-01,2.620126120746135712e-02,2.884628716856241226e-03,4.919555783271789551e-02,4.504055902361869812e-02
3.410141915082931519e-02,4.023439064621925354e-02,4.200865328311920166e-02,-3.249446675181388855e-02,4.039471037685871124e-03,-1.074368953704833984e-01,2.620126120746135712e-02,2.884628716856241226e-03,4.919555783271789551e-02,4.504055902361869812e-02
3.447303548455238342e-02,4.377174377441406250e-02,3.998000919818878174e-02,-3.281958028674125671e-02,3.341925330460071564e-03,-1.091529130935668945e-01,2.667693980038166046e-02,4.635827150195837021e-03,5.004097893834114075e-02,4.502942785620689392e-02
3.447303548455238342e-02,4.377174377441406250e-02,3.998000919818878174e-02,-3.281958028674125671e-02,3.341925330460071564e-03,-1.091529130935668945e-01,2.667693980038166046e-02,4.635827150195837021e-03,5.004097893834114075e-02,4.502942785620689392e-02
3.506702557206153870e-02,4.553330317139625549e-02,3.977875411510467529e-02,-3.403632342815399170e-02,1.860661664977669716e-03,-1.098252385854721069e-01,2.995686419308185577e-02,6.411588285118341446e-03,4.873061925172805786e-02,4.489798843860626221e-02
3.506702557206153870e-02,4.553330317139625549e-02,3.977875411510467529e-02,-3.403632342815399170e-02,1.860661664977669716e-03,-1.098252385854721069e-01,2.995686419308185577e-02,6.411588285118341446e-03,4.873061925172805786e-02,4.489798843860626221e-02
3.711298480629920959e-02,4.953437671065330505e-02,3.917718678712844849e-02,-3.463533520698547363e-02,3.190179821103811264e-03,-1.104661971330642700e-01,2.550592273473739624e-02,8.001170121133327484e-03,4.913790524005889893e-02,4.338975995779037476e-02
3.711298480629920959e-02,4.953437671065330505e-02,3.917718678712844849e-02,-3.463533520698547363e-02,3.190179821103811264e-03,-1.104661971330642700e-01,2.550592273473739624e-02,8.001170121133327484e-03,4.913790524005889893e-02,4.338975995779037476e-02
3.813449665904045105e-02,5.026824772357940674e-02,3.866576775908470154e-02,-3.743792325258255005e-02,2.400996163487434387e-03,-1.112372726202011108e-01,2.638272382318973541e-02,1.064298488199710846e-02,5.009812116622924805e-02,4.327723011374473572e-02
3.813449665904045105e-02,5.026824772357940674e-02,3.866576775908470154e-02,-3.743792325258255005e-02,2.400996163487434387e-03,-1.112372726202011108e-01,2.638272382318973541e-02,1.064298488199710846e-02,5.009812116622924805e-02,4.327723011374473572e-02
3.714250400662422180e-02,5.166229978203773499e-02,3.689866513013839722e-02,-3.565773740410804749e-02,2.846301067620515823e-03,-1.105938926339149475e-01,2.617980167269706726e-02,1.135328039526939392e-02,4.939103871583938599e-02,4.246944934129714966e-02
3.714250400662422180e-02,5.166229978203773499e-02,3.689866513013839722e-02,-3.565773740410804749e-02,2.846301067620515823e-03,-1.105938926339149475e-01,2.617980167269706726e-02,1.135328039526939392e-02,4.939103871583938599e-02,4.246944934129714966e-02
3.885809332132339478e-02,5.340763553977012634e-02,3.700255602598190308e-02,-3.595498204231262207e-02,1.676606130786240101e-03,-1.109615042805671692e-01,2.396492101252079010e-02,1.240870356559753418e-02,4.928652197122573853e-02,4.248490184545516968e-02
3.885809332132339478e-02,5.340763553977012634e-02,3.700255602598190308e-02,-3.595498204231262207e-02,1.676606130786240101e-03,-1.109615042805671692e-01,2.396492101252079010e-02,1.240870356559753418e-02,4.928652197122573853e-02,4.248490184545516968e-02
3.809887170791625977e-02,5.291187390685081482e-02,3.748046979308128357e-02,-3.720633313059806824e-02,3.725741989910602570e-03,-1.097757071256637573e-01,2.310525067150592804e-02,1.256204582750797272e-02,4.740309715270996094e-02,4.360784962773323059e-02
3.809887170791625977e-02,5.291187390685081482e-02,3.748046979308128357e-02,-3.720633313059806824e-02,3.725741989910602570e-03,-1.097757071256637573e-01,2.310525067150592804e-02,1.256204582750797272e-02,4.740309715270996094e-02,4.360784962773323059e-02
4.053866863250732422e-02,5.387073382735252380e-02,3.524412587285041809e-02,-3.684927895665168762e-02,-5.400325171649456024e-04,-1.103490144014358521e-01,2.568619512021541595e-02,1.524292398244142532e-02,4.821922257542610168e-02,4.269937798380851746e-02
4.053866863250732422e-02,5.387073382735252380e-02,3.524412587285041809e-02,-3.684927895665168762e-02,-5.400325171649456024e-04,-1.103490144014358521e-01,2.568619512021541595e-02,1.524292398244142532e-02,4.821922257542610168e-02,4.269937798380851746e-02
3.863687068223953247e-02,5.386061593890190125e-02,3.524108603596687317e-02,-3.887250274419784546e-02,1.665261457674205303e-03,-1.072742864489555359e-01,2.177842706441879272e-02,1.684344932436943054e-02,4.694305360317230225e-02,4.355392232537269592e-02
3.863687068223953247e-02,5.386061593890190125e-02,3.524108603596687317e-02,-3.887250274419784546e-02,1.665261457674205303e-03,-1.072742864489555359e-01,2.177842706441879272e-02,1.684344932436943054e-02,4.694305360317230225e-02,4.355392232537269592e-02
3.932428359985351562e-02,5.942227691411972046e-02,3.424861654639244080e-02,-3.952972963452339172e-02,1.549644744955003262e-03,-1.103747189044952393e-01,2.120753005146980286e-02,2.037825249135494232e-02,4.541532695293426514e-02,4.399210587143898010e-02
3.932428359985351562e-02,5.942227691411972046e-02,3.424861654639244080e-02,-3.952972963452339172e-02,1.549644744955003262e-03,-1.103747189044952393e-01,2.120753005146980286e-02,2.037825249135494232e-02,4.541532695293426514e-02,4.399210587143898010e-02
4.249976202845573425e-02,5.993412062525749207e-02,3.162377700209617615e-02,-4.026072844862937927e-02,3.144133370369672775e-03,-1.068769246339797974e-01,1.810205914080142975e-02,1.949566416442394257e-02,4.426241293549537659e-02,4.470361769199371338e-02
4.249976202845573425e-02,5.993412062525749207e-02,3.162377700209617615e-02,-4.026072844862937927e-02,3.144133370369672775e-03,-1.068769246339797974e-01,1.810205914080142975e-02,1.949566416442394257e-02,4.426241293549537659e-02,4.470361769199371338e-02
4.208259284496307373e-02,5.932926759123802185e-02,3.202432021498680115e-02,-4.228772968053817749e-02,4.988310858607292175e-03,-1.102735847234725952e-01,1.810959912836551666e-02,2.381438761949539185e-02,4.349240288138389587e-02,4.552059248089790344e-02
4.208259284496307373e-02,5.932926759123802185e-02,3.202432021498680115e-02,-4.228772968053817749e-02,4.988310858607292175e-03,-1.102735847234725952e-01,1.810959912836551666e-02,2.381438761949539185e-02,4.349240288138389587e-02,4.552059248089790344e-02
4.553316161036491394e-02,6.042975559830665588e-02,2.870058640837669373e-02,-4.211208224296569824e-02,-1.532336464151740074e-03,-1.070861667394638062e-01,1.861404441297054291e-02,2.780989184975624084e-02,4.055172204971313477e-02,4.703259095549583435e-02
4.553316161036491394e-02,6.042975559830665588e-02,2.870058640837669373e-02,-4.211208224296569824e-02,-1.532336464151740074e-03,-1.070861667394638062e-01,1.861404441297054291e-02,2.780989184975624084e-02,4.055172204971313477e-02,4.703259095549583435e-02
4.487831518054008484e-02,6.115929409861564636e-02,2.489173598587512970e-02,-3.626852482557296753e-02,-2.004968933761119843e-03,-1.038385480642318726e-01,1.124355383217334747e-02,3.115015663206577301e-02,4.040697962045669556e-02,4.339297115802764893e-02
4.487831518054008484e-02,6.115929409861564636e-02,2.489173598587512970e-02,-3.626852482557296753e-02,-2.004968933761119843e-03,-1.038385480642318726e-01,1.124355383217334747e-02,3.115015663206577301e-02,4.040697962045669556e-02,4.339297115802764893e-02
4.637243971228599548e-02,6.091127544641494751e-02,2.108832821249961853e-02,-3.521689027547836304e-02,-5.869707558304071426e-03,-1.108792051672935486e-01,5.991753656417131424e-03,3.603970259428024292e-02,4.463615640997886658e-02,4.866092279553413391e-02
4.637243971228599548e-02,6.091127544641494751e-02,2.108832821249961853e-02,-3.521689027547836304e-02,-5.869707558304071426e-03,-1.108792051672935486e-01,5.991753656417131424e-03,3.603970259428024292e-02,4.463615640997886658e-02,4.866092279553413391e-02
4.478802531957626343e-02,5.686113610863685608e-02,1.925257779657840729e-02,-3.981974720954895020e-02,-1.236459240317344666e-02,-1.108876615762710571e-01,1.810725312680006027e-03,4.603713005781173706e-02,4.895992949604988098e-02,5.150495842099189758e-02
4.478802531957626343e-02,5.686113610863685608e-02,1.925257779657840729e-02,-3.981974720954895020e-02,-1.236459240317344666e-02,-1.108876615762710571e-01,1.810725312680006027e-03,4.603713005781173706e-02,4.895992949604988098e-02,5.150495842099189758e-02
6.339159607887268066e-02,6.130684539675712585e-02,1.511043310165405273e-02,-5.555903539061546326e-02,-1.305165328085422516e-02,-1.212532222270965576e-01,7.712492253631353378e-03,4.663643613457679749e-02,4.551389813423156738e-02,6.898459047079086304e-02
6.339159607887268066e-02,6.130684539675712585e-02,1.511043310165405273e-02,-5.555903539061546326e-02,-1.305165328085422516e-02,-1.212532222270965576e-01,7.712492253631353378e-03,4.663643613457679749e-02,4.551389813423156738e-02,6.898459047079086304e-02
5.301827192306518555e-02,7.398276031017303467e-02,1.111155655235052109e-02,-4.559468477964401245e-02,-4.137954488396644592e-02,-1.056160852313041687e-01,-2.815696783363819122e-02,7.086938619613647461e-02,5.126328021287918091e-02,6.015835329890251160e-02
5.301827192306518555e-02,7.398276031017303467e-02,1.111155655235052109e-02,-4.559468477964401245e-02,-4.137954488396644592e-02,-1.056160852313041687e-01,-2.815696783363819122e-02,7.086938619613647461e-02,5.126328021287918091e-02,6.015835329890251160e-02
