4.942798241972923279e-02,5.151174589991569519e-02,4.329642746597528458e-03,-3.227407811209559441e-03,-4.078993573784828186e-02,-5.174168571829795837e-02,4.920120164752006531e-02,2.341986447572708130e-02,1.529422588646411896e-02,-3.441325388848781586e-03
4.942798241972923279e-02,5.151174589991569519e-02,4.329642746597528458e-03,-3.227407811209559441e-03,-4.078993573784828186e-02,-5.174168571829795837e-02,4.920120164752006531e-02,2.341986447572708130e-02,1.529422588646411896e-02,-3.441325388848781586e-03
4.951202124357223511e-02,5.180102214217185974e-02,5.306746810674667358e-03,-3.264879109337925911e-03,-4.017027467489242554e-02,-5.214234814047813416e-02,4.813616722822189331e-02,2.408067509531974792e-02,1.450114604085683823e-02,-4.284100141376256943e-03
4.951202124357223511e-02,5.180102214217185974e-02,5.306746810674667358e-03,-3.264879109337925911e-03,-4.017027467489242554e-02,-5.214234814047813416e-02,4.813616722822189331e-02,2.408067509531974792e-02,1.450114604085683823e-02,-4.284100141376256943e-03
4.863666370511054993e-02,5.294225737452507019e-02,5.874177906662225723e-03,-3.263368504121899605e-03,-4.045440629124641418e-02,-5.304564535617828369e-02,4.775395244359970093e-02,2.470741979777812958e-02,1.492691878229379654e-02,-4.883179906755685806e-03
4.863666370511054993e-02,5.294225737452507019e-02,5.874177906662225723e-03,-3.263368504121899605e-03,-4.045440629124641418e-02,-5.304564535617828369e-02,4.775395244359970093e-02,2.470741979777812958e-02,1.492691878229379654e-02,-4.883179906755685806e-03
4.917532950639724731e-02,5.242994055151939392e-02,5.957085639238357544e-03,-2.778561087325215340e-03,-4.033872485160827637e-02,-5.356752127408981323e-02,4.765737429261207581e-02,2.336242608726024628e-02,1.520634908229112625e-02,-3.939663991332054138e-03
4.917532950639724731e-02,5.242994055151939392e-02,5.957085639238357544e-03,-2.778561087325215340e-03,-4.033872485160827637e-02,-5.356752127408981323e-02,4.765737429261207581e-02,2.336242608726024628e-02,1.520634908229112625e-02,-3.939663991332054138e-03
4.885535687208175659e-02,5.114939808845520020e-02,5.573519039899110794e-03,-2.586596878245472908e-03,-3.973632678389549255e-02,-5.293999239802360535e-02,4.691777378320693970e-02,2.382493391633033752e-02,1.538105122745037079e-02,-3.112649777904152870e-03
4.885535687208175659e-02,5.114939808845520020e-02,5.573519039899110794e-03,-2.586596878245472908e-03,-3.973632678389549255e-02,-5.293999239802360535e-02,4.691777378320693970e-02,2.382493391633033752e-02,1.538105122745037079e-02,-3.112649777904152870e-03
4.902299866080284119e-02,5.122691765427589417e-02,6.056383717805147171e-03,-1.836287439800798893e-03,-3.982719033956527710e-02,-5.201466009020805359e-02,4.563906788825988770e-02,2.414711005985736847e-02,1.513791177421808243e-02,-4.278864711523056030e-03
4.902299866080284119e-02,5.122691765427589417e-02,6.056383717805147171e-03,-1.836287439800798893e-03,-3.982719033956527710e-02,-5.201466009020805359e-02,4.563906788825988770e-02,2.414711005985736847e-02,1.513791177421808243e-02,-4.278864711523056030e-03
4.925803467631340027e-02,4.979498684406280518e-02,5.395192652940750122e-03,-4.424267972353845835e-04,-3.976542502641677856e-02,-5.159268528223037720e-02,4.665657505393028259e-02,2.417148649692535400e-02,1.450925320386886597e-02,-4.648637026548385620e-03
4.925803467631340027e-02,4.979498684406280518e-02,5.395192652940750122e-03,-4.424267972353845835e-04,-3.976542502641677856e-02,-5.159268528223037720e-02,4.665657505393028259e-02,2.417148649692535400e-02,1.450925320386886597e-02,-4.648637026548385620e-03
4.940862953662872314e-02,4.884972795844078064e-02,5.595304071903228760e-03,4.410309193190187216e-04,-3.970874100923538208e-02,-5.162666738033294678e-02,4.713631793856620789e-02,2.461452223360538483e-02,1.475313398987054825e-02,-6.186014972627162933e-03
4.940862953662872314e-02,4.884972795844078064e-02,5.595304071903228760e-03,4.410309193190187216e-04,-3.970874100923538208e-02,-5.162666738033294678e-02,4.713631793856620789e-02,2.461452223360538483e-02,1.475313398987054825e-02,-6.186014972627162933e-03
4.938006401062011719e-02,4.799589142203330994e-02,6.103332620114088058e-03,6.776897353120148182e-04,-4.041998460888862610e-02,-5.091499909758567810e-02,4.802410677075386047e-02,2.494401857256889343e-02,1.455118693411350250e-02,-7.026798557490110397e-03
4.938006401062011719e-02,4.799589142203330994e-02,6.103332620114088058e-03,6.776897353120148182e-04,-4.041998460888862610e-02,-5.091499909758567810e-02,4.802410677075386047e-02,2.494401857256889343e-02,1.455118693411350250e-02,-7.026798557490110397e-03
4.977732151746749878e-02,4.735489934682846069e-02,6.654710043221712112e-03,2.421393990516662598e-03,-4.183551669120788574e-02,-5.020714178681373596e-02,4.911812767386436462e-02,2.353026345372200012e-02,1.450801268219947815e-02,-8.090647868812084198e-03
4.977732151746749878e-02,4.735489934682846069e-02,6.654710043221712112e-03,2.421393990516662598e-03,-4.183551669120788574e-02,-5.020714178681373596e-02,4.911812767386436462e-02,2.353026345372200012e-02,1.450801268219947815e-02,-8.090647868812084198e-03
5.110950767993927002e-02,4.599768295884132385e-02,8.219108916819095612e-03,3.541520563885569572e-03,-4.313393309712409973e-02,-4.986386746168136597e-02,5.013375356793403625e-02,2.175161615014076233e-02,1.454615592956542969e-02,-9.138634428381919861e-03
5.110950767993927002e-02,4.599768295884132385e-02,8.219108916819095612e-03,3.541520563885569572e-03,-4.313393309712409973e-02,-4.986386746168136597e-02,5.013375356793403625e-02,2.175161615014076233e-02,1.454615592956542969e-02,-9.138634428381919861e-03
5.039559304714202881e-02,4.556191340088844299e-02,1.048837881535291672e-02,4.389353562146425247e-03,-4.517268389463424683e-02,-4.864817857742309570e-02,5.075518414378166199e-02,2.080924808979034424e-02,1.468913722783327103e-02,-1.027601677924394608e-02
5.039559304714202881e-02,4.556191340088844299e-02,1.048837881535291672e-02,4.389353562146425247e-03,-4.517268389463424683e-02,-4.864817857742309570e-02,5.075518414378166199e-02,2.080924808979034424e-02,1.468913722783327103e-02,-1.027601677924394608e-02
5.082619562745094299e-02,4.438327625393867493e-02,1.122391503304243088e-02,5.209872033447027206e-03,-4.557044431567192078e-02,-4.758102446794509888e-02,5.115704610943794250e-02,2.022253535687923431e-02,1.425280701369047165e-02,-1.113139744848012924e-02
5.082619562745094299e-02,4.438327625393867493e-02,1.122391503304243088e-02,5.209872033447027206e-03,-4.557044431567192078e-02,-4.758102446794509888e-02,5.115704610943794250e-02,2.022253535687923431e-02,1.425280701369047165e-02,-1.113139744848012924e-02
4.926515370607376099e-02,4.154953360557556152e-02,1.268416643142700195e-02,8.299306966364383698e-03,-4.635124653577804565e-02,-4.646192118525505066e-02,5.038277432322502136e-02,1.994062215089797974e-02,1.422439236193895340e-02,-1.064942963421344757e-02
4.926515370607376099e-02,4.154953360557556152e-02,1.268416643142700195e-02,8.299306966364383698e-03,-4.635124653577804565e-02,-4.646192118525505066e-02,5.038277432322502136e-02,1.994062215089797974e-02,1.422439236193895340e-02,-1.064942963421344757e-02
4.933412745594978333e-02,3.846595436334609985e-02,1.352343335747718811e-02,9.592847898602485657e-03,-4.677698388695716858e-02,-4.625341296195983887e-02,5.263691768050193787e-02,1.951698400080204010e-02,1.385141629725694656e-02,-1.104374323040246964e-02
4.933412745594978333e-02,3.846595436334609985e-02,1.352343335747718811e-02,9.592847898602485657e-03,-4.677698388695716858e-02,-4.625341296195983887e-02,5.263691768050193787e-02,1.951698400080204010e-02,1.385141629725694656e-02,-1.104374323040246964e-02
4.980229958891868591e-02,3.465560451149940491e-02,1.398757752031087875e-02,1.072335615754127502e-02,-4.540996253490447998e-02,-4.465316236019134521e-02,5.399116873741149902e-02,1.828771457076072693e-02,1.233802549540996552e-02,-1.081510912626981735e-02
4.980229958891868591e-02,3.465560451149940491e-02,1.398757752031087875e-02,1.072335615754127502e-02,-4.540996253490447998e-02,-4.465316236019134521e-02,5.399116873741149902e-02,1.828771457076072693e-02,1.233802549540996552e-02,-1.081510912626981735e-02
4.868278279900550842e-02,3.049866668879985809e-02,1.522362418472766876e-02,1.170021574944257736e-02,-4.460870474576950073e-02,-4.273997247219085693e-02,5.542105808854103088e-02,1.824032515287399292e-02,1.173792965710163116e-02,-1.107733976095914841e-02
4.868278279900550842e-02,3.049866668879985809e-02,1.522362418472766876e-02,1.170021574944257736e-02,-4.460870474576950073e-02,-4.273997247219085693e-02,5.542105808854103088e-02,1.824032515287399292e-02,1.173792965710163116e-02,-1.107733976095914841e-02
4.722964763641357422e-02,2.702463045716285706e-02,1.689588837325572968e-02,1.303191948682069778e-02,-4.478141292929649353e-02,-4.122319817543029785e-02,5.721506476402282715e-02,1.719213649630546570e-02,1.182052306830883026e-02,-1.117402873933315277e-02
4.722964763641357422e-02,2.702463045716285706e-02,1.689588837325572968e-02,1.303191948682069778e-02,-4.478141292929649353e-02,-4.122319817543029785e-02,5.721506476402282715e-02,1.719213649630546570e-02,1.182052306830883026e-02,-1.117402873933315277e-02
4.643927142024040222e-02,2.471693605184555054e-02,1.925672218203544617e-02,1.314986776560544968e-02,-4.522059112787246704e-02,-3.869138285517692566e-02,5.769676715135574341e-02,1.508848462253808975e-02,1.129908021539449692e-02,-1.031503453850746155e-02
4.643927142024040222e-02,2.471693605184555054e-02,1.925672218203544617e-02,1.314986776560544968e-02,-4.522059112787246704e-02,-3.869138285517692566e-02,5.769676715135574341e-02,1.508848462253808975e-02,1.129908021539449692e-02,-1.031503453850746155e-02
4.754308238625526428e-02,2.003747038543224335e-02,2.152236923575401306e-02,1.381018199026584625e-02,-4.520027339458465576e-02,-3.666690737009048462e-02,5.928985774517059326e-02,1.253523677587509155e-02,1.054778136312961578e-02,-9.702445939183235168e-03
4.754308238625526428e-02,2.003747038543224335e-02,2.152236923575401306e-02,1.381018199026584625e-02,-4.520027339458465576e-02,-3.666690737009048462e-02,5.928985774517059326e-02,1.253523677587509155e-02,1.054778136312961578e-02,-9.702445939183235168e-03
4.561900720000267029e-02,1.804346777498722076e-02,2.229294553399085999e-02,1.385814510285854340e-02,-4.483497887849807739e-02,-3.622822090983390808e-02,6.295470148324966431e-02,1.026117429137229919e-02,1.050122920423746109e-02,-8.684397675096988678e-03
4.561900720000267029e-02,1.804346777498722076e-02,2.229294553399085999e-02,1.385814510285854340e-02,-4.483497887849807739e-02,-3.622822090983390808e-02,6.295470148324966431e-02,1.026117429137229919e-02,1.050122920423746109e-02,-8.684397675096988678e-03
4.504055902361869812e-02,1.458074152469635010e-02,2.423524484038352966e-02,1.388186030089855194e-02,-4.512960463762283325e-02,-3.507912158966064453e-02,6.641308218240737915e-02,8.462609723210334778e-03,1.113610900938510895e-02,-9.571964852511882782e-03
4.504055902361869812e-02,1.458074152469635010e-02,2.423524484038352966e-02,1.388186030089855194e-02,-4.512960463762283325e-02,-3.507912158966064453e-02,6.641308218240737915e-02,8.462609723210334778e-03,1.113610900938510895e-02,-9.571964852511882782e-03
4.638466984033584595e-02,1.187818031758069992e-02,2.599638700485229492e-02,1.552831940352916718e-02,-4.756075888872146606e-02,-3.439539670944213867e-02,6.683404743671417236e-02,7.668730802834033966e-03,1.352784130722284317e-02,-1.170765701681375504e-02
4.638466984033584595e-02,1.187818031758069992e-02,2.599638700485229492e-02,1.552831940352916718e-02,-4.756075888872146606e-02,-3.439539670944213867e-02,6.683404743671417236e-02,7.668730802834033966e-03,1.352784130722284317e-02,-1.170765701681375504e-02
4.628299176692962646e-02,1.006436720490455627e-02,2.930049039423465729e-02,1.547782029956579208e-02,-4.868656024336814880e-02,-3.265691176056861877e-02,6.744831055402755737e-02,7.702704519033432007e-03,1.337701547890901566e-02,-1.408995501697063446e-02
4.628299176692962646e-02,1.006436720490455627e-02,2.930049039423465729e-02,1.547782029956579208e-02,-4.868656024336814880e-02,-3.265691176056861877e-02,6.744831055402755737e-02,7.702704519033432007e-03,1.337701547890901566e-02,-1.408995501697063446e-02
4.388207197189331055e-02,7.546975743025541306e-03,3.181709349155426025e-02,1.682347431778907776e-02,-4.836065322160720825e-02,-3.209747001528739929e-02,6.917104125022888184e-02,6.543518044054508209e-03,1.233059819787740707e-02,-1.336692087352275848e-02
4.388207197189331055e-02,7.546975743025541306e-03,3.181709349155426025e-02,1.682347431778907776e-02,-4.836065322160720825e-02,-3.209747001528739929e-02,6.917104125022888184e-02,6.543518044054508209e-03,1.233059819787740707e-02,-1.336692087352275848e-02
4.160656780004501343e-02,2.991156419739127159e-03,3.541598469018936157e-02,1.793183945119380951e-02,-4.806688055396080017e-02,-3.016482479870319366e-02,7.200511544942855835e-02,3.990639001131057739e-03,1.057756692171096802e-02,-1.174584031105041504e-02
4.160656780004501343e-02,2.991156419739127159e-03,3.541598469018936157e-02,1.793183945119380951e-02,-4.806688055396080017e-02,-3.016482479870319366e-02,7.200511544942855835e-02,3.990639001131057739e-03,1.057756692171096802e-02,-1.174584031105041504e-02
4.249888658523559570e-02,9.066654456546530128e-05,3.804419934749603271e-02,1.765364408493041992e-02,-4.714790731668472290e-02,-2.834044955670833588e-02,7.326260209083557129e-02,1.601615105755627155e-03,8.997492492198944092e-03,-1.203554216772317886e-02
4.249888658523559570e-02,9.066654456546530128e-05,3.804419934749603271e-02,1.765364408493041992e-02,-4.714790731668472290e-02,-2.834044955670833588e-02,7.326260209083557129e-02,1.601615105755627155e-03,8.997492492198944092e-03,-1.203554216772317886e-02
4.403769597411155701e-02,-3.650938626378774643e-03,4.098186641931533813e-02,1.662046462297439575e-02,-4.629245400428771973e-02,-2.902480773627758026e-02,7.495816797018051147e-02,3.092258120886981487e-04,8.954717777669429779e-03,-1.223536580801010132e-02
4.403769597411155701e-02,-3.650938626378774643e-03,4.098186641931533813e-02,1.662046462297439575e-02,-4.629245400428771973e-02,-2.902480773627758026e-02,7.495816797018051147e-02,3.092258120886981487e-04,8.954717777669429779e-03,-1.223536580801010132e-02
4.615472629666328430e-02,-7.400937844067811966e-03,4.232522100210189819e-02,1.454193796962499619e-02,-4.605565965175628662e-02,-2.813578583300113678e-02,7.701511681079864502e-02,-1.883956603705883026e-03,1.080238167196512222e-02,-1.246929820626974106e-02
4.615472629666328430e-02,-7.400937844067811966e-03,4.232522100210189819e-02,1.454193796962499619e-02,-4.605565965175628662e-02,-2.813578583300113678e-02,7.701511681079864502e-02,-1.883956603705883026e-03,1.080238167196512222e-02,-1.246929820626974106e-02
4.610341414809226990e-02,-9.069387800991535187e-03,4.202489554882049561e-02,1.418375596404075623e-02,-4.598139226436614990e-02,-2.797900512814521790e-02,7.955788075923919678e-02,-4.524698015302419662e-03,1.312418654561042786e-02,-1.236933283507823944e-02
4.610341414809226990e-02,-9.069387800991535187e-03,4.202489554882049561e-02,1.418375596404075623e-02,-4.598139226436614990e-02,-2.797900512814521790e-02,7.955788075923919678e-02,-4.524698015302419662e-03,1.312418654561042786e-02,-1.236933283507823944e-02
4.603043198585510254e-02,-1.245713513344526291e-02,4.111630469560623169e-02,1.529412902891635895e-02,-4.601600021123886108e-02,-2.669995091855525970e-02,8.195944875478744507e-02,-7.054276764392852783e-03,1.505186874419450760e-02,-1.177431084215641022e-02
4.603043198585510254e-02,-1.245713513344526291e-02,4.111630469560623169e-02,1.529412902891635895e-02,-4.601600021123886108e-02,-2.669995091855525970e-02,8.195944875478744507e-02,-7.054276764392852783e-03,1.505186874419450760e-02,-1.177431084215641022e-02
4.620470851659774780e-02,-1.609004847705364227e-02,4.183098301291465759e-02,1.492432504892349243e-02,-4.501992836594581604e-02,-2.542059496045112610e-02,8.347620069980621338e-02,-9.050006978213787079e-03,1.639940030872821808e-02,-1.137659326195716858e-02
4.620470851659774780e-02,-1.609004847705364227e-02,4.183098301291465759e-02,1.492432504892349243e-02,-4.501992836594581604e-02,-2.542059496045112610e-02,8.347620069980621338e-02,-9.050006978213787079e-03,1.639940030872821808e-02,-1.137659326195716858e-02
4.563305899500846863e-02,-1.846457272768020630e-02,4.197056218981742859e-02,1.567517966032028198e-02,-4.505193606019020081e-02,-2.271546982228755951e-02,8.356108516454696655e-02,-1.004381757229566574e-02,1.651032455265522003e-02,-1.082176994532346725e-02
4.563305899500846863e-02,-1.846457272768020630e-02,4.197056218981742859e-02,1.567517966032028198e-02,-4.505193606019020081e-02,-2.271546982228755951e-02,8.356108516454696655e-02,-1.004381757229566574e-02,1.651032455265522003e-02,-1.082176994532346725e-02
4.703744128346443176e-02,-2.275092527270317078e-02,4.293996095657348633e-02,1.732508279383182526e-02,-4.660920426249504089e-02,-2.105031721293926239e-02,8.259516954421997070e-02,-1.067899912595748901e-02,1.941349171102046967e-02,-1.170145720243453979e-02
4.703744128346443176e-02,-2.275092527270317078e-02,4.293996095657348633e-02,1.732508279383182526e-02,-4.660920426249504089e-02,-2.105031721293926239e-02,8.259516954421997070e-02,-1.067899912595748901e-02,1.941349171102046967e-02,-1.170145720243453979e-02
4.823529720306396484e-02,-2.586670033633708954e-02,4.298038408160209656e-02,1.652319170534610748e-02,-4.622191563248634338e-02,-1.999145001173019409e-02,8.307848125696182251e-02,-1.197669375687837601e-02,2.170603722333908081e-02,-1.161070726811885834e-02
4.823529720306396484e-02,-2.586670033633708954e-02,4.298038408160209656e-02,1.652319170534610748e-02,-4.622191563248634338e-02,-1.999145001173019409e-02,8.307848125696182251e-02,-1.197669375687837601e-02,2.170603722333908081e-02,-1.161070726811885834e-02
4.843373596668243408e-02,-2.933788858354091644e-02,4.207668825984001160e-02,1.638655737042427063e-02,-4.485411569476127625e-02,-1.885939203202724457e-02,8.414668589830398560e-02,-1.306842360645532608e-02,2.354628033936023712e-02,-1.113592553883790970e-02
4.843373596668243408e-02,-2.933788858354091644e-02,4.207668825984001160e-02,1.638655737042427063e-02,-4.485411569476127625e-02,-1.885939203202724457e-02,8.414668589830398560e-02,-1.306842360645532608e-02,2.354628033936023712e-02,-1.113592553883790970e-02
4.765314236283302307e-02,-3.280836716294288635e-02,4.090796783566474915e-02,1.710627600550651550e-02,-4.415918141603469849e-02,-1.716345176100730896e-02,8.505791425704956055e-02,-1.336718257516622543e-02,2.443902753293514252e-02,-9.788723662495613098e-03
4.765314236283302307e-02,-3.280836716294288635e-02,4.090796783566474915e-02,1.710627600550651550e-02,-4.415918141603469849e-02,-1.716345176100730896e-02,8.505791425704956055e-02,-1.336718257516622543e-02,2.443902753293514252e-02,-9.788723662495613098e-03
4.655439406633377075e-02,-3.669273108243942261e-02,4.130842536687850952e-02,1.611744984984397888e-02,-4.290307685732841492e-02,-1.469425670802593231e-02,8.514890074729919434e-02,-1.485950406640768051e-02,2.581887878477573395e-02,-7.308695465326309204e-03
4.655439406633377075e-02,-3.669273108243942261e-02,4.130842536687850952e-02,1.611744984984397888e-02,-4.290307685732841492e-02,-1.469425670802593231e-02,8.514890074729919434e-02,-1.485950406640768051e-02,2.581887878477573395e-02,-7.308695465326309204e-03
4.515226557850837708e-02,-3.841552138328552246e-02,4.065966233611106873e-02,1.643125340342521667e-02,-4.199771210551261902e-02,-1.218892820179462433e-02,8.700878173112869263e-02,-1.663152873516082764e-02,2.530436404049396515e-02,-6.433871109038591385e-03
4.515226557850837708e-02,-3.841552138328552246e-02,4.065966233611106873e-02,1.643125340342521667e-02,-4.199771210551261902e-02,-1.218892820179462433e-02,8.700878173112869263e-02,-1.663152873516082764e-02,2.530436404049396515e-02,-6.433871109038591385e-03
4.504933953285217285e-02,-4.263570904731750488e-02,4.175040125846862793e-02,1.651478186249732971e-02,-4.012235999107360840e-02,-9.344440884888172150e-03,8.771928399801254272e-02,-1.892006769776344299e-02,2.573940157890319824e-02,-6.222259718924760818e-03
4.504933953285217285e-02,-4.263570904731750488e-02,4.175040125846862793e-02,1.651478186249732971e-02,-4.012235999107360840e-02,-9.344440884888172150e-03,8.771928399801254272e-02,-1.892006769776344299e-02,2.573940157890319824e-02,-6.222259718924760818e-03
4.416095092892646790e-02,-4.421152919530868530e-02,4.179632663726806641e-02,1.629782654345035553e-02,-3.951668366789817810e-02,-8.158703334629535675e-03,8.902306109666824341e-02,-2.005971781909465790e-02,2.640271745622158051e-02,-5.935884080827236176e-03
4.416095092892646790e-02,-4.421152919530868530e-02,4.179632663726806641e-02,1.629782654345035553e-02,-3.951668366789817810e-02,-8.158703334629535675e-03,8.902306109666824341e-02,-2.005971781909465790e-02,2.640271745622158051e-02,-5.935884080827236176e-03
4.522170126438140869e-02,-4.398601502180099487e-02,4.231546074151992798e-02,1.389559824019670486e-02,-3.951571509242057800e-02,-7.771667558699846268e-03,8.807288110256195068e-02,-2.101582847535610199e-02,2.824680879712104797e-02,-5.719369743019342422e-03
4.522170126438140869e-02,-4.398601502180099487e-02,4.231546074151992798e-02,1.389559824019670486e-02,-3.951571509242057800e-02,-7.771667558699846268e-03,8.807288110256195068e-02,-2.101582847535610199e-02,2.824680879712104797e-02,-5.719369743019342422e-03
4.498139396309852600e-02,-4.458366706967353821e-02,4.158252850174903870e-02,1.363496109843254089e-02,-3.873712196946144104e-02,-6.907895207405090332e-03,8.780603855848312378e-02,-2.346484921872615814e-02,3.046932630240917206e-02,-4.916084464639425278e-03
4.498139396309852600e-02,-4.458366706967353821e-02,4.158252850174903870e-02,1.363496109843254089e-02,-3.873712196946144104e-02,-6.907895207405090332e-03,8.780603855848312378e-02,-2.346484921872615814e-02,3.046932630240917206e-02,-4.916084464639425278e-03
4.446018114686012268e-02,-4.748043790459632874e-02,4.223987087607383728e-02,1.493425015360116959e-02,-3.784848377108573914e-02,-4.988129250705242157e-03,8.765446394681930542e-02,-2.429391257464885712e-02,3.005716949701309204e-02,-4.536899272352457047e-03
4.446018114686012268e-02,-4.748043790459632874e-02,4.223987087607383728e-02,1.493425015360116959e-02,-3.784848377108573914e-02,-4.988129250705242157e-03,8.765446394681930542e-02,-2.429391257464885712e-02,3.005716949701309204e-02,-4.536899272352457047e-03
4.510675370693206787e-02,-5.123473703861236572e-02,4.368500784039497375e-02,1.529122982174158096e-02,-3.943520039319992065e-02,-1.643171650357544422e-03,8.664817363023757935e-02,-2.357951179146766663e-02,2.991062216460704803e-02,-4.280916880816221237e-03
4.510675370693206787e-02,-5.123473703861236572e-02,4.368500784039497375e-02,1.529122982174158096e-02,-3.943520039319992065e-02,-1.643171650357544422e-03,8.664817363023757935e-02,-2.357951179146766663e-02,2.991062216460704803e-02,-4.280916880816221237e-03
4.426735639572143555e-02,-5.414948612451553345e-02,4.451385885477066040e-02,1.647624932229518890e-02,-3.830751776695251465e-02,4.986260319128632545e-04,8.770895004272460938e-02,-2.438971400260925293e-02,2.900488115847110748e-02,-4.829273559153079987e-03
4.426735639572143555e-02,-5.414948612451553345e-02,4.451385885477066040e-02,1.647624932229518890e-02,-3.830751776695251465e-02,4.986260319128632545e-04,8.770895004272460938e-02,-2.438971400260925293e-02,2.900488115847110748e-02,-4.829273559153079987e-03
4.320306330919265747e-02,-5.469779670238494873e-02,4.311528429388999939e-02,1.781241223216056824e-02,-3.795387968420982361e-02,1.445251982659101486e-03,8.812566846609115601e-02,-2.537571638822555542e-02,2.946068905293941498e-02,-4.233396612107753754e-03
4.320306330919265747e-02,-5.469779670238494873e-02,4.311528429388999939e-02,1.781241223216056824e-02,-3.795387968420982361e-02,1.445251982659101486e-03,8.812566846609115601e-02,-2.537571638822555542e-02,2.946068905293941498e-02,-4.233396612107753754e-03
4.134829714894294739e-02,-5.635555461049079895e-02,4.301217943429946899e-02,1.920471154153347015e-02,-3.784073516726493835e-02,3.117141779512166977e-03,8.797834068536758423e-02,-2.640211209654808044e-02,3.055447898805141449e-02,-3.564519807696342468e-03
4.134829714894294739e-02,-5.635555461049079895e-02,4.301217943429946899e-02,1.920471154153347015e-02,-3.784073516726493835e-02,3.117141779512166977e-03,8.797834068536758423e-02,-2.640211209654808044e-02,3.055447898805141449e-02,-3.564519807696342468e-03
4.130933806300163269e-02,-5.894206091761589050e-02,4.314482212066650391e-02,1.929202117025852203e-02,-3.533061221241950989e-02,3.583134850487112999e-03,8.763980865478515625e-02,-2.753847278654575348e-02,3.210445493459701538e-02,-3.964825533330440521e-03
4.130933806300163269e-02,-5.894206091761589050e-02,4.314482212066650391e-02,1.929202117025852203e-02,-3.533061221241950989e-02,3.583134850487112999e-03,8.763980865478515625e-02,-2.753847278654575348e-02,3.210445493459701538e-02,-3.964825533330440521e-03
4.054369404911994934e-02,-6.164379417896270752e-02,4.602485895156860352e-02,1.938414946198463440e-02,-3.401003032922744751e-02,5.254194140434265137e-03,8.751043677330017090e-02,-2.869283780455589294e-02,3.164451569318771362e-02,-4.461736418306827545e-03
4.054369404911994934e-02,-6.164379417896270752e-02,4.602485895156860352e-02,1.938414946198463440e-02,-3.401003032922744751e-02,5.254194140434265137e-03,8.751043677330017090e-02,-2.869283780455589294e-02,3.164451569318771362e-02,-4.461736418306827545e-03
