-1.617343910038471222e-02,-6.926002353429794312e-02,-3.847010806202888489e-02,-2.938841655850410461e-02,6.833872199058532715e-02,-6.121155247092247009e-02,-5.006141960620880127e-02,1.299794390797615051e-02,8.051659911870956421e-03,4.666668176651000977e-02
-1.617343910038471222e-02,-6.926002353429794312e-02,-3.847010806202888489e-02,-2.938841655850410461e-02,6.833872199058532715e-02,-6.121155247092247009e-02,-5.006141960620880127e-02,1.299794390797615051e-02,8.051659911870956421e-03,4.666668176651000977e-02
-2.019563503563404083e-02,-6.258970499038696289e-02,-3.748930990695953369e-02,-3.610432893037796021e-02,8.192623406648635864e-02,-7.805003970861434937e-02,-5.486422032117843628e-02,2.304537408053874969e-02,1.168788876384496689e-02,4.344181716442108154e-02
-2.019563503563404083e-02,-6.258970499038696289e-02,-3.748930990695953369e-02,-3.610432893037796021e-02,8.192623406648635864e-02,-7.805003970861434937e-02,-5.486422032117843628e-02,2.304537408053874969e-02,1.168788876384496689e-02,4.344181716442108154e-02
-2.142284996807575226e-02,-5.142890661954879761e-02,-3.946957364678382874e-02,-3.652081638574600220e-02,8.882158994674682617e-02,-8.761526644229888916e-02,-5.880087986588478088e-02,2.258759364485740662e-02,1.446212269365787506e-02,4.226868972182273865e-02
-2.142284996807575226e-02,-5.142890661954879761e-02,-3.946957364678382874e-02,-3.652081638574600220e-02,8.882158994674682617e-02,-8.761526644229888916e-02,-5.880087986588478088e-02,2.258759364485740662e-02,1.446212269365787506e-02,4.226868972182273865e-02
-2.152843400835990906e-02,-4.289859160780906677e-02,-4.352122917771339417e-02,-3.693524003028869629e-02,9.538969397544860840e-02,-9.339147061109542847e-02,-6.037023663520812988e-02,2.339127101004123688e-02,1.571937091648578644e-02,4.006455838680267334e-02
-2.152843400835990906e-02,-4.289859160780906677e-02,-4.352122917771339417e-02,-3.693524003028869629e-02,9.538969397544860840e-02,-9.339147061109542847e-02,-6.037023663520812988e-02,2.339127101004123688e-02,1.571937091648578644e-02,4.006455838680267334e-02
-1.951133087277412415e-02,-3.624814003705978394e-02,-4.760412871837615967e-02,-3.786526992917060852e-02,1.005772650241851807e-01,-9.954791516065597534e-02,-6.170080974698066711e-02,2.461084537208080292e-02,1.879461668431758881e-02,3.788938000798225403e-02
-1.951133087277412415e-02,-3.624814003705978394e-02,-4.760412871837615967e-02,-3.786526992917060852e-02,1.005772650241851807e-01,-9.954791516065597534e-02,-6.170080974698066711e-02,2.461084537208080292e-02,1.879461668431758881e-02,3.788938000798225403e-02
-1.707412861287593842e-02,-2.866368368268013000e-02,-4.988256841897964478e-02,-3.927053138613700867e-02,1.026304364204406738e-01,-1.038391292095184326e-01,-6.284633278846740723e-02,2.564367465674877167e-02,1.990674994885921478e-02,3.687194362282752991e-02
-1.707412861287593842e-02,-2.866368368268013000e-02,-4.988256841897964478e-02,-3.927053138613700867e-02,1.026304364204406738e-01,-1.038391292095184326e-01,-6.284633278846740723e-02,2.564367465674877167e-02,1.990674994885921478e-02,3.687194362282752991e-02
-1.622910238802433014e-02,-2.293011918663978577e-02,-5.231196433305740356e-02,-4.093895852565765381e-02,1.045613214373588562e-01,-1.080351322889328003e-01,-6.402800232172012329e-02,2.600862085819244385e-02,2.239301055669784546e-02,3.764212504029273987e-02
-1.622910238802433014e-02,-2.293011918663978577e-02,-5.231196433305740356e-02,-4.093895852565765381e-02,1.045613214373588562e-01,-1.080351322889328003e-01,-6.402800232172012329e-02,2.600862085819244385e-02,2.239301055669784546e-02,3.764212504029273987e-02
-1.423656102269887924e-02,-1.711015403270721436e-02,-5.660337954759597778e-02,-4.054320603609085083e-02,1.044132187962532043e-01,-1.098305583000183105e-01,-6.197373569011688232e-02,2.849239856004714966e-02,2.122115530073642731e-02,3.702934086322784424e-02
-1.423656102269887924e-02,-1.711015403270721436e-02,-5.660337954759597778e-02,-4.054320603609085083e-02,1.044132187962532043e-01,-1.098305583000183105e-01,-6.197373569011688232e-02,2.849239856004714966e-02,2.122115530073642731e-02,3.702934086322784424e-02
-1.262107677757740021e-02,-1.110436581075191498e-02,-5.710868909955024719e-02,-4.116772487759590149e-02,1.034912616014480591e-01,-1.125686019659042358e-01,-6.314268708229064941e-02,2.878187410533428192e-02,2.116127870976924896e-02,3.824763372540473938e-02
-1.262107677757740021e-02,-1.110436581075191498e-02,-5.710868909955024719e-02,-4.116772487759590149e-02,1.034912616014480591e-01,-1.125686019659042358e-01,-6.314268708229064941e-02,2.878187410533428192e-02,2.116127870976924896e-02,3.824763372540473938e-02
-9.331081993877887726e-03,-6.958856713026762009e-03,-5.886387079954147339e-02,-4.026028513908386230e-02,1.026255562901496887e-01,-1.139299273490905762e-01,-6.468164175748825073e-02,2.878347598016262054e-02,2.027695067226886749e-02,3.906205669045448303e-02
-9.331081993877887726e-03,-6.958856713026762009e-03,-5.886387079954147339e-02,-4.026028513908386230e-02,1.026255562901496887e-01,-1.139299273490905762e-01,-6.468164175748825073e-02,2.878347598016262054e-02,2.027695067226886749e-02,3.906205669045448303e-02
-8.713121525943279266e-03,-1.438621897250413895e-03,-6.103740632534027100e-02,-3.981832042336463928e-02,1.010614857077598572e-01,-1.136978715658187866e-01,-6.400234997272491455e-02,3.052371740341186523e-02,1.897083409130573273e-02,3.818001225590705872e-02
-8.713121525943279266e-03,-1.438621897250413895e-03,-6.103740632534027100e-02,-3.981832042336463928e-02,1.010614857077598572e-01,-1.136978715658187866e-01,-6.400234997272491455e-02,3.052371740341186523e-02,1.897083409130573273e-02,3.818001225590705872e-02
-9.784183464944362640e-03,1.662732101976871490e-03,-6.265315413475036621e-02,-3.682466968894004822e-02,1.013244688510894775e-01,-1.146876215934753418e-01,-6.375299394130706787e-02,3.114925883710384369e-02,1.652323082089424133e-02,3.842438384890556335e-02
-9.784183464944362640e-03,1.662732101976871490e-03,-6.265315413475036621e-02,-3.682466968894004822e-02,1.013244688510894775e-01,-1.146876215934753418e-01,-6.375299394130706787e-02,3.114925883710384369e-02,1.652323082089424133e-02,3.842438384890556335e-02
-6.458563730120658875e-03,4.808222409337759018e-03,-6.329836696386337280e-02,-3.716492652893066406e-02,9.886967390775680542e-02,-1.167171895503997803e-01,-6.392771005630493164e-02,3.473274037241935730e-02,1.489950995892286301e-02,3.857359290122985840e-02
-6.458563730120658875e-03,4.808222409337759018e-03,-6.329836696386337280e-02,-3.716492652893066406e-02,9.886967390775680542e-02,-1.167171895503997803e-01,-6.392771005630493164e-02,3.473274037241935730e-02,1.489950995892286301e-02,3.857359290122985840e-02
-5.680915899574756622e-03,6.631678901612758636e-03,-6.462421268224716187e-02,-3.614465519785881042e-02,9.711650758981704712e-02,-1.172359734773635864e-01,-6.233440712094306946e-02,3.645882382988929749e-02,1.405100058764219284e-02,3.781746327877044678e-02
-5.680915899574756622e-03,6.631678901612758636e-03,-6.462421268224716187e-02,-3.614465519785881042e-02,9.711650758981704712e-02,-1.172359734773635864e-01,-6.233440712094306946e-02,3.645882382988929749e-02,1.405100058764219284e-02,3.781746327877044678e-02
-3.066721372306346893e-03,6.917728111147880554e-03,-6.553512811660766602e-02,-3.427241742610931396e-02,9.766832739114761353e-02,-1.184585243463516235e-01,-6.387057155370712280e-02,3.595118597149848938e-02,1.278942171484231949e-02,3.852197155356407166e-02
-3.066721372306346893e-03,6.917728111147880554e-03,-6.553512811660766602e-02,-3.427241742610931396e-02,9.766832739114761353e-02,-1.184585243463516235e-01,-6.387057155370712280e-02,3.595118597149848938e-02,1.278942171484231949e-02,3.852197155356407166e-02
-3.284462261945009232e-03,8.437660522758960724e-03,-6.602029502391815186e-02,-3.572533652186393738e-02,9.706838428974151611e-02,-1.201656162738800049e-01,-6.468057632446289062e-02,3.823722526431083679e-02,1.371868420392274857e-02,3.957410529255867004e-02
-3.284462261945009232e-03,8.437660522758960724e-03,-6.602029502391815186e-02,-3.572533652186393738e-02,9.706838428974151611e-02,-1.201656162738800049e-01,-6.468057632446289062e-02,3.823722526431083679e-02,1.371868420392274857e-02,3.957410529255867004e-02
-3.138208528980612755e-03,9.984340518712997437e-03,-6.796784698963165283e-02,-3.466776758432388306e-02,9.545153379440307617e-02,-1.226993799209594727e-01,-6.440649181604385376e-02,3.876270726323127747e-02,1.568763889372348785e-02,4.077043011784553528e-02
-3.138208528980612755e-03,9.984340518712997437e-03,-6.796784698963165283e-02,-3.466776758432388306e-02,9.545153379440307617e-02,-1.226993799209594727e-01,-6.440649181604385376e-02,3.876270726323127747e-02,1.568763889372348785e-02,4.077043011784553528e-02
-5.483497516252100468e-04,9.461410343647003174e-03,-7.050966471433639526e-02,-3.463886305689811707e-02,9.417412430047988892e-02,-1.203112155199050903e-01,-6.547409296035766602e-02,4.001380875706672668e-02,1.440114155411720276e-02,4.160610958933830261e-02
-5.483497516252100468e-04,9.461410343647003174e-03,-7.050966471433639526e-02,-3.463886305689811707e-02,9.417412430047988892e-02,-1.203112155199050903e-01,-6.547409296035766602e-02,4.001380875706672668e-02,1.440114155411720276e-02,4.160610958933830261e-02
-3.130180994048714638e-04,8.124448359012603760e-03,-7.273149490356445312e-02,-3.211767971515655518e-02,9.382370859384536743e-02,-1.214908361434936523e-01,-6.704151630401611328e-02,3.879383206367492676e-02,1.373320352286100388e-02,4.565226286649703979e-02
-3.130180994048714638e-04,8.124448359012603760e-03,-7.273149490356445312e-02,-3.211767971515655518e-02,9.382370859384536743e-02,-1.214908361434936523e-01,-6.704151630401611328e-02,3.879383206367492676e-02,1.373320352286100388e-02,4.565226286649703979e-02
7.189952302724123001e-04,6.872525904327630997e-03,-7.469771057367324829e-02,-3.209569677710533142e-02,9.122047573328018188e-02,-1.232558488845825195e-01,-6.712285429239273071e-02,4.404577985405921936e-02,1.341265346854925156e-02,4.679631069302558899e-02
7.189952302724123001e-04,6.872525904327630997e-03,-7.469771057367324829e-02,-3.209569677710533142e-02,9.122047573328018188e-02,-1.232558488845825195e-01,-6.712285429239273071e-02,4.404577985405921936e-02,1.341265346854925156e-02,4.679631069302558899e-02
1.042959629558026791e-03,7.603180594742298126e-03,-7.551621645689010620e-02,-3.349229693412780762e-02,8.793648332357406616e-02,-1.225121021270751953e-01,-6.694287806749343872e-02,4.770652949810028076e-02,1.272702403366565704e-02,4.757994413375854492e-02
1.042959629558026791e-03,7.603180594742298126e-03,-7.551621645689010620e-02,-3.349229693412780762e-02,8.793648332357406616e-02,-1.225121021270751953e-01,-6.694287806749343872e-02,4.770652949810028076e-02,1.272702403366565704e-02,4.757994413375854492e-02
2.417492913082242012e-03,8.110495284199714661e-03,-7.629003375768661499e-02,-3.293109312653541565e-02,8.903577178716659546e-02,-1.237920820713043213e-01,-6.912194937467575073e-02,5.014422163367271423e-02,1.210713759064674377e-02,4.674522578716278076e-02
2.417492913082242012e-03,8.110495284199714661e-03,-7.629003375768661499e-02,-3.293109312653541565e-02,8.903577178716659546e-02,-1.237920820713043213e-01,-6.912194937467575073e-02,5.014422163367271423e-02,1.210713759064674377e-02,4.674522578716278076e-02
3.125248942524194717e-03,7.339150644838809967e-03,-7.825300842523574829e-02,-3.246388956904411316e-02,8.770816028118133545e-02,-1.230387017130851746e-01,-7.091415673494338989e-02,4.950365051627159119e-02,1.403774600476026535e-02,4.824642837047576904e-02
3.125248942524194717e-03,7.339150644838809967e-03,-7.825300842523574829e-02,-3.246388956904411316e-02,8.770816028118133545e-02,-1.230387017130851746e-01,-7.091415673494338989e-02,4.950365051627159119e-02,1.403774600476026535e-02,4.824642837047576904e-02
1.341162133030593395e-03,6.957598961889743805e-03,-7.924385368824005127e-02,-3.195157274603843689e-02,8.612114191055297852e-02,-1.208727359771728516e-01,-7.092930376529693604e-02,5.174924060702323914e-02,1.069235522300004959e-02,5.018619075417518616e-02
1.341162133030593395e-03,6.957598961889743805e-03,-7.924385368824005127e-02,-3.195157274603843689e-02,8.612114191055297852e-02,-1.208727359771728516e-01,-7.092930376529693604e-02,5.174924060702323914e-02,1.069235522300004959e-02,5.018619075417518616e-02
5.201913882046937943e-04,9.447211399674415588e-03,-8.348114788532257080e-02,-2.882417291402816772e-02,8.473552018404006958e-02,-1.202683895826339722e-01,-6.995652616024017334e-02,5.613647401332855225e-02,9.578215889632701874e-03,4.758957773447036743e-02
5.201913882046937943e-04,9.447211399674415588e-03,-8.348114788532257080e-02,-2.882417291402816772e-02,8.473552018404006958e-02,-1.202683895826339722e-01,-6.995652616024017334e-02,5.613647401332855225e-02,9.578215889632701874e-03,4.758957773447036743e-02
-2.253739628940820694e-03,9.909687563776969910e-03,-8.447694033384323120e-02,-2.961485274136066437e-02,8.268176764249801636e-02,-1.243774592876434326e-01,-7.036493718624114990e-02,5.627819523215293884e-02,1.562799513339996338e-02,5.022818595170974731e-02
-2.253739628940820694e-03,9.909687563776969910e-03,-8.447694033384323120e-02,-2.961485274136066437e-02,8.268176764249801636e-02,-1.243774592876434326e-01,-7.036493718624114990e-02,5.627819523215293884e-02,1.562799513339996338e-02,5.022818595170974731e-02
-3.461950924247503281e-03,1.084424834698438644e-02,-8.831438422203063965e-02,-2.552066557109355927e-02,8.098417520523071289e-02,-1.200370788574218750e-01,-7.507493346929550171e-02,5.389637500047683716e-02,1.636301726102828979e-02,5.151223391294479370e-02
-3.461950924247503281e-03,1.084424834698438644e-02,-8.831438422203063965e-02,-2.552066557109355927e-02,8.098417520523071289e-02,-1.200370788574218750e-01,-7.507493346929550171e-02,5.389637500047683716e-02,1.636301726102828979e-02,5.151223391294479370e-02
-1.187748275697231293e-02,1.240727771073579788e-02,-1.001565456390380859e-01,-1.708683744072914124e-02,8.242827653884887695e-02,-1.132573336362838745e-01,-7.699447870254516602e-02,5.344447866082191467e-02,1.911596767604351044e-02,5.057008191943168640e-02
-1.187748275697231293e-02,1.240727771073579788e-02,-1.001565456390380859e-01,-1.708683744072914124e-02,8.242827653884887695e-02,-1.132573336362838745e-01,-7.699447870254516602e-02,5.344447866082191467e-02,1.911596767604351044e-02,5.057008191943168640e-02
-1.205270527862012386e-03,-1.854264643043279648e-03,-1.075499504804611206e-01,-1.729746162891387939e-02,7.316549867391586304e-02,-1.133519634604454041e-01,-7.006519287824630737e-02,6.070583686232566833e-02,2.678506635129451752e-02,4.833533614873886108e-02
-1.205270527862012386e-03,-1.854264643043279648e-03,-1.075499504804611206e-01,-1.729746162891387939e-02,7.316549867391586304e-02,-1.133519634604454041e-01,-7.006519287824630737e-02,6.070583686232566833e-02,2.678506635129451752e-02,4.833533614873886108e-02
6.750301457941532135e-03,-7.262076716870069504e-03,-1.238507255911827087e-01,-9.953139349818229675e-03,4.572892934083938599e-02,-1.141777038574218750e-01,-8.735195547342300415e-02,9.413538128137588501e-02,3.791294619441032410e-02,4.278770461678504944e-02
6.750301457941532135e-03,-7.262076716870069504e-03,-1.238507255911827087e-01,-9.953139349818229675e-03,4.572892934083938599e-02,-1.141777038574218750e-01,-8.735195547342300415e-02,9.413538128137588501e-02,3.791294619441032410e-02,4.278770461678504944e-02
