4.523371532559394836e-02,-2.151532843708992004e-02,-1.777892746031284332e-02,3.615938499569892883e-02,-2.602837979793548584e-02,-6.945701688528060913e-02,-4.064488783478736877e-02,-1.974764466285705566e-02,1.551852747797966003e-02,-1.822224259376525879e-02
4.523371532559394836e-02,-2.151532843708992004e-02,-1.777892746031284332e-02,3.615938499569892883e-02,-2.602837979793548584e-02,-6.945701688528060913e-02,-4.064488783478736877e-02,-1.974764466285705566e-02,1.551852747797966003e-02,-1.822224259376525879e-02
4.972351342439651489e-02,-1.548700779676437378e-02,-1.752526685595512390e-02,3.254216164350509644e-02,-1.907173357903957367e-02,-8.049318194389343262e-02,-5.530060455203056335e-02,-1.530796382576227188e-02,1.963276974856853485e-02,-1.607568375766277313e-02
4.972351342439651489e-02,-1.548700779676437378e-02,-1.752526685595512390e-02,3.254216164350509644e-02,-1.907173357903957367e-02,-8.049318194389343262e-02,-5.530060455203056335e-02,-1.530796382576227188e-02,1.963276974856853485e-02,-1.607568375766277313e-02
5.273686721920967102e-02,-7.596455514430999756e-03,-1.800906658172607422e-02,3.116511367261409760e-02,-1.739916950464248657e-02,-8.731362223625183105e-02,-6.385719031095504761e-02,-1.290802843868732452e-02,2.156721986830234528e-02,-1.459289249032735825e-02
5.273686721920967102e-02,-7.596455514430999756e-03,-1.800906658172607422e-02,3.116511367261409760e-02,-1.739916950464248657e-02,-8.731362223625183105e-02,-6.385719031095504761e-02,-1.290802843868732452e-02,2.156721986830234528e-02,-1.459289249032735825e-02
5.398765206336975098e-02,-3.358871908858418465e-04,-1.997425220906734467e-02,3.017161972820758820e-02,-1.431850902736186981e-02,-9.481099247932434082e-02,-6.750518828630447388e-02,-9.804327972233295441e-03,2.354081347584724426e-02,-1.430657878518104553e-02
5.398765206336975098e-02,-3.358871908858418465e-04,-1.997425220906734467e-02,3.017161972820758820e-02,-1.431850902736186981e-02,-9.481099247932434082e-02,-6.750518828630447388e-02,-9.804327972233295441e-03,2.354081347584724426e-02,-1.430657878518104553e-02
5.669006332755088806e-02,5.813176278024911880e-03,-2.236871607601642609e-02,2.914646454155445099e-02,-1.189891248941421509e-02,-1.000426635146141052e-01,-7.148461788892745972e-02,-7.755490485578775406e-03,2.480900101363658905e-02,-1.344076730310916901e-02
5.669006332755088806e-02,5.813176278024911880e-03,-2.236871607601642609e-02,2.914646454155445099e-02,-1.189891248941421509e-02,-1.000426635146141052e-01,-7.148461788892745972e-02,-7.755490485578775406e-03,2.480900101363658905e-02,-1.344076730310916901e-02
5.994797125458717346e-02,1.179024763405323029e-02,-2.354422956705093384e-02,2.793239615857601166e-02,-1.134104374796152115e-02,-1.047668531537055969e-01,-7.412463426589965820e-02,-5.820658523589372635e-03,2.540532872080802917e-02,-1.255990844219923019e-02
5.994797125458717346e-02,1.179024763405323029e-02,-2.354422956705093384e-02,2.793239615857601166e-02,-1.134104374796152115e-02,-1.047668531537055969e-01,-7.412463426589965820e-02,-5.820658523589372635e-03,2.540532872080802917e-02,-1.255990844219923019e-02
6.271398067474365234e-02,1.577582210302352905e-02,-2.482412010431289673e-02,2.495717443525791168e-02,-1.024609152227640152e-02,-1.081724911928176880e-01,-7.674370706081390381e-02,-4.347969312220811844e-03,2.697143517434597015e-02,-1.085114758461713791e-02
6.271398067474365234e-02,1.577582210302352905e-02,-2.482412010431289673e-02,2.495717443525791168e-02,-1.024609152227640152e-02,-1.081724911928176880e-01,-7.674370706081390381e-02,-4.347969312220811844e-03,2.697143517434597015e-02,-1.085114758461713791e-02
6.430264562368392944e-02,1.929586566984653473e-02,-2.695778571069240570e-02,2.411188185214996338e-02,-9.373309090733528137e-03,-1.114984676241874695e-01,-7.807961851358413696e-02,-8.913712808862328529e-04,2.770488709211349487e-02,-1.099911145865917206e-02
6.430264562368392944e-02,1.929586566984653473e-02,-2.695778571069240570e-02,2.411188185214996338e-02,-9.373309090733528137e-03,-1.114984676241874695e-01,-7.807961851358413696e-02,-8.913712808862328529e-04,2.770488709211349487e-02,-1.099911145865917206e-02
6.626786291599273682e-02,2.285439707338809967e-02,-2.699287794530391693e-02,2.325612306594848633e-02,-1.082700677216053009e-02,-1.159306690096855164e-01,-7.904756814241409302e-02,6.160251796245574951e-04,2.906649187207221985e-02,-9.368723258376121521e-03
6.626786291599273682e-02,2.285439707338809967e-02,-2.699287794530391693e-02,2.325612306594848633e-02,-1.082700677216053009e-02,-1.159306690096855164e-01,-7.904756814241409302e-02,6.160251796245574951e-04,2.906649187207221985e-02,-9.368723258376121521e-03
6.834636628627777100e-02,2.689956873655319214e-02,-2.829222753643989563e-02,2.059042081236839294e-02,-1.022070366889238358e-02,-1.177434846758842468e-01,-7.996637374162673950e-02,2.936993492767214775e-03,2.980009280145168304e-02,-9.510885924100875854e-03
6.834636628627777100e-02,2.689956873655319214e-02,-2.829222753643989563e-02,2.059042081236839294e-02,-1.022070366889238358e-02,-1.177434846758842468e-01,-7.996637374162673950e-02,2.936993492767214775e-03,2.980009280145168304e-02,-9.510885924100875854e-03
6.976549327373504639e-02,3.155925869941711426e-02,-2.991108223795890808e-02,1.949065178632736206e-02,-1.091131381690502167e-02,-1.193846017122268677e-01,-8.058467507362365723e-02,4.303766880184412003e-03,2.991793863475322723e-02,-8.473661728203296661e-03
6.976549327373504639e-02,3.155925869941711426e-02,-2.991108223795890808e-02,1.949065178632736206e-02,-1.091131381690502167e-02,-1.193846017122268677e-01,-8.058467507362365723e-02,4.303766880184412003e-03,2.991793863475322723e-02,-8.473661728203296661e-03
7.174572348594665527e-02,3.481625393033027649e-02,-3.051591105759143829e-02,1.880203373730182648e-02,-1.140599418431520462e-02,-1.220529675483703613e-01,-8.142452687025070190e-02,7.194595411419868469e-03,2.901917882263660431e-02,-7.840555161237716675e-03
7.174572348594665527e-02,3.481625393033027649e-02,-3.051591105759143829e-02,1.880203373730182648e-02,-1.140599418431520462e-02,-1.220529675483703613e-01,-8.142452687025070190e-02,7.194595411419868469e-03,2.901917882263660431e-02,-7.840555161237716675e-03
7.350520044565200806e-02,3.865841776132583618e-02,-3.128416463732719421e-02,1.754741556942462921e-02,-1.277730520814657211e-02,-1.251778900623321533e-01,-8.201117813587188721e-02,9.198027662932872772e-03,3.055755048990249634e-02,-7.413382176309823990e-03
7.350520044565200806e-02,3.865841776132583618e-02,-3.128416463732719421e-02,1.754741556942462921e-02,-1.277730520814657211e-02,-1.251778900623321533e-01,-8.201117813587188721e-02,9.198027662932872772e-03,3.055755048990249634e-02,-7.413382176309823990e-03
7.471290230751037598e-02,4.160457104444503784e-02,-3.066582418978214264e-02,1.600613445043563843e-02,-1.440831180661916733e-02,-1.266853958368301392e-01,-7.983770221471786499e-02,1.179248560220003128e-02,2.914895303547382355e-02,-7.876641117036342621e-03
7.471290230751037598e-02,4.160457104444503784e-02,-3.066582418978214264e-02,1.600613445043563843e-02,-1.440831180661916733e-02,-1.266853958368301392e-01,-7.983770221471786499e-02,1.179248560220003128e-02,2.914895303547382355e-02,-7.876641117036342621e-03
7.750400900840759277e-02,4.496387019753456116e-02,-3.088235668838024139e-02,1.436876691877841949e-02,-1.346772629767656326e-02,-1.296967864036560059e-01,-8.168329298496246338e-02,1.190363895148038864e-02,2.958605438470840454e-02,-6.348418537527322769e-03
7.750400900840759277e-02,4.496387019753456116e-02,-3.088235668838024139e-02,1.436876691877841949e-02,-1.346772629767656326e-02,-1.296967864036560059e-01,-8.168329298496246338e-02,1.190363895148038864e-02,2.958605438470840454e-02,-6.348418537527322769e-03
7.924254983663558960e-02,4.633526876568794250e-02,-3.168243542313575745e-02,1.251181308180093765e-02,-1.506868563592433929e-02,-1.309254914522171021e-01,-8.182276785373687744e-02,1.504382211714982986e-02,3.003035485744476318e-02,-6.144750863313674927e-03
7.924254983663558960e-02,4.633526876568794250e-02,-3.168243542313575745e-02,1.251181308180093765e-02,-1.506868563592433929e-02,-1.309254914522171021e-01,-8.182276785373687744e-02,1.504382211714982986e-02,3.003035485744476318e-02,-6.144750863313674927e-03
7.882005721330642700e-02,4.856711998581886292e-02,-3.118617460131645203e-02,1.163464691489934921e-02,-1.486868690699338913e-02,-1.321309357881546021e-01,-8.221139758825302124e-02,1.625139452517032623e-02,3.019098564982414246e-02,-6.549693644046783447e-03
7.882005721330642700e-02,4.856711998581886292e-02,-3.118617460131645203e-02,1.163464691489934921e-02,-1.486868690699338913e-02,-1.321309357881546021e-01,-8.221139758825302124e-02,1.625139452517032623e-02,3.019098564982414246e-02,-6.549693644046783447e-03
8.328711986541748047e-02,5.244418606162071228e-02,-3.158577904105186462e-02,9.922751225531101227e-03,-1.570103690028190613e-02,-1.334467083215713501e-01,-8.244533836841583252e-02,1.746324449777603149e-02,2.926188148558139801e-02,-6.757671013474464417e-03
8.328711986541748047e-02,5.244418606162071228e-02,-3.158577904105186462e-02,9.922751225531101227e-03,-1.570103690028190613e-02,-1.334467083215713501e-01,-8.244533836841583252e-02,1.746324449777603149e-02,2.926188148558139801e-02,-6.757671013474464417e-03
8.315793424844741821e-02,5.393839254975318909e-02,-3.196180239319801331e-02,8.582048118114471436e-03,-1.541997399181127548e-02,-1.345694512128829956e-01,-8.201474696397781372e-02,1.838801242411136627e-02,2.849833667278289795e-02,-4.928619600832462311e-03
8.315793424844741821e-02,5.393839254975318909e-02,-3.196180239319801331e-02,8.582048118114471436e-03,-1.541997399181127548e-02,-1.345694512128829956e-01,-8.201474696397781372e-02,1.838801242411136627e-02,2.849833667278289795e-02,-4.928619600832462311e-03
8.415073901414871216e-02,5.614650622010231018e-02,-3.170662000775337219e-02,6.596122868359088898e-03,-1.617033779621124268e-02,-1.364562064409255981e-01,-8.074342459440231323e-02,2.120077610015869141e-02,2.996805310249328613e-02,-7.022324018180370331e-03
8.415073901414871216e-02,5.614650622010231018e-02,-3.170662000775337219e-02,6.596122868359088898e-03,-1.617033779621124268e-02,-1.364562064409255981e-01,-8.074342459440231323e-02,2.120077610015869141e-02,2.996805310249328613e-02,-7.022324018180370331e-03
8.671272546052932739e-02,5.758175253868103027e-02,-3.207953646779060364e-02,5.299662705510854721e-03,-1.675641909241676331e-02,-1.378316730260848999e-01,-8.258055895566940308e-02,2.308965101838111877e-02,2.978131547570228577e-02,-6.123876664787530899e-03
8.671272546052932739e-02,5.758175253868103027e-02,-3.207953646779060364e-02,5.299662705510854721e-03,-1.675641909241676331e-02,-1.378316730260848999e-01,-8.258055895566940308e-02,2.308965101838111877e-02,2.978131547570228577e-02,-6.123876664787530899e-03
8.698572963476181030e-02,6.137758120894432068e-02,-3.104680776596069336e-02,3.413061611354351044e-03,-1.723249070346355438e-02,-1.396733075380325317e-01,-8.065894991159439087e-02,2.204025909304618835e-02,2.951771393418312073e-02,-4.694470204412937164e-03
8.698572963476181030e-02,6.137758120894432068e-02,-3.104680776596069336e-02,3.413061611354351044e-03,-1.723249070346355438e-02,-1.396733075380325317e-01,-8.065894991159439087e-02,2.204025909304618835e-02,2.951771393418312073e-02,-4.694470204412937164e-03
8.848487585783004761e-02,6.202550604939460754e-02,-3.101224452257156372e-02,2.887646434828639030e-03,-1.646606624126434326e-02,-1.419786214828491211e-01,-8.188519626855850220e-02,2.422878146171569824e-02,2.975820004940032959e-02,-5.261186044663190842e-03
8.848487585783004761e-02,6.202550604939460754e-02,-3.101224452257156372e-02,2.887646434828639030e-03,-1.646606624126434326e-02,-1.419786214828491211e-01,-8.188519626855850220e-02,2.422878146171569824e-02,2.975820004940032959e-02,-5.261186044663190842e-03
9.007916599512100220e-02,6.368746608495712280e-02,-3.241784125566482544e-02,1.926674973219633102e-03,-1.650513336062431335e-02,-1.414358913898468018e-01,-8.179729431867599487e-02,2.551284804940223694e-02,2.848582714796066284e-02,-4.857396706938743591e-03
9.007916599512100220e-02,6.368746608495712280e-02,-3.241784125566482544e-02,1.926674973219633102e-03,-1.650513336062431335e-02,-1.414358913898468018e-01,-8.179729431867599487e-02,2.551284804940223694e-02,2.848582714796066284e-02,-4.857396706938743591e-03
9.156158566474914551e-02,6.594526022672653198e-02,-3.132867440581321716e-02,5.185274058021605015e-04,-1.743479818105697632e-02,-1.444860398769378662e-01,-8.044193685054779053e-02,2.797756530344486237e-02,2.799648605287075043e-02,-5.194949451833963394e-03
9.156158566474914551e-02,6.594526022672653198e-02,-3.132867440581321716e-02,5.185274058021605015e-04,-1.743479818105697632e-02,-1.444860398769378662e-01,-8.044193685054779053e-02,2.797756530344486237e-02,2.799648605287075043e-02,-5.194949451833963394e-03
9.312217682600021362e-02,6.714654713869094849e-02,-3.031856752932071686e-02,-2.435924718156456947e-03,-1.799725554883480072e-02,-1.442866325378417969e-01,-8.003786206245422363e-02,2.771041542291641235e-02,2.791249938309192657e-02,-4.077557940036058426e-03
9.312217682600021362e-02,6.714654713869094849e-02,-3.031856752932071686e-02,-2.435924718156456947e-03,-1.799725554883480072e-02,-1.442866325378417969e-01,-8.003786206245422363e-02,2.771041542291641235e-02,2.791249938309192657e-02,-4.077557940036058426e-03
9.544182568788528442e-02,6.841214746236801147e-02,-3.135451674461364746e-02,-3.065685974434018135e-03,-1.767193898558616638e-02,-1.455152332782745361e-01,-8.149096369743347168e-02,2.869869209825992584e-02,2.942396700382232666e-02,-4.937819205224514008e-03
9.544182568788528442e-02,6.841214746236801147e-02,-3.135451674461364746e-02,-3.065685974434018135e-03,-1.767193898558616638e-02,-1.455152332782745361e-01,-8.149096369743347168e-02,2.869869209825992584e-02,2.942396700382232666e-02,-4.937819205224514008e-03
9.534884244203567505e-02,7.111427187919616699e-02,-3.125138208270072937e-02,-3.394006285816431046e-03,-1.765941642224788666e-02,-1.477309912443161011e-01,-7.949507236480712891e-02,3.067820146679878235e-02,2.836401388049125671e-02,-5.673818290233612061e-03
9.534884244203567505e-02,7.111427187919616699e-02,-3.125138208270072937e-02,-3.394006285816431046e-03,-1.765941642224788666e-02,-1.477309912443161011e-01,-7.949507236480712891e-02,3.067820146679878235e-02,2.836401388049125671e-02,-5.673818290233612061e-03
9.737894684076309204e-02,7.330613583326339722e-02,-3.240853175520896912e-02,-4.336334299296140671e-03,-1.808049902319908142e-02,-1.493907123804092407e-01,-7.836771011352539062e-02,3.298389539122581482e-02,2.793374843895435333e-02,-6.110030692070722580e-03
9.737894684076309204e-02,7.330613583326339722e-02,-3.240853175520896912e-02,-4.336334299296140671e-03,-1.808049902319908142e-02,-1.493907123804092407e-01,-7.836771011352539062e-02,3.298389539122581482e-02,2.793374843895435333e-02,-6.110030692070722580e-03
9.843910485506057739e-02,7.483689486980438232e-02,-3.153906017541885376e-02,-7.269927766174077988e-03,-1.609327085316181183e-02,-1.500731706619262695e-01,-7.985784113407135010e-02,3.318543359637260437e-02,2.767297625541687012e-02,-5.098363850265741348e-03
9.843910485506057739e-02,7.483689486980438232e-02,-3.153906017541885376e-02,-7.269927766174077988e-03,-1.609327085316181183e-02,-1.500731706619262695e-01,-7.985784113407135010e-02,3.318543359637260437e-02,2.767297625541687012e-02,-5.098363850265741348e-03
