-3.926486242562532425e-03,-8.932624012231826782e-02,2.184254350140690804e-03,-1.177417673170566559e-02,8.457213640213012695e-03,-7.059757411479949951e-02,-3.790591284632682800e-02,1.855352148413658142e-02,-5.639198701828718185e-03,4.214923083782196045e-02
-3.926486242562532425e-03,-8.932624012231826782e-02,2.184254350140690804e-03,-1.177417673170566559e-02,8.457213640213012695e-03,-7.059757411479949951e-02,-3.790591284632682800e-02,1.855352148413658142e-02,-5.639198701828718185e-03,4.214923083782196045e-02
-2.998193725943565369e-02,-1.579766273498535156e-01,2.461675927042961121e-02,1.326772570610046387e-02,3.513159975409507751e-02,-1.061099618673324585e-01,-2.038791030645370483e-02,3.382982686161994934e-02,5.052087455987930298e-02,3.164730593562126160e-02
-2.998193725943565369e-02,-1.579766273498535156e-01,2.461675927042961121e-02,1.326772570610046387e-02,3.513159975409507751e-02,-1.061099618673324585e-01,-2.038791030645370483e-02,3.382982686161994934e-02,5.052087455987930298e-02,3.164730593562126160e-02
-8.483944833278656006e-02,-2.118610739707946777e-01,3.945155069231987000e-02,6.127294152975082397e-02,3.680536895990371704e-02,-1.154477745294570923e-01,-2.619898878037929535e-02,7.830999046564102173e-02,1.067252606153488159e-01,-1.119885314255952835e-02
-8.483944833278656006e-02,-2.118610739707946777e-01,3.945155069231987000e-02,6.127294152975082397e-02,3.680536895990371704e-02,-1.154477745294570923e-01,-2.619898878037929535e-02,7.830999046564102173e-02,1.067252606153488159e-01,-1.119885314255952835e-02
-1.346592456102371216e-01,-2.569509744644165039e-01,5.239547416567802429e-02,1.149903982877731323e-01,4.275947064161300659e-02,-1.353533267974853516e-01,-2.259792946279048920e-02,1.192996576428413391e-01,1.390154957771301270e-01,-5.163603276014328003e-02
-1.346592456102371216e-01,-2.569509744644165039e-01,5.239547416567802429e-02,1.149903982877731323e-01,4.275947064161300659e-02,-1.353533267974853516e-01,-2.259792946279048920e-02,1.192996576428413391e-01,1.390154957771301270e-01,-5.163603276014328003e-02
-1.572716832160949707e-01,-3.093482255935668945e-01,5.379601195454597473e-02,1.561100482940673828e-01,6.637956202030181885e-02,-1.373829245567321777e-01,-2.006352692842483521e-02,1.236806586384773254e-01,1.767270416021347046e-01,-9.065404534339904785e-02
-1.572716832160949707e-01,-3.093482255935668945e-01,5.379601195454597473e-02,1.561100482940673828e-01,6.637956202030181885e-02,-1.373829245567321777e-01,-2.006352692842483521e-02,1.236806586384773254e-01,1.767270416021347046e-01,-9.065404534339904785e-02
-1.884162873029708862e-01,-3.423388302326202393e-01,5.881247669458389282e-02,1.857757121324539185e-01,8.985430747270584106e-02,-1.404149085283279419e-01,-3.641491383314132690e-02,1.411397010087966919e-01,2.053753137588500977e-01,-1.206279322504997253e-01
-1.884162873029708862e-01,-3.423388302326202393e-01,5.881247669458389282e-02,1.857757121324539185e-01,8.985430747270584106e-02,-1.404149085283279419e-01,-3.641491383314132690e-02,1.411397010087966919e-01,2.053753137588500977e-01,-1.206279322504997253e-01
-1.742714345455169678e-01,-3.748913705348968506e-01,5.197187140583992004e-02,1.971127539873123169e-01,7.679793983697891235e-02,-1.242783889174461365e-01,-6.453312188386917114e-02,1.698700636625289917e-01,2.404695302248001099e-01,-1.497341096401214600e-01
-1.742714345455169678e-01,-3.748913705348968506e-01,5.197187140583992004e-02,1.971127539873123169e-01,7.679793983697891235e-02,-1.242783889174461365e-01,-6.453312188386917114e-02,1.698700636625289917e-01,2.404695302248001099e-01,-1.497341096401214600e-01
-1.672912091016769409e-01,-4.217536747455596924e-01,3.524527326226234436e-02,2.175267338752746582e-01,7.560268789529800415e-02,-1.057942658662796021e-01,-9.610414505004882812e-02,1.920043826103210449e-01,2.772466242313385010e-01,-1.654646843671798706e-01
-1.672912091016769409e-01,-4.217536747455596924e-01,3.524527326226234436e-02,2.175267338752746582e-01,7.560268789529800415e-02,-1.057942658662796021e-01,-9.610414505004882812e-02,1.920043826103210449e-01,2.772466242313385010e-01,-1.654646843671798706e-01
-1.729512810707092285e-01,-4.620329141616821289e-01,2.870402671396732330e-02,2.356257736682891846e-01,8.829959481954574585e-02,-9.212954342365264893e-02,-1.246808916330337524e-01,2.126767337322235107e-01,2.964449822902679443e-01,-1.777564138174057007e-01
-1.729512810707092285e-01,-4.620329141616821289e-01,2.870402671396732330e-02,2.356257736682891846e-01,8.829959481954574585e-02,-9.212954342365264893e-02,-1.246808916330337524e-01,2.126767337322235107e-01,2.964449822902679443e-01,-1.777564138174057007e-01
-1.922346204519271851e-01,-4.846083521842956543e-01,2.050908468663692474e-02,2.476304024457931519e-01,1.066505238413810730e-01,-8.399849385023117065e-02,-1.472388654947280884e-01,2.370374649763107300e-01,3.114070892333984375e-01,-1.931030601263046265e-01
-1.922346204519271851e-01,-4.846083521842956543e-01,2.050908468663692474e-02,2.476304024457931519e-01,1.066505238413810730e-01,-8.399849385023117065e-02,-1.472388654947280884e-01,2.370374649763107300e-01,3.114070892333984375e-01,-1.931030601263046265e-01
-2.082703113555908203e-01,-5.042003393173217773e-01,2.047445997595787048e-02,2.582164406776428223e-01,1.152175143361091614e-01,-7.333473861217498779e-02,-1.751487404108047485e-01,2.444233596324920654e-01,3.296919167041778564e-01,-1.942995786666870117e-01
-2.082703113555908203e-01,-5.042003393173217773e-01,2.047445997595787048e-02,2.582164406776428223e-01,1.152175143361091614e-01,-7.333473861217498779e-02,-1.751487404108047485e-01,2.444233596324920654e-01,3.296919167041778564e-01,-1.942995786666870117e-01
-2.144250571727752686e-01,-5.279800891876220703e-01,4.839318338781595230e-03,2.700952887535095215e-01,1.331544667482376099e-01,-6.643141806125640869e-02,-1.856572479009628296e-01,2.429986000061035156e-01,3.515205979347229004e-01,-2.018233835697174072e-01
-2.144250571727752686e-01,-5.279800891876220703e-01,4.839318338781595230e-03,2.700952887535095215e-01,1.331544667482376099e-01,-6.643141806125640869e-02,-1.856572479009628296e-01,2.429986000061035156e-01,3.515205979347229004e-01,-2.018233835697174072e-01
-2.301067709922790527e-01,-5.361110568046569824e-01,2.963523147627711296e-03,2.813899815082550049e-01,1.414598375558853149e-01,-6.176229566335678101e-02,-1.956627815961837769e-01,2.482684701681137085e-01,3.640457093715667725e-01,-2.153224796056747437e-01
-2.301067709922790527e-01,-5.361110568046569824e-01,2.963523147627711296e-03,2.813899815082550049e-01,1.414598375558853149e-01,-6.176229566335678101e-02,-1.956627815961837769e-01,2.482684701681137085e-01,3.640457093715667725e-01,-2.153224796056747437e-01
-2.458830326795578003e-01,-5.488651990890502930e-01,7.231164257973432541e-03,2.867946624755859375e-01,1.575446724891662598e-01,-6.634555757045745850e-02,-2.082115113735198975e-01,2.550323009490966797e-01,3.734290897846221924e-01,-2.180744260549545288e-01
-2.458830326795578003e-01,-5.488651990890502930e-01,7.231164257973432541e-03,2.867946624755859375e-01,1.575446724891662598e-01,-6.634555757045745850e-02,-2.082115113735198975e-01,2.550323009490966797e-01,3.734290897846221924e-01,-2.180744260549545288e-01
-2.640060186386108398e-01,-5.624408721923828125e-01,1.499277912080287933e-02,3.020962476730346680e-01,1.748086512088775635e-01,-7.066280394792556763e-02,-2.232126891613006592e-01,2.481126785278320312e-01,3.842488527297973633e-01,-2.195442169904708862e-01
-2.640060186386108398e-01,-5.624408721923828125e-01,1.499277912080287933e-02,3.020962476730346680e-01,1.748086512088775635e-01,-7.066280394792556763e-02,-2.232126891613006592e-01,2.481126785278320312e-01,3.842488527297973633e-01,-2.195442169904708862e-01
-2.762032449245452881e-01,-5.764282345771789551e-01,9.964889846742153168e-03,3.024230003356933594e-01,1.796884238719940186e-01,-7.002430409193038940e-02,-2.403844296932220459e-01,2.564863562583923340e-01,4.030898809432983398e-01,-2.100645601749420166e-01
-2.762032449245452881e-01,-5.764282345771789551e-01,9.964889846742153168e-03,3.024230003356933594e-01,1.796884238719940186e-01,-7.002430409193038940e-02,-2.403844296932220459e-01,2.564863562583923340e-01,4.030898809432983398e-01,-2.100645601749420166e-01
-2.697660923004150391e-01,-5.990738272666931152e-01,8.819203823804855347e-03,3.141886889934539795e-01,1.812532842159271240e-01,-6.094379723072052002e-02,-2.486062347888946533e-01,2.462722957134246826e-01,4.156276285648345947e-01,-2.156687676906585693e-01
-2.697660923004150391e-01,-5.990738272666931152e-01,8.819203823804855347e-03,3.141886889934539795e-01,1.812532842159271240e-01,-6.094379723072052002e-02,-2.486062347888946533e-01,2.462722957134246826e-01,4.156276285648345947e-01,-2.156687676906585693e-01
-2.728850245475769043e-01,-6.173514127731323242e-01,6.005876231938600540e-03,3.232973515987396240e-01,1.944892257452011108e-01,-6.085022166371345520e-02,-2.571372687816619873e-01,2.488299906253814697e-01,4.175126254558563232e-01,-2.157641798257827759e-01
-2.728850245475769043e-01,-6.173514127731323242e-01,6.005876231938600540e-03,3.232973515987396240e-01,1.944892257452011108e-01,-6.085022166371345520e-02,-2.571372687816619873e-01,2.488299906253814697e-01,4.175126254558563232e-01,-2.157641798257827759e-01
-2.556747496128082275e-01,-6.312164664268493652e-01,9.686472825706005096e-03,3.192075192928314209e-01,1.938200891017913818e-01,-5.126801878213882446e-02,-2.617906928062438965e-01,2.474628090858459473e-01,4.177841246128082275e-01,-2.227759510278701782e-01
-2.556747496128082275e-01,-6.312164664268493652e-01,9.686472825706005096e-03,3.192075192928314209e-01,1.938200891017913818e-01,-5.126801878213882446e-02,-2.617906928062438965e-01,2.474628090858459473e-01,4.177841246128082275e-01,-2.227759510278701782e-01
-2.543678879737854004e-01,-6.447373628616333008e-01,5.800490733236074448e-03,3.162333369255065918e-01,2.048072963953018188e-01,-3.681183233857154846e-02,-2.684946656227111816e-01,2.254018932580947876e-01,4.436415433883666992e-01,-2.309287190437316895e-01
-2.543678879737854004e-01,-6.447373628616333008e-01,5.800490733236074448e-03,3.162333369255065918e-01,2.048072963953018188e-01,-3.681183233857154846e-02,-2.684946656227111816e-01,2.254018932580947876e-01,4.436415433883666992e-01,-2.309287190437316895e-01
-2.565909326076507568e-01,-6.617815494537353516e-01,6.975793745368719101e-03,3.214946687221527100e-01,2.115762382745742798e-01,-3.177972882986068726e-02,-2.942572236061096191e-01,2.252245545387268066e-01,4.624612033367156982e-01,-2.321145683526992798e-01
-2.565909326076507568e-01,-6.617815494537353516e-01,6.975793745368719101e-03,3.214946687221527100e-01,2.115762382745742798e-01,-3.177972882986068726e-02,-2.942572236061096191e-01,2.252245545387268066e-01,4.624612033367156982e-01,-2.321145683526992798e-01
-2.608641386032104492e-01,-6.814294457435607910e-01,2.040914492681622505e-03,3.428555428981781006e-01,2.190648168325424194e-01,-2.263465523719787598e-02,-3.242051303386688232e-01,2.188516706228256226e-01,4.828310906887054443e-01,-2.375984489917755127e-01
-2.608641386032104492e-01,-6.814294457435607910e-01,2.040914492681622505e-03,3.428555428981781006e-01,2.190648168325424194e-01,-2.263465523719787598e-02,-3.242051303386688232e-01,2.188516706228256226e-01,4.828310906887054443e-01,-2.375984489917755127e-01
-2.600752115249633789e-01,-7.015495300292968750e-01,6.252950988709926605e-03,3.524731099605560303e-01,2.131578773260116577e-01,-1.389835495501756668e-02,-3.435211777687072754e-01,2.210175096988677979e-01,4.983518421649932861e-01,-2.441317290067672729e-01
-2.600752115249633789e-01,-7.015495300292968750e-01,6.252950988709926605e-03,3.524731099605560303e-01,2.131578773260116577e-01,-1.389835495501756668e-02,-3.435211777687072754e-01,2.210175096988677979e-01,4.983518421649932861e-01,-2.441317290067672729e-01
-2.596809267997741699e-01,-7.198103070259094238e-01,4.110869020223617554e-03,3.613058924674987793e-01,2.063421756029129028e-01,4.310155287384986877e-03,-3.613200783729553223e-01,2.188565433025360107e-01,5.149960517883300781e-01,-2.510074675083160400e-01
-2.596809267997741699e-01,-7.198103070259094238e-01,4.110869020223617554e-03,3.613058924674987793e-01,2.063421756029129028e-01,4.310155287384986877e-03,-3.613200783729553223e-01,2.188565433025360107e-01,5.149960517883300781e-01,-2.510074675083160400e-01
-2.642340064048767090e-01,-7.365230917930603027e-01,1.149849314242601395e-02,3.717831969261169434e-01,2.030094861984252930e-01,7.034972310066223145e-03,-3.806513249874114990e-01,2.315156757831573486e-01,5.236419439315795898e-01,-2.593103647232055664e-01
-2.642340064048767090e-01,-7.365230917930603027e-01,1.149849314242601395e-02,3.717831969261169434e-01,2.030094861984252930e-01,7.034972310066223145e-03,-3.806513249874114990e-01,2.315156757831573486e-01,5.236419439315795898e-01,-2.593103647232055664e-01
-2.753423154354095459e-01,-7.567018866539001465e-01,1.218048390001058578e-02,3.802756369113922119e-01,2.015705853700637817e-01,4.514748230576515198e-03,-3.953170180320739746e-01,2.573346495628356934e-01,5.284947156906127930e-01,-2.604666650295257568e-01
-2.753423154354095459e-01,-7.567018866539001465e-01,1.218048390001058578e-02,3.802756369113922119e-01,2.015705853700637817e-01,4.514748230576515198e-03,-3.953170180320739746e-01,2.573346495628356934e-01,5.284947156906127930e-01,-2.604666650295257568e-01
-2.584677934646606445e-01,-7.798588275909423828e-01,1.041712239384651184e-02,3.792585730552673340e-01,2.007444649934768677e-01,5.281683988869190216e-03,-4.087304472923278809e-01,2.719813287258148193e-01,5.309173464775085449e-01,-2.598803043365478516e-01
-2.584677934646606445e-01,-7.798588275909423828e-01,1.041712239384651184e-02,3.792585730552673340e-01,2.007444649934768677e-01,5.281683988869190216e-03,-4.087304472923278809e-01,2.719813287258148193e-01,5.309173464775085449e-01,-2.598803043365478516e-01
-2.632414698600769043e-01,-7.901390194892883301e-01,1.653509400784969330e-02,3.888379335403442383e-01,1.959965974092483521e-01,7.461356464773416519e-03,-4.127211570739746094e-01,2.713929116725921631e-01,5.369318127632141113e-01,-2.658804655075073242e-01
-2.632414698600769043e-01,-7.901390194892883301e-01,1.653509400784969330e-02,3.888379335403442383e-01,1.959965974092483521e-01,7.461356464773416519e-03,-4.127211570739746094e-01,2.713929116725921631e-01,5.369318127632141113e-01,-2.658804655075073242e-01
-2.524008154869079590e-01,-8.068082332611083984e-01,1.202751696109771729e-02,3.985123038291931152e-01,1.915922611951828003e-01,8.934730663895606995e-03,-4.226466715335845947e-01,2.774876654148101807e-01,5.441159605979919434e-01,-2.711468636989593506e-01
-2.524008154869079590e-01,-8.068082332611083984e-01,1.202751696109771729e-02,3.985123038291931152e-01,1.915922611951828003e-01,8.934730663895606995e-03,-4.226466715335845947e-01,2.774876654148101807e-01,5.441159605979919434e-01,-2.711468636989593506e-01
-2.700748741626739502e-01,-8.115437626838684082e-01,7.786663714796304703e-03,4.095598757266998291e-01,2.070376873016357422e-01,-1.022430660668760538e-05,-4.307485818862915039e-01,2.774296998977661133e-01,5.484141707420349121e-01,-2.643280327320098877e-01
-2.700748741626739502e-01,-8.115437626838684082e-01,7.786663714796304703e-03,4.095598757266998291e-01,2.070376873016357422e-01,-1.022430660668760538e-05,-4.307485818862915039e-01,2.774296998977661133e-01,5.484141707420349121e-01,-2.643280327320098877e-01
