1.406695507466793060e-02,-1.426513772457838058e-02,-4.642057046294212341e-02,4.416682198643684387e-02,6.887775659561157227e-02,-4.527717456221580505e-02,-5.265720561146736145e-02,-1.501167006790637970e-02,6.282303482294082642e-02,-8.972882060334086418e-04
1.406695507466793060e-02,-1.426513772457838058e-02,-4.642057046294212341e-02,4.416682198643684387e-02,6.887775659561157227e-02,-4.527717456221580505e-02,-5.265720561146736145e-02,-1.501167006790637970e-02,6.282303482294082642e-02,-8.972882060334086418e-04
1.290006004273891449e-02,-1.004131045192480087e-02,-4.104012250900268555e-02,3.953699395060539246e-02,7.936714589595794678e-02,-5.791472271084785461e-02,-5.773429945111274719e-02,-1.282359473407268524e-02,6.532896310091018677e-02,-4.359004553407430649e-03
1.290006004273891449e-02,-1.004131045192480087e-02,-4.104012250900268555e-02,3.953699395060539246e-02,7.936714589595794678e-02,-5.791472271084785461e-02,-5.773429945111274719e-02,-1.282359473407268524e-02,6.532896310091018677e-02,-4.359004553407430649e-03
1.367546059191226959e-02,-9.094601264223456383e-04,-3.998826444149017334e-02,3.967626020312309265e-02,8.186180144548416138e-02,-6.515524536371231079e-02,-6.256888806819915771e-02,-1.320704165846109390e-02,6.768491119146347046e-02,-7.319969125092029572e-03
1.367546059191226959e-02,-9.094601264223456383e-04,-3.998826444149017334e-02,3.967626020312309265e-02,8.186180144548416138e-02,-6.515524536371231079e-02,-6.256888806819915771e-02,-1.320704165846109390e-02,6.768491119146347046e-02,-7.319969125092029572e-03
1.481575798243284225e-02,7.207433693110942841e-03,-4.162593558430671692e-02,3.977859020233154297e-02,8.476830273866653442e-02,-6.990233808755874634e-02,-6.417511403560638428e-02,-1.458031404763460159e-02,6.877212971448898315e-02,-9.378132410347461700e-03
1.481575798243284225e-02,7.207433693110942841e-03,-4.162593558430671692e-02,3.977859020233154297e-02,8.476830273866653442e-02,-6.990233808755874634e-02,-6.417511403560638428e-02,-1.458031404763460159e-02,6.877212971448898315e-02,-9.378132410347461700e-03
1.653453148901462555e-02,1.626345142722129822e-02,-4.379048198461532593e-02,3.921062871813774109e-02,8.639114350080490112e-02,-7.420658320188522339e-02,-6.665639579296112061e-02,-1.418536063283681870e-02,7.048619538545608521e-02,-1.156410481780767441e-02
1.653453148901462555e-02,1.626345142722129822e-02,-4.379048198461532593e-02,3.921062871813774109e-02,8.639114350080490112e-02,-7.420658320188522339e-02,-6.665639579296112061e-02,-1.418536063283681870e-02,7.048619538545608521e-02,-1.156410481780767441e-02
1.887978054583072662e-02,2.283523604273796082e-02,-4.391941055655479431e-02,3.794445097446441650e-02,8.689451962709426880e-02,-7.800668478012084961e-02,-6.814211606979370117e-02,-1.406443584710359573e-02,7.094629108905792236e-02,-1.212332956492900848e-02
1.887978054583072662e-02,2.283523604273796082e-02,-4.391941055655479431e-02,3.794445097446441650e-02,8.689451962709426880e-02,-7.800668478012084961e-02,-6.814211606979370117e-02,-1.406443584710359573e-02,7.094629108905792236e-02,-1.212332956492900848e-02
2.168962731957435608e-02,2.950601652264595032e-02,-4.657758027315139771e-02,3.639469295740127563e-02,8.751334995031356812e-02,-8.046051114797592163e-02,-6.958295404911041260e-02,-1.345369126647710800e-02,7.156273722648620605e-02,-1.208856236189603806e-02
2.168962731957435608e-02,2.950601652264595032e-02,-4.657758027315139771e-02,3.639469295740127563e-02,8.751334995031356812e-02,-8.046051114797592163e-02,-6.958295404911041260e-02,-1.345369126647710800e-02,7.156273722648620605e-02,-1.208856236189603806e-02
2.539504319429397583e-02,3.659682720899581909e-02,-4.934135824441909790e-02,3.494691476225852966e-02,8.611600846052169800e-02,-8.234818279743194580e-02,-6.915277242660522461e-02,-1.187273580580949783e-02,7.183912396430969238e-02,-1.315221935510635376e-02
2.539504319429397583e-02,3.659682720899581909e-02,-4.934135824441909790e-02,3.494691476225852966e-02,8.611600846052169800e-02,-8.234818279743194580e-02,-6.915277242660522461e-02,-1.187273580580949783e-02,7.183912396430969238e-02,-1.315221935510635376e-02
2.713768742978572845e-02,4.323797300457954407e-02,-4.921278730034828186e-02,3.377916291356086731e-02,8.556226640939712524e-02,-8.372544497251510620e-02,-7.102814316749572754e-02,-1.246563158929347992e-02,7.087031006813049316e-02,-1.230891328305006027e-02
2.713768742978572845e-02,4.323797300457954407e-02,-4.921278730034828186e-02,3.377916291356086731e-02,8.556226640939712524e-02,-8.372544497251510620e-02,-7.102814316749572754e-02,-1.246563158929347992e-02,7.087031006813049316e-02,-1.230891328305006027e-02
2.905587852001190186e-02,4.816627874970436096e-02,-4.962704703211784363e-02,3.099518083035945892e-02,8.598961681127548218e-02,-8.490538597106933594e-02,-7.219298183917999268e-02,-1.243180409073829651e-02,7.112457603216171265e-02,-1.174083165824413300e-02
2.905587852001190186e-02,4.816627874970436096e-02,-4.962704703211784363e-02,3.099518083035945892e-02,8.598961681127548218e-02,-8.490538597106933594e-02,-7.219298183917999268e-02,-1.243180409073829651e-02,7.112457603216171265e-02,-1.174083165824413300e-02
3.102411888539791107e-02,5.364383384585380554e-02,-5.103937163949012756e-02,3.081523440778255463e-02,8.375352621078491211e-02,-8.408042788505554199e-02,-7.139020413160324097e-02,-1.087259314954280853e-02,6.784810870885848999e-02,-1.150413136929273605e-02
3.102411888539791107e-02,5.364383384585380554e-02,-5.103937163949012756e-02,3.081523440778255463e-02,8.375352621078491211e-02,-8.408042788505554199e-02,-7.139020413160324097e-02,-1.087259314954280853e-02,6.784810870885848999e-02,-1.150413136929273605e-02
3.283984959125518799e-02,5.628596618771553040e-02,-5.219253152608871460e-02,3.248903155326843262e-02,8.406677842140197754e-02,-8.351598680019378662e-02,-7.379066944122314453e-02,-1.001952867954969406e-02,6.519442051649093628e-02,-1.190565433353185654e-02
3.283984959125518799e-02,5.628596618771553040e-02,-5.219253152608871460e-02,3.248903155326843262e-02,8.406677842140197754e-02,-8.351598680019378662e-02,-7.379066944122314453e-02,-1.001952867954969406e-02,6.519442051649093628e-02,-1.190565433353185654e-02
3.425956889986991882e-02,6.036713719367980957e-02,-5.243742093443870544e-02,3.120586276054382324e-02,8.073851466178894043e-02,-8.352994918823242188e-02,-7.415886968374252319e-02,-8.893487975001335144e-03,6.523685902357101440e-02,-1.134656183421611786e-02
3.425956889986991882e-02,6.036713719367980957e-02,-5.243742093443870544e-02,3.120586276054382324e-02,8.073851466178894043e-02,-8.352994918823242188e-02,-7.415886968374252319e-02,-8.893487975001335144e-03,6.523685902357101440e-02,-1.134656183421611786e-02
3.422098979353904724e-02,6.234491243958473206e-02,-5.269381403923034668e-02,3.202281892299652100e-02,7.983913272619247437e-02,-8.259294927120208740e-02,-7.274642586708068848e-02,-7.326043676584959030e-03,6.156775355339050293e-02,-1.161354221403598785e-02
3.422098979353904724e-02,6.234491243958473206e-02,-5.269381403923034668e-02,3.202281892299652100e-02,7.983913272619247437e-02,-8.259294927120208740e-02,-7.274642586708068848e-02,-7.326043676584959030e-03,6.156775355339050293e-02,-1.161354221403598785e-02
3.578035160899162292e-02,6.506761908531188965e-02,-5.109228566288948059e-02,3.151790797710418701e-02,7.885196805000305176e-02,-8.256202191114425659e-02,-7.621936500072479248e-02,-6.042933557182550430e-03,6.037443876266479492e-02,-1.222701091319322586e-02
3.578035160899162292e-02,6.506761908531188965e-02,-5.109228566288948059e-02,3.151790797710418701e-02,7.885196805000305176e-02,-8.256202191114425659e-02,-7.621936500072479248e-02,-6.042933557182550430e-03,6.037443876266479492e-02,-1.222701091319322586e-02
3.719068318605422974e-02,6.726625561714172363e-02,-5.176857486367225647e-02,3.151364251971244812e-02,7.654236257076263428e-02,-8.180895447731018066e-02,-7.649207115173339844e-02,-5.457110702991485596e-03,5.924406647682189941e-02,-1.148198638111352921e-02
3.719068318605422974e-02,6.726625561714172363e-02,-5.176857486367225647e-02,3.151364251971244812e-02,7.654236257076263428e-02,-8.180895447731018066e-02,-7.649207115173339844e-02,-5.457110702991485596e-03,5.924406647682189941e-02,-1.148198638111352921e-02
3.585192561149597168e-02,7.038541138172149658e-02,-5.098728835582733154e-02,3.108961693942546844e-02,7.425923645496368408e-02,-8.166090399026870728e-02,-7.701221108436584473e-02,-3.989529795944690704e-03,5.812690407037734985e-02,-1.090266648679971695e-02
3.585192561149597168e-02,7.038541138172149658e-02,-5.098728835582733154e-02,3.108961693942546844e-02,7.425923645496368408e-02,-8.166090399026870728e-02,-7.701221108436584473e-02,-3.989529795944690704e-03,5.812690407037734985e-02,-1.090266648679971695e-02
3.795802965760231018e-02,7.131163030862808228e-02,-5.109476298093795776e-02,3.158088400959968567e-02,7.285181432962417603e-02,-7.962006330490112305e-02,-7.699633389711380005e-02,-2.912205876782536507e-03,5.487452819943428040e-02,-1.153580006211996078e-02
3.795802965760231018e-02,7.131163030862808228e-02,-5.109476298093795776e-02,3.158088400959968567e-02,7.285181432962417603e-02,-7.962006330490112305e-02,-7.699633389711380005e-02,-2.912205876782536507e-03,5.487452819943428040e-02,-1.153580006211996078e-02
3.829751536250114441e-02,7.317879050970077515e-02,-5.046087503433227539e-02,3.098179213702678680e-02,7.139758765697479248e-02,-7.961374521255493164e-02,-7.732686400413513184e-02,-2.351297996938228607e-03,5.354423820972442627e-02,-1.054455712437629700e-02
3.829751536250114441e-02,7.317879050970077515e-02,-5.046087503433227539e-02,3.098179213702678680e-02,7.139758765697479248e-02,-7.961374521255493164e-02,-7.732686400413513184e-02,-2.351297996938228607e-03,5.354423820972442627e-02,-1.054455712437629700e-02
3.794892504811286926e-02,7.592187076807022095e-02,-5.007883161306381226e-02,3.082560561597347260e-02,6.916429102420806885e-02,-8.031687140464782715e-02,-7.557734102010726929e-02,-1.081974478438496590e-03,5.345252528786659241e-02,-1.152871735394001007e-02
3.794892504811286926e-02,7.592187076807022095e-02,-5.007883161306381226e-02,3.082560561597347260e-02,6.916429102420806885e-02,-8.031687140464782715e-02,-7.557734102010726929e-02,-1.081974478438496590e-03,5.345252528786659241e-02,-1.152871735394001007e-02
3.879558667540550232e-02,7.640365511178970337e-02,-4.945317283272743225e-02,3.029561229050159454e-02,6.673718988895416260e-02,-7.891406863927841187e-02,-7.758650928735733032e-02,5.290228291414678097e-04,5.181534215807914734e-02,-1.051274780184030533e-02
3.879558667540550232e-02,7.640365511178970337e-02,-4.945317283272743225e-02,3.029561229050159454e-02,6.673718988895416260e-02,-7.891406863927841187e-02,-7.758650928735733032e-02,5.290228291414678097e-04,5.181534215807914734e-02,-1.051274780184030533e-02
3.931223601102828979e-02,7.730782032012939453e-02,-4.823432862758636475e-02,3.028177656233310699e-02,6.593596935272216797e-02,-7.872811704874038696e-02,-7.778991758823394775e-02,1.680153305642306805e-03,4.881244897842407227e-02,-1.006710901856422424e-02
3.931223601102828979e-02,7.730782032012939453e-02,-4.823432862758636475e-02,3.028177656233310699e-02,6.593596935272216797e-02,-7.872811704874038696e-02,-7.778991758823394775e-02,1.680153305642306805e-03,4.881244897842407227e-02,-1.006710901856422424e-02
3.984826430678367615e-02,7.858970761299133301e-02,-4.659208655357360840e-02,2.959337085485458374e-02,6.349240988492965698e-02,-7.861406356096267700e-02,-7.852488011121749878e-02,2.366615692153573036e-03,4.774237796664237976e-02,-9.403854608535766602e-03
3.984826430678367615e-02,7.858970761299133301e-02,-4.659208655357360840e-02,2.959337085485458374e-02,6.349240988492965698e-02,-7.861406356096267700e-02,-7.852488011121749878e-02,2.366615692153573036e-03,4.774237796664237976e-02,-9.403854608535766602e-03
3.856578469276428223e-02,7.982673496007919312e-02,-4.743808507919311523e-02,3.058969415724277496e-02,6.321645528078079224e-02,-7.883094251155853271e-02,-7.811996340751647949e-02,4.269923083484172821e-03,4.565841704607009888e-02,-9.054785594344139099e-03
3.856578469276428223e-02,7.982673496007919312e-02,-4.743808507919311523e-02,3.058969415724277496e-02,6.321645528078079224e-02,-7.883094251155853271e-02,-7.811996340751647949e-02,4.269923083484172821e-03,4.565841704607009888e-02,-9.054785594344139099e-03
4.007293283939361572e-02,8.155076205730438232e-02,-4.726082086563110352e-02,3.008144721388816833e-02,6.032138317823410034e-02,-7.906392961740493774e-02,-7.695043832063674927e-02,6.622128188610076904e-03,4.401089623570442200e-02,-9.155879728496074677e-03
4.007293283939361572e-02,8.155076205730438232e-02,-4.726082086563110352e-02,3.008144721388816833e-02,6.032138317823410034e-02,-7.906392961740493774e-02,-7.695043832063674927e-02,6.622128188610076904e-03,4.401089623570442200e-02,-9.155879728496074677e-03
4.064539074897766113e-02,8.116288483142852783e-02,-4.559567570686340332e-02,2.787763066589832306e-02,5.916329100728034973e-02,-7.792903482913970947e-02,-7.818128168582916260e-02,6.420603021979331970e-03,4.506215825676918030e-02,-8.897310122847557068e-03
4.064539074897766113e-02,8.116288483142852783e-02,-4.559567570686340332e-02,2.787763066589832306e-02,5.916329100728034973e-02,-7.792903482913970947e-02,-7.818128168582916260e-02,6.420603021979331970e-03,4.506215825676918030e-02,-8.897310122847557068e-03
4.252193495631217957e-02,8.435384184122085571e-02,-4.550960287451744080e-02,2.776083163917064667e-02,5.787039920687675476e-02,-7.729645818471908569e-02,-7.842750847339630127e-02,6.757149472832679749e-03,4.354788362979888916e-02,-9.698560461401939392e-03
4.252193495631217957e-02,8.435384184122085571e-02,-4.550960287451744080e-02,2.776083163917064667e-02,5.787039920687675476e-02,-7.729645818471908569e-02,-7.842750847339630127e-02,6.757149472832679749e-03,4.354788362979888916e-02,-9.698560461401939392e-03
4.232861474156379700e-02,8.506402373313903809e-02,-4.476676136255264282e-02,2.758533507585525513e-02,5.723628774285316467e-02,-7.740477472543716431e-02,-7.712527364492416382e-02,8.037463761866092682e-03,4.139352589845657349e-02,-9.863388724625110626e-03
4.232861474156379700e-02,8.506402373313903809e-02,-4.476676136255264282e-02,2.758533507585525513e-02,5.723628774285316467e-02,-7.740477472543716431e-02,-7.712527364492416382e-02,8.037463761866092682e-03,4.139352589845657349e-02,-9.863388724625110626e-03
4.079591482877731323e-02,8.718717098236083984e-02,-4.470758512616157532e-02,2.809683419764041901e-02,5.635401606559753418e-02,-7.794445753097534180e-02,-7.809162884950637817e-02,1.075148023664951324e-02,3.972620889544487000e-02,-1.003440935164690018e-02
4.079591482877731323e-02,8.718717098236083984e-02,-4.470758512616157532e-02,2.809683419764041901e-02,5.635401606559753418e-02,-7.794445753097534180e-02,-7.809162884950637817e-02,1.075148023664951324e-02,3.972620889544487000e-02,-1.003440935164690018e-02
4.232902824878692627e-02,8.700645714998245239e-02,-4.464654624462127686e-02,2.769178710877895355e-02,5.469805747270584106e-02,-7.710770517587661743e-02,-7.850468903779983521e-02,1.287113875150680542e-02,3.860200196504592896e-02,-1.070349104702472687e-02
4.232902824878692627e-02,8.700645714998245239e-02,-4.464654624462127686e-02,2.769178710877895355e-02,5.469805747270584106e-02,-7.710770517587661743e-02,-7.850468903779983521e-02,1.287113875150680542e-02,3.860200196504592896e-02,-1.070349104702472687e-02
