-3.137829154729843140e-02,-1.059169787913560867e-02,1.428598444908857346e-02,-4.896707832813262939e-02,3.297363966703414917e-02,-4.689897596836090088e-02,4.618707671761512756e-02,5.416288226842880249e-02,2.908711321651935577e-02,1.048390520736575127e-03
-3.177614137530326843e-02,-7.928005419671535492e-03,1.162735465914011002e-02,-4.973419383168220520e-02,3.257042542099952698e-02,-4.727302119135856628e-02,4.535688459873199463e-02,5.577443540096282959e-02,3.047495894134044647e-02,6.639063358306884766e-04
-3.044007346034049988e-02,-5.032320041209459305e-03,9.966191835701465607e-03,-5.026193708181381226e-02,3.297755494713783264e-02,-4.800792038440704346e-02,4.445168375968933105e-02,5.747336894273757935e-02,2.600320614874362946e-02,2.701236633583903313e-03
-3.089514002203941345e-02,-2.191742183640599251e-03,9.653996676206588745e-03,-5.140088126063346863e-02,3.426096588373184204e-02,-4.784460365772247314e-02,4.318222776055335999e-02,5.891990661621093750e-02,2.401925437152385712e-02,2.507821889594197273e-03
-2.947817184031009674e-02,-6.629000417888164520e-04,7.708107586950063705e-03,-5.291141942143440247e-02,3.581215441226959229e-02,-4.859625175595283508e-02,4.140871018171310425e-02,5.909865349531173706e-02,2.362724393606185913e-02,4.471242427825927734e-03
-2.999310567975044250e-02,1.853381283581256866e-03,6.930483039468526840e-03,-5.420690402388572693e-02,3.623750433325767517e-02,-4.754116386175155640e-02,4.035275802016258240e-02,5.792140588164329529e-02,2.270486392080783844e-02,6.092889700084924698e-03
-2.955129183828830719e-02,2.125602448359131813e-03,7.836521603167057037e-03,-5.424001440405845642e-02,3.665074333548545837e-02,-4.870172217488288879e-02,3.987671062350273132e-02,5.728306248784065247e-02,2.275294065475463867e-02,6.387456785887479782e-03
-2.886048145592212677e-02,3.474765690043568611e-03,6.487051490694284439e-03,-5.568218231201171875e-02,3.744710236787796021e-02,-4.801678285002708435e-02,3.894302621483802795e-02,5.854259803891181946e-02,2.284513972699642181e-02,5.812088493257761002e-03
-2.865124493837356567e-02,4.426072351634502411e-03,7.098840083926916122e-03,-5.619223788380622864e-02,3.805916011333465576e-02,-4.846190288662910461e-02,3.706177324056625366e-02,5.718797445297241211e-02,2.323491871356964111e-02,7.003957405686378479e-03
-2.970164828002452850e-02,6.108783651143312454e-03,6.267155054956674576e-03,-5.714858323335647583e-02,3.789637237787246704e-02,-4.834021627902984619e-02,3.770917281508445740e-02,5.844322592020034790e-02,2.378372475504875183e-02,6.163809448480606079e-03
-2.869457006454467773e-02,5.958171095699071884e-03,5.697491113096475601e-03,-5.664629861712455750e-02,3.842477500438690186e-02,-4.871899634599685669e-02,3.604701906442642212e-02,5.670416727662086487e-02,2.458705380558967590e-02,7.129696197807788849e-03
-2.891505695879459381e-02,6.724451668560504913e-03,4.690567497164011002e-03,-5.702392384409904480e-02,3.781650587916374207e-02,-4.818689450621604919e-02,3.583658486604690552e-02,5.698950961232185364e-02,2.565841376781463623e-02,6.476586218923330307e-03
-2.844148501753807068e-02,6.818547844886779785e-03,3.900794079527258873e-03,-5.781514570116996765e-02,3.748572617769241333e-02,-4.739574715495109558e-02,3.439521789550781250e-02,5.657410621643066406e-02,2.670532651245594025e-02,7.135466206818819046e-03
-2.804520539939403534e-02,6.760228425264358521e-03,3.150470554828643799e-03,-5.745453014969825745e-02,3.844189271330833435e-02,-4.864384233951568604e-02,3.370190784335136414e-02,5.595755949616432190e-02,2.731982804834842682e-02,7.972455583512783051e-03
-2.687582559883594513e-02,5.181565415114164352e-03,3.131594741716980934e-03,-5.814127251505851746e-02,3.773150593042373657e-02,-4.807100817561149597e-02,3.244682028889656067e-02,5.624183267354965210e-02,2.869594097137451172e-02,8.009853772819042206e-03
-2.698987163603305817e-02,4.884497728198766708e-03,3.242015140131115913e-03,-5.776698142290115356e-02,3.859287872910499573e-02,-4.869626089930534363e-02,3.197963908314704895e-02,5.463965237140655518e-02,2.970478124916553497e-02,8.113887161016464233e-03
-2.868096902966499329e-02,6.278365384787321091e-03,2.585738897323608398e-03,-5.792665109038352966e-02,3.856655582785606384e-02,-4.918716102838516235e-02,3.174860402941703796e-02,5.559127777814865112e-02,3.064000234007835388e-02,7.772199343889951706e-03
-2.774986997246742249e-02,5.110667087137699127e-03,1.899798749946057796e-03,-5.825802683830261230e-02,3.829774260520935059e-02,-4.898400977253913879e-02,3.093153424561023712e-02,5.485246703028678894e-02,3.204710036516189575e-02,8.261129260063171387e-03
-2.701044082641601562e-02,5.116744432598352432e-03,1.810225076042115688e-03,-5.839679017663002014e-02,3.827757015824317932e-02,-4.919536411762237549e-02,2.941232919692993164e-02,5.457625165581703186e-02,3.248924762010574341e-02,9.005099534988403320e-03
-2.707251161336898804e-02,4.569631535559892654e-03,1.751730800606310368e-03,-5.870320275425910950e-02,3.813490644097328186e-02,-4.816892743110656738e-02,2.851496450603008270e-02,5.401491373777389526e-02,3.336497396230697632e-02,8.707033470273017883e-03
-2.695971913635730743e-02,4.424410406500101089e-03,1.330204075202345848e-03,-5.928309634327888489e-02,3.800597041845321655e-02,-4.844389483332633972e-02,2.747653611004352570e-02,5.421667546033859253e-02,3.434454277157783508e-02,9.444952011108398438e-03
-2.707004733383655548e-02,4.807791672646999359e-03,1.389592216582968831e-04,-5.854779854416847229e-02,3.754126280546188354e-02,-4.839139059185981750e-02,2.751544862985610962e-02,5.396316200494766235e-02,3.451884910464286804e-02,9.667896665632724762e-03
-2.822218835353851318e-02,3.670365083962678909e-03,1.563554251333698630e-04,-5.797229334712028503e-02,3.805677592754364014e-02,-4.786560684442520142e-02,2.688799984753131866e-02,5.313928425312042236e-02,3.544356301426887512e-02,9.511166252195835114e-03
-2.622776292264461517e-02,4.038384649902582169e-03,-6.778936949558556080e-04,-5.730767175555229187e-02,3.821472823619842529e-02,-4.780908301472663879e-02,2.501767501235008240e-02,5.267826840281486511e-02,3.517220169305801392e-02,9.731189347803592682e-03
-2.663056738674640656e-02,3.350641811266541481e-03,-1.318303053267300129e-03,-5.818773806095123291e-02,3.831056877970695496e-02,-4.725958406925201416e-02,2.506723627448081970e-02,5.298526212573051453e-02,3.603351116180419922e-02,9.898070245981216431e-03
-2.602456696331501007e-02,2.191604347899556160e-03,-1.039748894982039928e-03,-5.761241167783737183e-02,3.858401253819465637e-02,-4.668153822422027588e-02,2.441060915589332581e-02,5.259494483470916748e-02,3.568132966756820679e-02,9.879233315587043762e-03
-2.730955556035041809e-02,2.251168014481663704e-03,-1.630748738534748554e-03,-5.775951221585273743e-02,3.830875083804130554e-02,-4.703657701611518860e-02,2.390001341700553894e-02,5.243665724992752075e-02,3.673649206757545471e-02,1.104608364403247833e-02
-2.460675127804279327e-02,1.665564486756920815e-03,-2.943374216556549072e-03,-5.701404437422752380e-02,3.792246431112289429e-02,-4.650257900357246399e-02,2.249087579548358917e-02,5.232603847980499268e-02,3.673144057393074036e-02,1.069504953920841217e-02
-2.495410479605197906e-02,1.057929010130465031e-03,-2.448611892759799957e-03,-5.738438665866851807e-02,3.827287256717681885e-02,-4.673231765627861023e-02,2.237916924059391022e-02,5.209441483020782471e-02,3.692605718970298767e-02,1.136142667382955551e-02
-2.464096061885356903e-02,6.815981469117105007e-04,-2.357808407396078110e-03,-5.735615268349647522e-02,3.812785074114799500e-02,-4.621965810656547546e-02,2.124458178877830505e-02,5.166888982057571411e-02,3.749024868011474609e-02,1.115937810391187668e-02
