2.280509099364280701e-02,-2.133615687489509583e-02,3.185332939028739929e-02,3.443286195397377014e-02,-2.321481518447399139e-02,-2.430480346083641052e-02,-3.756052255630493164e-02,1.341038569808006287e-02,-1.436547935009002686e-02,3.703993931412696838e-02
1.995020546019077301e-02,-1.983996666967868805e-02,3.168821334838867188e-02,3.289303928613662720e-02,-2.738652937114238739e-02,-2.519387565553188324e-02,-3.697098791599273682e-02,1.904082112014293671e-02,-1.280464231967926025e-02,3.734100237488746643e-02
2.122989669442176819e-02,-1.868918910622596741e-02,3.012345731258392334e-02,3.255214169621467590e-02,-2.672514133155345917e-02,-2.673212811350822449e-02,-3.826685249805450439e-02,2.261557616293430328e-02,-1.608330570161342621e-02,3.867884352803230286e-02
2.144771069288253784e-02,-1.608511619269847870e-02,2.923687361180782318e-02,3.116976656019687653e-02,-2.700699493288993835e-02,-2.599280327558517456e-02,-3.953805565834045410e-02,2.407776191830635071e-02,-1.933332532644271851e-02,4.096309840679168701e-02
2.150455303490161896e-02,-1.449563261121511459e-02,2.868327684700489044e-02,3.022098541259765625e-02,-2.518599480390548706e-02,-2.650095336139202118e-02,-4.160019382834434509e-02,2.499487251043319702e-02,-2.061216533184051514e-02,4.209311306476593018e-02
2.152835018932819366e-02,-1.375008374452590942e-02,2.783260680735111237e-02,2.862387336790561676e-02,-2.464337088167667389e-02,-2.652750909328460693e-02,-4.206963256001472473e-02,2.589439414441585541e-02,-2.142270840704441071e-02,4.380463436245918274e-02
2.126189507544040680e-02,-1.261040102690458298e-02,2.646419964730739594e-02,2.798208408057689667e-02,-2.471128664910793304e-02,-2.705917321145534515e-02,-4.216061532497406006e-02,2.603574842214584351e-02,-2.197622135281562805e-02,4.610519483685493469e-02
2.127115428447723389e-02,-1.103920023888349533e-02,2.715035900473594666e-02,2.773850411176681519e-02,-2.445205487310886383e-02,-2.617160230875015259e-02,-4.414210841059684753e-02,2.703289873898029327e-02,-2.319044247269630432e-02,4.527674615383148193e-02
2.250269241631031036e-02,-1.187278330326080322e-02,2.635177411139011383e-02,2.703181467950344086e-02,-2.449366077780723572e-02,-2.701654098927974701e-02,-4.474477097392082214e-02,2.691262401640415192e-02,-2.275891788303852081e-02,4.753472656011581421e-02
2.294899523258209229e-02,-1.157438848167657852e-02,2.515121735632419586e-02,2.786863595247268677e-02,-2.379193156957626343e-02,-2.681360952556133270e-02,-4.474667087197303772e-02,2.590103633701801300e-02,-2.278499118983745575e-02,4.716270416975021362e-02
2.242640964686870575e-02,-1.072960346937179565e-02,2.580042928457260132e-02,2.811157330870628357e-02,-2.405511401593685150e-02,-2.730929106473922729e-02,-4.540856182575225830e-02,2.632463164627552032e-02,-2.286306954920291901e-02,4.712425917387008667e-02
2.302319183945655823e-02,-1.052007731050252914e-02,2.567570470273494720e-02,2.762274071574211121e-02,-2.409771829843521118e-02,-2.712345495820045471e-02,-4.665710404515266418e-02,2.459632605314254761e-02,-2.182182483375072479e-02,4.813363030552864075e-02
2.395238913595676422e-02,-1.081430446356534958e-02,2.538046240806579590e-02,2.738706395030021667e-02,-2.496295049786567688e-02,-2.719357982277870178e-02,-4.680146649479866028e-02,2.531914785504341125e-02,-2.131722867488861084e-02,4.784122109413146973e-02
2.380086667835712433e-02,-1.113423984497785568e-02,2.548305131494998932e-02,2.801189385354518890e-02,-2.458361349999904633e-02,-2.640154212713241577e-02,-4.710337519645690918e-02,2.404305897653102875e-02,-2.188215777277946472e-02,4.822924360632896423e-02
2.309956960380077362e-02,-1.159490365535020828e-02,2.626875601708889008e-02,2.876564487814903259e-02,-2.500813640654087067e-02,-2.633859217166900635e-02,-4.749196022748947144e-02,2.410993538796901703e-02,-2.075060456991195679e-02,4.673472046852111816e-02
2.398127689957618713e-02,-1.253800094127655029e-02,2.535519562661647797e-02,2.920644544064998627e-02,-2.629337459802627563e-02,-2.581794559955596924e-02,-4.782369360327720642e-02,2.439487166702747345e-02,-2.037540636956691742e-02,4.715786874294281006e-02
2.459555305540561676e-02,-1.248579565435647964e-02,2.581258118152618408e-02,2.902766317129135132e-02,-2.732125669717788696e-02,-2.671450190246105194e-02,-4.904159903526306152e-02,2.343045920133590698e-02,-1.892070285975933075e-02,4.831838235259056091e-02
2.491378411650657654e-02,-1.287210360169410706e-02,2.629636414349079132e-02,2.902550622820854187e-02,-2.661906555294990540e-02,-2.683845348656177521e-02,-4.945198073983192444e-02,2.225270867347717285e-02,-1.802424713969230652e-02,4.767191037535667419e-02
2.586146816611289978e-02,-1.414018496870994568e-02,2.661397121846675873e-02,2.977414242923259735e-02,-2.674990892410278320e-02,-2.673428878188133240e-02,-4.996873438358306885e-02,2.169210277497768402e-02,-1.758883520960807800e-02,4.713603481650352478e-02
2.542056143283843994e-02,-1.544922962784767151e-02,2.641609124839305878e-02,3.021572716534137726e-02,-2.681474387645721436e-02,-2.657449245452880859e-02,-4.937604069709777832e-02,2.039214596152305603e-02,-1.673830859363079071e-02,4.750398918986320496e-02
2.603919431567192078e-02,-1.518665906041860580e-02,2.667914703488349915e-02,3.021297417581081390e-02,-2.841436304152011871e-02,-2.586896345019340515e-02,-5.068105086684226990e-02,2.028804644942283630e-02,-1.608277671039104462e-02,4.727236926555633545e-02
2.723173052072525024e-02,-1.597186550498008728e-02,2.652506344020366669e-02,2.959357760846614838e-02,-2.964138239622116089e-02,-2.543180808424949646e-02,-5.096889287233352661e-02,1.985731348395347595e-02,-1.543592568486928940e-02,4.791846871376037598e-02
2.762067690491676331e-02,-1.687433198094367981e-02,2.683778293430805206e-02,3.087119571864604950e-02,-2.900130860507488251e-02,-2.599756419658660889e-02,-5.106638744473457336e-02,1.910957135260105133e-02,-1.524445228278636932e-02,4.722536355257034302e-02
2.794166468083858490e-02,-1.786242611706256866e-02,2.708236128091812134e-02,3.110013343393802643e-02,-2.968079037964344025e-02,-2.539979293942451477e-02,-5.234089121222496033e-02,1.935449428856372833e-02,-1.453882642090320587e-02,4.692687466740608215e-02
2.853075414896011353e-02,-1.764617301523685455e-02,2.751260995864868164e-02,3.165537863969802856e-02,-3.053644672036170959e-02,-2.545191347599029541e-02,-5.241851881146430969e-02,1.891302503645420074e-02,-1.406188867986202240e-02,4.591332003474235535e-02
2.959525398910045624e-02,-1.918485388159751892e-02,2.789676375687122345e-02,3.225849941372871399e-02,-3.104758262634277344e-02,-2.516718953847885132e-02,-5.315584689378738403e-02,1.844775304198265076e-02,-1.387104578316211700e-02,4.600874707102775574e-02
2.998494729399681091e-02,-1.958077400922775269e-02,2.861594222486019135e-02,3.217830136418342590e-02,-3.180829808115959167e-02,-2.511148899793624878e-02,-5.347143858671188354e-02,1.759648509323596954e-02,-1.259984821081161499e-02,4.527240246534347534e-02
3.024695441126823425e-02,-2.115967124700546265e-02,2.893588878214359283e-02,3.255465254187583923e-02,-3.101815469563007355e-02,-2.501300163567066193e-02,-5.416387319564819336e-02,1.782072521746158600e-02,-1.292680110782384872e-02,4.557428136467933655e-02
3.122413344681262970e-02,-2.097642794251441956e-02,2.855600230395793915e-02,3.337220847606658936e-02,-3.102567605674266815e-02,-2.564485184848308563e-02,-5.423963814973831177e-02,1.713527552783489227e-02,-1.274899672716856003e-02,4.523730278015136719e-02
3.157020732760429382e-02,-2.130556851625442505e-02,2.886308543384075165e-02,3.396510332822799683e-02,-3.164250403642654419e-02,-2.433454617857933044e-02,-5.518784373998641968e-02,1.670295745134353638e-02,-1.241422817111015320e-02,4.385034739971160889e-02
