4.947098344564437866e-02,-2.837084420025348663e-02,1.978263072669506073e-02,-1.654533296823501587e-02,6.978341378271579742e-03,-5.196938756853342056e-03,4.547075182199478149e-02,5.499062594026327133e-03,-5.953962448984384537e-03,-6.476698070764541626e-02
4.896258190274238586e-02,-2.702094055712223053e-02,1.862229406833648682e-02,-1.543712429702281952e-02,5.153458099812269211e-03,-5.500413477420806885e-03,4.519574716687202454e-02,6.742144934833049774e-03,-3.604091238230466843e-03,-6.664326041936874390e-02
4.898590594530105591e-02,-2.521175518631935120e-02,1.824258826673030853e-02,-1.417042128741741180e-02,5.076929926872253418e-03,-6.594914942979812622e-03,4.447478801012039185e-02,8.091102354228496552e-03,-6.964554078876972198e-03,-6.541816890239715576e-02
4.732001945376396179e-02,-2.179008536040782928e-02,1.799977943301200867e-02,-1.544573251157999039e-02,5.987615790218114853e-03,-6.770184263586997986e-03,4.322331026196479797e-02,9.930735453963279724e-03,-9.116256609559059143e-03,-6.461220234632492065e-02
4.775098338723182678e-02,-1.944682560861110687e-02,1.735461503267288208e-02,-1.642802543938159943e-02,6.225876510143280029e-03,-7.438870146870613098e-03,4.148227348923683167e-02,1.154002733528614044e-02,-1.018743310123682022e-02,-6.377289444208145142e-02
4.763664677739143372e-02,-1.844922266900539398e-02,1.622772403061389923e-02,-1.750722713768482208e-02,7.068466860800981522e-03,-7.602540776133537292e-03,4.049838334321975708e-02,1.327707618474960327e-02,-1.052808761596679688e-02,-6.318697333335876465e-02
4.582613334059715271e-02,-1.622858271002769470e-02,1.541435252875089645e-02,-1.667230017483234406e-02,7.698046043515205383e-03,-7.886392064392566681e-03,3.955443575978279114e-02,1.352177280932664871e-02,-1.108513027429580688e-02,-6.277044117450714111e-02
4.613085836172103882e-02,-1.487849000841379166e-02,1.427386794239282608e-02,-1.634497195482254028e-02,9.016707539558410645e-03,-8.195565082132816315e-03,3.787300735712051392e-02,1.266383193433284760e-02,-1.126423012465238571e-02,-6.207891553640365601e-02
4.641454294323921204e-02,-1.458785030990839005e-02,1.412068028002977371e-02,-1.609393954277038574e-02,9.472445584833621979e-03,-7.757737301290035248e-03,3.634139522910118103e-02,1.379862334579229355e-02,-1.094088330864906311e-02,-6.365140527486801147e-02
4.533456265926361084e-02,-1.357149519026279449e-02,1.319368835538625717e-02,-1.648666337132453918e-02,9.805283509194850922e-03,-7.210285402834415436e-03,3.638496249914169312e-02,1.355233974754810333e-02,-1.158492080867290497e-02,-6.223230063915252686e-02
4.469431191682815552e-02,-1.282406691461801529e-02,1.296777185052633286e-02,-1.631772890686988831e-02,1.032390817999839783e-02,-8.381228893995285034e-03,3.501797094941139221e-02,1.484185364097356796e-02,-1.040372438728809357e-02,-6.272353976964950562e-02
4.435393586754798889e-02,-1.277123298496007919e-02,1.197460014373064041e-02,-1.586679555475711823e-02,1.153528876602649689e-02,-9.006542153656482697e-03,3.417311236262321472e-02,1.389888301491737366e-02,-8.961937390267848969e-03,-6.268231570720672607e-02
4.354339092969894409e-02,-1.133279129862785339e-02,1.274216733872890472e-02,-1.547522470355033875e-02,1.033212989568710327e-02,-8.553482592105865479e-03,3.300793841481208801e-02,1.438180916011333466e-02,-9.033382870256900787e-03,-6.324029713869094849e-02
4.370811954140663147e-02,-1.165413111448287964e-02,1.240870542824268341e-02,-1.528532151132822037e-02,1.108506694436073303e-02,-8.373490534722805023e-03,3.221340477466583252e-02,1.413596700876951218e-02,-9.341715835034847260e-03,-6.263716518878936768e-02
4.326624050736427307e-02,-1.139691844582557678e-02,1.280339527875185013e-02,-1.549560856074094772e-02,1.235910970717668533e-02,-9.061064571142196655e-03,3.081270493566989899e-02,1.378399599343538284e-02,-8.330990560352802277e-03,-6.270406395196914673e-02
4.339050874114036560e-02,-1.182003971189260483e-02,1.157209835946559906e-02,-1.580168120563030243e-02,1.158903911709785461e-02,-8.595346473157405853e-03,3.096217103302478790e-02,1.323378738015890121e-02,-7.489661220461130142e-03,-6.169630214571952820e-02
4.291899502277374268e-02,-1.190453395247459412e-02,1.131290104240179062e-02,-1.490202359855175018e-02,1.204691454768180847e-02,-7.907633669674396515e-03,2.973529696464538574e-02,1.143600326031446457e-02,-6.602244451642036438e-03,-6.188410520553588867e-02
4.289478436112403870e-02,-1.230134721845388412e-02,1.121118944138288498e-02,-1.391758956015110016e-02,1.229352690279483795e-02,-8.728006854653358459e-03,2.888940647244453430e-02,1.097891759127378464e-02,-5.804491229355335236e-03,-6.184024736285209656e-02
4.244600981473922729e-02,-1.279635448008775711e-02,1.120245363563299179e-02,-1.361756864935159683e-02,1.175651419907808304e-02,-8.341558277606964111e-03,2.963753975927829742e-02,1.051411312073469162e-02,-5.321271251887083054e-03,-6.223608553409576416e-02
4.274639859795570374e-02,-1.323474943637847900e-02,1.100782677531242371e-02,-1.316139101982116699e-02,1.119380351155996323e-02,-7.860033772885799408e-03,2.894381247460842133e-02,9.364381432533264160e-03,-4.740463104099035263e-03,-6.183204427361488342e-02
4.244634136557579041e-02,-1.302208192646503448e-02,1.164084672927856445e-02,-1.240592170506715775e-02,1.160282082855701447e-02,-9.577690623700618744e-03,2.775348536670207977e-02,9.120182134211063385e-03,-3.695262828841805458e-03,-6.177986413240432739e-02
4.264348000288009644e-02,-1.355280447751283646e-02,1.028809789568185806e-02,-1.257721520960330963e-02,1.028607599437236786e-02,-9.202546440064907074e-03,2.613946236670017242e-02,9.333188645541667938e-03,-2.095713047310709953e-03,-6.063754856586456299e-02
4.302737489342689514e-02,-1.433410402387380600e-02,1.090584322810173035e-02,-1.130660716444253922e-02,1.156601868569850922e-02,-9.378399699926376343e-03,2.517118491232395172e-02,8.577853441238403320e-03,-2.184832002967596054e-03,-6.158303469419479370e-02
4.180140420794487000e-02,-1.425955351442098618e-02,1.027260813862085342e-02,-1.064811833202838898e-02,1.201096177101135254e-02,-9.211890399456024170e-03,2.531557343900203705e-02,7.821100763976573944e-03,-1.508624991402029991e-03,-6.188209354877471924e-02
4.252733662724494934e-02,-1.363836694508790970e-02,9.958683513104915619e-03,-1.026249676942825317e-02,1.116838119924068451e-02,-8.926051668822765350e-03,2.370245382189750671e-02,7.249958813190460205e-03,-9.021509904414415359e-04,-6.185242161154747009e-02
4.300808534026145935e-02,-1.540059596300125122e-02,1.065078191459178925e-02,-9.756129235029220581e-03,1.172795798629522324e-02,-8.537802845239639282e-03,2.370253950357437134e-02,5.838206969201564789e-03,-4.894377780146896839e-04,-6.228082627058029175e-02
4.313901439309120178e-02,-1.473511289805173874e-02,1.117973309010267258e-02,-1.014779414981603622e-02,1.111021637916564941e-02,-8.160437457263469696e-03,2.270365320146083832e-02,5.759732797741889954e-03,-3.053875116165727377e-04,-6.227659434080123901e-02
4.357545822858810425e-02,-1.457933709025382996e-02,1.077561452984809875e-02,-8.402896113693714142e-03,1.127048488706350327e-02,-8.405004628002643585e-03,2.115049213171005249e-02,5.498745944350957870e-03,-2.232929255114868283e-04,-6.292394548654556274e-02
4.383317381143569946e-02,-1.472943741828203201e-02,9.981892071664333344e-03,-8.120203390717506409e-03,1.116132829338312149e-02,-9.138341061770915985e-03,2.066972665488719940e-02,4.486946389079093933e-03,1.061344286426901817e-03,-6.234629079699516296e-02
4.296331852674484253e-02,-1.516006235033273697e-02,1.046609506011009216e-02,-8.235962130129337311e-03,1.155232451856136322e-02,-8.261583745479583740e-03,2.060289122164249420e-02,4.080858081579208374e-03,5.803220556117594242e-04,-6.200253218412399292e-02
