-2.599643170833587646e-02,6.235786899924278259e-02,-4.719650000333786011e-02,4.016699269413948059e-02,3.510745242238044739e-02,5.452720448374748230e-03,-2.655198611319065094e-02,2.864790521562099457e-02,-4.988608881831169128e-02,7.432153075933456421e-02
-2.599643170833587646e-02,6.235786899924278259e-02,-4.719650000333786011e-02,4.016699269413948059e-02,3.510745242238044739e-02,5.452720448374748230e-03,-2.655198611319065094e-02,2.864790521562099457e-02,-4.988608881831169128e-02,7.432153075933456421e-02
-2.302332781255245209e-02,7.105741649866104126e-02,-4.538476839661598206e-02,3.371644020080566406e-02,4.033803567290306091e-02,-7.390763610601425171e-03,-3.480402380228042603e-02,3.208971396088600159e-02,-4.619543999433517456e-02,7.722368836402893066e-02
-2.302332781255245209e-02,7.105741649866104126e-02,-4.538476839661598206e-02,3.371644020080566406e-02,4.033803567290306091e-02,-7.390763610601425171e-03,-3.480402380228042603e-02,3.208971396088600159e-02,-4.619543999433517456e-02,7.722368836402893066e-02
-2.098293974995613098e-02,7.882799953222274780e-02,-4.687622189521789551e-02,2.884719893336296082e-02,4.264908283948898315e-02,-1.485964376479387283e-02,-3.825105726718902588e-02,3.478335961699485779e-02,-4.390139505267143250e-02,8.035682141780853271e-02
-2.098293974995613098e-02,7.882799953222274780e-02,-4.687622189521789551e-02,2.884719893336296082e-02,4.264908283948898315e-02,-1.485964376479387283e-02,-3.825105726718902588e-02,3.478335961699485779e-02,-4.390139505267143250e-02,8.035682141780853271e-02
-1.990781165659427643e-02,8.540925383567810059e-02,-4.887121170759201050e-02,2.475956082344055176e-02,4.510322585701942444e-02,-2.239127084612846375e-02,-3.974225372076034546e-02,3.839841485023498535e-02,-4.145891591906547546e-02,8.288901299238204956e-02
-1.990781165659427643e-02,8.540925383567810059e-02,-4.887121170759201050e-02,2.475956082344055176e-02,4.510322585701942444e-02,-2.239127084612846375e-02,-3.974225372076034546e-02,3.839841485023498535e-02,-4.145891591906547546e-02,8.288901299238204956e-02
-1.942844502627849579e-02,9.279804676771163940e-02,-5.035071447491645813e-02,2.182677574455738068e-02,4.508155956864356995e-02,-2.766288816928863525e-02,-4.166539758443832397e-02,4.253821074962615967e-02,-4.020204767584800720e-02,8.506134897470474243e-02
-1.942844502627849579e-02,9.279804676771163940e-02,-5.035071447491645813e-02,2.182677574455738068e-02,4.508155956864356995e-02,-2.766288816928863525e-02,-4.166539758443832397e-02,4.253821074962615967e-02,-4.020204767584800720e-02,8.506134897470474243e-02
-1.794128492474555969e-02,9.795252978801727295e-02,-5.019981786608695984e-02,1.882714219391345978e-02,4.516749456524848938e-02,-3.235766291618347168e-02,-4.330568388104438782e-02,4.475029930472373962e-02,-3.983538225293159485e-02,8.811263740062713623e-02
-1.794128492474555969e-02,9.795252978801727295e-02,-5.019981786608695984e-02,1.882714219391345978e-02,4.516749456524848938e-02,-3.235766291618347168e-02,-4.330568388104438782e-02,4.475029930472373962e-02,-3.983538225293159485e-02,8.811263740062713623e-02
-1.780769415199756622e-02,1.037270128726959229e-01,-5.167067423462867737e-02,1.511213369667530060e-02,4.546083137392997742e-02,-3.536215052008628845e-02,-4.435982555150985718e-02,4.725904017686843872e-02,-3.929597139358520508e-02,9.141266345977783203e-02
-1.780769415199756622e-02,1.037270128726959229e-01,-5.167067423462867737e-02,1.511213369667530060e-02,4.546083137392997742e-02,-3.536215052008628845e-02,-4.435982555150985718e-02,4.725904017686843872e-02,-3.929597139358520508e-02,9.141266345977783203e-02
-1.603803038597106934e-02,1.081505119800567627e-01,-5.433112755417823792e-02,1.294582244008779526e-02,4.396865144371986389e-02,-3.689487650990486145e-02,-4.285701364278793335e-02,5.020577833056449890e-02,-3.956933692097663879e-02,9.291145950555801392e-02
-1.603803038597106934e-02,1.081505119800567627e-01,-5.433112755417823792e-02,1.294582244008779526e-02,4.396865144371986389e-02,-3.689487650990486145e-02,-4.285701364278793335e-02,5.020577833056449890e-02,-3.956933692097663879e-02,9.291145950555801392e-02
-1.644942723214626312e-02,1.123659834265708923e-01,-5.281532183289527893e-02,9.809368290007114410e-03,4.459523782134056091e-02,-4.135054349899291992e-02,-4.421951249241828918e-02,5.239917337894439697e-02,-3.870367631316184998e-02,9.517335146665573120e-02
-1.644942723214626312e-02,1.123659834265708923e-01,-5.281532183289527893e-02,9.809368290007114410e-03,4.459523782134056091e-02,-4.135054349899291992e-02,-4.421951249241828918e-02,5.239917337894439697e-02,-3.870367631316184998e-02,9.517335146665573120e-02
-1.423187460750341415e-02,1.162777692079544067e-01,-5.369447916746139526e-02,7.715702988207340240e-03,4.379452019929885864e-02,-4.428995400667190552e-02,-4.441303014755249023e-02,5.427233502268791199e-02,-3.757905215024948120e-02,9.619668126106262207e-02
-1.423187460750341415e-02,1.162777692079544067e-01,-5.369447916746139526e-02,7.715702988207340240e-03,4.379452019929885864e-02,-4.428995400667190552e-02,-4.441303014755249023e-02,5.427233502268791199e-02,-3.757905215024948120e-02,9.619668126106262207e-02
-1.235980726778507233e-02,1.197783574461936951e-01,-5.451947823166847229e-02,5.745068658143281937e-03,4.296049475669860840e-02,-4.639914259314537048e-02,-4.393306002020835876e-02,5.566995963454246521e-02,-3.832028806209564209e-02,9.869520366191864014e-02
-1.235980726778507233e-02,1.197783574461936951e-01,-5.451947823166847229e-02,5.745068658143281937e-03,4.296049475669860840e-02,-4.639914259314537048e-02,-4.393306002020835876e-02,5.566995963454246521e-02,-3.832028806209564209e-02,9.869520366191864014e-02
-1.275668013840913773e-02,1.227332726120948792e-01,-5.542903393507003784e-02,5.194760393351316452e-03,4.314948618412017822e-02,-4.922894388437271118e-02,-4.504699259996414185e-02,5.789566785097122192e-02,-3.769249096512794495e-02,9.989087283611297607e-02
-1.275668013840913773e-02,1.227332726120948792e-01,-5.542903393507003784e-02,5.194760393351316452e-03,4.314948618412017822e-02,-4.922894388437271118e-02,-4.504699259996414185e-02,5.789566785097122192e-02,-3.769249096512794495e-02,9.989087283611297607e-02
-1.155490148812532425e-02,1.267341077327728271e-01,-5.511932820081710815e-02,2.563250483945012093e-03,4.176687821745872498e-02,-5.152812227606773376e-02,-4.439669474959373474e-02,5.960417166352272034e-02,-3.738140314817428589e-02,1.010475978255271912e-01
-1.155490148812532425e-02,1.267341077327728271e-01,-5.511932820081710815e-02,2.563250483945012093e-03,4.176687821745872498e-02,-5.152812227606773376e-02,-4.439669474959373474e-02,5.960417166352272034e-02,-3.738140314817428589e-02,1.010475978255271912e-01
-9.357333183288574219e-03,1.274803280830383301e-01,-5.487978830933570862e-02,4.920153296552598476e-04,4.186209291219711304e-02,-5.484381690621376038e-02,-4.202119261026382446e-02,6.217084079980850220e-02,-3.805321082472801208e-02,1.016351953148841858e-01
-9.357333183288574219e-03,1.274803280830383301e-01,-5.487978830933570862e-02,4.920153296552598476e-04,4.186209291219711304e-02,-5.484381690621376038e-02,-4.202119261026382446e-02,6.217084079980850220e-02,-3.805321082472801208e-02,1.016351953148841858e-01
-8.987398818135261536e-03,1.325239837169647217e-01,-5.449277907609939575e-02,-3.963625349570065737e-04,4.266953468322753906e-02,-5.604010447859764099e-02,-4.397576302289962769e-02,6.186439469456672668e-02,-3.844991698861122131e-02,1.021002233028411865e-01
-8.987398818135261536e-03,1.325239837169647217e-01,-5.449277907609939575e-02,-3.963625349570065737e-04,4.266953468322753906e-02,-5.604010447859764099e-02,-4.397576302289962769e-02,6.186439469456672668e-02,-3.844991698861122131e-02,1.021002233028411865e-01
-7.234228774905204773e-03,1.336265951395034790e-01,-5.527433753013610840e-02,-3.364311065524816513e-03,4.104503244161605835e-02,-5.822458490729331970e-02,-4.257417470216751099e-02,6.496527045965194702e-02,-3.771316632628440857e-02,1.035381555557250977e-01
-7.234228774905204773e-03,1.336265951395034790e-01,-5.527433753013610840e-02,-3.364311065524816513e-03,4.104503244161605835e-02,-5.822458490729331970e-02,-4.257417470216751099e-02,6.496527045965194702e-02,-3.771316632628440857e-02,1.035381555557250977e-01
-6.478334777057170868e-03,1.350962370634078979e-01,-5.453405156731605530e-02,-4.573281854391098022e-03,4.002452641725540161e-02,-6.022332236170768738e-02,-4.353332892060279846e-02,6.616230309009552002e-02,-3.688377514481544495e-02,1.042611375451087952e-01
-6.478334777057170868e-03,1.350962370634078979e-01,-5.453405156731605530e-02,-4.573281854391098022e-03,4.002452641725540161e-02,-6.022332236170768738e-02,-4.353332892060279846e-02,6.616230309009552002e-02,-3.688377514481544495e-02,1.042611375451087952e-01
-6.049203686416149139e-03,1.377456188201904297e-01,-5.526867508888244629e-02,-5.842668004333972931e-03,4.050365462899208069e-02,-6.019399315118789673e-02,-4.208888113498687744e-02,6.625027954578399658e-02,-3.756942600011825562e-02,1.044237986207008362e-01
-6.049203686416149139e-03,1.377456188201904297e-01,-5.526867508888244629e-02,-5.842668004333972931e-03,4.050365462899208069e-02,-6.019399315118789673e-02,-4.208888113498687744e-02,6.625027954578399658e-02,-3.756942600011825562e-02,1.044237986207008362e-01
-4.829761106520891190e-03,1.390591859817504883e-01,-5.505473911762237549e-02,-7.176700513809919357e-03,4.041409119963645935e-02,-6.246695667505264282e-02,-4.152598232030868530e-02,6.765045225620269775e-02,-3.883478417992591858e-02,1.063205003738403320e-01
-4.829761106520891190e-03,1.390591859817504883e-01,-5.505473911762237549e-02,-7.176700513809919357e-03,4.041409119963645935e-02,-6.246695667505264282e-02,-4.152598232030868530e-02,6.765045225620269775e-02,-3.883478417992591858e-02,1.063205003738403320e-01
-4.260591231286525726e-03,1.430177241563796997e-01,-5.581062659621238708e-02,-7.903925143182277679e-03,3.964027017354965210e-02,-6.413695961236953735e-02,-4.190360009670257568e-02,6.898764520883560181e-02,-3.751378506422042847e-02,1.055813506245613098e-01
-4.260591231286525726e-03,1.430177241563796997e-01,-5.581062659621238708e-02,-7.903925143182277679e-03,3.964027017354965210e-02,-6.413695961236953735e-02,-4.190360009670257568e-02,6.898764520883560181e-02,-3.751378506422042847e-02,1.055813506245613098e-01
-1.912903971970081329e-03,1.436735689640045166e-01,-5.490469560027122498e-02,-1.047723181545734406e-02,3.826994076371192932e-02,-6.435921043157577515e-02,-4.075414687395095825e-02,7.171339541673660278e-02,-3.798840567469596863e-02,1.043293997645378113e-01
-1.912903971970081329e-03,1.436735689640045166e-01,-5.490469560027122498e-02,-1.047723181545734406e-02,3.826994076371192932e-02,-6.435921043157577515e-02,-4.075414687395095825e-02,7.171339541673660278e-02,-3.798840567469596863e-02,1.043293997645378113e-01
-1.667082542553544044e-03,1.461856067180633545e-01,-5.313989147543907166e-02,-1.292078103870153427e-02,3.910588473081588745e-02,-6.704643368721008301e-02,-4.130591452121734619e-02,7.176803797483444214e-02,-3.796033561229705811e-02,1.060464754700660706e-01
-1.667082542553544044e-03,1.461856067180633545e-01,-5.313989147543907166e-02,-1.292078103870153427e-02,3.910588473081588745e-02,-6.704643368721008301e-02,-4.130591452121734619e-02,7.176803797483444214e-02,-3.796033561229705811e-02,1.060464754700660706e-01
-5.579951903200708330e-05,1.470229327678680420e-01,-5.360233783721923828e-02,-1.440349128097295761e-02,3.937382251024246216e-02,-6.815754622220993042e-02,-4.086790978908538818e-02,7.220245152711868286e-02,-3.774723410606384277e-02,1.067262515425682068e-01
-5.579951903200708330e-05,1.470229327678680420e-01,-5.360233783721923828e-02,-1.440349128097295761e-02,3.937382251024246216e-02,-6.815754622220993042e-02,-4.086790978908538818e-02,7.220245152711868286e-02,-3.774723410606384277e-02,1.067262515425682068e-01
-1.542669997434131801e-05,1.491589397192001343e-01,-5.449982732534408569e-02,-1.586576364934444427e-02,3.878285363316535950e-02,-6.789884716272354126e-02,-4.032686352729797363e-02,7.328017801046371460e-02,-3.826626390218734741e-02,1.075627729296684265e-01
-1.542669997434131801e-05,1.491589397192001343e-01,-5.449982732534408569e-02,-1.586576364934444427e-02,3.878285363316535950e-02,-6.789884716272354126e-02,-4.032686352729797363e-02,7.328017801046371460e-02,-3.826626390218734741e-02,1.075627729296684265e-01
1.078383531421422958e-03,1.519391089677810669e-01,-5.508939176797866821e-02,-1.528224349021911621e-02,3.783327341079711914e-02,-7.051569223403930664e-02,-3.752501681447029114e-02,7.543316483497619629e-02,-3.999366238713264465e-02,1.069616600871086121e-01
1.078383531421422958e-03,1.519391089677810669e-01,-5.508939176797866821e-02,-1.528224349021911621e-02,3.783327341079711914e-02,-7.051569223403930664e-02,-3.752501681447029114e-02,7.543316483497619629e-02,-3.999366238713264465e-02,1.069616600871086121e-01
2.968169748783111572e-03,1.528330892324447632e-01,-5.351654812693595886e-02,-1.817090064287185669e-02,3.678990900516510010e-02,-7.171850651502609253e-02,-3.970950096845626831e-02,7.500320672988891602e-02,-3.863724321126937866e-02,1.091201826930046082e-01
2.968169748783111572e-03,1.528330892324447632e-01,-5.351654812693595886e-02,-1.817090064287185669e-02,3.678990900516510010e-02,-7.171850651502609253e-02,-3.970950096845626831e-02,7.500320672988891602e-02,-3.863724321126937866e-02,1.091201826930046082e-01
4.814467392861843109e-03,1.545797288417816162e-01,-5.367617681622505188e-02,-1.970583945512771606e-02,3.713213279843330383e-02,-7.323461025953292847e-02,-3.910957276821136475e-02,7.584298402070999146e-02,-3.935014456510543823e-02,1.097995638847351074e-01
4.814467392861843109e-03,1.545797288417816162e-01,-5.367617681622505188e-02,-1.970583945512771606e-02,3.713213279843330383e-02,-7.323461025953292847e-02,-3.910957276821136475e-02,7.584298402070999146e-02,-3.935014456510543823e-02,1.097995638847351074e-01
5.752189084887504578e-03,1.548942774534225464e-01,-5.375527590513229370e-02,-2.007509954273700714e-02,3.636779263615608215e-02,-7.476380467414855957e-02,-3.723618388175964355e-02,7.768863439559936523e-02,-3.898270800709724426e-02,1.083822101354598999e-01
5.752189084887504578e-03,1.548942774534225464e-01,-5.375527590513229370e-02,-2.007509954273700714e-02,3.636779263615608215e-02,-7.476380467414855957e-02,-3.723618388175964355e-02,7.768863439559936523e-02,-3.898270800709724426e-02,1.083822101354598999e-01
7.006146479398012161e-03,1.588909178972244263e-01,-5.548011884093284607e-02,-1.985962502658367157e-02,3.664892539381980896e-02,-7.541790604591369629e-02,-3.853263705968856812e-02,7.801343500614166260e-02,-3.948947414755821228e-02,1.086377054452896118e-01
7.006146479398012161e-03,1.588909178972244263e-01,-5.548011884093284607e-02,-1.985962502658367157e-02,3.664892539381980896e-02,-7.541790604591369629e-02,-3.853263705968856812e-02,7.801343500614166260e-02,-3.948947414755821228e-02,1.086377054452896118e-01
6.268476601690053940e-03,1.602384150028228760e-01,-5.363259464502334595e-02,-2.221909537911415100e-02,3.615427017211914062e-02,-7.619063556194305420e-02,-3.906770423054695129e-02,7.859959453344345093e-02,-3.844603151082992554e-02,1.089035272598266602e-01
6.268476601690053940e-03,1.602384150028228760e-01,-5.363259464502334595e-02,-2.221909537911415100e-02,3.615427017211914062e-02,-7.619063556194305420e-02,-3.906770423054695129e-02,7.859959453344345093e-02,-3.844603151082992554e-02,1.089035272598266602e-01
