-2.592490240931510925e-02,1.737835444509983063e-02,2.411304041743278503e-02,3.177125006914138794e-02,3.765099868178367615e-02,1.087477151304483414e-02,2.458869293332099915e-02,1.744914054870605469e-02,1.101868785917758942e-02,3.403904289007186890e-02
-2.592490240931510925e-02,1.737835444509983063e-02,2.411304041743278503e-02,3.177125006914138794e-02,3.765099868178367615e-02,1.087477151304483414e-02,2.458869293332099915e-02,1.744914054870605469e-02,1.101868785917758942e-02,3.403904289007186890e-02
-2.632619440555572510e-02,1.775643974542617798e-02,2.239140495657920837e-02,3.274533525109291077e-02,3.742780536413192749e-02,1.096015423536300659e-02,2.467261441051959991e-02,1.846671849489212036e-02,1.096105948090553284e-02,3.379835560917854309e-02
-2.632619440555572510e-02,1.775643974542617798e-02,2.239140495657920837e-02,3.274533525109291077e-02,3.742780536413192749e-02,1.096015423536300659e-02,2.467261441051959991e-02,1.846671849489212036e-02,1.096105948090553284e-02,3.379835560917854309e-02
-2.578508295118808746e-02,1.831829734146595001e-02,2.265049889683723450e-02,3.199615702033042908e-02,3.621521964669227600e-02,1.197959110140800476e-02,2.584014274179935455e-02,2.023554034531116486e-02,1.083937846124172211e-02,3.124163858592510223e-02
-2.578508295118808746e-02,1.831829734146595001e-02,2.265049889683723450e-02,3.199615702033042908e-02,3.621521964669227600e-02,1.197959110140800476e-02,2.584014274179935455e-02,2.023554034531116486e-02,1.083937846124172211e-02,3.124163858592510223e-02
-2.596656419336795807e-02,1.826838403940200806e-02,2.349779941141605377e-02,3.240907192230224609e-02,3.587758541107177734e-02,1.134569384157657623e-02,2.750253677368164062e-02,1.919989287853240967e-02,1.096447370946407318e-02,3.042406775057315826e-02
-2.596656419336795807e-02,1.826838403940200806e-02,2.349779941141605377e-02,3.240907192230224609e-02,3.587758541107177734e-02,1.134569384157657623e-02,2.750253677368164062e-02,1.919989287853240967e-02,1.096447370946407318e-02,3.042406775057315826e-02
-2.774778939783573151e-02,1.774642802774906158e-02,2.394209802150726318e-02,3.420569747686386108e-02,3.529012948274612427e-02,1.118754874914884567e-02,2.651294693350791931e-02,1.961185596883296967e-02,1.143115293234586716e-02,3.102868422865867615e-02
-2.774778939783573151e-02,1.774642802774906158e-02,2.394209802150726318e-02,3.420569747686386108e-02,3.529012948274612427e-02,1.118754874914884567e-02,2.651294693350791931e-02,1.961185596883296967e-02,1.143115293234586716e-02,3.102868422865867615e-02
-2.868697792291641235e-02,1.705111749470233917e-02,2.250827476382255554e-02,3.592928498983383179e-02,3.457631543278694153e-02,1.252627931535243988e-02,2.622222527861595154e-02,2.034637518227100372e-02,1.142162270843982697e-02,3.118795529007911682e-02
-2.868697792291641235e-02,1.705111749470233917e-02,2.250827476382255554e-02,3.592928498983383179e-02,3.457631543278694153e-02,1.252627931535243988e-02,2.622222527861595154e-02,2.034637518227100372e-02,1.142162270843982697e-02,3.118795529007911682e-02
-2.770073898136615753e-02,1.756801642477512360e-02,2.302299067378044128e-02,3.635684773325920105e-02,3.421025350689888000e-02,1.375806052237749100e-02,2.617602981626987457e-02,1.967772096395492554e-02,9.727108292281627655e-03,3.039434738457202911e-02
-2.770073898136615753e-02,1.756801642477512360e-02,2.302299067378044128e-02,3.635684773325920105e-02,3.421025350689888000e-02,1.375806052237749100e-02,2.617602981626987457e-02,1.967772096395492554e-02,9.727108292281627655e-03,3.039434738457202911e-02
-2.788623422384262085e-02,1.613247208297252655e-02,2.387912943959236145e-02,3.732817247509956360e-02,3.342324867844581604e-02,1.335826050490140915e-02,2.639763988554477692e-02,1.930019631981849670e-02,1.090537011623382568e-02,3.028977289795875549e-02
-2.788623422384262085e-02,1.613247208297252655e-02,2.387912943959236145e-02,3.732817247509956360e-02,3.342324867844581604e-02,1.335826050490140915e-02,2.639763988554477692e-02,1.930019631981849670e-02,1.090537011623382568e-02,3.028977289795875549e-02
-2.827916480600833893e-02,1.581007428467273712e-02,2.380979433655738831e-02,3.818947449326515198e-02,3.269734606146812439e-02,1.377819944173097610e-02,2.732877619564533234e-02,1.824490725994110107e-02,1.166380103677511215e-02,2.982485853135585785e-02
-2.827916480600833893e-02,1.581007428467273712e-02,2.380979433655738831e-02,3.818947449326515198e-02,3.269734606146812439e-02,1.377819944173097610e-02,2.732877619564533234e-02,1.824490725994110107e-02,1.166380103677511215e-02,2.982485853135585785e-02
-2.939242310822010040e-02,1.549193169921636581e-02,2.525719627737998962e-02,3.877394646406173706e-02,3.076204471290111542e-02,1.451692730188369751e-02,2.758647315204143524e-02,1.783147454261779785e-02,1.263060234487056732e-02,2.955301105976104736e-02
-2.939242310822010040e-02,1.549193169921636581e-02,2.525719627737998962e-02,3.877394646406173706e-02,3.076204471290111542e-02,1.451692730188369751e-02,2.758647315204143524e-02,1.783147454261779785e-02,1.263060234487056732e-02,2.955301105976104736e-02
-2.996595203876495361e-02,1.479766145348548889e-02,2.696127630770206451e-02,3.956188261508941650e-02,2.881705015897750854e-02,1.525437273085117340e-02,2.744399197399616241e-02,1.892335899174213409e-02,1.243413705378770828e-02,2.877200208604335785e-02
-2.996595203876495361e-02,1.479766145348548889e-02,2.696127630770206451e-02,3.956188261508941650e-02,2.881705015897750854e-02,1.525437273085117340e-02,2.744399197399616241e-02,1.892335899174213409e-02,1.243413705378770828e-02,2.877200208604335785e-02
-3.050030395388603210e-02,1.362146064639091492e-02,2.781425230205059052e-02,4.105534404516220093e-02,2.796941250562667847e-02,1.578739471733570099e-02,2.741524763405323029e-02,1.950395479798316956e-02,1.114771328866481781e-02,2.907541580498218536e-02
-3.050030395388603210e-02,1.362146064639091492e-02,2.781425230205059052e-02,4.105534404516220093e-02,2.796941250562667847e-02,1.578739471733570099e-02,2.741524763405323029e-02,1.950395479798316956e-02,1.114771328866481781e-02,2.907541580498218536e-02
-3.059839643537998199e-02,1.117469836026430130e-02,2.928012050688266754e-02,4.179327562451362610e-02,2.864488586783409119e-02,1.683354377746582031e-02,2.900262549519538879e-02,1.857924833893775940e-02,8.244455792009830475e-03,2.979505248367786407e-02
-3.059839643537998199e-02,1.117469836026430130e-02,2.928012050688266754e-02,4.179327562451362610e-02,2.864488586783409119e-02,1.683354377746582031e-02,2.900262549519538879e-02,1.857924833893775940e-02,8.244455792009830475e-03,2.979505248367786407e-02
-3.168248757719993591e-02,7.039250340312719345e-03,3.017020598053932190e-02,4.248332232236862183e-02,2.908503077924251556e-02,1.825441420078277588e-02,2.881647832691669464e-02,1.929573900997638702e-02,7.128675002604722977e-03,3.215530514717102051e-02
-3.168248757719993591e-02,7.039250340312719345e-03,3.017020598053932190e-02,4.248332232236862183e-02,2.908503077924251556e-02,1.825441420078277588e-02,2.881647832691669464e-02,1.929573900997638702e-02,7.128675002604722977e-03,3.215530514717102051e-02
-3.143808245658874512e-02,4.358946811407804489e-03,3.093286976218223572e-02,4.331289976835250854e-02,2.935501001775264740e-02,1.885599270462989807e-02,2.797065861523151398e-02,1.898073405027389526e-02,7.323053665459156036e-03,3.313086181879043579e-02
-3.143808245658874512e-02,4.358946811407804489e-03,3.093286976218223572e-02,4.331289976835250854e-02,2.935501001775264740e-02,1.885599270462989807e-02,2.797065861523151398e-02,1.898073405027389526e-02,7.323053665459156036e-03,3.313086181879043579e-02
-3.130926564335823059e-02,2.336293924599885941e-03,3.075292520225048065e-02,4.503972083330154419e-02,2.985936030745506287e-02,1.960523426532745361e-02,2.682667970657348633e-02,1.891196146607398987e-02,7.261796388775110245e-03,3.348792344331741333e-02
-3.130926564335823059e-02,2.336293924599885941e-03,3.075292520225048065e-02,4.503972083330154419e-02,2.985936030745506287e-02,1.960523426532745361e-02,2.682667970657348633e-02,1.891196146607398987e-02,7.261796388775110245e-03,3.348792344331741333e-02
-3.450734540820121765e-02,1.259895041584968567e-03,2.984378300607204437e-02,4.598879441618919373e-02,3.063256479799747467e-02,2.026438526809215546e-02,2.757315151393413544e-02,1.975610479712486267e-02,5.917727481573820114e-03,3.585472702980041504e-02
-3.450734540820121765e-02,1.259895041584968567e-03,2.984378300607204437e-02,4.598879441618919373e-02,3.063256479799747467e-02,2.026438526809215546e-02,2.757315151393413544e-02,1.975610479712486267e-02,5.917727481573820114e-03,3.585472702980041504e-02
-3.817069157958030701e-02,8.217054710257798433e-05,2.932379767298698425e-02,4.695543274283409119e-02,3.142283111810684204e-02,2.037414722144603729e-02,2.835757099092006683e-02,2.093194611370563507e-02,4.880235064774751663e-03,3.826342523097991943e-02
-3.817069157958030701e-02,8.217054710257798433e-05,2.932379767298698425e-02,4.695543274283409119e-02,3.142283111810684204e-02,2.037414722144603729e-02,2.835757099092006683e-02,2.093194611370563507e-02,4.880235064774751663e-03,3.826342523097991943e-02
-3.855141997337341309e-02,-3.692401340231299400e-03,2.931413613259792328e-02,4.578786343336105347e-02,3.284549713134765625e-02,2.123062126338481903e-02,2.962158434092998505e-02,2.137065678834915161e-02,5.267136730253696442e-03,3.948378935456275940e-02
-3.855141997337341309e-02,-3.692401340231299400e-03,2.931413613259792328e-02,4.578786343336105347e-02,3.284549713134765625e-02,2.123062126338481903e-02,2.962158434092998505e-02,2.137065678834915161e-02,5.267136730253696442e-03,3.948378935456275940e-02
-3.868006914854049683e-02,-6.380548700690269470e-03,2.906353771686553955e-02,4.701773449778556824e-02,3.347755596041679382e-02,2.259394526481628418e-02,2.977197244763374329e-02,2.145236544311046600e-02,5.393687169998884201e-03,3.912348300218582153e-02
-3.868006914854049683e-02,-6.380548700690269470e-03,2.906353771686553955e-02,4.701773449778556824e-02,3.347755596041679382e-02,2.259394526481628418e-02,2.977197244763374329e-02,2.145236544311046600e-02,5.393687169998884201e-03,3.912348300218582153e-02
-3.884776309132575989e-02,-1.007563155144453049e-02,2.934984490275382996e-02,4.928892850875854492e-02,3.279927745461463928e-02,2.537281252443790436e-02,2.853850647807121277e-02,2.199344709515571594e-02,6.460457574576139450e-03,3.828450664877891541e-02
-3.884776309132575989e-02,-1.007563155144453049e-02,2.934984490275382996e-02,4.928892850875854492e-02,3.279927745461463928e-02,2.537281252443790436e-02,2.853850647807121277e-02,2.199344709515571594e-02,6.460457574576139450e-03,3.828450664877891541e-02
-4.064061120152473450e-02,-1.169374864548444748e-02,2.932110242545604706e-02,5.045902729034423828e-02,3.218322247266769409e-02,2.730055153369903564e-02,2.854045666754245758e-02,2.233343757688999176e-02,8.085224777460098267e-03,3.747585415840148926e-02
-4.064061120152473450e-02,-1.169374864548444748e-02,2.932110242545604706e-02,5.045902729034423828e-02,3.218322247266769409e-02,2.730055153369903564e-02,2.854045666754245758e-02,2.233343757688999176e-02,8.085224777460098267e-03,3.747585415840148926e-02
-4.190704599022865295e-02,-1.268036011606454849e-02,2.720411680638790131e-02,5.172760039567947388e-02,3.248659521341323853e-02,2.911624871194362640e-02,2.830295823514461517e-02,2.281164005398750305e-02,8.219173178076744080e-03,3.816752135753631592e-02
-4.190704599022865295e-02,-1.268036011606454849e-02,2.720411680638790131e-02,5.172760039567947388e-02,3.248659521341323853e-02,2.911624871194362640e-02,2.830295823514461517e-02,2.281164005398750305e-02,8.219173178076744080e-03,3.816752135753631592e-02
-4.349498823285102844e-02,-1.482585351914167404e-02,2.602657116949558258e-02,5.328195914626121521e-02,3.375763073563575745e-02,3.153884783387184143e-02,2.637877501547336578e-02,2.392176352441310883e-02,9.461678564548492432e-03,3.761952742934226990e-02
-4.349498823285102844e-02,-1.482585351914167404e-02,2.602657116949558258e-02,5.328195914626121521e-02,3.375763073563575745e-02,3.153884783387184143e-02,2.637877501547336578e-02,2.392176352441310883e-02,9.461678564548492432e-03,3.761952742934226990e-02
-4.370046406984329224e-02,-1.842294260859489441e-02,2.641368843615055084e-02,5.532077699899673462e-02,3.340972214937210083e-02,3.424660861492156982e-02,2.468675374984741211e-02,2.456998638808727264e-02,1.059259567409753799e-02,3.678646683692932129e-02
-4.370046406984329224e-02,-1.842294260859489441e-02,2.641368843615055084e-02,5.532077699899673462e-02,3.340972214937210083e-02,3.424660861492156982e-02,2.468675374984741211e-02,2.456998638808727264e-02,1.059259567409753799e-02,3.678646683692932129e-02
-4.407630115747451782e-02,-2.064341120421886444e-02,2.532402984797954559e-02,5.643824487924575806e-02,3.266886994242668152e-02,3.680972754955291748e-02,2.333837747573852539e-02,2.640408277511596680e-02,1.133486535400152206e-02,3.649615123867988586e-02
-4.407630115747451782e-02,-2.064341120421886444e-02,2.532402984797954559e-02,5.643824487924575806e-02,3.266886994242668152e-02,3.680972754955291748e-02,2.333837747573852539e-02,2.640408277511596680e-02,1.133486535400152206e-02,3.649615123867988586e-02
-4.598185792565345764e-02,-2.266735024750232697e-02,2.321896888315677643e-02,5.935658887028694153e-02,3.209515661001205444e-02,3.943075239658355713e-02,2.081532217562198639e-02,2.808753401041030884e-02,1.241980865597724915e-02,3.741298615932464600e-02
-4.598185792565345764e-02,-2.266735024750232697e-02,2.321896888315677643e-02,5.935658887028694153e-02,3.209515661001205444e-02,3.943075239658355713e-02,2.081532217562198639e-02,2.808753401041030884e-02,1.241980865597724915e-02,3.741298615932464600e-02
-4.690008610486984253e-02,-2.484667673707008362e-02,2.259268052875995636e-02,6.109638884663581848e-02,3.103066980838775635e-02,4.110947623848915100e-02,2.018787339329719543e-02,2.834434062242507935e-02,1.351496856659650803e-02,3.809938207268714905e-02
-4.690008610486984253e-02,-2.484667673707008362e-02,2.259268052875995636e-02,6.109638884663581848e-02,3.103066980838775635e-02,4.110947623848915100e-02,2.018787339329719543e-02,2.834434062242507935e-02,1.351496856659650803e-02,3.809938207268714905e-02
-4.718642309308052063e-02,-2.835584431886672974e-02,2.202815003693103790e-02,6.002646312117576599e-02,3.107832930982112885e-02,4.364819079637527466e-02,1.996411941945552826e-02,2.951085940003395081e-02,1.543577108532190323e-02,3.834465146064758301e-02
-4.718642309308052063e-02,-2.835584431886672974e-02,2.202815003693103790e-02,6.002646312117576599e-02,3.107832930982112885e-02,4.364819079637527466e-02,1.996411941945552826e-02,2.951085940003395081e-02,1.543577108532190323e-02,3.834465146064758301e-02
-4.784062877297401428e-02,-3.161277249455451965e-02,2.228408865630626678e-02,6.236111000180244446e-02,3.277716413140296936e-02,4.522129893302917480e-02,1.703031733632087708e-02,3.094350732862949371e-02,1.730240695178508759e-02,3.608480468392372131e-02
-4.784062877297401428e-02,-3.161277249455451965e-02,2.228408865630626678e-02,6.236111000180244446e-02,3.277716413140296936e-02,4.522129893302917480e-02,1.703031733632087708e-02,3.094350732862949371e-02,1.730240695178508759e-02,3.608480468392372131e-02
-4.691387712955474854e-02,-3.430427238345146179e-02,2.027651108801364899e-02,6.333357840776443481e-02,3.379036486148834229e-02,4.672722145915031433e-02,1.567092724144458771e-02,3.245498239994049072e-02,1.802618801593780518e-02,3.555316850543022156e-02
-4.691387712955474854e-02,-3.430427238345146179e-02,2.027651108801364899e-02,6.333357840776443481e-02,3.379036486148834229e-02,4.672722145915031433e-02,1.567092724144458771e-02,3.245498239994049072e-02,1.802618801593780518e-02,3.555316850543022156e-02
-4.649095982313156128e-02,-3.803157061338424683e-02,1.963802799582481384e-02,6.340228021144866943e-02,3.260153532028198242e-02,4.782014712691307068e-02,1.619803346693515778e-02,3.420380130410194397e-02,1.899609342217445374e-02,3.637441247701644897e-02
-4.649095982313156128e-02,-3.803157061338424683e-02,1.963802799582481384e-02,6.340228021144866943e-02,3.260153532028198242e-02,4.782014712691307068e-02,1.619803346693515778e-02,3.420380130410194397e-02,1.899609342217445374e-02,3.637441247701644897e-02
-4.687722772359848022e-02,-4.107883200049400330e-02,2.037202939391136169e-02,6.547129154205322266e-02,3.298931568861007690e-02,4.934901371598243713e-02,1.640616916120052338e-02,3.381842374801635742e-02,1.719636283814907074e-02,3.719865530729293823e-02
-4.687722772359848022e-02,-4.107883200049400330e-02,2.037202939391136169e-02,6.547129154205322266e-02,3.298931568861007690e-02,4.934901371598243713e-02,1.640616916120052338e-02,3.381842374801635742e-02,1.719636283814907074e-02,3.719865530729293823e-02
-4.885714501142501831e-02,-4.346179589629173279e-02,2.024735510349273682e-02,6.709118932485580444e-02,3.431597724556922913e-02,5.037088692188262939e-02,1.711491309106349945e-02,3.314883261919021606e-02,1.708178408443927765e-02,3.798053041100502014e-02
-4.885714501142501831e-02,-4.346179589629173279e-02,2.024735510349273682e-02,6.709118932485580444e-02,3.431597724556922913e-02,5.037088692188262939e-02,1.711491309106349945e-02,3.314883261919021606e-02,1.708178408443927765e-02,3.798053041100502014e-02
-5.163251608610153198e-02,-4.656702280044555664e-02,1.995482854545116425e-02,6.913720071315765381e-02,3.540421277284622192e-02,5.209145694971084595e-02,1.598482206463813782e-02,3.280231356620788574e-02,1.880626566708087921e-02,3.923375904560089111e-02
-5.163251608610153198e-02,-4.656702280044555664e-02,1.995482854545116425e-02,6.913720071315765381e-02,3.540421277284622192e-02,5.209145694971084595e-02,1.598482206463813782e-02,3.280231356620788574e-02,1.880626566708087921e-02,3.923375904560089111e-02
-5.128150805830955505e-02,-4.864840954542160034e-02,1.979588717222213745e-02,6.923777610063552856e-02,3.685772046446800232e-02,5.409427732229232788e-02,1.325600221753120422e-02,3.264372050762176514e-02,2.061858400702476501e-02,3.870087862014770508e-02
-5.128150805830955505e-02,-4.864840954542160034e-02,1.979588717222213745e-02,6.923777610063552856e-02,3.685772046446800232e-02,5.409427732229232788e-02,1.325600221753120422e-02,3.264372050762176514e-02,2.061858400702476501e-02,3.870087862014770508e-02
-5.257291719317436218e-02,-5.075791478157043457e-02,2.018542215228080750e-02,7.063826918601989746e-02,3.698822483420372009e-02,5.635603889822959900e-02,1.163124106824398041e-02,3.289200738072395325e-02,2.079332619905471802e-02,3.919313848018646240e-02
-5.257291719317436218e-02,-5.075791478157043457e-02,2.018542215228080750e-02,7.063826918601989746e-02,3.698822483420372009e-02,5.635603889822959900e-02,1.163124106824398041e-02,3.289200738072395325e-02,2.079332619905471802e-02,3.919313848018646240e-02
-5.410462990403175354e-02,-5.209069326519966125e-02,2.006303146481513977e-02,7.177869230508804321e-02,3.621075302362442017e-02,5.855130031704902649e-02,8.598781190812587738e-03,3.322448953986167908e-02,2.253825217485427856e-02,4.053986072540283203e-02
-5.410462990403175354e-02,-5.209069326519966125e-02,2.006303146481513977e-02,7.177869230508804321e-02,3.621075302362442017e-02,5.855130031704902649e-02,8.598781190812587738e-03,3.322448953986167908e-02,2.253825217485427856e-02,4.053986072540283203e-02
-5.671678110957145691e-02,-4.937341064214706421e-02,1.703244075179100037e-02,7.211654633283615112e-02,3.709131106734275818e-02,6.112023442983627319e-02,6.477096118032932281e-03,3.323360532522201538e-02,2.284572087228298187e-02,4.154365137219429016e-02
-5.671678110957145691e-02,-4.937341064214706421e-02,1.703244075179100037e-02,7.211654633283615112e-02,3.709131106734275818e-02,6.112023442983627319e-02,6.477096118032932281e-03,3.323360532522201538e-02,2.284572087228298187e-02,4.154365137219429016e-02
-5.768263712525367737e-02,-4.874919727444648743e-02,1.646565087139606476e-02,7.154094427824020386e-02,3.731438517570495605e-02,6.301702558994293213e-02,4.917984828352928162e-03,3.411831706762313843e-02,2.337564155459403992e-02,4.106464982032775879e-02
-5.768263712525367737e-02,-4.874919727444648743e-02,1.646565087139606476e-02,7.154094427824020386e-02,3.731438517570495605e-02,6.301702558994293213e-02,4.917984828352928162e-03,3.411831706762313843e-02,2.337564155459403992e-02,4.106464982032775879e-02
-5.919259786605834961e-02,-5.042643845081329346e-02,1.692526228725910187e-02,7.132995128631591797e-02,3.698941320180892944e-02,6.488685309886932373e-02,4.607909824699163437e-03,3.464211151003837585e-02,2.314716950058937073e-02,4.255576059222221375e-02
-5.919259786605834961e-02,-5.042643845081329346e-02,1.692526228725910187e-02,7.132995128631591797e-02,3.698941320180892944e-02,6.488685309886932373e-02,4.607909824699163437e-03,3.464211151003837585e-02,2.314716950058937073e-02,4.255576059222221375e-02
-6.016923487186431885e-02,-5.221747979521751404e-02,1.851411350071430206e-02,7.050451636314392090e-02,3.901754319667816162e-02,6.599118560552597046e-02,4.690540023148059845e-03,3.475085273385047913e-02,2.046299539506435394e-02,4.412678629159927368e-02
-6.016923487186431885e-02,-5.221747979521751404e-02,1.851411350071430206e-02,7.050451636314392090e-02,3.901754319667816162e-02,6.599118560552597046e-02,4.690540023148059845e-03,3.475085273385047913e-02,2.046299539506435394e-02,4.412678629159927368e-02
-6.018638238310813904e-02,-5.540718138217926025e-02,1.943480037152767181e-02,6.956569105386734009e-02,3.865420445799827576e-02,6.725244969129562378e-02,4.779474344104528427e-03,3.604323416948318481e-02,2.184471860527992249e-02,4.369479045271873474e-02
-6.018638238310813904e-02,-5.540718138217926025e-02,1.943480037152767181e-02,6.956569105386734009e-02,3.865420445799827576e-02,6.725244969129562378e-02,4.779474344104528427e-03,3.604323416948318481e-02,2.184471860527992249e-02,4.369479045271873474e-02
-6.018969789147377014e-02,-5.748425796627998352e-02,1.736705377697944641e-02,7.071374356746673584e-02,3.722563758492469788e-02,6.904111057519912720e-02,4.219796508550643921e-03,3.612570464611053467e-02,2.472717873752117157e-02,4.379929229617118835e-02
-6.018969789147377014e-02,-5.748425796627998352e-02,1.736705377697944641e-02,7.071374356746673584e-02,3.722563758492469788e-02,6.904111057519912720e-02,4.219796508550643921e-03,3.612570464611053467e-02,2.472717873752117157e-02,4.379929229617118835e-02
-6.191677600145339966e-02,-6.010291352868080139e-02,1.740775629878044128e-02,7.247663289308547974e-02,3.630045428872108459e-02,7.242563366889953613e-02,2.016271697357296944e-03,3.663032129406929016e-02,2.480356395244598389e-02,4.546146839857101440e-02
-6.191677600145339966e-02,-6.010291352868080139e-02,1.740775629878044128e-02,7.247663289308547974e-02,3.630045428872108459e-02,7.242563366889953613e-02,2.016271697357296944e-03,3.663032129406929016e-02,2.480356395244598389e-02,4.546146839857101440e-02
-5.934759601950645447e-02,-6.142536923289299011e-02,1.744895614683628082e-02,7.297825068235397339e-02,3.413595259189605713e-02,7.419200241565704346e-02,-1.041623880155384541e-03,3.933867067098617554e-02,2.467235364019870758e-02,4.438147321343421936e-02
-5.934759601950645447e-02,-6.142536923289299011e-02,1.744895614683628082e-02,7.297825068235397339e-02,3.413595259189605713e-02,7.419200241565704346e-02,-1.041623880155384541e-03,3.933867067098617554e-02,2.467235364019870758e-02,4.438147321343421936e-02
-6.025201827287673950e-02,-6.450466066598892212e-02,1.812406256794929504e-02,7.406689226627349854e-02,3.317392244935035706e-02,7.596448063850402832e-02,-2.359051723033189774e-03,4.087419807910919189e-02,2.520988881587982178e-02,4.499216377735137939e-02
-6.025201827287673950e-02,-6.450466066598892212e-02,1.812406256794929504e-02,7.406689226627349854e-02,3.317392244935035706e-02,7.596448063850402832e-02,-2.359051723033189774e-03,4.087419807910919189e-02,2.520988881587982178e-02,4.499216377735137939e-02
-6.129536777734756470e-02,-6.584883481264114380e-02,1.717925444245338440e-02,7.539397478103637695e-02,3.328159078955650330e-02,7.785055786371231079e-02,-3.823701990768313408e-03,3.932264447212219238e-02,2.755646593868732452e-02,4.554622620344161987e-02
-6.129536777734756470e-02,-6.584883481264114380e-02,1.717925444245338440e-02,7.539397478103637695e-02,3.328159078955650330e-02,7.785055786371231079e-02,-3.823701990768313408e-03,3.932264447212219238e-02,2.755646593868732452e-02,4.554622620344161987e-02
-6.362004578113555908e-02,-6.872261315584182739e-02,1.822421327233314514e-02,7.525698095560073853e-02,3.506730124354362488e-02,7.927954941987991333e-02,-3.463004948571324348e-03,3.881569579243659973e-02,2.719873189926147461e-02,4.733056202530860901e-02
-6.362004578113555908e-02,-6.872261315584182739e-02,1.822421327233314514e-02,7.525698095560073853e-02,3.506730124354362488e-02,7.927954941987991333e-02,-3.463004948571324348e-03,3.881569579243659973e-02,2.719873189926147461e-02,4.733056202530860901e-02
-6.359576433897018433e-02,-6.834166496992111206e-02,1.692791283130645752e-02,7.467365264892578125e-02,3.622390702366828918e-02,7.958029955625534058e-02,-2.086225431412458420e-03,3.734758496284484863e-02,2.820260450243949890e-02,4.638705402612686157e-02
-6.359576433897018433e-02,-6.834166496992111206e-02,1.692791283130645752e-02,7.467365264892578125e-02,3.622390702366828918e-02,7.958029955625534058e-02,-2.086225431412458420e-03,3.734758496284484863e-02,2.820260450243949890e-02,4.638705402612686157e-02
