-7.060564588755369186e-03,-1.040090713649988174e-02,-2.912222966551780701e-02,2.035208977758884430e-02,2.344427630305290222e-02,2.043971419334411621e-02,2.802557870745658875e-02,1.970192790031433105e-02,-3.674566745758056641e-03,4.503153637051582336e-02
-7.060564588755369186e-03,-1.040090713649988174e-02,-2.912222966551780701e-02,2.035208977758884430e-02,2.344427630305290222e-02,2.043971419334411621e-02,2.802557870745658875e-02,1.970192790031433105e-02,-3.674566745758056641e-03,4.503153637051582336e-02
-2.882487839087843895e-03,-4.662391263991594315e-03,-2.144716307520866394e-02,1.567229256033897400e-02,2.926669269800186157e-02,1.116928923875093460e-02,1.924449019134044647e-02,2.115843445062637329e-02,-2.782621188089251518e-03,4.236276820302009583e-02
-2.882487839087843895e-03,-4.662391263991594315e-03,-2.144716307520866394e-02,1.567229256033897400e-02,2.926669269800186157e-02,1.116928923875093460e-02,1.924449019134044647e-02,2.115843445062637329e-02,-2.782621188089251518e-03,4.236276820302009583e-02
-2.752149943262338638e-03,5.138991866260766983e-03,-1.980904489755630493e-02,1.452697627246379852e-02,3.140342980623245239e-02,7.139620371162891388e-03,1.431460864841938019e-02,2.141194045543670654e-02,-4.100917372852563858e-03,4.168928787112236023e-02
-2.752149943262338638e-03,5.138991866260766983e-03,-1.980904489755630493e-02,1.452697627246379852e-02,3.140342980623245239e-02,7.139620371162891388e-03,1.431460864841938019e-02,2.141194045543670654e-02,-4.100917372852563858e-03,4.168928787112236023e-02
-4.305610782466828823e-04,1.190837658941745758e-02,-1.957739703357219696e-02,1.145699620246887207e-02,3.410165756940841675e-02,5.698860157281160355e-03,1.190074160695075989e-02,2.230576984584331512e-02,-6.609032861888408661e-03,4.089783132076263428e-02
-4.305610782466828823e-04,1.190837658941745758e-02,-1.957739703357219696e-02,1.145699620246887207e-02,3.410165756940841675e-02,5.698860157281160355e-03,1.190074160695075989e-02,2.230576984584331512e-02,-6.609032861888408661e-03,4.089783132076263428e-02
-9.450613288208842278e-04,1.862378977239131927e-02,-2.047169581055641174e-02,1.113013830035924911e-02,3.516400605440139771e-02,5.693262442946434021e-03,9.318049065768718719e-03,2.400965429842472076e-02,-9.326891042292118073e-03,4.035703092813491821e-02
-9.450613288208842278e-04,1.862378977239131927e-02,-2.047169581055641174e-02,1.113013830035924911e-02,3.516400605440139771e-02,5.693262442946434021e-03,9.318049065768718719e-03,2.400965429842472076e-02,-9.326891042292118073e-03,4.035703092813491821e-02
-1.411375589668750763e-03,2.055613882839679718e-02,-1.938948966562747955e-02,1.039027050137519836e-02,3.575639426708221436e-02,6.418686825782060623e-03,8.276778273284435272e-03,2.655046246945858002e-02,-1.379426475614309311e-02,4.084908962249755859e-02
-1.411375589668750763e-03,2.055613882839679718e-02,-1.938948966562747955e-02,1.039027050137519836e-02,3.575639426708221436e-02,6.418686825782060623e-03,8.276778273284435272e-03,2.655046246945858002e-02,-1.379426475614309311e-02,4.084908962249755859e-02
-6.628729752264916897e-04,2.557774819433689117e-02,-2.054613828659057617e-02,8.962051942944526672e-03,3.519900888204574585e-02,7.295489311218261719e-03,7.180599495768547058e-03,2.740118093788623810e-02,-1.543742604553699493e-02,4.145509377121925354e-02
-6.628729752264916897e-04,2.557774819433689117e-02,-2.054613828659057617e-02,8.962051942944526672e-03,3.519900888204574585e-02,7.295489311218261719e-03,7.180599495768547058e-03,2.740118093788623810e-02,-1.543742604553699493e-02,4.145509377121925354e-02
-1.246123109012842178e-03,2.972944639623165131e-02,-2.205546572804450989e-02,8.194732479751110077e-03,3.394269943237304688e-02,9.263926185667514801e-03,6.827375851571559906e-03,3.025274351239204407e-02,-1.791971549391746521e-02,4.117836803197860718e-02
-1.246123109012842178e-03,2.972944639623165131e-02,-2.205546572804450989e-02,8.194732479751110077e-03,3.394269943237304688e-02,9.263926185667514801e-03,6.827375851571559906e-03,3.025274351239204407e-02,-1.791971549391746521e-02,4.117836803197860718e-02
-9.778126841410994530e-04,3.177755326032638550e-02,-2.235658094286918640e-02,8.179780095815658569e-03,3.425624221563339233e-02,9.592146612703800201e-03,4.736208356916904449e-03,3.163810074329376221e-02,-2.031208574771881104e-02,4.215545952320098877e-02
-9.778126841410994530e-04,3.177755326032638550e-02,-2.235658094286918640e-02,8.179780095815658569e-03,3.425624221563339233e-02,9.592146612703800201e-03,4.736208356916904449e-03,3.163810074329376221e-02,-2.031208574771881104e-02,4.215545952320098877e-02
-6.975922733545303345e-04,3.338719531893730164e-02,-2.179216779768466949e-02,6.557120475918054581e-03,3.470072522759437561e-02,1.045813132077455521e-02,4.468534607440233231e-03,3.470237925648689270e-02,-2.257354930043220520e-02,4.062191396951675415e-02
-6.975922733545303345e-04,3.338719531893730164e-02,-2.179216779768466949e-02,6.557120475918054581e-03,3.470072522759437561e-02,1.045813132077455521e-02,4.468534607440233231e-03,3.470237925648689270e-02,-2.257354930043220520e-02,4.062191396951675415e-02
-1.404972397722303867e-03,3.879245370626449585e-02,-2.197236754000186920e-02,6.200903560966253281e-03,3.303863480687141418e-02,1.192399300634860992e-02,3.993418533354997635e-03,3.589287027716636658e-02,-2.558035776019096375e-02,4.103054478764533997e-02
-1.404972397722303867e-03,3.879245370626449585e-02,-2.197236754000186920e-02,6.200903560966253281e-03,3.303863480687141418e-02,1.192399300634860992e-02,3.993418533354997635e-03,3.589287027716636658e-02,-2.558035776019096375e-02,4.103054478764533997e-02
-1.754251425154507160e-03,3.960039839148521423e-02,-2.321089431643486023e-02,6.113142706453800201e-03,3.379778191447257996e-02,1.392652466893196106e-02,1.999231521040201187e-03,3.946610540151596069e-02,-2.854872681200504303e-02,4.052552208304405212e-02
-1.754251425154507160e-03,3.960039839148521423e-02,-2.321089431643486023e-02,6.113142706453800201e-03,3.379778191447257996e-02,1.392652466893196106e-02,1.999231521040201187e-03,3.946610540151596069e-02,-2.854872681200504303e-02,4.052552208304405212e-02
-2.201398368924856186e-03,4.178453981876373291e-02,-2.337052486836910248e-02,5.976419895887374878e-03,3.297241777181625366e-02,1.372187491506338120e-02,1.384855131618678570e-03,4.116955026984214783e-02,-2.858333848416805267e-02,3.964480757713317871e-02
-2.201398368924856186e-03,4.178453981876373291e-02,-2.337052486836910248e-02,5.976419895887374878e-03,3.297241777181625366e-02,1.372187491506338120e-02,1.384855131618678570e-03,4.116955026984214783e-02,-2.858333848416805267e-02,3.964480757713317871e-02
-1.855879323557019234e-03,4.300247877836227417e-02,-2.264346182346343994e-02,5.211282521486282349e-03,3.373487293720245361e-02,1.441680174320936203e-02,2.400134224444627762e-03,4.193268343806266785e-02,-3.293190151453018188e-02,4.050123319029808044e-02
-1.855879323557019234e-03,4.300247877836227417e-02,-2.264346182346343994e-02,5.211282521486282349e-03,3.373487293720245361e-02,1.441680174320936203e-02,2.400134224444627762e-03,4.193268343806266785e-02,-3.293190151453018188e-02,4.050123319029808044e-02
-2.850663149729371071e-03,4.445379972457885742e-02,-2.104530483484268188e-02,4.290509037673473358e-03,3.358289599418640137e-02,1.513884402811527252e-02,5.709467804990708828e-04,4.337651282548904419e-02,-3.439152985811233521e-02,4.026016220450401306e-02
-2.850663149729371071e-03,4.445379972457885742e-02,-2.104530483484268188e-02,4.290509037673473358e-03,3.358289599418640137e-02,1.513884402811527252e-02,5.709467804990708828e-04,4.337651282548904419e-02,-3.439152985811233521e-02,4.026016220450401306e-02
-5.965235177427530289e-04,4.287649691104888916e-02,-2.081755734980106354e-02,3.206792287528514862e-03,3.423079103231430054e-02,1.638546586036682129e-02,5.256140721030533314e-04,4.564783722162246704e-02,-3.634130954742431641e-02,3.868076950311660767e-02
-5.965235177427530289e-04,4.287649691104888916e-02,-2.081755734980106354e-02,3.206792287528514862e-03,3.423079103231430054e-02,1.638546586036682129e-02,5.256140721030533314e-04,4.564783722162246704e-02,-3.634130954742431641e-02,3.868076950311660767e-02
-2.669119043275713921e-03,4.582444578409194946e-02,-2.232588268816471100e-02,4.860770888626575470e-03,3.374731913208961487e-02,1.605710759758949280e-02,1.411698525771498680e-03,4.618276283144950867e-02,-3.666730970144271851e-02,3.835482150316238403e-02
-2.669119043275713921e-03,4.582444578409194946e-02,-2.232588268816471100e-02,4.860770888626575470e-03,3.374731913208961487e-02,1.605710759758949280e-02,1.411698525771498680e-03,4.618276283144950867e-02,-3.666730970144271851e-02,3.835482150316238403e-02
-3.028824226930737495e-03,4.667342081665992737e-02,-2.118438109755516052e-02,2.898398553952574730e-03,3.354451805353164673e-02,1.847112551331520081e-02,4.473303561098873615e-04,4.968295991420745850e-02,-3.986360132694244385e-02,3.729792311787605286e-02
-3.028824226930737495e-03,4.667342081665992737e-02,-2.118438109755516052e-02,2.898398553952574730e-03,3.354451805353164673e-02,1.847112551331520081e-02,4.473303561098873615e-04,4.968295991420745850e-02,-3.986360132694244385e-02,3.729792311787605286e-02
-3.262848360463976860e-03,4.997952282428741455e-02,-2.041313610970973969e-02,1.817895215936005116e-03,3.373533114790916443e-02,1.910783536732196808e-02,-2.393948525423184037e-04,4.841661825776100159e-02,-4.098208248615264893e-02,3.802097961306571960e-02
-3.262848360463976860e-03,4.997952282428741455e-02,-2.041313610970973969e-02,1.817895215936005116e-03,3.373533114790916443e-02,1.910783536732196808e-02,-2.393948525423184037e-04,4.841661825776100159e-02,-4.098208248615264893e-02,3.802097961306571960e-02
-3.720585023984313011e-03,4.979546740651130676e-02,-2.062144689261913300e-02,1.744249253533780575e-03,3.280936926603317261e-02,1.857095584273338318e-02,2.589864889159798622e-03,5.129064619541168213e-02,-4.177058860659599304e-02,3.641981631517410278e-02
-3.720585023984313011e-03,4.979546740651130676e-02,-2.062144689261913300e-02,1.744249253533780575e-03,3.280936926603317261e-02,1.857095584273338318e-02,2.589864889159798622e-03,5.129064619541168213e-02,-4.177058860659599304e-02,3.641981631517410278e-02
-3.526594722643494606e-03,5.093269050121307373e-02,-2.027213014662265778e-02,6.523128831759095192e-04,3.295967355370521545e-02,2.079278975725173950e-02,-5.259484169073402882e-04,5.265592783689498901e-02,-4.414220526814460754e-02,3.704967722296714783e-02
-3.526594722643494606e-03,5.093269050121307373e-02,-2.027213014662265778e-02,6.523128831759095192e-04,3.295967355370521545e-02,2.079278975725173950e-02,-5.259484169073402882e-04,5.265592783689498901e-02,-4.414220526814460754e-02,3.704967722296714783e-02
-3.464639419689774513e-03,5.228193104267120361e-02,-1.983626745641231537e-02,2.237743465229868889e-04,3.281006962060928345e-02,1.933420635759830475e-02,-3.308945160824805498e-04,5.307216197252273560e-02,-4.487216845154762268e-02,3.782087191939353943e-02
-3.464639419689774513e-03,5.228193104267120361e-02,-1.983626745641231537e-02,2.237743465229868889e-04,3.281006962060928345e-02,1.933420635759830475e-02,-3.308945160824805498e-04,5.307216197252273560e-02,-4.487216845154762268e-02,3.782087191939353943e-02
-2.949307905510067940e-03,5.379672348499298096e-02,-2.008435688912868500e-02,6.582499918295070529e-05,3.251947462558746338e-02,2.032409235835075378e-02,-3.102390037383884192e-04,5.416668206453323364e-02,-4.702326282858848572e-02,3.753402829170227051e-02
-2.949307905510067940e-03,5.379672348499298096e-02,-2.008435688912868500e-02,6.582499918295070529e-05,3.251947462558746338e-02,2.032409235835075378e-02,-3.102390037383884192e-04,5.416668206453323364e-02,-4.702326282858848572e-02,3.753402829170227051e-02
-2.542900154367089272e-03,5.459849536418914795e-02,-2.066973969340324402e-02,-2.856992068700492382e-04,3.195201978087425232e-02,2.113712392747402191e-02,-8.468284504488110542e-04,5.634654685854911804e-02,-4.768801853060722351e-02,3.650884702801704407e-02
-2.542900154367089272e-03,5.459849536418914795e-02,-2.066973969340324402e-02,-2.856992068700492382e-04,3.195201978087425232e-02,2.113712392747402191e-02,-8.468284504488110542e-04,5.634654685854911804e-02,-4.768801853060722351e-02,3.650884702801704407e-02
-5.179325584322214127e-03,5.449869111180305481e-02,-1.949919760227203369e-02,-2.129259228240698576e-04,3.108577430248260498e-02,2.166017889976501465e-02,3.279383818153291941e-04,5.809396505355834961e-02,-4.993654787540435791e-02,3.668313100934028625e-02
-5.179325584322214127e-03,5.449869111180305481e-02,-1.949919760227203369e-02,-2.129259228240698576e-04,3.108577430248260498e-02,2.166017889976501465e-02,3.279383818153291941e-04,5.809396505355834961e-02,-4.993654787540435791e-02,3.668313100934028625e-02
-4.500023555010557175e-03,5.528798699378967285e-02,-1.862107031047344208e-02,-1.587610691785812378e-03,2.996145188808441162e-02,2.461178600788116455e-02,-4.582939800457097590e-05,5.822752788662910461e-02,-5.107095092535018921e-02,3.600465133786201477e-02
-4.500023555010557175e-03,5.528798699378967285e-02,-1.862107031047344208e-02,-1.587610691785812378e-03,2.996145188808441162e-02,2.461178600788116455e-02,-4.582939800457097590e-05,5.822752788662910461e-02,-5.107095092535018921e-02,3.600465133786201477e-02
-3.836529562249779701e-03,5.787727609276771545e-02,-2.002274617552757263e-02,-2.890518226195126772e-04,3.116384521126747131e-02,2.323335036635398865e-02,-1.355799147859215736e-03,5.875718593597412109e-02,-5.216159671545028687e-02,3.586738184094429016e-02
-3.836529562249779701e-03,5.787727609276771545e-02,-2.002274617552757263e-02,-2.890518226195126772e-04,3.116384521126747131e-02,2.323335036635398865e-02,-1.355799147859215736e-03,5.875718593597412109e-02,-5.216159671545028687e-02,3.586738184094429016e-02
-5.530684720724821091e-03,5.683775618672370911e-02,-1.849434711039066315e-02,-2.361527178436517715e-03,3.075140528380870819e-02,2.414679527282714844e-02,8.498996030539274216e-04,6.107245385646820068e-02,-5.329098924994468689e-02,3.496035560965538025e-02
-5.530684720724821091e-03,5.683775618672370911e-02,-1.849434711039066315e-02,-2.361527178436517715e-03,3.075140528380870819e-02,2.414679527282714844e-02,8.498996030539274216e-04,6.107245385646820068e-02,-5.329098924994468689e-02,3.496035560965538025e-02
-6.636063102632761002e-03,6.071596965193748474e-02,-1.949751377105712891e-02,-5.782821099273860455e-04,3.092289343476295471e-02,2.433321997523307800e-02,4.998605581931769848e-04,6.067031621932983398e-02,-5.313164740800857544e-02,3.330463543534278870e-02
-6.636063102632761002e-03,6.071596965193748474e-02,-1.949751377105712891e-02,-5.782821099273860455e-04,3.092289343476295471e-02,2.433321997523307800e-02,4.998605581931769848e-04,6.067031621932983398e-02,-5.313164740800857544e-02,3.330463543534278870e-02
-5.280491430312395096e-03,5.832847952842712402e-02,-1.963829621672630310e-02,-1.563762198202311993e-03,3.118469193577766418e-02,2.601164020597934723e-02,1.626558718271553516e-03,6.114800646901130676e-02,-5.485271662473678589e-02,3.367228060960769653e-02
-5.280491430312395096e-03,5.832847952842712402e-02,-1.963829621672630310e-02,-1.563762198202311993e-03,3.118469193577766418e-02,2.601164020597934723e-02,1.626558718271553516e-03,6.114800646901130676e-02,-5.485271662473678589e-02,3.367228060960769653e-02
