3.546892106533050537e-02,-3.130785003304481506e-02,4.482577089220285416e-03,-4.536628723144531250e-03,-3.995030373334884644e-02,-3.437358886003494263e-02,-6.809327285736799240e-03,-5.596359260380268097e-03,6.712610274553298950e-02,1.900109648704528809e-02
3.546892106533050537e-02,-3.130785003304481506e-02,4.482577089220285416e-03,-4.536628723144531250e-03,-3.995030373334884644e-02,-3.437358886003494263e-02,-6.809327285736799240e-03,-5.596359260380268097e-03,6.712610274553298950e-02,1.900109648704528809e-02
3.169067576527595520e-02,-2.417444437742233276e-02,9.571608155965805054e-03,-9.263481013476848602e-03,-3.265160694718360901e-02,-4.323177412152290344e-02,-1.171554438769817352e-02,9.810078190639615059e-04,6.631753593683242798e-02,1.532605662941932678e-02
3.169067576527595520e-02,-2.417444437742233276e-02,9.571608155965805054e-03,-9.263481013476848602e-03,-3.265160694718360901e-02,-4.323177412152290344e-02,-1.171554438769817352e-02,9.810078190639615059e-04,6.631753593683242798e-02,1.532605662941932678e-02
3.170385956764221191e-02,-1.518180500715970993e-02,1.127099990844726562e-02,-9.914549067616462708e-03,-3.074104897677898407e-02,-4.990446940064430237e-02,-1.546418946236371994e-02,6.880397559143602848e-04,6.850609928369522095e-02,1.380646415054798126e-02
3.170385956764221191e-02,-1.518180500715970993e-02,1.127099990844726562e-02,-9.914549067616462708e-03,-3.074104897677898407e-02,-4.990446940064430237e-02,-1.546418946236371994e-02,6.880397559143602848e-04,6.850609928369522095e-02,1.380646415054798126e-02
3.204086422920227051e-02,-7.081278134137392044e-03,1.035554613918066025e-02,-1.056335587054491043e-02,-2.807583287358283997e-02,-5.497596040368080139e-02,-1.796592772006988525e-02,2.660671016201376915e-03,6.903424113988876343e-02,1.217282842844724655e-02
3.204086422920227051e-02,-7.081278134137392044e-03,1.035554613918066025e-02,-1.056335587054491043e-02,-2.807583287358283997e-02,-5.497596040368080139e-02,-1.796592772006988525e-02,2.660671016201376915e-03,6.903424113988876343e-02,1.217282842844724655e-02
3.251188620924949646e-02,6.337398663163185120e-04,8.408807218074798584e-03,-1.235077902674674988e-02,-2.610806934535503387e-02,-6.009751185774803162e-02,-1.942257955670356750e-02,4.190223291516304016e-03,7.136223465204238892e-02,1.170720625668764114e-02
3.251188620924949646e-02,6.337398663163185120e-04,8.408807218074798584e-03,-1.235077902674674988e-02,-2.610806934535503387e-02,-6.009751185774803162e-02,-1.942257955670356750e-02,4.190223291516304016e-03,7.136223465204238892e-02,1.170720625668764114e-02
3.433834388852119446e-02,7.728427182883024216e-03,8.751126006245613098e-03,-1.413826737552881241e-02,-2.559795416891574860e-02,-6.601594388484954834e-02,-2.203333377838134766e-02,5.597976967692375183e-03,7.318428903818130493e-02,1.234919764101505280e-02
3.433834388852119446e-02,7.728427182883024216e-03,8.751126006245613098e-03,-1.413826737552881241e-02,-2.559795416891574860e-02,-6.601594388484954834e-02,-2.203333377838134766e-02,5.597976967692375183e-03,7.318428903818130493e-02,1.234919764101505280e-02
3.657218441367149353e-02,1.441817544400691986e-02,7.565481588244438171e-03,-1.626415923237800598e-02,-2.499487996101379395e-02,-7.069434225559234619e-02,-2.379198186099529266e-02,6.299752742052078247e-03,7.507970929145812988e-02,1.347926538437604904e-02
3.657218441367149353e-02,1.441817544400691986e-02,7.565481588244438171e-03,-1.626415923237800598e-02,-2.499487996101379395e-02,-7.069434225559234619e-02,-2.379198186099529266e-02,6.299752742052078247e-03,7.507970929145812988e-02,1.347926538437604904e-02
3.861553221940994263e-02,2.067666128277778625e-02,5.727956537157297134e-03,-1.724574901163578033e-02,-2.545679360628128052e-02,-7.338973134756088257e-02,-2.391232922673225403e-02,8.095266297459602356e-03,7.457267493009567261e-02,1.391031965613365173e-02
3.861553221940994263e-02,2.067666128277778625e-02,5.727956537157297134e-03,-1.724574901163578033e-02,-2.545679360628128052e-02,-7.338973134756088257e-02,-2.391232922673225403e-02,8.095266297459602356e-03,7.457267493009567261e-02,1.391031965613365173e-02
3.981986641883850098e-02,2.587748691439628601e-02,6.320630665868520737e-03,-1.890132389962673187e-02,-2.528474666178226471e-02,-7.829022407531738281e-02,-2.521935291588306427e-02,1.064086612313985825e-02,7.548157125711441040e-02,1.408894080668687820e-02
3.981986641883850098e-02,2.587748691439628601e-02,6.320630665868520737e-03,-1.890132389962673187e-02,-2.528474666178226471e-02,-7.829022407531738281e-02,-2.521935291588306427e-02,1.064086612313985825e-02,7.548157125711441040e-02,1.408894080668687820e-02
4.192823171615600586e-02,3.077949024736881256e-02,5.777257494628429413e-03,-2.049373835325241089e-02,-2.533682063221931458e-02,-8.238114416599273682e-02,-2.548868395388126373e-02,1.058957539498806000e-02,7.703772932291030884e-02,1.534563023597002029e-02
4.192823171615600586e-02,3.077949024736881256e-02,5.777257494628429413e-03,-2.049373835325241089e-02,-2.533682063221931458e-02,-8.238114416599273682e-02,-2.548868395388126373e-02,1.058957539498806000e-02,7.703772932291030884e-02,1.534563023597002029e-02
4.397947713732719421e-02,3.818748891353607178e-02,4.832828417420387268e-03,-2.152556926012039185e-02,-2.644656784832477570e-02,-8.486238121986389160e-02,-2.658893540501594543e-02,1.115998812019824982e-02,7.685870677232742310e-02,1.637496799230575562e-02
4.397947713732719421e-02,3.818748891353607178e-02,4.832828417420387268e-03,-2.152556926012039185e-02,-2.644656784832477570e-02,-8.486238121986389160e-02,-2.658893540501594543e-02,1.115998812019824982e-02,7.685870677232742310e-02,1.637496799230575562e-02
4.563705995678901672e-02,4.054411128163337708e-02,3.967430908232927322e-03,-2.109757997095584869e-02,-2.554562687873840332e-02,-8.763890713453292847e-02,-2.814706414937973022e-02,1.277161017060279846e-02,7.633338123559951782e-02,1.688914932310581207e-02
4.563705995678901672e-02,4.054411128163337708e-02,3.967430908232927322e-03,-2.109757997095584869e-02,-2.554562687873840332e-02,-8.763890713453292847e-02,-2.814706414937973022e-02,1.277161017060279846e-02,7.633338123559951782e-02,1.688914932310581207e-02
4.732096567749977112e-02,4.402913525700569153e-02,3.952674567699432373e-03,-2.272848226130008698e-02,-2.801018208265304565e-02,-9.144209325313568115e-02,-2.798804081976413727e-02,1.484940014779567719e-02,7.816440612077713013e-02,1.793847233057022095e-02
4.732096567749977112e-02,4.402913525700569153e-02,3.952674567699432373e-03,-2.272848226130008698e-02,-2.801018208265304565e-02,-9.144209325313568115e-02,-2.798804081976413727e-02,1.484940014779567719e-02,7.816440612077713013e-02,1.793847233057022095e-02
4.772576317191123962e-02,4.679010063409805298e-02,4.334973637014627457e-03,-2.313618175685405731e-02,-2.848328836262226105e-02,-9.443191438913345337e-02,-2.624347247183322906e-02,1.627484336495399475e-02,7.774742692708969116e-02,1.782020367681980133e-02
4.772576317191123962e-02,4.679010063409805298e-02,4.334973637014627457e-03,-2.313618175685405731e-02,-2.848328836262226105e-02,-9.443191438913345337e-02,-2.624347247183322906e-02,1.627484336495399475e-02,7.774742692708969116e-02,1.782020367681980133e-02
5.066581070423126221e-02,5.015782639384269714e-02,4.169544205069541931e-03,-2.494095079600811005e-02,-2.746136300265789032e-02,-9.749455004930496216e-02,-2.829695679247379303e-02,1.689703948795795441e-02,7.909602671861648560e-02,1.809729263186454773e-02
5.066581070423126221e-02,5.015782639384269714e-02,4.169544205069541931e-03,-2.494095079600811005e-02,-2.746136300265789032e-02,-9.749455004930496216e-02,-2.829695679247379303e-02,1.689703948795795441e-02,7.909602671861648560e-02,1.809729263186454773e-02
5.424508079886436462e-02,5.105610191822052002e-02,4.021423403173685074e-03,-2.613896504044532776e-02,-2.918806299567222595e-02,-9.972117096185684204e-02,-2.894214354455471039e-02,1.873358897864818573e-02,7.890024781227111816e-02,1.955061219632625580e-02
5.424508079886436462e-02,5.105610191822052002e-02,4.021423403173685074e-03,-2.613896504044532776e-02,-2.918806299567222595e-02,-9.972117096185684204e-02,-2.894214354455471039e-02,1.873358897864818573e-02,7.890024781227111816e-02,1.955061219632625580e-02
5.468536913394927979e-02,5.451935157179832458e-02,4.575214348733425140e-03,-2.640010789036750793e-02,-3.082063980400562286e-02,-1.030249372124671936e-01,-2.876057103276252747e-02,1.950926147401332855e-02,7.963499426841735840e-02,2.028707414865493774e-02
5.468536913394927979e-02,5.451935157179832458e-02,4.575214348733425140e-03,-2.640010789036750793e-02,-3.082063980400562286e-02,-1.030249372124671936e-01,-2.876057103276252747e-02,1.950926147401332855e-02,7.963499426841735840e-02,2.028707414865493774e-02
5.700217559933662415e-02,5.701745301485061646e-02,4.119575023651123047e-03,-2.690896019339561462e-02,-3.097057156264781952e-02,-1.039146929979324341e-01,-2.840203605592250824e-02,1.996042393147945404e-02,7.815719395875930786e-02,2.073922567069530487e-02
5.700217559933662415e-02,5.701745301485061646e-02,4.119575023651123047e-03,-2.690896019339561462e-02,-3.097057156264781952e-02,-1.039146929979324341e-01,-2.840203605592250824e-02,1.996042393147945404e-02,7.815719395875930786e-02,2.073922567069530487e-02
5.762278661131858826e-02,5.818780511617660522e-02,4.335398785769939423e-03,-2.797550521790981293e-02,-3.139524534344673157e-02,-1.068541333079338074e-01,-2.967805415391921997e-02,2.125390619039535522e-02,7.961082458496093750e-02,2.209259197115898132e-02
5.762278661131858826e-02,5.818780511617660522e-02,4.335398785769939423e-03,-2.797550521790981293e-02,-3.139524534344673157e-02,-1.068541333079338074e-01,-2.967805415391921997e-02,2.125390619039535522e-02,7.961082458496093750e-02,2.209259197115898132e-02
5.839587375521659851e-02,6.078724190592765808e-02,4.661269020289182663e-03,-2.918785437941551208e-02,-3.230621665716171265e-02,-1.081663295626640320e-01,-2.874189242720603943e-02,2.148982882499694824e-02,8.050780743360519409e-02,2.174308523535728455e-02
5.839587375521659851e-02,6.078724190592765808e-02,4.661269020289182663e-03,-2.918785437941551208e-02,-3.230621665716171265e-02,-1.081663295626640320e-01,-2.874189242720603943e-02,2.148982882499694824e-02,8.050780743360519409e-02,2.174308523535728455e-02
5.967704579234123230e-02,6.239245831966400146e-02,5.202570464462041855e-03,-2.983775362372398376e-02,-3.370735794305801392e-02,-1.095922887325286865e-01,-2.971707284450531006e-02,2.341689541935920715e-02,8.057485520839691162e-02,2.162551321089267731e-02
5.967704579234123230e-02,6.239245831966400146e-02,5.202570464462041855e-03,-2.983775362372398376e-02,-3.370735794305801392e-02,-1.095922887325286865e-01,-2.971707284450531006e-02,2.341689541935920715e-02,8.057485520839691162e-02,2.162551321089267731e-02
6.085972487926483154e-02,6.508802622556686401e-02,6.535365711897611618e-03,-3.143969178199768066e-02,-3.529338166117668152e-02,-1.130537688732147217e-01,-2.841903641819953918e-02,2.396581135690212250e-02,8.056040108203887939e-02,2.333106473088264465e-02
6.085972487926483154e-02,6.508802622556686401e-02,6.535365711897611618e-03,-3.143969178199768066e-02,-3.529338166117668152e-02,-1.130537688732147217e-01,-2.841903641819953918e-02,2.396581135690212250e-02,8.056040108203887939e-02,2.333106473088264465e-02
6.298982352018356323e-02,6.689774245023727417e-02,6.532717030495405197e-03,-3.227580711245536804e-02,-3.551534935832023621e-02,-1.146232932806015015e-01,-2.936815842986106873e-02,2.414000406861305237e-02,8.203029632568359375e-02,2.284135110676288605e-02
6.298982352018356323e-02,6.689774245023727417e-02,6.532717030495405197e-03,-3.227580711245536804e-02,-3.551534935832023621e-02,-1.146232932806015015e-01,-2.936815842986106873e-02,2.414000406861305237e-02,8.203029632568359375e-02,2.284135110676288605e-02
6.331809610128402710e-02,6.867124885320663452e-02,6.442329846322536469e-03,-3.346189111471176147e-02,-3.528100997209548950e-02,-1.150180697441101074e-01,-2.971089631319046021e-02,2.517413347959518433e-02,8.121386915445327759e-02,2.353654615581035614e-02
6.331809610128402710e-02,6.867124885320663452e-02,6.442329846322536469e-03,-3.346189111471176147e-02,-3.528100997209548950e-02,-1.150180697441101074e-01,-2.971089631319046021e-02,2.517413347959518433e-02,8.121386915445327759e-02,2.353654615581035614e-02
6.350221484899520874e-02,7.082057744264602661e-02,7.352893706411123276e-03,-3.371372818946838379e-02,-3.771482780575752258e-02,-1.181508973240852356e-01,-2.812973037362098694e-02,2.759767882525920868e-02,8.066441118717193604e-02,2.404747903347015381e-02
6.350221484899520874e-02,7.082057744264602661e-02,7.352893706411123276e-03,-3.371372818946838379e-02,-3.771482780575752258e-02,-1.181508973240852356e-01,-2.812973037362098694e-02,2.759767882525920868e-02,8.066441118717193604e-02,2.404747903347015381e-02
6.519953906536102295e-02,7.131566852331161499e-02,8.519938215613365173e-03,-3.521137684583663940e-02,-3.856707364320755005e-02,-1.188951954245567322e-01,-2.903262898325920105e-02,2.803418599069118500e-02,8.170616626739501953e-02,2.372715808451175690e-02
6.519953906536102295e-02,7.131566852331161499e-02,8.519938215613365173e-03,-3.521137684583663940e-02,-3.856707364320755005e-02,-1.188951954245567322e-01,-2.903262898325920105e-02,2.803418599069118500e-02,8.170616626739501953e-02,2.372715808451175690e-02
6.713936477899551392e-02,7.222700864076614380e-02,9.194132871925830841e-03,-3.601979464292526245e-02,-3.920407965779304504e-02,-1.212988793849945068e-01,-2.890165708959102631e-02,2.864509262144565582e-02,8.188271522521972656e-02,2.439144253730773926e-02
6.713936477899551392e-02,7.222700864076614380e-02,9.194132871925830841e-03,-3.601979464292526245e-02,-3.920407965779304504e-02,-1.212988793849945068e-01,-2.890165708959102631e-02,2.864509262144565582e-02,8.188271522521972656e-02,2.439144253730773926e-02
6.738020479679107666e-02,7.459751516580581665e-02,8.817300200462341309e-03,-3.689043968915939331e-02,-4.016530141234397888e-02,-1.227470487356185913e-01,-2.626511082053184509e-02,2.962731197476387024e-02,8.184213191270828247e-02,2.427015826106071472e-02
6.738020479679107666e-02,7.459751516580581665e-02,8.817300200462341309e-03,-3.689043968915939331e-02,-4.016530141234397888e-02,-1.227470487356185913e-01,-2.626511082053184509e-02,2.962731197476387024e-02,8.184213191270828247e-02,2.427015826106071472e-02
6.798675656318664551e-02,7.788491994142532349e-02,8.571738377213478088e-03,-3.729647025465965271e-02,-3.940682858228683472e-02,-1.245733499526977539e-01,-2.718462981283664703e-02,3.000163659453392029e-02,8.162835985422134399e-02,2.471100538969039917e-02
6.798675656318664551e-02,7.788491994142532349e-02,8.571738377213478088e-03,-3.729647025465965271e-02,-3.940682858228683472e-02,-1.245733499526977539e-01,-2.718462981283664703e-02,3.000163659453392029e-02,8.162835985422134399e-02,2.471100538969039917e-02
6.902819126844406128e-02,7.807883620262145996e-02,9.059018455445766449e-03,-3.774601221084594727e-02,-3.991807997226715088e-02,-1.249445155262947083e-01,-2.717558667063713074e-02,2.979512885212898254e-02,8.204742521047592163e-02,2.455288916826248169e-02
6.902819126844406128e-02,7.807883620262145996e-02,9.059018455445766449e-03,-3.774601221084594727e-02,-3.991807997226715088e-02,-1.249445155262947083e-01,-2.717558667063713074e-02,2.979512885212898254e-02,8.204742521047592163e-02,2.455288916826248169e-02
