-1.365961879491806030e-02,-8.319302462041378021e-03,2.077048085629940033e-02,-3.084640018641948700e-02,-3.809787333011627197e-02,-1.504185725934803486e-03,-6.526959687471389771e-02,2.384961396455764771e-02,-2.050197683274745941e-02,-1.543193589895963669e-02
-1.688080839812755585e-02,-6.841653026640415192e-03,2.173442207276821136e-02,-3.033464401960372925e-02,-4.226297140121459961e-02,-3.392241895198822021e-03,-6.579193472862243652e-02,2.676130458712577820e-02,-1.726332865655422211e-02,-1.509492471814155579e-02
-1.929790154099464417e-02,-4.226177930831909180e-03,2.186183258891105652e-02,-3.078692220151424408e-02,-4.249037802219390869e-02,-2.494893036782741547e-03,-6.686205416917800903e-02,2.767207287251949310e-02,-1.848722621798515320e-02,-1.442597620189189911e-02
-2.070114761590957642e-02,-1.516279997304081917e-03,2.145510911941528320e-02,-3.174627199769020081e-02,-4.206910729408264160e-02,-2.320850268006324768e-03,-6.864269822835922241e-02,3.069114685058593750e-02,-2.030543796718120575e-02,-1.405588444322347641e-02
-2.036939747631549835e-02,-4.223848227411508560e-04,2.042053826153278351e-02,-3.246362507343292236e-02,-4.184563085436820984e-02,-2.921550534665584564e-03,-7.035189121961593628e-02,3.084052912890911102e-02,-2.037510089576244354e-02,-1.182743720710277557e-02
-2.107123658061027527e-02,2.104477258399128914e-03,1.979109086096286774e-02,-3.231938928365707397e-02,-4.146395996212959290e-02,-2.161475829780101776e-03,-7.188837230205535889e-02,3.098795562982559204e-02,-2.113597467541694641e-02,-1.222608145326375961e-02
-2.155581302940845490e-02,3.964561037719249725e-03,1.949468627572059631e-02,-3.298743441700935364e-02,-4.179911315441131592e-02,-2.054495736956596375e-03,-7.291589677333831787e-02,3.171182051301002502e-02,-2.101733162999153137e-02,-1.221651863306760788e-02
-2.169179171323776245e-02,4.067315720021724701e-03,1.888447627425193787e-02,-3.247594833374023438e-02,-4.148823767900466919e-02,-2.494446933269500732e-03,-7.371753454208374023e-02,3.320667520165443420e-02,-2.091736160218715668e-02,-1.266252994537353516e-02
-2.085223235189914703e-02,4.916171543300151825e-03,1.918319985270500183e-02,-3.317582607269287109e-02,-4.229715839028358459e-02,-2.406282816082239151e-03,-7.466164231300354004e-02,3.275761380791664124e-02,-2.060539089143276215e-02,-1.220870111137628555e-02
-2.092054858803749084e-02,6.679591257125139236e-03,1.903837174177169800e-02,-3.265819326043128967e-02,-4.142206534743309021e-02,-2.716252813115715981e-03,-7.731760293245315552e-02,3.172385320067405701e-02,-2.043336257338523865e-02,-1.166860759258270264e-02
-2.133465744554996490e-02,7.105576340109109879e-03,1.765100285410881042e-02,-3.284320980310440063e-02,-4.207006469368934631e-02,-2.770796651020646095e-03,-7.606763392686843872e-02,3.212040290236473083e-02,-1.952245086431503296e-02,-1.207868754863739014e-02
-2.125701867043972015e-02,7.450275588780641556e-03,1.724070124328136444e-02,-3.227042406797409058e-02,-4.293548688292503357e-02,-2.885852241888642311e-03,-7.720003277063369751e-02,3.313529118895530701e-02,-1.950179971754550934e-02,-1.175984926521778107e-02
-2.182482928037643433e-02,7.137084379792213440e-03,1.692203432321548462e-02,-3.198178112506866455e-02,-4.260927811264991760e-02,-3.314184024930000305e-03,-7.710351049900054932e-02,3.253072500228881836e-02,-1.799817383289337158e-02,-1.234763488173484802e-02
-2.022441104054450989e-02,7.998049259185791016e-03,1.739960722625255585e-02,-3.237851336598396301e-02,-4.328307136893272400e-02,-3.593008732423186302e-03,-7.835747301578521729e-02,3.127608820796012878e-02,-1.781888864934444427e-02,-1.164222229272127151e-02
-1.985269226133823395e-02,8.657600730657577515e-03,1.606040447950363159e-02,-3.164124861359596252e-02,-4.360781610012054443e-02,-4.021389409899711609e-03,-7.906578481197357178e-02,3.071178123354911804e-02,-1.706437952816486359e-02,-1.131023094058036804e-02
-1.951149851083755493e-02,8.763300254940986633e-03,1.546087395399808884e-02,-3.156020864844322205e-02,-4.346553981304168701e-02,-3.120463341474533081e-03,-7.998996973037719727e-02,3.108872659504413605e-02,-1.684786751866340637e-02,-1.221253070980310440e-02
-1.831415295600891113e-02,8.456196635961532593e-03,1.621748320758342743e-02,-3.109557181596755981e-02,-4.341223835945129395e-02,-4.215905442833900452e-03,-7.986941933631896973e-02,3.014201298356056213e-02,-1.644507795572280884e-02,-1.273314468562602997e-02
-1.942090503871440887e-02,7.546250242739915848e-03,1.511065848171710968e-02,-3.102525882422924042e-02,-4.379902034997940063e-02,-3.766673849895596504e-03,-7.979648560285568237e-02,2.973474189639091492e-02,-1.505298353731632233e-02,-1.187758427113294601e-02
-1.990525238215923309e-02,8.858646266162395477e-03,1.491827238351106644e-02,-3.065216355025768280e-02,-4.445356130599975586e-02,-3.477714490145444870e-03,-7.992555201053619385e-02,2.910370752215385437e-02,-1.536556519567966461e-02,-1.159583590924739838e-02
-1.842445693910121918e-02,7.539623416960239410e-03,1.443318277597427368e-02,-3.089932352304458618e-02,-4.455538839101791382e-02,-3.995779901742935181e-03,-7.976569980382919312e-02,2.864002063870429993e-02,-1.413876377046108246e-02,-1.158925984054803848e-02
-1.857565529644489288e-02,8.069845847785472870e-03,1.419254578649997711e-02,-3.060605563223361969e-02,-4.555796831846237183e-02,-3.682094626128673553e-03,-7.944509387016296387e-02,2.792669460177421570e-02,-1.369092706590890884e-02,-1.179353334009647369e-02
-1.604490168392658234e-02,7.545876782387495041e-03,1.355843432247638702e-02,-3.059018403291702271e-02,-4.567329585552215576e-02,-3.737422404810786247e-03,-8.173307031393051147e-02,2.817759476602077484e-02,-1.330292504280805588e-02,-1.152746379375457764e-02
-1.734925433993339539e-02,8.257921785116195679e-03,1.259094849228858948e-02,-2.974236384034156799e-02,-4.599381238222122192e-02,-3.400939516723155975e-03,-8.081834763288497925e-02,2.745755016803741455e-02,-1.280891243368387222e-02,-1.211103703826665878e-02
-1.635620370507240295e-02,7.923468947410583496e-03,1.251179724931716919e-02,-2.956099808216094971e-02,-4.613924771547317505e-02,-3.872324014082551003e-03,-8.136147260665893555e-02,2.636506780982017517e-02,-1.201954670250415802e-02,-1.176368910819292068e-02
-1.578295417129993439e-02,7.304648403078317642e-03,1.179971173405647278e-02,-2.945102564990520477e-02,-4.630408808588981628e-02,-3.982675261795520782e-03,-8.102311193943023682e-02,2.647521533071994781e-02,-1.128240209072828293e-02,-1.225626934319734573e-02
-1.447807159274816513e-02,7.286444772034883499e-03,1.156040001660585403e-02,-2.946750819683074951e-02,-4.685977473855018616e-02,-3.439018968492746353e-03,-8.094374090433120728e-02,2.550338581204414368e-02,-1.198893319815397263e-02,-1.147738378494977951e-02
-1.474069897085428238e-02,6.368042901158332825e-03,1.112493127584457397e-02,-2.863475866615772247e-02,-4.695588722825050354e-02,-3.506098641082644463e-03,-8.160822838544845581e-02,2.592820860445499420e-02,-1.187446154654026031e-02,-1.099165715277194977e-02
-1.403769012540578842e-02,6.439234595745801926e-03,1.095233112573623657e-02,-2.922999672591686249e-02,-4.787311330437660217e-02,-3.762641921639442444e-03,-8.110151439905166626e-02,2.531207911670207977e-02,-1.089991442859172821e-02,-1.085354853421449661e-02
-1.358985994011163712e-02,7.089629303663969040e-03,1.071693096309900284e-02,-2.896624058485031128e-02,-4.809671640396118164e-02,-3.646761877462267876e-03,-8.132019639015197754e-02,2.543782256543636322e-02,-1.164042111486196518e-02,-1.070921588689088821e-02
-1.242031063884496689e-02,6.686624139547348022e-03,9.917614981532096863e-03,-2.817491255700588226e-02,-4.844456911087036133e-02,-3.908187150955200195e-03,-8.095539361238479614e-02,2.522038854658603668e-02,-1.137407775968313217e-02,-1.127843372523784637e-02
