-3.870898485183715820e-02,-1.329567003995180130e-02,-4.716349020600318909e-02,-2.109510637819766998e-02,2.081130072474479675e-02,2.426180057227611542e-02,1.780371181666851044e-02,6.739208102226257324e-02,1.111962646245956421e-02,6.630131602287292480e-02
-3.870898485183715820e-02,-1.329567003995180130e-02,-4.716349020600318909e-02,-2.109510637819766998e-02,2.081130072474479675e-02,2.426180057227611542e-02,1.780371181666851044e-02,6.739208102226257324e-02,1.111962646245956421e-02,6.630131602287292480e-02
-3.629945218563079834e-02,-6.641385611146688461e-03,-4.910382628440856934e-02,-2.650015056133270264e-02,2.646221220493316650e-02,1.465007010847330093e-02,7.096734363585710526e-03,7.226695120334625244e-02,1.390939857810735703e-02,7.105816900730133057e-02
-3.629945218563079834e-02,-6.641385611146688461e-03,-4.910382628440856934e-02,-2.650015056133270264e-02,2.646221220493316650e-02,1.465007010847330093e-02,7.096734363585710526e-03,7.226695120334625244e-02,1.390939857810735703e-02,7.105816900730133057e-02
-3.475964814424514771e-02,4.128108557779341936e-04,-4.996987804770469666e-02,-2.940833196043968201e-02,2.719687111675739288e-02,6.710470654070377350e-03,1.027103629894554615e-03,7.604862749576568604e-02,1.623036712408065796e-02,7.469273358583450317e-02
-3.475964814424514771e-02,4.128108557779341936e-04,-4.996987804770469666e-02,-2.940833196043968201e-02,2.719687111675739288e-02,6.710470654070377350e-03,1.027103629894554615e-03,7.604862749576568604e-02,1.623036712408065796e-02,7.469273358583450317e-02
-3.378763422369956970e-02,5.998559296131134033e-03,-5.304968729615211487e-02,-3.142591938376426697e-02,2.919882349669933319e-02,1.438249717466533184e-03,-2.030878793448209763e-03,7.895306497812271118e-02,1.819448731839656830e-02,7.648370414972305298e-02
-3.378763422369956970e-02,5.998559296131134033e-03,-5.304968729615211487e-02,-3.142591938376426697e-02,2.919882349669933319e-02,1.438249717466533184e-03,-2.030878793448209763e-03,7.895306497812271118e-02,1.819448731839656830e-02,7.648370414972305298e-02
-3.137683868408203125e-02,1.283439435064792633e-02,-5.529420077800750732e-02,-3.318290039896965027e-02,2.993304282426834106e-02,-3.415579674765467644e-03,-4.049859475344419479e-03,8.119443804025650024e-02,1.928779669106006622e-02,7.743234932422637939e-02
-3.137683868408203125e-02,1.283439435064792633e-02,-5.529420077800750732e-02,-3.318290039896965027e-02,2.993304282426834106e-02,-3.415579674765467644e-03,-4.049859475344419479e-03,8.119443804025650024e-02,1.928779669106006622e-02,7.743234932422637939e-02
-2.971398085355758667e-02,1.842087507247924805e-02,-5.583114922046661377e-02,-3.555541113018989563e-02,3.065485693514347076e-02,-7.940804585814476013e-03,-6.215465255081653595e-03,8.392094075679779053e-02,1.987379044294357300e-02,7.843393087387084961e-02
-2.971398085355758667e-02,1.842087507247924805e-02,-5.583114922046661377e-02,-3.555541113018989563e-02,3.065485693514347076e-02,-7.940804585814476013e-03,-6.215465255081653595e-03,8.392094075679779053e-02,1.987379044294357300e-02,7.843393087387084961e-02
-2.793145924806594849e-02,2.226866036653518677e-02,-5.835996195673942566e-02,-3.764842078089714050e-02,3.122184425592422485e-02,-1.165413297712802887e-02,-6.250954698771238327e-03,8.568323403596878052e-02,2.090695127844810486e-02,8.056759834289550781e-02
-2.793145924806594849e-02,2.226866036653518677e-02,-5.835996195673942566e-02,-3.764842078089714050e-02,3.122184425592422485e-02,-1.165413297712802887e-02,-6.250954698771238327e-03,8.568323403596878052e-02,2.090695127844810486e-02,8.056759834289550781e-02
-2.538458630442619324e-02,2.770565822720527649e-02,-6.191636249423027039e-02,-3.987180441617965698e-02,3.047928586602210999e-02,-1.398906391113996506e-02,-5.110480356961488724e-03,8.856386691331863403e-02,2.183479256927967072e-02,8.077465742826461792e-02
-2.538458630442619324e-02,2.770565822720527649e-02,-6.191636249423027039e-02,-3.987180441617965698e-02,3.047928586602210999e-02,-1.398906391113996506e-02,-5.110480356961488724e-03,8.856386691331863403e-02,2.183479256927967072e-02,8.077465742826461792e-02
-2.334445342421531677e-02,3.099226765334606171e-02,-6.189376860857009888e-02,-4.157578572630882263e-02,3.018324449658393860e-02,-1.765242964029312134e-02,-6.303770933300256729e-03,8.926403522491455078e-02,2.298583090305328369e-02,8.263470977544784546e-02
-2.334445342421531677e-02,3.099226765334606171e-02,-6.189376860857009888e-02,-4.157578572630882263e-02,3.018324449658393860e-02,-1.765242964029312134e-02,-6.303770933300256729e-03,8.926403522491455078e-02,2.298583090305328369e-02,8.263470977544784546e-02
-2.140879444777965546e-02,3.480444848537445068e-02,-6.425362080335617065e-02,-4.357293620705604553e-02,3.030285052955150604e-02,-1.993980631232261658e-02,-7.210762239992618561e-03,9.217850118875503540e-02,2.484254166483879089e-02,8.218009024858474731e-02
-2.140879444777965546e-02,3.480444848537445068e-02,-6.425362080335617065e-02,-4.357293620705604553e-02,3.030285052955150604e-02,-1.993980631232261658e-02,-7.210762239992618561e-03,9.217850118875503540e-02,2.484254166483879089e-02,8.218009024858474731e-02
-1.975015178322792053e-02,3.974421694874763489e-02,-6.609066575765609741e-02,-4.533485695719718933e-02,2.944879420101642609e-02,-2.210276946425437927e-02,-6.868161261081695557e-03,9.427554905414581299e-02,2.459815889596939087e-02,8.364598453044891357e-02
-1.975015178322792053e-02,3.974421694874763489e-02,-6.609066575765609741e-02,-4.533485695719718933e-02,2.944879420101642609e-02,-2.210276946425437927e-02,-6.868161261081695557e-03,9.427554905414581299e-02,2.459815889596939087e-02,8.364598453044891357e-02
-1.713223010301589966e-02,4.296150803565979004e-02,-6.743571162223815918e-02,-4.607777297496795654e-02,2.928561158478260040e-02,-2.408717758953571320e-02,-7.811066694557666779e-03,9.669391810894012451e-02,2.517890557646751404e-02,8.253346383571624756e-02
-1.713223010301589966e-02,4.296150803565979004e-02,-6.743571162223815918e-02,-4.607777297496795654e-02,2.928561158478260040e-02,-2.408717758953571320e-02,-7.811066694557666779e-03,9.669391810894012451e-02,2.517890557646751404e-02,8.253346383571624756e-02
-1.648458279669284821e-02,4.729750379920005798e-02,-6.874763220548629761e-02,-4.730360582470893860e-02,2.798703126609325409e-02,-2.704225108027458191e-02,-8.523241616785526276e-03,9.726278483867645264e-02,2.746033854782581329e-02,8.427707850933074951e-02
-1.648458279669284821e-02,4.729750379920005798e-02,-6.874763220548629761e-02,-4.730360582470893860e-02,2.798703126609325409e-02,-2.704225108027458191e-02,-8.523241616785526276e-03,9.726278483867645264e-02,2.746033854782581329e-02,8.427707850933074951e-02
-1.541840750724077225e-02,4.846218973398208618e-02,-6.905718892812728882e-02,-4.798968881368637085e-02,2.693806029856204987e-02,-2.964232116937637329e-02,-6.046421360224485397e-03,9.933722764253616333e-02,2.718921750783920288e-02,8.459296822547912598e-02
-1.541840750724077225e-02,4.846218973398208618e-02,-6.905718892812728882e-02,-4.798968881368637085e-02,2.693806029856204987e-02,-2.964232116937637329e-02,-6.046421360224485397e-03,9.933722764253616333e-02,2.718921750783920288e-02,8.459296822547912598e-02
-1.319628208875656128e-02,5.231111869215965271e-02,-7.014682888984680176e-02,-4.955977201461791992e-02,2.766136266291141510e-02,-3.173973411321640015e-02,-9.400690905749797821e-03,1.001676991581916809e-01,2.883698977530002594e-02,8.516319841146469116e-02
-1.319628208875656128e-02,5.231111869215965271e-02,-7.014682888984680176e-02,-4.955977201461791992e-02,2.766136266291141510e-02,-3.173973411321640015e-02,-9.400690905749797821e-03,1.001676991581916809e-01,2.883698977530002594e-02,8.516319841146469116e-02
-1.126764155924320221e-02,5.285353958606719971e-02,-7.187931984663009644e-02,-5.175811424851417542e-02,2.690920233726501465e-02,-3.279185667634010315e-02,-7.923756726086139679e-03,1.029101237654685974e-01,2.974030934274196625e-02,8.520021289587020874e-02
-1.126764155924320221e-02,5.285353958606719971e-02,-7.187931984663009644e-02,-5.175811424851417542e-02,2.690920233726501465e-02,-3.279185667634010315e-02,-7.923756726086139679e-03,1.029101237654685974e-01,2.974030934274196625e-02,8.520021289587020874e-02
-1.082158740609884262e-02,5.703790113329887390e-02,-7.238955795764923096e-02,-5.256287753582000732e-02,2.551844529807567596e-02,-3.472281247377395630e-02,-8.588095195591449738e-03,1.039770022034645081e-01,3.105922974646091461e-02,8.538228273391723633e-02
-1.082158740609884262e-02,5.703790113329887390e-02,-7.238955795764923096e-02,-5.256287753582000732e-02,2.551844529807567596e-02,-3.472281247377395630e-02,-8.588095195591449738e-03,1.039770022034645081e-01,3.105922974646091461e-02,8.538228273391723633e-02
-9.164094924926757812e-03,5.784906074404716492e-02,-7.372971624135971069e-02,-5.271596089005470276e-02,2.690911293029785156e-02,-3.501668199896812439e-02,-9.016300551593303680e-03,1.041612625122070312e-01,3.056465089321136475e-02,8.541952073574066162e-02
-9.164094924926757812e-03,5.784906074404716492e-02,-7.372971624135971069e-02,-5.271596089005470276e-02,2.690911293029785156e-02,-3.501668199896812439e-02,-9.016300551593303680e-03,1.041612625122070312e-01,3.056465089321136475e-02,8.541952073574066162e-02
-7.431319914758205414e-03,5.968939885497093201e-02,-7.393401861190795898e-02,-5.466292798519134521e-02,2.615571953356266022e-02,-3.694332018494606018e-02,-8.926610462367534637e-03,1.054986715316772461e-01,3.097099438309669495e-02,8.663882315158843994e-02
-7.431319914758205414e-03,5.968939885497093201e-02,-7.393401861190795898e-02,-5.466292798519134521e-02,2.615571953356266022e-02,-3.694332018494606018e-02,-8.926610462367534637e-03,1.054986715316772461e-01,3.097099438309669495e-02,8.663882315158843994e-02
-8.547567762434482574e-03,6.284966319799423218e-02,-7.404410094022750854e-02,-5.496246740221977234e-02,2.563438750803470612e-02,-3.911886364221572876e-02,-8.789823390543460846e-03,1.060962453484535217e-01,3.240795433521270752e-02,8.670880645513534546e-02
-8.547567762434482574e-03,6.284966319799423218e-02,-7.404410094022750854e-02,-5.496246740221977234e-02,2.563438750803470612e-02,-3.911886364221572876e-02,-8.789823390543460846e-03,1.060962453484535217e-01,3.240795433521270752e-02,8.670880645513534546e-02
-7.403308991342782974e-03,6.395703554153442383e-02,-7.512526214122772217e-02,-5.542593076825141907e-02,2.501651458442211151e-02,-4.061784222722053528e-02,-8.553873747587203979e-03,1.089766398072242737e-01,3.267874941229820251e-02,8.599951118230819702e-02
-7.403308991342782974e-03,6.395703554153442383e-02,-7.512526214122772217e-02,-5.542593076825141907e-02,2.501651458442211151e-02,-4.061784222722053528e-02,-8.553873747587203979e-03,1.089766398072242737e-01,3.267874941229820251e-02,8.599951118230819702e-02
-5.249050445854663849e-03,6.487206369638442993e-02,-7.387086004018783569e-02,-5.759266018867492676e-02,2.353260293602943420e-02,-4.231985658407211304e-02,-9.211411699652671814e-03,1.105255261063575745e-01,3.276015818119049072e-02,8.698670566082000732e-02
-5.249050445854663849e-03,6.487206369638442993e-02,-7.387086004018783569e-02,-5.759266018867492676e-02,2.353260293602943420e-02,-4.231985658407211304e-02,-9.211411699652671814e-03,1.105255261063575745e-01,3.276015818119049072e-02,8.698670566082000732e-02
-2.350067952647805214e-03,6.754446029663085938e-02,-7.519020140171051025e-02,-5.809242278337478638e-02,2.365738712251186371e-02,-4.456268250942230225e-02,-9.825837798416614532e-03,1.096760258078575134e-01,3.430614992976188660e-02,8.770123869180679321e-02
-2.350067952647805214e-03,6.754446029663085938e-02,-7.519020140171051025e-02,-5.809242278337478638e-02,2.365738712251186371e-02,-4.456268250942230225e-02,-9.825837798416614532e-03,1.096760258078575134e-01,3.430614992976188660e-02,8.770123869180679321e-02
-1.955262850970029831e-03,6.926804035902023315e-02,-7.688539475202560425e-02,-5.873095616698265076e-02,2.371426112949848175e-02,-4.397011175751686096e-02,-1.051179599016904831e-02,1.112877801060676575e-01,3.309506922960281372e-02,8.844241499900817871e-02
-1.955262850970029831e-03,6.926804035902023315e-02,-7.688539475202560425e-02,-5.873095616698265076e-02,2.371426112949848175e-02,-4.397011175751686096e-02,-1.051179599016904831e-02,1.112877801060676575e-01,3.309506922960281372e-02,8.844241499900817871e-02
-1.431078417226672173e-03,7.170570641756057739e-02,-7.707921415567398071e-02,-5.955262482166290283e-02,2.267581410706043243e-02,-4.607694968581199646e-02,-8.973025716841220856e-03,1.133269295096397400e-01,3.380565717816352844e-02,8.750951290130615234e-02
-1.431078417226672173e-03,7.170570641756057739e-02,-7.707921415567398071e-02,-5.955262482166290283e-02,2.267581410706043243e-02,-4.607694968581199646e-02,-8.973025716841220856e-03,1.133269295096397400e-01,3.380565717816352844e-02,8.750951290130615234e-02
1.033270498737692833e-03,7.249113172292709351e-02,-7.784279435873031616e-02,-6.014728173613548279e-02,2.315044775605201721e-02,-4.718352854251861572e-02,-1.033171080052852631e-02,1.139330267906188965e-01,3.443055599927902222e-02,8.744975924491882324e-02
1.033270498737692833e-03,7.249113172292709351e-02,-7.784279435873031616e-02,-6.014728173613548279e-02,2.315044775605201721e-02,-4.718352854251861572e-02,-1.033171080052852631e-02,1.139330267906188965e-01,3.443055599927902222e-02,8.744975924491882324e-02
1.626581884920597076e-03,7.540994137525558472e-02,-7.787328213453292847e-02,-6.126491725444793701e-02,2.273149602115154266e-02,-4.829062521457672119e-02,-1.089216955006122589e-02,1.153099015355110168e-01,3.443643823266029358e-02,8.735114336013793945e-02
1.626581884920597076e-03,7.540994137525558472e-02,-7.787328213453292847e-02,-6.126491725444793701e-02,2.273149602115154266e-02,-4.829062521457672119e-02,-1.089216955006122589e-02,1.153099015355110168e-01,3.443643823266029358e-02,8.735114336013793945e-02
3.337217494845390320e-03,7.628277689218521118e-02,-7.845298200845718384e-02,-6.233495101332664490e-02,2.229257859289646149e-02,-4.955991730093955994e-02,-8.987594395875930786e-03,1.166382431983947754e-01,3.525695577263832092e-02,8.620132505893707275e-02
3.337217494845390320e-03,7.628277689218521118e-02,-7.845298200845718384e-02,-6.233495101332664490e-02,2.229257859289646149e-02,-4.955991730093955994e-02,-8.987594395875930786e-03,1.166382431983947754e-01,3.525695577263832092e-02,8.620132505893707275e-02
3.607494989410042763e-03,7.788217812776565552e-02,-7.865698635578155518e-02,-6.312756985425949097e-02,2.415702491998672485e-02,-5.134228616952896118e-02,-8.350586518645286560e-03,1.169186681509017944e-01,3.521990403532981873e-02,8.619849383831024170e-02
3.607494989410042763e-03,7.788217812776565552e-02,-7.865698635578155518e-02,-6.312756985425949097e-02,2.415702491998672485e-02,-5.134228616952896118e-02,-8.350586518645286560e-03,1.169186681509017944e-01,3.521990403532981873e-02,8.619849383831024170e-02
5.464387126266956329e-03,7.916719466447830200e-02,-7.955193519592285156e-02,-6.440635025501251221e-02,2.286183834075927734e-02,-5.101116001605987549e-02,-1.067232340574264526e-02,1.184791103005409241e-01,3.490488231182098389e-02,8.727774024009704590e-02
5.464387126266956329e-03,7.916719466447830200e-02,-7.955193519592285156e-02,-6.440635025501251221e-02,2.286183834075927734e-02,-5.101116001605987549e-02,-1.067232340574264526e-02,1.184791103005409241e-01,3.490488231182098389e-02,8.727774024009704590e-02
