2.354603074491024017e-02,-7.702991832047700882e-03,4.025626555085182190e-02,-2.009654790163040161e-02,5.519826337695121765e-02,-1.595160737633705139e-02,4.693421721458435059e-02,-1.386339869350194931e-02,-4.156798869371414185e-02,6.286100298166275024e-02
2.354603074491024017e-02,-7.702991832047700882e-03,4.025626555085182190e-02,-2.009654790163040161e-02,5.519826337695121765e-02,-1.595160737633705139e-02,4.693421721458435059e-02,-1.386339869350194931e-02,-4.156798869371414185e-02,6.286100298166275024e-02
3.182823210954666138e-02,-6.259709480218589306e-04,4.289540648460388184e-02,-2.549021132290363312e-02,6.398652493953704834e-02,-2.894619666039943695e-02,3.943607956171035767e-02,-1.509416382759809494e-02,-3.957299143075942993e-02,6.241779029369354248e-02
3.182823210954666138e-02,-6.259709480218589306e-04,4.289540648460388184e-02,-2.549021132290363312e-02,6.398652493953704834e-02,-2.894619666039943695e-02,3.943607956171035767e-02,-1.509416382759809494e-02,-3.957299143075942993e-02,6.241779029369354248e-02
3.650667890906333923e-02,5.729997996240854263e-03,4.494740068912506104e-02,-2.749531343579292297e-02,6.671537458896636963e-02,-3.547542542219161987e-02,3.369520232081413269e-02,-1.493806950747966766e-02,-3.990784659981727600e-02,6.314467638731002808e-02
3.650667890906333923e-02,5.729997996240854263e-03,4.494740068912506104e-02,-2.749531343579292297e-02,6.671537458896636963e-02,-3.547542542219161987e-02,3.369520232081413269e-02,-1.493806950747966766e-02,-3.990784659981727600e-02,6.314467638731002808e-02
3.832023590803146362e-02,1.143849454820156097e-02,4.435143619775772095e-02,-2.950251661241054535e-02,6.939627975225448608e-02,-4.107409343123435974e-02,3.260647505521774292e-02,-1.296975184231996536e-02,-4.022409021854400635e-02,6.383053213357925415e-02
3.832023590803146362e-02,1.143849454820156097e-02,4.435143619775772095e-02,-2.950251661241054535e-02,6.939627975225448608e-02,-4.107409343123435974e-02,3.260647505521774292e-02,-1.296975184231996536e-02,-4.022409021854400635e-02,6.383053213357925415e-02
4.092458263039588928e-02,1.712251454591751099e-02,4.448602348566055298e-02,-3.008290380239486694e-02,6.941127777099609375e-02,-4.470195248723030090e-02,3.070287592709064484e-02,-1.089285034686326981e-02,-4.204829409718513489e-02,6.453499197959899902e-02
4.092458263039588928e-02,1.712251454591751099e-02,4.448602348566055298e-02,-3.008290380239486694e-02,6.941127777099609375e-02,-4.470195248723030090e-02,3.070287592709064484e-02,-1.089285034686326981e-02,-4.204829409718513489e-02,6.453499197959899902e-02
4.229078441858291626e-02,2.186085283756256104e-02,4.410219937562942505e-02,-3.127005323767662048e-02,7.026452571153640747e-02,-4.861411452293395996e-02,3.010425157845020294e-02,-9.909403510391712189e-03,-4.280661419034004211e-02,6.635657697916030884e-02
4.229078441858291626e-02,2.186085283756256104e-02,4.410219937562942505e-02,-3.127005323767662048e-02,7.026452571153640747e-02,-4.861411452293395996e-02,3.010425157845020294e-02,-9.909403510391712189e-03,-4.280661419034004211e-02,6.635657697916030884e-02
4.401068761944770813e-02,2.545160427689552307e-02,4.327685385942459106e-02,-3.338005393743515015e-02,7.025151699781417847e-02,-5.054135993123054504e-02,2.907803282141685486e-02,-8.189328014850616455e-03,-4.339760914444923401e-02,6.823954731225967407e-02
4.401068761944770813e-02,2.545160427689552307e-02,4.327685385942459106e-02,-3.338005393743515015e-02,7.025151699781417847e-02,-5.054135993123054504e-02,2.907803282141685486e-02,-8.189328014850616455e-03,-4.339760914444923401e-02,6.823954731225967407e-02
4.568723216652870178e-02,2.933585643768310547e-02,4.074472934007644653e-02,-3.327624872326850891e-02,6.916659325361251831e-02,-5.219418928027153015e-02,3.108281083405017853e-02,-4.423915874212980270e-03,-4.592601582407951355e-02,6.855381280183792114e-02
4.568723216652870178e-02,2.933585643768310547e-02,4.074472934007644653e-02,-3.327624872326850891e-02,6.916659325361251831e-02,-5.219418928027153015e-02,3.108281083405017853e-02,-4.423915874212980270e-03,-4.592601582407951355e-02,6.855381280183792114e-02
4.807236418128013611e-02,3.203703090548515320e-02,4.046494886279106140e-02,-3.536386415362358093e-02,6.885842233896255493e-02,-5.449093878269195557e-02,3.120032139122486115e-02,-3.367150435224175453e-03,-4.651295766234397888e-02,7.055057585239410400e-02
4.807236418128013611e-02,3.203703090548515320e-02,4.046494886279106140e-02,-3.536386415362358093e-02,6.885842233896255493e-02,-5.449093878269195557e-02,3.120032139122486115e-02,-3.367150435224175453e-03,-4.651295766234397888e-02,7.055057585239410400e-02
4.868967831134796143e-02,3.525037690997123718e-02,3.993177413940429688e-02,-3.640228882431983948e-02,6.923498213291168213e-02,-5.685448646545410156e-02,3.175354376435279846e-02,-4.514720931183546782e-04,-4.833811149001121521e-02,7.142870873212814331e-02
4.868967831134796143e-02,3.525037690997123718e-02,3.993177413940429688e-02,-3.640228882431983948e-02,6.923498213291168213e-02,-5.685448646545410156e-02,3.175354376435279846e-02,-4.514720931183546782e-04,-4.833811149001121521e-02,7.142870873212814331e-02
4.860760271549224854e-02,4.055179655551910400e-02,3.911733254790306091e-02,-3.743936866521835327e-02,6.804735213518142700e-02,-5.816138163208961487e-02,3.207174316048622131e-02,1.143940142355859280e-03,-4.987967014312744141e-02,7.326513528823852539e-02
4.860760271549224854e-02,4.055179655551910400e-02,3.911733254790306091e-02,-3.743936866521835327e-02,6.804735213518142700e-02,-5.816138163208961487e-02,3.207174316048622131e-02,1.143940142355859280e-03,-4.987967014312744141e-02,7.326513528823852539e-02
5.076882243156433105e-02,4.198035225272178650e-02,3.866915777325630188e-02,-3.702882304787635803e-02,6.803498417139053345e-02,-6.061835587024688721e-02,3.077318705618381500e-02,3.800932317972183228e-03,-5.114242807030677795e-02,7.344236224889755249e-02
5.076882243156433105e-02,4.198035225272178650e-02,3.866915777325630188e-02,-3.702882304787635803e-02,6.803498417139053345e-02,-6.061835587024688721e-02,3.077318705618381500e-02,3.800932317972183228e-03,-5.114242807030677795e-02,7.344236224889755249e-02
5.171655490994453430e-02,4.441293701529502869e-02,3.803916648030281067e-02,-3.885966911911964417e-02,6.573052704334259033e-02,-6.165802106261253357e-02,3.322727605700492859e-02,6.488588172942399979e-03,-5.200318619608879089e-02,7.414244860410690308e-02
5.171655490994453430e-02,4.441293701529502869e-02,3.803916648030281067e-02,-3.885966911911964417e-02,6.573052704334259033e-02,-6.165802106261253357e-02,3.322727605700492859e-02,6.488588172942399979e-03,-5.200318619608879089e-02,7.414244860410690308e-02
5.274840071797370911e-02,4.592741653323173523e-02,3.797347843647003174e-02,-3.901709988713264465e-02,6.597536802291870117e-02,-6.441988050937652588e-02,3.484063223004341125e-02,8.684972301125526428e-03,-5.447734519839286804e-02,7.522607594728469849e-02
5.274840071797370911e-02,4.592741653323173523e-02,3.797347843647003174e-02,-3.901709988713264465e-02,6.597536802291870117e-02,-6.441988050937652588e-02,3.484063223004341125e-02,8.684972301125526428e-03,-5.447734519839286804e-02,7.522607594728469849e-02
5.416758731007575989e-02,4.923176765441894531e-02,3.845024108886718750e-02,-3.903747349977493286e-02,6.597042083740234375e-02,-6.560575962066650391e-02,3.186868876218795776e-02,9.878261946141719818e-03,-5.558557808399200439e-02,7.523725181818008423e-02
5.416758731007575989e-02,4.923176765441894531e-02,3.845024108886718750e-02,-3.903747349977493286e-02,6.597042083740234375e-02,-6.560575962066650391e-02,3.186868876218795776e-02,9.878261946141719818e-03,-5.558557808399200439e-02,7.523725181818008423e-02
5.708238109946250916e-02,4.909101128578186035e-02,3.797268494963645935e-02,-4.067992046475410461e-02,6.372305750846862793e-02,-6.662148237228393555e-02,3.184091299772262573e-02,1.267281360924243927e-02,-5.613652989268302917e-02,7.644215971231460571e-02
5.708238109946250916e-02,4.909101128578186035e-02,3.797268494963645935e-02,-4.067992046475410461e-02,6.372305750846862793e-02,-6.662148237228393555e-02,3.184091299772262573e-02,1.267281360924243927e-02,-5.613652989268302917e-02,7.644215971231460571e-02
5.673965811729431152e-02,5.158356204628944397e-02,3.850116580724716187e-02,-4.127446189522743225e-02,6.187302619218826294e-02,-6.971435993909835815e-02,3.377436473965644836e-02,1.511584501713514328e-02,-5.684148147702217102e-02,7.733642309904098511e-02
5.673965811729431152e-02,5.158356204628944397e-02,3.850116580724716187e-02,-4.127446189522743225e-02,6.187302619218826294e-02,-6.971435993909835815e-02,3.377436473965644836e-02,1.511584501713514328e-02,-5.684148147702217102e-02,7.733642309904098511e-02
5.885766446590423584e-02,5.318947136402130127e-02,3.886075317859649658e-02,-4.196041449904441833e-02,6.258426606655120850e-02,-6.930921226739883423e-02,3.354293480515480042e-02,1.592973060905933380e-02,-5.979451909661293030e-02,7.709850370883941650e-02
5.885766446590423584e-02,5.318947136402130127e-02,3.886075317859649658e-02,-4.196041449904441833e-02,6.258426606655120850e-02,-6.930921226739883423e-02,3.354293480515480042e-02,1.592973060905933380e-02,-5.979451909661293030e-02,7.709850370883941650e-02
5.895123258233070374e-02,5.579278618097305298e-02,3.855388984084129333e-02,-4.241215437650680542e-02,6.114128232002258301e-02,-7.125131785869598389e-02,3.470064699649810791e-02,1.781005412340164185e-02,-6.082384660840034485e-02,7.821141183376312256e-02
5.895123258233070374e-02,5.579278618097305298e-02,3.855388984084129333e-02,-4.241215437650680542e-02,6.114128232002258301e-02,-7.125131785869598389e-02,3.470064699649810791e-02,1.781005412340164185e-02,-6.082384660840034485e-02,7.821141183376312256e-02
5.955934152007102966e-02,5.869130790233612061e-02,3.783442452549934387e-02,-4.248354956507682800e-02,6.126240640878677368e-02,-7.262066006660461426e-02,3.494756296277046204e-02,1.958870701491832733e-02,-6.064976751804351807e-02,7.670422643423080444e-02
5.955934152007102966e-02,5.869130790233612061e-02,3.783442452549934387e-02,-4.248354956507682800e-02,6.126240640878677368e-02,-7.262066006660461426e-02,3.494756296277046204e-02,1.958870701491832733e-02,-6.064976751804351807e-02,7.670422643423080444e-02
6.095401942729949951e-02,5.814408510923385620e-02,3.864913806319236755e-02,-4.307462647557258606e-02,5.950384587049484253e-02,-7.264372706413269043e-02,3.507871925830841064e-02,2.171821147203445435e-02,-6.298489868640899658e-02,7.751660048961639404e-02
6.095401942729949951e-02,5.814408510923385620e-02,3.864913806319236755e-02,-4.307462647557258606e-02,5.950384587049484253e-02,-7.264372706413269043e-02,3.507871925830841064e-02,2.171821147203445435e-02,-6.298489868640899658e-02,7.751660048961639404e-02
6.355397403240203857e-02,6.066744402050971985e-02,3.945017606019973755e-02,-4.408756271004676819e-02,5.834349617362022400e-02,-7.397450506687164307e-02,3.483566641807556152e-02,2.232756093144416809e-02,-6.389447301626205444e-02,7.767497003078460693e-02
6.355397403240203857e-02,6.066744402050971985e-02,3.945017606019973755e-02,-4.408756271004676819e-02,5.834349617362022400e-02,-7.397450506687164307e-02,3.483566641807556152e-02,2.232756093144416809e-02,-6.389447301626205444e-02,7.767497003078460693e-02
6.293741613626480103e-02,6.148757040500640869e-02,3.986037895083427429e-02,-4.450578242540359497e-02,5.826433002948760986e-02,-7.543376833200454712e-02,3.595873713493347168e-02,2.280713431537151337e-02,-6.468243151903152466e-02,7.871626317501068115e-02
6.293741613626480103e-02,6.148757040500640869e-02,3.986037895083427429e-02,-4.450578242540359497e-02,5.826433002948760986e-02,-7.543376833200454712e-02,3.595873713493347168e-02,2.280713431537151337e-02,-6.468243151903152466e-02,7.871626317501068115e-02
6.353913992643356323e-02,6.289062649011611938e-02,3.920318186283111572e-02,-4.510888829827308655e-02,5.933312326669692993e-02,-7.651472836732864380e-02,3.509547933936119080e-02,2.442551590502262115e-02,-6.566741317510604858e-02,7.909418642520904541e-02
6.353913992643356323e-02,6.289062649011611938e-02,3.920318186283111572e-02,-4.510888829827308655e-02,5.933312326669692993e-02,-7.651472836732864380e-02,3.509547933936119080e-02,2.442551590502262115e-02,-6.566741317510604858e-02,7.909418642520904541e-02
6.632327288389205933e-02,6.554572284221649170e-02,3.916502371430397034e-02,-4.455276578664779663e-02,5.664938315749168396e-02,-8.006240427494049072e-02,3.573417291045188904e-02,2.833973430097103119e-02,-6.648294627666473389e-02,7.777735590934753418e-02
6.632327288389205933e-02,6.554572284221649170e-02,3.916502371430397034e-02,-4.455276578664779663e-02,5.664938315749168396e-02,-8.006240427494049072e-02,3.573417291045188904e-02,2.833973430097103119e-02,-6.648294627666473389e-02,7.777735590934753418e-02
6.713038682937622070e-02,6.526447832584381104e-02,4.087369889020919800e-02,-4.564072191715240479e-02,5.629364028573036194e-02,-7.962187379598617554e-02,3.489692136645317078e-02,2.765775658190250397e-02,-6.775149703025817871e-02,7.902248203754425049e-02
6.713038682937622070e-02,6.526447832584381104e-02,4.087369889020919800e-02,-4.564072191715240479e-02,5.629364028573036194e-02,-7.962187379598617554e-02,3.489692136645317078e-02,2.765775658190250397e-02,-6.775149703025817871e-02,7.902248203754425049e-02
6.995011866092681885e-02,6.833644211292266846e-02,3.975076228380203247e-02,-4.544596374034881592e-02,5.632017925381660461e-02,-8.130930364131927490e-02,3.558614850044250488e-02,2.848807722330093384e-02,-6.860570609569549561e-02,7.809587568044662476e-02
6.995011866092681885e-02,6.833644211292266846e-02,3.975076228380203247e-02,-4.544596374034881592e-02,5.632017925381660461e-02,-8.130930364131927490e-02,3.558614850044250488e-02,2.848807722330093384e-02,-6.860570609569549561e-02,7.809587568044662476e-02
7.009612768888473511e-02,6.881251931190490723e-02,4.112542420625686646e-02,-4.661750793457031250e-02,5.576212704181671143e-02,-8.282648026943206787e-02,3.616240248084068298e-02,3.016796149313449860e-02,-6.883830577135086060e-02,7.769554853439331055e-02
7.009612768888473511e-02,6.881251931190490723e-02,4.112542420625686646e-02,-4.661750793457031250e-02,5.576212704181671143e-02,-8.282648026943206787e-02,3.616240248084068298e-02,3.016796149313449860e-02,-6.883830577135086060e-02,7.769554853439331055e-02
7.027848809957504272e-02,7.068645954132080078e-02,4.005351662635803223e-02,-4.734103381633758545e-02,5.574341118335723877e-02,-8.316331356763839722e-02,3.710508719086647034e-02,3.035515919327735901e-02,-6.971227377653121948e-02,7.897011935710906982e-02
7.027848809957504272e-02,7.068645954132080078e-02,4.005351662635803223e-02,-4.734103381633758545e-02,5.574341118335723877e-02,-8.316331356763839722e-02,3.710508719086647034e-02,3.035515919327735901e-02,-6.971227377653121948e-02,7.897011935710906982e-02
7.215086370706558228e-02,7.055100798606872559e-02,4.055160656571388245e-02,-4.671791195869445801e-02,5.642654374241828918e-02,-8.290811628103256226e-02,3.574170172214508057e-02,3.181955963373184204e-02,-7.323102653026580811e-02,7.868805527687072754e-02
7.215086370706558228e-02,7.055100798606872559e-02,4.055160656571388245e-02,-4.671791195869445801e-02,5.642654374241828918e-02,-8.290811628103256226e-02,3.574170172214508057e-02,3.181955963373184204e-02,-7.323102653026580811e-02,7.868805527687072754e-02
