4.189543542452156544e-04,-3.145502414554357529e-04,-1.653328537940979004e-02,2.796867676079273224e-02,4.739614203572273254e-03,5.354680120944976807e-02,1.605746150016784668e-02,-1.507391035556793213e-02,6.178865581750869751e-02,3.577224537730216980e-02
5.309333791956305504e-04,8.639979059807956219e-04,-1.639849320054054260e-02,2.948660776019096375e-02,2.854912774637341499e-03,5.085549876093864441e-02,1.531831175088882446e-02,-1.779358275234699249e-02,6.436982005834579468e-02,3.816390037536621094e-02
1.269249187316745520e-04,3.549047745764255524e-03,-1.561803091317415237e-02,2.812156453728675842e-02,3.409661352634429932e-03,5.310599133372306824e-02,1.334826275706291199e-02,-1.638178527355194092e-02,6.149059906601905823e-02,3.754008933901786804e-02
1.648278703214600682e-05,5.122255068272352219e-03,-1.586130075156688690e-02,2.774900943040847778e-02,4.500786773860454559e-03,5.323179438710212708e-02,1.143993157893419266e-02,-1.689261011779308319e-02,5.843926221132278442e-02,4.090192168951034546e-02
-3.684048715513199568e-04,7.006691768765449524e-03,-1.559605542570352554e-02,2.681972831487655640e-02,5.496287252753973007e-03,5.286879464983940125e-02,1.006345078349113464e-02,-1.691000536084175110e-02,5.645703896880149841e-02,4.299994185566902161e-02
7.266552420333027840e-04,8.429422043263912201e-03,-1.668548583984375000e-02,2.563695237040519714e-02,7.001326419413089752e-03,5.387118086218833923e-02,8.642113767564296722e-03,-1.674766838550567627e-02,5.526474863290786743e-02,4.305655881762504578e-02
-2.475147775840014219e-04,9.875472635030746460e-03,-1.628809049725532532e-02,2.518116496503353119e-02,6.517995614558458328e-03,5.382037162780761719e-02,9.204571135342121124e-03,-1.673216000199317932e-02,5.452178418636322021e-02,4.359257221221923828e-02
-1.089771278202533722e-03,1.072503626346588135e-02,-1.764660887420177460e-02,2.534733712673187256e-02,7.738866377621889114e-03,5.381030961871147156e-02,8.211320266127586365e-03,-1.777296885848045349e-02,5.536875501275062561e-02,4.429063946008682251e-02
-6.985624786466360092e-04,1.112460438162088394e-02,-1.807118393480777740e-02,2.366458624601364136e-02,8.154862560331821442e-03,5.496445298194885254e-02,8.001477457582950592e-03,-1.661995053291320801e-02,5.521844327449798584e-02,4.358995333313941956e-02
-6.902533350512385368e-04,1.212462130934000015e-02,-1.888192445039749146e-02,2.319671027362346649e-02,8.624115958809852600e-03,5.557207390666007996e-02,6.368944887071847916e-03,-1.734938658773899078e-02,5.596521124243736267e-02,4.387028515338897705e-02
-1.905119715956971049e-04,1.194758992642164230e-02,-2.046146243810653687e-02,2.352674864232540131e-02,8.712203241884708405e-03,5.569257214665412903e-02,6.628688424825668335e-03,-1.759286224842071533e-02,5.582325905561447144e-02,4.477472603321075439e-02
-4.555239574983716011e-04,1.173720881342887878e-02,-1.950814574956893921e-02,2.333080768585205078e-02,8.989925496280193329e-03,5.556176230311393738e-02,6.617802660912275314e-03,-1.822897046804428101e-02,5.611803010106086731e-02,4.453044384717941284e-02
-3.335475921630859375e-04,1.219314895570278168e-02,-2.046800032258033752e-02,2.364810742437839508e-02,9.057384915649890900e-03,5.648725479841232300e-02,5.483276210725307465e-03,-1.864093914628028870e-02,5.679693073034286499e-02,4.390062764286994934e-02
-1.025272067636251450e-03,1.088067796081304550e-02,-2.031252905726432800e-02,2.381528727710247040e-02,8.665896952152252197e-03,5.573168024420738220e-02,5.792819894850254059e-03,-1.884244568645954132e-02,5.843783542513847351e-02,4.422665759921073914e-02
-6.329562893370166421e-05,1.099502760916948318e-02,-2.141326852142810822e-02,2.282621525228023529e-02,8.388428017497062683e-03,5.668875202536582947e-02,5.122184753417968750e-03,-1.944792084395885468e-02,5.925712734460830688e-02,4.458165168762207031e-02
-7.508586713811382651e-05,9.930388070642948151e-03,-2.050472423434257507e-02,2.338444255292415619e-02,8.795072324573993683e-03,5.714653059840202332e-02,4.111588466912508011e-03,-1.993565633893013000e-02,5.964040383696556091e-02,4.373893141746520996e-02
-4.356354766059666872e-04,1.039603818207979202e-02,-2.135253325104713440e-02,2.314131520688533783e-02,8.431075140833854675e-03,5.747238174080848694e-02,4.105423111468553543e-03,-2.056726440787315369e-02,6.085886806249618530e-02,4.354536160826683044e-02
1.219755649799481034e-04,9.244729764759540558e-03,-2.190216816961765289e-02,2.312569133937358856e-02,9.082494303584098816e-03,5.768911913037300110e-02,4.191107116639614105e-03,-2.167747169733047485e-02,6.139704212546348572e-02,4.385688528418540955e-02
-5.882616969756782055e-04,9.401810355484485626e-03,-2.222763933241367340e-02,2.258539758622646332e-02,8.695686236023902893e-03,5.798035115003585815e-02,3.118654014542698860e-03,-2.222903817892074585e-02,6.246269866824150085e-02,4.495427757501602173e-02
3.542371559888124466e-04,8.164019323885440826e-03,-2.319224365055561066e-02,2.307287976145744324e-02,7.991109974682331085e-03,5.788570269942283630e-02,4.230821505188941956e-03,-2.244530990719795227e-02,6.327991187572479248e-02,4.449075087904930115e-02
-7.383755291812121868e-05,7.826205343008041382e-03,-2.285915799438953400e-02,2.376973256468772888e-02,8.025826886296272278e-03,5.817813426256179810e-02,3.459461964666843414e-03,-2.323679812252521515e-02,6.385515630245208740e-02,4.408524557948112488e-02
9.846707107499241829e-04,7.258286699652671814e-03,-2.393275313079357147e-02,2.345761097967624664e-02,7.458416745066642761e-03,5.763776972889900208e-02,2.751663094386458397e-03,-2.384232170879840851e-02,6.527664512395858765e-02,4.526742175221443176e-02
2.740166382864117622e-03,6.218765862286090851e-03,-2.421751059591770172e-02,2.370499633252620697e-02,6.749462801963090897e-03,5.818712711334228516e-02,1.444263383746147156e-03,-2.340742945671081543e-02,6.583864986896514893e-02,4.459728673100471497e-02
2.353619318455457687e-03,5.895844660699367523e-03,-2.428621053695678711e-02,2.377095259726047516e-02,6.973879411816596985e-03,5.969225242733955383e-02,2.022986533120274544e-03,-2.569755539298057556e-02,6.547904014587402344e-02,4.493487253785133362e-02
2.536489162594079971e-03,5.849479697644710541e-03,-2.428840100765228271e-02,2.374076656997203827e-02,6.203783676028251648e-03,5.908486247062683105e-02,7.753588724881410599e-04,-2.559339813888072968e-02,6.628043949604034424e-02,4.602957889437675476e-02
3.363291267305612564e-03,5.297873634845018387e-03,-2.485040947794914246e-02,2.397397719323635101e-02,5.626586265861988068e-03,5.940700322389602661e-02,-5.462208064272999763e-04,-2.699532732367515564e-02,6.752243638038635254e-02,4.660197347402572632e-02
3.569995984435081482e-03,4.843688569962978363e-03,-2.517424710094928741e-02,2.401016280055046082e-02,5.984548013657331467e-03,5.946205556392669678e-02,-1.126774004660546780e-03,-2.633790485560894012e-02,6.863994151353836060e-02,4.517510160803794861e-02
4.427016247063875198e-03,4.573187790811061859e-03,-2.652311883866786957e-02,2.456283755600452423e-02,5.613402929157018661e-03,5.976203829050064087e-02,-2.338808495551347733e-03,-2.651314996182918549e-02,6.860300898551940918e-02,4.634577408432960510e-02
4.807716701179742813e-03,4.050252493470907211e-03,-2.642285451292991638e-02,2.443132363259792328e-02,6.058567669242620468e-03,6.055252626538276672e-02,-2.609209856018424034e-03,-2.719315141439437866e-02,6.833681464195251465e-02,4.631460830569267273e-02
5.221583880484104156e-03,4.018732812255620956e-03,-2.650849334895610809e-02,2.370330691337585449e-02,4.790775943547487259e-03,6.066518649458885193e-02,-1.394828199408948421e-03,-2.744776010513305664e-02,6.904821842908859253e-02,4.614359512925148010e-02
