5.155015736818313599e-02,-6.264505535364151001e-02,-5.543251335620880127e-02,-1.463548932224512100e-02,4.236340150237083435e-02,2.174458652734756470e-02,3.527349326759576797e-03,2.426949329674243927e-02,-3.728695586323738098e-02,4.653558880090713501e-02
5.155015736818313599e-02,-6.264505535364151001e-02,-5.543251335620880127e-02,-1.463548932224512100e-02,4.236340150237083435e-02,2.174458652734756470e-02,3.527349326759576797e-03,2.426949329674243927e-02,-3.728695586323738098e-02,4.653558880090713501e-02
4.826084896922111511e-02,-6.091679260134696960e-02,-5.133111402392387390e-02,-1.990784145891666412e-02,5.328116193413734436e-02,9.178596548736095428e-03,1.806917716749012470e-03,3.026341274380683899e-02,-3.735819086432456970e-02,4.597608000040054321e-02
4.826084896922111511e-02,-6.091679260134696960e-02,-5.133111402392387390e-02,-1.990784145891666412e-02,5.328116193413734436e-02,9.178596548736095428e-03,1.806917716749012470e-03,3.026341274380683899e-02,-3.735819086432456970e-02,4.597608000040054321e-02
4.882072657346725464e-02,-5.533628910779953003e-02,-4.987443238496780396e-02,-2.096999250352382660e-02,5.708404257893562317e-02,2.874813275411725044e-03,6.467378116212785244e-04,2.701420150697231293e-02,-3.664677217602729797e-02,4.655041173100471497e-02
4.882072657346725464e-02,-5.533628910779953003e-02,-4.987443238496780396e-02,-2.096999250352382660e-02,5.708404257893562317e-02,2.874813275411725044e-03,6.467378116212785244e-04,2.701420150697231293e-02,-3.664677217602729797e-02,4.655041173100471497e-02
4.898110777139663696e-02,-4.967515543103218079e-02,-5.045089125633239746e-02,-2.239647693932056427e-02,6.160283088684082031e-02,-2.217535628005862236e-03,1.263518235646188259e-03,2.535862848162651062e-02,-3.658186271786689758e-02,4.621084034442901611e-02
4.898110777139663696e-02,-4.967515543103218079e-02,-5.045089125633239746e-02,-2.239647693932056427e-02,6.160283088684082031e-02,-2.217535628005862236e-03,1.263518235646188259e-03,2.535862848162651062e-02,-3.658186271786689758e-02,4.621084034442901611e-02
5.053139477968215942e-02,-4.241146519780158997e-02,-5.270675942301750183e-02,-2.326922677457332611e-02,6.333179771900177002e-02,-7.592453155666589737e-03,1.501714810729026794e-03,2.608500421047210693e-02,-3.603314608335494995e-02,4.615887627005577087e-02
5.053139477968215942e-02,-4.241146519780158997e-02,-5.270675942301750183e-02,-2.326922677457332611e-02,6.333179771900177002e-02,-7.592453155666589737e-03,1.501714810729026794e-03,2.608500421047210693e-02,-3.603314608335494995e-02,4.615887627005577087e-02
5.204496905207633972e-02,-3.621131926774978638e-02,-5.354646593332290649e-02,-2.553712576627731323e-02,6.495121866464614868e-02,-1.118516363203525543e-02,1.518283621408045292e-03,2.651619724929332733e-02,-3.688656538724899292e-02,4.720992222428321838e-02
5.204496905207633972e-02,-3.621131926774978638e-02,-5.354646593332290649e-02,-2.553712576627731323e-02,6.495121866464614868e-02,-1.118516363203525543e-02,1.518283621408045292e-03,2.651619724929332733e-02,-3.688656538724899292e-02,4.720992222428321838e-02
5.301399528980255127e-02,-3.091497719287872314e-02,-5.527500808238983154e-02,-2.788477391004562378e-02,6.689561158418655396e-02,-1.328156236559152603e-02,1.123815774917602539e-03,2.710459753870964050e-02,-3.789401054382324219e-02,4.879087209701538086e-02
5.301399528980255127e-02,-3.091497719287872314e-02,-5.527500808238983154e-02,-2.788477391004562378e-02,6.689561158418655396e-02,-1.328156236559152603e-02,1.123815774917602539e-03,2.710459753870964050e-02,-3.789401054382324219e-02,4.879087209701538086e-02
5.463367700576782227e-02,-2.449983358383178711e-02,-5.788702517747879028e-02,-2.821292728185653687e-02,6.584262847900390625e-02,-1.356570329517126083e-02,2.507886849343776703e-03,2.887652069330215454e-02,-4.156513139605522156e-02,4.992826282978057861e-02
5.463367700576782227e-02,-2.449983358383178711e-02,-5.788702517747879028e-02,-2.821292728185653687e-02,6.584262847900390625e-02,-1.356570329517126083e-02,2.507886849343776703e-03,2.887652069330215454e-02,-4.156513139605522156e-02,4.992826282978057861e-02
5.528111755847930908e-02,-2.078659832477569580e-02,-5.688823759555816650e-02,-2.988202124834060669e-02,6.510996818542480469e-02,-1.493808440864086151e-02,2.022425644099712372e-03,3.051047585904598236e-02,-4.369490221142768860e-02,5.146919190883636475e-02
5.528111755847930908e-02,-2.078659832477569580e-02,-5.688823759555816650e-02,-2.988202124834060669e-02,6.510996818542480469e-02,-1.493808440864086151e-02,2.022425644099712372e-03,3.051047585904598236e-02,-4.369490221142768860e-02,5.146919190883636475e-02
5.705956369638442993e-02,-1.796849817037582397e-02,-5.678131058812141418e-02,-3.061870299279689789e-02,6.601530313491821289e-02,-1.562079321593046188e-02,1.693628029897809029e-03,3.171710297465324402e-02,-4.698676615953445435e-02,5.211767554283142090e-02
5.705956369638442993e-02,-1.796849817037582397e-02,-5.678131058812141418e-02,-3.061870299279689789e-02,6.601530313491821289e-02,-1.562079321593046188e-02,1.693628029897809029e-03,3.171710297465324402e-02,-4.698676615953445435e-02,5.211767554283142090e-02
5.684198811650276184e-02,-1.207290869206190109e-02,-5.733529105782508850e-02,-3.041792660951614380e-02,6.374414265155792236e-02,-1.536147296428680420e-02,1.443443470634520054e-03,3.328433632850646973e-02,-4.987014457583427429e-02,5.314833298325538635e-02
5.684198811650276184e-02,-1.207290869206190109e-02,-5.733529105782508850e-02,-3.041792660951614380e-02,6.374414265155792236e-02,-1.536147296428680420e-02,1.443443470634520054e-03,3.328433632850646973e-02,-4.987014457583427429e-02,5.314833298325538635e-02
5.711726471781730652e-02,-1.058081630617380142e-02,-5.844272673130035400e-02,-2.880297414958477020e-02,6.466154754161834717e-02,-1.482589822262525558e-02,-2.254278515465557575e-04,3.515246137976646423e-02,-5.239886790513992310e-02,5.241750180721282959e-02
5.711726471781730652e-02,-1.058081630617380142e-02,-5.844272673130035400e-02,-2.880297414958477020e-02,6.466154754161834717e-02,-1.482589822262525558e-02,-2.254278515465557575e-04,3.515246137976646423e-02,-5.239886790513992310e-02,5.241750180721282959e-02
5.707653984427452087e-02,-7.790870033204555511e-03,-5.897400155663490295e-02,-2.867416851222515106e-02,6.272806972265243530e-02,-1.504315063357353210e-02,-3.108979435637593269e-04,3.742472082376480103e-02,-5.363877862691879272e-02,5.257654190063476562e-02
5.707653984427452087e-02,-7.790870033204555511e-03,-5.897400155663490295e-02,-2.867416851222515106e-02,6.272806972265243530e-02,-1.504315063357353210e-02,-3.108979435637593269e-04,3.742472082376480103e-02,-5.363877862691879272e-02,5.257654190063476562e-02
5.831549689173698425e-02,-5.734139587730169296e-03,-5.836037918925285339e-02,-2.953305467963218689e-02,6.204092875123023987e-02,-1.475796755403280258e-02,-6.642429070780053735e-05,4.046537354588508606e-02,-5.668272078037261963e-02,5.158291384577751160e-02
5.831549689173698425e-02,-5.734139587730169296e-03,-5.836037918925285339e-02,-2.953305467963218689e-02,6.204092875123023987e-02,-1.475796755403280258e-02,-6.642429070780053735e-05,4.046537354588508606e-02,-5.668272078037261963e-02,5.158291384577751160e-02
5.991259962320327759e-02,-2.444725017994642258e-03,-5.792811885476112366e-02,-2.934667281806468964e-02,6.339531391859054565e-02,-1.511548087000846863e-02,-3.558109048753976822e-03,4.046469926834106445e-02,-5.866704881191253662e-02,5.176313593983650208e-02
5.991259962320327759e-02,-2.444725017994642258e-03,-5.792811885476112366e-02,-2.934667281806468964e-02,6.339531391859054565e-02,-1.511548087000846863e-02,-3.558109048753976822e-03,4.046469926834106445e-02,-5.866704881191253662e-02,5.176313593983650208e-02
6.101992353796958923e-02,-2.968516200780868530e-03,-5.784529447555541992e-02,-2.918520569801330566e-02,6.134738028049468994e-02,-1.510990038514137268e-02,-3.110447200015187263e-03,4.194514825940132141e-02,-5.979274958372116089e-02,5.224227532744407654e-02
6.101992353796958923e-02,-2.968516200780868530e-03,-5.784529447555541992e-02,-2.918520569801330566e-02,6.134738028049468994e-02,-1.510990038514137268e-02,-3.110447200015187263e-03,4.194514825940132141e-02,-5.979274958372116089e-02,5.224227532744407654e-02
5.847257375717163086e-02,-2.850434611900709569e-05,-5.732844024896621704e-02,-2.855557762086391449e-02,5.992671847343444824e-02,-1.537547539919614792e-02,-3.138419240713119507e-03,4.413427785038948059e-02,-6.135089695453643799e-02,5.195216462016105652e-02
5.847257375717163086e-02,-2.850434611900709569e-05,-5.732844024896621704e-02,-2.855557762086391449e-02,5.992671847343444824e-02,-1.537547539919614792e-02,-3.138419240713119507e-03,4.413427785038948059e-02,-6.135089695453643799e-02,5.195216462016105652e-02
5.831671133637428284e-02,2.090984024107456207e-03,-5.735557153820991516e-02,-2.796760387718677521e-02,6.060879677534103394e-02,-1.433842070400714874e-02,-4.559261258691549301e-03,4.442208632826805115e-02,-6.340222060680389404e-02,5.149270594120025635e-02
5.831671133637428284e-02,2.090984024107456207e-03,-5.735557153820991516e-02,-2.796760387718677521e-02,6.060879677534103394e-02,-1.433842070400714874e-02,-4.559261258691549301e-03,4.442208632826805115e-02,-6.340222060680389404e-02,5.149270594120025635e-02
5.939278006553649902e-02,1.910795806907117367e-03,-5.669671669602394104e-02,-2.853197604417800903e-02,5.956491455435752869e-02,-1.315987948328256607e-02,-4.489507991820573807e-03,4.690326750278472900e-02,-6.709975749254226685e-02,5.176023021340370178e-02
5.939278006553649902e-02,1.910795806907117367e-03,-5.669671669602394104e-02,-2.853197604417800903e-02,5.956491455435752869e-02,-1.315987948328256607e-02,-4.489507991820573807e-03,4.690326750278472900e-02,-6.709975749254226685e-02,5.176023021340370178e-02
5.790332332253456116e-02,3.625335171818733215e-03,-5.681192874908447266e-02,-2.800934575498104095e-02,5.868710577487945557e-02,-1.389817893505096436e-02,-4.275256302207708359e-03,4.680998623371124268e-02,-6.596459448337554932e-02,5.162674188613891602e-02
5.790332332253456116e-02,3.625335171818733215e-03,-5.681192874908447266e-02,-2.800934575498104095e-02,5.868710577487945557e-02,-1.389817893505096436e-02,-4.275256302207708359e-03,4.680998623371124268e-02,-6.596459448337554932e-02,5.162674188613891602e-02
5.795522034168243408e-02,4.230109509080648422e-03,-5.596081912517547607e-02,-2.775462530553340912e-02,5.755225941538810730e-02,-1.374082081019878387e-02,-4.885221365839242935e-03,4.955013468861579895e-02,-6.841262429952621460e-02,5.103842914104461670e-02
5.795522034168243408e-02,4.230109509080648422e-03,-5.596081912517547607e-02,-2.775462530553340912e-02,5.755225941538810730e-02,-1.374082081019878387e-02,-4.885221365839242935e-03,4.955013468861579895e-02,-6.841262429952621460e-02,5.103842914104461670e-02
5.784367397427558899e-02,6.493777502328157425e-03,-5.460173636674880981e-02,-2.873492240905761719e-02,5.628206953406333923e-02,-1.297834608703851700e-02,-4.834868013858795166e-03,5.058123543858528137e-02,-7.071100920438766479e-02,5.115801095962524414e-02
5.784367397427558899e-02,6.493777502328157425e-03,-5.460173636674880981e-02,-2.873492240905761719e-02,5.628206953406333923e-02,-1.297834608703851700e-02,-4.834868013858795166e-03,5.058123543858528137e-02,-7.071100920438766479e-02,5.115801095962524414e-02
5.877627432346343994e-02,5.443783011287450790e-03,-5.399369075894355774e-02,-2.787050977349281311e-02,5.556055530905723572e-02,-1.326596736907958984e-02,-5.178042221814393997e-03,4.992699995636940002e-02,-7.059497386217117310e-02,5.104817450046539307e-02
5.877627432346343994e-02,5.443783011287450790e-03,-5.399369075894355774e-02,-2.787050977349281311e-02,5.556055530905723572e-02,-1.326596736907958984e-02,-5.178042221814393997e-03,4.992699995636940002e-02,-7.059497386217117310e-02,5.104817450046539307e-02
5.751071497797966003e-02,5.936570931226015091e-03,-5.434832349419593811e-02,-2.792984247207641602e-02,5.396068841218948364e-02,-1.200414262712001801e-02,-4.828701261430978775e-03,5.249226093292236328e-02,-7.326303422451019287e-02,5.190748348832130432e-02
5.751071497797966003e-02,5.936570931226015091e-03,-5.434832349419593811e-02,-2.792984247207641602e-02,5.396068841218948364e-02,-1.200414262712001801e-02,-4.828701261430978775e-03,5.249226093292236328e-02,-7.326303422451019287e-02,5.190748348832130432e-02
5.632885545492172241e-02,7.672009523957967758e-03,-5.395756661891937256e-02,-2.694796025753021240e-02,5.185932293534278870e-02,-1.342715229839086533e-02,-2.791381208226084709e-03,5.469926819205284119e-02,-7.483860850334167480e-02,5.154091119766235352e-02
5.632885545492172241e-02,7.672009523957967758e-03,-5.395756661891937256e-02,-2.694796025753021240e-02,5.185932293534278870e-02,-1.342715229839086533e-02,-2.791381208226084709e-03,5.469926819205284119e-02,-7.483860850334167480e-02,5.154091119766235352e-02
5.844670906662940979e-02,7.413437590003013611e-03,-5.351537466049194336e-02,-2.796664834022521973e-02,5.176177993416786194e-02,-1.252704020589590073e-02,-5.058627109974622726e-03,5.410308390855789185e-02,-7.446972280740737915e-02,5.182638019323348999e-02
5.844670906662940979e-02,7.413437590003013611e-03,-5.351537466049194336e-02,-2.796664834022521973e-02,5.176177993416786194e-02,-1.252704020589590073e-02,-5.058627109974622726e-03,5.410308390855789185e-02,-7.446972280740737915e-02,5.182638019323348999e-02
5.760111287236213684e-02,9.773976169526576996e-03,-5.317321419715881348e-02,-2.738970518112182617e-02,5.151756852865219116e-02,-1.317628566175699234e-02,-4.858130123466253281e-03,5.506037920713424683e-02,-7.599636167287826538e-02,5.147074908018112183e-02
5.760111287236213684e-02,9.773976169526576996e-03,-5.317321419715881348e-02,-2.738970518112182617e-02,5.151756852865219116e-02,-1.317628566175699234e-02,-4.858130123466253281e-03,5.506037920713424683e-02,-7.599636167287826538e-02,5.147074908018112183e-02
5.646695196628570557e-02,1.264339312911033630e-02,-5.253077670931816101e-02,-2.745370194315910339e-02,4.906180500984191895e-02,-1.271780673414468765e-02,-3.270722460001707077e-03,5.542860552668571472e-02,-7.677004486322402954e-02,5.116483569145202637e-02
5.646695196628570557e-02,1.264339312911033630e-02,-5.253077670931816101e-02,-2.745370194315910339e-02,4.906180500984191895e-02,-1.271780673414468765e-02,-3.270722460001707077e-03,5.542860552668571472e-02,-7.677004486322402954e-02,5.116483569145202637e-02
5.666166916489601135e-02,1.262028794735670090e-02,-5.293494090437889099e-02,-2.735428512096405029e-02,4.948301985859870911e-02,-1.320935413241386414e-02,-2.394893206655979156e-03,5.765828490257263184e-02,-7.854309678077697754e-02,5.051904916763305664e-02
5.666166916489601135e-02,1.262028794735670090e-02,-5.293494090437889099e-02,-2.735428512096405029e-02,4.948301985859870911e-02,-1.320935413241386414e-02,-2.394893206655979156e-03,5.765828490257263184e-02,-7.854309678077697754e-02,5.051904916763305664e-02
5.637001618742942810e-02,1.346044335514307022e-02,-5.288968607783317566e-02,-2.670437097549438477e-02,4.944997280836105347e-02,-1.126724854111671448e-02,-4.313977435231208801e-03,5.796801671385765076e-02,-7.908947020769119263e-02,4.918858036398887634e-02
5.637001618742942810e-02,1.346044335514307022e-02,-5.288968607783317566e-02,-2.670437097549438477e-02,4.944997280836105347e-02,-1.126724854111671448e-02,-4.313977435231208801e-03,5.796801671385765076e-02,-7.908947020769119263e-02,4.918858036398887634e-02
