-4.313004761934280396e-02,-3.751774132251739502e-02,5.149084609001874924e-03,-6.777072697877883911e-02,-1.588123664259910583e-02,3.429676219820976257e-02,-3.837485611438751221e-02,2.581092156469821930e-02,5.002117529511451721e-02,5.124080553650856018e-02
-4.313004761934280396e-02,-3.751774132251739502e-02,5.149084609001874924e-03,-6.777072697877883911e-02,-1.588123664259910583e-02,3.429676219820976257e-02,-3.837485611438751221e-02,2.581092156469821930e-02,5.002117529511451721e-02,5.124080553650856018e-02
-4.162776842713356018e-02,-2.613454684615135193e-02,7.423457223922014236e-03,-7.609324902296066284e-02,-8.539194241166114807e-03,2.162661403417587280e-02,-4.377993196249008179e-02,2.818894758820533752e-02,5.271359533071517944e-02,5.111505836248397827e-02
-4.162776842713356018e-02,-2.613454684615135193e-02,7.423457223922014236e-03,-7.609324902296066284e-02,-8.539194241166114807e-03,2.162661403417587280e-02,-4.377993196249008179e-02,2.818894758820533752e-02,5.271359533071517944e-02,5.111505836248397827e-02
-3.845075890421867371e-02,-1.634238660335540771e-02,7.680707145482301712e-03,-8.154230564832687378e-02,-5.123071838170289993e-03,1.342368312180042267e-02,-4.707745835185050964e-02,2.864238992333412170e-02,5.416638776659965515e-02,5.300142616033554077e-02
-3.845075890421867371e-02,-1.634238660335540771e-02,7.680707145482301712e-03,-8.154230564832687378e-02,-5.123071838170289993e-03,1.342368312180042267e-02,-4.707745835185050964e-02,2.864238992333412170e-02,5.416638776659965515e-02,5.300142616033554077e-02
-3.775857761502265930e-02,-8.840215392410755157e-03,7.465452421456575394e-03,-8.541125059127807617e-02,-1.061352202668786049e-03,6.437911652028560638e-03,-4.903143271803855896e-02,3.080027550458908081e-02,5.539033561944961548e-02,5.356342718005180359e-02
-3.775857761502265930e-02,-8.840215392410755157e-03,7.465452421456575394e-03,-8.541125059127807617e-02,-1.061352202668786049e-03,6.437911652028560638e-03,-4.903143271803855896e-02,3.080027550458908081e-02,5.539033561944961548e-02,5.356342718005180359e-02
-3.557981550693511963e-02,1.670966885285452008e-04,5.761277861893177032e-03,-8.949672430753707886e-02,1.260811462998390198e-03,1.948044984601438046e-03,-5.180238187313079834e-02,3.196910023689270020e-02,5.671347677707672119e-02,5.498392879962921143e-02
-3.557981550693511963e-02,1.670966885285452008e-04,5.761277861893177032e-03,-8.949672430753707886e-02,1.260811462998390198e-03,1.948044984601438046e-03,-5.180238187313079834e-02,3.196910023689270020e-02,5.671347677707672119e-02,5.498392879962921143e-02
-3.462777286767959595e-02,3.893244080245494843e-03,6.034622434526681900e-03,-9.336266666650772095e-02,3.819594159722328186e-03,-2.808967139571905136e-03,-5.356445536017417908e-02,3.446107357740402222e-02,5.760411173105239868e-02,5.689193308353424072e-02
-3.462777286767959595e-02,3.893244080245494843e-03,6.034622434526681900e-03,-9.336266666650772095e-02,3.819594159722328186e-03,-2.808967139571905136e-03,-5.356445536017417908e-02,3.446107357740402222e-02,5.760411173105239868e-02,5.689193308353424072e-02
-3.323965519666671753e-02,1.047516055405139923e-02,5.670185666531324387e-03,-9.800449013710021973e-02,5.381346680223941803e-03,-7.174811791628599167e-03,-5.434134602546691895e-02,3.569955006241798401e-02,5.843842774629592896e-02,5.965999513864517212e-02
-3.323965519666671753e-02,1.047516055405139923e-02,5.670185666531324387e-03,-9.800449013710021973e-02,5.381346680223941803e-03,-7.174811791628599167e-03,-5.434134602546691895e-02,3.569955006241798401e-02,5.843842774629592896e-02,5.965999513864517212e-02
-3.301317617297172546e-02,1.548798102885484695e-02,3.896330017596483231e-03,-1.007367074489593506e-01,6.960558239370584488e-03,-9.207369759678840637e-03,-5.321547016501426697e-02,3.741080313920974731e-02,5.834536999464035034e-02,6.031883135437965393e-02
-3.301317617297172546e-02,1.548798102885484695e-02,3.896330017596483231e-03,-1.007367074489593506e-01,6.960558239370584488e-03,-9.207369759678840637e-03,-5.321547016501426697e-02,3.741080313920974731e-02,5.834536999464035034e-02,6.031883135437965393e-02
-3.104127198457717896e-02,2.114401012659072876e-02,3.653092775493860245e-03,-1.043822169303894043e-01,6.794088520109653473e-03,-1.197779458016157150e-02,-5.442870408296585083e-02,3.824851289391517639e-02,5.893618613481521606e-02,6.299113482236862183e-02
-3.104127198457717896e-02,2.114401012659072876e-02,3.653092775493860245e-03,-1.043822169303894043e-01,6.794088520109653473e-03,-1.197779458016157150e-02,-5.442870408296585083e-02,3.824851289391517639e-02,5.893618613481521606e-02,6.299113482236862183e-02
-2.897771820425987244e-02,2.551122754812240601e-02,3.727714298292994499e-03,-1.079090014100074768e-01,8.723462931811809540e-03,-1.528393011540174484e-02,-5.560734495520591736e-02,4.012109339237213135e-02,5.955262109637260437e-02,6.355621665716171265e-02
-2.897771820425987244e-02,2.551122754812240601e-02,3.727714298292994499e-03,-1.079090014100074768e-01,8.723462931811809540e-03,-1.528393011540174484e-02,-5.560734495520591736e-02,4.012109339237213135e-02,5.955262109637260437e-02,6.355621665716171265e-02
-2.981742471456527710e-02,3.116157837212085724e-02,3.006175858899950981e-03,-1.096026524901390076e-01,7.890925742685794830e-03,-1.715706475079059601e-02,-5.518338456749916077e-02,4.143256694078445435e-02,5.888537690043449402e-02,6.603738665580749512e-02
-2.981742471456527710e-02,3.116157837212085724e-02,3.006175858899950981e-03,-1.096026524901390076e-01,7.890925742685794830e-03,-1.715706475079059601e-02,-5.518338456749916077e-02,4.143256694078445435e-02,5.888537690043449402e-02,6.603738665580749512e-02
-2.717248350381851196e-02,3.376736119389533997e-02,1.635502325370907784e-03,-1.111744716763496399e-01,1.048463303595781326e-02,-1.953652128577232361e-02,-5.769694223999977112e-02,4.268533736467361450e-02,5.956317856907844543e-02,6.625275313854217529e-02
-2.717248350381851196e-02,3.376736119389533997e-02,1.635502325370907784e-03,-1.111744716763496399e-01,1.048463303595781326e-02,-1.953652128577232361e-02,-5.769694223999977112e-02,4.268533736467361450e-02,5.956317856907844543e-02,6.625275313854217529e-02
-2.642175741493701935e-02,3.911365568637847900e-02,1.589144812896847725e-03,-1.139028370380401611e-01,8.937885984778404236e-03,-2.211836725473403931e-02,-5.631459504365921021e-02,4.501646384596824646e-02,6.060072034597396851e-02,6.613865494728088379e-02
-2.642175741493701935e-02,3.911365568637847900e-02,1.589144812896847725e-03,-1.139028370380401611e-01,8.937885984778404236e-03,-2.211836725473403931e-02,-5.631459504365921021e-02,4.501646384596824646e-02,6.060072034597396851e-02,6.613865494728088379e-02
-2.461234293878078461e-02,4.024207592010498047e-02,1.256946474313735962e-03,-1.163497343659400940e-01,1.012511458247900009e-02,-2.420088090002536774e-02,-5.510401725769042969e-02,4.541938751935958862e-02,5.991808325052261353e-02,6.836468726396560669e-02
-2.461234293878078461e-02,4.024207592010498047e-02,1.256946474313735962e-03,-1.163497343659400940e-01,1.012511458247900009e-02,-2.420088090002536774e-02,-5.510401725769042969e-02,4.541938751935958862e-02,5.991808325052261353e-02,6.836468726396560669e-02
-2.260490134358406067e-02,4.391934722661972046e-02,1.709275529719889164e-03,-1.191526502370834351e-01,1.213941816240549088e-02,-2.643392607569694519e-02,-5.763076245784759521e-02,4.584184288978576660e-02,6.042512506246566772e-02,6.924691051244735718e-02
-2.260490134358406067e-02,4.391934722661972046e-02,1.709275529719889164e-03,-1.191526502370834351e-01,1.213941816240549088e-02,-2.643392607569694519e-02,-5.763076245784759521e-02,4.584184288978576660e-02,6.042512506246566772e-02,6.924691051244735718e-02
-2.220037207007408142e-02,4.534677416086196899e-02,1.302779186517000198e-03,-1.213518828153610229e-01,1.176750659942626953e-02,-2.799030952155590057e-02,-5.786771699786186218e-02,4.775867983698844910e-02,6.141430512070655823e-02,7.037213444709777832e-02
-2.220037207007408142e-02,4.534677416086196899e-02,1.302779186517000198e-03,-1.213518828153610229e-01,1.176750659942626953e-02,-2.799030952155590057e-02,-5.786771699786186218e-02,4.775867983698844910e-02,6.141430512070655823e-02,7.037213444709777832e-02
-2.010676078498363495e-02,4.967751353979110718e-02,2.119896700605750084e-03,-1.228814423084259033e-01,1.110563799738883972e-02,-3.070535883307456970e-02,-5.771362036466598511e-02,5.018862336874008179e-02,6.049826741218566895e-02,6.977824121713638306e-02
-2.010676078498363495e-02,4.967751353979110718e-02,2.119896700605750084e-03,-1.228814423084259033e-01,1.110563799738883972e-02,-3.070535883307456970e-02,-5.771362036466598511e-02,5.018862336874008179e-02,6.049826741218566895e-02,6.977824121713638306e-02
-1.892857998609542847e-02,5.293095484375953674e-02,1.613692031241953373e-03,-1.245397254824638367e-01,1.257174927741289139e-02,-3.121942840516567230e-02,-5.938784778118133545e-02,5.094650015234947205e-02,5.976411327719688416e-02,7.034377753734588623e-02
-1.892857998609542847e-02,5.293095484375953674e-02,1.613692031241953373e-03,-1.245397254824638367e-01,1.257174927741289139e-02,-3.121942840516567230e-02,-5.938784778118133545e-02,5.094650015234947205e-02,5.976411327719688416e-02,7.034377753734588623e-02
-1.751685328781604767e-02,5.456988140940666199e-02,1.528055872768163681e-03,-1.267363876104354858e-01,1.253487821668386459e-02,-3.183143958449363708e-02,-5.852895230054855347e-02,5.071670934557914734e-02,5.945761501789093018e-02,7.195443660020828247e-02
-1.751685328781604767e-02,5.456988140940666199e-02,1.528055872768163681e-03,-1.267363876104354858e-01,1.253487821668386459e-02,-3.183143958449363708e-02,-5.852895230054855347e-02,5.071670934557914734e-02,5.945761501789093018e-02,7.195443660020828247e-02
-1.760078407824039459e-02,5.821214243769645691e-02,8.934399229474365711e-04,-1.271059215068817139e-01,1.281188614666461945e-02,-3.543094173073768616e-02,-5.763597413897514343e-02,5.172523483633995056e-02,6.110399961471557617e-02,7.170073688030242920e-02
-1.760078407824039459e-02,5.821214243769645691e-02,8.934399229474365711e-04,-1.271059215068817139e-01,1.281188614666461945e-02,-3.543094173073768616e-02,-5.763597413897514343e-02,5.172523483633995056e-02,6.110399961471557617e-02,7.170073688030242920e-02
-1.632354408502578735e-02,6.102760136127471924e-02,4.633214557543396950e-04,-1.296496242284774780e-01,1.274282112717628479e-02,-3.560092672705650330e-02,-5.905363336205482483e-02,5.459755659103393555e-02,6.079163774847984314e-02,7.151000946760177612e-02
-1.632354408502578735e-02,6.102760136127471924e-02,4.633214557543396950e-04,-1.296496242284774780e-01,1.274282112717628479e-02,-3.560092672705650330e-02,-5.905363336205482483e-02,5.459755659103393555e-02,6.079163774847984314e-02,7.151000946760177612e-02
-1.496097352355718613e-02,6.461491435766220093e-02,1.524425577372312546e-03,-1.310630738735198975e-01,1.377784553915262222e-02,-3.858369961380958557e-02,-5.971913039684295654e-02,5.454497411847114563e-02,6.005194038152694702e-02,7.282093167304992676e-02
-1.496097352355718613e-02,6.461491435766220093e-02,1.524425577372312546e-03,-1.310630738735198975e-01,1.377784553915262222e-02,-3.858369961380958557e-02,-5.971913039684295654e-02,5.454497411847114563e-02,6.005194038152694702e-02,7.282093167304992676e-02
-1.244989130645990372e-02,6.487137824296951294e-02,6.865904433652758598e-04,-1.323118805885314941e-01,1.443979982286691666e-02,-4.025007411837577820e-02,-5.896994471549987793e-02,5.489209666848182678e-02,6.058499217033386230e-02,7.322344928979873657e-02
-1.244989130645990372e-02,6.487137824296951294e-02,6.865904433652758598e-04,-1.323118805885314941e-01,1.443979982286691666e-02,-4.025007411837577820e-02,-5.896994471549987793e-02,5.489209666848182678e-02,6.058499217033386230e-02,7.322344928979873657e-02
-1.195691432803869247e-02,6.856045126914978027e-02,-6.746785948053002357e-05,-1.345966160297393799e-01,1.457024365663528442e-02,-3.954310342669487000e-02,-5.969355627894401550e-02,5.681812763214111328e-02,5.867360159754753113e-02,7.419786602258682251e-02
-1.195691432803869247e-02,6.856045126914978027e-02,-6.746785948053002357e-05,-1.345966160297393799e-01,1.457024365663528442e-02,-3.954310342669487000e-02,-5.969355627894401550e-02,5.681812763214111328e-02,5.867360159754753113e-02,7.419786602258682251e-02
-1.249514240771532059e-02,6.862415373325347900e-02,9.356945520266890526e-04,-1.354230642318725586e-01,1.368531491607427597e-02,-4.291625320911407471e-02,-5.734989792108535767e-02,5.874346941709518433e-02,5.950815975666046143e-02,7.433855533599853516e-02
-1.249514240771532059e-02,6.862415373325347900e-02,9.356945520266890526e-04,-1.354230642318725586e-01,1.368531491607427597e-02,-4.291625320911407471e-02,-5.734989792108535767e-02,5.874346941709518433e-02,5.950815975666046143e-02,7.433855533599853516e-02
-9.878946468234062195e-03,7.086659222841262817e-02,1.007197541184723377e-03,-1.381753683090209961e-01,1.584882661700248718e-02,-4.356023669242858887e-02,-6.011293455958366394e-02,5.987223982810974121e-02,5.919024720788002014e-02,7.448130100965499878e-02
-9.878946468234062195e-03,7.086659222841262817e-02,1.007197541184723377e-03,-1.381753683090209961e-01,1.584882661700248718e-02,-4.356023669242858887e-02,-6.011293455958366394e-02,5.987223982810974121e-02,5.919024720788002014e-02,7.448130100965499878e-02
-8.384057320654392242e-03,7.334251701831817627e-02,-1.251642010174691677e-03,-1.387023031711578369e-01,1.588040217757225037e-02,-4.460469260811805725e-02,-6.069991365075111389e-02,5.969372019171714783e-02,5.983044207096099854e-02,7.612413913011550903e-02
-8.384057320654392242e-03,7.334251701831817627e-02,-1.251642010174691677e-03,-1.387023031711578369e-01,1.588040217757225037e-02,-4.460469260811805725e-02,-6.069991365075111389e-02,5.969372019171714783e-02,5.983044207096099854e-02,7.612413913011550903e-02
-8.189431391656398773e-03,7.382237911224365234e-02,-2.922851417679339647e-04,-1.408780366182327271e-01,1.681783422827720642e-02,-4.679336026310920715e-02,-5.791477486491203308e-02,6.102081760764122009e-02,5.941363424062728882e-02,7.617984712123870850e-02
-8.189431391656398773e-03,7.382237911224365234e-02,-2.922851417679339647e-04,-1.408780366182327271e-01,1.681783422827720642e-02,-4.679336026310920715e-02,-5.791477486491203308e-02,6.102081760764122009e-02,5.941363424062728882e-02,7.617984712123870850e-02
-6.602445151656866074e-03,7.831097394227981567e-02,-2.376915217610076070e-04,-1.408265084028244019e-01,1.582599058747291565e-02,-4.900404065847396851e-02,-6.000313907861709595e-02,6.177943944931030273e-02,5.991821736097335815e-02,7.593750208616256714e-02
-6.602445151656866074e-03,7.831097394227981567e-02,-2.376915217610076070e-04,-1.408265084028244019e-01,1.582599058747291565e-02,-4.900404065847396851e-02,-6.000313907861709595e-02,6.177943944931030273e-02,5.991821736097335815e-02,7.593750208616256714e-02
-5.997220054268836975e-03,7.862399518489837646e-02,-1.890838262625038624e-03,-1.420994549989700317e-01,1.805392652750015259e-02,-4.867372289299964905e-02,-5.959776043891906738e-02,6.202089786529541016e-02,5.928199738264083862e-02,7.665242254734039307e-02
-5.997220054268836975e-03,7.862399518489837646e-02,-1.890838262625038624e-03,-1.420994549989700317e-01,1.805392652750015259e-02,-4.867372289299964905e-02,-5.959776043891906738e-02,6.202089786529541016e-02,5.928199738264083862e-02,7.665242254734039307e-02
