5.746176093816757202e-02,3.121862374246120453e-02,1.694965176284313202e-02,1.708518341183662415e-02,-3.591052815318107605e-02,-7.116716355085372925e-02,-4.732120037078857422e-02,1.652669906616210938e-02,-1.213867217302322388e-02,2.803546003997325897e-02
5.746176093816757202e-02,3.121862374246120453e-02,1.694965176284313202e-02,1.708518341183662415e-02,-3.591052815318107605e-02,-7.116716355085372925e-02,-4.732120037078857422e-02,1.652669906616210938e-02,-1.213867217302322388e-02,2.803546003997325897e-02
6.366823613643646240e-02,3.697848692536354065e-02,1.678342185914516449e-02,1.232017297297716141e-02,-3.125483542680740356e-02,-8.002273738384246826e-02,-5.745574459433555603e-02,2.035694383084774017e-02,-1.053931470960378647e-02,3.034472465515136719e-02
6.366823613643646240e-02,3.697848692536354065e-02,1.678342185914516449e-02,1.232017297297716141e-02,-3.125483542680740356e-02,-8.002273738384246826e-02,-5.745574459433555603e-02,2.035694383084774017e-02,-1.053931470960378647e-02,3.034472465515136719e-02
6.667671352624893188e-02,4.411156848073005676e-02,1.558667514473199844e-02,1.248332392424345016e-02,-3.074452467262744904e-02,-8.361747860908508301e-02,-6.699041277170181274e-02,2.562111429870128632e-02,-1.220803428441286087e-02,3.125904127955436707e-02
6.667671352624893188e-02,4.411156848073005676e-02,1.558667514473199844e-02,1.248332392424345016e-02,-3.074452467262744904e-02,-8.361747860908508301e-02,-6.699041277170181274e-02,2.562111429870128632e-02,-1.220803428441286087e-02,3.125904127955436707e-02
6.715758144855499268e-02,5.170686170458793640e-02,1.442451681941747665e-02,1.291218586266040802e-02,-3.019906021654605865e-02,-8.653261512517929077e-02,-7.123172283172607422e-02,3.006807528436183929e-02,-1.687966845929622650e-02,3.339330106973648071e-02
6.715758144855499268e-02,5.170686170458793640e-02,1.442451681941747665e-02,1.291218586266040802e-02,-3.019906021654605865e-02,-8.653261512517929077e-02,-7.123172283172607422e-02,3.006807528436183929e-02,-1.687966845929622650e-02,3.339330106973648071e-02
6.945256143808364868e-02,5.884007364511489868e-02,1.299082767218351364e-02,1.329939439892768860e-02,-3.063410706818103790e-02,-8.815168589353561401e-02,-7.734461128711700439e-02,3.429692611098289490e-02,-2.084980532526969910e-02,3.533062338829040527e-02
6.945256143808364868e-02,5.884007364511489868e-02,1.299082767218351364e-02,1.329939439892768860e-02,-3.063410706818103790e-02,-8.815168589353561401e-02,-7.734461128711700439e-02,3.429692611098289490e-02,-2.084980532526969910e-02,3.533062338829040527e-02
7.113026827573776245e-02,6.415975838899612427e-02,1.420997735112905502e-02,1.331672072410583496e-02,-3.120611608028411865e-02,-8.895285427570343018e-02,-8.145893365144729614e-02,3.650692105293273926e-02,-2.416920661926269531e-02,3.548417612910270691e-02
7.113026827573776245e-02,6.415975838899612427e-02,1.420997735112905502e-02,1.331672072410583496e-02,-3.120611608028411865e-02,-8.895285427570343018e-02,-8.145893365144729614e-02,3.650692105293273926e-02,-2.416920661926269531e-02,3.548417612910270691e-02
7.161765545606613159e-02,6.899005919694900513e-02,1.333312783390283585e-02,1.441174000501632690e-02,-3.193341940641403198e-02,-8.964206278324127197e-02,-8.528673648834228516e-02,3.864648938179016113e-02,-2.654928341507911682e-02,3.669967502355575562e-02
7.161765545606613159e-02,6.899005919694900513e-02,1.333312783390283585e-02,1.441174000501632690e-02,-3.193341940641403198e-02,-8.964206278324127197e-02,-8.528673648834228516e-02,3.864648938179016113e-02,-2.654928341507911682e-02,3.669967502355575562e-02
7.187008857727050781e-02,7.544071972370147705e-02,1.218426506966352463e-02,1.433756947517395020e-02,-3.273310884833335876e-02,-8.963427692651748657e-02,-8.767664432525634766e-02,4.147116467356681824e-02,-2.930816821753978729e-02,3.691865876317024231e-02
7.187008857727050781e-02,7.544071972370147705e-02,1.218426506966352463e-02,1.433756947517395020e-02,-3.273310884833335876e-02,-8.963427692651748657e-02,-8.767664432525634766e-02,4.147116467356681824e-02,-2.930816821753978729e-02,3.691865876317024231e-02
7.296718657016754150e-02,7.837481796741485596e-02,1.371931750327348709e-02,1.403504796326160431e-02,-3.317704796791076660e-02,-9.007238596677780151e-02,-9.139649569988250732e-02,4.409491270780563354e-02,-3.216937184333801270e-02,3.727348148822784424e-02
7.296718657016754150e-02,7.837481796741485596e-02,1.371931750327348709e-02,1.403504796326160431e-02,-3.317704796791076660e-02,-9.007238596677780151e-02,-9.139649569988250732e-02,4.409491270780563354e-02,-3.216937184333801270e-02,3.727348148822784424e-02
7.377103716135025024e-02,8.394349366426467896e-02,1.495114434510469437e-02,1.393623836338520050e-02,-3.302958607673645020e-02,-9.081662446260452271e-02,-9.538426250219345093e-02,4.480499029159545898e-02,-3.449971973896026611e-02,3.760260716080665588e-02
7.377103716135025024e-02,8.394349366426467896e-02,1.495114434510469437e-02,1.393623836338520050e-02,-3.302958607673645020e-02,-9.081662446260452271e-02,-9.538426250219345093e-02,4.480499029159545898e-02,-3.449971973896026611e-02,3.760260716080665588e-02
7.355519384145736694e-02,8.933762460947036743e-02,1.471551787108182907e-02,1.544703170657157898e-02,-3.440851345658302307e-02,-8.940369635820388794e-02,-9.907470643520355225e-02,4.684628546237945557e-02,-3.837146982550621033e-02,3.788689896464347839e-02
7.355519384145736694e-02,8.933762460947036743e-02,1.471551787108182907e-02,1.544703170657157898e-02,-3.440851345658302307e-02,-8.940369635820388794e-02,-9.907470643520355225e-02,4.684628546237945557e-02,-3.837146982550621033e-02,3.788689896464347839e-02
7.318639755249023438e-02,9.195262938737869263e-02,1.507124118506908417e-02,1.554710697382688522e-02,-3.506618738174438477e-02,-8.933924138545989990e-02,-1.011024266481399536e-01,4.804786667227745056e-02,-3.925406187772750854e-02,3.783572465181350708e-02
7.318639755249023438e-02,9.195262938737869263e-02,1.507124118506908417e-02,1.554710697382688522e-02,-3.506618738174438477e-02,-8.933924138545989990e-02,-1.011024266481399536e-01,4.804786667227745056e-02,-3.925406187772750854e-02,3.783572465181350708e-02
7.349552214145660400e-02,9.562788158655166626e-02,1.597598940134048462e-02,1.504511013627052307e-02,-3.634617850184440613e-02,-8.934342116117477417e-02,-1.028180196881294250e-01,4.935507476329803467e-02,-4.039748385548591614e-02,3.741297870874404907e-02
7.349552214145660400e-02,9.562788158655166626e-02,1.597598940134048462e-02,1.504511013627052307e-02,-3.634617850184440613e-02,-8.934342116117477417e-02,-1.028180196881294250e-01,4.935507476329803467e-02,-4.039748385548591614e-02,3.741297870874404907e-02
7.341436296701431274e-02,9.862990677356719971e-02,1.797074452042579651e-02,1.557274442166090012e-02,-3.794564679265022278e-02,-9.038779139518737793e-02,-1.028333678841590881e-01,5.051186308264732361e-02,-4.345384985208511353e-02,3.772629424929618835e-02
7.341436296701431274e-02,9.862990677356719971e-02,1.797074452042579651e-02,1.557274442166090012e-02,-3.794564679265022278e-02,-9.038779139518737793e-02,-1.028333678841590881e-01,5.051186308264732361e-02,-4.345384985208511353e-02,3.772629424929618835e-02
7.341547310352325439e-02,1.012339442968368530e-01,1.827998645603656769e-02,1.650818437337875366e-02,-3.692763298749923706e-02,-9.004271775484085083e-02,-1.065906882286071777e-01,5.177688226103782654e-02,-4.506663605570793152e-02,3.672324493527412415e-02
7.341547310352325439e-02,1.012339442968368530e-01,1.827998645603656769e-02,1.650818437337875366e-02,-3.692763298749923706e-02,-9.004271775484085083e-02,-1.065906882286071777e-01,5.177688226103782654e-02,-4.506663605570793152e-02,3.672324493527412415e-02
7.444743067026138306e-02,1.028426215052604675e-01,1.950716972351074219e-02,1.510330941528081894e-02,-3.835078701376914978e-02,-8.938897401094436646e-02,-1.078162267804145813e-01,5.317117646336555481e-02,-4.632396250963211060e-02,3.675568103790283203e-02
7.444743067026138306e-02,1.028426215052604675e-01,1.950716972351074219e-02,1.510330941528081894e-02,-3.835078701376914978e-02,-8.938897401094436646e-02,-1.078162267804145813e-01,5.317117646336555481e-02,-4.632396250963211060e-02,3.675568103790283203e-02
7.509983330965042114e-02,1.050694808363914490e-01,2.046521939337253571e-02,1.502724923193454742e-02,-3.958512097597122192e-02,-8.935999870300292969e-02,-1.114170551300048828e-01,5.432557687163352966e-02,-4.788609594106674194e-02,3.784435614943504333e-02
7.509983330965042114e-02,1.050694808363914490e-01,2.046521939337253571e-02,1.502724923193454742e-02,-3.958512097597122192e-02,-8.935999870300292969e-02,-1.114170551300048828e-01,5.432557687163352966e-02,-4.788609594106674194e-02,3.784435614943504333e-02
7.511156052350997925e-02,1.095749214291572571e-01,2.195611409842967987e-02,1.346413698047399521e-02,-3.879031911492347717e-02,-9.105578064918518066e-02,-1.117420047521591187e-01,5.599246546626091003e-02,-4.947479441761970520e-02,3.698305040597915649e-02
7.511156052350997925e-02,1.095749214291572571e-01,2.195611409842967987e-02,1.346413698047399521e-02,-3.879031911492347717e-02,-9.105578064918518066e-02,-1.117420047521591187e-01,5.599246546626091003e-02,-4.947479441761970520e-02,3.698305040597915649e-02
7.487919181585311890e-02,1.123941764235496521e-01,2.265758439898490906e-02,1.393725164234638214e-02,-3.976450487971305847e-02,-9.018969535827636719e-02,-1.129624769091606140e-01,5.518392473459243774e-02,-5.224410444498062134e-02,3.864634037017822266e-02
7.487919181585311890e-02,1.123941764235496521e-01,2.265758439898490906e-02,1.393725164234638214e-02,-3.976450487971305847e-02,-9.018969535827636719e-02,-1.129624769091606140e-01,5.518392473459243774e-02,-5.224410444498062134e-02,3.864634037017822266e-02
7.322757691144943237e-02,1.150875389575958252e-01,2.338169328868389130e-02,1.386100705713033676e-02,-4.239398613572120667e-02,-9.117166697978973389e-02,-1.119209900498390198e-01,5.903585627675056458e-02,-5.201380327343940735e-02,3.619667515158653259e-02
7.322757691144943237e-02,1.150875389575958252e-01,2.338169328868389130e-02,1.386100705713033676e-02,-4.239398613572120667e-02,-9.117166697978973389e-02,-1.119209900498390198e-01,5.903585627675056458e-02,-5.201380327343940735e-02,3.619667515158653259e-02
7.542328536510467529e-02,1.152344346046447754e-01,2.508023567497730255e-02,1.292977668344974518e-02,-4.252729564905166626e-02,-8.988732844591140747e-02,-1.138260811567306519e-01,5.973118543624877930e-02,-5.476573109626770020e-02,3.619554638862609863e-02
7.542328536510467529e-02,1.152344346046447754e-01,2.508023567497730255e-02,1.292977668344974518e-02,-4.252729564905166626e-02,-8.988732844591140747e-02,-1.138260811567306519e-01,5.973118543624877930e-02,-5.476573109626770020e-02,3.619554638862609863e-02
7.491588592529296875e-02,1.185938566923141479e-01,2.652985230088233948e-02,1.213398855179548264e-02,-4.317676648497581482e-02,-9.070490300655364990e-02,-1.162889748811721802e-01,6.009371206164360046e-02,-5.652800947427749634e-02,3.812683001160621643e-02
7.491588592529296875e-02,1.185938566923141479e-01,2.652985230088233948e-02,1.213398855179548264e-02,-4.317676648497581482e-02,-9.070490300655364990e-02,-1.162889748811721802e-01,6.009371206164360046e-02,-5.652800947427749634e-02,3.812683001160621643e-02
7.457344233989715576e-02,1.189358979463577271e-01,2.775349095463752747e-02,1.195863448083400726e-02,-4.302621632814407349e-02,-9.061562269926071167e-02,-1.178212389349937439e-01,6.056134402751922607e-02,-5.657969042658805847e-02,3.736782819032669067e-02
7.457344233989715576e-02,1.189358979463577271e-01,2.775349095463752747e-02,1.195863448083400726e-02,-4.302621632814407349e-02,-9.061562269926071167e-02,-1.178212389349937439e-01,6.056134402751922607e-02,-5.657969042658805847e-02,3.736782819032669067e-02
7.442735135555267334e-02,1.215760782361030579e-01,2.845337241888046265e-02,1.073124539107084274e-02,-4.345567151904106140e-02,-9.107106924057006836e-02,-1.188027858734130859e-01,6.346547603607177734e-02,-5.852072313427925110e-02,3.716485202312469482e-02
7.442735135555267334e-02,1.215760782361030579e-01,2.845337241888046265e-02,1.073124539107084274e-02,-4.345567151904106140e-02,-9.107106924057006836e-02,-1.188027858734130859e-01,6.346547603607177734e-02,-5.852072313427925110e-02,3.716485202312469482e-02
7.465967535972595215e-02,1.230827942490577698e-01,2.883578278124332428e-02,1.140594109892845154e-02,-4.522071033716201782e-02,-9.245448559522628784e-02,-1.191988140344619751e-01,6.491527706384658813e-02,-5.975576117634773254e-02,3.777248784899711609e-02
7.465967535972595215e-02,1.230827942490577698e-01,2.883578278124332428e-02,1.140594109892845154e-02,-4.522071033716201782e-02,-9.245448559522628784e-02,-1.191988140344619751e-01,6.491527706384658813e-02,-5.975576117634773254e-02,3.777248784899711609e-02
7.531417161226272583e-02,1.241942495107650757e-01,3.101425617933273315e-02,1.007240079343318939e-02,-4.547194018959999084e-02,-9.088157117366790771e-02,-1.208453848958015442e-01,6.587605178356170654e-02,-6.239117681980133057e-02,3.744901716709136963e-02
7.531417161226272583e-02,1.241942495107650757e-01,3.101425617933273315e-02,1.007240079343318939e-02,-4.547194018959999084e-02,-9.088157117366790771e-02,-1.208453848958015442e-01,6.587605178356170654e-02,-6.239117681980133057e-02,3.744901716709136963e-02
7.579747587442398071e-02,1.275006234645843506e-01,3.051068447530269623e-02,9.190604090690612793e-03,-4.456923902034759521e-02,-9.240279346704483032e-02,-1.223624348640441895e-01,6.681159883737564087e-02,-6.211856752634048462e-02,3.730973601341247559e-02
7.579747587442398071e-02,1.275006234645843506e-01,3.051068447530269623e-02,9.190604090690612793e-03,-4.456923902034759521e-02,-9.240279346704483032e-02,-1.223624348640441895e-01,6.681159883737564087e-02,-6.211856752634048462e-02,3.730973601341247559e-02
7.551687955856323242e-02,1.282447278499603271e-01,3.100905753672122955e-02,7.146327290683984756e-03,-4.415246471762657166e-02,-9.286004304885864258e-02,-1.226614117622375488e-01,6.878003478050231934e-02,-6.293104588985443115e-02,3.772292658686637878e-02
7.551687955856323242e-02,1.282447278499603271e-01,3.100905753672122955e-02,7.146327290683984756e-03,-4.415246471762657166e-02,-9.286004304885864258e-02,-1.226614117622375488e-01,6.878003478050231934e-02,-6.293104588985443115e-02,3.772292658686637878e-02
7.593768835067749023e-02,1.286482810974121094e-01,3.301694616675376892e-02,7.753368001431226730e-03,-4.411311075091362000e-02,-9.327215701341629028e-02,-1.234704628586769104e-01,6.854862719774246216e-02,-6.373450905084609985e-02,3.654687106609344482e-02
7.593768835067749023e-02,1.286482810974121094e-01,3.301694616675376892e-02,7.753368001431226730e-03,-4.411311075091362000e-02,-9.327215701341629028e-02,-1.234704628586769104e-01,6.854862719774246216e-02,-6.373450905084609985e-02,3.654687106609344482e-02
7.724270969629287720e-02,1.306533664464950562e-01,3.432518616318702698e-02,6.218862254172563553e-03,-4.478511586785316467e-02,-9.344148635864257812e-02,-1.248829588294029236e-01,6.781465560197830200e-02,-6.505265086889266968e-02,3.842574730515480042e-02
7.724270969629287720e-02,1.306533664464950562e-01,3.432518616318702698e-02,6.218862254172563553e-03,-4.478511586785316467e-02,-9.344148635864257812e-02,-1.248829588294029236e-01,6.781465560197830200e-02,-6.505265086889266968e-02,3.842574730515480042e-02
