-4.224937409162521362e-02,4.325239360332489014e-02,-3.843652084469795227e-02,4.488876834511756897e-02,2.121748402714729309e-02,-1.447560638189315796e-02,5.405867472290992737e-03,-9.724228642880916595e-03,2.614104747772216797e-02,5.677244439721107483e-02
-4.459777846932411194e-02,4.771617427468299866e-02,-4.129275307059288025e-02,4.334889352321624756e-02,1.940323971211910248e-02,-1.438341755419969559e-02,4.353082738816738129e-03,-6.373548880219459534e-03,2.933776192367076874e-02,5.531772598624229431e-02
-4.448767751455307007e-02,4.937652125954627991e-02,-4.176272451877593994e-02,4.359650984406471252e-02,1.937869936227798462e-02,-1.488433871418237686e-02,3.583050332963466644e-03,-4.685913678258657455e-03,2.538267709314823151e-02,5.716223642230033875e-02
-4.520389437675476074e-02,5.156442523002624512e-02,-4.292269423604011536e-02,4.407937452197074890e-02,2.010713890194892883e-02,-1.531688682734966278e-02,1.936411485075950623e-03,-2.891548676416277885e-03,2.315956912934780121e-02,5.816146358847618103e-02
-4.501011967658996582e-02,5.256712809205055237e-02,-4.285061731934547424e-02,4.280934855341911316e-02,2.148327976465225220e-02,-1.477236393839120865e-02,5.759042687714099884e-04,-1.486484659835696220e-03,2.220356836915016174e-02,5.747808143496513367e-02
-4.442936182022094727e-02,5.361590534448623657e-02,-4.345427826046943665e-02,4.228290915489196777e-02,2.204392850399017334e-02,-1.415180973708629608e-02,-4.548410070128738880e-04,-1.468750764615833759e-03,2.027009986340999603e-02,5.877075344324111938e-02
-4.546582698822021484e-02,5.523239821195602417e-02,-4.406370967626571655e-02,4.093837365508079529e-02,2.239958196878433228e-02,-1.303621381521224976e-02,-1.413891557604074478e-03,-1.065077143721282482e-03,2.025672420859336853e-02,5.924341082572937012e-02
-4.593575745820999146e-02,5.598600208759307861e-02,-4.312242567539215088e-02,4.061087593436241150e-02,2.314220927655696869e-02,-1.296261884272098541e-02,-2.168898470699787140e-03,-1.031892723403871059e-03,1.911506429314613342e-02,5.956529825925827026e-02
-4.612494632601737976e-02,5.704175308346748352e-02,-4.424793273210525513e-02,3.922818973660469055e-02,2.230792678892612457e-02,-1.166375167667865753e-02,-3.159709041938185692e-03,6.654413882642984390e-04,1.923143863677978516e-02,5.989658460021018982e-02
-4.627983644604682922e-02,5.657541006803512573e-02,-4.505086690187454224e-02,3.999522700905799866e-02,2.428540401160717010e-02,-1.240139361470937729e-02,-3.064144402742385864e-03,-3.602609504014253616e-04,1.991334557533264160e-02,5.937242880463600159e-02
-4.725273698568344116e-02,5.676640197634696960e-02,-4.502967000007629395e-02,3.978109359741210938e-02,2.301172353327274323e-02,-1.217335835099220276e-02,-3.332895925268530846e-03,9.302701218985021114e-04,2.039835602045059204e-02,5.965554341673851013e-02
-4.588655754923820496e-02,5.773068964481353760e-02,-4.726641625165939331e-02,4.028665646910667419e-02,2.434605360031127930e-02,-1.202546246349811554e-02,-5.252706352621316910e-03,6.491357926279306412e-04,2.130017057061195374e-02,5.859095230698585510e-02
-4.622344672679901123e-02,5.714888870716094971e-02,-4.680774733424186707e-02,3.960668295621871948e-02,2.412980608642101288e-02,-1.009391620755195618e-02,-4.916790407150983810e-03,-2.496281522326171398e-04,2.163070067763328552e-02,5.776106193661689758e-02
-4.610697925090789795e-02,5.727554857730865479e-02,-4.743112996220588684e-02,3.911955654621124268e-02,2.381484396755695343e-02,-1.038139872252941132e-02,-5.351714324206113815e-03,1.101648434996604919e-03,2.255667001008987427e-02,5.735584348440170288e-02
-4.711977764964103699e-02,5.742305144667625427e-02,-4.762240126729011536e-02,3.917903825640678406e-02,2.347655594348907471e-02,-9.008029475808143616e-03,-5.965701770037412643e-03,1.274165697395801544e-04,2.289501205086708069e-02,5.777603760361671448e-02
-4.731576144695281982e-02,5.637812986969947815e-02,-4.674208909273147583e-02,3.947806730866432190e-02,2.356825396418571472e-02,-9.246818721294403076e-03,-5.836829543113708496e-03,-9.042567689903080463e-04,2.385286055505275726e-02,5.738816037774085999e-02
-4.619920253753662109e-02,5.607736110687255859e-02,-4.828544333577156067e-02,3.865959122776985168e-02,2.202347479760646820e-02,-7.564357947558164597e-03,-5.976222455501556396e-03,-2.339832280995324254e-04,2.455584518611431122e-02,5.709683895111083984e-02
-4.575464874505996704e-02,5.552482604980468750e-02,-4.930616542696952820e-02,3.938443958759307861e-02,2.270903065800666809e-02,-6.884954404085874557e-03,-6.570838391780853271e-03,-4.472868749871850014e-04,2.555851079523563385e-02,5.525037273764610291e-02
-4.601429402828216553e-02,5.523374304175376892e-02,-4.929725080728530884e-02,3.940478712320327759e-02,2.191357314586639404e-02,-6.058092694729566574e-03,-7.102198433130979538e-03,-1.373725710436701775e-03,2.679177187383174896e-02,5.489563941955566406e-02
-4.570385068655014038e-02,5.423065647482872009e-02,-4.947930946946144104e-02,3.940087556838989258e-02,2.125628106296062469e-02,-4.739314317703247070e-03,-7.402809802442789078e-03,-1.452002325095236301e-03,2.654049172997474670e-02,5.519860982894897461e-02
-4.377884045243263245e-02,5.462357401847839355e-02,-4.975503683090209961e-02,3.963690623641014099e-02,2.062712982296943665e-02,-4.110965877771377563e-03,-7.996163330972194672e-03,-2.717968309298157692e-03,2.717379294335842133e-02,5.382024869322776794e-02
-4.437831416726112366e-02,5.356448516249656677e-02,-4.939974099397659302e-02,4.036299884319305420e-02,2.041319385170936584e-02,-4.179564770311117172e-03,-7.891367189586162567e-03,-3.208979032933712006e-03,2.849604003131389618e-02,5.279519408941268921e-02
-4.423161596059799194e-02,5.298426002264022827e-02,-5.004849657416343689e-02,4.072302207350730896e-02,2.013818733394145966e-02,-2.350514056161046028e-03,-8.605872280895709991e-03,-4.125132225453853607e-03,2.866494469344615936e-02,5.236819759011268616e-02
-4.372964426875114441e-02,5.276276171207427979e-02,-5.100939422845840454e-02,4.164310917258262634e-02,1.963898353278636932e-02,-2.024033106863498688e-03,-8.853302337229251862e-03,-4.990430083125829697e-03,2.887265197932720184e-02,5.266660824418067932e-02
-4.308041930198669434e-02,5.234707146883010864e-02,-5.263205245137214661e-02,4.195812344551086426e-02,1.882040686905384064e-02,-1.095245825126767159e-03,-7.788376417011022568e-03,-5.752228666096925735e-03,2.883093245327472687e-02,5.295307934284210205e-02
-4.301555454730987549e-02,5.112365260720252991e-02,-5.176721140742301941e-02,4.273799061775207520e-02,1.868331991136074066e-02,-1.434697333024814725e-04,-8.657348342239856720e-03,-6.023338995873928070e-03,2.921708859503269196e-02,5.154400318861007690e-02
-4.230499640107154846e-02,5.113863945007324219e-02,-5.236767604947090149e-02,4.327549412846565247e-02,1.789305917918682098e-02,6.937168654985725880e-04,-9.766051545739173889e-03,-6.208773702383041382e-03,2.925235219299793243e-02,5.152282491326332092e-02
-4.139897972345352173e-02,5.016514658927917480e-02,-5.214173719286918640e-02,4.352796077728271484e-02,1.791822537779808044e-02,1.601739088073372841e-03,-9.770879521965980530e-03,-6.599967367947101593e-03,2.920218743383884430e-02,5.041290447115898132e-02
-4.067751765251159668e-02,4.926309734582901001e-02,-5.317390337586402893e-02,4.414875060319900513e-02,1.732616499066352844e-02,2.022772561758756638e-03,-9.620930999517440796e-03,-7.088216021656990051e-03,2.942212112247943878e-02,5.073006823658943176e-02
-4.141828417778015137e-02,4.901361837983131409e-02,-5.342651531100273132e-02,4.450359940528869629e-02,1.698754914104938507e-02,2.870152005925774574e-03,-8.746790699660778046e-03,-6.931558251380920410e-03,2.913235500454902649e-02,5.012192577123641968e-02
