-7.522662170231342316e-03,2.522661536931991577e-02,4.130619019269943237e-02,-5.913009867072105408e-02,-2.551660127937793732e-02,1.071429345756769180e-02,1.638336107134819031e-02,4.365982953459024429e-03,-1.420250721275806427e-02,8.500183932483196259e-03
-1.276496052742004395e-02,2.673544362187385559e-02,3.871031478047370911e-02,-5.870952829718589783e-02,-2.780285850167274475e-02,1.322182733565568924e-02,1.887903176248073578e-02,5.525478627532720566e-03,-1.537503767758607864e-02,1.120977476239204407e-02
-1.559306588023900986e-02,3.012911975383758545e-02,3.838540613651275635e-02,-6.090079247951507568e-02,-2.677689120173454285e-02,1.336092222481966019e-02,1.774545572698116302e-02,6.527332123368978500e-03,-1.754963770508766174e-02,1.379076298326253891e-02
-1.787427812814712524e-02,3.303970023989677429e-02,3.830784186720848083e-02,-6.200328469276428223e-02,-2.587566524744033813e-02,1.323827449232339859e-02,1.746025308966636658e-02,7.021641824394464493e-03,-1.938640698790550232e-02,1.514219678938388824e-02
-1.870441064238548279e-02,3.422668203711509705e-02,3.774356842041015625e-02,-6.305199861526489258e-02,-2.579938247799873352e-02,1.219415478408336639e-02,1.732743717730045319e-02,8.458139374852180481e-03,-2.006399072706699371e-02,1.707710325717926025e-02
-1.995900832116603851e-02,3.631699457764625549e-02,3.743611276149749756e-02,-6.385070830583572388e-02,-2.559379115700721741e-02,1.340620219707489014e-02,1.532874256372451782e-02,9.559660218656063080e-03,-2.103955484926700592e-02,1.792092435061931610e-02
-2.094029076397418976e-02,3.807912021875381470e-02,3.766184300184249878e-02,-6.486947834491729736e-02,-2.551389858126640320e-02,1.432462781667709351e-02,1.498397346585988998e-02,1.052854768931865692e-02,-2.199998497962951660e-02,1.756121963262557983e-02
-2.148150838911533356e-02,3.865074366331100464e-02,3.543677926063537598e-02,-6.481937319040298462e-02,-2.468171715736389160e-02,1.330094318836927414e-02,1.410773303359746933e-02,1.061663310974836349e-02,-2.025735192000865936e-02,1.865422539412975311e-02
-2.267201431095600128e-02,3.962209075689315796e-02,3.669572249054908752e-02,-6.653907895088195801e-02,-2.425958774983882904e-02,1.429177168756723404e-02,1.309601496905088425e-02,1.101205125451087952e-02,-1.987668126821517944e-02,1.804480329155921936e-02
-2.341400459408760071e-02,3.945422172546386719e-02,3.652036190032958984e-02,-6.710669398307800293e-02,-2.472069486975669861e-02,1.448620855808258057e-02,1.303039677441120148e-02,1.110958866775035858e-02,-1.960187032818794250e-02,1.938848569989204407e-02
-2.387997321784496307e-02,3.981974720954895020e-02,3.687645122408866882e-02,-6.612068414688110352e-02,-2.680299058556556702e-02,1.429877243936061859e-02,1.359097566455602646e-02,1.172576379030942917e-02,-1.917052268981933594e-02,1.863556355237960815e-02
-2.428116276860237122e-02,4.090043902397155762e-02,3.643407672643661499e-02,-6.647238135337829590e-02,-2.636838145554065704e-02,1.500599458813667297e-02,1.195507869124412537e-02,1.274995412677526474e-02,-1.880184188485145569e-02,1.773870922625064850e-02
-2.452827990055084229e-02,4.070187360048294067e-02,3.585005924105644226e-02,-6.669697910547256470e-02,-2.734429389238357544e-02,1.460893359035253525e-02,1.218337845057249069e-02,1.256297621876001358e-02,-1.755723915994167328e-02,1.857082732021808624e-02
-2.465248852968215942e-02,4.088913276791572571e-02,3.664464503526687622e-02,-6.745577603578567505e-02,-2.683563902974128723e-02,1.557745877653360367e-02,1.086083706468343735e-02,1.194247696548700333e-02,-1.737564243376255035e-02,1.836327090859413147e-02
-2.524225413799285889e-02,4.128237068653106689e-02,3.594105690717697144e-02,-6.800418347120285034e-02,-2.772803045809268951e-02,1.579232327640056610e-02,1.000929716974496841e-02,1.267195865511894226e-02,-1.643974147737026215e-02,1.908070035278797150e-02
-2.533431164920330048e-02,3.987700119614601135e-02,3.584596887230873108e-02,-6.691768765449523926e-02,-2.766306884586811066e-02,1.480819378048181534e-02,1.062514074146747589e-02,1.212667580693960190e-02,-1.519105304032564163e-02,1.879375241696834564e-02
-2.516328729689121246e-02,4.034809768199920654e-02,3.763559460639953613e-02,-6.805475801229476929e-02,-2.816409245133399963e-02,1.509056519716978073e-02,9.006223641335964203e-03,1.183044258505105972e-02,-1.407201774418354034e-02,1.801209338009357452e-02
-2.597944810986518860e-02,4.048561677336692810e-02,3.597306087613105774e-02,-6.745684891939163208e-02,-2.865826711058616638e-02,1.523168385028839111e-02,9.731333702802658081e-03,1.087179034948348999e-02,-1.313270907849073410e-02,1.872927136719226837e-02
-2.747190929949283600e-02,3.994256630539894104e-02,3.645463287830352783e-02,-6.685693562030792236e-02,-2.954090572893619537e-02,1.583169214427471161e-02,9.645952843129634857e-03,1.122373435646295547e-02,-1.261631678789854050e-02,1.843147166073322296e-02
-2.644142694771289825e-02,3.942962363362312317e-02,3.641471639275550842e-02,-6.716474145650863647e-02,-2.867507562041282654e-02,1.638106629252433777e-02,9.139225818216800690e-03,1.067561283707618713e-02,-1.279969979077577591e-02,1.815739087760448456e-02
-2.729011327028274536e-02,3.964514285326004028e-02,3.499115258455276489e-02,-6.640896946191787720e-02,-2.906365320086479187e-02,1.670469902455806732e-02,9.810683317482471466e-03,1.075842604041099548e-02,-1.221476867794990540e-02,1.768578588962554932e-02
-2.726498804986476898e-02,3.997742012143135071e-02,3.625128045678138733e-02,-6.673660874366760254e-02,-3.050343506038188934e-02,1.677117496728897095e-02,8.317308500409126282e-03,1.056657638400793076e-02,-1.170903723686933517e-02,1.837783493101596832e-02
-2.740095183253288269e-02,4.070424288511276245e-02,3.510053083300590515e-02,-6.632328778505325317e-02,-3.057178109884262085e-02,1.579510234296321869e-02,9.114293381571769714e-03,1.066601555794477463e-02,-1.086907833814620972e-02,1.790773309767246246e-02
-2.689707279205322266e-02,4.014514386653900146e-02,3.509331867098808289e-02,-6.628690659999847412e-02,-3.055300936102867126e-02,1.672896184027194977e-02,8.271059021353721619e-03,1.050281431525945663e-02,-9.792862460017204285e-03,1.640392094850540161e-02
-2.757328376173973083e-02,3.956188634037971497e-02,3.481494635343551636e-02,-6.638899445533752441e-02,-3.120805881917476654e-02,1.714644581079483032e-02,7.871765643358230591e-03,1.106411311775445938e-02,-9.393055923283100128e-03,1.704627275466918945e-02
-2.761101163923740387e-02,3.920014202594757080e-02,3.447230905294418335e-02,-6.591731309890747070e-02,-3.083829768002033234e-02,1.736849173903465271e-02,8.126701228320598602e-03,1.005961373448371887e-02,-9.241736494004726410e-03,1.700225658714771271e-02
-2.692977339029312134e-02,3.877488523721694946e-02,3.457430377602577209e-02,-6.539048999547958374e-02,-3.138147667050361633e-02,1.820019260048866272e-02,7.158928085118532181e-03,1.027529593557119370e-02,-8.763094432651996613e-03,1.566916145384311676e-02
-2.665667608380317688e-02,3.899205476045608521e-02,3.426589444279670715e-02,-6.555742025375366211e-02,-3.143993765115737915e-02,1.795630715787410736e-02,8.614685386419296265e-03,9.906571358442306519e-03,-1.031704153865575790e-02,1.716727018356323242e-02
-2.642320096492767334e-02,3.861315175890922546e-02,3.554185852408409119e-02,-6.554783135652542114e-02,-3.192423284053802490e-02,1.877090334892272949e-02,7.820767350494861603e-03,9.874289855360984802e-03,-1.015257742255926132e-02,1.615833677351474762e-02
-2.685050480067729950e-02,3.891202807426452637e-02,3.424392268061637878e-02,-6.557944416999816895e-02,-3.216179087758064270e-02,1.937836036086082458e-02,8.009018376469612122e-03,1.083037909120321274e-02,-9.933011606335639954e-03,1.565912365913391113e-02
