2.178918942809104919e-02,-2.044733241200447083e-02,3.420471027493476868e-02,2.603190205991268158e-02,6.268269498832523823e-04,-1.618102565407752991e-02,2.922629006206989288e-02,-5.478460714221000671e-02,-4.714122787117958069e-02,7.556810975074768066e-03
2.178918942809104919e-02,-2.044733241200447083e-02,3.420471027493476868e-02,2.603190205991268158e-02,6.268269498832523823e-04,-1.618102565407752991e-02,2.922629006206989288e-02,-5.478460714221000671e-02,-4.714122787117958069e-02,7.556810975074768066e-03
2.170494198799133301e-02,-2.038270421326160431e-02,3.422240912914276123e-02,2.623750641942024231e-02,4.864867369178682566e-04,-1.669356226921081543e-02,2.956780791282653809e-02,-5.462873727083206177e-02,-4.708579555153846741e-02,7.436282932758331299e-03
2.170494198799133301e-02,-2.038270421326160431e-02,3.422240912914276123e-02,2.623750641942024231e-02,4.864867369178682566e-04,-1.669356226921081543e-02,2.956780791282653809e-02,-5.462873727083206177e-02,-4.708579555153846741e-02,7.436282932758331299e-03
2.122090198099613190e-02,-2.008915878832340240e-02,3.447333350777626038e-02,2.622278034687042236e-02,-6.489447550848126411e-04,-1.575875468552112579e-02,2.939122356474399567e-02,-5.425276234745979309e-02,-4.675292596220970154e-02,7.199134677648544312e-03
2.122090198099613190e-02,-2.008915878832340240e-02,3.447333350777626038e-02,2.622278034687042236e-02,-6.489447550848126411e-04,-1.575875468552112579e-02,2.939122356474399567e-02,-5.425276234745979309e-02,-4.675292596220970154e-02,7.199134677648544312e-03
2.154043503105640411e-02,-1.987405866384506226e-02,3.435150161385536194e-02,2.619337663054466248e-02,-5.041491240262985229e-04,-1.550137251615524292e-02,2.993328496813774109e-02,-5.476655438542366028e-02,-4.740116000175476074e-02,6.953341886401176453e-03
2.154043503105640411e-02,-1.987405866384506226e-02,3.435150161385536194e-02,2.619337663054466248e-02,-5.041491240262985229e-04,-1.550137251615524292e-02,2.993328496813774109e-02,-5.476655438542366028e-02,-4.740116000175476074e-02,6.953341886401176453e-03
2.186293713748455048e-02,-2.072654105722904205e-02,3.460199758410453796e-02,2.619568444788455963e-02,-4.629624891094863415e-04,-1.591950282454490662e-02,2.924113348126411438e-02,-5.376457422971725464e-02,-4.752149432897567749e-02,7.521187886595726013e-03
2.186293713748455048e-02,-2.072654105722904205e-02,3.460199758410453796e-02,2.619568444788455963e-02,-4.629624891094863415e-04,-1.591950282454490662e-02,2.924113348126411438e-02,-5.376457422971725464e-02,-4.752149432897567749e-02,7.521187886595726013e-03
2.181838080286979675e-02,-2.083332836627960205e-02,3.397542983293533325e-02,2.678747475147247314e-02,-6.986890221014618874e-04,-1.544919703155755997e-02,2.938600070774555206e-02,-5.447437241673469543e-02,-4.742927476763725281e-02,7.981134578585624695e-03
2.181838080286979675e-02,-2.083332836627960205e-02,3.397542983293533325e-02,2.678747475147247314e-02,-6.986890221014618874e-04,-1.544919703155755997e-02,2.938600070774555206e-02,-5.447437241673469543e-02,-4.742927476763725281e-02,7.981134578585624695e-03
2.257750928401947021e-02,-2.155183069407939911e-02,3.512400388717651367e-02,2.614602632820606232e-02,-6.270065205171704292e-04,-1.580857671797275543e-02,2.974647097289562225e-02,-5.430207401514053345e-02,-4.738751426339149475e-02,7.105830125510692596e-03
2.257750928401947021e-02,-2.155183069407939911e-02,3.512400388717651367e-02,2.614602632820606232e-02,-6.270065205171704292e-04,-1.580857671797275543e-02,2.974647097289562225e-02,-5.430207401514053345e-02,-4.738751426339149475e-02,7.105830125510692596e-03
2.245170064270496368e-02,-2.153589203953742981e-02,3.608766943216323853e-02,2.671647071838378906e-02,-1.706679118797183037e-03,-1.592580415308475494e-02,2.903832681477069855e-02,-5.401382222771644592e-02,-4.670798033475875854e-02,6.598763633519411087e-03
2.245170064270496368e-02,-2.153589203953742981e-02,3.608766943216323853e-02,2.671647071838378906e-02,-1.706679118797183037e-03,-1.592580415308475494e-02,2.903832681477069855e-02,-5.401382222771644592e-02,-4.670798033475875854e-02,6.598763633519411087e-03
2.195188961923122406e-02,-2.241128496825695038e-02,3.689715266227722168e-02,2.715449593961238861e-02,-1.681872177869081497e-03,-1.607886701822280884e-02,2.927120961248874664e-02,-5.390941351652145386e-02,-4.679468274116516113e-02,6.642850115895271301e-03
2.195188961923122406e-02,-2.241128496825695038e-02,3.689715266227722168e-02,2.715449593961238861e-02,-1.681872177869081497e-03,-1.607886701822280884e-02,2.927120961248874664e-02,-5.390941351652145386e-02,-4.679468274116516113e-02,6.642850115895271301e-03
2.143641002476215363e-02,-2.184736914932727814e-02,3.746696189045906067e-02,2.763016149401664734e-02,-2.449830528348684311e-03,-1.574263349175453186e-02,2.935705147683620453e-02,-5.423934012651443481e-02,-4.765228554606437683e-02,7.016624324023723602e-03
2.143641002476215363e-02,-2.184736914932727814e-02,3.746696189045906067e-02,2.763016149401664734e-02,-2.449830528348684311e-03,-1.574263349175453186e-02,2.935705147683620453e-02,-5.423934012651443481e-02,-4.765228554606437683e-02,7.016624324023723602e-03
2.102201245725154877e-02,-2.173746936023235321e-02,3.686186298727989197e-02,2.776203118264675140e-02,-1.681372639723122120e-03,-1.534517854452133179e-02,2.891307137906551361e-02,-5.396725982427597046e-02,-4.764939844608306885e-02,6.836828775703907013e-03
2.102201245725154877e-02,-2.173746936023235321e-02,3.686186298727989197e-02,2.776203118264675140e-02,-1.681372639723122120e-03,-1.534517854452133179e-02,2.891307137906551361e-02,-5.396725982427597046e-02,-4.764939844608306885e-02,6.836828775703907013e-03
2.130770124495029449e-02,-2.093923091888427734e-02,3.629433736205101013e-02,2.772455289959907532e-02,-1.200591679662466049e-03,-1.584935747087001801e-02,2.891828119754791260e-02,-5.445280298590660095e-02,-4.746842756867408752e-02,6.627350579947233200e-03
2.130770124495029449e-02,-2.093923091888427734e-02,3.629433736205101013e-02,2.772455289959907532e-02,-1.200591679662466049e-03,-1.584935747087001801e-02,2.891828119754791260e-02,-5.445280298590660095e-02,-4.746842756867408752e-02,6.627350579947233200e-03
2.108586207032203674e-02,-2.118410356342792511e-02,3.569965809583663940e-02,2.820698916912078857e-02,-1.171425465145148337e-04,-1.565203070640563965e-02,2.961077354848384857e-02,-5.548511818051338196e-02,-4.815505817532539368e-02,6.981856189668178558e-03
2.108586207032203674e-02,-2.118410356342792511e-02,3.569965809583663940e-02,2.820698916912078857e-02,-1.171425465145148337e-04,-1.565203070640563965e-02,2.961077354848384857e-02,-5.548511818051338196e-02,-4.815505817532539368e-02,6.981856189668178558e-03
2.124646306037902832e-02,-2.174727246165275574e-02,3.531431779265403748e-02,2.866321802139282227e-02,5.442906985990703106e-04,-1.547457743436098099e-02,2.974732033908367157e-02,-5.563193932175636292e-02,-4.846495389938354492e-02,6.832593586295843124e-03
2.124646306037902832e-02,-2.174727246165275574e-02,3.531431779265403748e-02,2.866321802139282227e-02,5.442906985990703106e-04,-1.547457743436098099e-02,2.974732033908367157e-02,-5.563193932175636292e-02,-4.846495389938354492e-02,6.832593586295843124e-03
2.059050835669040680e-02,-2.273344993591308594e-02,3.604004532098770142e-02,2.857264876365661621e-02,2.167707134503871202e-04,-1.599849388003349304e-02,3.081147372722625732e-02,-5.555001646280288696e-02,-4.709314182400703430e-02,6.196540314704179764e-03
2.059050835669040680e-02,-2.273344993591308594e-02,3.604004532098770142e-02,2.857264876365661621e-02,2.167707134503871202e-04,-1.599849388003349304e-02,3.081147372722625732e-02,-5.555001646280288696e-02,-4.709314182400703430e-02,6.196540314704179764e-03
2.120911143720149994e-02,-2.493715845048427582e-02,3.587650135159492493e-02,3.032222948968410492e-02,9.886889019981026649e-04,-1.552701555192470551e-02,3.098034299910068512e-02,-5.626639351248741150e-02,-4.776820167899131775e-02,6.279210094362497330e-03
2.120911143720149994e-02,-2.493715845048427582e-02,3.587650135159492493e-02,3.032222948968410492e-02,9.886889019981026649e-04,-1.552701555192470551e-02,3.098034299910068512e-02,-5.626639351248741150e-02,-4.776820167899131775e-02,6.279210094362497330e-03
2.110636420547962189e-02,-2.571831084787845612e-02,3.742618113756179810e-02,3.103096038103103638e-02,8.339611231349408627e-04,-1.563104055821895599e-02,3.165844455361366272e-02,-5.716333538293838501e-02,-4.843006655573844910e-02,5.985556170344352722e-03
2.110636420547962189e-02,-2.571831084787845612e-02,3.742618113756179810e-02,3.103096038103103638e-02,8.339611231349408627e-04,-1.563104055821895599e-02,3.165844455361366272e-02,-5.716333538293838501e-02,-4.843006655573844910e-02,5.985556170344352722e-03
1.994922570884227753e-02,-2.762484177947044373e-02,3.857675939798355103e-02,3.130919486284255981e-02,1.083724666386842728e-03,-1.540560275316238403e-02,3.181648999452590942e-02,-5.686238780617713928e-02,-4.798772558569908142e-02,6.343063898384571075e-03
1.994922570884227753e-02,-2.762484177947044373e-02,3.857675939798355103e-02,3.130919486284255981e-02,1.083724666386842728e-03,-1.540560275316238403e-02,3.181648999452590942e-02,-5.686238780617713928e-02,-4.798772558569908142e-02,6.343063898384571075e-03
2.076533250510692596e-02,-3.089778497815132141e-02,3.899206966161727905e-02,3.201171383261680603e-02,1.120903762057423592e-03,-1.369561813771724701e-02,3.254423290491104126e-02,-5.793200805783271790e-02,-4.782951250672340393e-02,6.455506198108196259e-03
2.076533250510692596e-02,-3.089778497815132141e-02,3.899206966161727905e-02,3.201171383261680603e-02,1.120903762057423592e-03,-1.369561813771724701e-02,3.254423290491104126e-02,-5.793200805783271790e-02,-4.782951250672340393e-02,6.455506198108196259e-03
2.007660269737243652e-02,-3.127643093466758728e-02,3.916882351040840149e-02,3.285353258252143860e-02,1.670956145972013474e-03,-1.278595719486474991e-02,3.300860896706581116e-02,-5.893781408667564392e-02,-4.809657111763954163e-02,5.902971141040325165e-03
2.007660269737243652e-02,-3.127643093466758728e-02,3.916882351040840149e-02,3.285353258252143860e-02,1.670956145972013474e-03,-1.278595719486474991e-02,3.300860896706581116e-02,-5.893781408667564392e-02,-4.809657111763954163e-02,5.902971141040325165e-03
2.070414461195468903e-02,-3.185974806547164917e-02,3.899285569787025452e-02,3.208371624350547791e-02,1.533892704173922539e-03,-1.252774056047201157e-02,3.451820835471153259e-02,-5.900044366717338562e-02,-4.844922199845314026e-02,5.617627874016761780e-03
2.070414461195468903e-02,-3.185974806547164917e-02,3.899285569787025452e-02,3.208371624350547791e-02,1.533892704173922539e-03,-1.252774056047201157e-02,3.451820835471153259e-02,-5.900044366717338562e-02,-4.844922199845314026e-02,5.617627874016761780e-03
2.040111646056175232e-02,-3.351057320833206177e-02,3.858252242207527161e-02,3.210781887173652649e-02,2.215169137343764305e-03,-1.209688093513250351e-02,3.512946143746376038e-02,-5.886856839060783386e-02,-4.758819565176963806e-02,5.427626427263021469e-03
2.040111646056175232e-02,-3.351057320833206177e-02,3.858252242207527161e-02,3.210781887173652649e-02,2.215169137343764305e-03,-1.209688093513250351e-02,3.512946143746376038e-02,-5.886856839060783386e-02,-4.758819565176963806e-02,5.427626427263021469e-03
2.064539492130279541e-02,-3.532669320702552795e-02,4.008701071143150330e-02,3.299265354871749878e-02,1.159513019956648350e-03,-1.148799248039722443e-02,3.621023520827293396e-02,-5.951194465160369873e-02,-4.763970151543617249e-02,4.754503257572650909e-03
2.064539492130279541e-02,-3.532669320702552795e-02,4.008701071143150330e-02,3.299265354871749878e-02,1.159513019956648350e-03,-1.148799248039722443e-02,3.621023520827293396e-02,-5.951194465160369873e-02,-4.763970151543617249e-02,4.754503257572650909e-03
2.086115628480911255e-02,-3.701794147491455078e-02,4.024163633584976196e-02,3.217006847262382507e-02,1.341240014880895615e-03,-1.081285066902637482e-02,3.778262808918952942e-02,-6.010474264621734619e-02,-4.713145643472671509e-02,4.680266138166189194e-03
2.086115628480911255e-02,-3.701794147491455078e-02,4.024163633584976196e-02,3.217006847262382507e-02,1.341240014880895615e-03,-1.081285066902637482e-02,3.778262808918952942e-02,-6.010474264621734619e-02,-4.713145643472671509e-02,4.680266138166189194e-03
2.163686230778694153e-02,-3.855791315436363220e-02,4.014779627323150635e-02,3.284856677055358887e-02,1.033079694025218487e-03,-9.981164708733558655e-03,3.932026773691177368e-02,-6.162649765610694885e-02,-4.711923748254776001e-02,4.349201451987028122e-03
2.163686230778694153e-02,-3.855791315436363220e-02,4.014779627323150635e-02,3.284856677055358887e-02,1.033079694025218487e-03,-9.981164708733558655e-03,3.932026773691177368e-02,-6.162649765610694885e-02,-4.711923748254776001e-02,4.349201451987028122e-03
2.210665866732597351e-02,-4.081692174077033997e-02,4.091524705290794373e-02,3.431839495897293091e-02,8.202631142921745777e-04,-8.779779076576232910e-03,3.979445621371269226e-02,-6.330711394548416138e-02,-4.655425995588302612e-02,3.690606448799371719e-03
2.210665866732597351e-02,-4.081692174077033997e-02,4.091524705290794373e-02,3.431839495897293091e-02,8.202631142921745777e-04,-8.779779076576232910e-03,3.979445621371269226e-02,-6.330711394548416138e-02,-4.655425995588302612e-02,3.690606448799371719e-03
2.311551943421363831e-02,-4.312538355588912964e-02,4.145995900034904480e-02,3.522979840636253357e-02,3.753153141587972641e-04,-8.131966926157474518e-03,4.169914126396179199e-02,-6.469416618347167969e-02,-4.658839479088783264e-02,2.851634053513407707e-03
2.311551943421363831e-02,-4.312538355588912964e-02,4.145995900034904480e-02,3.522979840636253357e-02,3.753153141587972641e-04,-8.131966926157474518e-03,4.169914126396179199e-02,-6.469416618347167969e-02,-4.658839479088783264e-02,2.851634053513407707e-03
2.419297397136688232e-02,-4.599197208881378174e-02,4.188827797770500183e-02,3.683270141482353210e-02,6.342126289382576942e-04,-8.326316252350807190e-03,4.343067109584808350e-02,-6.689243763685226440e-02,-4.611720144748687744e-02,2.588084898889064789e-03
2.419297397136688232e-02,-4.599197208881378174e-02,4.188827797770500183e-02,3.683270141482353210e-02,6.342126289382576942e-04,-8.326316252350807190e-03,4.343067109584808350e-02,-6.689243763685226440e-02,-4.611720144748687744e-02,2.588084898889064789e-03
2.440505288541316986e-02,-4.986444860696792603e-02,4.168915003538131714e-02,3.965193033218383789e-02,1.097362139262259007e-03,-5.683840252459049225e-03,4.257173463702201843e-02,-6.861949712038040161e-02,-4.511934891343116760e-02,2.529640449211001396e-03
2.440505288541316986e-02,-4.986444860696792603e-02,4.168915003538131714e-02,3.965193033218383789e-02,1.097362139262259007e-03,-5.683840252459049225e-03,4.257173463702201843e-02,-6.861949712038040161e-02,-4.511934891343116760e-02,2.529640449211001396e-03
2.451250143349170685e-02,-5.331263318657875061e-02,4.403966665267944336e-02,4.119765013456344604e-02,5.649476079270243645e-04,-3.850801382213830948e-03,4.435578361153602600e-02,-7.020564377307891846e-02,-4.552980139851570129e-02,1.142314868047833443e-03
2.451250143349170685e-02,-5.331263318657875061e-02,4.403966665267944336e-02,4.119765013456344604e-02,5.649476079270243645e-04,-3.850801382213830948e-03,4.435578361153602600e-02,-7.020564377307891846e-02,-4.552980139851570129e-02,1.142314868047833443e-03
2.243166044354438782e-02,-5.528028681874275208e-02,4.581248387694358826e-02,4.334340617060661316e-02,4.959009238518774509e-04,-1.346551114693284035e-03,4.470883309841156006e-02,-7.158048450946807861e-02,-4.481360688805580139e-02,-5.739817861467599869e-04
2.243166044354438782e-02,-5.528028681874275208e-02,4.581248387694358826e-02,4.334340617060661316e-02,4.959009238518774509e-04,-1.346551114693284035e-03,4.470883309841156006e-02,-7.158048450946807861e-02,-4.481360688805580139e-02,-5.739817861467599869e-04
2.272962220013141632e-02,-5.865202471613883972e-02,4.744007438421249390e-02,4.582993686199188232e-02,7.244075823109596968e-05,-1.436683669453486800e-04,4.490577802062034607e-02,-7.440499216318130493e-02,-4.339475184679031372e-02,-9.513307595625519753e-04
2.272962220013141632e-02,-5.865202471613883972e-02,4.744007438421249390e-02,4.582993686199188232e-02,7.244075823109596968e-05,-1.436683669453486800e-04,4.490577802062034607e-02,-7.440499216318130493e-02,-4.339475184679031372e-02,-9.513307595625519753e-04
2.374751865863800049e-02,-6.273896992206573486e-02,5.024383589625358582e-02,4.701702296733856201e-02,-1.725817099213600159e-03,1.578128081746399403e-03,4.418767988681793213e-02,-7.388765364885330200e-02,-4.378934204578399658e-02,-1.047851517796516418e-03
2.374751865863800049e-02,-6.273896992206573486e-02,5.024383589625358582e-02,4.701702296733856201e-02,-1.725817099213600159e-03,1.578128081746399403e-03,4.418767988681793213e-02,-7.388765364885330200e-02,-4.378934204578399658e-02,-1.047851517796516418e-03
2.352937869727611542e-02,-6.588006019592285156e-02,5.154962837696075439e-02,4.811306297779083252e-02,-2.064920496195554733e-03,3.210280556231737137e-03,4.431123286485671997e-02,-7.361111044883728027e-02,-4.342518374323844910e-02,-1.867633312940597534e-03
2.352937869727611542e-02,-6.588006019592285156e-02,5.154962837696075439e-02,4.811306297779083252e-02,-2.064920496195554733e-03,3.210280556231737137e-03,4.431123286485671997e-02,-7.361111044883728027e-02,-4.342518374323844910e-02,-1.867633312940597534e-03
2.347565256059169769e-02,-6.792560964822769165e-02,5.117247253656387329e-02,4.841317608952522278e-02,-2.399057615548372269e-03,5.130487494170665741e-03,4.495071619749069214e-02,-7.360164076089859009e-02,-4.221061617136001587e-02,-2.925829961895942688e-03
2.347565256059169769e-02,-6.792560964822769165e-02,5.117247253656387329e-02,4.841317608952522278e-02,-2.399057615548372269e-03,5.130487494170665741e-03,4.495071619749069214e-02,-7.360164076089859009e-02,-4.221061617136001587e-02,-2.925829961895942688e-03
2.394454367458820343e-02,-6.978815048933029175e-02,5.084083974361419678e-02,4.900061711668968201e-02,-3.557158168405294418e-03,6.495184730738401413e-03,4.691582918167114258e-02,-7.525855302810668945e-02,-4.204521328210830688e-02,-2.273804740980267525e-03
2.394454367458820343e-02,-6.978815048933029175e-02,5.084083974361419678e-02,4.900061711668968201e-02,-3.557158168405294418e-03,6.495184730738401413e-03,4.691582918167114258e-02,-7.525855302810668945e-02,-4.204521328210830688e-02,-2.273804740980267525e-03
2.419351972639560699e-02,-7.294558733701705933e-02,5.193991214036941528e-02,5.052626878023147583e-02,-3.472342854365706444e-03,7.392970379441976547e-03,4.959865286946296692e-02,-7.753479480743408203e-02,-4.129870980978012085e-02,-3.883981378749012947e-03
2.419351972639560699e-02,-7.294558733701705933e-02,5.193991214036941528e-02,5.052626878023147583e-02,-3.472342854365706444e-03,7.392970379441976547e-03,4.959865286946296692e-02,-7.753479480743408203e-02,-4.129870980978012085e-02,-3.883981378749012947e-03
2.449848689138889313e-02,-7.623095065355300903e-02,5.244165286421775818e-02,5.132650583982467651e-02,-2.558131469413638115e-03,8.570592850446701050e-03,4.961756989359855652e-02,-7.785142213106155396e-02,-4.065291583538055420e-02,-4.351463168859481812e-03
2.449848689138889313e-02,-7.623095065355300903e-02,5.244165286421775818e-02,5.132650583982467651e-02,-2.558131469413638115e-03,8.570592850446701050e-03,4.961756989359855652e-02,-7.785142213106155396e-02,-4.065291583538055420e-02,-4.351463168859481812e-03
2.540154755115509033e-02,-7.962994277477264404e-02,5.272151157259941101e-02,5.177322030067443848e-02,-2.314680721610784531e-03,9.989787824451923370e-03,4.991732165217399597e-02,-7.867150008678436279e-02,-3.924550488591194153e-02,-4.806336015462875366e-03
2.540154755115509033e-02,-7.962994277477264404e-02,5.272151157259941101e-02,5.177322030067443848e-02,-2.314680721610784531e-03,9.989787824451923370e-03,4.991732165217399597e-02,-7.867150008678436279e-02,-3.924550488591194153e-02,-4.806336015462875366e-03
2.833940647542476654e-02,-8.392689377069473267e-02,5.280651897192001343e-02,5.346166342496871948e-02,-2.947905566543340683e-03,1.086180936545133591e-02,5.105642601847648621e-02,-8.115764707326889038e-02,-3.692216053605079651e-02,-6.113176234066486359e-03
2.833940647542476654e-02,-8.392689377069473267e-02,5.280651897192001343e-02,5.346166342496871948e-02,-2.947905566543340683e-03,1.086180936545133591e-02,5.105642601847648621e-02,-8.115764707326889038e-02,-3.692216053605079651e-02,-6.113176234066486359e-03
2.784215472638607025e-02,-8.621989190578460693e-02,5.321319028735160828e-02,5.559507012367248535e-02,-2.208370249718427658e-03,1.147162728011608124e-02,5.093109980225563049e-02,-8.306919038295745850e-02,-3.533509001135826111e-02,-6.488293875008821487e-03
2.784215472638607025e-02,-8.621989190578460693e-02,5.321319028735160828e-02,5.559507012367248535e-02,-2.208370249718427658e-03,1.147162728011608124e-02,5.093109980225563049e-02,-8.306919038295745850e-02,-3.533509001135826111e-02,-6.488293875008821487e-03
2.757447585463523865e-02,-8.912985026836395264e-02,5.452902615070343018e-02,5.768094584345817566e-02,-2.445910358801484108e-03,1.312407013028860092e-02,5.005346238613128662e-02,-8.395567536354064941e-02,-3.320051729679107666e-02,-8.294926024973392487e-03
2.757447585463523865e-02,-8.912985026836395264e-02,5.452902615070343018e-02,5.768094584345817566e-02,-2.445910358801484108e-03,1.312407013028860092e-02,5.005346238613128662e-02,-8.395567536354064941e-02,-3.320051729679107666e-02,-8.294926024973392487e-03
2.617209963500499725e-02,-9.013875573873519897e-02,5.436531826853752136e-02,5.912901833653450012e-02,-2.484512515366077423e-03,1.461963076144456863e-02,4.962484166026115417e-02,-8.453351259231567383e-02,-3.272095695137977600e-02,-7.958390749990940094e-03
2.617209963500499725e-02,-9.013875573873519897e-02,5.436531826853752136e-02,5.912901833653450012e-02,-2.484512515366077423e-03,1.461963076144456863e-02,4.962484166026115417e-02,-8.453351259231567383e-02,-3.272095695137977600e-02,-7.958390749990940094e-03
2.549803443253040314e-02,-9.197966754436492920e-02,5.456883087754249573e-02,6.087714061141014099e-02,-2.893961267545819283e-03,1.661645434796810150e-02,4.907049983739852905e-02,-8.477310836315155029e-02,-3.221108764410018921e-02,-8.566368371248245239e-03
2.549803443253040314e-02,-9.197966754436492920e-02,5.456883087754249573e-02,6.087714061141014099e-02,-2.893961267545819283e-03,1.661645434796810150e-02,4.907049983739852905e-02,-8.477310836315155029e-02,-3.221108764410018921e-02,-8.566368371248245239e-03
2.531254664063453674e-02,-9.386274963617324829e-02,5.522048473358154297e-02,6.241758912801742554e-02,-3.772710449993610382e-03,1.835564151406288147e-02,4.734795913100242615e-02,-8.560707420110702515e-02,-3.051132149994373322e-02,-8.559339679777622223e-03
2.531254664063453674e-02,-9.386274963617324829e-02,5.522048473358154297e-02,6.241758912801742554e-02,-3.772710449993610382e-03,1.835564151406288147e-02,4.734795913100242615e-02,-8.560707420110702515e-02,-3.051132149994373322e-02,-8.559339679777622223e-03
2.434884756803512573e-02,-9.627854824066162109e-02,5.510715395212173462e-02,6.362069398164749146e-02,-4.316811915487051010e-03,1.995874196290969849e-02,4.742971807718276978e-02,-8.483318239450454712e-02,-2.976471930742263794e-02,-8.760345168411731720e-03
2.434884756803512573e-02,-9.627854824066162109e-02,5.510715395212173462e-02,6.362069398164749146e-02,-4.316811915487051010e-03,1.995874196290969849e-02,4.742971807718276978e-02,-8.483318239450454712e-02,-2.976471930742263794e-02,-8.760345168411731720e-03
2.373208291828632355e-02,-9.634986519813537598e-02,5.454619973897933960e-02,6.355590373277664185e-02,-4.392996896058320999e-03,2.088963985443115234e-02,4.868401214480400085e-02,-8.536699414253234863e-02,-2.894873544573783875e-02,-9.797627106308937073e-03
2.373208291828632355e-02,-9.634986519813537598e-02,5.454619973897933960e-02,6.355590373277664185e-02,-4.392996896058320999e-03,2.088963985443115234e-02,4.868401214480400085e-02,-8.536699414253234863e-02,-2.894873544573783875e-02,-9.797627106308937073e-03
2.302946522831916809e-02,-9.726832062005996704e-02,5.494647473096847534e-02,6.426641345024108887e-02,-4.352891817688941956e-03,2.184182964265346527e-02,4.968247935175895691e-02,-8.639561384916305542e-02,-2.833117544651031494e-02,-1.077414304018020630e-02
2.302946522831916809e-02,-9.726832062005996704e-02,5.494647473096847534e-02,6.426641345024108887e-02,-4.352891817688941956e-03,2.184182964265346527e-02,4.968247935175895691e-02,-8.639561384916305542e-02,-2.833117544651031494e-02,-1.077414304018020630e-02
2.276072464883327484e-02,-9.957903623580932617e-02,5.458345264196395874e-02,6.534077227115631104e-02,-4.490396007895469666e-03,2.379365079104900360e-02,4.953898862004280090e-02,-8.730313181877136230e-02,-2.764893136918544769e-02,-1.009757537394762039e-02
2.276072464883327484e-02,-9.957903623580932617e-02,5.458345264196395874e-02,6.534077227115631104e-02,-4.490396007895469666e-03,2.379365079104900360e-02,4.953898862004280090e-02,-8.730313181877136230e-02,-2.764893136918544769e-02,-1.009757537394762039e-02
2.134850807487964630e-02,-1.026945412158966064e-01,5.494249239563941956e-02,6.813044100999832153e-02,-4.426391329616308212e-03,2.560299448668956757e-02,4.845000430941581726e-02,-8.737697452306747437e-02,-2.724266424775123596e-02,-9.595686569809913635e-03
2.134850807487964630e-02,-1.026945412158966064e-01,5.494249239563941956e-02,6.813044100999832153e-02,-4.426391329616308212e-03,2.560299448668956757e-02,4.845000430941581726e-02,-8.737697452306747437e-02,-2.724266424775123596e-02,-9.595686569809913635e-03
