5.570776760578155518e-02,-2.595723792910575867e-02,3.728032484650611877e-02,-2.626710198819637299e-02,6.776811182498931885e-02,-1.942947879433631897e-02,-5.107681453227996826e-02,-4.029103368520736694e-02,6.031044945120811462e-02,3.987468034029006958e-02
5.570776760578155518e-02,-2.595723792910575867e-02,3.728032484650611877e-02,-2.626710198819637299e-02,6.776811182498931885e-02,-1.942947879433631897e-02,-5.107681453227996826e-02,-4.029103368520736694e-02,6.031044945120811462e-02,3.987468034029006958e-02
5.333516374230384827e-02,-2.144635841250419617e-02,3.783469647169113159e-02,-3.131641820073127747e-02,7.941742241382598877e-02,-3.123965486884117126e-02,-5.478665977716445923e-02,-3.226717934012413025e-02,6.132641434669494629e-02,3.707638382911682129e-02
5.333516374230384827e-02,-2.144635841250419617e-02,3.783469647169113159e-02,-3.131641820073127747e-02,7.941742241382598877e-02,-3.123965486884117126e-02,-5.478665977716445923e-02,-3.226717934012413025e-02,6.132641434669494629e-02,3.707638382911682129e-02
5.359706655144691467e-02,-1.436391379684209824e-02,3.707542270421981812e-02,-3.140068054199218750e-02,8.397986739873886108e-02,-3.815588355064392090e-02,-5.891341343522071838e-02,-3.228415176272392273e-02,6.332222372293472290e-02,3.657709807157516479e-02
5.359706655144691467e-02,-1.436391379684209824e-02,3.707542270421981812e-02,-3.140068054199218750e-02,8.397986739873886108e-02,-3.815588355064392090e-02,-5.891341343522071838e-02,-3.228415176272392273e-02,6.332222372293472290e-02,3.657709807157516479e-02
5.513788014650344849e-02,-8.063039742410182953e-03,3.507786989212036133e-02,-3.048934787511825562e-02,8.884180337190628052e-02,-4.375147819519042969e-02,-6.105516478419303894e-02,-3.318154439330101013e-02,6.438727676868438721e-02,3.505820408463478088e-02
5.513788014650344849e-02,-8.063039742410182953e-03,3.507786989212036133e-02,-3.048934787511825562e-02,8.884180337190628052e-02,-4.375147819519042969e-02,-6.105516478419303894e-02,-3.318154439330101013e-02,6.438727676868438721e-02,3.505820408463478088e-02
5.597634613513946533e-02,-1.769700465956702828e-04,3.285681828856468201e-02,-3.065534867346286774e-02,9.231840074062347412e-02,-4.861156269907951355e-02,-6.381967663764953613e-02,-3.217957541346549988e-02,6.620366126298904419e-02,3.301816061139106750e-02
5.597634613513946533e-02,-1.769700465956702828e-04,3.285681828856468201e-02,-3.065534867346286774e-02,9.231840074062347412e-02,-4.861156269907951355e-02,-6.381967663764953613e-02,-3.217957541346549988e-02,6.620366126298904419e-02,3.301816061139106750e-02
5.937800556421279907e-02,5.446827970445156097e-03,3.136302903294563293e-02,-3.158102184534072876e-02,9.429713338613510132e-02,-5.393537506461143494e-02,-6.497222185134887695e-02,-3.149769082665443420e-02,6.768746674060821533e-02,3.239052370190620422e-02
5.937800556421279907e-02,5.446827970445156097e-03,3.136302903294563293e-02,-3.158102184534072876e-02,9.429713338613510132e-02,-5.393537506461143494e-02,-6.497222185134887695e-02,-3.149769082665443420e-02,6.768746674060821533e-02,3.239052370190620422e-02
6.051808223128318787e-02,1.151130441576242447e-02,2.935835532844066620e-02,-3.316445648670196533e-02,9.606679528951644897e-02,-5.783099681138992310e-02,-6.652820855379104614e-02,-3.211753442883491516e-02,6.955880671739578247e-02,3.380122780799865723e-02
6.051808223128318787e-02,1.151130441576242447e-02,2.935835532844066620e-02,-3.316445648670196533e-02,9.606679528951644897e-02,-5.783099681138992310e-02,-6.652820855379104614e-02,-3.211753442883491516e-02,6.955880671739578247e-02,3.380122780799865723e-02
6.213830411434173584e-02,1.583988033235073090e-02,2.693314105272293091e-02,-3.404266014695167542e-02,9.683442115783691406e-02,-6.074964255094528198e-02,-6.585419923067092896e-02,-3.012772276997566223e-02,7.044595479965209961e-02,3.292934224009513855e-02
6.213830411434173584e-02,1.583988033235073090e-02,2.693314105272293091e-02,-3.404266014695167542e-02,9.683442115783691406e-02,-6.074964255094528198e-02,-6.585419923067092896e-02,-3.012772276997566223e-02,7.044595479965209961e-02,3.292934224009513855e-02
6.405085325241088867e-02,2.164856716990470886e-02,2.656195312738418579e-02,-3.497491031885147095e-02,9.675872325897216797e-02,-6.510640680789947510e-02,-6.720025837421417236e-02,-3.051121719181537628e-02,7.234326750040054321e-02,3.366427496075630188e-02
6.405085325241088867e-02,2.164856716990470886e-02,2.656195312738418579e-02,-3.497491031885147095e-02,9.675872325897216797e-02,-6.510640680789947510e-02,-6.720025837421417236e-02,-3.051121719181537628e-02,7.234326750040054321e-02,3.366427496075630188e-02
6.522311270236968994e-02,2.531222626566886902e-02,2.560523338615894318e-02,-3.714339435100555420e-02,9.836071729660034180e-02,-6.919747591018676758e-02,-6.679420173168182373e-02,-2.991840057075023651e-02,7.423081248998641968e-02,3.423181176185607910e-02
6.522311270236968994e-02,2.531222626566886902e-02,2.560523338615894318e-02,-3.714339435100555420e-02,9.836071729660034180e-02,-6.919747591018676758e-02,-6.679420173168182373e-02,-2.991840057075023651e-02,7.423081248998641968e-02,3.423181176185607910e-02
6.595008075237274170e-02,3.123582713305950165e-02,2.392662502825260162e-02,-3.826337680220603943e-02,9.889189898967742920e-02,-7.162495702505111694e-02,-6.720884144306182861e-02,-2.915500104427337646e-02,7.418811321258544922e-02,3.543231263756752014e-02
6.595008075237274170e-02,3.123582713305950165e-02,2.392662502825260162e-02,-3.826337680220603943e-02,9.889189898967742920e-02,-7.162495702505111694e-02,-6.720884144306182861e-02,-2.915500104427337646e-02,7.418811321258544922e-02,3.543231263756752014e-02
6.678561866283416748e-02,3.365603461861610413e-02,2.247244305908679962e-02,-3.776899352669715881e-02,1.001827344298362732e-01,-7.395468652248382568e-02,-6.824289262294769287e-02,-2.833642996847629547e-02,7.546264678239822388e-02,3.464129194617271423e-02
6.678561866283416748e-02,3.365603461861610413e-02,2.247244305908679962e-02,-3.776899352669715881e-02,1.001827344298362732e-01,-7.395468652248382568e-02,-6.824289262294769287e-02,-2.833642996847629547e-02,7.546264678239822388e-02,3.464129194617271423e-02
6.769448518753051758e-02,3.827080875635147095e-02,2.202174440026283264e-02,-4.029456153512001038e-02,9.889411181211471558e-02,-7.660150527954101562e-02,-6.833373010158538818e-02,-2.676409296691417694e-02,7.735460996627807617e-02,3.529667109251022339e-02
6.769448518753051758e-02,3.827080875635147095e-02,2.202174440026283264e-02,-4.029456153512001038e-02,9.889411181211471558e-02,-7.660150527954101562e-02,-6.833373010158538818e-02,-2.676409296691417694e-02,7.735460996627807617e-02,3.529667109251022339e-02
6.884396821260452271e-02,4.029248282313346863e-02,2.167846634984016418e-02,-4.184978827834129333e-02,1.006551906466484070e-01,-8.007834851741790771e-02,-6.738170981407165527e-02,-2.590936049818992615e-02,7.800003141164779663e-02,3.567864745855331421e-02
6.884396821260452271e-02,4.029248282313346863e-02,2.167846634984016418e-02,-4.184978827834129333e-02,1.006551906466484070e-01,-8.007834851741790771e-02,-6.738170981407165527e-02,-2.590936049818992615e-02,7.800003141164779663e-02,3.567864745855331421e-02
7.014219462871551514e-02,4.476600512862205505e-02,2.108504809439182281e-02,-4.342552274465560913e-02,1.018221154808998108e-01,-8.240187168121337891e-02,-6.956176459789276123e-02,-2.496434189379215240e-02,7.910434901714324951e-02,3.568657115101814270e-02
7.014219462871551514e-02,4.476600512862205505e-02,2.108504809439182281e-02,-4.342552274465560913e-02,1.018221154808998108e-01,-8.240187168121337891e-02,-6.956176459789276123e-02,-2.496434189379215240e-02,7.910434901714324951e-02,3.568657115101814270e-02
7.116646319627761841e-02,4.538324102759361267e-02,2.025399729609489441e-02,-4.502200335264205933e-02,1.004637330770492554e-01,-8.351597934961318970e-02,-6.901422142982482910e-02,-2.360613830387592316e-02,8.011098206043243408e-02,3.696776553988456726e-02
7.116646319627761841e-02,4.538324102759361267e-02,2.025399729609489441e-02,-4.502200335264205933e-02,1.004637330770492554e-01,-8.351597934961318970e-02,-6.901422142982482910e-02,-2.360613830387592316e-02,8.011098206043243408e-02,3.696776553988456726e-02
7.113681733608245850e-02,4.991862177848815918e-02,1.954153925180435181e-02,-4.630226641893386841e-02,1.000455841422080994e-01,-8.612722903490066528e-02,-6.868247687816619873e-02,-2.297073043882846832e-02,8.210279047489166260e-02,3.699928522109985352e-02
7.113681733608245850e-02,4.991862177848815918e-02,1.954153925180435181e-02,-4.630226641893386841e-02,1.000455841422080994e-01,-8.612722903490066528e-02,-6.868247687816619873e-02,-2.297073043882846832e-02,8.210279047489166260e-02,3.699928522109985352e-02
7.304412871599197388e-02,5.194228887557983398e-02,1.926738582551479340e-02,-4.700892046093940735e-02,1.000717505812644958e-01,-8.652395009994506836e-02,-6.921958178281784058e-02,-2.375988103449344635e-02,8.275503665208816528e-02,3.667833656072616577e-02
7.304412871599197388e-02,5.194228887557983398e-02,1.926738582551479340e-02,-4.700892046093940735e-02,1.000717505812644958e-01,-8.652395009994506836e-02,-6.921958178281784058e-02,-2.375988103449344635e-02,8.275503665208816528e-02,3.667833656072616577e-02
7.480727881193161011e-02,5.495180934667587280e-02,1.792131736874580383e-02,-4.790934920310974121e-02,9.900129586458206177e-02,-8.939513564109802246e-02,-6.777722388505935669e-02,-2.268452942371368408e-02,8.310583978891372681e-02,3.818277269601821899e-02
7.480727881193161011e-02,5.495180934667587280e-02,1.792131736874580383e-02,-4.790934920310974121e-02,9.900129586458206177e-02,-8.939513564109802246e-02,-6.777722388505935669e-02,-2.268452942371368408e-02,8.310583978891372681e-02,3.818277269601821899e-02
7.397307455539703369e-02,5.769086629152297974e-02,1.783181540668010712e-02,-4.922208562493324280e-02,9.930817782878875732e-02,-9.131868183612823486e-02,-6.723643094301223755e-02,-2.212468348443508148e-02,8.518607169389724731e-02,3.759695589542388916e-02
7.397307455539703369e-02,5.769086629152297974e-02,1.783181540668010712e-02,-4.922208562493324280e-02,9.930817782878875732e-02,-9.131868183612823486e-02,-6.723643094301223755e-02,-2.212468348443508148e-02,8.518607169389724731e-02,3.759695589542388916e-02
7.501520216464996338e-02,5.882519856095314026e-02,1.731030829250812531e-02,-5.070034042000770569e-02,9.848938137292861938e-02,-9.215056151151657104e-02,-6.745801120996475220e-02,-1.934123598039150238e-02,8.580741286277770996e-02,3.708807006478309631e-02
7.501520216464996338e-02,5.882519856095314026e-02,1.731030829250812531e-02,-5.070034042000770569e-02,9.848938137292861938e-02,-9.215056151151657104e-02,-6.745801120996475220e-02,-1.934123598039150238e-02,8.580741286277770996e-02,3.708807006478309631e-02
7.526443153619766235e-02,6.211680546402931213e-02,1.786107197403907776e-02,-5.202539637684822083e-02,9.865152090787887573e-02,-9.392007440328598022e-02,-6.787342578172683716e-02,-1.920953951776027679e-02,8.566671609878540039e-02,3.816437348723411560e-02
7.526443153619766235e-02,6.211680546402931213e-02,1.786107197403907776e-02,-5.202539637684822083e-02,9.865152090787887573e-02,-9.392007440328598022e-02,-6.787342578172683716e-02,-1.920953951776027679e-02,8.566671609878540039e-02,3.816437348723411560e-02
7.751785963773727417e-02,6.360492110252380371e-02,1.761522330343723297e-02,-5.316381156444549561e-02,9.871397912502288818e-02,-9.611291438341140747e-02,-6.645354628562927246e-02,-1.928980834782123566e-02,8.685069531202316284e-02,3.787307441234588623e-02
7.751785963773727417e-02,6.360492110252380371e-02,1.761522330343723297e-02,-5.316381156444549561e-02,9.871397912502288818e-02,-9.611291438341140747e-02,-6.645354628562927246e-02,-1.928980834782123566e-02,8.685069531202316284e-02,3.787307441234588623e-02
7.648961246013641357e-02,6.677066534757614136e-02,1.733781956136226654e-02,-5.399367585778236389e-02,9.874992817640304565e-02,-9.688830375671386719e-02,-6.812199950218200684e-02,-1.919830031692981720e-02,8.734479546546936035e-02,3.928424045443534851e-02
7.648961246013641357e-02,6.677066534757614136e-02,1.733781956136226654e-02,-5.399367585778236389e-02,9.874992817640304565e-02,-9.688830375671386719e-02,-6.812199950218200684e-02,-1.919830031692981720e-02,8.734479546546936035e-02,3.928424045443534851e-02
7.628036290407180786e-02,6.908452510833740234e-02,1.770403794944286346e-02,-5.468170717358589172e-02,9.738841652870178223e-02,-9.908093512058258057e-02,-6.678762286901473999e-02,-1.765553839504718781e-02,8.854742348194122314e-02,3.849183768033981323e-02
7.628036290407180786e-02,6.908452510833740234e-02,1.770403794944286346e-02,-5.468170717358589172e-02,9.738841652870178223e-02,-9.908093512058258057e-02,-6.678762286901473999e-02,-1.765553839504718781e-02,8.854742348194122314e-02,3.849183768033981323e-02
7.769560813903808594e-02,6.777131557464599609e-02,1.723697967827320099e-02,-5.662092939019203186e-02,9.834664314985275269e-02,-1.000549048185348511e-01,-6.737630069255828857e-02,-1.730330847203731537e-02,8.995509892702102661e-02,3.961833938956260681e-02
7.769560813903808594e-02,6.777131557464599609e-02,1.723697967827320099e-02,-5.662092939019203186e-02,9.834664314985275269e-02,-1.000549048185348511e-01,-6.737630069255828857e-02,-1.730330847203731537e-02,8.995509892702102661e-02,3.961833938956260681e-02
7.842001318931579590e-02,7.222618907690048218e-02,1.779703050851821899e-02,-5.763434618711471558e-02,9.701071679592132568e-02,-1.019654721021652222e-01,-6.739886105060577393e-02,-1.661830395460128784e-02,9.034984558820724487e-02,3.958705812692642212e-02
7.842001318931579590e-02,7.222618907690048218e-02,1.779703050851821899e-02,-5.763434618711471558e-02,9.701071679592132568e-02,-1.019654721021652222e-01,-6.739886105060577393e-02,-1.661830395460128784e-02,9.034984558820724487e-02,3.958705812692642212e-02
7.917353510856628418e-02,7.295733690261840820e-02,1.725915633141994476e-02,-5.842689424753189087e-02,9.710227698087692261e-02,-1.037168428301811218e-01,-6.526196748018264771e-02,-1.649728044867515564e-02,9.137261658906936646e-02,3.950598090887069702e-02
7.917353510856628418e-02,7.295733690261840820e-02,1.725915633141994476e-02,-5.842689424753189087e-02,9.710227698087692261e-02,-1.037168428301811218e-01,-6.526196748018264771e-02,-1.649728044867515564e-02,9.137261658906936646e-02,3.950598090887069702e-02
7.912535220384597778e-02,7.541393488645553589e-02,1.672904938459396362e-02,-5.856677889823913574e-02,9.684471040964126587e-02,-1.031749024987220764e-01,-6.587660312652587891e-02,-1.540552545338869095e-02,9.079439938068389893e-02,3.874792903661727905e-02
7.912535220384597778e-02,7.541393488645553589e-02,1.672904938459396362e-02,-5.856677889823913574e-02,9.684471040964126587e-02,-1.031749024987220764e-01,-6.587660312652587891e-02,-1.540552545338869095e-02,9.079439938068389893e-02,3.874792903661727905e-02
8.007887005805969238e-02,7.582467794418334961e-02,1.624594442546367645e-02,-6.025347113609313965e-02,9.732107073068618774e-02,-1.041773036122322083e-01,-6.809058040380477905e-02,-1.413537934422492981e-02,9.275884926319122314e-02,3.886908665299415588e-02
8.007887005805969238e-02,7.582467794418334961e-02,1.624594442546367645e-02,-6.025347113609313965e-02,9.732107073068618774e-02,-1.041773036122322083e-01,-6.809058040380477905e-02,-1.413537934422492981e-02,9.275884926319122314e-02,3.886908665299415588e-02
