2.145274169743061066e-02,-3.871291130781173706e-02,1.801261305809020996e-02,2.215714938938617706e-02,-4.516366403549909592e-03,1.161011680960655212e-02,-3.747185319662094116e-02,8.302514441311359406e-03,9.586517699062824249e-03,5.164223536849021912e-02
1.855472661554813385e-02,-3.878602385520935059e-02,1.856526359915733337e-02,2.441145479679107666e-02,-6.583922542631626129e-03,8.193579502403736115e-03,-3.895747289061546326e-02,1.264339033514261246e-02,1.177451666444540024e-02,5.254054814577102661e-02
1.682622730731964111e-02,-3.707014024257659912e-02,1.755907572805881500e-02,2.505168505012989044e-02,-6.109920796006917953e-03,8.706507273018360138e-03,-4.051461815834045410e-02,1.594587415456771851e-02,8.307260461151599884e-03,5.389170721173286438e-02
1.602605171501636505e-02,-3.603586181998252869e-02,1.726753637194633484e-02,2.313327416777610779e-02,-5.373356863856315613e-03,8.685595355927944183e-03,-4.126614332199096680e-02,1.855797879397869110e-02,5.776583217084407806e-03,5.646539106965065002e-02
1.565108820796012878e-02,-3.551016747951507568e-02,1.609192788600921631e-02,2.340638637542724609e-02,-4.976046737283468246e-03,8.073795586824417114e-03,-4.132240265607833862e-02,1.973582990467548370e-02,3.909591585397720337e-03,5.828319489955902100e-02
1.385197043418884277e-02,-3.459353372454643250e-02,1.602126657962799072e-02,2.197441831231117249e-02,-3.500033169984817505e-03,8.986799046397209167e-03,-4.327380657196044922e-02,2.172728814184665680e-02,3.535093273967504501e-03,5.889262631535530090e-02
1.263781264424324036e-02,-3.270245343446731567e-02,1.501700840890407562e-02,2.237344719469547272e-02,-2.610744675621390343e-03,9.612105786800384521e-03,-4.479174315929412842e-02,2.268395200371742249e-02,2.224949887022376060e-03,5.920920148491859436e-02
1.180778816342353821e-02,-3.166061639785766602e-02,1.580516621470451355e-02,2.196264639496803284e-02,-3.083976451307535172e-03,8.976044133305549622e-03,-4.546650499105453491e-02,2.354338578879833221e-02,2.044498687610030174e-03,5.997072905302047729e-02
1.216533780097961426e-02,-3.153694421052932739e-02,1.279589720070362091e-02,2.153096161782741547e-02,-1.220869249664247036e-03,8.378596976399421692e-03,-4.600896313786506653e-02,2.370359003543853760e-02,3.391125705093145370e-03,6.041738390922546387e-02
1.119108218699693680e-02,-3.102494776248931885e-02,1.323560532182455063e-02,2.088976837694644928e-02,-1.739450264722108841e-03,8.687211200594902039e-03,-4.651720821857452393e-02,2.498405613005161285e-02,3.421495668590068817e-03,6.058436259627342224e-02
1.079596672207117081e-02,-3.110714070498943329e-02,1.328694168478250504e-02,2.167083509266376495e-02,-1.177066122181713581e-03,7.671348750591278076e-03,-4.719933494925498962e-02,2.415809407830238342e-02,3.524531377479434013e-03,6.170099973678588867e-02
1.084186974912881851e-02,-3.115627355873584747e-02,1.237471774220466614e-02,2.198941260576248169e-02,-2.255470608361065388e-04,7.269267458468675613e-03,-4.919696971774101257e-02,2.544270642101764679e-02,4.340252839028835297e-03,6.128011271357536316e-02
1.004594564437866211e-02,-3.033479116857051849e-02,1.232547685503959656e-02,2.186116948723793030e-02,-5.470744799822568893e-04,7.052550092339515686e-03,-5.010068044066429138e-02,2.455491572618484497e-02,6.222152616828680038e-03,6.096637994050979614e-02
1.032351702451705933e-02,-3.168986737728118896e-02,1.268567051738500595e-02,2.152681350708007812e-02,-8.009480079635977745e-04,6.546811200678348541e-03,-4.873264953494071960e-02,2.433191239833831787e-02,6.155478302389383316e-03,6.194219365715980530e-02
8.469422347843647003e-03,-3.182730078697204590e-02,1.360094547271728516e-02,2.174154296517372131e-02,2.565360628068447113e-04,5.740537308156490326e-03,-4.929049685597419739e-02,2.443671040236949921e-02,6.275840103626251221e-03,6.259372830390930176e-02
8.690032176673412323e-03,-3.271794691681861877e-02,1.128034386783838272e-02,2.263531647622585297e-02,3.607947146520018578e-04,5.818735342472791672e-03,-4.973521828651428223e-02,2.484171092510223389e-02,7.784339133650064468e-03,6.217610463500022888e-02
8.645534515380859375e-03,-3.375300392508506775e-02,1.195507217198610306e-02,2.252727001905441284e-02,-1.719764259178191423e-05,5.239926278591156006e-03,-4.968291148543357849e-02,2.472281083464622498e-02,9.178570471704006195e-03,6.181722506880760193e-02
8.975140750408172607e-03,-3.404607251286506653e-02,1.291175186634063721e-02,2.269279398024082184e-02,-1.825049694161862135e-04,6.099252961575984955e-03,-5.124027654528617859e-02,2.438866347074508667e-02,8.887669071555137634e-03,6.177226826548576355e-02
9.596783667802810669e-03,-3.469787910580635071e-02,1.231580693274736404e-02,2.356874197721481323e-02,-5.940466508036479354e-06,5.220948718488216400e-03,-5.166753754019737244e-02,2.371618151664733887e-02,9.715903550386428833e-03,6.209005415439605713e-02
8.424213156104087830e-03,-3.442494571208953857e-02,1.264628302305936813e-02,2.327087894082069397e-02,-7.348631042987108231e-04,5.674933549016714096e-03,-5.220467224717140198e-02,2.364785224199295044e-02,1.033007446676492691e-02,6.253725290298461914e-02
8.742905221879482269e-03,-3.582993149757385254e-02,1.293263398110866547e-02,2.431100979447364807e-02,-1.253501744940876961e-03,5.428446456789970398e-03,-5.291933566331863403e-02,2.413311786949634552e-02,1.139977760612964630e-02,6.150529161095619202e-02
9.794044308364391327e-03,-3.688668087124824524e-02,1.379789598286151886e-02,2.330742590129375458e-02,-2.910160983446985483e-04,5.332352593541145325e-03,-5.341168120503425598e-02,2.198380231857299805e-02,1.270840410143136978e-02,6.166321039199829102e-02
9.111721999943256378e-03,-3.768562525510787964e-02,1.333635393530130386e-02,2.375245839357376099e-02,-4.810351529158651829e-04,5.693953018635511398e-03,-5.325745046138763428e-02,2.309635467827320099e-02,1.326474454253911972e-02,6.070017442107200623e-02
8.851718157529830933e-03,-3.814084827899932861e-02,1.325564365833997726e-02,2.372689545154571533e-02,-4.660761624108999968e-05,5.535957869142293930e-03,-5.373192206025123596e-02,2.306621894240379333e-02,1.348034664988517761e-02,6.130373850464820862e-02
9.292806498706340790e-03,-3.906717151403427124e-02,1.321936119347810745e-02,2.504973672330379486e-02,3.599604533519595861e-04,5.182803142815828323e-03,-5.471545830368995667e-02,2.212328277528285980e-02,1.434409990906715393e-02,6.071202829480171204e-02
9.341766126453876495e-03,-3.932350873947143555e-02,1.473222859203815460e-02,2.472008951008319855e-02,-6.065921043045818806e-04,5.684407427906990051e-03,-5.584870278835296631e-02,2.202514745295047760e-02,1.457449886947870255e-02,6.080284714698791504e-02
9.638250805437564850e-03,-4.031244292855262756e-02,1.508665177971124649e-02,2.621313370764255524e-02,-1.482517225667834282e-03,5.402706563472747803e-03,-5.587239563465118408e-02,2.171551436185836792e-02,1.496847718954086304e-02,6.015051156282424927e-02
9.180068969726562500e-03,-4.245180264115333557e-02,1.651958562433719635e-02,2.587548084557056427e-02,-9.158329339697957039e-04,5.602320656180381775e-03,-5.562856793403625488e-02,2.179856225848197937e-02,1.546169165521860123e-02,5.971990898251533508e-02
1.053963694721460342e-02,-4.274734854698181152e-02,1.514266803860664368e-02,2.695340290665626526e-02,-5.894160130992531776e-04,5.544937681406736374e-03,-5.764049291610717773e-02,2.087301388382911682e-02,1.615005731582641602e-02,5.995898693799972534e-02
1.053982693701982498e-02,-4.293572157621383667e-02,1.493659149855375290e-02,2.649365551769733429e-02,-5.881075048819184303e-04,6.366307847201824188e-03,-5.764416605234146118e-02,2.122014574706554413e-02,1.634142175316810608e-02,5.931840091943740845e-02
